1.488858
0.0052227587
0.1964276
0.24866869
1.3571541
-0.0024134163
0.21169996
0.3743322
1.3946924
-0.009856624
0.11564364
0.10353741
1.323134
-0.012925811
0.14166524
0.20790437
1.6493607
-0.017948786
0.03401423
0.0306376
1.4211383
-0.029421447
0.065404
0.09822333
1.4060066
-0.01222112
0.30339965
0.29700506
1.2386892
-0.0203735
0.25118545
0.2976356
1.2622287
-0.009695978
0.24280903
0.30491543
1.347088
-0.00046315705
0.18827526
0.25944087
1.3025464
0.0056083733
0.26509994
0.46636733
1.5326782
-0.0075584664
0.046237867
0.054774962
1.3211061
-0.02701649
0.25756016
0.35572714
1.3614546
-0.005458399
0.15521799
0.16625424
1.2663858
-0.00022455047
0.108908474
0.15934643
1.3717424
-0.015072685
0.18244508
0.1363387
1.543793
-0.016126413
0.20142801
0.18279625
1.528469
-0.019914601
0.13692747
0.16983569
1.4076318
-0.003631946
0.14554513
0.20549801
1.2913965
-0.0075316406
0.27403024
0.31531656
1.301666
-0.0026900982
0.19875476
0.36241654
1.5051801
-0.0053857355
0.18963382
0.19875328
1.5509536
-0.013012457
0.123907454
0.17723668
1.5031825
-0.0335759
0.090094626
0.11069864
1.270987
0.00024623534
0.35179743
0.62155
1.5659375
-0.027321516
0.08949922
0.11572447
1.3844029
-0.010566892
0.2676745
0.3942276
1.3866417
-0.00781878
0.15336384
0.1834491
1.5193261
-0.012485112
0.089085385
0.13631283
1.3642457
-0.010702176
0.27185524
0.5034616
1.4455364
-0.015280516
0.09649406
0.0509361
1.496873
-0.012185565
0.16234903
0.23844369
