0.08530203
0.037012182
-0.2133453
0.071288124
0.052272845
0.13298109
-0.025579866
-0.053893678
0.09414291
0.09786834
-0.06378835
-0.10739412
-0.121948645
-0.067622915
0.11808583
-0.1264746
-0.09727635
-0.08182364
-0.04921899
0.048303314
0.2313938
-0.018039396
-0.06026659
0.13605319
0.06444865
0.047669288
0.08329693
0.21010475
0.17441987
0.123256326
0.007237994
-0.10858094
0.06446517
0.0720394
0.044514336
0.010312712
-0.00577676
-0.117040925
-0.0746003
0.011159999
-0.104793526
0.029201321
0.020324538
0.010451097
0.044503044
0.041974694
0.06533632
-0.040587973
0.060474318
-0.10302615
0.09769349
0.022186924
-0.09371868
-0.11579635
0.03350684
0.030925542
0.04765401
-0.047085874
0.06598385
-0.06169132
-0.025275111
0.081129715
0.054719128
0.0986019
0.052595094
0.04399041
0.046617962
0.020608772
-0.015369129
-0.028790062
0.039686546
0.04885524
-0.0036412654
-0.04447645
-0.005317861
0.0026236908
-0.048082992
0.021218307
-0.04054887
0.006007938
-0.048658416
-0.025013743
-0.012352242
-0.016323268
-0.07914208
0.012765137
-0.0434406
-0.0065037715
-0.054506097
0.05906366
-0.113641575
0.063306734
-0.06446631
0.020157725
0.004941457
-0.05507916
-0.01657127
0.09881867
-0.14695702
-0.041627403
-0.06134667
0.11574463
0.025336202
-0.012413055
-0.011908496
-0.06288715
0.10130609
0.11294377
-0.027322238
-0.0020285915
0.069106326
-0.021866018
-0.09540012
0.013705508
0.036239803
0.045394365
0.08647746
-0.11681548
-0.08210645
0.07913448
0.022409424
0.0051314766
0.09961816
0.004455381
-0.016688608
0.10648326
0.091213144
-0.09736552
-0.03486027
-0.13081957
-0.04538876
-0.10390005
0.029353375
0.102500536
-0.009201291
-0.0953317
0.05978383
0.062275037
0.0016592876
0.09340522
-0.06350954
0.025668774
0.08905447
-0.087623715
-0.100456506
-0.010259866
0.005282679
0.03587006
0.11760168
0.0043527316
-0.06735265
-0.07406704
0.025195062
0.05570946
0.059887987
0.01423385
0.07670712
0.07261749
-0.0024929808
-0.037851874
-0.044199906
0.15020849
-0.06502147
-0.08300436
-0.108616486
0.022674803
0.060285706
0.011344012
0.030685296
-0.05723073
0.051755156
-0.08470766
0.0098936865
0.022882838
-0.028079707
-0.10666048
0.07247453
-0.027537292
-0.02808677
-0.11664817
-0.010064437
-0.008623877
0.014033823
0.058460116
0.092043966
-0.039542306
-0.08771105
-0.08611058
0.06849001
-0.07674431
0.022667222
0.04683812
0.036329307
0.06720154
-0.04784868
-0.025755286
-0.071312904
-0.020571247
-0.041778766
-0.016913667
-0.11532376
-0.051133756
-0.0059680883
-0.029395517
-0.031152472
-0.039828483
0.011792453
-0.035890397
0.032461822
-0.07869452
-0.11162047
0.067987144
-0.072040915
-0.08388134
-0.077745356
0.11096763
-0.07252631
-0.136694
0.054861326
-0.05638423
-0.052873585
-0.009052202
-0.093098804
-0.041036673
-0.010436281
-0.048132252
0.08973007
-0.0632472
0.06618529
-0.043207154
-0.026883692
0.109658346
-0.18941644
-0.043777928
0.05689783
0.044127364
-0.02209064
-0.0010334007
0.022040887
0.0072694165
0.05413145
0.043715026
-0.033939697
0.08581001
-0.047879875
0.012423937
-0.16513428
-0.10385487
-0.06761684
-0.086506724
-0.07806532
-0.10498174
0.1284268
-0.0361799
0.054239564
0.09145041
-0.075370945
0.008971325
-0.120384656
-0.03938991
-0.017375508
-0.037377287
0.06562319
0.055914063
0.054150846
-0.022305584
-0.08309981
0.03764412
0.01626568
-0.056269743
-0.07388565
0.0046647876
-0.019780109
0.022305282
-0.05390492
-0.11563325
0.06897424
0.040453106
-0.029989794
0.05209134
0.06730227
-0.111088015
-0.004806445
-0.056100268
0.03243943
0.050127465
-0.037024736
-0.031900942
-0.020032424
-0.011803719
-0.055855714
0.05012271
-0.07225247
-0.11720915
-0.012218513
0.08345187
-0.0865338
0.11084858
-0.018422963
0.004688171
-0.08367845
-0.04130701
0.08065413
-0.07473749
-0.10293284
-0.058775034
-0.0050892183
0.06566639
-0.005535784
-0.035391428
-0.05193508
0.11620843
-0.043459225
-0.10630854
0.014852399
0.10711856
-0.05424097
0.060489092
-0.050751936
-0.12681392
0.033496175
-0.039249264
-0.114165574
-0.058291238
0.08575776
0.18312588
-0.090466686
-0.09130716
0.04693882
0.07632004
0.01490025
0.08282266
-0.11711943
-0.023119226
0.07828022
0.01188857
0.008104715
-0.029090587
-0.072518915
0.05438222
0.16541183
-0.1042115
-0.038125508
0.13243458
-0.10921279
0.10888613
0.048400395
0.11756812
0.061498795
0.12574244
0.090187505
-0.048016265
-0.015986724
0.07561371
-0.16937166
0.148729
-0.042459775
0.09316343
0.030859027
0.013805526
0.12667128
0.082891524
-0.015739322
-0.05894319
0.12116344
0.051319093
-0.04582523
-0.14800984
-0.022679513
-0.0054478645
-0.06413515
0.07883981
-0.011262968
-0.07576936
-0.122896366
0.0943157
0.069440246
0.03479627
0.21662317
0.03987991
0.08046981
0.19780254
0.0061385776
0.03879067
-0.019591574
0.063186236
0.089336485
-0.011254159
-0.015615715
-0.02497751
0.030181171
-0.020509848
0.0094767725
0.112210296
0.063304685
-0.08812528
0.0069204886
-0.0022679411
-0.11200171
0.013234285
0.073080435
0.079466216
-0.022506967
0.057813235
0.10834612
0.08591939
-0.066608414
-0.036177453
-0.112456836
0.06338164
0.0028513751
-0.015673436
0.017784838
0.037327778
0.018839857
-0.08434797
0.1499494
-0.06727254
0.08472837
0.07747552
0.1214657
-0.09192033
-0.06808871
0.07433244
-0.051798988
0.05086105
0.020987501
0.01861641
-0.032401703
0.023512755
-0.07435302
0.18405381
-0.17131601
0.10126646
0.048250806
-0.02236969
0.12232415
-0.03752181
0.02335068
-0.07284586
-0.12857176
0.110885955
0.05526543
-0.08616526
0.15066935
-0.007949507
0.108523756
0.0761995
0.020506838
0.01058191
-0.029931033
0.06724902
0.00031830557
0.0074345297
-0.0035309745
-0.06001865
-0.0124424985
-0.046389766
0.009920498
-0.010664059
0.068131834
0.05743495
-0.07003167
-0.02115584
-0.1905531
0.04320195
-0.04366927
-0.075179175
0.08341384
-0.076061964
0.020028833
0.05868366
-0.000173935
-0.10586052
0.09555851
-0.08513049
-0.087342784
0.038072325
-0.053957798
0.0033930256
0.008941377
-0.027865691
0.02561707
0.07633116
0.06071159
-0.00917409
0.039590918
-0.106417164
-0.08956955
-0.032047212
0.05195181
0.04132807
-0.025140963
0.030139275
-0.069190145
-0.043979175
-0.11952013
0.10158366
0.04720273
-0.03370802
0.08284009
-0.013947901
-0.19351695
0.050276637
-0.053993158
-0.07891983
0.09817935
0.058859617
0.061621323
0.06984393
-0.07565599
-0.100884594
0.12302944
-0.051179886
-0.11132136
0.006852265
0.038589194
0.024186231
-0.11318919
-0.04207885
0.13578472
-0.023061682
-0.101188175
0.0001414527
-0.037065085
0.03827372
0.026616119
0.10929814
-0.14919913
0.105781734
-0.092014566
0.101906076
0.040884953
0.012197465
-0.21082668
-0.033933807
-0.01992068
0.020226052
0.13400653
-0.0070212013
0.1783988
0.03440446
0.07744133
-0.0374634
-0.03720345
0.011032009
-0.04267593
0.036292348
-0.019564863
-0.052726876
0.06419627
-0.014640895
-0.07409755
-0.11750315
0.037720926
-0.103897564
0.04155427
-0.017358262
-0.08314975
0.072131515
-0.011063196
-0.02272622
-0.0123858545
0.0065787574
0.058744024
0.09395201
-0.03794822
0.08345208
0.11499323
0.088298105
0.041145924
0.05568113
0.08658093
-0.013267504
0.081427015
-0.07081033
0.06100231
-0.14354531
0.07202822
0.022906385
-0.022108424
-0.008208303
0.0011560889
0.06624367
0.010029302
-0.016417708
0.020185644
0.102893926
0.040605567
0.007720263
-0.07350767
0.02994444
-0.014018554
0.00029578622
0.0053576925
0.08676037
0.02230099
-0.036264572
-0.15081045
0.03735398
0.079442926
0.039026253
-0.0027722337
0.0018544437
0.05045173
-0.0518882
0.08749113
-0.06993066
0.07037416
-0.14268853
-0.035335697
-0.05448334
-0.035673466
0.035607576
-0.045937438
-0.1650852
0.017486071
-0.14162394
-0.12970161
-0.05518338
-0.11184195
-0.021469345
-0.031862162
0.12332078
-0.08467864
0.04788618
0.06738547
0.1383618
0.09735058
0.118260846
0.07163479
-0.04529784
-0.08511097
-0.042196173
-0.024982
0.01754363
0.012092921
-0.07254276
-0.00038344268
-0.03891499
0.08882293
-0.037998438
0.00036101477
-0.015249948
0.027854571
0.109845094
-0.07934448
0.0041662473
0.13283072
-0.09565487
-0.09183882
0.009167228
0.016906414
0.04830087
-0.0937014
0.0486868
0.021462994
0.0572073
0.07407003
0.025591966
0.005120898
0.08904771
0.059752002
-0.09851761
-0.08091898
0.0105671715
0.04392348
-0.034517147
0.01841084
0.0049841707
0.08706999
0.0096103875
-0.111041844
-0.042570256
-0.045788877
-0.1759038
0.012537477
-0.025183534
-0.018283138
-0.10024498
-0.031054324
-0.08172465
-0.05562639
0.0074834353
-0.1462931
0.027923636
-0.012826039
-0.057950262
-0.11624381
-0.051575564
-0.10956833
-0.061949942
-0.03357423
0.008757005
0.029184783
-0.12345863
-0.0029419735
0.03570371
0.018154783
0.019685028
0.05665939
-0.08181895
-0.060649768
-0.0963849
0.015921459
-0.015409603
-0.11827733
-0.04841285
-0.02680038
0.09687407
-0.019858848
-0.07775665
-0.0555538
-0.019311765
0.019504694
0.035435326
-0.089139365
0.06226704
0.020962464
0.08333325
-0.1278998
0.042459514
-0.12827015
0.1159223
0.06104787
-0.042533714
-0.05466485
-0.011356561
-0.068956956
-0.0482141
-0.020757597
0.009236028
-0.13104147
-0.03914342
-0.024155077
0.007571132
0.09042032
0.012955132
0.0316146
0.06641951
-0.034435105
-0.115771085
0.016969986
-0.060724005
-0.17290725
-0.020830335
-0.003267223
0.08920145
0.08134597
0.026146663
-0.09449959
0.040725715
0.047359455
-0.004179821
-0.0568661
-0.12974823
-0.0006229203
0.02933585
-0.051337
0.08720601
0.039869107
0.062207326
-0.076455
0.097770095
-0.022982683
-0.15648796
0.04848691
0.07116152
-0.023765417
-0.042435296
0.024990628
0.04071569
-0.04968796
-0.00929821
-0.09623027
-0.04368019
-0.054712016
0.07621034
-0.033636473
0.06368672
0.028487867
0.09295517
0.044547524
-0.17485432
0.038541723
0.0028033003
0.032365736
-0.016986273
-0.10448835
-0.0031696733
-0.15775366
0.055615645
0.042440202
-0.07611283
-0.014076103
0.059372097
-0.0355827
0.07001585
-0.07286665
0.0462287
0.027407886
-0.018934786
0.037172034
0.04386717
-0.0074261907
0.0051123984
-0.11861072
-0.0021895336
0.010507455
-0.030952841
-0.11971997
0.008566569
0.1033745
-0.017523756
-0.0048894724
0.05664189
0.016523145
-0.0034888873
0.110434845
0.05163625
0.027424552
0.11086083
-0.110404156
0.04940148
0.0703561
-0.005639977
0.08901569
0.10012834
-0.08706864
-0.017419606
0.06083008
-0.13660018
-0.019727712
0.2096916
0.051784378
0.047276046
0.03131715
0.11308189
-0.12591597
0.003466576
0.08807283
-0.040125135
-0.1653661
0.008615321
-0.17105813
0.06588909
-0.024135191
0.15751995
-0.0947317
0.065229505
-0.039743014
0.03168952
0.020003788
0.07996456
-0.16543055
-0.051599838
0.005372724
0.062923804
0.12558559
0.13330841
0.052274007
-0.04226353
0.07395968
0.072804965
0.10329727
-0.033050597
-0.041614532
0.17434888
0.036966126
-0.026169006
-0.04244362
-0.08911675
0.058577005
-0.06089604
-0.0009114946
0.0065693287
-0.12482544
0.052457552
-0.030738268
0.07138633
-0.11282009
-0.026749844
-0.00020055944
0.090868175
0.06823138
0.10268449
-0.19998568
0.056256913
-0.06447829
0.014529807
0.20403439
-0.012326376
-0.037445787
-0.0753298
-0.019058138
-0.1451441
0.018371252
-0.081215054
0.01912749
0.08961881
0.04510853
0.032194287
0.018754413
-0.069726214
0.0058446573
0.07276162
-0.091337785
0.0030857862
0.018214159
-0.03116676
-0.055132024
0.075141475
0.0150414
0.03970191
0.055130653
0.06758076
-0.026874037
0.020383485
-0.009331593
-0.058547832
0.05203128
-0.100820124
0.13205509
0.016042233
-0.062401064
-0.13344786
-0.10543
0.04676651
0.07577456
0.06047834
0.09562998
0.09529932
0.106650285
0.023426922
-0.11227807
0.014585372
-0.01429823
0.054787103
0.06190377
-0.07990039
0.07845523
0.02307198
0.100425795
-0.01722105
-0.113381475
0.078676075
-0.06845996
-0.09545751
-0.043345883
0.037505735
-0.0610773
-0.12511946
0.105472185
0.09323743
0.108863614
-0.11003476
0.029610077
0.01220358
0.025400933
-0.007299917
-0.0005565818
-0.081885554
0.06994799
0.026975743
0.07903045
-0.027045831
0.04554133
-0.07570667
0.039660554
-0.10584615
-0.017415516
0.0031220848
0.024105685
-0.10585125
-0.039500374
-0.031163912
0.10175799
0.045674097
-0.06786872
-0.03281768
0.025267202
0.035795655
0.0137298135
-0.061373
-0.01941812
0.049043186
-0.118728116
-0.027882222
-0.08054358
-0.055697296
-0.054534238
-0.10667004
-0.051563226
-0.042326294
0.019380497
0.048786186
-0.07160371
-0.008870177
0.11254365
-0.035335194
-0.010296452
-0.02878108
-0.09365245
-0.0061437176
-0.019849664
-0.06976682
0.05128531
-0.010649889
-0.026959678
0.064186424
-0.025565505
0.13212664
-0.0768022
0.13071585
-0.054260615
-0.14374056
-0.0814862
0.06719436
0.06904728
-0.040190525
0.08737363
-0.08113058
0.049380396
-0.06423192
-0.05049621
0.14119649
0.17845306
-0.11630416
0.042589337
0.03096262
0.025273478
0.121903315
-0.041687474
-0.0053417683
-0.14911471
0.033385966
-0.07249934
-0.057957366
-0.15679677
0.045250345
0.12937799
0.05076879
-0.0138371475
-0.005775675
-0.11049496
0.03968631
0.0033010514
-0.0005533454
0.08066974
-0.039782662
-0.035861716
-0.042368658
0.1695904
-0.12773865
0.11035594
-0.03597384
0.04656223
0.016467014
0.023346772
-0.08381964
-0.05606309
-0.06784293
-0.11196839
-0.027898015
0.047404774
-0.056650504
-0.009319249
0.08043806
0.04641342
0.116874754
-0.05825276
-0.06250183
0.06560582
0.03622602
0.08010196
0.07589079
0.014588334
-0.033983126
-0.081795685
-0.022033423
0.063308775
0.08704433
0.107498795
-0.08778497
-0.054438524
-0.11850296
0.03875585
-0.019191213
0.043756045
0.00030295487
0.03954821
-0.05766362
0.0047397967
0.023831224
0.0735182
0.017088104
-0.031668015
-0.013464599
-0.07496706
-0.092570245
0.05148751
-0.08731723
0.083062015
0.06400707
-0.09594565
0.021862134
-0.08178291
0.1018281
-0.058431286
-0.016730456
0.023011146
0.0317998
0.03590577
-0.005421565
-0.053963866
-0.035906576
-0.05878767
0.010260207
-0.08728783
-0.026975146
0.01661534
0.04374316
0.111775786
0.05024139
-0.09309449
0.02315498
-0.06296796
-0.033684626
0.08108316
-0.14659505
0.0144802565
0.048138224
0.039392594
0.083634466
-0.1095242
0.070121
0.082289755
0.04296731
0.1355881
0.07036451
-0.06686881
0.05832947
-0.023956822
0.028899644
-0.09473521
-0.045372292
-0.057395462
0.09574774
-0.021763464
-0.05530446
-0.019620134
0.07146922
0.06158131
-0.048150558
0.006536564
-0.03258425
-0.048158057
-0.116388835
0.039616622
-0.046413537
0.03903532
-0.11975258
-0.03827095
-0.07014564
-0.09514345
-0.011017622
-0.07841279
-0.11841709
0.18576431
0.04720365
-0.05071499
0.018046992
-0.079090394
-0.10536705
-0.09363305
0.0884193
0.03944056
-0.018684566
0.05595381
0.11421639
0.07752904
-0.1613963
0.10937099
-0.012282368
-0.07230223
0.047887508
-0.04932798
-0.03916287
0.043282554
0.015572525
-0.088753454
0.0048820027
0.044023268
-0.050219186
0.018140044
-0.044690814
-0.121880725
-0.0025835657
0.012829296
0.044580854
-0.05477586
-0.0986998
-0.13054714
-0.03301713
0.09932701
0.10744604
0.060469046
0.04774419
-0.020962471
-0.015136267
-0.0072222743
-0.048110887
0.04403123
0.04204803
-0.13060245
0.1070508
-0.007083987
-0.03357874
-0.007763869
0.041921742
-0.091578946
0.12865621
0.031034803
-0.09741136
0.015529075
-0.048948433
-0.0219562
-0.033357598
0.050020304
0.058091592
-0.064302765
0.02300596
-0.0050044158
0.04267873
-0.07653966
0.025722237
-0.0054010414
-0.10603509
-0.13035767
-0.09670288
0.0503052
-0.047114354
-0.042673543
-0.033353664
-0.028140455
-0.05615291
-0.03745683
0.017317044
-0.028589372
-0.0054916316
-0.08386993
-0.048204012
-0.08616206
0.056184012
0.04495927
0.09145337
-0.0938165
0.0075354534
-0.06044027
-0.108154915
-0.0010344204
-0.07008099
0.0046858196
0.038790107
-0.052334737
-0.0047023194
-0.065877736
0.0046092886
0.039815042
0.012706404
-0.071125835
-0.05167683
-0.06485446
0.048166182
0.032199875
0.12648682
-0.060106587
0.064608365
0.082140125
0.10345398
0.07247517
-0.112539545
-0.037606493
-0.14355914
-0.057537187
-0.13547227
0.007019071
0.05505894
0.073599964
0.03299703
0.06517992
-0.0025962978
-0.051989798
-0.076270185
-0.020465087
-0.055173237
0.002026537
-0.06460601
-0.066931054
-0.025499718
-0.08039407
0.08840271
0.07812013
-0.14979275
-0.09973411
0.070099704
-0.0791162
0.080898255
0.09771395
0.01986613
-0.1072646
-0.055715404
-0.056111336
-0.039622683
0.09419614
0.08305433
0.0010052482
-0.12953591
0.06834704
0.06425783
-0.051599357
0.008498489
0.060907867
-0.079580285
0.0086469045
0.10091756
-0.023269974
0.0074755535
0.049751345
-0.08989544
-0.100657314
-0.10137092
-0.0542772
-0.07549236
0.047672138
-0.03314004
0.119564585
0.034501486
-0.03263233
0.025108514
-0.054075215
-0.05168916
0.011358087
0.050739463
0.08691657
0.0829031
0.025964728
-0.0687099
-0.009947937
-0.057965025
0.05165683
0.085391596
0.1574533
0.035920065
-0.16292834
-0.10249586
-0.10652512
0.05841109
-0.013626494
-0.04110236
0.09853501
0.035008293
0.0005352224
-0.06570088
0.000101759244
-0.06276842
-0.083881535
-0.030303324
0.027424091
0.08134827
-0.036865365
-0.05767938
0.09376107
-0.04564136
-0.051347762
0.07880178
0.06885252
0.019554468
0.07140196
0.035842013
0.073004656
0.021988623
-0.046928216
-0.063015334
0.038404327
-0.13029347
-0.082983725
-0.075792536
-0.17688856
-0.0030992466
-0.11725375
0.09164593
-0.02859408
0.10088438
0.122507624
0.0989296
-0.054272383
-0.059834655
0.031232733
-0.029945655
-0.021765387
-0.05511725
0.12467758
0.021913934
-0.009150239
-0.1403071
-0.06293923
-0.074804805
0.06919278
-0.10650778
-0.086838916
0.106212854
-0.093444765
0.038070768
0.011240066
0.07027352
-0.018092567
-0.02793653
-0.08525412
0.085766196
0.07444153
0.028077034
0.022650475
-0.0867627
0.03676522
-0.0025607652
0.049085967
0.05064254
0.019657511
-0.0067008086
-0.04934335
0.091719955
0.09047508
0.06731622
-0.0066930973
0.034115646
0.062804945
0.070971064
0.028447675
-0.0547488
-0.027759086
0.058325585
0.086590886
0.00072536146
0.0843041
-0.031626668
0.051659007
0.031419035
0.010679166
0.078846596
0.076979846
0.07186535
-0.17722642
0.08773832
-0.07889917
-0.052225206
-0.12003947
0.016670212
-0.03031948
-0.043817807
-0.050470527
-0.0659246
-0.08297127
0.09180834
0.073184155
0.025508314
-0.03772934
-0.10637673
-0.09900573
-0.059374467
0.08212386
-0.02918187
-0.078394
0.0708483
0.15955941
-0.030087417
-0.005157405
0.065224215
-0.05934336
0.0020507518
0.01350097
0.056271054
-0.092883594
-0.12323929
0.0017864405
-0.13794461
-0.06918251
-0.0048380345
-0.15529466
0.054488707
-0.0029851021
-0.043031793
0.09582742
0.049079884
0.001688044
0.13740641
0.01902959
0.0018904487
0.03184395
0.05120387
-0.041784372
0.031466134
0.10932856
-0.020166053
0.07714398
-0.076481625
0.19146463
-0.045476764
-0.08062069
-0.013137046
-0.042306118
0.13426724
0.024134493
-0.0147194145
0.011696859
-0.027438765
-0.006526204
-0.029515026
-0.039345574
-0.084373236
0.06647157
-0.054624133
0.05355939
0.0009386953
-0.10727817
-0.09756686
0.043737702
-0.009878482
0.15466611
-0.115408614
-0.05453181
0.015005413
0.053396698
-0.08979224
-0.025098972
-0.047885165
0.1081877
-0.09497082
-0.13503125
-0.17446494
-0.004999205
-0.05872913
-0.12614429
-0.02740031
0.09530308
0.028476316
-0.08236256
0.042408086
-0.07622447
-0.07599106
-0.0713067
-0.109763466
-0.021436376
0.011322422
-0.020209504
-0.0015742976
0.13423114
-0.06743189
0.04694654
-0.11586518
-0.070634544
0.093463205
0.041914657
0.10616012
0.13893872
0.060823668
0.05328756
0.00822563
0.082017906
0.033361305
0.0012520368
-0.052251164
-0.017182449
-0.05588089
-0.100315586
-0.041715275
0.05046493
-0.07153876
-0.020924412
-0.033345755
-0.08058906
-0.092715725
0.03982079
-0.0790201
-0.049912676
-0.08332307
-0.06131929
-0.08785683
0.05947576
0.041064497
-0.08955418
0.07788825
-0.12975201
-0.112887636
0.017225165
0.05929672
0.035055548
-0.053174227
0.008252272
-0.085018955
-0.033471078
0.059312344
-0.053078383
-0.106418334
-0.058114637
0.004644927
-0.11235068
-0.010288308
0.03925763
-0.085129336
0.0033219703
0.024955695
-0.085193686
-0.009810236
-0.0072781225
-0.103753656
-0.07833397
-0.101967655
0.042114716
-0.036686298
0.03236508
-0.009658891
0.045336176
-0.062459577
-0.09412435
0.029923512
-0.034291066
-0.00399726
-0.03894955
-0.0074788504
0.046575356
-0.042125236
0.048228938
0.026137926
0.052768815
-0.03019771
-0.038996227
0.09082705
-0.01482827
-0.065980956
0.04271468
-0.049081612
0.021408372
-0.015554061
0.045334164
-0.020164227
0.010987192
-0.08643624
-0.15489316
-0.002901911
-0.030290045
-0.029951459
-0.036130685
-0.05754708
0.0036793966
-0.05655756
-0.108434685
0.12510253
-0.0526468
-0.03368328
0.092380844
-0.031152153
-0.07028293
0.040122133
0.081420474
-0.2065558
0.04924982
0.040545728
-0.076247245
0.04655586
0.051255573
-0.067562
0.023178972
0.011746093
-0.06238916
0.09508913
-0.07473169
0.058611535
-0.061532147
0.004301053
-0.11456818
-0.016310524
0.023345806
-0.04577441
-0.035117943
-0.041067995
0.060577217
-0.062695816
-0.053152893
0.120517716
-0.060545348
0.08243657
0.04863674
-0.006739299
-0.028468298
-0.018819643
-0.08123871
0.15157734
-0.15053396
-0.043475557
-0.08642348
0.026738008
-0.022538472
0.12383481
0.038150266
0.07687612
-0.14070344
0.012409635
-0.0923708
-0.05523562
0.043029197
-0.00064614374
-0.011199709
0.032315765
0.03759943
-0.17170075
0.010642693
0.014534159
-0.08650717
0.023982277
0.03136363
0.0061001075
0.046659805
-0.048375808
-0.09443438
0.030345531
-0.02361996
0.0770299
-0.018706674
0.017038753
-0.004117558
0.005526903
-0.098048516
-0.07283572
-0.07383627
-0.048091304
-0.053054158
-0.031187763
0.08250769
-0.06910865
0.01358614
-0.107338436
-0.02585327
-0.007356786
0.030712308
-0.19229071
-0.00041125063
-0.021910924
0.008984104
0.01449994
-0.0018928294
0.0918132
0.021472048
0.06483029
0.061350986
0.03957221
0.07389119
-0.010491575
0.04100111
-0.06374885
-0.08825093
0.08614689
-0.023809716
-0.15920526
-0.036270134
-0.007723884
0.06398531
0.015440616
-0.019449854
0.021888629
-0.05645019
-0.045170523
0.016801216
-0.05307796
-0.05028193
-0.025274897
0.1178294
0.0232135
0.025714178
-0.10398074
0.06713276
0.07256772
0.030998418
0.021556767
-0.034037583
-0.023578463
0.057325043
-0.013474959
-0.01641114
-0.106963694
-0.008536316
0.060758993
0.06497101
0.049748316
-0.02670599
0.08206642
0.024479894
-0.022482371
0.050112266
0.06770562
-0.10160521
0.026993537
-0.047018863
0.037256878
-0.04145012
0.06446228
0.082925096
0.0027459112
0.020486964
-0.101036556
0.06684431
-0.036772467
-0.14467469
-0.113534346
-0.06844266
0.010037049
0.098621614
0.017043186
0.07318002
0.042077396
0.06899364
-0.141945
-0.007829316
0.040791802
-0.02177691
-0.043162845
-0.07532642
0.055179834
-0.11052796
0.03996654
-0.11869233
-0.067022316
0.030197088
-0.0448682
0.09166256
-0.010907198
0.011246644
0.1730596
0.097474016
0.06721115
-0.007480981
-0.054280207
0.15565266
0.11159295
0.06948956
-0.08940319
-0.081630446
-0.030372582
-0.0046720193
-0.020145975
0.033739615
-0.02105053
-0.08293145
0.0939384
-0.028413348
-0.048659872
0.12225992
0.046003323
0.06973205
-0.028914584
0.007640378
-0.004563877
-0.0626862
-0.070404224
0.04780223
0.14426488
-0.058017444
0.13876796
0.013122626
0.11682253
-0.022596445
-0.04997711
0.053827696
0.011442525
-0.010788328
-0.037545666
0.12036532
-0.13373709
-0.016125336
0.039538074
-0.119825676
0.030100023
-0.028830152
-0.03036606
0.026225932
0.059999198
0.038336642
-0.06009337
0.059918202
0.124764115
-0.12923145
-0.095881335
-0.13234577
0.106244564
-0.015017474
0.06800938
0.005020099
-0.03025628
-0.075272426
0.09171066
-0.14380558
-0.059744228
0.11513081
-0.07654839
-0.14162056
-0.012394353
0.064900085
0.113644965
-0.00016645968
-0.083154686
0.06500575
0.04785316
0.04321564
-0.043898977
0.119366944
0.12433467
0.022134552
0.046522062
0.045474913
-0.07698693
0.060322516
-0.08396607
0.09735045
0.014663005
0.01843211
0.016412605
0.07387446
0.027404137
0.070719354
0.07735694
-0.04828551
-0.098471574
0.023304084
0.08238471
-0.010997901
0.07800376
-0.051329043
0.024855569
-0.037011236
0.00666307
-0.00050949777
0.037829325
-0.1103754
0.04201226
0.0034935258
0.05727388
-0.07859684
0.091096655
0.051352147
0.023258192
-0.010741008
-0.08440203
0.05156235
0.058649093
-0.017133988
0.02366547
-0.0105568385
0.0536579
-0.013199071
-0.0765968
0.07374621
-0.1343357
0.022562785
0.07231804
-0.04548203
-0.08279236
-0.11845523
0.07748567
-0.07176061
-0.04499873
0.036324006
0.026685396
-0.03693893
0.008824164
0.08934013
0.075442754
-0.13911253
-0.05019921
0.020632874
-0.09591204
-0.0052473093
0.118361734
0.037265826
0.084453925
0.023709599
0.043457784
0.039844565
0.026048852
0.080976516
-0.05192971
-0.08292825
-0.029882232
0.050141476
-0.15003884
-0.055002816
0.07069484
0.07068173
-0.044353068
0.046040423
0.03458841
-0.025909126
-0.12840998
-0.022886964
0.0509395
-0.089301065
0.05191306
0.017843304
0.03833903
-0.09807248
0.0016577118
-0.07895374
-0.086111754
0.032235548
-0.07598529
-0.021080144
0.0094427345
0.08595467
-0.036505304
-0.052710682
0.047541395
-0.031140096
-0.025828358
0.032612916
-0.021187048
-0.03466119
0.015353201
-0.034232974
0.0140063
-0.012038107
0.0073433113
0.06169576
0.085881196
-0.0507156
-0.042076804
-0.08602768
0.0701291
-0.080627054
-0.13455454
0.026464565
0.062875204
0.08119566
-0.07000675
0.031849615
-0.08587353
0.016373383
-0.009244578
0.075236104
0.051193684
-0.025010219
-0.09784096
0.07412485
-0.032932933
0.055621553
0.032968815
-0.04297961
-0.058180735
0.10628667
-0.024178468
-0.013428291
-0.025289448
0.026003035
0.026432933
-0.1776742
0.14440146
-0.13334994
-0.120807774
0.0013869592
-0.117749006
0.038921475
0.0451476
-0.08270304
-0.022985265
0.007261293
0.12166049
0.06575519
0.118409656
0.21435714
0.03477437
0.1974623
0.06934204
0.040057927
-0.052690208
-0.03406499
0.03151851
0.07384077
-0.085887715
-0.02356624
-0.08321422
-0.018927025
0.085201465
0.053051643
-0.070591524
0.07054088
-0.07450113
-0.029129812
0.07281247
0.053663526
-0.04993719
0.08556884
-0.061964404
-0.14188707
0.10537708
-0.0036919587
0.11815148
-0.040852167
0.04845391
0.072947
0.10050298
-0.05735799
-0.053302903
0.0645761
0.031053342
-0.056306966
-0.21565993
0.045104835
-0.038768187
-0.030040365
-0.023300942
-0.17136417
-0.13861461
0.014435949
-0.0995415
-0.08492665
0.119274676
-0.18370165
-0.011165574
0.047737923
0.07072408
-0.069046296
0.07893022
-0.03617544
-0.020478303
0.005688906
0.08087676
-0.05333719
-0.16456807
-0.025882367
0.06591979
-0.036896605
-0.013193137
0.020889908
-0.06783682
0.12819889
0.07673705
0.08765987
-0.053446915
0.13901755
-0.1513787
0.1259752
0.041261822
0.033160895
-0.15061805
0.07819252
-0.109997146
0.13524047
-0.09362332
0.014678504
-0.100003436
-0.099345736
0.055409376
-0.06020718
-0.06739054
-0.15655744
-0.045255464
-0.011892089
0.059220575
0.012626257
-0.026915237
-0.0709627
0.040335514
-0.019218976
0.06424495
0.065528415
0.007857751
-0.0457972
0.15805516
0.0461404
-0.007842204
0.10819894
-0.11903932
0.06482941
0.054404166
-0.06537284
-0.09684362
0.05846981
-0.12712362
0.023868183
0.0608444
-0.025679866
-0.12203376
0.021774212
0.031937674
-0.017008537
0.048695907
0.060188167
0.019603888
0.11026669
-0.034717377
0.096435264
-0.123245955
-0.020722918
-0.03799959
-0.048825253
-0.00884063
0.00010199848
0.06396323
0.1833118
0.056364592
-0.09711959
0.086037554
-0.050011314
0.10851011
-0.10784854
-0.17932937
0.010551623
-0.076322146
-0.046741877
0.010469015
-0.16341169
0.085483894
0.0007879289
0.07449181
-0.053874422
-0.03138297
-0.09110187
-0.1296462
0.022798456
-0.1626249
-0.004740949
-0.011038616
0.061227154
0.036891364
0.08082229
-0.101012625
0.04173125
0.06369539
-0.021503756
0.074983776
0.010381072
-0.009220085
-0.03270416
-0.061621327
-0.060033042
-0.1299024
-0.07493587
0.00573391
-0.05133624
-0.11665625
0.06393822
0.00038287838
-0.07070975
0.079503246
-0.14146261
-0.044103693
0.004454725
-0.029773386
0.053408742
-0.07736116
-0.17426743
0.03746465
-5.6183886e-05
0.05429916
-0.02341799
-0.047493752
-0.03106423
-0.110407576
0.009601642
-0.11869702
0.08434485
0.011981104
0.04249681
-0.066393435
-0.04414991
-0.00922712
0.048276313
0.069401294
0.018526834
-0.001751036
0.023487775
0.041979812
0.08394455
-0.0010198246
-0.010353781
-0.102422856
0.04963226
0.045411892
-0.005464878
0.03007805
0.035941605
-0.09165631
0.059889954
-0.005588467
0.07334784
-0.03334861
-0.005316591
-0.17782487
0.12524155
-0.05639135
-0.038574494
0.08128944
-0.035665706
-0.1372897
-0.06937196
0.029051803
0.027272325
0.003730154
0.0459289
0.076398835
-0.0067060627
-0.04923037
0.07476119
-0.005785465
-0.17028314
-0.035714146
0.006627361
0.023305938
-0.060200192
0.058544785
0.019123863
-0.0023577348
-0.074121006
-0.030393532
-0.094391726
0.06684135
-0.0004359818
-0.036955502
-0.09674714
0.013109255
-0.00784619
0.04424105
0.017459793
-0.040578198
-0.092122495
0.024261976
-0.07957425
-0.0031377298
0.06725722
-0.18349841
-0.00089888234
-0.0676827
0.07781749
0.0008179608
-0.12326392
0.15992217
0.02861894
-0.005222317
-0.110451
-0.08086385
-0.16809721
-0.018029831
-0.0681191
-0.014556496
0.060694147
-0.0052971127
-0.018660692
0.047925334
-0.056427162
0.014262385
0.031613737
-0.0414179
0.03668022
-0.13261224
-0.114292875
-0.013751281
-0.015697042
0.06568859
-0.12235104
0.11699423
0.005504595
0.0078232195
0.036912825
-0.06570133
-0.014358542
-0.056483477
-0.05041695
0.029679079
0.06943572
-0.019323558
-0.0034121014
-0.036800515
-0.07016242
-0.03283423
-0.13162227
0.22446458
-0.020302676
0.12515502
0.02614545
0.0742583
0.13345554
0.098356545
0.033218738
-0.02813197
-0.0640264
0.0843759
-0.018677019
-0.030651568
0.10643225
0.023617422
0.108014114
0.0981065
-0.07196998
-0.05546751
0.092761934
-0.0659444
-0.07860056
0.07086759
-0.0958263
-0.08858602
-0.0028227116
-0.053702246
-0.025422482
0.028249687
0.025388973
-0.0377546
0.08955852
-0.033132147
-0.17247641
-0.055946432
0.009377219
0.053998787
-0.013290511
0.001134777
0.15048209
0.007984667
0.04472325
-0.07239013
-0.001944071
0.036924273
0.046643585
0.040631775
0.063887164
0.08639367
-0.109086126
-0.040824346
0.075579934
-0.108950906
0.010756955
-0.108959146
0.020056576
0.057282396
0.0624029
0.09599861
0.069811866
0.0016926492
0.084500186
0.026479172
0.0475962
0.02668495
0.043989908
0.034148462
0.08453047
-0.10036642
0.044017326
0.028915903
-0.0039185467
0.0055019017
-0.030369105
0.07932841
-0.006374642
-0.045458443
0.058285367
-0.08036162
-0.03837655
0.08529373
-0.062477656
0.06310025
-0.016494837
-0.035249077
-0.055998422
0.060981058
-0.025813198
-0.1426189
-0.0038727585
-0.027964056
0.02079439
0.13138384
-0.1606563
-0.0346864
0.09688591
0.064463794
0.018747732
0.08779067
-0.014777997
-0.03674441
0.006348614
0.042957243
-0.080022566
0.1241476
0.045671448
-0.065575846
0.049726464
-0.020536551
-0.048554122
0.06638406
-0.01649184
-0.06727964
0.05759312
-0.05007469
-0.08497238
0.101441786
0.09149048
-0.039005067
0.008339149
0.06850364
-0.06544603
-0.00800326
-0.11943514
0.027525963
0.025125302
0.064300075
-0.091636226
0.0011898784
-0.03282181
-0.0019435526
0.05547967
0.089943916
0.09054722
-0.01733447
-0.008116215
-0.114194855
-0.023923662
-0.037954934
0.031670976
0.09421539
-0.11379088
-0.06230948
0.05774889
-0.08751244
-0.041951396
0.14871539
0.011112385
0.09291859
-0.011140266
0.058868498
0.0856651
-0.031730834
-0.039255004
-0.0010336799
-0.052111194
0.03840366
-0.05327854
-0.073334746
-0.059637792
0.018928623
-0.016897567
0.10016528
0.03178578
0.059625585
-0.06696575
-0.03351752
0.0030928997
-0.030191245
0.027980553
0.08384638
-0.08807945
-0.016472153
0.007292484
-0.11568501
0.006440487
-0.012884607
0.07524181
-0.01115771
0.042443156
-0.120466344
-0.027911307
-0.14083229
-0.14472532
-0.041311517
0.15830946
-0.1022053
-0.0615588
0.004849617
-0.07319043
-0.118827924
-0.11858998
0.077616036
0.024788987
-0.056138806
0.01028856
-0.069200814
0.06735827
0.075571366
-0.040519472
0.13802826
-0.11420794
-0.10944331
-0.035813928
0.0806155
0.11345824
-0.023876205
0.060457334
0.032142617
0.094074614
-0.02181785
-0.03406416
-0.05071201
-0.051798217
-0.06239813
-0.0139145935
0.016430551
-0.014616204
0.039161433
-0.01568085
0.0421008
0.012278888
-0.1369823
-0.04459447
-0.0033587702
0.02898133
0.04015111
0.102675185
-0.08730205
0.03020629
0.09479025
0.002704005
0.107619494
0.080198035
0.017647155
-0.038350314
0.11777777
0.04601454
-0.07867861
0.02434837
0.088897
0.068118565
-0.015694303
0.0011988652
-0.032887436
0.0005885629
0.06403708
-0.031885594
-0.021306075
0.088301755
-0.03783511
0.04549082
-0.09133876
-0.14463829
-0.08983111
-0.14616218
-0.09483346
0.1205449
0.07804658
0.10311601
0.05953422
0.033817727
0.013080735
-0.13410576
0.054859046
-0.080497995
0.092652306
0.064655095
0.0014598985
0.04246018
0.030212255
-0.060376693
0.077334486
0.03598468
0.03550195
-0.050513662
-0.067737
0.0033125435
-0.087356895
-0.13443023
0.016030084
0.038845997
-0.14531519
0.032923006
-0.14479569
0.04102087
-0.009467216
-0.055102725
-0.018234383
0.103853405
-0.068300046
-0.07256082
0.07255778
0.090587676
-0.10705481
-0.071726255
0.17250758
0.002772754
0.006822603
-0.101923905
-0.050157294
0.06693245
-0.09489349
0.003399489
-0.044050835
0.05243655
-0.022303313
-0.0145399785
-0.037765164
-0.022173667
-0.100747965
-0.08727161
0.03194299
-0.052934285
-0.061955273
-0.037911717
-0.067806065
-0.10257793
-0.013854594
0.022299191
0.013413475
0.16398956
0.052270204
-0.0047235573
-0.049408782
-0.008201211
-0.106537245
-0.046090063
-0.05991894
-0.13953903
0.047358822
-0.004365012
0.05753667
0.0086197285
-0.07852784
0.21730992
-0.007968333
0.03986974
0.02070503
0.0063038203
0.027472554
0.053852107
-0.17284237
0.118287936
0.0044493256
-0.04087305
-0.01055904
0.103365466
-0.029478885
0.009933365
-0.065396674
0.025455438
-0.0433895
-0.0028963173
-0.014204523
-0.15252402
-0.08973704
0.008192203
0.022701932
0.05002285
-0.053598396
0.043306693
0.09563589
-0.007590604
-0.14829944
0.013247384
0.006556006
-0.08738873
0.00632303
0.049740735
0.02636431
9.981966e-05
-0.15935083
-0.021375045
0.05023114
-0.11163344
0.05189809
0.09330817
-0.119805396
-0.07818806
-0.08483471
-0.15847418
-0.0629268
-0.06780128
0.0008419538
0.030529922
0.10684099
-0.1333053
0.020685645
0.0816824
0.0418582
-0.034699276
0.074825406
0.0640286
-0.010897704
0.072190575
-0.045174476
-0.13360475
-0.04957705
0.010886786
0.034445833
-0.10724172
-0.09494623
-0.093190625
0.022146696
-0.11120486
-0.09813515
-0.020202294
0.010598318
-0.079424
0.0019366612
0.053892262
-0.099202536
0.044088364
0.097696744
0.068632126
-0.026006395
-0.0021380524
-0.043878995
0.06831237
-0.08909448
0.10657685
-0.073687635
-0.15049584
0.064079136
0.0014602422
0.050516233
-0.028031787
-0.0018061701
-0.045243375
-0.031035773
-0.10474855
0.09222242
-0.06984809
0.008506755
0.05994411
-0.053754706
0.038526822
-0.058701955
-0.040165503
0.092725225
-0.20052515
0.025323328
0.07094058
0.08778661
-0.024281386
0.07992995
0.089584425
-0.04068138
-0.012376933
-0.0018355858
-0.05750339
-0.15393743
0.09131301
0.0706616
0.029398656
-0.027950574
0.1278232
-0.04684496
0.06601055
0.07675918
-0.02416025
0.070246674
0.070358574
0.103837244
0.039113283
0.03267651
-0.034512453
0.1388742
-0.096363164
0.029971272
0.06127014
0.009286026
0.022070074
0.14923653
0.050896604
-0.042676605
-0.093445905
-0.026329791
0.010273142
0.029669756
-0.077985846
0.072400324
0.117783435
0.065536775
0.08246725
0.033611573
0.058942355
-0.057784714
0.03675416
-0.034604855
-0.07890733
0.006561457
-0.08020336
0.10202899
-0.053968646
0.09118995
0.04782155
0.060006138
0.050108567
0.011603177
-0.07046397
-0.03151132
0.056477007
0.021827396
-0.030849162
-0.0067507247
0.12719797
0.09336124
-0.058347102
-0.07565246
0.0869645
0.02921708
-0.03577028
0.08828405
0.020633519
-0.08297777
0.08145269
0.065745614
0.06103349
0.1596323
-0.08695687
0.07475397
-0.105128296
0.026223674
0.1404862
-0.027389148
-0.037311368
-0.020303052
0.054863438
0.009166741
0.04074715
0.018679332
-0.04181784
-0.10808026
-0.09452517
0.03410304
-0.019493574
-0.027361328
-0.06524504
0.06783637
-0.06080173
-0.062562756
-0.12858139
-0.049767263
0.08807849
-0.05445536
-0.06360423
-0.008257713
0.019088456
0.009037866
-0.040430065
0.07986228
0.03426832
-0.0906604
-0.07400961
-0.04713839
0.039410226
-0.055664167
0.06543444
0.052392546
-0.05367365
0.06140245
-0.00082735455
0.01335865
0.08672324
0.0039037731
-0.04746834
-0.070973665
0.07450225
0.04447642
0.039202757
-0.10237756
-0.037303045
-0.05395987
-0.028967831
0.05404806
-0.015032593
-0.077811636
-0.09103294
-0.02908498
-0.024775958
0.046935856
-0.08007011
-0.020227319
-0.023890313
-0.11494017
-0.0988785
0.10449898
0.0062230765
0.049087625
0.08127289
-0.039566223
0.08961004
0.002436953
-0.06652582
0.114210315
-0.042155627
0.0083855605
0.04422954
-0.09619897
0.08395766
0.06184396
-0.061987266
-0.04004085
-0.08093837
-0.0066007706
0.09286888
0.07367222
0.041487116
-0.06520594
-0.112850435
-0.05536452
0.05332495
-0.062001523
0.06178157
-0.0043127458
0.09336364
0.08269866
0.0704247
0.10524531
0.039782204
0.013790366
0.044130538
-0.033628456
-0.07668596
0.007005253
0.005685171
-0.072209194
-0.041399382
0.024607806
-0.052633297
0.07628726
-0.027943986
-0.08222586
-0.03848295
-0.06262488
0.046447705
-0.20141675
-0.065628104
0.044428553
0.077004895
0.04882023
-0.024442168
0.048353925
0.057354786
0.06645767
0.027411016
-0.08401566
0.03341742
-0.027666647
-0.03764346
0.026072029
0.08105215
0.008948141
0.059552934
-0.0438136
0.07662039
-0.1348582
-0.08432664
0.06240307
-0.021534478
-0.042705808
0.12001081
-0.029876202
0.06413279
-0.08685252
0.048413422
0.11258052
-0.012872255
0.085583076
-0.04058777
0.042331606
0.018581828
0.03988652
0.023134476
0.060611635
-0.024874827
-0.14770553
0.055672944
0.026308022
0.06591528
-0.038075175
-0.07183839
-0.025631895
0.04829081
0.025236621
-0.069131106
-0.075070135
-0.11201594
0.050347004
-0.10538137
0.008691403
-0.15008019
-0.07313421
0.06913463
0.029886145
0.12773071
-0.008740404
0.03301144
0.024208568
0.05283477
-0.06106972
-0.115873314
-0.025720311
-0.16487706
-0.06718468
0.122817405
-0.20906994
-0.013053524
0.05464664
0.16604574
0.054052066
-0.0030002925
0.06736308
-0.107178375
0.120374985
-0.041620895
-0.052941404
0.12722528
0.03864753
0.007390286
0.011828439
-0.103537425
-0.07674282
-0.061781332
-0.027807914
-0.010706136
-0.14613467
0.032762006
-0.16798486
-0.085202195
0.06350569
-0.0959096
0.10995287
-0.029752327
-0.02191314
0.027931264
0.08348561
0.0028881263
-0.021274254
0.0082999505
0.015925957
-0.0087200515
-0.029927595
0.017035574
0.041521627
0.013027816
-0.059673592
0.038508166
0.0030893916
0.031060409
-0.050586596
0.033605885
0.061829023
0.043149766
0.024942221
-0.055361908
-0.016531171
-0.067216024
-0.071145386
0.068646
-0.029868908
-0.13660388
-0.05485334
0.008095545
0.01285654
-0.11688365
-0.013583792
-0.111104295
-0.102718644
0.024084326
-0.076002024
-0.01155684
0.022063026
0.019755412
-0.14353056
-0.094320714
0.017737076
-0.08337535
-0.02724709
-0.079731174
0.045847647
0.017973335
-0.037726164
-0.09579236
-0.034717545
0.037082437
0.011640056
-0.0840966
-0.053035315
0.14543779
0.012545777
0.08819779
0.061488938
0.09816777
0.07935869
0.073446125
-0.02205083
-0.048451513
-0.022893474
-0.061605673
0.017822914
0.030565625
-0.13103124
-0.0034327796
-0.011909081
0.11143692
0.039904557
-0.12221656
0.03474224
0.022879776
0.019370684
0.030597037
-0.01174883
-0.03670746
-0.04630741
-0.1417054
-0.085014746
0.12779555
0.051235482
0.0070114275
-0.07163339
0.0989691
-0.07152773
0.11952684
-0.041037828
-0.038369466
-0.006207591
0.0010150992
-0.023390412
0.024774158
-0.10679968
-0.120083295
0.055095743
0.05564225
-0.10105401
0.1334769
-0.093734376
0.04469382
-0.038943384
-0.11851996
-0.11595183
-0.012891628
0.008132935
-0.11822027
0.041107994
0.09746948
-0.047538795
0.0044413153
0.10403344
-0.103986464
-0.07237813
-0.100674205
-0.08480437
-0.017868519
0.04639201
-0.028265605
-0.0009374507
-0.060094237
-0.039608266
0.043175902
0.022795731
-0.08808324
-0.027032908
-0.0071280315
0.09035006
-0.0030933784
0.030776182
-0.0459677
-0.016567847
0.08193917
-0.01829211
0.049967565
-0.046109628
0.084921725
0.044570837
-0.07437842
-0.07531722
-0.09034562
0.031863943
-0.06384523
-0.017389545
0.0070065255
0.081719145
-0.0801405
-0.13194558
-0.013333165
0.08232594
0.04051057
-0.07488566
-0.0037339933
-0.046540607
0.010132929
0.08494461
-0.0021190727
-0.001625026
-0.0062020477
-0.053515777
-0.018713797
0.013954912
-0.06593925
0.0030490814
-0.0155205885
-0.04459056
-0.085553914
-0.063058026
-0.02397756
-0.01916874
0.0283723
0.005114163
-0.081084356
-0.06240264
-0.024576832
0.010247594
0.025252864
0.022101669
0.046629768
-0.104988694
0.012556997
0.1133927
-0.14001395
0.13946104
0.11340896
0.07114536
-0.011094599
0.020567043
0.09924887
-0.20836604
-0.025753992
0.009876551
0.06296998
0.0046127536
-0.085978724
0.07752827
-0.18377906
0.0071500908
0.03385893
0.10876616
0.06826983
0.003925605
0.021827629
-0.00060896424
-0.063320726
0.07703319
-0.06666325
-0.0041983384
0.06002455
0.04565305
-0.11970964
0.011626136
0.060981687
0.02738686
-0.009134001
0.0073722866
-0.108734325
-0.03916706
0.07730237
-0.07316196
-0.07936549
-0.14562935
0.07939791
-0.009570299
0.085414775
-0.109791115
-0.1322875
0.05807629
-0.09248232
-0.0033178523
0.02079855
-0.010515321
-0.000774365
0.06107539
-0.046529595
-0.08982996
-0.053297933
0.051148936
-0.0040635983
-0.10333899
-0.0059965183
-0.09848575
0.12788628
0.03345442
0.10601206
-0.09874633
-0.00016733575
0.13127199
-0.027085273
-0.07856341
0.07879727
-0.09788205
-0.07621527
-0.010770283
-0.01960453
-0.03505429
-0.02467496
-0.021966482
0.069224335
-0.051551346
0.091880776
-0.16458032
0.07707096
-0.047611054
-0.022349477
0.01183368
-0.06495758
0.0053985054
-0.061217174
-0.1557485
-0.09127521
0.12055974
0.057020027
0.089448676
-0.093304075
-0.1677482
0.045535933
0.048301622
0.09338356
0.020645536
0.03593711
0.15868914
0.15510304
-0.017646385
-0.09137733
-0.041108504
-0.06008409
0.03981862
0.08336724
-0.07567787
0.10944972
-0.0753455
0.17376164
-0.064788446
-0.14327735
-0.13177206
-0.066683136
0.090744086
-0.014488178
0.13072242
0.037145432
-0.057206858
-0.03212945
0.053237204
0.088099405
-0.014950759
-0.13924794
0.09465459
0.08123045
-0.00853589
0.07639092
-0.08253979
0.021845886
0.10875331
0.0388875
-0.021190666
-0.05171866
-0.019115655
-0.04008278
-0.040144123
0.124051
-0.007837102
0.012393045
-0.0828192
0.16794269
-0.12164977
-0.036952194
0.042665288
0.08805225
0.08845231
-0.05424117
0.04325616
0.0390569
-0.06902521
0.04853214
-0.06982154
0.08226807
0.0328782
-0.013582034
0.004129141
-0.09926446
0.03656728
-0.15662937
-0.023476977
-0.1319706
0.032655492
-0.029448552
0.08357886
0.07264168
-0.07880932
0.042259127
0.05935106
-0.051820863
-0.034020394
0.110051475
-0.11582036
0.026001168
0.011397275
0.03027888
0.07546781
0.0050119865
0.13358995
-0.084142
-0.101581514
0.06658304
-0.0453799
0.0028389597
-0.05971731
0.15950058
-0.015357386
-0.06788134
-0.12484811
-0.046621803
-0.03894249
0.102297544
-0.059133142
0.1185102
0.11128446
0.021215867
0.039437976
0.030299278
0.11562713
-0.016652947
-0.00362028
-0.110782064
0.06942081
0.12095888
0.061882455
0.056687415
-0.014332112
-0.014590829
-0.01983389
0.054630537
0.11041625
-0.0364157
0.10283008
0.11205391
0.0866656
0.038343962
-0.05510069
-0.045663532
0.02110357
0.052923895
-0.13120282
-0.053324834
-0.1175154
0.00023219138
0.026544984
0.0029170355
-0.090667926
-0.016032144
0.13540016
0.012336303
0.0067336424
-0.094197355
-0.11684213
0.0943747
0.09394542
-0.024289966
0.09519854
0.0057400665
0.03166349
-0.044024523
0.081626445
-0.026483675
0.10522586
-0.052709613
-0.07452049
0.09698516
0.055354103
0.08737467
0.033294726
0.08863335
-0.031684764
-0.0013700777
0.015022233
0.061212923
-0.04168054
0.00039641373
0.005912878
-0.037116196
0.1126551
-0.03593979
-0.033447184
0.06402837
-0.045895725
-0.06387582
-0.08738964
0.04619186
0.057655815
0.118871674
-0.07874385
-0.023261286
-0.014401745
-0.07226823
0.034967855
0.10380511
0.0010610387
-0.1367327
-0.0011200295
-0.0390025
-0.077996895
-0.06601179
-0.07331452
0.16557491
0.10399228
0.08472378
-0.21505658
0.05227144
-0.11038112
-0.062331367
-0.017899223
0.056144685
0.021808645
0.12232731
-0.11739311
-0.09055147
0.10411029
-0.06719975
-0.2136732
-0.05960789
0.0081585245
-0.0015671639
0.075983524
0.082800984
-0.03495917
0.019844646
-0.029845795
-0.011258347
0.13408092
0.06286677
0.19757132
0.08170655
0.16736002
0.06478804
-0.06929986
-0.12229699
0.0030815534
0.026609717
-0.067231804
-0.06716524
0.07207581
0.024100285
-0.08088241
0.07185598
0.020452278
-0.018663278
-0.00202666
0.068769455
0.0066528437
-0.0014306977
-0.023308234
-0.069204286
-0.10568617
0.00942965
-0.05506466
0.08305255
-0.0844496
-0.048103366
0.023628708
-0.10267687
-0.10508008
-0.009880557
0.02136834
0.09025455
0.05360553
0.047546044
-0.14235015
0.12998706
-0.07324995
-0.013062086
-0.01482651
-0.07724934
-0.116694346
0.07331646
-0.10733953
0.032071035
0.05390492
-0.005834647
-0.069117405
-0.20261824
-0.034644738
-0.08553952
-0.06511172
-0.040359154
-0.08539324
0.049490932
-0.0042527337
0.0700017
-0.060090557
-0.0801067
0.06021229
-0.12875716
0.048232086
0.066635385
-0.010832463
-0.018378891
0.06076774
-0.11053925
-0.021672254
0.11472575
0.11727453
-0.0016921809
-0.13790011
0.094977215
0.059527993
0.050587513
-0.029370543
0.04942758
-0.10078926
0.054408308
0.0069060717
0.059847966
0.13568209
0.033567183
-0.16149272
-0.072792694
-0.0027522543
0.09905515
0.06448972
-0.036707643
0.07582471
-0.11706073
0.02413795
0.03198668
0.009212372
0.004802155
0.10032076
0.010359444
0.16672477
-0.08600081
-0.05907688
0.12844433
0.030540332
0.013928647
-0.036987554
0.11210763
0.029830404
0.010555919
-0.04375781
0.09675425
-0.08226434
0.07756328
-0.07765215
0.08123521
0.051544163
0.089147195
-0.09662942
-0.044232685
-0.061059706
0.14695895
0.11141643
-0.019798087
0.09317039
0.015317295
-0.071246356
-0.0068622753
-0.08081257
0.054913443
0.16504684
0.0186901
0.074709155
0.018055238
0.07930705
-0.025699057
-0.011730915
0.020387687
-0.09666932
-0.019877847
0.043022156
-0.015254909
0.04797036
-0.0466618
0.057419296
0.045220383
-0.012485335
-0.11880136
0.045839816
-0.106591865
0.09480754
0.0024209318
-0.033749547
-0.08214713
-0.11833796
-0.08476897
0.00997363
0.0051788827
-0.09499028
-0.0707651
-0.020150702
0.0050521162
-0.07355308
-0.039567113
0.06654668
-0.092449896
-0.012364791
0.014676168
0.028767848
0.049405105
0.07875158
-0.042110648
-0.034396403
-0.020711124
-0.14788227
0.019420983
-0.024263848
0.09299842
0.06385474
-0.09005231
-0.044957384
-0.07652996
-0.100191705
-0.0804065
-0.049939603
-0.03242043
0.029891899
0.046809297
-0.008258124
0.044993453
0.007921607
-0.014028283
-0.13210754
0.046918284
-0.012181187
-0.025740756
0.022527799
-0.050636355
-0.07669157
-0.09927123
0.01938464
-0.09614655
-0.040290996
-0.06317564
-0.054193698
0.06290585
0.13112648
0.0013909694
-0.028996432
0.085897006
0.008612228
0.064761594
-0.028969113
-0.09125143
0.074717075
0.08195166
-0.0051912563
-0.13029973
-0.13753404
-0.11250276
-0.13114811
0.015049163
-0.044756558
-0.013936729
0.0825489
0.015227408
0.085113265
-0.016053384
0.032459535
0.06691907
0.047097474
0.09889908
0.019021016
-0.06940423
-0.10570368
-0.086578764
-0.009691216
-0.08776873
0.091602124
-0.006018507
0.09011744
0.05279591
0.06983293
-0.06854187
-0.23619002
0.0540687
-0.020717142
0.080402054
0.037766162
-0.09611551
-0.09844559
0.030950459
-0.01987969
0.05785482
0.009360504
-0.045352165
-0.09557958
-0.026138788
0.07380331
0.105169185
0.06744501
0.062105197
-0.13316654
0.02009966
-0.09797416
0.057835665
-0.26367694
0.13315566
0.05440071
-0.059809275
-0.07436461
0.1242585
-0.036609456
0.07266731
0.0137470085
0.019219851
0.03333103
0.08293788
-0.050845012
-0.04064296
-0.057349402
0.122385316
0.09357833
0.082220614
0.099218845
-0.028577575
0.06760328
0.0077056526
0.00829571
-0.09218767
0.010742803
-0.045912027
-0.033558007
0.02561458
0.08729201
0.08325767
0.14048661
0.14667562
-0.1251611
0.018843945
-0.06740393
-0.03686789
-0.068340965
0.14338373
0.00948985
0.045391317
0.027309861
-0.030623214
0.05183477
0.03059989
-0.06393901
-0.016590282
0.01116566
0.057488576
0.013983663
0.09460375
0.06797934
-0.0072418256
-0.104847945
-0.129451
0.06805934
-0.044091076
0.09224694
0.03374404
0.18187557
0.0384314
-0.058118798
0.13031714
-0.023075376
0.02702327
-0.08260324
-0.048552673
0.029396594
0.12060643
-0.1375491
0.16991736
-0.031706978
-0.032450806
-0.07830571
-0.1794584
0.13573752
-0.018617958
-0.013832419
0.090377524
-0.003359415
0.04933739
0.067890026
0.050285477
0.088228054
-0.012545468
-0.07811118
-0.0022406692
-0.018758902
0.013022702
-0.012237135
0.0028602432
0.1822293
-0.047216997
0.031059273
-0.1455152
0.08188442
0.042954013
0.004344846
-0.08090481
0.06090632
-0.09712613
-0.082675904
0.034240175
-0.02010124
0.04062939
-0.06350616
-0.020869501
-0.23867387
-0.12074032
-0.020010654
-0.080235146
0.036890753
-0.00526288
0.041860074
-0.10185604
-0.025784524
-0.035007052
0.098749585
0.0355291
0.015883798
0.044734146
0.05377593
-0.10192119
-0.061144445
0.054947387
-0.008429095
0.008841973
0.051628746
-0.0042024762
-0.069505945
0.019451823
-0.10715095
-0.045305755
-0.04391923
-0.0061601223
-0.049400333
0.063831545
-0.004419091
0.021523478
-0.018876074
0.08620995
0.055831954
-0.0678994
0.04151285
-0.018215323
0.08415391
-0.013345402
-0.012237064
-0.107509725
-0.013555477
0.106498964
-0.055947088
0.109801285
0.043046582
0.0128034875
0.027347352
0.044545226
0.050916303
0.005996338
0.017834613
0.030206516
0.054510824
0.040846698
0.0758305
-0.058647193
-0.093120724
0.06516238
0.05926075
0.06428655
-0.07277656
0.062440086
0.01747468
0.08672386
0.037510343
-0.007412289
-0.053066768
0.0898788
-0.021031324
-0.046857122
0.029304752
0.07986863
-0.03272449
-0.1176268
0.08292593
0.02703348
0.015830643
0.0062286775
-0.017800786
-0.016265238
0.037377134
-0.09128593
-0.036999788
-0.038303852
-0.011576166
0.10654959
0.056723237
-0.08092806
0.028152654
0.008773342
0.028042484
0.039167844
-0.09198696
-0.039347112
-0.065638915
-0.05525691
0.15970491
-0.035472743
0.025200944
-0.06313492
0.10392466
-0.013948091
-0.1063772
0.07313153
0.004578934
-0.037773766
0.086952046
-0.037996743
0.052747615
0.04074769
0.088813104
-0.0855567
0.098745406
0.07614542
0.03268701
0.18342502
-0.040507443
-0.099751316
-0.007445509
-0.08831217
0.028131856
0.2150467
0.03687547
-0.050393756
0.08237965
0.1214365
0.21253233
0.032038007
-0.11879667
-0.073335886
-0.09636097
0.009489194
0.106975146
-0.090966925
-0.13209887
-0.15599999
0.014828697
-0.18441294
-0.020038102
0.11321814
-0.06936347
0.16177617
-0.083206125
-0.10156504
-0.04855316
-0.056345798
-0.061955903
-0.09062339
-0.025484977
0.030353133
0.050014783
0.06962522
-0.016891548
-0.15018004
0.049972117
-0.020366117
0.05664654
0.10920406
0.020011313
0.06216199
-0.10559253
0.08914876
0.0417214
0.0690884
-0.06482835
-0.08123634
0.0070972755
-0.04355812
0.026574844
0.0059041865
-0.073046915
0.04421294
0.049226075
0.023715058
-0.10240092
-0.08042322
-0.033291016
0.01985216
-0.07371461
-0.0050332486
-0.057927623
-0.037342865
-0.03566681
-0.06802713
0.021095669
0.043321036
-0.090734035
-0.02189469
0.04661664
-0.10360752
-0.02194215
0.07727038
-0.050024126
-0.063854896
-0.070062764
0.036396123
-0.047098994
-0.069516465
-0.08376139
-0.11908798
-0.02552933
-0.06644642
0.053130183
-0.045397285
-0.02370041
0.042238306
0.030670786
-0.0482366
0.041848168
-0.03324675
-0.03864971
-0.025897
0.066976644
-0.039467018
0.12804501
0.020702016
-0.021519117
0.03908447
-0.02943738
-0.027692406
0.05154065
0.20284331
0.034098063
-0.10318716
-0.07894818
-0.11016778
-0.011360483
0.1167557
0.10543215
-0.0026218349
0.098983005
0.05921383
-0.08392935
-0.13464269
0.054456282
0.026273146
-0.07757484
0.062436685
-0.050087884
-0.22668527
-0.05098242
0.11681915
-0.021474559
0.064873815
-0.0087426
-0.019379344
0.062150314
-0.18378937
-0.010793661
0.03504052
0.08170782
0.018031472
-0.024659611
0.1373492
-0.0662498
0.009244001
-0.08576807
-0.072289534
0.14077026
-0.029210346
0.066567525
-0.03173213
-0.09274246
-0.14420938
0.031349618
-0.16005789
-0.018318944
0.00728654
-0.015927002
0.055576336
-0.18159465
-0.07984059
0.0126588
-0.06370424
0.11432892
0.02162756
-0.03675194
0.10395032
-0.012804366
-0.10635236
-0.048594225
-0.022719353
0.0105799725
0.13150509
0.07815858
0.021951247
0.103981756
-0.12611362
-0.09153777
0.014680447
-0.018595897
0.052849602
0.04245267
0.053310465
0.08648897
-0.11656958
0.05168969
0.043645892
-0.074584536
-0.01502301
0.026542908
-0.007649123
0.056305993
0.06982277
0.018474998
-0.078142226
-0.009000055
-0.010398756
0.02663005
-0.02378601
-0.0077182273
0.07710835
-0.029106919
0.021642573
-0.0015249023
-0.046828333
-0.07411427
-0.082035735
-0.051185258
0.063553855
-0.021541791
0.030985799
-0.09698471
-0.025015356
-0.01580869
0.003003004
0.042862732
0.044003066
-0.005948802
-0.014787415
-0.0015717123
0.03181146
0.015018002
-0.110330194
0.044264592
-0.010834037
0.018031584
0.042365182
-0.05182497
-0.112425186
0.03798633
0.02840233
-0.07101601
-0.13509259
0.020660441
-0.10503077
-0.054440245
0.04544889
-0.071274616
0.085254036
0.02948176
-0.020893589
0.060237862
-0.08388065
0.014241886
-0.03757167
0.07921372
-0.1311065
-0.023346733
-0.09318543
-0.093430735
0.07257834
0.13115504
-0.026410187
0.10664035
0.030800072
0.035115853
-0.062177073
-0.001640278
0.10459287
-0.17739332
-0.062434606
0.08266751
-0.041831564
0.086723216
-0.10517721
0.033234574
-0.097011454
0.073396236
0.040304985
-0.07470401
-0.029424412
-0.24024229
0.049435955
-0.035604768
-0.028874658
-0.09189778
0.052235935
-0.13225186
0.07804791
0.061160635
0.08555963
0.029514777
0.070599005
-0.100460045
-0.06509027
-0.006747383
-0.07474546
-0.03800578
0.044216067
0.040113892
-0.027601136
-0.077096045
-0.0673414
-0.06707003
-0.09605502
0.1707134
-0.017103285
-0.023588449
0.07205688
-0.019894028
0.07421648
-0.14009523
0.1435991
-0.038790993
0.13253619
-0.06675467
-0.09961031
0.016397675
0.003558015
0.072728515
0.018204097
0.03443893
-0.08844089
-0.016264528
0.037955824
-0.07624228
0.02717222
-0.10243159
-0.054702915
-0.04773562
-0.073716104
0.09070711
-0.016277503
0.05640546
0.082875505
-0.06891869
-0.012976142
0.054368865
-0.09053931
-0.09518716
0.118672825
0.12635933
0.06748506
0.039682943
0.16095106
0.08185354
-0.045271866
-0.05060614
-0.068814754
0.10278562
0.18709888
0.0116704125
0.004992095
-0.06572687
-0.077224255
-0.0061154487
-0.16787279
-0.025781387
-0.08555064
-0.04961203
0.005076775
0.009068897
-0.04717089
0.015742516
0.0899397
0.00920609
-0.122054674
-0.053883336
-0.14707552
0.03837014
0.07351737
-0.06511347
-0.058379598
0.08883384
0.04736042
0.013321489
-0.028772013
0.051414806
0.011684734
0.0834383
-0.07460028
0.034638144
0.081102334
-0.0071275444
0.05651598
0.06557882
-0.068824686
-0.099624924
0.060442906
0.0034874491
-0.009092459
-0.020260246
0.075043224
0.044375893
0.0908208
0.007452339
-0.10158385
0.07656701
0.016618256
-0.040950015
0.020121105
-0.06540752
0.051279865
0.024118133
-0.022565288
-0.0014396535
0.0331669
0.086333506
-0.04223043
0.065632135
0.07983863
-0.0915334
-0.021813262
-0.10327342
-0.13119063
-0.065875694
-0.0005927802
0.05697463
0.06499675
-0.11137201
0.026750956
-0.034858026
0.061431892
-0.0092701595
-0.08730185
0.0041506044
0.019843798
-0.0838969
0.06902863
-0.053630058
0.06466306
-0.053315718
0.017410442
-0.029725596
-0.0720311
-0.0007133445
0.089580946
0.020570917
0.017810518
-0.061179418
0.08223781
-0.034154154
-0.07231334
0.03557073
0.10738374
-0.05912551
-0.05186827
0.05027269
0.035376783
-0.03524957
0.010356649
-0.0052857287
-0.12790377
0.0947811
0.0059512146
0.05603365
-0.03789952
0.038825803
0.049006067
0.06555388
0.15266676
-0.06764267
0.09314038
-0.11330916
0.016438324
-0.03640695
-0.0040844204
0.035701714
0.069814354
0.07166166
0.03495565
0.06450323
-0.009620232
-0.014679809
-0.14178467
0.02747534
0.021162996
-0.109013304
-0.023325603
0.13191745
0.052058615
0.083730064
-0.070540726
0.052707452
0.027211016
0.025074983
0.10732455
0.049950816
-0.02420885
-0.061662342
-0.076358885
-0.08381589
0.009199571
-0.012747246
0.009640476
-0.030301632
0.06308536
-0.006682518
-0.11512674
-0.05095839
-0.053474076
0.03925204
-0.0004990038
0.10951553
0.055865064
-0.13721725
0.019523622
0.008859183
-0.029782109
0.10254905
-0.061560337
0.058307312
-0.049766198
0.06307594
-0.10587675
0.029876234
0.03228873
0.044967078
0.08497615
-0.0241044
0.074944764
-0.05773081
-0.021324076
-0.05256722
-0.058834746
-0.04278313
-0.03447359
-0.016265322
0.02943494
0.051759217
-0.12574129
0.04671062
-0.019151967
0.09360535
0.096573666
0.08800264
0.051575236
-0.13374612
0.12924178
0.00034675997
0.003017568
-0.03189702
-0.10540024
-0.08174463
-0.06461051
-0.056305904
0.07493596
-0.075792275
0.02390455
-0.01468937
0.053710654
-0.092787
-0.028344685
-0.029768825
