0.069370165
0.019848872
-0.07966725
-0.036552213
-0.062680416
0.005302363
-0.023389835
0.034143206
-0.008251491
0.08050575
-0.04595227
-0.07373698
0.00907368
-0.023970583
-0.12994924
0.013097834
0.092708535
-0.0972373
0.022547679
0.05636387
0.015152759
0.060700644
-0.025500592
0.0025304228
-0.024303209
-0.018061245
-0.08776073
-0.018999126
0.030936075
-0.12321858
0.02828047
0.03611904
-0.0682245
-0.07694106
0.0990053
0.013551345
0.09465244
-0.097927414
0.027488885
-0.07401278
0.13260372
0.028294986
0.017798644
0.049040068
-0.06557757
0.0051216735
-0.0020978448
0.057071157
-0.1067148
-0.008761266
0.052336402
0.11725046
0.045226313
-0.08522834
0.00058555114
0.03177913
-0.044890396
0.09156988
-0.015314798
0.050280634
-0.038312044
-0.090139575
0.009688545
0.013823043
-0.013867529
-0.034676977
-0.090299174
0.019736636
-0.08472865
0.06385652
-0.011031986
-0.094392106
0.008108022
-0.008346179
-0.04644769
0.03696244
0.027844891
0.059960417
-0.017439166
-0.07887093
-0.025521688
-0.09639765
-0.07798735
0.17061767
-0.09622091
-0.002147939
0.03309468
0.009770716
-0.12917121
-0.08460036
0.069721356
-0.060093626
-0.0031165201
-0.1261355
-0.0040168725
-0.005311684
0.006018755
-0.07614416
0.065631084
-0.099858895
-0.0035899107
-0.08021048
-0.09737398
0.03183432
-0.05586383
-0.10322308
-0.016152252
-0.041281275
-0.127331
-0.048730716
-0.049714405
-0.06259213
0.033404894
0.02751846
-0.087546825
-0.019579254
0.014340602
0.019481948
0.014061339
-0.073215485
0.052737884
-0.028653048
0.10205938
-0.034316137
-0.039348047
0.010259635
0.02590939
-0.009607288
0.03960381
-0.0075142835
-0.025868405
-0.023195641
0.0542221
0.054315656
0.09330817
-0.083960176
-0.044662382
0.056157976
-0.060575377
0.0019469329
0.017450623
-0.062949255
-0.017258368
0.005252057
-0.01537103
-0.04396456
0.009069041
0.040954694
0.037455205
0.05738366
-0.054587476
0.022321822
-0.06253349
0.026560187
-0.0895039
0.02809686
-0.021850858
-0.028449861
-0.011851572
0.059416067
0.09613127
0.04542911
0.066663936
0.06298332
-0.060434546
0.0040015783
0.02773052
0.015553038
0.025487157
-0.0016873244
0.006353488
-8.1350896e-05
-0.036454387
-0.028780926
0.065929465
0.011719992
-0.025344169
0.042274605
-0.09738585
-0.034309372
0.09187117
0.08317888
0.09043633
-0.043293424
-0.032375127
-0.0691848
0.0851502
0.079102516
0.11997853
-0.043835245
-0.103433825
-0.034477327
0.027864603
0.020294983
-0.05163337
0.04856574
-0.06407155
-0.042633634
-0.12092074
-0.06144751
0.029051162
-0.059674982
0.015274591
-0.030035535
0.030117927
0.009893303
0.08816436
0.04284934
-0.033154145
-0.073324285
-0.07179669
0.08521078
-0.020193718
-0.049844645
-0.09747105
-0.11308275
-0.012062188
-0.041973673
0.11701549
0.06989932
0.017484682
0.0905463
-0.07561774
0.13498966
-0.029249193
0.06932289
0.08953216
0.05979684
-0.023478907
-0.021099877
0.01590743
-0.005233625
0.082149245
0.054488067
-0.047195032
0.06582355
0.03832074
-0.090872295
0.0059869066
-0.027657997
0.0014842439
-0.02195656
-0.040062863
0.012491614
0.026286453
0.065599754
-0.048428334
-0.041138735
-0.07337731
0.010757677
0.050151195
-0.044113018
-0.06429191
-0.02303101
-0.016260087
-0.061509114
-0.083362475
-0.022685165
-0.042325832
0.059219416
-0.027656091
0.05873601
-0.032003358
0.005562893
-0.07495227
-0.04486926
-0.08608044
-0.02982996
0.06848565
-0.0392455
-0.11286032
0.0021290213
0.044923663
0.059154205
0.06832226
-0.014527245
-0.052231617
-0.0869382
-0.0919773
0.014374835
-0.08067637
-0.028336477
-0.0545827
0.06126944
0.029372199
0.014431555
0.06945612
-0.092822686
0.004078312
-0.03527765
-0.0673744
0.046674073
0.035942785
-0.024020486
-0.01334407
0.08017447
-0.042454343
0.026466917
-0.110825524
-0.017160278
0.103519715
0.05753851
-0.10299486
0.03735076
-0.06564582
0.05301933
0.09219587
-0.10094276
-0.032733038
0.03446243
-0.09179212
0.10370883
0.007928501
-0.050201587
-0.058758453
-0.11131421
-0.07641569
-0.020222005
0.056004837
-0.03858013
0.07599235
-0.040991083
-0.04072755
-0.015115195
-0.040326547
0.06343937
-0.05413966
-0.03020104
-0.07368303
-0.010067039
0.09898001
0.008050493
0.06726622
-0.04745946
0.055348795
-0.04956475
-0.000259153
-0.03764071
-0.043795597
0.10207803
0.022621537
-0.038606014
-0.058066033
-0.09594074
0.052409608
0.025612019
0.05951768
0.08973974
-0.0015757369
-0.007895738
0.010957037
0.103711955
0.06539558
-0.0824247
0.004637519
-0.1010348
-0.029823795
0.04582367
0.001041772
-0.09501048
0.019527884
0.040058102
0.010438462
0.04499104
0.080220446
-0.031074269
0.037134606
-0.087962195
0.007292587
-0.0070642293
0.02440892
0.09837014
-0.0064279246
0.068493165
0.07835964
-0.01181045
-0.095680386
0.028158879
0.050753906
-0.056332204
-0.054951552
-0.024406323
0.053236485
-0.027749252
0.011089268
-0.082350396
-0.04181932
-0.039522696
-0.034722317
-0.07926302
-0.0066852337
0.111393034
-0.10493858
-0.046119265
-0.026018955
-0.07293363
-0.0119453
-0.059667487
-0.09069431
0.02394477
-0.049267687
0.06584778
-0.05440335
-0.07645021
-0.014871518
0.035757042
0.010906605
-0.003895104
0.012300155
-0.10702472
0.05869018
0.02737266
0.018110538
-0.042725924
-0.00093398435
0.01784738
0.0616795
0.017374698
0.09164023
0.039891805
-0.032195397
0.06994936
0.0051728706
-0.008983476
0.071292415
0.062687844
-0.08079511
0.05877057
-0.0129149
0.025709206
-0.013159081
0.0042801057
-0.0020189378
-0.06016019
-0.04208276
-0.02079319
0.03605947
-0.016989363
-0.02151535
0.0131673105
-0.04843986
-0.052116495
-0.0800579
-0.05353909
0.054873414
-0.071271196
-0.06093173
-0.042013984
-0.08164043
0.08968195
-0.026070924
-0.08467492
-0.037875433
-0.03980508
0.063947976
-0.10508332
0.022130901
0.00043746014
0.09732605
0.04843367
0.11047083
0.090681456
0.09147846
-0.0925882
-0.053391736
-0.0022105272
-0.0004892127
-0.011240352
-0.016145308
-0.02369962
0.06911235
-0.13289757
0.05162491
0.029989814
0.036531433
0.013133943
0.05299281
0.056897603
0.04032461
0.039493036
-0.08393366
0.017371245
0.030679425
0.06285497
-0.05335061
0.04218398
-0.0020299356
-0.059405945
-0.014036992
0.026925212
-0.08633225
0.04577769
0.015080012
0.04418188
-0.031174237
0.009960037
-0.05355781
-0.0007067177
0.06552806
0.0596718
-0.056689013
0.045679912
0.026939375
-0.0075003468
-0.06779202
-0.008991365
0.0009375317
-0.084478006
-0.09459288
-0.08112349
0.05733029
-0.07852623
-0.01402391
-0.025993753
0.022496562
0.040859513
-0.02944604
0.013863035
0.1445989
-0.07344498
-0.023122579
0.046173934
0.012262361
-0.030675951
0.095037974
0.0937768
-0.023226239
-0.10400212
0.016551241
0.07223967
0.09004592
-0.003918938
0.07490223
-0.0397181
0.06683549
-0.020448834
-0.020556977
0.0025766864
0.019173464
-0.044167377
-0.041909695
0.022816826
-0.050809912
-0.105928384
0.030705985
0.054185204
-0.015949484
0.07966583
0.052541845
-0.054006036
-0.08559173
0.017544236
-0.12877588
0.0061788694
0.07422024
0.022472024
-0.00066381774
0.06226305
-0.06658493
0.056754198
0.039747275
-0.023009086
-0.047140885
-0.023040673
-0.025708957
0.0017587031
0.047532927
0.032443833
-0.06635219
-0.05779427
-0.041074883
0.013939916
0.089697115
0.009768473
-0.008040797
0.049585175
0.060568456
0.031355962
-0.0063032378
0.06269359
-0.027838778
0.029472068
-0.090376936
0.0045038755
-0.10526019
0.0003057035
0.050152943
-0.03049312
0.023731472
-0.03471634
0.08024834
0.027654052
-0.07243619
-0.053699236
-0.1526381
-0.04950674
0.053581223
0.027889268
0.01770441
-0.0352753
-0.04326202
0.019430352
-0.009386384
0.08380477
0.004386365
0.0810892
0.0035351862
0.02423764
-0.020340595
-0.05955338
-0.012406074
0.0001554294
0.018939514
-0.051752277
-0.03200985
-0.0665158
-0.07823669
0.07421944
0.06501375
-0.052663773
0.0017774126
-0.006532537
-0.038003232
0.02637822
0.06485897
0.06037302
0.0017628352
-0.058321323
-0.015414851
-0.051272925
0.02879387
-0.0031162158
0.016754854
0.07102844
0.06387611
-0.0987518
0.10699435
-0.010608778
-0.09066156
-0.020406943
-0.05629088
-0.05872151
-0.04057995
0.028912598
0.071712874
0.012574089
-0.046553303
0.034833606
-0.080190904
-0.050788555
0.021082055
0.0035478482
-0.0511309
-0.086414665
-0.011024694
0.065088525
0.05987603
-0.054215785
0.06205613
-0.061221994
0.069624476
0.02298122
-0.06754803
-0.053567823
0.041973922
0.062213056
-0.030136386
-0.08607958
-0.05322113
0.104973175
-0.014597188
-0.06835957
-0.025728684
-0.07425771
0.10324567
-0.04947307
-0.047829986
0.07379805
0.018403545
-0.017343218
-0.07096496
0.06411716
-0.040392354
-0.06547901
0.017920403
-0.032170027
-0.06841691
-0.070282936
0.029939303
-0.005327284
0.07940352
-0.03809226
0.03332843
-0.0547646
0.0031003985
0.07461877
0.06511783
0.04741609
-0.10003588
-0.047213987
-0.0648864
0.053350158
0.06453705
-0.05274029
0.015405275
-0.033592425
0.0031414996
-0.044182077
-0.09239464
0.031292908
0.031443637
0.093426995
0.041862417
-0.06658867
0.0071900175
-0.06438355
-0.041688256
-0.07977314
-0.050499197
-0.009227182
-0.06835614
0.021819845
-0.13653125
0.05287855
-0.013297608
-0.06600235
-0.005866256
0.0059534586
0.105262704
-0.108778365
0.002714613
-0.02105557
0.032799836
-0.004510286
0.040785007
0.14516112
0.08557496
-0.030834224
0.062474944
0.01926106
0.01667012
0.12115555
0.12660551
0.07781275
0.10330299
0.080745116
-0.13163109
0.080791876
0.08271254
0.034716498
-0.02552783
0.00867951
-0.089959264
0.037176788
-0.04288802
0.09801513
-0.07818698
0.027972966
0.11697131
-0.040446725
-0.1078929
-0.017432094
0.10656548
0.012984739
0.018287092
-0.074014105
0.048785273
-0.011337312
-0.030287104
0.022893861
-0.0635039
-0.010682149
0.1039285
0.040459484
-0.07823805
0.08801968
-0.09463892
-0.049013946
0.07674331
0.09018702
-0.07948271
0.0784369
0.09190771
0.033650964
-0.009181882
0.08816974
0.0704615
-0.046532586
0.023853848
0.0809062
-0.10688866
-0.050302587
0.089902185
-0.07149041
-0.13654116
-0.08016238
0.04411257
0.064536735
-0.07714427
-0.028373973
-0.039501835
0.00058846327
-0.028912602
-0.10321418
-0.12778538
-0.11471021
-0.0048652017
0.073068105
0.05134249
-0.07691864
-0.016373297
-0.041199405
-0.08180195
-0.07255962
-0.08762703
-0.0033364973
-0.0067764213
0.013947029
-0.10866962
0.05162376
-0.094682924
-0.04887112
0.059476435
0.08133275
-0.06254619
0.08144714
0.009776342
-0.0011444879
-0.0042209914
-0.036921997
-0.10666123
-0.055832587
-0.0190903
0.0005474551
0.00080956303
0.048623808
-0.04885716
-0.023300761
0.02130353
0.02970802
0.04289456
-0.059935596
-0.14229879
0.077023655
0.006264864
0.062772214
-0.14471155
-0.02992783
-0.044785693
-0.06641659
0.035228234
-0.0372835
-0.06732084
-0.0010490577
0.04004302
0.07722075
-0.023471074
0.015297982
0.008208178
0.0708141
0.09355493
-0.07085806
0.058504097
-0.014318208
-0.02680631
-0.08096655
-0.06854859
0.08085105
0.048401356
0.020595336
0.112134166
0.013964387
-0.057698518
-0.10231679
-0.083692685
-0.04333013
-0.08822299
0.07212948
0.07876152
0.041947827
-0.06445574
-0.052720014
0.030365322
-0.05632537
0.071510606
0.101124726
0.0070599243
0.001239468
0.07038765
0.030056918
0.053250663
-0.10210509
-0.0022196032
-0.10646746
0.038205888
-0.0887029
0.029212773
-0.08732875
-0.039050907
-0.014474167
0.021907425
-0.07264481
-0.13577351
-0.10209521
-0.010292982
-0.1276369
-0.015228849
0.028918043
-0.036804605
0.033339627
-0.09833047
0.05873509
0.05284844
0.07502168
0.03298343
-0.04181436
0.037970744
-0.009297354
-0.12911202
-0.05689219
0.04597224
0.06515336
0.020081585
-0.0059725503
-0.022351094
0.044698924
-0.05045697
-0.11122629
0.010433559
0.07967529
0.050078314
-0.032766223
0.043566782
0.029440384
0.06521476
0.087653995
0.04919473
0.03241523
0.03869834
0.0335966
0.046683043
-0.09787711
0.07438394
0.08468728
0.04667749
0.0013452199
0.090581715
-0.0348487
0.024182584
0.055038247
0.06730376
-0.062200256
0.06816494
0.015740927
-0.09240873
-0.08533274
-0.006253399
0.11216645
-0.0932183
-0.01555514
0.05761521
0.034128446
0.005334619
0.07329011
0.006921293
-0.06519221
-0.05648003
0.039784536
-0.09667124
0.023400243
-0.06777831
-0.116
-0.09981042
-0.04306098
-0.11671388
-0.08028375
-0.026592202
0.08088466
-0.08481492
-0.0032026027
-0.055626832
-0.075797446
-0.046137873
-0.010348084
0.0022255306
-0.091371246
0.022499608
0.03623303
0.0012735289
-0.059991535
-0.022025552
-0.058241375
0.055224366
0.0045145326
-0.010400804
-0.09547084
-0.016516592
0.0076761865
0.0500256
-0.04370344
0.08092189
-0.058691032
-0.06266322
0.062354703
0.04824
-0.03745619
0.046973106
-0.006835993
-0.068108186
0.012343885
0.023386395
-0.048114274
-0.065622814
-0.04586762
0.01420608
0.017883297
-0.07879258
-0.07653109
-0.032389496
0.035502907
0.0484437
-0.0035247123
0.026916984
0.004226009
-0.06692627
-0.015513947
0.010041264
-0.02323584
-0.015028341
-0.0429583
-0.102065325
-0.025650032
0.02309791
-0.050299935
-0.041740566
-0.07121892
-0.085218415
-0.074767366
-0.052894387
-0.08512517
0.070080206
0.07322755
0.016249822
0.037889145
-0.087855406
-0.03852841
0.08562332
-0.015907887
0.014079052
-0.035284296
0.115424775
-0.10374557
-0.0962736
-0.10832609
-0.017236076
0.003599853
0.026400277
0.051729918
0.10259703
0.020225689
0.036318902
-0.08499337
0.07702263
-0.08208921
0.14265937
0.028782148
-0.031231526
0.08680246
-0.0286042
0.05995143
0.05875016
0.0008472301
-0.025637634
0.008498161
0.0064495136
0.04767273
-0.089279085
-0.14255598
0.015712468
-0.01889933
-0.10484277
-0.02309024
-0.06470387
0.012120344
0.07444905
0.05332746
0.0346644
0.117054954
-0.06854326
0.04985396
-0.04172858
-0.002495214
0.017904447
-0.020983187
-0.040817104
-0.08094698
0.035290517
0.08041772
-0.06954455
0.0037385295
-0.03155735
0.051558197
0.1113804
-0.007438175
0.04454742
-0.03777406
0.020661196
-0.02020977
-0.09878721
0.07081263
-0.021117784
-0.07513588
0.026972791
0.021010932
0.08768951
0.09908598
0.07316758
0.00972399
-0.020072347
-0.02342929
0.034282174
0.027403858
-0.038698435
0.03240812
-0.015837029
0.018449303
-0.064262696
-0.026738904
0.05037556
-0.09691306
0.06350051
0.016927917
0.018647797
-0.07406046
0.021242818
-0.07429506
-0.045883667
0.06531208
-0.05146486
-0.035489827
0.014004128
-0.07400702
-0.056029826
-0.011941375
0.059169218
0.13677545
0.080579616
0.11457586
0.019361686
-0.04940874
-0.07328314
-0.031602617
0.013206026
-0.11010958
-0.037420273
-0.05725409
-0.06997393
0.07406418
0.012728219
-0.044830274
-0.01811925
-0.055309206
-0.054882634
-0.08912352
0.07676017
-0.05724811
-0.06906742
-0.097883515
-0.047874957
-0.0005907948
0.017099446
-0.018644977
0.02512267
0.068914324
-0.10099596
-0.03242812
-0.0281406
-0.017493483
-0.107463576
-0.07793523
-0.083813876
-0.061580714
-0.07328551
-0.011283288
0.10557523
0.08301281
-0.048524793
-0.013249073
0.06907958
0.08632704
-0.06249807
-0.07545687
-0.058856256
0.04294395
0.061391253
0.048750058
-0.058119085
-0.0034198726
0.0989879
-0.0490228
0.099894
0.009080125
-0.04088185
0.12374932
0.09684466
0.056363635
0.12121623
-0.049439073
0.059754804
-0.049454644
0.019372867
0.082758516
0.07079189
0.0073496825
-0.05404708
0.04039933
0.010427731
0.025039569
0.046014104
0.03976132
0.08137374
-0.013775452
0.059243407
-0.030150047
0.030254712
0.06415697
0.07211797
0.10223751
-0.07712506
-0.039262608
0.0768338
0.012411226
0.084765784
-0.04278539
0.024977405
-0.06067056
0.07232038
-0.10194336
0.029110044
-0.060659982
0.0095210355
-0.077601686
-0.012332158
0.07933277
0.039317045
0.017832112
-0.02288349
0.03172786
0.054986253
-0.11041164
0.08016182
-0.029672327
-0.10721072
-0.123650424
0.09414647
0.044007543
-0.045229528
0.047466066
-0.08577477
0.03635399
-0.039249748
-0.054195944
-0.036519628
-0.005645299
0.038287677
0.012933021
0.12685683
-0.037798915
-0.03414993
0.019946098
-0.10245833
0.028626608
-0.06325922
-0.01407987
-0.04344068
-0.051477045
-0.064333975
0.07199016
-0.11040406
-0.06509664
0.09300216
-0.018159198
0.045203757
0.06784255
0.028829789
-0.009925245
-0.0021922763
-0.07575516
0.006176377
0.05003497
-0.15846731
0.03441671
0.06409398
0.034703318
-0.14390124
0.01704311
-0.044282094
-9.9850884e-05
-0.07713247
0.0061684074
0.02250098
-0.007816169
-0.026498815
0.022556705
-0.12627217
-0.009934895
0.041781522
0.06470605
-0.042048752
0.04754384
-0.01311718
-0.04233414
-0.14010718
0.025301075
-0.037017636
-0.08344514
0.0017660344
-0.07888802
0.052433014
0.039549194
-0.1228864
-0.08715819
-0.04793366
-0.071106106
0.07387638
0.037362635
-0.07900199
0.023888247
0.024860542
0.018204208
0.06337799
-0.041535236
-0.10161746
0.06460891
-0.08207369
-0.031328153
0.014807019
0.0038796184
0.002489083
-0.06394538
-0.058225118
0.053244043
0.10806047
-0.12045912
0.09660846
0.034983285
0.027083416
-0.02935801
0.110105686
-0.038902275
0.013543821
0.0139018195
-0.054989573
0.07197266
-0.0023187564
0.06465719
0.037496448
0.053748604
0.098444045
0.118986785
-0.06616805
-0.05289867
-0.024185464
0.012575745
-0.007866127
-0.037510637
0.05875565
0.012772982
-0.055320077
-0.028715339
0.046700846
0.105652705
-0.002609472
-0.04437436
0.015227824
0.060902916
-0.004801003
0.050862446
0.075027786
0.053662986
-0.06131119
-0.05512781
0.03431449
0.00012452254
0.09120366
-0.017955063
-0.0365813
-0.007963435
0.03443243
-0.0075291595
-0.046835583
-0.043367013
-0.014063534
-0.08887625
0.02953032
-0.037869446
-0.09134011
0.045073655
-0.047526617
-0.030499933
-0.0034312566
-0.004010954
0.019947812
0.0044285064
0.053026166
-0.048169665
0.033551168
-0.08674005
-0.015134519
-0.025569063
-0.004787172
-0.037453473
-0.08999882
0.1315078
-0.091555156
0.10823479
-0.10284134
0.070677474
0.04172967
0.0153527735
0.09951752
-0.10176605
0.021014826
-0.030191578
0.0684338
-0.017365428
-0.11839505
-0.074105404
0.062713705
0.058582544
0.04342333
-0.08830274
0.11194009
-0.05152677
-0.036933064
0.048693318
-0.07895503
-0.04101483
-0.017091807
0.064735524
-0.020600446
0.073640995
0.049583074
0.050959952
0.0019070938
-0.0851763
0.08839471
0.03519958
-0.039793216
0.10053928
0.0027665943
0.103096716
-0.08934936
-0.07846825
0.016209314
0.06236962
-0.0642282
-0.091661684
-0.050370783
0.124849945
-0.059275616
0.0719322
-0.015139025
-0.114963666
0.094434306
0.039139993
-0.030285759
-0.083861016
-0.043495916
-0.09024496
-0.110064566
0.093914
-0.051887587
-0.010588376
-0.116924085
0.03588204
0.05808617
-0.0675793
0.0002659897
0.023254538
0.020027457
0.09105571
0.035282392
-0.022727935
0.066856325
0.09320704
0.057589773
-0.016856765
-0.064991616
0.015969763
0.0764287
0.09636602
0.07689596
-0.013356057
0.07640882
-0.033048242
0.07139434
-0.0635247
0.019420268
0.0091594355
-0.040535476
-0.015736844
-0.016679045
-0.04657407
-0.066317335
0.011475388
0.09171871
-0.039239038
0.015539469
0.01866597
0.074905135
0.090746544
0.087430686
0.04961672
-0.026942875
-0.026376795
0.0036625885
0.065098055
-0.12331124
0.041707765
0.057919707
0.0439574
0.0036351988
-0.08474868
-0.036347955
-0.02620657
-0.020622117
0.009464009
0.03529915
-0.059103742
-0.09006879
-0.1379935
0.045163967
0.07157247
0.03850163
0.008429332
-0.15373258
0.07994669
-0.08977986
-0.08885094
-0.05782159
-0.0070391707
-0.022980195
0.058861334
-0.026158938
0.0034155762
-0.036108263
-0.0009938269
0.09889448
0.0053945426
-0.09618375
-0.061605014
-0.072599046
-0.13370256
0.038595166
-0.034703176
-0.012677722
0.04381645
-0.1267794
-0.10083514
0.05569249
-0.03685398
-0.10116746
-0.14392969
-0.057383686
-0.0456925
-0.11780381
-0.09299111
-0.022753535
-0.0387414
-0.08233281
-0.0058765756
0.025486559
-0.049437802
-0.015580817
0.09536684
-0.0015817978
-0.05172385
0.0944889
-0.04548216
-0.006935841
-0.033836972
0.051717203
0.035003394
0.027218955
0.012075187
0.0042835516
0.0814435
0.07937109
-0.030186422
0.054551587
0.00083616964
-0.033130307
0.00017517415
-0.0033450862
0.017455108
-0.05662946
0.0755012
-0.05270661
-0.031635657
-0.014732662
0.07359799
-0.056074914
0.06815049
0.08586207
0.028533606
0.0972253
-0.071210645
-0.07558346
0.073954724
0.06213076
-0.00945825
-0.035967994
0.0569308
0.07676919
-0.08706191
0.015688308
-0.04294851
-0.055183236
0.070668235
-0.03886871
0.029521855
0.07443806
0.048814874
-0.03992185
-0.03602341
-0.0028388612
-0.036996666
0.046003908
0.0810842
0.02175465
0.101721585
-0.05450643
-0.058868192
0.053155087
0.057006143
0.022109168
0.03201157
-0.061365087
0.02675731
-0.0717769
-0.00018575114
0.10015913
-0.12046684
-0.061554145
0.053475726
-0.060117282
-0.021901732
0.057866603
0.03562802
-0.0074877036
-0.069447234
-0.068566024
-0.02762645
0.08267034
0.06417786
0.044662092
0.060179707
-0.01195508
0.035048403
0.013229765
0.0058365506
-0.029685095
-0.030968394
-0.03287061
0.07716192
-0.045606922
-0.02314899
-0.0066130194
0.09121666
0.036594264
-0.017081995
-0.00033989322
-0.05551397
0.05354868
-0.02498035
-0.09660493
0.017700076
-0.1234082
0.063750446
-0.0393565
-0.05929392
0.062672056
-0.07214078
0.06884807
0.032976404
0.0586058
0.014150576
-0.12890765
-0.013676707
-0.10336344
0.040858716
-0.008862049
0.049843512
-0.09658062
-0.024474772
-0.07024971
-0.029388353
-0.024105687
0.012429457
-0.028173042
-0.021192295
0.026408916
0.034241382
0.016446479
-0.07353026
-0.08897803
0.011553995
0.07399068
0.0613673
-0.049450897
-0.020882316
0.006443807
0.016180461
0.11087361
-0.06710993
0.06170166
-0.10477254
-0.06685213
0.092667654
-0.055282157
0.057759937
-0.0029918985
-0.06168349
-0.05532682
0.03928897
-0.098640695
0.025119303
0.0759892
0.020591434
-0.06285557
-0.009658904
0.024871022
-0.07711155
-0.008732409
0.006983229
-0.043072984
-0.04556492
0.08423043
0.0027739822
0.056746975
0.037815716
0.012824434
0.04576117
-0.06551988
-0.09298438
-0.08713978
-0.0850578
0.029650535
-0.020164013
-0.048185658
-0.0430233
-0.007519727
-0.048718188
0.09798551
0.020094376
-0.0383321
0.008840757
0.019466268
0.06297976
-0.034528796
0.020655232
-0.06916754
-0.031719513
0.009485972
-0.029818289
0.05227208
-0.096572354
0.012543238
0.043763038
-0.017126359
0.09201254
0.0078399405
0.028472695
-0.0001461134
-0.07767691
0.032089666
0.06432768
0.075016946
-0.018554516
0.07177499
0.06991563
0.062179085
0.025353137
-0.07565181
0.04637045
-0.008960692
0.06939332
0.0832081
-0.11643067
0.082912445
0.0652806
0.026560925
-0.06449287
0.07507241
-0.024193298
-0.044229694
0.049233492
-0.024205605
0.02816871
-0.06998877
-0.1116564
-0.034102198
-0.050342828
-0.044908576
-0.09547452
0.064042166
0.0025897324
0.039633375
0.028218672
-0.1179075
-0.10675391
0.081281275
0.036367565
-0.01060949
-0.024887105
0.028227469
-0.071147494
-0.030813169
0.026117578
-0.047331315
0.08983693
-0.05202237
-0.019746644
-0.047016066
-0.0074642194
-0.14038037
-0.05384762
-0.09905211
-0.0029274432
-0.055683706
-0.03874461
-0.079538256
-0.04301657
0.04782382
-0.015175764
0.0061330507
0.030693224
-0.089029305
-0.053429805
-0.011894197
-0.012703606
-0.10913994
-0.014565059
0.0310835
-0.04740598
-0.0051726648
-0.0013766685
0.032199252
0.062419925
0.035972174
0.050360855
0.06736778
-0.027725708
0.11362365
0.017927088
-0.058768444
-0.051548157
-0.011755665
0.07660287
-0.0036522788
0.092862606
0.011182551
-0.051394872
0.036578774
-0.04475404
-0.040882066
-0.023299124
-0.044416014
0.0467812
0.021671377
0.061312743
-0.065283656
0.035964403
0.078660235
0.003347417
-0.023636771
0.02183368
-0.039136544
0.019244693
-0.010673133
-0.02071843
-0.006064307
0.014798315
0.017937843
-0.083879955
-0.06425695
0.017287647
-0.03844911
0.046788447
-0.051998872
0.06621362
-0.108573735
-0.030687334
0.014151234
0.0466243
-0.0015782289
-0.075931825
0.051029924
-0.06957161
0.051018395
0.013552382
0.077862166
-0.11262556
-0.0009120411
0.05322282
0.044626664
0.09131426
0.07031954
0.082909405
-0.06763149
0.030520413
-0.026971713
0.07106826
-0.014089821
0.00974038
-0.08890112
0.041144207
0.029514028
-0.038769435
-0.021181379
-0.028447473
-0.098105945
-0.026826812
-0.07172578
-0.036285676
0.012303597
0.071744144
0.024131924
-0.15642945
-0.07649494
-0.05564647
-0.059456993
-0.0069834446
0.004416163
0.012098867
0.1012337
-0.08507223
-0.033461995
-0.094309196
-0.032452915
-0.08017408
0.016294742
0.09259586
0.044934575
0.028357204
0.05684327
-0.046473037
-0.10355434
-0.0029237655
-0.06139296
-0.08242003
0.056342613
-0.08448658
0.06418418
-0.072927736
0.028256841
-0.103386655
-0.052367423
0.0090660965
-0.04053693
0.06276483
-0.067982994
-0.017676612
0.01173547
0.02124865
0.020556562
0.0014219531
-0.019120473
-0.05721245
-0.0422759
-0.0827527
0.03295083
-0.091164894
-0.054963127
0.008567348
-0.02308186
-0.034562655
0.015152259
-0.1275059
-0.065515645
0.1206962
0.02297302
-0.05618424
-0.04702941
0.034044165
-0.015540056
0.006012129
-0.042955086
-0.06270021
-0.08759263
-0.009199905
-0.15736526
-0.11768685
-0.018912764
-0.12491543
-0.079053365
-0.08756189
0.051060956
0.046358556
0.06865226
0.0815204
0.0053412705
-0.08784747
-0.04984119
-0.018080745
-0.005789426
0.0027664471
-0.10338508
-0.045324486
0.008079431
-0.12041274
0.025598692
-0.0030275336
-0.048641544
-0.08625262
0.082579896
0.08313981
0.09439256
-0.086703055
0.06347211
-0.051632684
0.072302185
-0.10472823
-0.0050482894
0.018347045
0.050750297
0.035218865
0.021723827
-0.011430939
0.030231327
0.0043476755
-0.03952303
-0.040121175
0.04057513
0.050997008
-0.06193017
-0.044097323
-0.09310715
-0.085243
-0.04417163
-0.08867109
0.03569667
0.08345193
-0.018660154
-0.014665179
0.021283036
-0.0077819275
0.002141854
0.07048369
-0.0012174365
0.06417008
-0.0027380933
-0.016791493
-0.046740633
-0.10352983
-0.079674736
-0.045345798
-0.064595304
-0.026807055
0.07792825
0.013639019
-0.07414528
-0.06404207
-0.07690567
-0.04954503
-0.04950221
-0.05962449
-0.064522766
-0.082137845
0.00420263
0.1200631
-0.07192765
0.03424802
0.019793319
-0.0006344069
-0.008075145
-0.01229317
0.09671615
0.06336507
0.01726043
-0.023480862
0.13720265
0.044822216
0.01269019
-0.018439211
0.018828234
-0.044183098
0.15507929
0.057699382
-0.040111203
0.13582084
-0.073033445
-0.057672497
0.024262141
0.018451897
-0.025878202
0.060403023
0.043031886
0.06283937
-0.06189885
-0.02538163
0.00886169
-0.012315927
-0.03121429
0.033982884
0.04814782
0.11415224
0.03917377
0.016450265
-0.080349125
0.010287547
-0.057711866
0.1191078
-0.067506455
-0.11128768
-0.031553313
0.0031968758
0.0017148618
0.07279012
-0.0156060085
-0.06471516
0.046090417
0.07755561
-0.023693668
-0.029495573
-0.05868772
0.092170626
0.06827098
0.0988104
-0.090179324
0.09905208
0.011595121
-0.069591075
-0.022123238
0.04681527
-0.07645161
-0.042144727
-0.021066736
-0.040013537
0.079671405
-0.069559745
-0.033910014
0.0028258746
-0.009460901
-0.0051159565
0.04051037
0.055118598
0.026638605
0.06610581
0.031031664
-0.074124835
0.07084284
0.034378238
-0.060467474
-0.0072475774
0.023892336
-0.04854615
0.047341805
-0.04629682
0.0069048107
-0.06379881
0.012942188
-0.032830674
-0.01884306
-0.045459915
0.03698557
-0.08057069
-0.029938757
0.0131888185
-0.058393624
0.060696244
-0.022710223
0.019694103
-0.03290504
0.08203806
0.062094234
-0.026070364
0.015533926
-0.03152189
0.014831868
-0.06099446
0.04381862
-0.011523501
-0.025689127
-0.07890024
-0.13561282
-0.084682524
0.024866533
-0.015740812
-0.038153205
-0.0011489937
-0.028834406
-0.025086321
0.04328827
-0.07157274
-0.122554876
-0.0067951796
-0.12451847
-0.054424703
0.05071245
0.005862193
-0.06295324
-0.11618938
-0.014935462
0.0033592111
-0.1765602
0.06778559
0.033014767
0.015737964
-0.030455105
-0.034986775
-0.008322519
0.051749915
-0.05116355
-0.050203245
-0.017615862
0.052320573
-0.019712988
-0.02283302
0.017859718
-0.044078644
0.12925875
0.013220492
-0.019392757
0.042593744
-0.10784805
0.013470941
0.1233411
-0.025111474
-0.06433561
-0.0013476538
-0.028408602
-0.10428905
0.036511492
0.08998685
0.11348526
-0.07237416
-0.04379006
-0.036583733
0.09988392
0.09120816
-0.0839555
-0.041968264
0.060327187
-0.012044167
-0.029236542
0.089175254
0.0043001776
0.03218914
0.01688009
-0.05558397
-0.07708735
-0.028392907
0.026300538
0.018010465
-0.038890127
-0.051230732
0.038822196
-0.042720173
0.08690946
0.033126865
0.08924193
-0.02236327
-0.064491756
-0.06908083
0.029143684
0.053509038
-0.062468342
-0.040515244
-0.070519865
-0.01600449
-0.048113793
0.050938357
0.0658202
-0.04127541
-0.08375248
-0.06111535
0.041723423
-0.017135743
0.08053686
0.0604906
-0.091557644
-0.039494272
-0.07333303
-0.054684073
-0.07469252
-0.083373226
0.077808894
-0.08586842
-0.003744966
0.0095444415
-0.043700896
-0.056341637
-0.049403343
-0.06257615
0.08028453
-0.13067278
-0.017708981
-0.07209614
-0.028340857
0.034089185
-0.021864953
0.0393307
0.024631387
-0.047504507
-0.08018288
-0.057730526
-0.05620559
0.10892406
0.029236024
0.055576194
-0.12661475
-0.117259935
-0.05073243
-0.1199122
-0.029712467
0.011104588
-0.11172013
0.030969903
-0.08761335
0.07404067
-0.022928772
0.009793275
-0.07261809
0.061446317
-0.0045777312
0.035220098
-0.042754594
0.015543753
0.020802168
-0.0022623911
-0.02280505
-0.09585993
-0.0037628491
-0.039373517
-0.05595694
0.008883476
-0.0075971973
0.014533453
-0.1193312
0.06611649
-0.022841604
-0.06556154
-0.04810088
0.010465042
0.041009106
0.008522719
-0.07740532
0.024659542
-0.12358006
-0.11090852
-0.033720158
-0.07841376
-0.0024189253
-0.08563652
-0.023570752
-0.045922313
-0.10957248
-0.017128719
0.059953842
-0.029622268
-0.056787543
-0.112910755
-0.058437053
0.04463734
0.09155299
-0.056665882
-0.058138743
0.09975939
-0.033869505
-0.017144144
0.10946064
-0.041926894
0.061383527
0.08379039
0.026078707
-0.04080803
0.0018932248
-0.07508245
-0.028267862
0.044178206
0.104120135
0.116928816
-0.00033771346
-0.09449745
-0.06902462
0.03217915
-0.006775902
0.0037283562
-0.0064460426
-0.060601495
-0.03935868
-0.029635789
-0.025781965
-0.04050564
-0.019069474
0.022698868
-0.038502373
-0.01641706
0.04536338
-0.074242406
0.0074339807
0.0015047682
-0.04531581
0.062432524
0.012187202
-0.08240258
0.013841629
0.06302859
-0.036754318
0.029240452
0.0064687226
-0.06766042
-0.07809168
0.07292667
0.058568243
0.053224843
0.0039405525
0.10373486
-0.03197914
0.027019273
-0.02039196
-0.02860107
-0.07923995
-0.003801335
0.027453505
-0.032228973
-0.06886359
0.079925604
-0.08481711
-0.014938699
-0.023283074
0.017210234
-0.032233246
0.026253277
0.04856162
-0.07733019
-0.027298067
0.039973512
-0.13450772
-0.10142396
0.08790504
-0.14168929
-0.060176484
-0.015892314
0.0044848793
0.06742817
-0.030903315
0.015200645
-0.061299756
-0.028971862
-0.041387502
-0.037030634
-0.0012943737
-0.00600814
0.065351516
0.013651872
0.008443764
0.0014138173
-0.05266233
-0.06641839
-0.016492134
0.052041367
0.05393508
-0.014079538
0.06683335
0.04398595
-0.011369372
0.0012206809
-0.09195428
0.040926233
0.008491484
0.004206738
0.013362145
0.0025295387
0.00933434
0.061934363
0.03781259
-0.08248947
-0.042605903
-0.061698936
-0.04590884
-0.015089819
0.041653853
0.065465696
0.03239029
0.08600078
0.06136511
-0.015841985
0.03505373
-0.039645918
0.07604075
0.08224848
-0.12286062
-0.030594062
-0.020457301
-0.020198608
-0.0032042745
-0.049325787
-0.046182122
-0.024414679
-0.08213195
-0.069744
0.007636573
0.07322139
0.07703886
0.027276948
0.042419977
-0.09881599
0.012467156
-0.046598826
-0.03950851
-0.13670163
-0.06615039
0.10902163
-0.017938517
0.058089923
-0.0011788063
-0.08344549
0.033275776
-0.08412437
-0.05007762
0.063592546
0.08667121
-0.03933166
0.016921202
0.035886306
0.09083823
-0.044501353
0.024588926
-0.024868308
-0.102145344
0.013198381
-0.07028293
-0.0327778
-0.0352742
0.07374981
-0.05080217
-0.018607488
-0.10401818
-0.073385365
-0.075445995
-0.03710257
-0.06437233
0.0111738825
0.027841749
-0.07616183
0.056848712
0.045664262
0.008635538
-0.06023062
-0.06669976
0.02941216
0.088640295
0.030977197
0.036811743
-0.0012358003
0.046138447
-0.014694023
-0.08102329
-0.04886286
0.03242617
-0.021682177
-0.10430416
0.041534282
-0.07375929
-0.06365872
0.037234966
-0.0067207403
0.007749156
-0.053856082
-0.03402743
0.036718264
-0.0132687045
-0.007284878
-0.05825223
-0.07472309
0.022163047
-0.0686471
-0.008019157
-0.039419174
-0.037108697
-0.10094183
-0.016184324
-0.065879256
0.078152455
-0.008529817
0.07128245
0.040071126
-0.024220856
0.039929714
0.081476
0.022697546
-0.036634594
-0.007505008
0.10434134
-0.039465975
0.041082222
-0.0067243893
0.011699484
-0.083857834
0.08188122
-0.013810534
0.045745384
0.023409473
0.0065536518
-0.05169673
0.006285022
-0.053125907
0.018500729
-0.05441306
0.06594478
0.01895664
0.09543882
-0.086429164
0.088220306
-0.02190283
-0.076373324
0.030563746
-0.09943975
0.023681827
-0.058300033
-0.035495378
-0.014316051
-0.024498865
0.061076388
0.072651975
-0.029482247
-0.042779844
-0.045442443
0.0070802122
-0.055181686
-0.0016573567
0.056115665
-0.048897374
-0.013663734
-0.016245726
0.13842165
-0.0012180209
-0.002073588
0.022291716
0.018511316
0.07679705
0.07624975
-0.015229407
0.006129251
-0.027477419
0.0012140578
-0.03411664
-0.024622533
0.006628565
0.009853619
-0.037120543
-0.013503271
0.07387076
-0.041443866
0.106612675
0.057593912
0.056794234
0.057788808
-0.0036734769
0.044206124
0.064248055
-0.1243456
-0.09864842
0.072405584
0.05148568
0.060937177
0.016776131
0.08714852
0.10227359
-0.059557825
-0.046607736
0.06316067
0.04864506
0.062021527
-0.0034762903
0.08363166
0.048227448
-0.059762515
0.051345143
-0.052484915
0.08339517
-0.13204437
-0.06383441
-0.05026937
0.026149763
-0.061800748
-0.018265318
0.08260912
0.088963754
0.06506974
-0.108293235
0.07151854
0.030763486
-0.025498057
-0.030099194
-0.03403172
-0.054089047
0.025020309
0.028182834
-0.029631067
-0.015609765
0.06054919
0.013564955
-0.03752854
0.038452834
0.040653154
-0.011476867
0.031223815
-0.06522894
-0.102947645
0.0052092858
-0.00019639338
-0.104212046
-0.031174706
-0.008382612
-0.05239996
-0.005730212
-0.015081512
-0.07392505
0.13582534
-0.04967629
0.044746365
0.050474863
-0.008205741
-0.08408089
0.04305045
0.058050875
0.019042416
-0.025718391
0.014594652
0.043059096
-0.1109972
0.030831179
-0.05996722
0.04867953
0.017977197
-0.0446298
-0.043728307
0.0022432585
-0.08220097
-0.03319935
0.013668957
-0.07865295
-0.03909908
-0.056403346
0.009393506
0.012717142
-0.06103085
-0.064176105
-0.028312616
-0.048271168
0.026735539
-0.023306698
0.09845935
-0.03556304
0.057897925
-0.041929327
-0.01203542
-0.019032395
-0.022417676
0.055799283
-0.031144677
0.0046640597
0.0074183578
0.1505222
-0.09022336
-0.0058122273
-0.017549153
0.036701694
-0.021526229
0.0038381417
-0.053716194
-0.10375795
-0.064460486
-0.0025972386
-0.093870014
-0.050031602
-0.11256567
-0.09332695
0.025701731
0.11017645
-0.008367604
-0.005293653
-0.033249088
-0.06397519
0.027080761
-0.0013280594
-0.051584993
-0.02692155
0.036368445
0.14342609
0.043532453
0.049250055
-0.0068579023
-0.033646967
0.075930774
-0.0013774224
-0.021780541
0.016249646
0.11262198
0.13749026
0.096531756
0.07813332
-0.025460163
-0.01569004
-0.03151256
-0.004848946
-0.040352497
-0.045364317
0.07693889
0.06330829
0.034357272
-0.08392931
-0.036142718
-0.05160837
-0.113405384
-0.039987274
-0.079006895
-0.024803555
0.078542516
0.058688253
0.06504588
-0.104201734
-0.034732636
0.040571827
-0.048715267
0.064395
-0.0754833
-0.0036339879
0.033400416
0.046367925
0.08900268
-0.10851285
-0.071386725
0.04863416
-0.040493835
-0.09232942
-0.060582787
0.0355299
-0.07716462
-0.08080339
0.06928069
0.03748847
0.0009884605
-0.07390771
-0.09640286
-0.07648048
-0.114062354
-0.09100537
0.07521084
-0.07000459
0.007717097
0.033640593
0.028840085
-0.013280336
0.06951761
-0.08582105
-0.06774272
0.05056763
0.05306514
0.09241913
0.036428016
0.060655072
-0.017234044
0.048219595
-0.09629473
-0.085366234
-0.021499941
-0.04426122
-0.019111812
-0.002983978
-0.0018321831
-0.016174732
0.06403959
-0.026902454
0.0061307186
0.016510375
0.0456165
0.08349839
-0.09332016
-0.040501833
-0.012402124
0.028475035
-0.014024782
-0.01245864
-0.10220566
-0.01926676
0.01886391
-0.040017076
-0.023046646
0.0138254445
-0.0699515
-0.059833705
0.0014472912
0.047628883
-0.07148307
0.0415505
-0.03329353
0.008914318
0.01820015
-0.10573908
0.05132567
0.056460913
-0.049708214
0.0061656283
-0.02042361
-0.015504209
-0.034287103
0.04429216
0.10726792
-0.051014155
-0.05862213
0.074710295
0.031317133
-0.06677685
0.0781267
-0.08936897
0.08062795
0.02013459
-0.02248423
0.027090607
0.05865297
-0.007675509
0.005461117
-0.0071776486
0.076163314
0.04671188
-0.0145041775
-0.064665966
0.077174656
0.023071842
-0.048175238
0.060820375
0.053804073
0.032894567
0.10019344
0.056421895
-0.05078428
-0.08104095
0.0026524402
-0.012119869
-0.03546489
0.06448262
-0.04200804
0.10811506
-0.020308318
0.06208433
-0.016643787
-0.02951833
0.053654924
-0.08823188
-0.045259006
-0.0033211634
-0.024228621
-0.061521582
0.00840812
-0.084836915
0.07076494
-0.052254513
0.04466549
-0.09136532
-0.13824074
0.018692663
0.024100842
0.035407614
-0.10653947
0.033837985
0.11332555
-0.07449697
-0.0933163
0.032317758
0.0324719
-0.10884491
0.03821196
0.03153256
0.012130395
0.074436456
0.04785813
-0.0019879376
-0.039843008
0.089612186
-0.015085722
0.012320075
-0.017767964
0.018531317
0.058095247
0.045934707
-0.059100017
0.054706372
0.044729415
-0.07796003
0.02532029
0.017321747
0.07728238
-0.08273549
0.040904146
-0.04198123
-0.04237723
-0.0008740663
0.04821721
0.01833883
-0.038500823
0.09876772
0.10267227
-0.020625653
0.016445702
-0.0024154289
-0.0020252506
-0.03266387
-0.048813168
0.11863577
-0.094266966
0.0080264555
-0.05682294
-0.0015972676
0.040476386
-0.05167684
0.038653605
-0.042337656
-0.043732665
-0.0333894
0.052693084
0.042431775
-0.05550961
0.050118167
0.053190753
-0.08675176
0.057240937
0.013608183
-0.047483094
0.086783975
-0.022875529
-0.0850966
-0.015537446
0.019526342
0.076763466
0.01563735
0.041579954
-0.03357927
-0.021531118
0.005093466
-0.04392564
-0.014962604
0.017774079
-0.0066209477
0.02791614
-0.010260156
0.052859765
0.056359146
-0.038425546
0.03204647
-0.07593328
-0.029007759
0.0056280484
-0.005866483
-0.025017131
-0.008394195
-0.04355393
-0.008455314
0.002408904
0.0045163394
-0.02585267
-0.050444134
-0.07629109
0.048321664
-0.029950382
-0.04749203
-0.05133747
0.08421976
0.0005918797
0.023753108
0.053620275
-0.0344683
0.039293434
0.05851246
-0.13332658
0.008316131
0.0379097
-0.02030382
0.059030402
-0.056546435
-0.029552484
-0.08146627
-0.06216198
0.019053124
-0.04269317
-0.010348639
0.03836687
0.023952924
-0.0121365
-0.046182565
-0.0012713576
0.0180662
0.02456714
0.079036765
0.04630155
-0.057924427
0.02498946
0.08464034
-0.114203915
-0.03904832
0.059007924
0.008454436
0.105207026
0.06336899
0.042807944
-0.019381551
-0.033971105
0.0133905355
-0.015887879
-0.111234635
-0.04335095
0.018689575
0.022347314
0.009995368
0.05870397
0.027746977
-0.008766115
-0.075005874
0.017967153
-0.033726405
-0.051522207
0.06712932
-0.02548525
0.058501147
0.06032278
0.07597529
-0.082020424
0.02353495
-0.011609838
-0.0484673
-0.071846776
0.083990216
0.060463876
-0.011443851
-0.004269431
-0.0263799
-0.059019547
-0.04271616
0.010677307
0.06453683
0.03138332
0.015401226
0.03296077
-0.11424774
0.066612765
0.03240817
-0.029337171
-0.02456876
0.0141274175
0.013700318
-0.033479713
0.09359064
0.064956866
0.055251095
-0.079805605
-0.009075739
0.067249715
-0.07142633
0.041847754
0.07986173
-0.058334112
-0.07238309
0.053234056
-0.04518695
-0.123610236
0.0631664
0.014245385
0.047010597
0.068228014
0.06811397
-0.1588778
-0.1420741
0.0033642377
-0.011112122
0.07583411
0.084841006
0.051443696
-0.10242179
0.016481992
-0.055346567
-0.10537484
0.023129951
0.011671169
0.029057402
-0.009969926
-0.020170495
0.1107472
0.059050635
-0.0066690957
-0.10318348
0.037818298
0.06555706
0.061678987
-0.122103594
0.0743865
-0.045713738
0.087450676
-0.0014829119
-0.03655415
-0.009051297
0.03264705
0.005540513
0.02950428
0.07106416
-0.017120413
-0.052991834
0.0149549125
-0.07836709
0.008215805
0.11870727
0.0032907163
0.07205427
0.09053821
-0.09517418
0.028237347
0.06800643
-0.05544777
-0.04913284
-0.10608397
-0.03647273
-0.08413334
0.06503962
-0.00033718304
-0.005603954
-0.043673497
-0.0001988627
-0.0753312
-0.036186848
-0.029408129
-0.010603057
-0.051649883
-0.0090068355
0.017666688
-0.03928128
-0.061073083
-0.080401
-0.081969075
-0.039677005
0.050258707
0.02037977
-0.0468774
-0.07993627
-0.034398966
-0.077112176
-0.02946382
0.0033498846
0.06862504
-0.0639888
0.020475645
-0.004193273
0.01614387
-0.033253632
0.015393285
-0.0698108
-0.0069290176
-0.029740416
0.075899474
-0.08155905
-0.068765625
-0.053937864
-0.002116536
0.036086246
0.049553175
0.023438118
-0.07839426
-0.01847304
-0.04915621
-0.024388578
0.014975158
0.0718844
0.06521611
0.15157765
0.01533579
-0.042042207
-0.081034966
-0.07761803
-0.074987255
-0.06293563
-0.020698546
-0.057359867
-0.051430546
-0.0040775035
0.12154965
-0.025506545
0.10577973
0.08123567
-0.02897617
-0.07706549
0.009519318
0.06154412
-0.054342344
-0.14004491
0.008876766
0.008456343
-0.02125099
-0.07235429
-0.024661444
0.07659108
0.032044347
-0.06720547
-0.0030774446
-0.04168112
0.05513751
-0.12007105
-0.07306957
0.060396735
0.01813627
-0.08834528
-0.04403934
-0.044381924
-0.037044916
-0.015947185
-0.00080714934
0.026701087
-0.14312257
0.0726369
-0.10278373
-0.04336223
-0.017129004
-0.06381776
-0.09359758
0.083476864
-0.14038545
0.062160358
-0.056521077
-0.06311832
-0.06464828
-0.08292674
0.0314194
-0.15286937
-0.08128415
0.0027510682
-0.03835043
-0.060070492
0.005640103
-0.007538352
0.018229231
-0.008437826
-0.041876152
-0.061207063
-0.016885914
0.072736084
-0.01850749
0.019961152
-0.07751901
0.060014524
-0.06214698
-0.08108944
0.021678802
-0.066879384
0.024233865
0.09310118
0.012493061
-0.089938276
-0.07509011
-0.036150455
-0.1012895
-0.1337186
-0.03485907
0.0069799097
-0.05003303
-0.06498016
-0.045092043
-0.032632813
0.02668353
0.06882305
-0.020187246
-0.12840605
-0.06478759
0.085406154
0.04500924
0.01560719
0.065885894
0.01869226
-0.04628136
0.029285232
0.025936028
0.0038267968
-0.15405154
-0.06756645
-0.056063697
0.10496102
-0.06214158
-0.06076832
-0.03866266
0.027059382
0.094167314
0.06825963
-0.0607966
0.08059357
0.052091748
0.0783524
-0.05103754
0.09104665
0.06667511
-0.10741326
-0.055856347
0.07041779
0.09002345
0.055952743
0.00100882
-0.08650198
0.019187286
-0.07431331
-0.09254795
0.014293615
0.0021511735
-0.079070084
0.035595134
-0.06563425
0.09655329
0.003291945
0.102959745
-0.12378031
-0.050573986
0.009311736
0.036674853
-0.0680832
-0.018471604
0.0010508121
-0.002689052
-0.051824603
0.014145691
0.061937228
-0.059081543
-0.15066016
0.002261638
-0.031334925
-0.04756327
-0.04975173
0.06722297
-0.043299526
0.039975386
-0.017296048
-0.018886248
-0.043497413
-0.05598784
-0.038722213
0.030570267
0.03711649
0.023019165
-0.045167558
-0.08959065
-0.052328814
0.02087707
0.061811283
0.050025705
0.025445528
0.007944471
-0.037256174
-0.04011177
-0.0018119188
-0.09675831
0.028329074
-0.08680944
-0.054961164
-0.052586023
0.006268142
0.018282365
0.0043782843
-0.106703155
-0.0597349
0.02975616
-0.018524637
-0.09564621
-0.12077397
0.008362694
-0.08801919
-0.0036593112
-0.015059276
-0.08218077
-0.0917917
-0.07682512
-0.07285588
-0.0551495
-0.042737283
-0.015615386
-0.009873342
-0.069449954
-0.094815105
0.03984338
0.063122615
-0.09580926
-0.0065681124
-0.06091926
0.055325087
-0.05216502
-0.055004746
-0.05352705
-0.04675449
-0.027545094
-0.103858516
-0.0070150965
-0.05195135
-0.029141817
0.019431926
-0.026996842
0.036457498
0.02808294
0.014801821
-0.08249492
-0.033370864
0.083963804
-0.038488798
-0.08475903
0.03839281
0.038545117
-0.058439076
-0.09335715
-0.02688214
-0.02211038
0.07475751
-0.046595145
-0.08592738
0.064407766
-0.050366413
-0.0799141
-0.054432765
-0.03010034
0.022718498
-0.04629168
0.053628635
0.046888374
-0.06520453
0.017055864
0.095570154
0.006280133
0.042573184
0.024889065
-0.027288657
-0.04661737
-0.00055652106
-0.029680992
0.07704516
-0.074042544
0.025354993
0.09086585
-0.043262307
0.08543527
-0.13845997
0.08821984
-0.075353034
0.02758156
0.066484645
0.07294895
-0.052925766
-0.06495665
-0.03821236
0.115714766
0.056765333
-0.06278411
-0.10119862
-0.046114158
-0.005288864
-0.0070749884
0.09732001
0.05400215
-0.04065445
0.056038056
-0.07697854
0.007732713
-0.007471467
0.060081795
-0.03427148
-0.0023813476
0.070566475
0.0101241665
0.11016618
-0.023242276
0.03425482
-0.004231601
0.01120231
0.037828747
0.066070184
-0.1314192
-0.0065358533
-0.03396206
0.049119923
-0.01954822
0.0778234
-0.0058052773
-0.055525195
-0.032959964
-0.07109537
0.0006529866
0.052227944
0.09114159
-0.08125372
0.024882121
0.07637999
-0.11540978
-0.085627005
0.1075542
-0.009695466
0.05225202
-0.0820419
0.0053976546
-0.004157067
0.10482201
0.11800223
0.08582703
-0.010346519
-0.1166017
-0.013660824
-0.018079208
0.04057649
-0.08551442
0.0814842
0.01638889
-0.017026257
0.056323905
0.021722957
-0.06711209
-0.006165481
-0.015027112
0.079230264
0.047626816
0.05477683
0.042724233
0.005103292
0.11482035
0.01323331
0.06793776
0.02617453
-0.03629143
-0.0009570543
-0.0026623616
0.008730608
0.04725136
-0.03173232
0.023828698
-0.067363605
-0.10010709
-0.03599441
0.033216264
0.05316006
-0.03422748
-0.062517285
0.080754645
-0.027229663
-0.06850808
-0.06980316
-0.10235254
-0.10497269
-0.089911036
0.027377468
-0.058452107
0.032625638
-0.07021953
0.108657315
-0.054208245
0.051042225
-0.08698153
-0.025767324
-0.037381195
0.055506006
0.054811176
-0.012629722
-0.07252011
0.07218859
-0.041058615
0.07615423
-0.034736622
-0.05315911
-0.043461867
-0.11022262
0.06368081
-0.005446866
-6.110057e-05
0.048573572
0.054608703
0.070794165
-0.018157132
0.010943263
-0.04234967
0.02763512
0.04255592
0.02353828
0.033885997
-0.028897785
-0.030396897
0.07173022
-0.06646918
-0.022630969
-0.018975083
0.011717158
-0.04474076
-0.015679143
0.06754288
-0.07480043
0.061513495
-0.057571575
0.05745662
-0.021883601
-0.07464271
0.0376768
0.019638604
-0.026200546
0.102174625
0.10191626
-0.011660877
-0.06536363
0.0082646385
0.020309158
-0.069633074
0.044246633
-0.06614834
0.024858097
-0.09741471
-0.115615845
-0.022394292
0.08065124
0.09386711
-0.016353197
-0.050790954
0.013459227
-0.08879881
0.0007111584
0.038056243
-0.084970675
-0.0077247117
-0.03744431
0.00696319
-0.082850695
0.095887974
-0.06202861
0.03684055
-0.0010919401
-0.057765577
0.041285034
-0.0705468
-0.016902259
0.0462023
0.07044371
-0.042511787
0.008275106
-0.07318142
0.08907518
-0.0119027095
0.045678478
0.025497627
-0.049186118
0.023686964
-0.06354895
0.04325294
-0.1056359
-0.00509681
-0.10821029
-0.054975633
-0.074961
0.017861307
-0.07657126
0.06825268
0.018447181
0.065535694
-0.046435054
0.0024791649
0.00701096
-0.0071448674
-0.09199604
-0.047541365
0.013054233
-0.056797545
0.012538104
-0.116007656
0.04857616
-0.028640274
-0.07632488
-0.047286455
-0.031847488
-0.041844197
0.009692821
0.0057773795
-0.050305545
-0.050716817
0.015041168
0.04025097
-0.011350533
-0.038846284
-0.038968578
0.037287463
0.06364147
-0.007411353
-0.004114771
-0.017888626
-0.14050417
0.04554663
0.019705713
0.04162561
-0.0259568
0.0130926715
0.060979012
-0.035828885
-0.06745074
0.03631555
-0.034234762
0.024723114
0.019694358
-0.0121064875
0.05737268
0.102010176
0.025599455
-0.022220839
-0.0634759
0.026971051
0.018746406
0.071741894
-0.012871782
0.016568461
-0.02708618
-0.08936919
0.07591212
0.083127625
-0.022544706
0.07998093
0.05613772
0.05864872
0.022620123
-0.09117675
-0.08512948
0.0395126
0.02063382
-0.029291382
-0.03630217
0.11543777
0.068285294
0.050170142
-0.050929267
0.07691186
-0.05190617
0.028989054
0.04396263
-0.05475443
0.050890088
-0.07113501
-0.077536196
0.009123227
-0.009695155
0.07102759
-0.025680894
0.025074862
-0.12774237
0.013141838
-0.09507291
0.06544062
-0.12715176
-0.08047361
-0.00061308383
0.08611415
-0.001044304
0.02059784
0.012591505
0.061588198
-0.04542997
0.017318603
0.030118521
-0.004452303
0.11306165
-0.021198
-0.044476677
0.04392602
-0.057812445
0.05770802
-0.015288219
0.062185984
-0.08319011
-0.0044967146
0.021370195
0.06067685
-0.07148474
0.07185262
-0.017222416
0.038131204
-0.1120481
0.011277247
-0.044469345
0.019224808
-0.091304995
0.035428673
0.030264704
0.009868637
-0.05207004
0.017049272
0.09275366
-0.043803748
-0.025097484
-0.03133213
0.040853485
-0.08234374
0.035169452
-0.0895484
-0.007340597
-0.0557904
0.032369416
0.07895533
-0.073737994
-0.13390183
-0.079602845
0.066801876
-0.06008834
-0.033171367
-0.04981191
-0.059335936
-0.07311943
-0.017996455
-0.008943065
0.020921228
0.023105286
0.008994213
-0.05207592
-0.0039107604
-0.114720315
-0.0931846
0.043031126
-0.07401838
-0.09575862
-0.075611584
-0.021179322
-0.11285681
-0.004510807
-0.00023160195
0.014015559
-0.036434628
0.046188716
0.06698168
-0.0073236586
0.003473228
-0.029558405
-0.080315016
-0.05967793
0.013182925
0.031506717
-0.049134057
-0.051102452
-0.07841293
0.04149501
-0.052337807
0.031498194
0.028041076
-0.049925003
0.08353199
0.012098591
-0.057641275
-0.028803997
-0.06843241
0.011862472
-0.0712367
0.06679062
-0.004113618
-0.03702629
0.030560821
-0.0376621
-0.045567736
-0.039233603
-0.1298872
-0.06507901
-0.09801422
-0.06443092
0.037789162
0.0020298131
0.033794977
-0.10187423
0.07178604
0.027191559
-0.08336583
-0.09330766
-0.004018893
-0.08804176
-0.0046349294
-0.044907205
0.079222314
0.14151777
0.019306403
-0.03547606
-0.056274865
-0.054202776
0.042102583
-0.04459715
-0.017954452
0.04279369
0.024956832
0.016443089
0.027394839
-0.08527321
0.04997082
0.011541798
0.00043458102
-0.08009829
0.009218056
0.043634128
-0.021539086
-0.02454925
-0.005864498
0.07002101
0.016940884
-0.01650673
0.06695751
0.07223556
0.0798912
-0.035061955
-0.014796246
-0.08823755
0.12112903
0.105506636
-0.070727594
0.027991189
-0.013599559
-0.01085299
0.026183981
0.047453925
-0.07089677
0.0111820055
-0.009650149
-0.108439885
0.05860231
0.060985107
-0.004995622
-0.09187129
-0.09471299
-0.030553019
0.04364215
0.010941347
-0.098881856
-0.052623194
0.0123076765
0.09524914
-0.10928818
0.0824169
-0.102653936
-0.08235618
-0.07395976
0.071399935
0.0407953
0.026207175
0.01495153
-0.008723871
-0.038335126
-0.044236388
-0.07618553
-0.022398632
0.006508787
-0.09285905
-0.04586757
0.062269192
0.09423645
-0.06451962
-0.0363992
-0.078686796
-0.09821342
-0.11307052
0.026389146
0.06696777
-0.031219272
0.07859108
-0.017838312
-0.07032834
-0.032194536
0.033840142
-0.087430626
-0.0007212658
0.082174495
-0.034707613
-0.08090737
-0.0033223059
-0.064708285
-0.11857863
-0.00015997056
-0.05034454
-0.054340757
-0.080481865
-0.037164185
0.01324805
-0.014155853
0.073579885
-0.074304685
0.022194706
-0.085156016
-0.035825282
-0.07361783
0.07730939
0.06871963
0.062258974
0.022514574
0.03882979
0.09670789
-0.09529778
0.015129402
-0.011093556
-0.044777337
0.0368807
-0.04538444
0.04783015
-0.03031104
0.086664446
-0.08331295
0.014963997
-0.0076353857
0.09747503
-0.11021258
-0.07066493
-0.0049167466
0.034782745
-0.08863346
0.04458983
-0.07741472
-0.100814015
0.0059978664
-0.006426322
0.08042118
0.03789849
0.05145932
0.0636882
0.13063785
0.04467283
-0.059809517
0.06580926
0.019914964
-0.039171252
-0.12090968
-0.083514936
0.08287583
-0.10098033
0.07606161
0.062704295
0.13915709
-0.025913259
0.09126699
-0.054315947
-0.034934178
0.021178754
0.022334259
0.10252761
0.018076602
-0.018669622
-0.063674204
-0.06645993
-0.06509322
-0.056026213
0.023070442
-0.025365144
0.08076216
-0.025606388
-0.065049544
0.05738051
0.044876006
0.06429122
0.0035136365
-0.047287583
-0.07861363
0.056620475
-0.014420088
0.040828735
-0.0019025047
0.0062863217
0.06989755
-0.00046723973
-0.040986232
-0.057516795
-0.11302394
-0.035352834
0.07575084
0.048725657
0.039467737
-0.08035092
0.06960812
-0.05487091
0.069589846
-0.019817945
0.052961282
0.09886924
0.008856399
-0.04704437
-0.08561335
-0.052078847
0.015715703
0.03268678
-0.027820973
-0.11230292
-0.0900186
-0.059800167
-0.0056709005
-0.09356125
0.0864284
0.047873054
-0.037736267
-0.08386976
0.077838495
-0.028356755
0.050543796
-0.04026539
0.020801904
0.0034038892
0.050802104
-0.03584509
-0.030982114
0.011491916
0.024006011
-0.08241202
-0.06550832
0.020601297
-0.08823347
-0.0025918288
-0.07958156
0.07772476
-0.0019059988
0.05299937
0.079149365
0.03438603
-0.09870008
0.059801217
-0.020555528
-0.028027838
-0.02141642
-0.037098095
-0.0009429645
-0.028804952
0.10829238
-0.0599266
-0.0571683
-0.068589106
-0.016910106
-0.061683267
0.08588339
0.029582694
-0.0170609
0.026481787
-0.047640502
0.057146665
-0.056681097
0.015158256
0.14046748
-0.082568906
0.013125674
-0.01351187
0.046405148
0.038623687
0.018072778
-0.053617932
-0.10574303
-0.112558804
-0.0071884766
0.033754792
0.0467525
0.06343296
0.08001764
-0.039284125
-0.0960226
0.002588152
-0.07899228
0.11422452
-0.017941942
-0.017014312
0.07803625
0.039854158
-0.018324193
0.008123901
0.010335271
-0.0038868207
0.034479033
-0.066331804
0.10765907
0.08746423
-0.07621192
0.0822461
-0.07777517
-0.14765291
-0.05607727
0.033744957
-0.081551604
0.033916436
-0.02095719
0.0064876718
-0.059677422
0.012791469
-0.03970133
0.02822242
0.056214623
0.022101395
0.08586449
0.04892885
0.04094299
-0.016272122
0.060052447
-0.028126106
0.031622585
0.091282345
-0.06866526
0.10887179
-0.044537053
0.024025554
0.018093472
0.028390685
-0.063400954
0.0955114
0.032100793
-0.0049667186
-0.09735999
0.01488464
-0.06950492
-0.07630833
0.015580057
-0.060737863
0.089366525
0.061063115
0.011208993
-0.13378355
0.075218365
-0.063424036
0.07773442
-0.013156054
-0.008269681
0.04725953
0.046563234
0.084434606
0.018387824
-0.031730704
-0.02142044
-0.081259266
0.040478393
-0.02974336
0.015344943
0.005075434
0.11604119
-0.083040945
-0.072298884
-0.051794354
-0.07438812
-0.103143044
-0.081955284
0.1005886
0.063700736
-0.15320115
0.008188247
-0.067095324
-0.013924293
0.048009712
0.052286927
0.07247813
0.0250599
0.07286064
-0.08035355
-0.051652864
0.011035588
0.027082536
0.03354227
-0.039395135
-0.10938912
0.04983865
0.016951697
-0.16091837
0.044425834
0.052268274
0.051649533
0.00927868
0.025828972
-0.015731797
-0.02950473
0.009246552
-0.1564311
-0.059576303
0.081127115
-0.008884796
-0.04030245
-0.09159052
-0.058959626
0.08531852
-0.1245928
-0.08376408
0.035929494
-0.028295571
-0.096441776
-0.04535489
0.026644096
-0.0603563
-0.061707076
0.041416902
-0.08354799
0.04791727
0.030479347
0.05145208
-0.012265045
-0.03259564
-0.13340381
-0.13805282
-0.021403646
-0.059176497
0.10666167
0.007842396
-0.043295436
0.012037191
0.0017875837
-0.012684725
-0.017433498
0.11568549
0.042927746
-0.010957482
-0.08826205
0.08287767
-0.018604703
0.035662
0.10067972
0.087021224
-0.14857203
0.05929769
-0.08408763
-0.007895458
-0.08813741
-0.0066223117
-0.018716615
-0.0792234
-0.029381493
0.05480354
0.073352724
0.036705486
0.03290405
0.109814025
0.0030369917
-0.010869988
-0.054356933
-0.0632053
0.028451858
0.05763592
-0.08643125
0.0015997178
0.08410877
0.043035343
0.0033704322
-0.0657073
-0.027996603
0.05035421
-0.05781765
0.08171787
-0.0055981367
-0.03621036
0.121261634
-0.06987021
-0.029018015
-0.0031365557
0.06322209
0.056852892
0.022760626
0.04988623
0.03164044
0.0866616
0.029563155
0.06529598
0.057412237
-0.09101251
-0.06705877
-0.12330078
-0.13592947
0.052966345
-0.009097516
-0.08404598
-0.040089928
-0.06428304
0.0341155
0.0752046
0.02001172
-0.06250782
-0.118891776
-0.038139287
-0.028948832
0.01789801
-0.06728039
-0.028015047
0.024678785
-0.09982782
0.0043047364
0.0033916915
0.01631637
-0.010566527
-0.03909772
0.01972398
-0.024089431
-0.027553521
-0.022028275
0.09004672
0.027439812
0.07827549
0.1124744
0.110442534
-0.13045737
0.018682515
-0.057675835
-0.030159693
-0.039565954
-0.044775404
-0.043893322
-0.051891793
0.028260855
-0.04263603
-0.041382633
-0.014792397
-0.062867425
-0.09681243
0.009467269
-0.09187561
0.019117957
0.036897134
0.035952933
0.04033381
0.10195808
0.035826843
0.05385285
0.052596282
-0.105538405
-0.02468545
0.049280744
0.051702797
-0.035504334
-0.057687134
-0.11503219
0.047532476
-0.06924558
-0.040775765
-0.0019924142
-0.034204718
-0.007367802
0.016462691
-0.11670768
0.036936946
-0.08634948
-0.055401865
-0.06922136
-0.027949471
-0.050384816
0.020717442
0.023200022
-0.01646862
0.014521791
-0.025628572
0.078774266
0.015833309
-0.016473422
-0.01582486
0.017681735
-0.13079225
-0.0132917985
-0.07444784
-0.09931575
-0.060504153
-0.07418943
0.030781975
-0.063267715
0.009466046
0.026270838
-0.09632672
0.0040729432
0.12789237
-0.0082271565
0.10217791
-0.053331416
-0.033724867
0.028261978
-0.07621724
-0.033226922
0.10068736
0.017732583
0.06770042
0.104691416
-0.018297521
-0.054879557
-0.023353482
-0.014627176
-0.055213943
0.01829838
-0.028453995
0.036063123
-0.066271186
-0.10064503
-0.024839085
0.07977415
-0.037257195
0.013326063
-0.048473652
-0.001826496
-0.081905924
0.07426468
0.042060077
0.07568376
0.0033294016
-0.039422054
-0.11985129
0.038210806
0.07249284
-0.034564186
-0.042010758
0.027463704
0.057134513
-0.07624344
-0.0044948217
0.04304945
0.065319136
-0.07566518
-0.057183895
-0.014026907
0.09438245
-0.10139849
0.073039465
0.030299209
0.015197515
-0.08074295
-0.0693552
0.13120973
-0.011341321
0.08384253
-0.17749092
-0.048916817
-0.033043675
0.041306328
-0.10851778
-0.04156382
-0.057946563
-0.046021968
-0.05891585
0.12134606
0.061543774
0.017817643
-0.1270191
0.06586513
0.01890503
-0.08446154
-0.049712718
-0.019187493
-0.00024559564
-0.12944858
-0.056583956
-0.11348634
0.07500296
-0.018470807
0.011703622
-0.13125311
0.06676002
-0.012657606
-0.04500516
-0.043454476
-0.0090424
-0.091171734
-0.0047571007
-0.04794552
-0.024357397
-0.014776737
-0.024977647
-0.044225257
0.030409442
0.037183803
0.08697471
0.0068690036
-0.08833775
-0.11155839
0.06496801
0.042367667
-0.092078134
0.049399465
-0.03167328
0.049175557
0.036221795
0.07938317
0.0732593
0.0015096611
0.044513024
-0.0078503555
-0.0026719982
-0.043012407
0.098506466
-0.04969876
-0.008457961
-0.049466617
-0.031052994
0.00563812
0.07543336
0.075663134
0.03487163
-0.06630741
-0.007485876
-0.096526034
0.054985676
0.04379559
0.06898102
-0.06683591
2.6554897e-05
0.057697605
-0.02774484
0.016979221
0.009891135
0.098306924
-0.1115267
0.02134479
0.026334276
0.0052242787
0.018834533
0.0997189
-0.064279355
-0.007027758
0.05291064
0.06685796
-0.0122237215
-0.014273671
-0.09354888
-0.07620878
0.10086638
-0.03542681
-0.011776266
0.066901244
0.00965934
0.025238574
0.011004684
0.07394836
-0.027519308
0.007947598
0.06809128
-0.043096505
0.03329075
0.0010429603
-0.10313901
-0.019122636
-0.08259107
0.00993939
0.031303763
-0.006294595
-0.09826375
0.030714765
0.033607043
-0.08810957
0.030500468
0.030562958
0.0118691875
0.09563592
-0.066898085
0.10979772
-0.036193002
-0.12839007
-0.0111987265
0.050042365
0.07128605
-0.03492657
-0.049774375
-0.021964855
-0.07448344
-0.031440213
-0.0063596163
-0.05028312
-0.10823481
-0.053135905
0.07987744
-0.00048522052
-0.009061112
-0.04864372
-0.0065721814
0.0017079051
-0.101285845
-0.016140008
0.052902337
0.027086848
0.024288395
-0.0974382
0.13692501
-0.14773603
-0.06635644
0.036964223
0.08843796
-0.09564609
0.083551496
0.053512704
-0.09302745
0.021513967
0.0032361785
0.02157804
0.034779843
0.081744574
0.102851816
-0.019131146
-0.0040836264
-0.06036324
-0.06815173
-0.04561459
-0.04610273
0.008984399
-0.08668055
0.050262004
-0.05264237
0.06261663
-0.08054302
-0.06496532
0.059221454
-0.081530444
0.008741355
-0.014534
0.030028775
-0.011336374
-0.07984353
-0.11904538
0.0058389893
-0.030163353
0.06614854
-0.06737748
0.030708952
-0.023813436
0.10996564
0.0697809
0.020428708
-0.07187534
0.03826586
-0.057003353
-0.019629851
0.07384038
-0.057088073
-0.0904087
-0.0995986
0.020643827
-0.012229439
0.024106467
-0.12424422
0.06014279
-0.017481806
0.087115504
-0.11742749
-0.036560334
-0.045777485
0.0019013906
0.054441918
0.08359257
0.009314215
-0.0060781855
0.02119361
0.032110784
-0.03523375
-0.027137397
-0.059927367
-0.062223766
-0.057092786
-0.00013393011
-0.078240626
-0.07082613
0.0071903863
0.09464433
0.052255895
-0.009421676
0.13377227
0.08083191
-0.04030456
0.01015811
0.05968447
-0.016759435
-0.0035885817
0.06300629
-0.019405158
-0.021877537
-0.094911836
0.02070931
-0.08898124
0.082361884
-0.07027564
0.004556741
-0.03530239
0.0026554847
-0.14331369
0.06891476
-0.026506698
-0.034595445
-0.13990685
-0.067656614
-0.09242512
0.031157792
0.064020135
0.09550021
0.01138789
-0.08057192
-0.023845935
0.013753652
0.04774538
-0.04674728
-0.057558298
-0.046667233
0.047980204
-0.0670205
0.07802156
-0.05320646
-0.12480481
-0.039427284
-0.023664705
-0.040509894
0.0084107835
0.098610744
-0.046969827
0.007930275
-0.01973644
-0.00683468
-0.088004224
-0.040663958
0.03410036
0.075183615
-0.09213426
0.06754163
-0.038038988
0.0116376635
0.011823204
-0.025040865
0.042083744
0.0199496
0.09223727
-0.08913027
0.0019952187
0.028300384
-0.056625567
-0.024935337
-0.0050673643
-0.025421694
-0.0665768
0.018468602
0.05995306
-0.07607167
-0.04746141
0.0021774368
-0.078253984
-0.027831398
-0.06648049
0.04671038
0.021791147
-0.03891612
0.11498031
-0.014065067
0.047346573
-0.027580075
-0.074007615
-0.030705802
-0.031054342
-0.018862685
0.04212924
-0.065161236
-0.07112731
-0.06981248
0.033997517
-0.07557106
-0.006528862
-0.086370096
0.021738281
0.038106393
0.08361136
-0.028728485
0.07841284
-0.015638448
0.06972856
-0.04591289
-0.0055983146
-0.11264109
-0.009345089
-0.01626915
-0.044902608
0.084115684
-0.047078013
-0.018144077
0.008132881
0.081469394
0.07178985
-0.07238648
-0.11128191
-0.09092979
-0.0891442
-0.11823317
0.01820361
-0.050388694
-0.12398045
0.075830564
-0.022698855
-0.0069681974
-0.09678357
0.002977584
-0.054893363
-0.06185089
-0.047670383
0.055248175
-0.012000726
-0.09912602
0.053955767
-0.096676484
-0.034042317
0.013694292
0.061667677
0.08760577
-0.04015692
0.0076974398
-0.097751684
0.047134478
-0.08560206
-0.04523239
-0.075606145
-0.091147706
-0.040574033
0.0017696862
-0.044631403
-0.06694828
0.0045602396
-0.0052811415
0.026095595
-0.08246217
-0.053679798
0.033447463
-0.09068598
-0.06745266
-0.053738534
0.043811798
0.04125
0.040258687
0.04659555
0.028433455
0.0133571
-0.12341291
-0.08098617
-0.0144931385
0.04719613
-0.09519221
-0.06401447
-0.030970663
-0.12374436
-0.059904758
0.03386041
0.09791382
0.024045514
0.024303181
-0.0057575945
0.09893572
0.040899422
-0.042852737
-0.040558092
0.019809369
0.05008463
0.024200568
-0.082879156
-0.03388096
-0.04444368
0.04869254
-0.030301306
-0.054695472
-0.05957243
-0.0232433
0.00054444245
0.0076194345
-0.07440055
-0.09045879
0.03261534
0.04416996
-0.07508898
-0.015263519
0.009691459
-0.078099065
-0.023264507
-0.07985102
0.0055947667
-0.053122543
0.033901893
-0.034277778
0.027108459
-0.049426537
-0.016526537
-0.05164076
0.020364044
-0.09121115
0.069687895
-0.07849382
-0.066553645
-0.113231085
0.01058486
-0.05395983
-0.061247133
-0.045275297
0.078738
0.012044037
-0.029756214
-0.053963892
-0.07179199
-0.09715382
0.075334385
-0.08624597
0.03132962
-0.111737505
-0.021678932
-0.11641576
0.008839097
0.0017842143
-0.09919606
0.091266565
0.03764164
0.100561395
-0.06205426
-0.034733858
-0.03910029
-0.063760854
-0.11760766
-0.037437946
0.025853306
-0.0371108
-0.116861254
-0.080412455
-0.0862234
-0.04008347
-0.07325151
0.033303753
-0.02233519
0.054951355
0.005453791
-0.099963404
0.086780146
-0.03237139
-0.06382034
-0.04450198
0.01589959
0.029277558
-0.00721923
0.07947044
-0.010399655
-0.0034089906
-0.006038468
-0.006687644
0.0018195877
0.022396598
0.007333692
0.028732128
0.06630994
-0.07993168
-0.008214823
0.0299047
-0.03747198
-0.05195101
-0.008622503
-0.046888065
-0.043495864
-0.027659735
-0.12219888
0.03858663
-0.0958841
-0.0037258263
0.008802971
0.039101657
0.04635527
0.026452132
0.061115824
-0.043924365
-0.08400987
-0.016134286
-0.0674321
-0.08762145
-0.062150247
0.046884943
0.031687222
0.06418886
0.069713615
0.14751546
-0.016555496
0.13634737
-0.022868369
0.08850921
-0.03939584
0.05740188
-0.0028948635
0.114783935
-0.064154714
-0.035596624
-0.0021281198
-0.10323207
0.060565047
0.0023479555
-0.05300657
0.04977448
-0.07972838
0.052014213
0.10032679
-0.065599255
0.11060874
-0.031216467
0.021949213
0.01542892
-0.0022500015
0.05161057
-0.030103508
-0.004191434
-0.042174853
-0.05940379
-0.011663415
0.06228009
0.015740078
-0.020234901
-0.028333401
0.00035563624
-0.034917194
-0.055580724
0.009495995
0.06594887
-0.057142973
0.037246227
0.032124203
-0.11644322
-0.0565538
0.023916455
0.031071488
0.04515601
0.07320672
0.053755928
0.036474716
0.007626996
-0.08430084
-0.077447295
-0.049920015
-0.0743042
0.020913592
0.042953815
0.058270983
0.019528337
-0.00029305575
0.038144313
0.08923525
-0.047061313
-0.0032945473
-0.046994053
0.06184506
0.05630352
-0.023001658
-0.053601995
-0.028314143
0.093558274
0.020907544
-0.0942405
0.043775633
0.062416658
-0.09085362
0.0075536724
-0.028575402
-0.11801415
0.005334822
0.09516295
-0.06940795
-0.049120955
0.060912732
0.04270896
-0.044555433
0.065354146
-0.027782854
0.10081216
-0.05716395
0.048409924
-0.04168964
-0.059304617
-0.085455656
0.0072203786
0.01669041
0.008096952
0.093651295
-0.030379914
0.03819328
-0.041828316
0.078493156
-0.10705203
-0.06576341
-0.04471848
-0.10760453
-0.08019027
0.046193037
0.05138872
-0.09469474
0.10408907
-0.0026471778
-0.09636983
-0.0037889332
0.07401602
-0.010361849
-0.03553941
0.0038662734
-0.07705731
-0.023278574
-0.049745608
-0.023397693
-0.07322945
-0.020263074
0.025261315
0.06797308
-0.04731032
0.013048587
0.01694229
-0.16602014
-0.056533217
-0.053356126
-0.11831395
-0.13979861
-0.04095628
-0.031306047
-0.0988849
0.04372649
-0.053179704
-0.03882161
-0.028983958
-0.08779714
-0.07150521
0.10082629
0.10258253
-0.042072825
-0.05845591
-0.053886864
0.009769925
-0.07118226
-0.08741163
-0.027982237
0.04373176
0.08389482
0.06916429
0.013498307
-0.03152294
0.01077203
0.056404278
-0.03663005
-0.106008485
0.023313709
-0.0655135
0.016153263
-0.07087776
0.007423801
0.038543496
0.045815043
0.047091417
-0.039823793
-0.10122129
-0.066616505
0.02298964
-0.004266331
0.018193614
0.04105469
0.02804792
-0.038508087
0.03851995
-0.041330244
-0.007139007
-0.024188526
-0.009203548
-0.100858115
0.014839629
-0.02753735
0.05613885
0.031080635
-0.103351355
-0.129043
-0.040216785
-0.052050617
-0.046999227
0.07744121
-0.047407266
0.005587614
0.06503545
0.10445503
0.07623055
-0.0038343105
0.050957862
-0.058300324
0.035220537
0.02653924
-0.08896337
-0.054551743
0.065741286
-0.056235768
0.017488608
0.07685022
-0.048288126
-0.013104584
-0.0014066076
0.015582495
-0.083646476
0.005790383
-0.05023728
-0.08367284
-0.074971475
-0.002105235
-0.07936417
0.05419751
0.044309225
0.019306276
-0.052222792
-0.0070885923
-0.097504035
-0.08593506
0.0049907677
-0.06956104
0.030806908
-0.08027908
-0.1312913
-0.008316176
0.06699989
0.068282336
-0.0045905076
-0.040789276
-0.10276648
-0.04295132
-0.030100767
-0.04208812
-0.11822095
-0.0041999356
0.0052907956
-0.022868441
0.0030542642
-0.0008993647
-0.031292427
0.033672944
0.0026968294
-0.12403327
-0.112390116
-0.0006822179
-0.016587516
-0.05435938
0.09334405
-0.089943185
-0.08647838
-0.03455592
0.08558229
0.01619186
-0.10039898
-0.042489808
0.05333665
0.019306604
-0.007319485
0.026440928
-0.049986966
0.07739886
0.15429671
-0.082253955
-0.035252955
0.03797243
-0.001061283
-0.024370246
-0.016680395
-0.054196633
0.06960894
-0.03479743
-0.019383455
-0.07178965
-0.01813674
0.038188953
0.02343845
0.037257217
-0.0993846
-0.0060675857
-0.096091114
-0.04623884
-0.094475895
-0.032639604
-0.054745633
0.02600929
-0.09201905
0.03883432
-0.102656774
0.08394787
-0.04669789
-0.016766747
-0.024373043
0.0010559389
-0.1817585
-0.01019176
0.03936751
0.070798375
-0.057271227
-0.072314516
-0.09362097
-0.1083054
-0.08143624
-0.0552112
0.12814549
0.03220233
-0.0004931075
-0.067120224
-0.1137077
-0.09368864
0.07448889
-0.12629287
-0.0433179
-0.034966215
0.06851455
-0.050712295
-0.114089824
-0.023537321
-0.019477896
0.08019662
0.048627984
0.0068030423
0.04963527
0.05007266
-0.04726288
-0.040284093
-0.037201487
-0.13859463
-0.028819801
-0.055296287
-0.009640534
0.020664567
0.02291118
0.030952618
0.0621482
0.024548702
-0.01185082
0.059983585
0.020304704
-0.09511807
-0.03293093
-0.022955155
-0.06618521
0.10167423
-0.036492374
-0.019049484
0.039121784
0.0002524577
-0.04360913
-0.10666627
-0.05113516
0.05295925
-0.052483927
0.07651412
0.0481461
-0.026231969
-0.040823955
0.07625233
-0.10518646
-0.055102076
-0.058038175
-0.004350538
0.018551793
0.029780308
0.053420637
0.094417326
0.034794427
-0.06469879
0.10817201
0.05292973
-0.043728575
0.081833474
-0.1062564
-0.050557215
-0.07066073
0.07110075
0.03635069
0.04943423
0.02239611
-0.05177645
0.00737686
-0.06470272
-0.021907765
0.06636189
-0.01790592
-0.09979967
-0.040394034
0.03230621
-0.040345885
0.03109172
-0.06922275
-0.016299127
-0.024046347
0.012400095
-0.0525585
-0.011575473
-0.004318182
0.09645861
0.08171726
0.00497371
-0.09212743
-0.035249367
-0.03142214
-0.0016764174
0.03152853
-0.03637098
-0.13726646
-0.059769183
-0.062278364
-0.020950707
-0.06775624
-0.10693914
-0.013126271
-0.11142883
0.0009200226
0.10326807
-0.11425066
0.0015740352
-0.03364193
-0.09298149
-0.10847678
-0.057605136
-0.13072307
0.045514856
-0.0065589966
-0.03159392
-0.045425374
-0.027847191
-0.01931074
-0.032740038
0.044469137
-0.024514863
0.012735178
0.008570446
0.11291457
0.022670822
-0.08818222
0.025754146
0.010900709
-0.035288
-0.043985143
0.0594471
0.015410175
0.078767255
0.02420979
0.09225093
0.015614219
0.049501278
0.08339641
0.03447072
-0.01336281
0.04616663
0.042986155
-0.0219361
0.044499736
-0.13672931
-0.066000275
-0.03640496
-0.047835764
-0.013346918
0.055293765
0.06665471
0.010856683
-0.07414457
-0.05992349
-0.0005890658
0.04063705
0.0045324946
0.043249484
-0.04821721
0.049532752
-0.04855129
-0.07052987
-0.042948242
0.043808233
-0.05374179
0.07060776
0.06413591
0.034854714
0.046667285
0.03651024
-0.05764552
-0.01865568
0.083107196
0.023145325
-0.070203274
0.016348587
0.023181582
-0.042910226
-0.030279258
-0.004980728
0.13376619
-0.05814562
0.01734409
0.004379985
0.053375393
-0.14910011
-0.020604888
-0.022531325
-0.052241463
0.017881138
-0.060550086
-0.053019654
0.013122275
-0.07889556
0.11207973
-0.05213859
-0.056318767
-0.088655725
-0.025021335
0.027809413
0.06160156
0.13180685
-0.061402183
0.06315957
-0.04817831
0.021670904
0.07655459
-0.032540638
0.02920969
0.09852245
0.040067274
0.059205614
-0.05220498
0.111051634
0.015964683
-0.08028916
-0.043065827
0.07512304
-0.022544583
-0.07153794
-0.026340527
-0.03668988
-0.009594879
-0.06017465
0.09492929
-0.1713837
-0.01470333
-0.021638671
0.014866608
0.055909272
0.068226166
-0.023447495
0.12487645
0.10296212
0.11758402
-0.0265004
0.031358637
-0.00973925
-0.01102472
0.01141662
-0.08436498
0.13282219
-0.023882937
0.0725478
-0.028680077
0.030179672
-0.0033285634
-0.029010806
0.013949932
0.017216079
-0.037747387
-0.03228081
0.11519671
-0.02665436
-0.0339932
-0.11224741
0.10379473
-0.07379577
0.056167044
0.017441927
0.09265981
0.05801394
-0.09448751
0.048370823
0.071396954
-0.004866051
-0.03964728
-0.045372803
0.021950576
0.07552879
0.063664615
0.0048265383
-0.049348455
-0.05111837
0.08005317
-0.012250982
-0.016592113
0.018066525
0.06699494
-0.004843684
-0.026036942
0.014104239
-0.033996843
-0.0016616606
0.09065355
-0.07722033
-0.08245874
-0.10785111
0.014975661
-0.02823698
0.0012471114
-0.010994478
0.001751326
0.03051858
0.01327055
-0.043573044
-0.05211117
0.03178749
0.025874818
-0.073768385
0.089513585
-0.0876655
-0.08032028
0.0055418904
-0.05218892
-0.055878792
-0.08858828
0.024970258
-0.042677745
0.03711242
0.08213596
0.06293585
-0.11460811
0.032288898
-0.060271274
-0.08485111
0.02152384
-0.0038641004
0.06921603
0.07430998
-0.00916913
0.09886173
-0.09487224
0.04404431
0.038693063
0.1278292
0.10604975
0.025713438
-0.072087795
-0.08969726
-0.037631024
0.07382325
0.044634312
-0.0027393333
-0.082771815
0.057958256
-0.08941524
-0.03315673
-0.016492935
0.0069363033
0.0267514
-0.091516696
-0.025875328
-0.062074453
-0.0019908869
-0.021594012
0.049018696
0.0015879928
-0.027639652
0.002894179
-0.05282922
-0.019639237
-0.0020328048
0.043300103
0.11835765
0.06624536
0.05125883
-0.0046336483
-0.018469015
-0.07050261
0.051173326
0.050659206
-0.07609983
0.006849999
-0.051414564
0.14112334
-0.09310713
-0.066864386
-0.09486542
0.06537869
0.031608474
0.07500574
-0.04016597
0.072301485
0.06987344
0.06977153
0.0106132785
-0.04102041
0.0031167434
0.0449766
0.13379754
-0.018823922
0.03972643
0.06770953
0.056571905
-0.053737145
-0.07173069
-0.105976954
-0.036154028
-0.107302085
-0.075245574
-0.018109683
0.077122256
-0.03696862
-0.015132864
0.02951537
0.032937948
-0.0851303
-0.016696492
-0.10914393
0.011160273
0.030730164
0.0023374378
-0.054895803
-0.011731133
-0.016748626
0.029680302
-0.08605439
0.061482575
0.037633404
0.010130627
-0.07050355
-0.11122083
0.00096582796
-0.06237655
-0.05489376
-0.05737202
-0.008995346
-0.053344894
0.006123993
-0.068660185
-0.008211851
0.059015572
0.063083224
-0.052389104
-0.024493909
-0.021150114
-0.009058929
-0.06119752
0.006833631
-0.05439767
-0.06644127
-0.017499449
0.048609186
-0.009311328
-0.005516015
-0.07660027
-0.04450156
-0.090234995
-0.04341689
0.009074144
0.012202355
0.08051144
-0.053684223
0.04858433
-0.025242781
-0.029947704
-0.06450489
0.052761797
-0.012972939
0.03157176
0.03878884
0.096806
0.0655226
0.046288278
-0.07794277
0.08463686
-0.094838254
-0.041083217
0.012198225
0.08147033
-0.10124799
0.06918273
-0.042578645
-0.03494924
-0.0008190367
-0.05426923
0.093148485
-0.024765942
-0.0056122104
0.08124035
-0.011313456
-0.04635868
-0.022084646
-0.012880294
0.019568598
-0.069527894
-0.029998707
-0.10786062
0.023067893
-0.07837212
0.07057865
-0.03867553
-0.05535098
0.018219046
-0.011037062
-0.10836635
-0.076918535
0.0061471383
0.02722527
-0.055815153
-0.06341871
0.021794196
-0.08398565
-0.032950003
-0.029028261
0.0051763174
-0.042210873
0.051074192
-0.13829683
-0.018200275
-0.124867976
0.013574324
-0.05711291
0.05636833
-0.08131651
0.035379745
-0.015158778
-0.11003159
0.074923724
8.080873e-05
-0.09487172
0.00710177
-0.0005156806
-0.0774101
-0.0145219965
0.019207135
0.009427089
-0.08539753
0.044781305
-0.03658318
0.03920857
-0.09540438
-0.01645633
0.033426594
-0.06477741
0.092887275
-0.03419805
-0.07734605
0.049981892
-0.019902822
0.014744616
0.1064465
0.065045685
0.029329803
0.0062673087
0.038586784
-0.012509095
0.08387674
0.010979693
-0.009602678
-0.04367682
0.038006708
0.025943791
0.04221209
-0.015250577
-0.061177373
-0.029753687
0.06231607
-0.06689044
0.07723778
0.064088784
-0.030816916
0.023996148
-0.034672912
-0.049331952
0.008188967
-0.07145256
-0.008417793
-0.06443436
-0.007556212
-0.031151237
-0.039006878
-0.1224602
-0.036299653
0.0582242
0.06330606
-0.059648894
0.07486212
-0.008138838
0.050495546
-0.045111272
-0.0057617202
0.041552436
0.021387482
-0.023457572
-0.08133593
0.009292103
0.09891925
0.011939957
-0.020777166
0.08994945
0.10584104
-0.021040397
-0.123911016
0.02171247
-0.019306399
-0.03452429
0.06406161
0.047841392
0.016334012
0.071325295
0.002140895
-0.01932585
-0.07024295
0.010178335
-0.029812919
0.01281422
0.020203076
0.063368306
0.03446545
-0.13797516
-0.025018962
-0.008313719
0.026526969
0.05256954
-0.052996933
-0.11522974
0.027092615
-0.040368605
0.080552325
-0.035548314
-0.014362156
-0.06978429
-0.087731205
0.06294733
0.0031875325
-0.04719084
-0.039323863
0.023652429
-0.096224956
0.042362437
0.058000334
0.055097193
-0.079258904
-0.097335815
-0.08047483
-0.04738084
-0.095098644
-0.019055033
-0.07640872
0.06386033
0.023529727
-0.006403242
-0.037038233
0.08163468
0.020530207
0.007358573
0.05613278
-0.046656203
-0.008307233
0.03518826
-0.1302468
0.02861664
-0.098322004
-0.09892265
-0.08807205
0.04755633
-0.111958236
-0.02393694
0.027738692
-0.023290643
-0.11782504
0.030588392
-0.061032217
-0.053554155
-0.023536276
-0.082919136
0.025968771
-0.06514266
0.07426155
-0.042715672
-0.0505421
-0.0532599
0.07035802
0.06455062
-0.03073156
-0.042309288
-0.13906705
-0.026282322
0.014761316
-0.02755196
0.03646484
-0.104083344
0.012113379
-0.103435844
-0.035146568
-0.03844915
0.063242055
-0.087850526
0.047192946
-0.09889426
-0.0020426535
0.03683887
0.033939235
0.07721105
-0.08035563
0.021735694
-0.0017773976
-0.077571504
0.010153361
-0.0022675244
0.037436444
0.004672677
0.063742235
-0.00081597955
-0.025150111
-0.056131806
0.043430403
0.008685299
-0.06993957
-0.011733363
0.002268319
0.13151583
0.019512642
0.064097054
-0.07967025
-0.022642154
-0.09368595
-0.012619793
0.018559666
0.019859003
-0.0014176823
0.017687429
0.10899834
-0.08600093
-0.015081203
0.0762966
-0.11089309
0.03537068
-0.076145165
0.04294804
0.046008497
0.06032346
-0.010660966
0.06635676
-0.023733767
-0.04649023
-0.05327517
0.040019725
0.15350339
0.12147964
-0.044318777
-0.027371839
0.05157512
-0.021200301
-0.054149337
-0.09952883
-0.0013056396
-0.07698578
0.06627057
-0.028786592
-0.07612467
0.07294865
0.09240351
0.06338107
0.050813753
0.0411435
0.047515783
-0.1162014
0.0731817
-0.012827601
0.053503823
-0.070431076
-0.063871995
0.08108285
-0.019391531
0.07970921
-0.09878388
0.011258536
-0.06838455
0.01795868
-0.045807898
0.01636553
-0.07128153
-0.060246784
0.03185862
-0.07458963
0.040339004
-0.0050789937
-0.025912736
0.055534817
0.070463665
-0.059502963
0.099566214
0.07640198
0.016196232
-0.12622721
-0.015040705
-0.102945596
0.04217274
0.062321033
-0.046398655
-0.048938863
0.099086545
0.027210772
0.016921856
-0.09526348
-0.05695324
-0.016400479
-0.09872991
-0.06580329
0.011452376
0.009988641
-0.047538616
-0.14556743
-0.0650958
-0.13636196
0.0024366647
0.010572886
-0.013368112
0.008146665
-0.088999875
-0.02955411
-0.043111153
-0.08615719
0.037860043
-0.06969005
0.05508953
0.080567606
-0.009626743
-0.017806666
0.036111705
-0.003671818
-0.030796727
0.108259015
-0.114039294
0.007841984
-0.06357771
-0.011534835
0.012433015
-0.07276113
0.058790345
-0.13272412
-0.022562485
0.029186549
-0.074278116
-0.014644152
0.01679384
-0.074883215
-0.053273063
0.012191377
-0.041994113
-0.08297538
0.09981598
-0.008425185
0.08759417
-0.11511327
0.021423142
-0.10927359
0.014699696
-0.014583808
0.01819757
-0.08300677
-0.005782901
-0.017035643
-0.03786932
-0.11824112
0.053825732
0.050447606
0.04900343
-0.08527902
-0.07796573
-0.021705737
-0.039164003
-0.05131103
0.06277284
-0.05752168
-0.14785537
0.04050707
-0.05227218
0.02961764
-0.10312537
0.09660346
0.0181628
0.05607756
0.004410223
0.0029912535
0.08844877
-0.02838467
-0.09232406
-0.024693381
0.027414337
0.051438965
0.005484504
-0.058991496
0.0028363874
0.067438155
-0.085107885
-0.10558212
0.040472787
-0.07092149
0.05578577
-0.0146787185
0.010556948
-0.045399815
0.092047065
-0.10653263
-0.04775695
0.085592374
-0.00588398
-0.10350826
0.04741318
-0.03662591
-0.11397434
-0.07080777
-0.056713156
-0.006652617
-0.026365884
-0.008204563
-0.085407354
0.05663652
-0.025533378
-0.017104924
-0.052718565
0.038240004
0.0070590354
-0.047279827
0.061013754
-0.024972288
-0.046065606
0.037099954
-0.09664019
0.014986886
-0.08064361
0.07808586
-0.024554621
0.053608917
0.032334313
-0.033607062
-0.051858965
-0.09529758
0.005268422
-0.027072618
0.033240836
-9.567123e-05
-0.0058738035
-0.1091074
-0.029843802
-0.03379781
0.047199428
0.14101334
-0.1282363
-0.034545552
-0.041960225
-0.04694335
0.049016736
-0.0008053212
-0.03909659
-0.022405399
0.071954876
-0.06358423
-0.013693743
0.050210852
0.10285955
-0.010368805
-0.005933035
0.06637254
-0.12821981
0.06140997
-0.019172825
0.08489695
-0.05267363
-0.06931827
0.06423641
-0.029163692
0.1143634
0.0018986041
0.072211266
0.0399941
-0.09812554
0.007842776
-0.042283285
-0.052906595
-0.08736212
0.057770308
0.019821443
-0.040752046
-0.048496354
0.004101051
-0.14077885
0.08050798
-0.029193003
0.008306893
0.124216564
0.01867544
-0.031115284
-0.02029731
-0.09101802
0.01856628
0.02295386
0.010532984
-0.05147278
-0.007125018
0.02148914
-0.117074445
-0.0057166605
-0.03359146
-0.026213655
0.0719471
-0.014916579
-0.0017386015
0.10633743
-0.1027014
0.03538517
0.005666561
0.034769222
-0.035900474
0.0046011196
0.06942693
-0.028343054
-0.06503943
0.008074856
-0.10788401
-0.0737436
0.044803567
-0.078375064
-0.08120299
-0.041417737
0.0370114
-0.09800409
-0.052577868
-0.08353118
0.038296744
0.06467831
0.022542637
-0.01520975
0.026331976
-0.07145954
-0.03046586
0.014629818
-0.07876952
-0.066000596
0.06017637
0.05420314
0.009598955
-0.043621212
-0.11685354
-0.019036243
0.025808727
-0.13558024
0.035331793
0.05662109
0.048970234
-0.0543251
-0.06436432
-0.038784664
-0.088556625
-0.045310013
0.029733146
-0.027824676
0.03686458
0.12935561
-0.02054511
0.07780075
0.021384457
-0.1390609
0.006359963
-0.076993816
-0.06357194
0.001450984
0.038203236
0.07022239
0.04565426
0.0035459758
-0.03369891
-0.012212303
0.003124987
0.077490106
0.0011644141
-0.013896975
-0.04683962
-0.07923788
0.043303065
-0.02939772
-0.12579498
-0.031366874
-0.035516188
0.036426872
-0.012573641
0.05897423
0.037218295
0.055102672
0.06276097
-0.07738369
-0.116253376
0.043560244
-0.08447107
-0.04765845
-0.0686129
0.1100347
0.07694242
-0.08831175
-0.09666883
0.08969349
-0.0636661
-0.1270017
0.009406445
0.045352496
0.08232166
0.067718804
-0.116501436
0.012785322
0.048058078
-0.012481022
-0.05619674
0.005916399
-0.036573235
0.07302063
-0.02775943
-0.10379789
-0.009966887
0.0005466867
-0.057851423
-0.043782715
0.013366066
0.07846042
-0.033955675
0.004703549
-0.028365675
-0.06290913
-0.0032355632
-0.06103253
0.050082862
0.05221396
-0.033076372
-0.13707803
-0.06867751
-0.067656204
-0.057805132
0.034326494
-0.045713212
-0.093805306
-0.0115852095
0.021211753
-0.018854316
0.05334302
0.050304413
-0.112462655
-0.04493125
-0.028574996
-0.07154425
-0.07081895
-0.025925998
-0.0022565955
-0.031057531
-0.013042132
0.028763752
0.0028871363
0.014303302
-0.003982744
0.020753806
-0.03062264
0.07846224
0.014346656
0.053310364
-0.100638226
-0.10118581
0.0582438
-0.07918867
-0.12927388
-0.031987526
0.0083273
-0.008172068
0.0045785117
0.002669278
0.024315976
0.035451144
0.056394305
0.013005562
-0.051668305
0.041457314
0.037426203
0.07226782
-0.095755704
-0.011101337
0.00037947643
0.0027364308
7.549995e-05
-0.10384932
-0.01012348
-0.011603087
-0.02066317
0.087569006
-0.0057236734
-0.09220597
0.0033404992
-0.10179115
0.06146625
0.06739586
0.035253223
-0.07293733
0.028388692
0.055185188
-0.09747274
0.022020169
0.04031154
-0.1662316
-0.06738031
-0.067540064
0.074294
-0.03667614
0.075233966
0.001071917
-0.067959785
0.027983379
0.0072253994
-0.07660584
0.09910288
0.07533844
0.05779965
-0.07228281
-0.027083928
-0.00511048
0.07355046
-0.048610993
-0.005400907
-0.011275627
0.012606368
0.044342738
0.06574159
-0.0015444849
-0.096803345
-0.033004582
0.09815396
0.05174207
-0.045431376
-0.09132127
-0.08279315
-0.00862102
-0.03986554
0.053236548
-0.005201965
0.035092056
-0.09539844
-0.045494027
0.008998932
0.043658145
0.06234965
-0.02218331
-0.014576331
-0.051728297
-0.1345978
-0.028990733
0.103723064
-0.13292296
-0.005103206
-0.0052492823
0.09432026
0.027138833
0.09000626
-0.0024671669
-0.07935599
0.072764546
-0.12758711
0.00014132654
-0.19255987
-0.061398335
0.05616016
-0.07935013
-0.03234415
0.018799603
0.063279636
0.051817868
0.09674397
-0.07900128
0.06978683
0.0016918669
-0.05068588
-0.0003094576
-0.052105196
0.05521931
-0.037464052
-0.09906008
0.05015764
-0.026015611
-0.06568362
-0.010366213
0.04020617
0.05219682
-0.046327066
-0.052710325
0.00733595
0.00052625395
-0.06648013
-0.075611375
0.07644535
-0.070134796
-0.06579547
-0.05303016
-0.04037451
-0.022423526
-0.057977997
0.008292926
-0.013445003
-0.03824271
0.081278056
0.08448385
-0.09967712
-0.05511795
0.08695773
-0.037395023
0.04403091
0.097294785
0.04429081
0.060949508
0.015705507
-0.107139364
-0.013822537
-0.095586486
0.04133695
0.015044322
0.046395376
0.048966013
0.011778813
0.07757165
-0.020383809
0.037049305
-0.116025925
0.01091768
0.017437968
0.07022645
0.059751607
-0.011757991
0.04273035
0.055666853
-0.103050165
0.08925036
-0.03809234
0.081096604
-0.1045023
-0.010492256
-0.052771702
0.06518372
0.103122026
-0.04571675
0.02041706
0.08075516
-0.10054867
0.015145071
0.011940286
0.0138847325
-0.10641259
0.009741393
-0.002162947
-0.029739432
0.06269596
0.015375047
0.010106133
0.0408866
-0.07317052
0.028991723
0.09475486
0.06750984
-0.022942413
0.062477566
0.021495221
0.054099683
-0.10526284
0.06850388
0.020236408
0.05065513
-0.003690692
0.08060254
0.025583412
0.05469041
0.01828846
-0.033406712
-0.006350345
0.042556107
0.0029214933
0.022670165
-0.088084824
0.10167247
0.041826207
-0.0009798204
0.083182976
0.07429883
0.008696972
-0.11591984
0.10272134
0.050225355
-0.05445217
0.053558562
-0.018838715
-0.06418993
0.055514164
-0.044960745
-0.029014148
0.011696667
0.07339264
0.035083264
0.007953592
0.04720826
-0.0019242927
-0.0908823
0.0034465115
-0.1612876
-0.10475037
0.033422478
0.015925538
-0.032981914
-0.094012216
0.038617887
-0.076837026
-0.11186759
-0.02969646
-0.00042156398
0.049955267
-0.092013575
0.0019117509
0.015671004
-0.023985812
-0.11496414
-0.048094142
-0.047617428
-0.026773578
-0.05421851
0.0742364
-0.0931178
-0.03566083
0.03332804
0.037687562
0.007247086
0.10990268
0.030448798
0.06045664
0.00988557
0.07624351
-0.101008505
0.02768999
0.087108344
0.030335143
-0.04606364
0.07528639
0.053011626
0.040121738
0.007122583
-0.04923227
-0.021285294
0.023359537
0.024750559
-0.111422546
0.08579886
-0.038438667
-0.022614116
0.110900655
-0.031809952
0.025252284
0.062081926
-0.008181286
-0.0056922366
-0.03172295
-0.10579357
-0.05223469
-0.08826712
-0.04449517
-0.022222487
-0.017617466
0.0805939
-0.024567077
0.059876963
0.009463349
0.057518557
-0.04341841
0.04598701
-0.061306935
0.018712137
0.055305615
-0.052439198
0.03061794
-0.012219298
-0.047244567
0.019379359
0.071873315
0.007984025
-0.013663417
0.01698379
-0.052086785
0.086015254
-0.10055509
-0.031291403
0.03735321
-0.07779222
-0.017529622
-0.05278825
0.005781681
0.027493367
-0.07984681
-0.039044227
0.009862755
-0.04065902
-0.063417025
0.11494897
-0.032411925
-0.0200022
-0.0432113
-0.091202244
0.030406069
-0.018076582
-0.12300905
0.044142418
-0.0058865077
-0.059675004
0.025218036
-0.043496482
0.05141492
-0.12021557
-0.0065654945
0.014747771
0.07338642
-0.010049581
-0.048244264
0.10058489
-0.0027204936
-0.081466146
0.0780907
-0.06344129
-0.10880382
-0.035745725
-0.023770664
0.029753141
0.035124525
0.09083339
0.049432166
-0.07879402
-0.0023464703
-0.01761583
-0.016806366
0.04849951
-0.0084907105
-0.10385893
-0.035170615
-0.024782019
-0.04689427
0.041070122
-0.096940205
-0.034989305
-0.020898405
0.039751906
-0.046452325
-0.05137043
0.098859176
-0.074371114
-0.015298532
-0.009359651
-0.045174915
0.0388453
-0.055477064
0.04197708
-0.045854397
-0.013952928
0.019308131
0.039674904
-0.11693242
-0.019060066
0.054638363
0.008058761
-0.058161285
0.014726913
0.05998846
0.062487934
-0.06788354
0.063045375
0.02768006
-0.039580137
0.058787774
-0.03988977
0.03143294
-0.05594675
0.062492013
-0.078667976
-0.0064811623
0.027899634
-0.056571044
-0.012592342
-0.01697077
-0.03587308
-0.066818126
0.09416459
0.055851772
0.08485239
0.009716318
0.059667777
0.07952681
-0.03958587
-0.054883018
0.036591846
-0.054031573
-0.010577361
-0.058794238
0.04603709
0.01636268
0.046054445
0.0048204144
-0.036199417
-0.08343108
-0.063819736
-0.009420087
0.0410304
-0.13033861
0.054181665
-0.053784564
0.038492266
-0.035492606
0.046538766
0.011690238
0.052024778
-0.0110624945
0.010470967
-0.022691615
-0.0052408907
0.108886085
0.0049747447
0.031056222
0.011333271
0.06977734
-0.020698259
-0.12554416
0.07100581
0.040155243
0.0732589
0.09647924
0.0821872
-0.0071832146
-0.028959949
-0.063950166
-0.111809954
-0.031533718
0.028241415
-0.076081
0.068550445
0.12713033
0.09893456
0.014895131
-0.09229021
0.020180745
-0.022952048
-0.038060267
0.02446559
0.010341409
-0.08066478
-0.13139832
-0.030874912
-0.078709535
0.04969367
-0.008861041
0.01896762
-0.08590688
0.061546665
-0.05667622
-0.05802207
-0.012749347
-0.07150642
0.07151732
-0.07187889
0.04064837
-0.06691394
0.029534925
-0.08989369
-0.02142633
-0.019260775
-0.109186016
-0.09928279
0.036470644
0.017883997
-0.043600626
-0.13010168
-0.07056163
-0.0033302335
0.03753192
0.06066025
-0.052750833
-0.043175027
0.00053857523
-0.055409785
0.081846364
-0.018903624
0.0631118
0.022602657
-0.06770768
-0.039469905
0.05171503
0.03007657
0.00095935544
-0.003996291
-0.027915785
-0.07281544
-0.01965481
0.057540514
0.09522306
0.02669241
-0.05732575
-0.04590519
0.053664897
0.018873423
-0.095678575
0.0057075513
0.05430246
0.06733306
-0.011877807
-0.024694763
-0.013112396
0.022946166
0.06633935
-0.09796426
-0.011881665
-0.060593195
0.009591293
0.0589754
0.05629893
0.041451424
-0.005683533
0.024288137
0.0034481368
-0.026545217
-0.096557945
-0.066230126
-0.035566993
0.05352083
0.07193509
-0.02749058
-0.007548643
-0.04206605
0.016674574
-0.048137303
-0.102084495
-0.021456042
0.10862098
-0.039606318
0.08687003
0.0018854475
-0.05328069
-0.014205608
-0.03935016
-0.065929726
0.016704429
0.06672168
-0.02474635
0.027356355
0.052304175
-0.08401297
-0.055415288
-0.021267263
-0.0083566625
0.012534956
-0.10847924
0.05693958
0.07935116
-0.07727079
0.04098967
0.043739267
0.06590743
0.0076228655
-0.015280512
-0.01741088
0.10134032
-0.018810816
0.011644568
0.0064099343
-0.0151563585
0.000987609
-0.1672711
-0.009742842
0.12813686
-0.0052188067
-0.06764824
0.025816878
0.0414538
-0.032803323
-0.12099632
0.029189184
-0.08199568
0.021743111
-0.09445493
0.011195432
0.085850276
-0.012879882
0.06475364
-0.051558174
-0.034379166
0.025833366
0.049041923
-0.08671857
-0.045796108
-0.026230749
0.082586214
-0.06596111
0.012551154
0.036812022
-0.07794623
0.02726369
-0.04631548
-0.054713186
-0.051724814
0.037368756
-0.025528036
0.026840411
0.020714857
0.07146342
0.07013178
-0.1005859
0.017125512
0.030183312
0.012699007
0.081758894
0.015467731
-0.09652726
0.08664564
0.07883048
-0.071111076
0.047669735
0.08322425
-0.12164311
0.049499266
-0.06594372
0.08138325
-0.1122881
0.024071254
-0.036456168
0.067450814
0.022139143
-0.01198097
0.060073417
0.020902356
0.0880687
0.007924137
-0.019391982
-0.08560878
-0.03165265
-0.061754737
-0.05827608
0.09801655
-0.016519831
0.0587408
0.04560405
-0.0408888
-0.16362607
-0.014077678
0.06621722
0.03889716
-0.0010275476
-0.0038179522
0.09732868
0.007203611
-0.07490249
-0.0148534
-0.03541723
-0.05879702
0.100182325
-0.05327303
-0.0126407575
0.012052397
0.060878325
-0.0395725
0.032160066
-0.0014056176
0.006744946
-0.10161359
0.013990196
0.09539001
0.047701053
0.09774423
0.1165385
0.010780052
-0.037118707
-0.046110913
-0.08913191
-0.06406223
0.07380573
-0.056048013
-0.020575527
0.08988396
-0.02367633
-0.03659695
0.039281756
-0.012420455
-0.020789513
0.042433992
0.006324059
0.072300956
-0.08572279
0.08207584
0.09516602
-0.039643817
-0.11015872
-0.009579702
0.082968384
0.11541253
0.040157966
0.03210296
-0.042564023
-0.1469059
-0.02823515
0.026690708
-0.03792373
-0.0861635
0.058799464
0.029789466
-0.049172744
-0.052809764
-0.063886605
0.11400767
-0.032310158
-0.048694406
0.031041631
0.07778889
-0.05999729
0.09548096
-0.027274963
0.079936415
0.0012621677
-0.10951105
0.06066957
-0.041990705
0.1182969
0.013104884
0.036938995
-0.045743536
0.068295
-0.035334956
-0.08975529
0.008331177
0.06518079
0.0052506854
-0.10534718
-0.04901167
-0.1047721
-0.028831381
0.06563404
-0.000826543
-0.024691314
-0.041812155
-0.12224261
-0.039588314
-0.010801856
-0.013141156
0.0398507
0.04051237
0.016983176
-0.08441265
-0.030587364
-0.086463206
-0.037784275
-0.113152586
0.108924344
-0.053188086
-0.048909847
-0.009035927
0.0034781925
0.04253619
-0.06428994
0.015694119
0.02427626
0.0425792
0.014228776
0.03155763
-0.017627968
0.012336821
0.086304486
-0.043180533
-0.07556299
-0.14897239
-0.09667458
-0.03240521
0.012096435
-0.10253965
0.104019396
0.10391754
0.066095866
0.0065296623
-0.05118316
-0.0880199
-0.04470306
-0.060185276
0.03373075
-0.011950008
-0.04177851
-0.028565662
-0.09113192
-0.10259209
0.05523943
-0.07158753
0.07430872
-0.11977971
0.0033510376
0.015245483
0.03031732
0.08410888
0.10456402
0.03621163
-0.056399755
0.04507464
-0.09105991
-0.009754689
0.08050989
-0.11895928
0.037195936
-0.097146004
-0.049916852
-0.032647353
-0.0064135427
-0.020817876
-0.04300887
-0.1543254
-0.07697129
0.0795118
-0.053259857
0.09472393
0.022389263
0.042351663
-0.103812374
-0.08587461
0.07141251
0.036906708
-0.0482044
-0.11100224
0.06936911
-0.083946384
-0.0347745
-0.07517061
-0.06634556
-0.0062177666
0.1539018
0.085331894
-0.016011463
-0.03834122
-0.13746102
0.04474711
0.008379224
0.030645743
-0.01572242
0.047879446
0.0956094
0.023368236
-0.016269352
0.025492854
-0.05829857
-0.069721065
-0.00026043135
0.05381806
-0.049291346
0.01039091
0.1331751
0.0028480024
-0.085657135
-0.018538132
0.07616375
0.02898184
-0.07542565
0.08878887
0.00029055343
0.026284236
-0.011183641
0.038152788
-0.13939819
-0.11205705
0.0321511
0.02930004
0.04649669
0.069009796
-0.048495993
-0.0702427
0.07625265
-0.0744737
0.022594826
-0.05411049
0.05077761
-0.07169912
-0.04010883
-0.1031169
-0.043535918
0.007622952
0.055346984
0.08056774
-0.07237049
0.06802991
0.086235136
0.08600111
0.020247964
-0.07671785
0.01574668
-0.053779542
0.060652345
0.025406433
0.02712122
-0.015442185
0.04004531
0.021721778
-0.10097061
-0.09397288
0.023732284
0.039190505
0.041858528
0.050116196
-0.045200963
-0.014106616
-0.06304846
-0.056900125
-0.08227159
0.008209751
0.026408518
0.00574514
0.007477795
0.020918844
-0.064274535
-0.07562172
0.038969763
-0.1372721
-0.048765335
-0.004409181
-0.043191563
0.07039348
0.065136306
0.08429769
0.09044174
-0.05408119
0.030991534
-0.013903775
-0.13143107
-0.11916355
0.07267413
0.11343492
0.09673462
-0.0042694286
-0.05311612
-0.04064184
-0.06947947
0.028261974
0.07565691
-0.036696244
0.0391481
-0.08016476
-0.055993002
-0.098857574
-0.064647704
-0.04817153
0.0393791
0.032507908
0.018742664
-0.024755942
0.06507843
-0.081260875
0.031500373
-0.05195746
0.10091569
-0.11774591
-0.03272485
0.06989338
-0.10160484
-0.004123346
-0.014917858
-0.04273567
-0.0035348479
-0.10466386
-0.04505494
-0.12080751
0.04754364
-0.091328844
0.035766937
0.02414262
0.059106242
0.04018336
-0.012237981
0.02092302
-0.1622271
-0.13163893
0.0060357954
-0.06130956
0.05020767
0.00430165
-0.024440302
-0.06787113
0.04312703
-0.039350457
-0.02509806
-0.05136294
-0.036619015
0.048044734
0.0015921951
-0.10820188
-0.04565088
-0.046836175
0.025336294
-0.14038348
-0.01167373
0.1242112
-0.058392935
-0.042050116
-0.04046475
0.069158085
-0.028471777
-0.042013552
-0.090691045
0.04596222
0.14242843
-0.0125373285
0.026251325
0.033053163
0.055218883
0.025679948
0.050615758
-0.03881036
-0.13999438
-0.019086128
0.06729512
0.03577663
0.04071232
-0.14062953
0.07402479
-0.18919136
0.036697824
0.07706689
-0.020232452
-0.0925152
-0.08633181
0.07719147
-0.03539457
0.054704092
0.0037357635
-0.031192167
-0.092001446
0.016072989
-0.045228302
-0.029691655
0.0026177529
0.06347056
0.046577856
-0.17000088
-0.058624867
0.040117383
0.012390453
-0.098780386
0.054353274
0.028557537
-0.030368814
0.08088728
0.031740554
0.092403114
-0.028906876
-0.064491324
0.07310697
-0.08885725
0.0045244955
0.06847386
-0.06540346
0.08730603
0.0025709153
0.08258179
0.0022981786
0.10427501
-0.060477942
0.058248293
0.035696454
0.051323663
-0.15286519
0.027382767
0.051819798
0.038111854
-0.014841082
-0.055174194
-0.075723395
0.10606279
0.09921079
-0.0021918116
0.0034765748
-0.016878176
0.029464275
0.013931853
-0.030433584
0.009839425
-0.02086376
0.025694646
-0.048546676
0.09381736
-0.04508033
-0.07809136
0.083075754
-0.086430594
-0.010157336
-0.09179031
-0.111634
0.101494364
0.020609766
-0.03639947
-0.057836644
-0.030893058
0.0799998
-0.035714023
0.052853152
0.07933812
-0.014730209
-0.018059758
0.011905005
-0.050125737
0.016415387
0.03788025
-0.092176974
-0.021957785
0.016786875
-0.076892935
0.034650337
-0.059816096
-0.009717634
0.028902013
-0.07082859
0.09343417
0.06384682
-0.12549815
-0.07946222
0.088889584
-0.04558391
-0.10249614
-0.011768859
0.034773137
-0.0633188
-0.016903399
-0.053010777
0.10954528
-0.0696814
0.048234366
-0.050127633
0.057301186
-0.077032186
0.08303833
-0.033655304
0.08917374
-0.0047788266
0.006016959
0.03824086
0.056161694
0.012247755
-0.0271367
-0.11063896
-0.037806716
-0.031782165
0.12972252
-0.0404778
0.10788611
-0.013643388
-0.023143804
-0.024327453
-0.013554277
0.00030881164
-0.06227901
-0.03655869
0.02415015
0.04473557
0.078941606
-0.12586226
-0.030370105
0.051752537
-0.040649038
-0.022369778
-0.06658045
0.08538148
-0.01119497
-0.019887824
0.009903711
0.07277847
0.060185593
-0.090345494
-0.094850875
-0.09350888
-0.041967615
-0.016691208
0.07842007
0.020636456
-0.0009766148
-0.087108396
-0.024629988
-0.09862444
-0.048328884
0.010292349
-0.026895339
0.053594124
-0.060200453
-0.00887528
0.03242181
-0.00080123654
0.10659188
-0.033609085
-0.021760944
-0.047155537
-0.050615806
-0.10652338
-0.013465284
0.01342451
0.0021012882
-0.018405057
0.071476914
0.06925613
-0.025549434
0.039235856
-0.045509897
-0.01680905
0.07675668
0.03586067
0.08532381
-0.004856405
0.007202149
0.030688383
-0.056461766
-0.067466006
0.05011654
0.031630374
-0.023751844
0.015200034
-0.015108351
-0.0059236805
0.11434284
-0.007994121
0.068142876
-0.005828535
-0.010914608
-0.103132755
-0.007416046
0.06296846
-0.07108502
0.032148875
0.11969866
-0.080825575
-0.057562135
-0.025195047
-0.07771169
-0.0020854042
-0.12185736
0.019153656
0.03999017
-0.06863917
-0.08500901
-0.012744794
0.0742702
0.04016526
0.020922665
-0.05576849
-0.0012418444
-0.0018218124
0.023969106
0.09798848
-0.068726234
0.007404029
-0.010068635
0.05638836
0.02003051
-0.021770338
0.017849358
-0.009817178
-0.024029024
0.044915352
-0.021480229
-0.086600944
-0.03500752
0.047416873
-0.055988517
-0.066790074
0.033006404
-0.05134347
0.11530829
0.0037365106
0.099925056
-0.034034517
0.002429014
-0.07297309
0.035450198
0.046765547
-0.038071062
0.06609637
0.036151607
-0.05346512
-0.034432247
-0.081731394
-0.011515138
0.011537586
-0.0073089004
0.06996904
-0.024227064
-0.13729855
0.046827536
0.0029990745
-0.00994361
-0.019281315
-0.035662737
0.075716555
-0.038229186
-0.038811173
0.07444233
0.08862097
0.005750466
-0.03190782
0.048415694
-0.02952371
0.034310378
-0.04051271
0.029067883
0.05574451
0.04877019
-0.014273082
-0.084518276
0.0013556348
0.003979489
0.019647941
0.022628635
-0.04716857
-0.040703516
-0.12608549
-0.014277749
0.046251576
0.045411065
0.09801654
0.00013528667
0.0036511035
0.017566128
-0.092753224
0.05908001
-0.067705
-0.019291222
-0.00020053539
0.075880356
-0.02450898
-0.017460171
0.02062222
0.073675
-0.09908485
-0.062177423
0.06918072
0.03124894
-0.006857318
-0.03815677
-0.03361382
-0.012691261
0.045364227
0.044587918
0.07127313
-0.021891136
0.027154611
0.0640564
0.033189308
-0.10488133
-0.021642357
-0.050949816
0.092933334
-0.03585225
-0.032382183
0.10162072
0.009465553
-0.098068826
-0.016271714
-0.013250301
0.047290485
-0.12822486
0.037672784
0.016505431
0.08906633
0.04195751
0.01978523
-0.0669898
-0.0805638
0.053745594
0.04666586
-0.08466408
0.04556148
-0.07649075
-0.02953785
0.04698986
-0.0285816
-0.07512654
0.0044028903
-0.07615482
-6.8304274e-05
-0.13164864
0.096907414
-0.051106114
0.05135758
-0.060209315
-0.06563939
-0.08624481
0.0075177173
0.059198953
0.04411921
0.05039352
0.042608604
-0.08721376
-0.024594674
0.07999056
-0.03546665
-0.07855788
0.022974174
0.054254193
-0.06277532
0.089256376
-0.008435883
-0.093576685
0.090229414
0.04168728
0.026626488
-0.08178341
-0.07619626
0.051714607
-0.0829511
-0.063585624
0.04193049
0.035911173
-0.0651564
-0.109579384
-0.027947098
-0.0062402724
0.034809828
0.042427287
-0.07347634
-0.08333757
0.06630869
0.02319784
0.028609943
-0.038289055
0.06438816
0.064292006
-0.057081033
-0.09997988
-0.07453039
-0.0061089857
-0.05083684
-0.029411659
-0.039956972
-0.081905484
-0.066119306
-0.074927405
-0.06527282
-0.01851585
0.04691725
-0.0043417974
-0.066747725
-0.07159652
0.0577575
0.14252473
-0.05961227
0.10829832
-0.06275705
0.058170855
0.06985602
-0.012894038
0.009220341
-0.08889748
0.11678336
-0.025882557
-0.057588
-0.006070034
0.07555801
0.020416839
0.019337127
-0.08123911
-0.079935774
0.0016853063
0.0867658
-0.033735134
-0.020759294
-0.04083531
-0.033803828
-0.013498176
-0.15342909
0.03362241
0.010346108
0.004019001
0.09280498
0.12328892
-0.005769733
-0.14380533
0.00077830296
-0.01813722
0.026757859
-0.047379326
0.065953895
0.0074430406
-0.091343105
-0.06764926
-0.034378886
-0.09812106
0.049105603
0.064551055
-0.11961742
-0.040964145
-0.078596115
0.03917599
-0.12881404
-0.0051025846
0.04920806
0.008904614
-0.091975175
-0.0062871836
-0.123855755
-0.07685542
0.009298684
-0.033711106
0.056187544
0.006623658
0.04024111
0.01037428
0.016324548
-0.08013714
-0.10105056
0.0046497346
0.07377242
-0.07836052
-0.03395329
0.04047995
-0.00338491
0.014667354
0.030406049
0.05640445
0.087022364
0.042395566
-0.0066907005
-0.057662632
0.060615223
0.093864225
0.040072396
-0.044108182
-0.002731222
-0.02445158
-0.015350208
-0.03371838
-0.021689866
-0.07574096
0.08310677
-0.00057782716
0.0099713085
0.107261874
0.0528844
-0.009068863
0.00023147269
0.03047604
-0.094276994
-0.017957974
0.041080635
-0.0639194
-0.010732956
-0.04434965
0.016464353
0.097680554
-0.017421968
-0.038916904
-0.041818507
-0.056715194
-0.07444644
-0.0036516285
-0.033187006
0.030503852
0.051185947
-0.005781438
-0.110420235
-0.002754133
-0.067183465
0.003227237
0.044067103
0.06314043
-0.009698482
-0.022950869
0.074057445
-0.08063485
-0.004163648
0.0068612755
0.057937045
0.022801729
0.12991236
0.112032704
0.018888967
0.011385955
-0.0032865533
0.08462724
0.11334933
-0.11956562
0.040448353
