0.17672767
-0.1897805
-0.1472579
-0.036243245
0.07911403
0.079964414
0.24943885
0.027861007
-0.17172451
-0.06277568
0.0044131326
-0.08561748
-0.11303387
-0.12102097
-0.13436472
-0.012145806
-0.06144008
-0.11483414
-0.0034670145
-0.07435216
-0.08268969
-0.07518454
0.23606925
-0.23491928
-0.020366365
-0.15177108
0.0044108145
0.31677407
-0.14311829
-0.23809154
0.040080078
0.08381205
0.14655809
0.08597396
-0.13759105
0.04771065
0.06343282
-0.052989587
-0.08075021
-0.2245093
-0.21464126
-0.1437385
-0.04755614
0.07627849
-0.013577625
0.010770342
0.028393384
0.2571557
-0.09248214
0.041421313
-0.07937256
-0.013576516
-0.04887817
-0.01332176
0.08164023
0.03310305
-0.14517269
0.16482353
0.039912764
0.17008531
-0.14509302
0.0008074158
-0.040518947
-0.04183258
-0.07531412
0.034533773
0.17188461
0.3271849
0.045236774
-0.023259921
-0.13600236
-0.07580862
-0.25233978
-0.03044327
0.39284885
0.009005819
-0.18878417
0.0044171712
0.008108064
0.04105961
-0.04190285
-0.27757326
0.08547985
0.06714751
-0.117030986
-0.09680313
-0.14955357
-0.0038279602
0.023937298
0.020426108
0.14003105
-0.06181475
0.062455565
-0.1394972
-0.019213017
0.07929416
0.16376668
0.058658987
0.16839355
0.20225365
0.117801815
0.19487897
-0.03754137
0.007826244
-0.1028875
-0.098241925
-0.022672499
-0.048627753
-0.0019270022
-0.027795602
-0.17903607
-0.034067705
-0.046759885
-0.039248984
-0.08619874
-0.13723089
-0.037397753
0.058898386
0.0885433
-0.16019924
0.09042894
-0.070950255
0.03113426
0.024243081
-0.012507741
0.11495108
-0.19137481
-0.1442437
0.106823206
-0.32634708
-0.025098326
0.00774729
0.17570154
-0.038222086
-0.22288357
-0.18976697
-0.1237564
0.19238661
-0.022767654
-0.029236903
-0.015512507
-0.2068589
-0.09420836
-0.11561053
-0.3278308
-0.059088636
0.043058906
-0.16912213
-0.19245583
-0.12620707
-0.11128901
-0.046874814
-0.057021216
0.04558988
-0.05235941
-0.19531387
-0.054125525
-0.070605144
-0.03448108
-0.05252821
