0.0663782
0.024158772
-0.07497478
-0.04630421
-0.05569879
0.009847585
-0.025763
0.028591288
0.0035350395
0.08932648
-0.032228667
-0.09917906
0.009663369
-0.020865006
-0.14553538
0.0140465805
0.080289535
-0.09348535
0.014606278
0.031181004
0.01125673
0.043855112
-0.012305224
0.013850849
-0.014597476
-0.024022382
-0.070880406
-0.011530823
0.029836323
-0.13850756
0.0194426
0.016113408
-0.048092756
-0.0932817
0.078060195
0.019336782
0.09335489
-0.099252634
0.031026457
-0.083084315
0.1169551
0.038274452
0.02278537
0.050483983
-0.067777865
0.0042844885
0.021469386
0.057569645
-0.09548111
-0.026984788
0.055628445
0.10597089
0.043634534
-0.08889124
0.017804462
0.028391011
-0.04360443
0.081589274
-0.012453932
0.03484082
-0.02431222
-0.07803208
-0.034813534
-0.0013792075
-0.026630105
-0.039648905
-0.08123508
0.013119857
-0.09575051
0.04806208
-0.010695339
-0.1036946
0.0059826
-0.011156248
-0.015682448
0.042291835
0.047979534
0.065117195
-0.014900593
-0.082065634
-0.01802552
-0.099319085
-0.0742624
0.16063194
-0.09712126
0.007340152
0.05198869
0.037762556
-0.11094472
-0.06197488
0.08221388
-0.055524394
-0.0021910218
-0.12734698
-0.0058517726
-0.019947955
0.0113569945
-0.05135088
0.06295397
-0.10736437
-0.0131837865
-0.048871513
-0.11018435
0.023607759
-0.03629316
-0.10116589
-0.009997444
-0.027621107
-0.123527825
-0.049956102
-0.07583745
-0.057013575
0.033296634
0.03993064
-0.114461966
-0.038754687
0.013742771
0.02399353
0.011155388
-0.08668443
0.06451711
-0.030265152
0.11888628
-0.029183295
-0.02143538
-0.017998597
0.021824675
-0.019664947
0.035847396
-0.0070028417
-0.011273258
-0.01024252
0.06548797
0.044115607
0.10487371
-0.09108111
-0.02439116
0.059735402
-0.03913066
-0.0035776796
0.02889887
-0.055531844
-0.035397507
0.002519357
-0.0129524525
-0.039226715
0.017741546
0.030738492
0.052093618
0.057360414
-0.06022293
0.021805767
-0.047577597
0.023415372
-0.09710422
0.042395443
-0.0025961495
-0.02228679
-0.017624367
0.042171568
0.09704971
0.051966753
0.08304983
0.061830565
-0.0668589
0.021636477
0.023304803
0.0020532368
0.022663306
0.0026521015
0.024912283
-0.0029061576
-0.012753591
-0.013524201
0.051311646
-0.012589189
-0.027708055
0.0376903
-0.09819978
-0.02311821
0.09631116
0.07930543
0.08609592
-0.057300027
-0.021841668
-0.068321094
0.10946968
0.07509629
0.1095268
-0.060203858
-0.10489589
-0.023837432
0.03450318
0.028250966
-0.044488072
0.03199098
-0.060903084
-0.05039196
-0.11027703
-0.060040504
0.016369218
-0.034301072
0.018310346
-0.023646204
0.029595057
0.0005451133
0.080975704
0.028381504
-0.018571896
-0.063331366
-0.07747889
0.07345682
-0.04023331
-0.044397566
-0.10377199
-0.11484386
-0.004825477
-0.03866917
0.12601396
0.08019807
0.026498394
0.08803943
-0.081214964
0.14886028
-0.03683276
0.07221589
0.075273015
0.049376894
-0.010025905
-0.03455461
0.015168192
-0.008355661
0.0713465
0.04865057
-0.046689395
0.058507994
0.043483533
-0.09559381
0.007560361
-0.028955275
0.009714621
-0.024524083
-0.03169376
-0.0061996193
0.016411906
0.057081386
-0.04472853
-0.036588445
-0.057014357
0.014006597
0.045863584
-0.04403295
-0.07304749
-0.012372733
-0.019654054
-0.05577819
-0.06534746
-0.025377788
-0.036605675
0.04937114
-0.037794326
0.053677093
-0.02157527
-0.009691859
-0.055296745
-0.04642511
-0.08926357
-0.00035598484
0.071712404
-0.016053764
-0.121083766
-0.002550526
0.045780756
0.06646957
0.08195904
0.0017835075
-0.04212699
-0.07217248
-0.087746724
0.020834913
-0.07462443
-0.01245279
-0.052175377
0.04942483
0.011927079
0.022869186
0.06853879
-0.09238816
0.0034131496
-0.030546118
-0.07977515
0.033859108
0.057377547
-0.042950317
-0.0041285623
0.07473539
-0.052779894
0.023355167
-0.11483718
-0.013009383
0.08718621
0.037601344
-0.10668
0.037026998
-0.047446385
0.058981054
0.09303582
-0.077367514
-0.027176255
0.05327579
-0.08357687
0.10647247
0.008803276
-0.044060614
-0.060081307
-0.11248839
-0.08494951
-0.008224544
0.06979824
-0.05360626
0.072198614
-0.04127246
-0.029637279
-0.010340492
-0.063333675
0.082616754
-0.06447115
-0.035353884
-0.053249344
0.005556032
0.09995637
0.017883524
0.07804503
-0.055398062
0.042179033
-0.06966222
-0.011712241
-0.047761872
-0.06089477
0.08822098
0.038010444
-0.054056253
-0.04868342
-0.095755205
0.058813363
0.012078794
0.06505956
0.095069274
0.018463641
-0.028462104
0.0065414007
0.11766897
0.053287458
-0.08760785
0.025236268
-0.09975216
-0.032279566
0.038377255
0.013962742
-0.100676924
0.035995856
0.047932513
0.0017463369
0.049923077
0.0716678
-0.02955999
0.058137134
-0.08121235
0.001539096
-0.009682363
0.02848359
0.10270984
-0.008960834
0.06349714
0.071177356
-0.002016948
-0.10585636
0.028214734
0.05238549
-0.058906276
-0.05502624
-0.019118117
0.047180336
-0.009456821
0.01142221
-0.062324055
-0.04274668
-0.05357951
-0.037612732
-0.08199237
-0.007134911
0.111958005
-0.108346656
-0.029761834
-0.013869683
-0.07742521
-0.0046853847
-0.081776015
-0.10539857
0.013735048
-0.040649794
0.0591207
-0.06035106
-0.07895853
-0.013702831
0.0245931
0.0101289395
-0.004870702
0.026929535
-0.10777216
0.06416693
0.028290235
0.023628362
-0.040047605
0.0041225846
0.022806529
0.061230354
0.03561986
0.092758074
0.03902721
-0.031455632
0.06980095
0.0072765145
-0.011740629
0.06091342
0.07003787
-0.07596357
0.05233146
-0.01768005
0.028633768
-0.0005936982
0.0050750202
-0.024035096
-0.06687798
-0.031988487
-0.009562629
0.037543643
-0.0130556505
-0.026342833
-0.010791902
-0.04479132
-0.046079937
-0.07441561
-0.050362
0.055789787
-0.07932536
-0.080153935
-0.029964792
-0.06978379
0.07856935
-0.041523475
-0.071332484
-0.03776453
-0.017621607
0.050161276
-0.12160325
0.022645425
-0.008797789
0.10737378
0.054259878
0.09602676
0.079888456
0.06772849
-0.097859785
-0.04810232
-0.00096055144
-0.013727107
0.027491968
0.008844981
-0.028917465
0.07977724
-0.12594017
0.057071082
0.020819033
0.039815124
0.01002824
0.05954428
0.04923842
0.028831657
0.039778385
-0.07378794
0.016769279
0.04042969
0.073788755
-0.037449732
0.022379214
0.017148137
-0.06624697
8.3797095e-05
0.019095536
-0.08610181
0.034255162
0.01957843
0.04138689
-0.03328856
0.012732472
-0.059431177
-0.012805015
0.07393342
0.06382709
-0.059189294
0.044234015
0.025921319
0.008385727
-0.072375365
0.004669073
-0.0008895553
-0.069850214
-0.09777435
-0.07416895
0.041770525
-0.0725867
-0.027467806
-0.013503756
0.015180663
0.04262211
-0.013618998
0.013868311
0.14857057
-0.069785915
-0.021124292
0.044685397
0.0117556825
-0.03989196
0.1121711
0.08018954
-0.01232659
-0.09396108
0.020983154
0.053579874
0.08996979
-0.01344804
0.06780991
-0.027019897
0.0721763
-0.0027555206
-0.0061564287
0.023028648
0.0054034675
-0.019265125
-0.05874576
0.02129251
-0.03436507
-0.10217132
0.026067084
0.039917592
-0.013796648
0.08594334
0.05773971
-0.046980478
-0.087527744
0.021663256
-0.121060394
0.019691302
0.06816004
0.021319514
-0.013057776
0.06817282
-0.05988566
0.07795867
0.035958953
-0.012937749
-0.044330616
-0.04874022
-0.027907265
-0.007455144
0.046473216
0.015196171
-0.070250295
-0.071179554
-0.027614992
0.015392389
0.09824761
0.007460774
-0.024223195
0.062306117
0.053663895
0.038495023
-0.011408504
0.05766575
-0.031157698
0.01968646
-0.09278227
0.0053122663
-0.13775046
0.0073481263
0.0485833
-0.04383642
0.023780875
-0.02196443
0.07351565
0.028901739
-0.06435355
-0.04178354
-0.14896281
-0.05842103
0.058915988
0.026208473
0.016776387
-0.05278338
-0.055210344
0.0075848917
0.0038513958
0.07425984
0.0055913115
0.08646706
0.0043644235
0.04505586
-0.019804368
-0.05195146
-0.006473291
0.0067729563
0.013866517
-0.028009145
-0.04015807
-0.059349917
-0.07366409
0.06614591
0.0705072
-0.06533549
0.0035064777
0.0005315014
-0.061932374
0.02717442
0.06085661
0.054212593
-0.009773349
-0.073054634
-0.02326344
-0.0524789
0.022265542
0.0032678219
0.025566649
0.062184084
0.07817609
-0.09826896
0.09677854
-0.024353199
-0.102650836
-0.009406377
-0.055803686
-0.054107536
-0.030725043
0.02495641
0.08787082
-0.0015768645
-0.04637091
0.037574414
-0.09302162
-0.041119985
0.003344716
-0.026065899
-0.06428874
-0.08333588
-0.007484672
0.07341622
0.0517275
-0.044999544
0.061726894
-0.056655914
0.059794303
0.01535554
-0.06449594
-0.056636024
0.034789775
0.06477717
-0.040965687
-0.07246412
-0.053742986
0.11353538
-0.021620333
-0.07081336
-0.021584619
-0.07792143
0.1109559
-0.048863247
-0.038970478
0.052543562
0.03877945
-0.01996755
-0.05551587
0.066292636
-0.037613384
-0.058408253
0.014659005
-0.032886434
-0.04990766
-0.05176237
0.014481257
-0.021318482
0.070606634
-0.035132416
0.03318781
-0.051176734
-0.010616334
0.06280107
0.08621703
0.057284676
-0.107996225
-0.034932245
-0.065313034
0.048719145
0.06178149
-0.06503441
0.005009504
-0.02023866
-0.007620786
-0.078910306
-0.093162306
0.027662676
0.004848171
0.08986589
0.028954064
-0.06292765
0.01615132
-0.06889713
-0.030480836
-0.10566606
-0.05258674
-0.018506562
-0.06648418
0.022997104
-0.14055735
0.037037674
-0.029660659
-0.07489357
-0.037589062
-0.034780275
0.11194338
-0.122674495
0.0148410145
-0.021490637
0.041610137
-0.0014492571
0.026268516
0.1578916
0.07739085
-0.02877166
0.05538178
0.028859464
0.008821666
0.13764298
0.12140656
0.06620083
0.08727457
0.08434384
-0.12542532
0.072465405
0.082982704
0.034991972
-0.0123598045
0.003831409
-0.083738685
0.018140765
-0.066095375
0.113917395
-0.073189884
0.019562708
0.1258415
-0.038012266
-0.09807852
-0.020134652
0.09559054
0.018592201
0.01285838
-0.0787437
0.032255188
-0.00073293765
-0.048260007
0.009486332
-0.07714369
-0.020614617
0.10360996
0.01627421
-0.090990834
0.08232108
-0.10005522
-0.05524093
0.06771734
0.0725926
-0.079376414
0.07172485
0.09701094
0.051948503
-0.008129496
0.07657841
0.045959357
-0.066788465
0.020666258
0.0825024
-0.10905716
-0.046022523
0.07950514
-0.05785838
-0.1320237
-0.079686016
0.034142733
0.060628906
-0.0539757
-0.016553028
-0.046025306
0.021450534
-0.049709428
-0.108198985
-0.11517012
-0.114161156
-0.034407794
0.07912148
0.018024456
-0.1111703
-0.026625914
-0.06553748
-0.0873346
-0.07749123
-0.10083948
-0.0070945052
-0.0054465104
0.012080601
-0.11451757
0.020841444
-0.09988183
-0.054070193
0.043297812
0.0750234
-0.05600767
0.07579056
0.011334566
-0.0062212404
-0.0024102856
-0.046899226
-0.09020918
-0.099079765
-0.0030006617
-0.0063817226
0.0163303
0.045908336
-0.04638302
-0.02211411
0.03004787
0.0039962
0.05961276
-0.04606261
-0.13959903
0.07378433
0.019724324
0.06487319
-0.14937033
-0.049967892
-0.036699668
-0.07402837
0.023432426
-0.021122541
-0.06537728
0.007520303
0.02273599
0.06570773
-0.025172949
0.010034494
0.013768444
0.07781106
0.09645837
-0.08269922
0.034483384
0.0066790315
-0.0276184
-0.08653333
-0.06825535
0.082354404
0.046089374
0.0035630495
0.109118514
0.007152759
-0.053558335
-0.10244184
-0.08161928
-0.034824125
-0.09431929
0.07679894
0.07892965
0.038723815
-0.051943403
-0.04561365
0.033315625
-0.05666906
0.07770158
0.10427798
0.00658996
0.0013870597
0.067042805
0.027066253
0.04415481
-0.09846612
-0.0071337223
-0.10584026
0.03356416
-0.07943749
0.012670967
-0.091851264
-0.039768074
-0.025800621
0.010344664
-0.05834975
-0.13569756
-0.1095495
0.0048186574
-0.13352145
-0.030142453
0.015758839
-0.052344494
0.032939017
-0.12605838
0.056948945
0.052972328
0.07490966
0.023652866
-0.040543143
0.029979425
-0.0061461097
-0.13606115
-0.071240455
0.0330511
0.04337404
0.018292956
-0.006833241
-0.03587422
0.04223976
-0.04194484
-0.11856472
0.0024415725
0.071600296
0.046694603
-0.031119108
0.056687754
0.0017214934
0.054194722
0.09320947
0.019728918
0.021242645
0.016949523
0.0053384183
0.03173323
-0.11005606
0.06336861
0.09138795
0.046087727
0.0068333196
0.08676983
-0.044745266
0.0047017457
0.049018383
0.06762477
-0.053346362
0.07268001
0.018767314
-0.099308796
-0.07916189
-0.016425757
0.11122325
-0.09652775
-0.027511006
0.035089605
0.025144573
-0.0114727635
0.067310415
0.009616677
-0.05878524
-0.06254089
0.026547348
-0.09705817
0.022420634
-0.075252794
-0.12764665
-0.10328824
-0.028466495
-0.12662646
-0.08234236
-0.015612987
0.08811513
-0.07970804
-0.0012930558
-0.059664216
-0.071086325
-0.04974264
-0.016049867
-0.0151416045
-0.09390551
0.009793027
0.035242245
-0.006663048
-0.046442505
-0.020777322
-0.056528486
0.055634614
0.0009568266
-0.002082099
-0.09721261
-0.019062232
-0.0041826735
0.05512942
-0.0421391
0.09665349
-0.044888575
-0.05472071
0.07105653
0.05267515
-0.035557307
0.05100869
-0.0022046983
-0.07268519
0.0007541668
0.011067062
-0.04477704
-0.057492927
-0.040171463
0.014080932
0.011084662
-0.06665181
-0.070029445
-0.02667342
0.022129523
0.0423166
-0.013537212
0.023936609
0.019378673
-0.06294876
-0.011854573
0.0004394133
-0.01848152
-0.017574063
-0.036448244
-0.102432385
-0.024879318
0.015658487
-0.050612763
-0.024116762
-0.078680165
-0.06998875
-0.08355264
-0.056369748
-0.08054564
0.059962045
0.060790382
0.0014046875
0.020772127
-0.081343785
-0.037371717
0.102837205
-0.01777245
0.023008866
-0.042968504
0.11922014
-0.10216508
-0.088643
-0.1182546
-0.017362159
-0.00633466
0.04089781
0.045012888
0.14261109
0.0073803575
0.035746533
-0.10370553
0.06203947
-0.08786751
0.19026658
0.025363972
-0.036869314
0.09131987
-0.04364803
0.058565952
0.07156566
0.015651941
-0.048801664
-0.014143138
0.029830044
0.048669495
-0.090971805
-0.13335407
-0.024656521
-0.041929062
-0.10865876
-0.012189632
-0.067687474
-0.0148131065
0.071988
0.042318475
0.006246323
0.11402481
-0.0691703
0.05498144
-0.04557115
0.0047697457
0.012127879
0.0040158397
-0.028515693
-0.08465203
0.03296478
0.058713462
-0.07563344
0.007676941
-0.016025843
0.047493637
0.10282685
-0.0006692356
0.04291734
-0.02884724
0.013591943
-0.016027113
-0.09709942
0.05959082
-0.021760555
-0.07758147
-0.0018853149
0.037724745
0.0888484
0.09137142
0.06612213
-0.012921734
-0.017229093
-0.031417493
0.05874485
0.029311422
-0.039501633
0.018422939
0.00010283468
0.03227204
-0.077422544
-0.023939535
0.07254539
-0.093003266
0.077418745
0.03406523
0.016973592
-0.060581144
0.014707
-0.06744403
-0.036510725
0.06154427
-0.060136516
-0.025551828
0.016236665
-0.07506736
-0.03930671
-0.0014765845
0.08301083
0.1412457
0.101955906
0.12965532
0.0192861
-0.0697185
-0.06479643
-0.015622618
0.02371993
-0.09593445
-0.018888947
-0.07092924
-0.05873668
0.03602458
0.01395699
-0.036286067
-0.017297547
-0.0635285
-0.064944826
-0.082137026
0.059580743
-0.06538589
-0.08276111
-0.10101857
-0.039061733
-0.006088801
0.030365061
-0.009031602
0.014975946
0.06464436
-0.09661596
-0.026834166
-0.03396793
-0.009763411
-0.12502104
-0.06760972
-0.09204301
-0.05205
-0.1165287
-0.02801133
0.099769555
0.09693456
-0.048112135
-0.007513689
0.071655266
0.07766337
-0.080600366
-0.08603265
-0.049236387
0.04728747
0.07304463
0.02704609
-0.028330926
0.003423107
0.10521006
-0.043784156
0.084188335
-0.00038799367
-0.030790502
0.119362146
0.105608396
0.050937764
0.12740006
-0.055186104
0.058887377
-0.051804364
0.023172025
0.08181245
0.057432253
-0.0017287522
-0.03932357
0.028882574
0.011387855
0.012952993
0.04344597
0.036339678
0.08230519
-0.010454253
0.053720463
-0.021057645
0.027879834
0.06345837
0.06693327
0.0949942
-0.07989283
-0.049580354
0.06657593
0.0059200856
0.09047686
-0.041911796
0.032102276
-0.047019802
0.06728379
-0.100969255
0.007912809
-0.06422745
0.018099792
-0.06969572
-0.009453327
0.0804731
0.043169282
0.025779916
-0.026414247
0.058816712
0.05012152
-0.10740008
0.07821262
-0.040870283
-0.10080596
-0.13592319
0.0862951
0.041973624
-0.042588312
0.050033476
-0.100291036
0.015223859
-0.043821417
-0.050251674
-0.057520017
0.0022233434
0.026345724
0.009994642
0.12878507
-0.031948153
-0.042400826
0.01964961
-0.10351146
0.011559564
-0.067551196
-0.01643102
-0.034329828
-0.07262333
-0.067737214
0.06607145
-0.1248055
-0.073599465
0.08920218
-0.0098051485
0.04152586
0.06496925
0.025716903
-0.00720138
-0.0042473264
-0.07889518
0.011921531
0.061795767
-0.17306376
0.022143232
0.06933814
0.039466754
-0.16099034
0.013573055
-0.03704754
0.01463313
-0.06724753
0.025932707
0.022435883
0.0083870245
-0.03248009
0.025045242
-0.12873983
0.0011812912
0.03482562
0.073165536
-0.0530174
0.037791405
-0.017001096
-0.061936483
-0.15266435
0.015895212
-0.069853134
-0.095399834
-0.009077201
-0.07280512
0.05262803
0.04029706
-0.1348842
-0.08162474
-0.04834166
-0.07054873
0.061878577
0.020698257
-0.09520422
0.025130956
0.019883787
0.02999349
0.06007399
-0.050674394
-0.099197805
0.07747016
-0.09507348
-0.019202914
0.0044614114
0.007195588
0.0033430126
-0.09044199
-0.04479523
0.04929348
0.118833646
-0.13850127
0.09011686
0.051693857
0.050850485
-0.0058139777
0.10419246
0.0035460824
0.029541682
0.006651213
-0.046619207
0.06491174
0.0013988722
0.05720324
0.03887311
0.05199362
0.10925562
0.112256914
-0.0679773
-0.0536
-0.021123242
0.037939884
0.0020216955
-0.053202305
0.07140191
0.0022871965
-0.05551626
-0.019201882
0.054733418
0.12079649
-0.001553278
-0.06346845
-0.0043502823
0.061348945
0.008519843
0.04180414
0.07422861
0.033831354
-0.068547525
-0.058233183
0.032822054
-0.0019339481
0.10506169
0.002195675
-0.04136922
-0.0009622905
0.03958129
-0.013334516
-0.04436351
-0.04505936
-0.019480737
-0.09266687
0.037818912
-0.029392058
-0.096835114
0.027295532
-0.05035613
-0.030130606
-0.0126784155
-0.0058267666
0.009967303
0.00014831971
0.04800667
-0.03568518
0.031377174
-0.088983536
-0.0057530133
-0.032198492
-0.021203851
-0.0416049
-0.08638007
0.14082056
-0.09252948
0.111709945
-0.09987949
0.07408866
0.042775627
-0.0001780421
0.10201766
-0.09996781
0.002128161
-0.034398485
0.05513593
-0.024669392
-0.124872096
-0.061183643
0.059759147
0.049605727
0.04071119
-0.099533215
0.122536324
-0.06036251
-0.030233214
0.044366114
-0.06448705
-0.041256048
-0.008595995
0.06666927
-0.008897569
0.067092136
0.046932552
0.03655576
0.015481613
-0.09704252
0.09262815
0.03619947
-0.031948656
0.117109716
0.0036136105
0.10092697
-0.102208674
-0.07494407
0.0211223
0.056373432
-0.070066705
-0.096087016
-0.033322655
0.12660827
-0.049528867
0.078797266
-0.03539037
-0.13740441
0.088726155
0.03677903
-0.034595862
-0.09172679
-0.049481444
-0.07169161
-0.120164104
0.097089
-0.048477564
-0.003662417
-0.11209282
0.03881822
0.07224125
-0.049078844
0.009097992
0.018761806
0.03608145
0.09202543
0.04573653
-0.015258863
0.076264836
0.0912637
0.07480619
-0.01679949
-0.073971555
0.021432795
0.07203614
0.09290265
0.09307275
-0.0029963437
0.0560511
-0.041457456
0.079494126
-0.06823983
0.027567253
0.0023624925
-0.026844373
-0.025640804
-0.029057207
-0.023717973
-0.05259261
0.025705883
0.09643209
-0.039622325
-0.008675637
0.004383204
0.07554991
0.0789656
0.08648377
0.039352927
-0.0632158
-0.028021354
0.002555399
0.055846654
-0.15961915
0.040704098
0.05181178
0.03705266
0.022802157
-0.0752339
-0.047677197
-0.02473172
-0.021293137
0.012792907
0.005234665
-0.0367306
-0.087701604
-0.14438571
0.038981482
0.05971019
0.024262385
-0.012722044
-0.16900703
0.08764815
-0.0980949
-0.09279189
-0.04548709
-0.006951351
-0.015327826
0.056105997
-0.012957524
0.003606845
-0.04304971
-0.016502084
0.09749248
0.018309925
-0.09409357
-0.051647525
-0.07987893
-0.11496323
0.042668693
-0.020766446
-0.022087552
0.049918253
-0.14100303
-0.100162625
0.045925118
-0.034008004
-0.09968515
-0.15197559
-0.05783645
-0.04897711
-0.13000439
-0.10352777
-0.018092135
-0.050248522
-0.07928767
0.0021055369
0.016573066
-0.073866166
-0.032232393
0.097718775
0.002862345
-0.05210367
0.09148159
-0.021572776
-0.030785473
-0.045998782
0.035842065
0.030048743
0.0400215
0.011799766
0.011752072
0.077672176
0.08318512
-0.027539363
0.04298968
-0.018657407
-0.025980914
0.006872712
-0.0009921674
0.02214453
-0.052838042
0.075522095
-0.057780884
-0.011622369
-0.020224797
0.059951387
-0.059536334
0.06385428
0.073612034
0.021859014
0.08974562
-0.06289772
-0.08455112
0.07501763
0.07449035
0.005228727
-0.038016103
0.0491568
0.067820005
-0.0802817
0.01750254
-0.039491132
-0.059764825
0.05890491
-0.026736025
0.021225113
0.061759338
0.03307196
-0.050671335
-0.040790193
-0.006151559
-0.03952489
0.044035543
0.06875238
0.023444159
0.11109279
-0.038164787
-0.0575575
0.046289135
0.06983992
0.017951626
0.024816891
-0.06167299
0.029162362
-0.08896691
-0.0061755553
0.101305515
-0.11092365
-0.04651648
0.046131983
-0.05790342
-0.015438866
0.058241576
0.01803608
-0.020288406
-0.08133432
-0.06628422
-0.03480163
0.08504074
0.060372766
0.030820554
0.08708066
-0.0062227044
0.03470085
0.0062896535
0.003914208
-0.027304571
-0.018791562
-0.04383001
0.06673332
-0.052617084
-0.017006954
-0.021737676
0.088375814
0.02665017
-0.012728071
-0.019315924
-0.06250144
0.046588305
-0.02536877
-0.101230815
0.0029957104
-0.13239238
0.05676313
-0.03374282
-0.0491845
0.06142543
-0.07105242
0.054750238
0.0359626
0.058141954
0.012421927
-0.14634557
-0.013413475
-0.0949259
0.04445737
0.007727617
0.0560403
-0.09744878
-0.023352982
-0.056642625
-0.02997956
-0.0015555405
0.012187952
-0.046472806
-0.02527474
0.028676955
0.027814148
0.010298982
-0.066477664
-0.096292414
-0.0078897895
0.0637088
0.053646322
-0.0482499
-0.02100429
0.005535588
0.018057933
0.10400996
-0.07674652
0.047897678
-0.10183229
-0.056408662
0.07465278
-0.07061528
0.060549095
-0.028040249
-0.07783668
-0.060056943
0.033123937
-0.101966366
-0.002415915
0.078988165
0.028782647
-0.057859275
-0.0061629117
0.024878915
-0.05249156
-0.0023169578
0.01808219
-0.041747406
-0.040732212
0.08376957
0.034218825
0.06886202
0.010965266
0.015690114
0.047396038
-0.04630058
-0.100348644
-0.0815137
-0.08172475
0.023431601
-0.06551497
-0.027506527
-0.05863991
-0.0016106446
-0.09306685
0.089383475
0.024850123
-0.034438632
0.0013047201
0.013947736
0.08281912
-0.03881711
0.026301047
-0.050956648
-0.021390622
0.03735415
-0.038706034
0.05193903
-0.101111226
0.02088895
0.05039109
-0.010671868
0.07459352
0.011796615
0.039860733
0.039813057
-0.06300093
0.016803602
0.049086064
0.06603128
0.0021079658
0.07670023
0.071447946
0.051425125
0.024359511
-0.06686756
0.038402136
-0.0071593057
0.046468448
0.0849855
-0.10929473
0.078228936
0.07260248
0.0036064112
-0.07393276
0.04737623
-0.045057148
-0.051027767
0.026718132
-0.0235846
0.03186727
-0.076619625
-0.10846979
-0.039867155
-0.046646595
-0.04551049
-0.09778552
0.06408231
0.012802488
0.037681006
0.020855073
-0.13851513
-0.11708385
0.0750938
0.038961872
-0.013035115
-0.028601026
0.020098003
-0.08611301
-0.03259773
0.003334033
-0.050323375
0.08877645
-0.037048835
-0.010088663
-0.05456343
-0.006739355
-0.15531705
-0.03703743
-0.10096673
0.01885408
-0.057866417
-0.04069102
-0.08496648
-0.06095629
0.047337394
-0.039544344
0.007772239
0.03186408
-0.08912838
-0.04878958
-0.010787797
-0.012785235
-0.12949257
-0.018530473
0.025185432
-0.043794002
0.02226816
0.0075708595
0.027403116
0.040982407
0.04491661
0.047061924
0.06990458
-0.041847724
0.12178377
-0.0058884304
-0.059984144
-0.054097936
-0.010658093
0.079554096
0.0039415057
0.08334263
0.0007319659
-0.058698367
0.04011952
-0.03902929
-0.046007644
-0.03784403
-0.036960427
0.051887993
0.011711993
0.053031404
-0.0633373
0.033369765
0.07259548
0.017784685
-0.028211923
0.025549747
-0.057122067
0.002305562
-0.021286702
-0.013598852
0.0018315263
0.01958874
0.016583567
-0.0744779
-0.07902952
0.0014180525
-0.03635912
0.03595758
-0.050478045
0.065886274
-0.1042742
-0.04067347
0.01346454
0.04362543
-0.0015341975
-0.07219546
0.055342466
-0.058784023
0.048452727
0.011808193
0.079201676
-0.11655537
0.003296721
0.054777224
0.044096645
0.091510974
0.07643793
0.08159626
-0.06264481
0.0236244
-0.020440942
0.075649075
-0.016783357
0.010206283
-0.09093324
0.029866459
0.024356896
-0.03369219
-0.020322619
-0.02421761
-0.104548596
-0.021356892
-0.077725075
-0.021069627
-0.0017008333
0.06310225
0.027487706
-0.17036502
-0.08214471
-0.06150298
-0.0623925
-0.013212082
-0.024397118
0.009900977
0.10070991
-0.07590394
-0.03421056
-0.10066465
-0.037876945
-0.06552633
0.029407382
0.093017474
0.031280976
0.014938573
0.057749007
-0.03744668
-0.10638834
-0.006248205
-0.0507629
-0.09321522
0.04199549
-0.08502169
0.0647377
-0.07390734
0.00083596224
-0.10507396
-0.06377999
0.03022594
-0.05123538
0.04285788
-0.07881628
-0.008780452
0.0066242577
0.0007961496
0.0041391803
0.00058071385
-0.020480325
-0.056048606
-0.038905162
-0.08544459
0.01592708
-0.09522947
-0.056496236
0.0059855916
-0.01636595
-0.028241996
0.012928281
-0.12247074
-0.06536467
0.12249934
0.014967125
-0.0545144
-0.047132052
0.029002035
-0.04489136
0.0066540353
-0.045488637
-0.062477157
-0.08811507
-0.012508953
-0.1558132
-0.13208878
-0.028862422
-0.11319544
-0.06539611
-0.079415396
0.035938688
0.040878065
0.06522501
0.0824622
0.0033293704
-0.09418102
-0.05059455
-0.019178705
-0.00044643326
-0.008882783
-0.117649965
-0.04357697
0.0053135753
-0.11368293
0.01834366
-0.015356308
-0.040039863
-0.07970305
0.07853904
0.08486044
0.10761252
-0.08525923
0.06307859
-0.038209114
0.07887545
-0.10606592
0.00048497124
0.022532789
0.038656257
0.03663781
0.028181057
-0.00903089
0.04134365
0.0076568983
-0.037257273
-0.031145023
0.03915743
0.0598378
-0.05664787
-0.046177298
-0.091955066
-0.08309425
-0.057099424
-0.083031066
0.030004716
0.071882024
-0.022052674
-0.028587244
0.021245511
-0.00048542392
0.0032242476
0.07248411
-0.02318303
0.061830677
-0.003210585
-0.011261686
-0.055771988
-0.106815115
-0.095975645
-0.049941167
-0.05846996
-0.037388004
0.076084025
0.017051542
-0.06537411
-0.0675883
-0.07319285
-0.05452612
-0.030667558
-0.060686115
-0.050584212
-0.07084405
0.009989287
0.12287868
-0.057319153
0.037713222
0.0069781877
0.0019549476
-0.020623766
-0.019786077
0.0879956
0.06468859
0.014890315
-0.036078915
0.14679536
0.04427065
0.020052908
0.0010577021
0.017506821
-0.050133564
0.159221
0.052406713
-0.042280935
0.101745255
-0.099784024
-0.06365474
0.023611821
0.013267166
-0.02992857
0.054316062
0.053898033
0.056034498
-0.06893068
-0.024690516
-0.0010902791
-0.0110978875
-0.05344263
0.026882345
0.0384342
0.11028952
0.02588923
0.02544749
-0.08790626
0.013700216
-0.06366563
0.12608577
-0.06267513
-0.11242197
-0.039926253
0.0135911675
0.009985523
0.077219106
-0.011615201
-0.07713586
0.035299998
0.06400264
-0.0049042436
-0.022838883
-0.03675365
0.08501086
0.059822228
0.095104866
-0.07313943
0.09480958
-0.0008377504
-0.062553786
-0.020925447
0.05924104
-0.0778714
-0.046946876
-0.012212163
-0.05312019
0.08031552
-0.05843952
-0.031813677
-0.011295036
0.005803324
-0.006345726
0.021585936
0.05425246
0.028196974
0.07297086
0.019490935
-0.06589078
0.07381101
0.01606073
-0.0724996
0.006548182
0.049482074
-0.029041128
0.039487835
-0.04413177
0.002702334
-0.055335052
-0.0036833053
-0.045641534
-0.020077663
-0.045192413
0.0513836
-0.08428782
-0.01378517
0.042271234
-0.05166122
0.0674306
-0.040695783
0.0004345744
-0.028600344
0.06288835
0.053230517
-0.04344004
0.0016018415
-0.043473136
-0.0059635965
-0.069310874
0.05118898
0.0035002483
-0.030227493
-0.07736998
-0.12900974
-0.0861792
-0.019292261
-0.022524256
-0.05150767
-0.011659688
-0.0299709
-0.033295214
0.029676555
-0.06169915
-0.123396695
-0.019683853
-0.13550965
-0.07791141
0.046543967
-0.00057311344
-0.06716578
-0.11924026
-0.014804362
0.0015745896
-0.18196769
0.071226075
0.032350704
0.0373196
-0.0148260165
-0.032301437
-0.011071703
0.05324485
-0.059072778
-0.05278859
-0.007497775
0.050654255
-0.0064216214
-0.018326674
0.005765691
-0.058339212
0.12691203
0.015469572
-0.027961865
0.032698285
-0.11150946
-0.002155055
0.12868036
-0.0162925
-0.049091138
-0.007925966
-0.022792546
-0.10365878
0.018131644
0.07588112
0.099429026
-0.07432635
-0.039709803
-0.042089116
0.09653064
0.0837081
-0.06838275
-0.02593226
0.062853135
0.006963884
-0.033660807
0.078924805
0.0009885627
0.02982947
0.008972187
-0.04285821
-0.06570446
-0.016220154
0.021284625
0.017125484
-0.044310793
-0.041538488
0.042504113
-0.034426305
0.08160974
0.040632986
0.081725456
-0.020964205
-0.051412717
-0.05443471
0.034811158
0.057231914
-0.067278676
-0.039680675
-0.085978225
-0.016455261
-0.05262721
0.035490137
0.06971596
-0.04736283
-0.069348216
-0.058226764
0.046657
-0.0035441925
0.06781477
0.062103465
-0.093886495
-0.047582187
-0.07138557
-0.057588555
-0.08321008
-0.08667969
0.0784613
-0.08553904
-0.0012524511
-0.003115216
-0.053254917
-0.04725773
-0.045492936
-0.055965256
0.08206293
-0.1254485
-0.022955462
-0.069882266
-0.028957421
0.025761375
-0.03214975
0.032720488
0.022587247
-0.04656282
-0.07564361
-0.06390452
-0.058772214
0.09431292
0.03066501
0.048238393
-0.13098383
-0.111143045
-0.051386885
-0.12664948
-0.028563406
-1.8887898e-05
-0.10299126
0.028266188
-0.08229459
0.06548615
-0.020890601
0.011518508
-0.07217966
0.07432045
-0.01192497
0.038648006
-0.04389006
0.021166762
0.0029640028
-0.0051734224
-0.018259121
-0.08844917
-0.004520789
-0.034923952
-0.059316084
0.01014645
-0.00738926
0.016644312
-0.13459316
0.08549093
-0.008854772
-0.050109252
-0.040099367
0.02921376
0.04394358
0.02599694
-0.082925946
0.01615972
-0.121210754
-0.106458545
-0.014847296
-0.08425636
0.004772919
-0.086904705
-0.012722729
-0.04566367
-0.09939219
-0.004370675
0.05948235
-0.02902896
-0.056654736
-0.10411406
-0.043338336
0.03538071
0.096864596
-0.043921985
-0.050795786
0.11362889
-0.04308398
-0.012532666
0.100068845
-0.018892264
0.048553467
0.08069672
-4.92489e-06
-0.036285978
-0.018193776
-0.10741401
-0.022824382
0.042183165
0.08232418
0.11050944
-0.017577887
-0.09063097
-0.06350513
0.0068665007
-0.0077678957
0.021876898
-0.0009985918
-0.043839213
-0.061880648
-0.034551196
-0.053277034
-0.0459205
-0.022406295
-0.0057687913
-0.056166615
-0.026299136
0.029649287
-0.070260346
0.01842639
-0.0024234334
-0.042289753
0.052456424
0.02107743
-0.085448466
0.029840458
0.06963966
-0.047185007
0.012666711
0.010444792
-0.061610743
-0.05883295
0.06634701
0.051308367
0.049000416
0.007779163
0.109334916
-0.03977518
0.039029334
-0.026835715
-0.036365997
-0.091394804
-0.0060288445
0.026459781
-0.033882454
-0.062334433
0.08003247
-0.0853121
-0.005482955
-0.021443646
0.011145469
-0.03913671
0.033664204
0.059527893
-0.044389784
-0.03147726
0.04318959
-0.15373094
-0.09843461
0.082025565
-0.13679342
-0.047791816
-0.011094626
-0.0023907586
0.06300134
-0.035969112
-0.00774695
-0.059098955
-0.030994223
-0.031056823
-0.018284395
0.0039032064
0.004408605
0.07955207
0.019892743
0.009903798
-0.00045353296
-0.05418466
-0.082534105
-0.026908716
0.04066829
0.047231585
0.002737861
0.06322449
0.041863766
-0.019705608
-0.002590579
-0.08220847
0.04908715
0.013239268
0.015100742
0.013109781
0.0068354397
-0.01238894
0.04720154
0.036688115
-0.08011373
-0.03375034
-0.08170207
-0.033158205
-0.019206917
0.04718148
0.07199477
0.04095881
0.052729957
0.07000488
-0.011410565
0.017331384
-0.044579837
0.064388044
0.08565694
-0.12173293
-0.029801005
-0.033018775
-0.009403333
-0.018883435
-0.054820947
-0.03148958
-0.028656969
-0.068677604
-0.05977825
-0.0046641435
0.06829431
0.05712674
0.019346885
0.034927234
-0.102584526
0.01856149
-0.034886457
-0.048673794
-0.14370635
-0.056857638
0.10111425
-0.015519889
0.04876544
-0.01142951
-0.07448337
0.030432241
-0.07941654
-0.070927665
0.05647092
0.11087375
-0.052581355
0.0022442136
0.04241012
0.091011636
-0.045690797
0.033025615
-0.024052924
-0.10842945
0.00048280522
-0.06219749
-0.042441025
-0.023981329
0.07728918
-0.043726463
-0.029201025
-0.11387696
-0.06745017
-0.07042464
-0.03882555
-0.061996136
0.011780192
0.026041394
-0.05554509
0.044081185
0.0428626
-0.00011708767
-0.057681397
-0.049407657
0.030864857
0.091085084
0.028430663
0.03851742
0.017913433
0.03074186
-0.013168026
-0.090413064
-0.042893805
0.017714491
-0.032591
-0.109477624
0.047563992
-0.061452128
-0.052361984
0.029964201
0.0021235747
-0.0015919886
-0.04240756
-0.03549065
0.040250007
-0.023445835
-0.011102358
-0.05936785
-0.07196709
0.034646392
-0.0791549
-0.017774303
-0.028667111
-0.052608788
-0.08780792
-0.012183892
-0.0598337
0.06822261
-0.011647566
0.06306789
0.034204934
-0.050936297
0.023327854
0.081074975
0.009758017
-0.03495798
-0.0021912812
0.09779574
-0.045303266
0.032486994
0.004452199
-0.002555938
-0.09365282
0.07568168
-0.018479254
0.050957017
0.021476582
-0.0012797663
-0.051311497
0.00086686393
-0.053760316
0.03362695
-0.04663778
0.06703438
0.024652395
0.091419496
-0.0695754
0.07048436
-0.0057145897
-0.08563593
0.033951662
-0.10384168
0.012055953
-0.053606696
-0.038786955
-0.018647928
-0.034949794
0.056056306
0.07530016
-0.015296126
-0.04023902
-0.03833721
0.017549269
-0.08002316
-0.007960987
0.06775013
-0.029822873
0.005497949
-0.0044098557
0.14229655
3.366424e-05
0.00046057423
0.026013393
0.013212347
0.07207967
0.07944913
-0.01484523
0.010586306
-0.032048337
0.011308982
-0.03210234
-0.014193606
0.019675896
0.012092205
-0.046292968
-0.00836716
0.06733847
-0.041070852
0.10309556
0.046691492
0.0637854
0.069875136
0.00833433
0.027946461
0.075644955
-0.1374028
-0.109201685
0.072777
0.042890802
0.060216397
0.024075523
0.07955825
0.10889792
-0.053443573
-0.057643373
0.05432503
0.040330417
0.06657285
0.0023439438
0.089679986
0.038814925
-0.058967993
0.06516903
-0.066474006
0.06396604
-0.15002109
-0.06282097
-0.05134792
0.01579013
-0.053241473
-0.020228539
0.080582194
0.09647011
0.052879374
-0.09798045
0.06898044
0.02457226
-0.031593457
-0.04321088
-0.025680138
-0.044642583
0.011712915
0.02350857
-0.040308908
-0.004177976
0.06179679
0.01867894
-0.016000006
0.039060585
0.04944426
-0.017968772
0.02723264
-0.08065458
-0.09106519
0.005484005
-0.0056606797
-0.07253757
-0.019021468
-0.0067441748
-0.048142698
0.0021416892
-0.011069355
-0.077166475
0.13787256
-0.04259665
0.025827961
0.056966964
0.0034828433
-0.07345891
0.042752445
0.05130507
0.01517382
-0.052113514
-0.010783593
0.026635127
-0.09668894
0.029477362
-0.053748056
0.05167097
0.01104402
-0.033622764
-0.049246255
-0.0020699794
-0.077309676
-0.037025295
0.016179834
-0.08755649
-0.039535087
-0.059028793
0.017641472
0.03992132
-0.05719899
-0.052961886
-0.0219671
-0.01678695
0.055041227
-0.009137705
0.10247714
-0.009369894
0.040938582
-0.044076644
-0.026488394
-0.027244616
-0.021200648
0.046971273
-0.03717251
0.0060406155
0.013030666
0.15957679
-0.0881517
0.004964273
0.006293589
0.041976098
-0.021170199
-0.005918978
-0.041070435
-0.10342744
-0.050302617
-0.013659138
-0.08381301
-0.037704833
-0.11249803
-0.08094993
-0.011445487
0.10523091
-0.0056745517
0.0021539961
-0.034306433
-0.055290863
0.03331971
-0.0034753846
-0.047698867
-0.029768355
0.028552733
0.14776246
0.04691849
0.05964606
0.0043970253
-0.017461147
0.07868897
0.0039845062
-0.01661448
0.009920186
0.12892088
0.13066168
0.09212756
0.07616501
-0.025709145
-0.0064254566
-0.038050354
0.0002072898
-0.048053093
-0.019213328
0.07101343
0.07229332
0.030921496
-0.07729702
-0.04904355
-0.04960138
-0.118820235
-0.04576779
-0.08967694
-0.021840379
0.07725894
0.06896008
0.06285388
-0.098256655
-0.02696492
0.040807072
-0.068160646
0.057738118
-0.078620985
0.007816748
0.03189522
0.03498175
0.07983409
-0.116546586
-0.07473507
0.032444004
-0.045997474
-0.09275275
-0.05642085
0.029365921
-0.07780631
-0.08762529
0.06414068
0.038328115
0.020000719
-0.063064344
-0.09682855
-0.07134432
-0.12346915
-0.08053643
0.051333167
-0.05624281
0.0027760533
0.036179755
0.009688156
-0.04231152
0.055781007
-0.095719166
-0.06220631
0.049514987
0.047234997
0.0932397
0.034146562
0.07073122
-0.027217899
0.045030944
-0.08794073
-0.092070155
-0.015234011
-0.064776786
-0.017011777
-0.0065764883
0.0014091055
-0.005310745
0.036228612
-0.03371988
0.00012468461
0.013143583
0.037219178
0.092629805
-0.094785206
-0.033056863
-0.018352497
0.031709928
-0.005854122
-0.025651058
-0.09583192
-0.014926293
0.011077716
-0.042443406
-0.029580351
-0.007810904
-0.06469434
-0.06233891
0.0057109823
0.036728993
-0.07564267
0.029444281
-0.026776781
0.017377822
0.014716614
-0.113043286
0.045401912
0.057968475
-0.055940956
-0.0073140035
-0.040737856
-0.005609717
-0.048083887
0.043226358
0.10685271
-0.06270431
-0.05905572
0.06962126
0.040472172
-0.079927884
0.07603549
-0.08736126
0.078357376
0.013634364
-0.03144659
0.038294364
0.05918782
-0.013468797
0.0065483036
-0.00925
0.07916347
0.054028206
-0.018758355
-0.060944602
0.07929373
0.028417604
-0.045036566
0.06278676
0.04219958
0.03313101
0.10145443
0.055008385
-0.048867874
-0.092079945
0.001873554
-0.017972747
-0.036641747
0.06545272
-0.04215279
0.11574087
-0.027431147
0.05721293
-0.0136915315
-0.030034054
0.048649468
-0.094052866
-0.053870063
0.0019638513
-0.0037211573
-0.06079425
0.0013062848
-0.076815784
0.063408226
-0.045272626
0.047399048
-0.07882546
-0.1418998
0.020143604
0.02550791
0.049192008
-0.11085128
0.026773691
0.112452924
-0.075079374
-0.10768561
0.027571341
0.03684329
-0.11861625
0.04150389
0.027940072
0.015750302
0.07935975
0.03651579
0.006110543
-0.043464355
0.09095092
-0.014938775
-0.0010153342
-0.00080646103
0.02981099
0.029742971
0.044568226
-0.061346043
0.04931799
0.04586565
-0.072651416
0.03682401
-0.008515063
0.07798017
-0.087493464
0.037507806
-0.06967052
-0.037920263
-0.003600256
0.039106168
0.020249631
-0.03860981
0.09115396
0.094855376
-0.006923132
0.010441055
-0.015280563
-0.018764481
-0.040835194
-0.03155304
0.111250915
-0.08773386
0.011808301
-0.06383243
-0.01647398
0.01899292
-0.027052492
0.069486946
-0.03107943
-0.04481686
-0.03258407
0.05204845
0.04606996
-0.057247624
0.06036655
0.046108954
-0.08462603
0.049489263
0.025261099
-0.060254704
0.0818791
-0.021688519
-0.07479477
-0.0147962775
0.0018041265
0.08577815
0.004669083
0.043997042
-0.015933355
-0.020286515
0.0034695263
-0.04247072
-0.01437378
0.016474381
-0.012042144
0.021868072
0.005629765
0.05322931
0.06579835
-0.03912594
0.017575078
-0.06788748
-0.01663684
0.0062030223
-0.010553316
-0.0023934874
-0.005719731
-0.03585947
-0.0052223527
-0.0068390523
-0.0067357514
-0.026960626
-0.03682851
-0.08531552
0.05153424
-0.025651779
-0.025002573
-0.05248533
0.08267362
-0.002942616
0.022074245
0.05307345
-0.028842023
0.029649885
0.046294495
-0.11140274
0.01523571
0.029667694
-0.01133571
0.052563924
-0.059062794
-0.04000042
-0.08755186
-0.07960693
0.018125892
-0.04629039
-0.011576925
0.03967112
0.01173288
0.0002769177
-0.04836785
-0.0013324873
0.017698226
0.026046976
0.061755717
0.038315114
-0.0716028
0.0049014627
0.06551468
-0.11596534
-0.037392374
0.070203274
-0.012603391
0.08334513
0.064523846
0.042795543
-0.050124176
-0.020506302
0.016542535
0.0062544364
-0.10327602
-0.043756012
0.04218514
0.030616686
0.020263707
0.06788386
0.015873471
-0.0021918514
-0.050886914
0.01450614
-0.0069104587
-0.028309124
0.052720428
-0.027571708
0.06346796
0.050173793
0.076966435
-0.064635485
0.008020788
0.004077514
-0.04263437
-0.07406131
0.08870662
0.044105988
-0.030780703
-0.008120385
-0.019453086
-0.07070622
-0.029192917
0.0037205848
0.045031946
0.027036423
0.012503911
0.04279307
-0.11785856
0.07170155
0.019949328
-0.034302097
-0.031440496
0.014444277
0.0125223305
-0.03968251
0.09905352
0.073217
0.044963118
-0.075586595
-0.010360592
0.06731898
-0.08091104
0.037532877
0.0672701
-0.060673118
-0.088452995
0.04347341
-0.047749165
-0.12576362
0.07180791
0.0052089957
0.037764348
0.07230308
0.06986093
-0.16995439
-0.16540277
0.011500015
-0.017976796
0.06501087
0.07927976
0.042117205
-0.10867123
0.016140856
-0.02938759
-0.095521726
0.028155606
-0.008883108
0.0071205785
-0.033912573
-0.02657732
0.10604119
0.047343697
0.0013006863
-0.09978948
0.030192323
0.05428949
0.048156247
-0.13388006
0.06568809
-0.048304763
0.065082535
-0.00041484289
-0.022804223
-0.011783059
0.04001273
-0.022960681
0.03324491
0.044003412
-0.023991888
-0.043924022
0.014283799
-0.024418693
0.0074312366
0.11273356
0.0022900824
0.07540288
0.09278646
-0.09723866
0.04486884
0.06232866
-0.04239063
-0.05397213
-0.12110558
-0.028748157
-0.08293323
0.06389461
-0.0038343503
-0.00846963
-0.03587711
0.005195876
-0.07098588
-0.030796474
-0.023448624
0.0006216117
-0.034759354
-0.0006747503
0.007848889
-0.031917453
-0.06693628
-0.08419139
-0.075422436
-0.01421819
0.06699224
0.011675678
-0.03698616
-0.0771802
-0.036367655
-0.07198945
-0.037056714
0.012098019
0.059590835
-0.068234146
0.037211824
0.0060913167
0.030761229
-0.036271684
0.051629476
-0.069495
-0.021073475
-0.016077522
0.06476814
-0.0911842
-0.06671029
-0.06519431
-0.012953962
0.04031884
0.041922797
0.014182934
-0.0856456
-0.019073606
-0.03192431
-0.015392339
0.023928257
0.080305845
0.06425701
0.16338621
0.016882751
-0.044282924
-0.08464046
-0.08146352
-0.06906913
-0.06707308
-0.021951932
-0.05766312
-0.057139646
-0.0012871027
0.124894686
-0.016310232
0.10022668
0.07871649
-0.014337111
-0.07565618
0.01612387
0.05477503
-0.04280906
-0.1274646
0.01840246
0.006780914
-0.034576904
-0.06996729
-0.008374099
0.049546305
0.027161213
-0.060206912
0.004634475
-0.05077924
0.044379916
-0.1192002
-0.06394983
0.06885882
0.025290817
-0.09761567
-0.03997071
-0.03046108
-0.03102867
-0.00021056572
-0.0060167615
0.025351416
-0.14998898
0.064424954
-0.10599618
-0.036356416
-0.012802622
-0.06001117
-0.10589607
0.08151246
-0.15640368
0.0582895
-0.0467185
-0.052718736
-0.05087107
-0.075209916
0.02351206
-0.13588662
-0.07383418
0.004329899
-0.042132217
-0.0720845
-0.0049692784
-0.021916967
0.013082095
-0.0025435863
-0.025401112
-0.0594194
-0.014983084
0.091000654
-0.00672912
0.0102316085
-0.06078205
0.06445898
-0.05755074
-0.09217488
0.018025652
-0.067389585
-0.004203474
0.10056633
0.017308963
-0.080659196
-0.07218636
-0.033080872
-0.10820296
-0.11639517
-0.039039683
-0.0037790115
-0.037715346
-0.07331446
-0.03446076
-0.04067065
0.012638665
0.05622789
-0.029139407
-0.12150298
-0.06829072
0.0881047
0.05018524
0.01961715
0.06878493
0.031240527
-0.032818213
0.03474117
0.030612579
0.010931249
-0.16554955
-0.06908865
-0.053858012
0.089255385
-0.05922665
-0.06592533
-0.053110503
0.045811493
0.10186079
0.06515839
-0.04557008
0.05512697
0.047433887
0.0743398
-0.06784096
0.09377078
0.0479544
-0.11562077
-0.06270851
0.076121196
0.088553846
0.025078727
-0.0006078588
-0.10092226
0.009340924
-0.084040456
-0.09960442
0.0059348107
-0.014480677
-0.06610463
0.03635743
-0.07368061
0.10989941
-0.0006452729
0.10778502
-0.11269394
-0.027005004
-0.0039791605
0.041810207
-0.066798024
-0.017421335
0.011173906
0.005550459
-0.06150203
0.021103187
0.055207916
-0.069633774
-0.16404213
0.003227358
-0.0015840268
-0.034625094
-0.043624725
0.059025984
-0.037768006
0.03541527
-0.0018604681
-0.012942942
-0.042072114
-0.058624238
-0.02905803
0.025138367
0.044867277
0.033410747
-0.03354942
-0.092629164
-0.037713025
0.008567346
0.05780184
0.045455046
0.0368322
0.008203434
-0.04097222
-0.034169096
0.014722127
-0.09345849
0.045640286
-0.07188231
-0.048327874
-0.05669562
0.012748017
0.01842838
0.003205482
-0.12697655
-0.05486555
0.029040528
-0.033759955
-0.08768225
-0.13480689
0.005010344
-0.08838424
-0.0013068534
-0.022216134
-0.07265741
-0.09269073
-0.07353351
-0.048296925
-0.057925537
-0.04583443
-0.008215807
-0.010171647
-0.061490584
-0.09846339
0.03890287
0.05699522
-0.08676865
-0.007865768
-0.05451756
0.04551849
-0.04975793
-0.051104248
-0.0532252
-0.060839556
-0.011662376
-0.10780307
-0.00039626347
-0.050006717
-0.022792248
0.029433493
-0.028207947
0.039858177
0.03557816
0.006384694
-0.083001904
-0.028716423
0.084023885
-0.0388885
-0.06699871
0.0410434
0.048523065
-0.046323836
-0.08920708
-0.013430788
-0.027346076
0.08242509
-0.04569731
-0.09000997
0.04053989
-0.043833558
-0.059475534
-0.03212692
-0.044233244
0.03282085
-0.041971397
0.04944918
0.049875427
-0.08182514
0.014721092
0.096856885
0.000864344
0.03624673
0.023503665
-0.018260282
-0.033229843
-0.01558614
-0.030242654
0.068627864
-0.06882861
0.028898375
0.09248602
-0.04087627
0.095478535
-0.13410869
0.095077835
-0.07133057
0.029490622
0.061810426
0.06637409
-0.033890467
-0.08971084
-0.03317014
0.10291439
0.029984443
-0.06052081
-0.09513819
-0.04495477
-0.04948049
-0.00088476384
0.083111584
0.041892365
-0.045969196
0.06324608
-0.08101514
0.008504265
0.0074653956
0.053269636
-0.03867527
-0.0032283175
0.06729113
0.0059757023
0.11993637
-0.020751819
0.028774792
-0.028736917
0.0030692245
0.040652074
0.06255789
-0.14283636
-0.0016115287
-0.014495979
0.04737825
-0.029298436
0.077056125
0.0014175116
-0.05195693
-0.044504333
-0.071589015
-0.009518751
0.04306993
0.08136577
-0.07750261
0.02519831
0.068171814
-0.109480865
-0.06972259
0.1127677
-0.0058631813
0.059048213
-0.07616349
-0.0010985851
-0.000872014
0.10691171
0.12807237
0.07559916
-0.011521717
-0.111854516
-0.019649394
-0.022704557
0.052096214
-0.07559767
0.09823907
0.00085329544
-0.010742377
0.06728138
0.020101871
-0.06172241
-0.023540374
-0.008209596
0.07979554
0.06523788
0.03857026
0.048816282
0.03240907
0.12495684
0.021362012
0.07172558
0.043504503
-0.04835095
-0.014959501
-0.018026203
0.022375707
0.045638368
-0.044337302
0.021118164
-0.052162927
-0.10437813
-0.02803357
0.031131675
0.055746015
-0.034648787
-0.05588429
0.08794464
-0.030802662
-0.053471792
-0.06286326
-0.094972014
-0.12876347
-0.09050663
0.042987972
-0.06312554
0.033614367
-0.06774871
0.11038379
-0.045496695
0.0631688
-0.083529145
0.0005403658
-0.031479836
0.058937445
0.04914852
-0.012618931
-0.0681092
0.0709787
-0.03519721
0.060663704
-0.01648429
-0.05220819
-0.04384034
-0.09904279
0.04890698
-0.01775145
-0.0026551364
0.029753944
0.058317155
0.06185149
-0.016778003
0.02154693
-0.045361914
0.022465257
0.03489465
0.0144481305
0.041877765
-0.018845417
-0.016287297
0.067092605
-0.059142835
-0.01827185
-0.026142187
0.019258015
-0.04047299
-0.020819943
0.05660754
-0.07402089
0.040200025
-0.05729022
0.05231891
-0.026315726
-0.06949681
0.021383617
0.007868559
-0.017481053
0.102182165
0.114522815
0.0047322093
-0.059937403
0.0074424576
-0.00075172895
-0.05031206
0.036927022
-0.072347865
0.013854161
-0.09281667
-0.12090244
-0.015229453
0.072971165
0.10976423
-0.047160953
-0.030494822
0.038049206
-0.093141094
0.00569211
0.04122022
-0.06580811
-0.014478298
-0.04897452
0.016490424
-0.077681385
0.09296081
-0.05004006
0.049789116
-0.0019479978
-0.06206738
0.03884679
-0.065901384
-0.02244296
0.042415332
0.07290303
-0.041529205
0.012788137
-0.07063215
0.108649164
-0.011671103
0.04279529
0.020837449
-0.053196926
0.0368455
-0.059539158
0.04729913
-0.110486254
0.0016337493
-0.107064515
-0.04083896
-0.08105555
0.017259143
-0.071430825
0.06745378
0.007520658
0.0595095
-0.035220142
0.00026038825
-0.01177905
-0.0134555735
-0.07299027
-0.039766096
0.007021902
-0.07553262
0.017340973
-0.10528334
0.05566184
-0.027405486
-0.0723688
-0.03974761
-0.02694629
-0.040258992
0.011210769
0.0013073818
-0.042083826
-0.041369956
0.021805793
0.014408479
-0.017464168
-0.036178045
-0.03545372
0.027602207
0.050661556
-0.0032665012
-0.0008166867
-0.0022562218
-0.13816613
0.028068578
0.019166691
0.040642966
-0.024012698
0.019805059
0.030381288
-0.04466337
-0.06181613
0.031455018
-0.031039108
0.015835533
0.006706583
0.002129905
0.033802994
0.097638644
0.014297836
-0.013234832
-0.06276935
0.0464281
0.004287735
0.06432156
-0.013330258
-0.008335356
-0.034923527
-0.094229475
0.06196848
0.08362528
-0.024008464
0.08136421
0.033337865
0.052982632
0.022366222
-0.088198245
-0.093520984
0.028980177
0.043130428
-0.029632432
-0.01495963
0.12051323
0.06627085
0.057847556
-0.06295861
0.07164857
-0.06975508
0.050408144
0.054000013
-0.044265915
0.036402136
-0.06094503
-0.07354939
0.00018234034
-0.026684884
0.064529344
-0.009258862
0.024726724
-0.12840822
0.016138095
-0.09231384
0.057038072
-0.14605406
-0.076471776
0.0046084058
0.08176547
-0.020062197
0.011266704
0.022448963
0.041651774
-0.05111145
0.015499065
0.02396638
-0.008477109
0.11984896
-0.015861174
-0.048256002
0.04696149
-0.06186694
0.05130954
-0.0058411253
0.04152369
-0.07840097
-0.0031936427
0.02228559
0.053693797
-0.05299801
0.07146835
-0.021182321
0.03884932
-0.12259508
0.014193179
-0.024577279
0.01140445
-0.09587574
0.012133061
0.0253613
-0.006892866
-0.093684025
0.012942429
0.0932202
-0.018261604
-0.009228309
-0.029790826
0.018238813
-0.117907524
0.036898885
-0.09881779
-0.021620579
-0.058643654
0.027391508
0.06154301
-0.09287026
-0.12120464
-0.07292471
0.05834038
-0.0658944
-0.025377208
-0.06237409
-0.04089076
-0.07938668
-0.028111145
-0.022841273
0.017425628
0.032397307
0.023333063
-0.045524925
-0.0048702955
-0.10312263
-0.08117844
0.042246655
-0.07435052
-0.08743053
-0.05905439
0.0010251775
-0.11995766
-0.006442214
0.0034139554
0.026249114
-0.05325768
0.04315513
0.07845522
-0.002873078
-0.004015708
-0.01524428
-0.0984155
-0.079069644
0.018285366
0.02030922
-0.050525233
-0.01901912
-0.072577074
0.047829155
-0.037430298
0.03941685
0.024181198
-0.048131954
0.07736229
0.017113958
-0.05516799
-0.020644443
-0.07300312
0.008166392
-0.07002703
0.07017493
-0.005308879
-0.027476948
0.036461264
-0.033432078
-0.03379132
-0.033008147
-0.1194161
-0.06794631
-0.09932847
-0.063743904
0.022456313
0.007341388
0.01976571
-0.09329094
0.06596702
0.03091235
-0.085735045
-0.09525203
0.013763406
-0.08578594
6.171359e-05
-0.05085456
0.07891357
0.1588185
0.003567687
-0.03346028
-0.06828824
-0.065051876
0.0326555
-0.051521905
-0.018051766
0.049883593
0.036041
0.031310923
0.030275052
-0.09520561
0.03646971
0.0152653735
-0.0040281243
-0.07606278
-0.005176091
0.0394248
-0.042099897
-0.018411499
-0.015385508
0.07333779
0.018451406
-0.008884911
0.06313394
0.060400978
0.08064046
-0.044925515
0.017633036
-0.099246286
0.14067663
0.108740345
-0.060537115
0.019745687
-0.017122703
0.021373814
0.020589171
0.048587903
-0.04619401
0.028862953
0.00403074
-0.101559356
0.068361506
0.0549926
-0.018092055
-0.08044775
-0.08007276
-0.011323484
0.03119345
0.016502034
-0.088879704
-0.063530505
0.017837651
0.09655436
-0.10736998
0.077600986
-0.112593256
-0.05717043
-0.07357891
0.07207774
0.041049063
0.008255299
0.014128428
-0.00543777
-0.054730438
-0.026458835
-0.07408247
-0.02394176
0.0010416742
-0.1025336
-0.043325804
0.070327036
0.09853362
-0.049750585
-0.032026812
-0.079845645
-0.08666921
-0.10738335
0.02483509
0.053139493
-0.04186363
0.07292876
-0.027445361
-0.06881988
-0.046110447
0.04874757
-0.0782803
-0.007140051
0.08223963
-0.042411618
-0.075302064
-0.005598715
-0.06430859
-0.10130933
-0.02280714
-0.047677327
-0.047796994
-0.08737119
-0.039916247
-0.011577137
-0.013637611
0.06478026
-0.078149155
0.011636537
-0.1014867
-0.023219613
-0.07562456
0.08101641
0.07858344
0.05097179
0.018933639
0.0246741
0.103400216
-0.116097316
0.027348893
-0.01805679
-0.054764908
0.028548563
-0.031098621
0.043359473
-0.029339852
0.08518343
-0.08299913
0.027959805
-0.029929083
0.1016435
-0.10498028
-0.066997185
-0.016284661
0.031947847
-0.09093787
0.049741328
-0.075218685
-0.09974938
0.0030281446
-0.0035138826
0.07511561
0.036290143
0.04725973
0.052153733
0.114784956
0.031377334
-0.05302766
0.061153185
0.010092017
-0.02886501
-0.10721397
-0.10446593
0.07918136
-0.095516
0.07160789
0.048855763
0.16444713
-0.021944815
0.10356959
-0.045650292
-0.039060242
0.00079566246
0.023606615
0.11738476
0.057033006
-0.0319482
-0.050107677
-0.05550115
-0.048551064
-0.041244946
0.028173894
-0.032342147
0.06526921
-0.03709955
-0.049425434
0.08246024
0.040136665
0.07019887
-0.0013290418
-0.025775027
-0.06388296
0.07670939
-0.030152785
0.0465618
-0.01444547
-0.0018804218
0.07025951
0.014780163
-0.037075147
-0.06320344
-0.114713505
-0.053711277
0.07647674
0.026305772
0.05031414
-0.07163609
0.08236523
-0.03562749
0.062271826
-0.014278047
0.060409285
0.09617762
0.04005358
-0.04867534
-0.073340565
-0.04354194
-0.010013086
0.026903387
-0.026471416
-0.12724848
-0.09017017
-0.04126736
-0.01760455
-0.085546345
0.07495809
0.047623746
-0.037968412
-0.09249348
0.06923799
-0.02259464
0.049761117
-0.017447213
0.016820457
0.00017346094
0.039580286
-0.02584784
-0.037182137
0.0003079238
0.022442866
-0.09126886
-0.066649646
0.037246965
-0.08856373
-0.01247903
-0.060140707
0.077960424
-0.016601443
0.050305307
0.07359362
0.042619728
-0.09701785
0.05075615
0.008093811
-0.020656677
-0.020708013
-0.041006267
-0.002083988
-0.0200229
0.1110955
-0.04568054
-0.049586233
-0.06532873
-0.0126505885
-0.05365458
0.08556433
0.020995498
-0.024372898
0.0050359624
-0.041749325
0.06759372
-0.06259163
0.016491588
0.13865972
-0.093772344
-0.006698648
-0.019179424
0.043156765
0.020496434
0.024617916
-0.047773052
-0.08487458
-0.13756278
-0.010143933
0.026540939
0.038748365
0.056873627
0.065048374
-0.050383884
-0.09149002
-0.003649581
-0.09019862
0.11558096
-0.02528224
-0.02724454
0.07566912
0.03832631
-0.008093186
0.032077685
0.0151635995
-0.0051430403
0.043420244
-0.08166282
0.12167093
0.0981558
-0.08687627
0.08485028
-0.07374531
-0.15412138
-0.048406377
0.03841943
-0.07926657
0.042386357
-0.018956607
0.0011109097
-0.041776136
-0.0011178877
-0.020626718
0.030979227
0.06722067
0.012034415
0.07604392
0.057818007
0.035408918
-0.027351964
0.04311879
-0.023307253
0.018391587
0.08221951
-0.07277036
0.10519735
-0.043295246
0.02124041
0.027292253
0.027342364
-0.08092033
0.09458778
0.02462289
-0.0019754302
-0.10395052
-0.0017127001
-0.06513242
-0.09542165
0.0092677055
-0.068925105
0.08476067
0.089364216
0.008057252
-0.13391241
0.06856047
-0.061483677
0.076310776
0.0032342821
-0.0020229155
0.050334033
0.05857571
0.10278648
0.032639112
-0.014529754
-0.01626878
-0.08170317
0.038919907
-0.027821649
-0.0014993232
-0.01273424
0.1136762
-0.07165732
-0.04519621
-0.053476978
-0.08378446
-0.10070314
-0.08879309
0.10209447
0.06038459
-0.18223202
0.00079828
-0.06176783
-0.009931357
0.052588057
0.03389011
0.08486387
0.017449483
0.070507854
-0.07950924
-0.03372626
-0.007834916
0.013252398
0.029899925
-0.053344168
-0.13595283
0.047361284
0.016839627
-0.1692843
0.04995005
0.052189358
0.042864762
0.009939678
0.033368807
-0.026478622
-0.025845127
0.005915559
-0.17220266
-0.04770293
0.08761632
-0.012638905
-0.04045148
-0.088457495
-0.05339894
0.09030783
-0.10282704
-0.0771792
0.03544036
-0.016112544
-0.08875981
-0.04595011
0.011943791
-0.069301024
-0.038026646
0.032109488
-0.09050786
0.03492615
0.038576305
0.049935207
-0.037614234
-0.029969152
-0.14605772
-0.13983689
-0.024263684
-0.051218297
0.12164891
-0.0031750705
-0.038452204
0.017965235
0.0020070279
-0.032009393
-0.027323736
0.10376463
0.03356119
-0.0052256077
-0.081142
0.08363205
-0.02254516
0.034946356
0.100013256
0.09578456
-0.15850085
0.07098113
-0.09000834
-0.0053455145
-0.087352626
-0.03071776
-0.02785854
-0.07734046
-0.013782058
0.053375404
0.07362083
0.038364653
0.029420987
0.10445262
0.027550533
-0.024120167
-0.054212343
-0.046347514
0.020071605
0.064861275
-0.08616322
0.0017776097
0.07984451
0.035006892
0.018334063
-0.051056933
-0.055600848
0.05059552
-0.061075445
0.080535784
0.029261462
-0.05546075
0.12865026
-0.07843454
-0.019292463
0.00043223903
0.0700149
0.069240265
0.021154433
0.03861109
0.021084055
0.084642835
0.047231633
0.049010303
0.06160638
-0.102453016
-0.07038904
-0.13654238
-0.12274423
0.050563693
-0.011150241
-0.092150345
-0.047848914
-0.06831051
0.03863708
0.076816365
0.005735882
-0.067258455
-0.11050159
-0.036047924
-0.029282805
0.028743686
-0.08677427
-0.02221018
0.0070735067
-0.09538223
0.0043022125
0.003702206
0.008360435
-0.008794083
-0.061026305
0.030538809
-0.024335548
-0.02627014
-0.028109668
0.08625855
0.014511739
0.085723475
0.10315802
0.10446247
-0.11860675
0.0044081607
-0.06820864
-0.02153316
-0.038550332
-0.027319364
-0.047586393
-0.062371068
0.028889624
-0.03933602
-0.03685644
-0.026426783
-0.065072015
-0.090238765
0.011944728
-0.08103084
0.026881462
0.024692245
0.040416785
0.04537565
0.09982055
0.015913391
0.057416912
0.060686592
-0.0941697
-0.025821973
0.054428548
0.044987116
-0.02904062
-0.052413523
-0.11274554
0.03745085
-0.058617637
-0.046417527
0.0116325375
-0.03984071
0.0069051385
0.021632668
-0.12667389
0.022487015
-0.07726035
-0.08874079
-0.06517894
-0.024462687
-0.0463291
0.026132287
0.05159819
-0.002221473
0.016927479
-0.031754687
0.094452545
0.007833723
-0.017720878
0.0023501858
0.011822639
-0.116059214
-0.027230764
-0.063149735
-0.0933578
-0.05123456
-0.07124125
0.035533585
-0.034325074
-0.006326208
0.03573892
-0.086610585
0.02460489
0.14214703
-0.025302976
0.10775932
-0.051807113
-0.040857203
0.019174196
-0.069619745
-0.029629497
0.09065356
0.013836701
0.064483054
0.10264885
-0.025800964
-0.04973587
-0.010840253
-0.005681664
-0.09668975
0.020528752
-0.028736854
0.030335093
-0.048389625
-0.10654568
-0.021567618
0.08487648
-0.045784604
0.013651672
-0.0626563
0.009114925
-0.11143014
0.07999907
0.059734233
0.07816179
0.0015635926
-0.027066864
-0.15199989
0.036190603
0.069333985
-0.036414504
-0.046203695
0.043156926
0.054380298
-0.08135591
-0.0055729058
0.021674423
0.0637901
-0.07544917
-0.04356586
-0.021661041
0.09694115
-0.117929235
0.06582054
0.02418481
0.00551007
-0.087361574
-0.059426755
0.119235754
-0.010631513
0.076972865
-0.18926153
-0.048346233
-0.044040933
0.049686223
-0.10174206
-0.00025054885
-0.056427438
-0.05267358
-0.04632739
0.12548155
0.08207299
0.014281541
-0.15087463
0.062227804
0.031255256
-0.0822538
-0.05143483
-0.030649183
0.00889102
-0.13759704
-0.061052173
-0.11430394
0.086899325
-0.029718725
0.012013213
-0.13093
0.054572023
-0.024134858
-0.056195952
-0.03217501
-0.0024324406
-0.09177342
0.0069592535
-0.06632483
-0.019388517
-0.03841519
-0.03851163
-0.047004506
0.02433497
0.048675522
0.10648457
-0.002639023
-0.09145924
-0.097417615
0.0548043
0.043090843
-0.101029105
0.05144829
-0.013633413
0.04070786
0.02330056
0.08282964
0.070468165
-0.0065644067
0.03860516
-0.000207621
-0.0016061397
-0.022439266
0.10727152
-0.022602737
-0.021022353
-0.056527298
-0.020288805
0.0021930663
0.094935134
0.069480956
0.033042755
-0.08589845
-0.010941758
-0.100294545
0.083269484
0.052777216
0.050057326
-0.06576721
-0.003145187
0.049407717
-0.030906303
0.019794963
-0.019046126
0.10267381
-0.107409425
0.019046534
0.024827233
0.009127675
-0.005414719
0.096390545
-0.063255355
-0.011895971
0.0421912
0.06983397
2.0482948e-05
-0.0070845294
-0.08782214
-0.079758115
0.088651516
-0.03703483
0.013572219
0.049035054
0.012407093
0.016943505
0.008817079
0.06027987
-0.041849855
0.01705812
0.06500838
-0.052517015
0.021169145
0.008477619
-0.09733641
-0.016970692
-0.08055155
0.0027650963
0.012803537
0.007304827
-0.11937272
0.03644717
0.029878521
-0.08168593
0.03906196
0.02419431
0.015499622
0.097229965
-0.06550906
0.109443806
-0.036745
-0.13844213
-0.02148648
0.030540202
0.07303711
-0.023699393
-0.045096766
-0.04175582
-0.063607424
-0.030492222
-0.010948739
-0.048227616
-0.11687037
-0.054631475
0.066529736
-0.0017503317
-0.01066665
-0.033017043
-0.0004929186
0.013151622
-0.094487116
-0.026692124
0.039325006
0.011370481
0.022878554
-0.1034354
0.13239533
-0.14591114
-0.07819187
0.03173001
0.095984384
-0.084844664
0.076549694
0.053297013
-0.09912274
0.023105497
-0.014601122
0.013121027
0.024763046
0.07943054
0.11239453
-0.011398888
-0.008274467
-0.06982968
-0.063368194
-0.0314965
-0.059513025
0.0073042964
-0.08718013
0.055463117
-0.060579967
0.056655675
-0.095971406
-0.063167505
0.05234627
-0.07823078
0.008425715
-0.023805149
0.01817389
-0.023169594
-0.0666677
-0.12683655
-0.009972962
-0.023061547
0.071163334
-0.05407762
0.011221443
-0.035704188
0.118750185
0.060260277
0.025931053
-0.064264715
0.029950613
-0.06966775
-0.0134875355
0.06953073
-0.05007845
-0.07339626
-0.092732616
0.015259204
-0.008830192
0.0113723865
-0.12550475
0.050725456
-0.009281327
0.07671586
-0.14870685
-0.021613756
-0.05081558
0.0034783375
0.06806278
0.09098577
0.023242922
-0.003969075
0.016128762
0.045057755
-0.02383884
-0.023148214
-0.061298165
-0.0588017
-0.034091346
0.0140651455
-0.07646803
-0.05193699
0.0075102034
0.09755615
0.04479916
-0.025911694
0.13360077
0.07550971
-0.026932102
-0.0007652086
0.063222714
-0.01988111
0.010898113
0.061149023
-0.012235167
0.014871972
-0.09447514
0.020153463
-0.096588865
0.08526647
-0.06638858
0.015607439
-0.006624611
0.018434227
-0.14781208
0.061939344
-0.02988683
-0.043436084
-0.1637594
-0.07129355
-0.08554507
0.007996027
0.05297445
0.08732715
0.0031560655
-0.081273526
-0.023042006
0.02418199
0.03439152
-0.03917953
-0.061177604
-0.051033616
0.040263426
-0.07233234
0.077367306
-0.057252984
-0.12923181
-0.034486867
-0.014725245
-0.046085946
0.00055726006
0.09903734
-0.06176068
-0.0021164475
-0.016785711
-0.00624951
-0.08509135
-0.031401172
0.033639178
0.06967398
-0.10866779
0.06050115
-0.04337648
-0.006603678
0.023939667
-0.022223743
0.041124124
0.017281098
0.08275486
-0.085696556
-0.020895736
0.041610852
-0.07268759
-0.020094814
-0.004140751
0.0014144905
-0.060641054
0.014112111
0.052437805
-0.09927924
-0.049729306
0.0016316023
-0.06260078
-0.029718235
-0.059719637
0.03560837
0.00074891234
-0.038104236
0.1181082
0.0027644567
0.047195856
-0.025669554
-0.097168356
-0.02586074
-0.036321
-0.010109663
0.029026097
-0.058096122
-0.0675221
-0.063389875
0.02324495
-0.09170306
0.004181856
-0.07839017
0.010693633
0.029631343
0.08084515
-0.019745167
0.07833943
-0.021024287
0.06592172
-0.045138832
-0.009731961
-0.11062115
-0.0029950722
-0.0136041865
-0.043930862
0.08224886
-0.04479525
-0.03873129
-0.009250375
0.08821935
0.062132776
-0.07396338
-0.10206159
-0.09105014
-0.07831974
-0.11108446
0.01903763
-0.06155317
-0.1299748
0.07024139
-0.018420625
-0.005650647
-0.08973267
0.0050869533
-0.064361766
-0.07230051
-0.044961616
0.051685292
-0.009648111
-0.07744222
0.05459699
-0.09659084
-0.04195312
0.022667905
0.05593808
0.08560744
-0.05023375
0.008409255
-0.10067955
0.038551938
-0.08701066
-0.048474107
-0.07574693
-0.08867159
-0.049515724
0.008418736
-0.035079736
-0.07355966
0.018017044
0.007475924
0.011080639
-0.08831014
-0.061855547
0.014277158
-0.10203105
-0.0720137
-0.060163133
0.021677727
0.041396145
0.045145888
0.040478628
0.02333533
0.020901004
-0.13504125
-0.08059139
-0.0032551235
0.04837927
-0.10991102
-0.0636487
-0.014011821
-0.12712592
-0.05812505
0.04061952
0.10321351
0.03267912
0.022702754
-0.006444517
0.0919166
0.032460894
-0.041877802
-0.03001654
0.021180116
0.06888194
0.015528338
-0.09776658
-0.038156286
-0.025951622
0.03531485
-0.031706784
-0.058787797
-0.07266124
-0.023649542
-0.007715408
0.004691843
-0.07115995
-0.111653626
0.025416173
0.024130633
-0.07116294
-0.02712612
0.048317984
-0.09690529
-0.032850828
-0.08804328
0.00740703
-0.04690149
0.020740304
-0.03733081
0.030624645
-0.05473384
-0.0062224753
-0.051153347
0.02246028
-0.098688975
0.053451367
-0.08227975
-0.05791506
-0.108664155
0.0019255232
-0.052443802
-0.06451779
-0.06485703
0.07933859
0.009244674
-0.029308623
-0.048626114
-0.07242336
-0.10254862
0.064563595
-0.07370888
0.02817969
-0.12311311
-0.029576981
-0.10647667
-0.014626933
0.0019363816
-0.0921599
0.08773059
0.030406618
0.103467025
-0.062337097
-0.03791479
-0.046199843
-0.06036149
-0.112404786
-0.039529495
0.027379882
-0.02223495
-0.11638103
-0.08486728
-0.07969689
-0.028729944
-0.07229652
0.038419113
-0.014517947
0.055225745
0.010390228
-0.11805472
0.0886713
-0.024360184
-0.08020816
-0.044301137
0.013054015
0.02303223
-0.02760288
0.083651476
-0.00879004
-0.009884956
-0.03264274
0.007642198
-0.0010181607
0.010703986
0.0057023596
0.04254177
0.06104695
-0.087860756
-0.017945448
0.016913766
-0.03146487
-0.059258945
-0.010078387
-0.05666941
-0.0461753
-0.02888539
-0.11223692
0.018167978
-0.09947506
-0.0012404692
0.0179784
0.05223212
0.039130855
0.032060694
0.04396494
-0.044288788
-0.08712242
-0.013898109
-0.05932639
-0.07841009
-0.063545294
0.04036479
0.05004734
0.06199474
0.065067515
0.14815083
-0.037259255
0.12626794
-0.027530653
0.09579548
-0.04580942
0.0478134
0.020761544
0.1098864
-0.079625815
-0.019820416
-0.018146602
-0.11030928
0.047873706
0.021498619
-0.076375194
0.034298643
-0.060557637
0.026827991
0.104523554
-0.0532619
0.11369434
-0.02517541
0.022112198
0.013579482
0.012316496
0.041735813
-0.00566745
-0.027856026
-0.047481935
-0.0430168
0.004548871
0.062371448
0.0067324466
-0.01566641
-0.0649335
-0.01224495
-0.041244965
-0.03316783
0.013076548
0.07497217
-0.058927793
0.014800217
0.026704477
-0.11646293
-0.052532706
0.02629339
0.05064469
0.05016616
0.061923947
0.03195884
0.046587836
-0.014936578
-0.087564036
-0.079661146
-0.03658998
-0.08072859
0.011774416
0.031303808
0.05033931
0.006377768
-0.02488015
0.03111854
0.08334101
-0.038167477
0.00015601431
-0.0458245
0.040293444
0.055800457
-0.020404363
-0.07090276
-0.065858215
0.090607606
0.009121201
-0.11116369
0.03639508
0.04825843
-0.09024703
0.0061033345
-0.010732196
-0.12480223
0.028108455
0.09594607
-0.044587124
-0.03908233
0.06094974
0.044185013
-0.037213236
0.06334971
-0.019414911
0.09883335
-0.039127097
0.046470724
-0.044870377
-0.040900964
-0.08816564
-0.0019285498
-0.008794993
0.02091636
0.08312227
-0.030197322
0.008805073
-0.034420986
0.077987604
-0.109304495
-0.07651728
-0.028712071
-0.09667723
-0.09439964
0.03924435
0.033072352
-0.108063474
0.10776086
0.0032844457
-0.10335838
-0.019061625
0.07065556
-0.027339775
-0.029184084
0.012756145
-0.07030574
-0.039591044
-0.038133416
-0.025815627
-0.063287996
-0.018492159
0.03912619
0.054246522
-0.01920234
0.011649653
0.022051616
-0.16579372
-0.05156064
-0.064403765
-0.118027344
-0.1554145
-0.037073757
-0.024032945
-0.08068498
0.04664704
-0.05735458
-0.039281424
-0.029212754
-0.07828368
-0.07190049
0.100196965
0.11793136
-0.056754973
-0.05824997
-0.05250366
-0.0008575752
-0.06607905
-0.0772852
-0.0102118505
0.044672787
0.07490036
0.081293486
0.021187343
-0.03436257
0.023400867
0.052672587
-0.033157248
-0.107054755
0.028082276
-0.053551655
0.0059726383
-0.06782284
0.0041780425
0.031041991
0.03664349
0.04312406
-0.042397864
-0.098349296
-0.06656019
0.009974963
-0.004219555
-0.00033403956
0.034161437
0.026609357
-0.010513466
0.04231617
-0.04189971
0.0015339993
-0.011276096
-0.014972479
-0.09280399
0.0139938835
-0.017793378
0.04775779
0.057389475
-0.08979289
-0.115758695
-0.041673984
-0.046256788
-0.050702162
0.0688761
-0.04931281
0.008470542
0.06928694
0.11379363
0.06980441
-0.021521375
0.032924168
-0.04140958
0.01639063
0.0138188405
-0.09216925
-0.08439262
0.06621514
-0.06363941
-0.0011654278
0.08071466
-0.05598353
-0.0073638796
0.0017176147
0.0057989145
-0.08278043
0.034723125
-0.0463227
-0.07765379
-0.06695095
-0.017345252
-0.093271345
0.05779065
0.056330986
0.012846
-0.04398546
-0.0031677487
-0.10067085
-0.076556
0.0020483935
-0.078819
0.031494547
-0.10097571
-0.12458075
-0.0074704154
0.07121775
0.06657908
-0.01319921
-0.037685107
-0.09668809
-0.0384334
-0.02153772
-0.049685467
-0.12583406
-0.007824413
0.0072882944
-0.0176194
-0.00011758588
0.012197063
-0.036847793
0.02613847
0.002150111
-0.13005504
-0.10527407
-0.0031831814
-0.012506555
-0.021517452
0.10148626
-0.06851656
-0.08765888
-0.010587421
0.09954247
0.018501908
-0.101605035
-0.03341962
0.06678883
0.024674062
-0.0067985654
0.016992861
-0.032041784
0.085939534
0.17042355
-0.096524216
-0.035886258
0.04412816
-0.0075546913
-0.018674605
-0.0057737865
-0.02242122
0.062350567
-0.01442499
-0.015019746
-0.07186917
-0.021863721
0.026715146
0.03063482
0.04965848
-0.09628846
-0.015546862
-0.06677594
-0.060553197
-0.08081474
-0.06842816
-0.07239699
0.028823292
-0.09142038
0.037393052
-0.096987024
0.065121956
-0.05419156
-0.020771192
-0.01780788
0.01888682
-0.18974833
0.029299123
0.014967918
0.056060944
-0.04184832
-0.06791354
-0.097199015
-0.110849515
-0.072897814
-0.03314687
0.10904774
0.021235896
0.016983876
-0.06446863
-0.12577146
-0.085297234
0.062972896
-0.1404547
-0.02949747
-0.03427565
0.072858155
-0.04599381
-0.09270782
-0.012009106
-0.0040216865
0.077984065
0.02715063
0.00236319
0.049032167
0.043885622
-0.047580346
-0.044335105
-0.0423076
-0.13160264
-0.047660492
-0.055961072
-0.032246392
0.021307915
0.012126008
0.029459441
0.05339517
0.023084614
-0.019345783
0.052883778
0.009045166
-0.09196272
-0.031750254
-0.033375934
-0.06365546
0.1032997
-0.036725055
-0.015656454
0.03039482
-0.0052711526
-0.047558337
-0.10039786
-0.058630884
0.049892243
-0.052481573
0.08398498
0.045185234
-0.038695436
-0.041133698
0.072839715
-0.10874978
-0.060838208
-0.06593243
-0.006760714
0.019441595
0.030269686
0.052935764
0.093153596
0.039021056
-0.075289495
0.11025285
0.035659086
-0.04717033
0.07831435
-0.105323
-0.050752956
-0.052814014
0.08765104
0.032850716
0.05891184
0.044269215
-0.039994158
0.012683536
-0.07631649
-0.016206646
0.059864767
-0.006027826
-0.10566253
-0.043356128
0.01854895
-0.02797082
0.029215775
-0.060601424
-0.0020613912
-0.022258697
0.018953267
-0.047004063
0.009223338
0.0009642116
0.09136742
0.082529716
0.024845306
-0.09487659
-0.036340173
-0.026319964
0.0020684076
0.011666664
-0.041804384
-0.12256876
-0.0480911
-0.058989175
-0.039170746
-0.0691204
-0.1364848
-0.016339296
-0.12160826
-0.0043307664
0.10748031
-0.09923959
0.006268004
-0.04150227
-0.08745651
-0.093726434
-0.056251153
-0.1259653
0.04428642
0.013614852
-0.017331855
-0.048872072
-0.03483469
-0.03904073
-0.03764646
0.042591907
-0.008155801
0.01481147
0.01038404
0.124401234
0.012257956
-0.074018985
0.03606028
0.023790006
-0.048766293
-0.03431946
0.044921156
0.031745758
0.07494915
0.047246266
0.084840424
0.013093281
0.036787055
0.078159295
0.04702826
-0.0037861683
0.047632527
0.03744911
-0.015262049
0.042899575
-0.14305422
-0.080996394
-0.029690111
-0.060727272
-0.017810997
0.044382628
0.07241896
0.015824236
-0.06047044
-0.05499483
0.006627387
0.026015073
0.0103300465
0.022480467
-0.040001336
0.035824984
-0.046121262
-0.08150061
-0.05386473
0.034913983
-0.048821922
0.08340405
0.0723397
0.036859643
0.03647511
0.02084874
-0.054732144
-0.029579373
0.09115817
0.016863296
-0.09030532
0.017544169
0.011393328
-0.05364217
-0.037209824
-0.017099446
0.13812046
-0.06634191
0.023469782
0.0048636217
0.07755493
-0.15287971
-0.028373549
-0.025860613
-0.05543307
0.014378906
-0.057693478
-0.040125236
0.021747913
-0.09211326
0.112360135
-0.036813643
-0.050425738
-0.09206468
-0.03242429
0.030103572
0.052131988
0.11860277
-0.051077835
0.06416207
-0.048437823
0.023978448
0.058171567
-0.04039114
0.036890086
0.09949794
0.06976116
0.07399082
-0.04018649
0.11310124
0.008715012
-0.07188706
-0.04959973
0.07453527
0.00032233237
-0.0553263
-0.009816706
-0.022543926
-0.011333159
-0.051342532
0.11185472
-0.19357839
-0.00076454843
-0.0053722556
0.0065310197
0.043291546
0.075248346
-0.028095204
0.11313225
0.09799618
0.11361392
-0.017892357
0.028916374
-0.0145225385
-0.016418504
0.009275115
-0.10637464
0.13362613
-0.009335403
0.079710394
-0.028992549
0.056871276
-0.006239328
-0.024420928
-0.014747278
0.013260158
-0.027201243
-0.019920107
0.113312095
0.0066559357
-0.03737239
-0.10459761
0.09194191
-0.05702304
0.054941963
0.01593903
0.09671206
0.028705526
-0.09437925
0.03640644
0.05859683
0.0025950333
-0.05043645
-0.042325363
0.033640545
0.0732211
0.05707534
0.004265968
-0.040002495
-0.046007995
0.07869475
0.0015337376
-0.027486486
0.023753101
0.07051707
-0.013128736
-0.03483594
0.022079838
-0.029658439
0.0013623752
0.09962235
-0.07088655
-0.07992116
-0.1016415
0.014960849
-0.03577033
0.01526116
0.0046139653
0.023426613
0.030765915
0.013756941
-0.036924638
-0.03959294
0.043838922
0.019567337
-0.059779666
0.09003888
-0.07306616
-0.075616054
0.0066580274
-0.06772592
-0.039324544
-0.07646542
0.022082856
-0.043173462
0.03562707
0.08651929
0.058032386
-0.1152008
0.029555922
-0.049996484
-0.084381185
0.045028128
-0.0034658653
0.05688196
0.08058947
-0.023807073
0.107020855
-0.08144459
0.043416936
0.034656927
0.13673954
0.10814871
0.034025103
-0.078254096
-0.07686432
-0.024403548
0.064167224
0.043130998
-0.0022046883
-0.08618797
0.055253357
-0.078808196
-0.047799252
-0.020646267
-0.010521101
0.022866962
-0.08309903
-0.0058468604
-0.06239171
0.0044842036
-0.023635177
0.056535274
-0.0048557143
-0.008239874
0.0132053755
-0.038351376
-0.01905724
0.002702819
0.02983718
0.11518602
0.054527633
0.04461266
-0.014965628
-0.018530477
-0.06828601
0.033779483
0.03232901
-0.082699455
0.006476159
-0.038895506
0.12641504
-0.07914646
-0.09091986
-0.078499764
0.025427116
0.022924896
0.08011566
-0.066713594
0.076223224
0.06528789
0.0559002
0.00026071764
-0.038180176
0.023784982
0.016656136
0.12779145
0.007669781
0.01853896
0.044804413
0.04556239
-0.052784584
-0.06442495
-0.088519834
-0.050035957
-0.107560694
-0.08329161
-0.0096462155
0.07877041
-0.04760807
-0.0024498107
0.0273786
0.02359459
-0.107250996
-0.016589059
-0.09543469
0.03244201
0.035225365
0.01088854
-0.04188688
-0.010874503
-0.022237392
0.017897638
-0.0741462
0.0478713
0.031466555
0.012759071
-0.06559899
-0.10204514
-0.0023345482
-0.06058044
-0.052636527
-0.061299227
-0.011179821
-0.041179936
0.0024601677
-0.061505593
-0.0046286946
0.048470605
0.065791845
-0.04939221
-0.016469521
-0.029379139
-0.0014954758
-0.054140806
0.00024030771
-0.04691209
-0.055714194
-0.02764805
0.040634055
-0.008517565
-0.007836455
-0.066425785
-0.041722808
-0.08552004
-0.03919162
0.0023217872
0.0022473612
0.08340263
-0.05720773
0.055235513
-0.009145947
-0.03185624
-0.06482694
0.052919634
-0.028663946
0.030825913
0.015631787
0.10204273
0.07109411
0.035235953
-0.08336907
0.07516355
-0.086720265
-0.03687247
0.021212164
0.09248865
-0.08652844
0.07095409
-0.021487134
-0.047998916
0.011150589
-0.06064821
0.086133376
-0.026637664
0.01827198
0.07853386
-0.018148208
-0.032273136
-0.022248589
-0.010016253
0.0030022028
-0.049973384
-0.008568074
-0.12917061
0.02283583
-0.07801605
0.078036316
-0.050712503
-0.050655935
-0.0048261113
0.0031029016
-0.105958074
-0.07617356
0.00028547941
0.02448824
-0.0681526
-0.073046006
-0.005295937
-0.098409854
-0.03782087
-0.029883508
0.016484905
-0.042896446
0.042284023
-0.13987906
-0.022947317
-0.13304825
0.0049149217
-0.04736224
0.06695108
-0.0793263
0.01932356
-0.028527716
-0.090957224
0.059393104
0.010315862
-0.10198748
-0.0021333618
0.008539209
-0.068909355
-0.015985997
0.028023845
-0.007911863
-0.07785528
0.05134418
-0.041130964
0.044613525
-0.088896416
-0.014347905
0.032991588
-0.07721176
0.08270219
-0.036833417
-0.094714016
0.051029693
-0.021474024
0.0056951726
0.11337131
0.07888979
0.027953142
0.0007300351
0.019311128
-0.0066873482
0.07904073
0.005046759
-0.03894362
-0.0390836
0.030300913
0.018452426
0.02914381
-0.006409087
-0.042870566
-0.036906816
0.0661715
-0.05824705
0.07179075
0.058906734
-0.04155684
0.017656127
-0.036107264
-0.033383414
0.009394192
-0.08535915
-0.0050225123
-0.05561874
-0.018293753
-0.0378414
-0.045030568
-0.12639275
-0.03504908
0.06420579
0.06651871
-0.065879814
0.063210495
-0.00068908656
0.042437702
-0.061550237
-0.009577652
0.050438557
0.01413727
-0.029558975
-0.062457625
0.0037677796
0.09989548
0.010790444
0.002891384
0.08520107
0.09703515
-0.015707111
-0.12045054
0.020340936
-0.0077282176
-0.042389277
0.059049483
0.06260493
0.0048985695
0.06568598
-0.017451167
-0.032954518
-0.07201925
0.0042951955
-0.0428778
0.011563565
0.015986709
0.055763114
0.031075288
-0.13743255
-0.026132854
-0.013547172
0.046614632
0.03877135
-0.04466538
-0.113099754
0.017353415
-0.04284834
0.081895046
-0.040541135
-0.0028538632
-0.07112828
-0.0861305
0.058793303
0.003082854
-0.05393077
-0.030205034
0.027327012
-0.08700129
0.021446418
0.061746683
0.055966318
-0.1027927
-0.108039945
-0.07452759
-0.050018534
-0.09391285
-0.0063625327
-0.067818075
0.052557014
0.0015046555
-0.00090710237
-0.042334005
0.061631586
-0.0032184408
0.022859529
0.03711535
-0.022930069
-0.0008195934
0.02136644
-0.12958603
0.017055685
-0.10517944
-0.08746872
-0.0915952
0.049292196
-0.11227192
-0.025401782
0.014125831
-0.02728325
-0.11672073
0.011481571
-0.04999427
-0.05403974
-0.0048753708
-0.081429705
0.038364694
-0.068091586
0.067063086
-0.053823162
-0.058842983
-0.05022859
0.074340776
0.051371075
-0.030528676
-0.040927466
-0.10264843
-0.036725767
0.009486474
-0.0665799
0.028162368
-0.10173488
-0.008361969
-0.10323118
-0.027597595
-0.026834616
0.0678055
-0.09790827
0.06131905
-0.10037446
-0.009088247
0.02852908
0.02412551
0.059411056
-0.08042952
0.0063163247
-0.02395123
-0.06209994
-0.013255866
-0.014743773
0.015977327
0.008617476
0.04961412
-0.0072048027
-0.023499714
-0.020064319
0.027822658
0.027105985
-0.09168787
-0.015693087
-0.019238668
0.12562393
0.030950587
0.060047098
-0.07664985
-0.017189767
-0.064165354
-0.025464801
0.034330234
0.044941604
0.034203276
0.02554179
0.10083799
-0.08602103
0.010316468
0.078942694
-0.091393374
0.046871502
-0.03982238
0.044884566
0.07344601
0.048555907
0.007202442
0.0533735
-0.009657879
-0.05257681
-0.047530573
0.060259618
0.14356878
0.11971913
-0.05044433
-0.010279069
0.06035513
-0.014990202
-0.03428496
-0.09861244
0.015574512
-0.08499253
0.06829148
-0.03259093
-0.08268239
0.05659059
0.07959455
0.056614272
0.03873902
0.046813134
0.03061555
-0.14123629
0.0684185
0.0024170363
0.05613339
-0.063057795
-0.07593683
0.07284481
-0.028539876
0.0806936
-0.101550534
0.014462964
-0.06399094
0.028771255
-0.07507504
-0.006139271
-0.06833784
-0.047864944
0.03370045
-0.087973006
0.04507198
0.0042006774
-0.0057053976
0.059426695
0.073405035
-0.047106575
0.07997001
0.07495943
-0.009214124
-0.12187231
0.0038138859
-0.111355565
0.041210257
0.043204915
-0.052359667
-0.06399868
0.0906346
0.021061495
0.026258202
-0.08832735
-0.06785352
-0.0048476043
-0.08930809
-0.04787435
0.011415279
0.016049534
-0.06179973
-0.16304661
-0.06303866
-0.13705127
0.008389801
0.006805266
-0.012628056
0.02440082
-0.08266246
-0.009211164
-0.064621106
-0.070801
0.04334459
-0.061672088
0.04999959
0.079739384
-0.010626645
-0.01555665
0.03003366
0.005331118
-0.016261812
0.108866304
-0.11578412
0.014736113
-0.059676874
-0.0120695215
0.01894116
-0.074557506
0.053580176
-0.14804243
-0.018283315
0.025481286
-0.04883945
-0.002861897
0.00075275416
-0.045104105
-0.036421414
0.0025979667
-0.034353808
-0.08868645
0.10625531
0.005545206
0.09936698
-0.11850814
0.027457237
-0.10628434
-0.007870554
-0.02857462
0.0025921783
-0.097618066
-0.023995217
-0.027801922
-0.044591196
-0.11065444
0.050319742
0.044364497
0.042486575
-0.086877726
-0.07302909
-0.022354323
-0.06371771
-0.043238945
0.058171473
-0.043746807
-0.1631723
0.034809433
-0.064282805
0.008595486
-0.11650079
0.10413053
0.021923473
0.063347735
0.011581407
-0.0045345575
0.087671794
-0.030201217
-0.0876886
-0.011699132
0.011223167
0.056481283
0.006931891
-0.05692033
0.01168901
0.06581753
-0.07506091
-0.10613075
0.03289977
-0.08221773
0.05747648
-0.0077748164
0.016795563
-0.034905188
0.100467674
-0.09272019
-0.038252626
0.091945894
0.010362283
-0.09403117
0.03855993
-0.02178579
-0.113635816
-0.0926357
-0.047455665
-0.001129581
-0.024143327
0.0039455355
-0.077401474
0.060121916
-0.014738762
-0.032529455
-0.044267077
0.050577786
0.0009809155
-0.047766764
0.06893637
-0.021893725
-0.035340685
0.048925154
-0.06887582
0.025264645
-0.08679456
0.0741106
-0.023346381
0.04856624
0.020120854
-0.02882512
-0.053444717
-0.09488763
0.020574698
-0.03787099
0.038542416
-0.02451467
0.0023925488
-0.10825087
-0.018097965
-0.04277154
0.05407529
0.15597229
-0.119341925
-0.024814015
-0.03207961
-0.048167627
0.054422274
0.016278202
-0.024304744
-0.026044747
0.04956661
-0.054193668
-0.011584618
0.07423679
0.11795862
-0.010903796
-0.021015769
0.06482176
-0.12755617
0.06853767
-0.03627598
0.10412779
-0.05817419
-0.069518514
0.06174374
-0.044244304
0.12110196
-0.0010947622
0.056256216
0.02660337
-0.09287354
0.0042430605
-0.05921754
-0.044722255
-0.088907465
0.06368493
0.019504912
-0.03190497
-0.05308165
-0.008240495
-0.1432549
0.06794592
-0.014429207
-0.014169425
0.13896438
0.011661269
-0.016377365
-0.01819313
-0.085327
0.012278716
0.026481228
0.0048180055
-0.05044114
-0.010798502
0.019840207
-0.11796109
7.489249e-05
-0.022197798
-0.02077374
0.0870094
-0.009955949
0.0063609793
0.12015276
-0.09454651
0.05403901
0.0025321061
0.052374117
-0.037051108
-0.0024350034
0.037643835
-0.020367932
-0.06160966
-0.001970481
-0.093766734
-0.075934336
0.044817183
-0.088252544
-0.08224857
-0.051060528
0.026789721
-0.10072369
-0.042801656
-0.07352373
0.04653688
0.0718112
0.03661345
0.003933797
0.045861173
-0.085520595
-0.0164914
0.008410324
-0.06264416
-0.093009606
0.06682422
0.07409264
0.018132744
-0.05472672
-0.11350925
-0.05447048
0.024621597
-0.11414002
0.034549035
0.06343978
0.060833845
-0.032853037
-0.05969601
-0.047798567
-0.06944998
-0.032021385
0.019014467
-0.016559526
0.045689568
0.12387026
-0.024885897
0.079832844
0.024658069
-0.13852857
-0.005063749
-0.07584985
-0.049491502
0.0013684492
0.031440582
0.0553536
0.02186453
0.004464812
-0.044436924
-0.0011474788
0.012524027
0.07697645
0.0073947962
0.0019900326
-0.041686516
-0.07221939
0.03740303
-0.029897016
-0.11815295
-0.03886734
-0.0332618
0.02906432
-0.02437896
0.053116962
0.019237937
0.04351781
0.050583985
-0.07731919
-0.10827302
0.054443832
-0.0714273
-0.05816261
-0.053510066
0.113629445
0.07339287
-0.07357879
-0.09541136
0.08415738
-0.07150977
-0.14564076
0.015232806
0.05679358
0.07804141
0.068092935
-0.12480555
0.015491452
0.04967889
-0.008230728
-0.050112516
-0.0019774067
-0.026253538
0.07488004
-0.052252304
-0.09090642
-0.007686062
0.0026960277
-0.057595715
-0.030888775
0.023251386
0.08172895
-0.031092552
0.011845825
-0.021718048
-0.049623642
0.0011754632
-0.06164519
0.06667192
0.056465805
-0.0493054
-0.14895643
-0.09060154
-0.058032114
-0.047436625
0.046365615
-0.0551614
-0.077089936
0.0018402466
0.009113884
-0.017495012
0.053919613
0.042328004
-0.10105719
-0.044613086
-0.049917206
-0.07944535
-0.05497546
-0.024911832
-0.016681386
-0.017603688
0.009745223
0.041987993
-0.0051368517
0.010685856
0.0012638188
0.021217354
-0.044230305
0.075049005
0.032320872
0.06356138
-0.094584115
-0.08495121
0.054890227
-0.07765104
-0.14362091
-0.04439379
0.026469309
-0.00431985
0.014982126
-0.009692667
0.022004012
0.042957712
0.049604177
0.012148939
-0.04289379
0.05962653
0.04259206
0.081956275
-0.0829289
-0.006429736
0.0025368244
0.018139955
-0.0055095926
-0.09958554
-0.012734646
-0.004754934
-0.029637689
0.07379722
-0.03247601
-0.08426467
-0.014559479
-0.111660376
0.07151003
0.060052935
0.041819494
-0.047260474
0.038049784
0.0472681
-0.08455439
0.021772599
0.041933678
-0.16120015
-0.07651814
-0.06313668
0.07586416
-0.037652
0.0701042
0.014324914
-0.06856321
0.03595659
0.022635508
-0.0713507
0.11100932
0.084167905
0.0794042
-0.046189796
-0.020700255
0.0008673668
0.057423264
-0.03286369
-0.0028625834
-0.012016075
0.013118421
0.049536504
0.079041496
-0.0020369878
-0.08104759
-0.023919407
0.10241383
0.064448886
-0.039298467
-0.0773812
-0.087162726
0.00564876
-0.034679666
0.048025887
0.0057403343
0.03038843
-0.08573827
-0.039298497
0.005929996
0.027176084
0.06008246
-0.01574526
-0.021783529
-0.06700808
-0.14444509
-0.016967045
0.10317765
-0.12716831
0.001531892
0.0067756763
0.10592431
0.021045499
0.0690777
0.015644174
-0.07060662
0.06155653
-0.12071419
-0.016147366
-0.21599413
-0.057374787
0.06492054
-0.05310151
-0.017281147
0.030716605
0.051674124
0.049685117
0.09323589
-0.08311498
0.066047564
-0.013508683
-0.051736843
-0.014145507
-0.054954138
0.058606993
-0.035740525
-0.08356171
0.03152066
-0.014758674
-0.06110132
-0.04134829
0.047413286
0.037807073
-0.040527415
-0.044043712
0.015973326
0.012360204
-0.0777697
-0.06893007
0.085490294
-0.06751043
-0.086502336
-0.06731432
-0.03804038
-0.014285075
-0.03579831
0.011452527
0.024152024
-0.036119133
0.08634238
0.07269887
-0.091224186
-0.044867724
0.07772495
-0.03174501
0.028623184
0.09494275
0.026016166
0.028463969
-0.0027603724
-0.11138824
-0.03149714
-0.086903386
0.04342141
0.02439022
0.04907358
0.044204313
0.0048363223
0.09565072
-0.015166911
0.05338055
-0.13458128
-0.007317188
-0.0058178413
0.079618216
0.0673684
8.45241e-05
0.044490978
0.0614994
-0.09907215
0.09840066
-0.040413942
0.072771914
-0.10259614
0.0058275457
-0.036235098
0.05856104
0.09702544
-0.020352997
0.022860004
0.07284049
-0.105442055
0.017052265
0.0036046668
0.030272698
-0.11089872
0.013752169
0.007263995
-0.03229055
0.055174578
0.008488678
0.02334747
0.040838134
-0.06572289
0.030719578
0.07674642
0.07054612
-0.017253285
0.06637877
0.01521314
0.059565727
-0.10761548
0.069104776
0.021865103
0.037887156
-0.0050115674
0.07804094
0.021412216
0.06073782
0.026353167
-0.006794254
0.003454857
0.037365053
0.021307979
0.011349936
-0.09274778
0.09107116
0.038255673
-0.003377584
0.08052334
0.07001578
0.005416062
-0.12353644
0.11698809
0.06015328
-0.03481178
0.052802637
-0.01087167
-0.057170704
0.05718108
-0.042833284
-0.024703339
0.0195005
0.09361268
0.033504285
0.016553238
0.038115166
0.0028774396
-0.08995994
-0.005295555
-0.13585319
-0.11928957
0.017321281
0.0082534645
-0.045740232
-0.101519726
0.016132519
-0.08835924
-0.121820755
-0.018057784
-0.014721684
0.04517728
-0.0669965
0.013056722
0.013059504
-0.04947597
-0.10710652
-0.041035805
-0.028476903
-0.02508266
-0.06103397
0.10944556
-0.07590586
-0.022188693
0.028248014
0.052632518
-0.010369715
0.089131065
0.034646224
0.079483956
0.028986277
0.06423988
-0.0894286
0.027214093
0.077113196
0.03538091
-0.03033031
0.09173702
0.0585481
0.050716948
0.036696523
-0.03569748
-0.0038738272
0.0044108583
0.020218872
-0.122324474
0.08528434
-0.023197895
-0.013673998
0.07459215
-0.02472528
0.030989652
0.046533063
-0.034209475
-0.006192031
-0.04998632
-0.1199846
-0.073171675
-0.08704808
-0.041000806
-0.009917085
-0.03284473
0.069563046
-0.015834045
0.053384133
-0.002049714
0.03933298
-0.01597154
0.032524914
-0.06743076
0.035788722
0.062402803
-0.05408634
0.021890655
-0.009556348
-0.03200292
0.0044295653
0.066107504
0.027116373
-0.015409981
0.025523076
-0.05189705
0.091592096
-0.110808276
-0.03032289
0.022131642
-0.059017275
-0.027566625
-0.04652854
0.0027285267
0.033931438
-0.084682755
-0.05427615
-0.001800733
-0.06003939
-0.08556652
0.100070424
-0.02916902
-0.016456224
-0.043963645
-0.09453365
0.008336602
-0.035929017
-0.12772796
0.02612861
-0.01982179
-0.08597746
0.014352581
-0.0449309
0.050268944
-0.08955452
-0.016298132
0.014881142
0.047723915
-0.004433007
-0.043768995
0.08849481
0.0005580528
-0.08131928
0.06733913
-0.038905326
-0.10981734
-0.045667112
-0.0037547273
0.054783165
0.02366735
0.09364382
0.049068127
-0.0769462
-0.005353486
-0.02630523
-0.0041526305
0.06492345
0.012885709
-0.09303706
-0.035160527
-0.024741927
-0.04615456
0.04361313
-0.100978374
-0.029654145
-0.039392695
0.029436344
-0.058557857
-0.059798267
0.086785644
-0.07873593
-0.017885169
-0.004884063
-0.05326833
0.036921572
-0.05883076
0.039172497
-0.07462915
-0.0063439235
0.018332286
0.028673874
-0.1076195
-0.021334607
0.04906823
0.0024521144
-0.06700433
0.020161998
0.07182032
0.04424281
-0.06806874
0.07033508
0.03756882
-0.030683583
0.059837665
-0.035535894
0.028340014
-0.0534878
0.05997533
-0.06661747
-0.004194693
0.021156348
-0.04487605
-0.024514927
-0.018775094
-0.046017412
-0.09548859
0.09247504
0.041340034
0.099105716
-0.029391993
0.05453643
0.07056627
-0.03811303
-0.05196954
0.03942345
-0.058350176
-0.010356897
-0.08063373
0.038303047
0.018742979
0.041827552
-0.016813112
-0.042305816
-0.0783277
-0.05809768
-0.011152467
0.028665707
-0.13643447
0.05644967
-0.06378449
0.047777086
-0.02412607
0.037259046
0.021759132
0.042860355
-0.010207078
0.010308678
-0.01915945
0.011922973
0.11093629
0.025406824
0.046387535
0.0369056
0.054560572
-0.0064764456
-0.10907094
0.084264725
0.047325347
0.08771241
0.105606854
0.08531361
0.009682217
-0.022640333
-0.068272375
-0.09436261
-0.058812942
0.030069664
-0.0806938
0.05064417
0.12931736
0.10241512
-0.0032233023
-0.08520536
0.031778775
-0.0020210163
-0.040865846
0.023882855
0.009744993
-0.087208
-0.14074834
-0.03298434
-0.085231766
0.056325417
-0.04125347
0.013166278
-0.07666431
0.04973217
-0.057891425
-0.05576328
-0.022860626
-0.074224435
0.04498854
-0.07145133
0.032899633
-0.07250532
0.025258802
-0.0824289
-0.013280271
-0.018980736
-0.12095149
-0.08728198
0.028018286
0.006000763
-0.047450878
-0.11631163
-0.069153145
-0.026991503
0.04604781
0.055790737
-0.056501023
-0.058156148
0.009333327
-0.052944977
0.075489484
-0.00010800711
0.06643169
0.016868705
-0.067428134
-0.056072902
0.05789486
0.038731746
0.023060875
-0.0073817405
-0.03336622
-0.06498784
-0.015652869
0.058051232
0.11504494
0.014457818
-0.06473289
-0.04977582
0.039137933
0.022853784
-0.11477928
0.017268132
0.04031774
0.048091646
-0.02578577
-0.035617996
-0.012425687
0.02770388
0.049890105
-0.108840935
-0.010293493
-0.07134917
-0.008185475
0.048361763
0.05163999
0.029697217
-0.003287028
0.008696774
0.025017926
-0.027880924
-0.12682578
-0.077580236
-0.022171339
0.06089698
0.07033823
-0.01484905
-0.02305865
-0.031215927
0.0024030858
-0.05586775
-0.11689767
-0.022765614
0.105710365
-0.030305801
0.105568096
0.013625199
-0.046708796
-0.0009207658
-0.037890196
-0.074952185
-0.011856679
0.10348847
-0.026005244
0.04774968
0.06342674
-0.069057874
-0.032727107
-0.016805172
-0.009731123
0.022909453
-0.10758069
0.07629961
0.075850934
-0.07741239
0.048456755
0.07507153
0.053999033
0.015970336
5.364342e-05
0.009383249
0.14391303
-0.026621081
0.031012561
0.02201933
0.0036310842
0.010153403
-0.14435908
-0.012278431
0.13228863
-0.011116749
-0.07842634
0.032300852
0.042944707
-0.032590985
-0.1291037
0.0033701884
-0.08720798
0.029519036
-0.09558226
0.026260937
0.085344926
-0.0056678457
0.078724384
-0.057204705
-0.026691634
0.026170667
0.047801334
-0.08323762
-0.033024516
-0.021067856
0.07352472
-0.06829169
-0.0061993767
0.03436748
-0.08509725
0.022988552
-0.04775233
-0.05316126
-0.07309414
0.060602114
-0.015077816
0.032387253
0.0053319284
0.06488688
0.053474467
-0.08552116
0.033285316
0.020771684
0.011539683
0.0737818
0.02914055
-0.09233365
0.067935556
0.08934168
-0.06508465
0.022914117
0.091924846
-0.12498753
0.040920686
-0.056331232
0.0802528
-0.11582874
0.00978626
-0.020755354
0.05947326
-0.003080059
-0.03390878
0.064891644
0.024814975
0.08414398
0.0048642624
-0.005027745
-0.107406385
-0.033198427
-0.06117263
-0.077359475
0.09687592
-0.020510824
0.06744061
0.042252354
-0.045801852
-0.15616079
-0.0068092505
0.061685342
0.037509404
-0.010006009
0.0046825544
0.08311274
0.0077893394
-0.09605416
-0.022493236
-0.032008745
-0.057536233
0.11674221
-0.04062287
-0.009532815
0.00048863544
0.044739794
-0.031028155
0.021138644
-0.008296659
0.0019421745
-0.09836875
-0.0028299608
0.08754023
0.04575075
0.099488616
0.12675759
0.004065242
-0.03824127
-0.046126716
-0.09573421
-0.052670725
0.08067816
-0.06907215
-0.027394393
0.09547646
-0.011113854
-0.049578626
0.025940266
0.010144777
-0.033437606
0.032815993
0.008722968
0.07505038
-0.08711808
0.057978388
0.092051364
-0.04846445
-0.11065363
-0.011827304
0.07998886
0.111367024
0.04615365
0.017009689
-0.022902384
-0.16291668
-0.027224923
0.02850319
-0.038692147
-0.105646856
0.058003698
0.04803424
-0.055290844
-0.044589188
-0.065048866
0.10571967
-0.049929503
-0.056161057
0.03982478
0.07046374
-0.061491072
0.08510154
-0.021938555
0.08455558
0.032281075
-0.09136785
0.04981194
-0.029878238
0.111539185
0.018028647
0.026495026
-0.05099252
0.06386873
-0.021837052
-0.09468638
0.013344342
0.05572782
0.0025199535
-0.09933657
-0.03914891
-0.10293105
-0.031407077
0.04799037
-0.01333201
-0.013648969
-0.035865985
-0.14047308
-0.028689856
-0.0022783934
-0.014886815
0.040090512
0.034540553
0.025418354
-0.097157225
-0.05278671
-0.08517665
-0.044978593
-0.13230811
0.11692634
-0.038941424
-0.056951318
-0.005128233
0.010385109
0.039215274
-0.060025256
-0.0032071793
0.026756106
0.0320746
0.008316691
0.033651523
-0.017216723
-0.00066061434
0.087895796
-0.03375639
-0.11744215
-0.15468642
-0.10248106
-0.018219957
0.015534563
-0.08913295
0.10709671
0.105778776
0.057317723
0.01903244
-0.043373417
-0.060726564
-0.047910728
-0.07151997
0.019119103
-0.02143628
-0.031799823
-0.02854495
-0.08475125
-0.09940524
0.06992399
-0.076313995
0.078312784
-0.11904102
-0.0009239404
-0.029646847
0.032124925
0.0781111
0.10931643
0.059720427
-0.048360385
0.0406135
-0.10749893
-0.026594443
0.07629896
-0.12215638
0.04617097
-0.08157481
-0.05075813
-0.049996473
-0.005238763
-0.017287178
-0.039221156
-0.18050948
-0.075886264
0.07270684
-0.05945273
0.11074355
0.012489468
0.040484454
-0.1316546
-0.08159781
0.06506092
0.04384448
-0.05054024
-0.10775685
0.04812369
-0.08878791
-0.027076425
-0.09230884
-0.055004977
-0.011346671
0.17304459
0.08040955
-4.046148e-05
-0.027944418
-0.15120105
0.0411014
0.029883625
0.015718203
-0.023782343
0.039869405
0.090081766
0.033953678
-0.03567156
0.029286737
-0.044575255
-0.07057194
-0.0027851525
0.052484535
-0.058034655
0.008000191
0.13801867
0.004861907
-0.07684011
-0.029390512
0.06399694
0.042383447
-0.05879023
0.07539661
0.019351905
-0.0074896337
-0.0064359033
0.032367162
-0.15282358
-0.12153612
0.037168223
0.02522701
0.055409435
0.052698854
-0.06359747
-0.05614571
0.08590322
-0.07095058
0.012897709
-0.047748085
0.05921045
-0.077359
-0.035900787
-0.087840274
-0.030651338
0.0154304365
0.05927339
0.09151085
-0.068656094
0.07090795
0.069593504
0.090611
0.017754083
-0.07843962
0.025408814
-0.05315006
0.051994625
0.030448364
0.009094627
-0.010511807
0.025289042
0.022824699
-0.11481604
-0.08809032
0.010657487
0.054062884
0.04954606
0.04993531
-0.0685229
-0.028139342
-0.062419895
-0.040973846
-0.08835294
0.0013715836
0.018106299
0.0071219085
0.017867507
0.017779611
-0.07536129
-0.078968145
0.029054273
-0.14246884
-0.048732508
-0.0052328478
-0.041544143
0.06148907
0.06260049
0.065748595
0.085054725
-0.07525874
0.047005404
-0.00912815
-0.13761385
-0.1298353
0.07684327
0.10817397
0.09880613
-0.009457036
-0.06199347
-0.028947726
-0.06275835
0.02169587
0.08248486
-0.045439042
0.037960764
-0.090991005
-0.07681323
-0.09930836
-0.06941818
-0.049373053
0.03989777
0.03495285
0.023655612
-0.0045601623
0.053220954
-0.061217617
0.024717648
-0.043518886
0.10577981
-0.13288084
-0.032916002
0.05738194
-0.118115954
-0.01316436
-0.012804302
-0.046294358
0.005863919
-0.1116995
-0.06356743
-0.12676348
0.045220617
-0.07536807
0.023840537
0.026200248
0.049464192
0.04235178
-0.023292813
0.005121037
-0.1996767
-0.15856998
-0.006397162
-0.08137768
0.05442684
0.019526232
-0.021435305
-0.048466314
0.030346362
-0.03637234
-0.019539325
-0.03418276
-0.036411393
0.04830572
0.034460843
-0.1271315
-0.028534414
-0.044042144
0.016131232
-0.1585386
-0.019044027
0.11833311
-0.047858965
-0.026585924
-0.049465917
0.06466602
-0.013175647
-0.02829213
-0.0813752
0.038946513
0.14655356
0.0012512247
0.007882848
0.030698983
0.05659181
0.013525429
0.0707046
-0.04930263
-0.14249541
-0.016553063
0.08442184
0.029236615
0.029682329
-0.15583625
0.08304631
-0.21681972
0.015862709
0.08243969
-0.015157447
-0.07753073
-0.06117022
0.069185205
-0.040630665
0.04802452
0.008146223
-0.035306875
-0.08878062
0.0119553115
-0.035602145
-0.0126349535
0.017850526
0.055945404
0.061012983
-0.16332032
-0.06682231
0.037274234
-0.0073078144
-0.09255378
0.074236274
0.054825004
-0.03359299
0.08268657
0.041791465
0.0827206
-0.019254522
-0.069460124
0.07315759
-0.084308274
-0.002296676
0.06858088
-0.072826646
0.07232148
0.026259119
0.08771075
0.03208349
0.10560235
-0.0509067
0.040660128
0.02949689
0.049823288
-0.18974422
0.024186516
0.04520922
0.029261833
-0.014793548
-0.06430438
-0.08812107
0.11793879
0.108319305
0.009464857
-0.007708205
-0.01084122
0.028506268
0.006424072
-0.030520847
0.0048883874
-0.016020553
0.0372548
-0.054537605
0.08450841
-0.04675418
-0.07666653
0.06591499
-0.089684665
-0.0009768576
-0.08655397
-0.11055882
0.10856375
0.020517027
-0.03957258
-0.03728434
-0.010702257
0.06908869
-0.042414524
0.047696277
0.079510726
-0.021006031
-0.038606342
-0.0036648568
-0.056049664
0.04665434
0.044621155
-0.0810379
-0.048634034
0.022504134
-0.1060148
0.0019079779
-0.06151456
-0.0050804378
0.037895143
-0.08238602
0.1190956
0.04908987
-0.13458638
-0.07010631
0.07624915
-0.05879784
-0.11500049
0.0014723726
0.045804054
-0.06976965
-0.014549291
-0.05327238
0.11485621
-0.08948847
0.053087078
-0.052230682
0.049026772
-0.083746456
0.10713886
-0.043016326
0.096745744
0.028147012
0.009321066
0.03006722
0.023927718
0.024168482
-0.03960042
-0.10424054
-0.047538802
-0.033135403
0.12959553
-0.031283706
0.105965406
-0.018703414
-9.3394134e-05
-0.012754176
-0.014940696
-0.010652138
-0.082657285
-0.045434263
0.02683708
0.03972858
0.07305906
-0.13260825
-0.03182456
0.044880725
-0.03603161
-0.028999055
-0.0634113
0.08213108
-0.0073370733
-0.020295767
0.009044877
0.08392957
0.053141866
-0.09208236
-0.10378158
-0.094496004
-0.040054828
-0.0042949864
0.06779856
0.008732447
-0.01112065
-0.086421765
-0.00070568774
-0.09740774
-0.05130429
0.018144201
-0.019595817
0.050911836
-0.06296724
-0.0039561735
0.029757932
0.011781605
0.1061711
-0.06611876
-0.021412421
-0.049650613
-0.04169231
-0.10411004
-0.026062796
0.017816393
-0.0100635355
-0.022510841
0.076084524
0.060546186
-0.020777704
0.052491892
-0.055279158
-0.01274539
0.058681414
0.04037456
0.08799408
-0.012394334
-0.0010606408
0.02685833
-0.07491099
-0.074459255
0.058192868
0.03833888
-0.034651507
0.0368432
-0.004901002
-0.009996797
0.113351166
-0.015677895
0.06652457
0.0066451337
0.012934136
-0.09408351
-0.022080947
0.040748354
-0.058458958
0.035481166
0.13316487
-0.066342525
-0.051153302
-0.016826114
-0.076391496
-0.01661741
-0.1316539
0.024071371
0.044290036
-0.06487576
-0.101589195
-0.0013898493
0.067923605
0.04673682
0.027417962
-0.04219918
0.00045996695
0.010767312
0.040172204
0.09613284
-0.053921122
0.02504119
0.022047186
0.0446191
0.017070634
-0.0022201708
0.011875147
-0.019365318
-0.015623129
0.046148036
-0.014345575
-0.08582954
-0.0004485422
0.026775707
-0.053989273
-0.061085667
0.016618794
-0.04135501
0.12837411
0.022869445
0.1163345
-0.029131457
-0.022112295
-0.08528234
0.031648595
0.06436602
-0.043898236
0.07664913
0.035598576
-0.058542117
-0.048117056
-0.080521405
-0.0023819115
0.00905314
-0.024518372
0.07607622
-0.036293298
-0.15439148
0.032291647
-0.011488881
-0.013457357
-0.0017237549
-0.046323936
0.069020055
-0.031959265
-0.05181935
0.07163223
0.07031332
0.016460698
-0.04203226
0.037865877
-0.019514397
0.036225248
-0.032168392
0.033051178
0.04830079
0.05461659
-0.01972163
-0.10115316
0.00075069483
-0.013614667
0.0048236
0.02093111
-0.02822032
-0.050389927
-0.114363976
-0.023527618
0.04018516
0.041218437
0.07834734
-0.029473241
-0.009084071
0.022270264
-0.08917136
0.0484581
-0.07125226
-0.04908664
0.011016609
0.07869816
-0.038486023
-0.0074885553
0.013066854
0.06259139
-0.116046764
-0.0770894
0.06675834
0.021634629
-0.0074771587
-0.03626686
-0.035304453
0.02207145
0.046099987
0.03464587
0.08135184
-0.012276197
0.048024744
0.05764779
0.030710308
-0.12390741
-0.015071219
-0.05907389
0.10544788
-0.058134355
-0.026017431
0.10925276
0.018681753
-0.10575629
-0.008553064
-0.0019001561
0.030897832
-0.12129561
0.027879156
0.029742379
0.0884947
0.04202786
0.006246482
-0.07233489
-0.077479936
0.044537403
0.04268698
-0.074752524
0.042583138
-0.09059998
-0.029388977
0.05152838
-0.049763188
-0.07481821
0.005741201
-0.07357562
0.0049224836
-0.13700382
0.09573981
-0.058100704
0.04320765
-0.049781404
-0.0665545
-0.08664142
-0.0011318004
0.059269093
0.04064031
0.044193305
0.039563645
-0.08003827
-0.025619075
0.08074693
-0.0472504
-0.082892336
0.02859083
0.050977632
-0.06948505
0.092960626
-0.010711678
-0.093568005
0.087258555
0.055164527
0.028454756
-0.071590185
-0.069796875
0.049468912
-0.09761422
-0.052417718
0.04159914
0.021656003
-0.061598778
-0.10992785
-0.017444966
-0.012632928
0.027243514
0.037841685
-0.06632648
-0.07311339
0.057884708
0.023046944
0.026123608
-0.042368297
0.03178358
0.07315522
-0.06364351
-0.11747265
-0.08801053
-0.0044304533
-0.04162439
-0.03537931
-0.03694175
-0.07953754
-0.06982426
-0.07189825
-0.0691473
-0.011270969
0.06276353
0.017484035
-0.065566294
-0.059450302
0.06159017
0.14355214
-0.034861043
0.10658732
-0.0607942
0.060229827
0.063155
-0.008375911
-0.0070928754
-0.08545553
0.11603727
-0.027878903
-0.0654124
0.018007092
0.08203889
0.010932704
0.026067007
-0.10764657
-0.055650998
-0.013262182
0.08451694
-0.049700763
-0.020842861
-0.038658425
-0.04034975
-0.009005427
-0.1596246
0.035079043
-0.009960991
0.014845029
0.08377246
0.11319611
-0.024768418
-0.15053974
-0.012958937
-0.02478703
0.01346114
-0.030118834
0.053555086
0.0040825936
-0.09365905
-0.054057654
-0.04186523
-0.10611107
0.046071514
0.053840995
-0.13144319
-0.047044255
-0.09085576
0.026611088
-0.13704298
-0.007674013
0.041918974
0.0070513333
-0.08998384
-0.013087457
-0.14420451
-0.060198106
0.005164126
-0.024259817
0.06723024
0.0044354554
0.04073662
0.007270296
-0.01756159
-0.06793799
-0.09307176
-0.003950536
0.056682337
-0.07163874
-0.026906343
0.04317474
0.0071285404
0.01584086
0.035957947
0.072945185
0.079512306
0.028038755
-0.015787814
-0.06545234
0.078673
0.08990632
0.046696294
-0.04398541
0.0049260533
-0.03861447
-0.015656892
-0.02154894
0.0052485643
-0.06311045
0.08174232
-0.0021304167
0.0013182972
0.09021644
0.048937894
-0.0033955064
-0.013746075
0.044564266
-0.09385334
-0.03788243
0.027808815
-0.10234297
-0.01930113
-0.04276747
0.004849816
0.10568279
-0.02165457
-0.056220666
-0.042778347
-0.041643597
-0.070543006
0.0038616857
-0.016567944
0.037892062
0.059161235
-0.006324869
-0.12042656
-0.0030713847
-0.08378125
0.007092194
0.04175399
0.07882736
-0.007970116
-0.027400522
0.07566482
-0.07124946
-0.022683436
