0.09330122
0.042070195
-0.19545226
0.065767854
0.060656678
0.116167575
-0.023388777
-0.043396104
0.09564382
0.09991455
-0.07084192
-0.12201078
-0.13048677
-0.07655213
0.10338026
-0.123334326
-0.08775845
-0.07220329
-0.019693727
0.05425147
0.21534725
0.008037884
-0.04366946
0.13478924
0.074148715
0.02615374
0.060620524
0.2053363
0.14695308
0.116609596
0.027304271
-0.106363036
0.05528112
0.07936512
0.041480776
0.013675058
-0.0039649773
-0.10835776
-0.06713242
0.0013634075
-0.09015473
0.029721895
0.0008656896
0.008391141
0.045768876
0.029827252
0.071216345
-0.03780032
0.06159781
-0.11086089
0.09494879
0.019344034
-0.10818436
-0.0985694
0.02056183
0.05099472
0.049318876
-0.039136715
0.073512584
-0.073557004
-0.04053357
0.07407286
0.053727653
0.09836193
0.06035044
0.0424388
0.05620102
0.02147232
-0.029344592
-0.018881682
0.034726195
0.055273127
0.003364968
-0.047359325
0.0064643896
0.017628478
-0.06485747
0.023499064
-0.03935638
0.018158507
-0.0621643
-0.038987055
0.008473232
-0.017745467
-0.08343651
0.00855537
-0.059082203
-0.0056779208
-0.048486076
0.06071478
-0.11900193
0.07484825
-0.05208554
0.013847144
0.0080695525
-0.05513094
-0.020091087
0.10143797
-0.14288642
-0.06080206
-0.061140608
0.12963209
0.013929104
-0.015790448
0.008355695
-0.07258692
0.097400814
0.11075315
-0.039891947
-0.023920517
0.06618564
-0.005452563
-0.11644646
0.035565834
0.024719963
0.04564797
0.09992041
-0.112525865
-0.08445158
0.07911333
0.018951619
-0.0040241466
0.08625652
0.014999008
0.0038171757
0.11233882
0.09651201
-0.08825641
-0.045167413
-0.10244181
-0.045437872
-0.1073633
0.03089217
0.11092046
-0.01367651
-0.07678197
0.07036441
0.067552656
-0.0012481317
0.081646234
-0.08268099
0.021241685
0.0840733
-0.08218281
-0.09396358
-0.01151414
0.030105429
0.037121214
0.102291815
0.022271758
-0.06810422
-0.052105233
0.041094728
0.034027398
0.034319036
0.013550627
0.046811827
0.08161764
0.006126523
-0.047450762
-0.04045586
0.15894051
-0.079225026
-0.09948265
-0.11851979
0.029857153
0.06020079
0.0027053913
0.033073872
-0.06683376
0.078717
-0.07375077
-0.008051665
0.04119121
-0.032064725
-0.114680275
0.05247135
-0.03413796
-0.03264951
-0.10584079
-0.032933284
-0.01968482
0.028761607
0.066516735
0.08096724
-0.039173868
-0.08383673
-0.07584563
0.06849055
-0.06884668
0.025815997
0.03514419
0.055317823
0.06960339
-0.065048635
-0.003193947
-0.06090067
-0.045084137
-0.04520773
-0.008454535
-0.12653214
-0.017959809
-0.0283481
-0.04039227
-0.0418319
-0.030399315
0.02396744
-0.07834491
0.040336777
-0.06579762
-0.08732967
0.097253345
-0.07052178
-0.0637544
-0.06839515
0.11216288
-0.07306264
-0.11106567
0.051237565
-0.052242845
-0.042714454
-0.015961101
-0.057307493
-0.04562755
-0.018495332
-0.056259003
0.1090427
-0.050947346
0.0706559
-0.03356242
-0.03174021
0.11309186
-0.17361952
-0.06320812
0.057473894
0.043820318
-0.03707314
-0.011164637
0.025711883
0.026731828
0.05907397
0.040900048
-0.035393957
0.07136083
-0.047115978
0.02928126
-0.14632493
-0.06971548
-0.083883926
-0.083536595
-0.064379744
-0.098368585
0.10842505
-0.0255147
0.04957105
0.096107334
-0.06672343
0.0011083123
-0.09463737
-0.01818124
-0.0061195246
-0.027105961
0.038909182
0.06630175
0.05628767
-0.04273997
-0.08718176
0.034791846
0.005160719
-0.049638864
-0.07370895
0.016251208
-0.018973524
0.008300968
-0.04898508
-0.11165486
0.067152925
0.047727574
-0.0134677095
0.06238705
0.061612304
-0.10736635
-0.00081736635
-0.045726784
0.021104302
0.07675396
-0.04619672
-0.00953691
-0.018926881
0.014961664
-0.048007097
0.054670185
-0.0846768
-0.14991489
-0.02249558
0.08061075
-0.09634006
0.10316012
-0.04669805
0.016988765
-0.10536926
-0.039988074
0.08808225
-0.07488605
-0.07705672
-0.082049094
-0.014168547
0.07358449
-0.015576696
-0.03183977
-0.054333527
0.11680678
-0.040732358
-0.106878
0.010302737
0.112522975
-0.04341648
0.055614144
-0.039434936
-0.1234345
0.0333188
-0.04919655
-0.110811055
-0.07481323
0.07795003
0.1703243
-0.08958588
-0.09380803
0.058702275
0.073142074
0.02790705
0.07243537
-0.11575928
-0.037026163
0.06755663
0.014953374
0.005172961
-0.022158973
-0.091494985
0.04584354
0.14772223
-0.095640026
-0.03397184
0.118863694
-0.11592267
0.114736445
0.045310467
0.10345396
0.06631121
0.11643134
0.09133669
-0.036623877
-0.022662815
0.07306572
-0.16211091
0.14358808
-0.0657266
0.078361034
0.040708102
0.009808179
0.13592371
0.0773868
-0.017919464
-0.0678796
0.120246
0.061023276
-0.060912024
-0.16312727
-0.034089617
-0.0080305645
-0.0716698
0.07327737
-0.026164949
-0.06946567
-0.11369314
0.063292265
0.06522254
0.02781111
0.2163073
0.016040351
0.06506916
0.18342648
0.0033414687
0.045737356
-0.027916363
0.07044541
0.08746933
0.010546374
-0.011310062
-0.010584449
0.034581646
-0.015185418
0.015544029
0.10587458
0.062011324
-0.10036831
0.0050403206
-0.0042851986
-0.096422456
0.027008442
0.073441245
0.08276231
-0.02931338
0.054059643
0.09702069
0.09095754
-0.049009476
-0.042415656
-0.12274968
0.068747014
-0.006396134
-0.021939192
0.023886943
0.036218848
0.009496145
-0.08082193
0.1337939
-0.057315636
0.06788916
0.05861148
0.117501765
-0.097039685
-0.058392238
0.06534238
-0.06497674
0.069274135
0.027184011
0.029021135
-0.027332747
0.029488318
-0.074245475
0.16445209
-0.1628228
0.1086441
0.0389739
-0.027771918
0.1029335
-0.048179742
0.017994558
-0.10396387
-0.11309356
0.107716404
0.032166384
-0.09195591
0.14357488
-0.023474505
0.11194664
0.062050715
0.024434987
0.0092110885
-0.06546917
0.080221415
0.0112124365
0.010363708
0.0005070678
-0.07205699
-0.017547648
-0.040044907
0.0055113854
-0.022670886
0.06464459
0.050490208
-0.069987744
-0.025469014
-0.17901349
0.034000795
-0.02735975
-0.0788862
0.07434883
-0.10032974
0.019957975
0.07131201
-0.007860044
-0.11957448
0.0890266
-0.07176114
-0.09623333
0.022064477
-0.057493128
-0.004532967
0.026336215
-0.061353724
0.038997944
0.05597613
0.06790002
-0.024968076
0.05236197
-0.09069915
-0.08896697
-0.042593297
0.041142963
0.04136066
-0.018341238
0.041491177
-0.08879071
-0.046773553
-0.12196388
0.08590356
0.054378558
-0.057134315
0.11172716
-0.015222786
-0.17999545
0.04289669
-0.053857185
-0.086511135
0.08029162
0.06594544
0.053047735
0.09549963
-0.08330193
-0.124763876
0.1229617
-0.05756417
-0.10464017
-0.015410903
0.029501984
0.0059187775
-0.11974401
-0.021699555
0.12339624
-0.006973987
-0.08685735
-0.022274636
-0.027812565
0.04799625
0.023279224
0.10013027
-0.11638447
0.100141786
-0.0799401
0.0846012
0.029694583
0.008153858
-0.20326234
-0.00665467
0.0047841743
0.0063038073
0.13183606
-0.014529043
0.1686869
0.046791207
0.12513381
-0.046331327
-0.037651658
0.013930041
-0.04283511
0.040110257
-0.022471676
-0.04587861
0.06472248
-0.0130439075
-0.06909812
-0.1126952
0.04522213
-0.1117947
0.039403796
-0.015710281
-0.07656006
0.084269695
-0.011118235
-0.020567754
-0.016691158
0.031897984
0.05959761
0.09667887
-0.053180944
0.08578225
0.111163415
0.09133201
0.04185738
0.04153088
0.09685931
-0.023135755
0.08042107
-0.08220022
0.063802004
-0.13148305
0.07836415
0.022269169
0.0032781002
-0.019486193
-0.0061312276
0.07240656
-0.0009772332
-0.012697856
0.01017958
0.10859893
0.0172131
0.0026443605
-0.071293704
0.03725803
0.004588748
-0.02483706
0.033610627
0.09597292
0.01683618
-0.053465877
-0.15031455
0.044424344
0.09458712
0.037505668
-0.022586579
0.0077121328
0.052270215
-0.051135853
0.09374649
-0.06527961
0.069225624
-0.14130665
-0.04645209
-0.06177953
-0.011829697
0.041177537
-0.036557917
-0.16388978
0.04667165
-0.14312641
-0.13324057
-0.04959899
-0.12021582
-0.025274295
-0.04401526
0.12695655
-0.07198203
0.042098373
0.079032555
0.1350612
0.11072917
0.12343487
0.06800701
-0.049917094
-0.06404883
-0.03977457
-0.03505103
0.028440174
0.01777186
-0.068435885
0.02420359
-0.041523375
0.089589685
-0.020668104
-0.015947295
-0.008802581
0.029923053
0.10553264
-0.07539998
0.021225018
0.13640368
-0.099242285
-0.10518421
0.008677472
0.02908318
0.06766648
-0.100801654
0.05403869
0.025776403
0.06368454
0.09324652
0.017844146
0.003708353
0.0821071
0.052186586
-0.07945249
-0.05613049
0.0007299553
0.04091586
-0.016183896
-0.019447073
0.016555512
0.0904448
-0.008051907
-0.091223486
-0.060920134
-0.035507716
-0.16600403
0.007695528
-0.014790971
-0.01253312
-0.12142254
-0.013635941
-0.089363284
-0.049973365
-0.018023372
-0.13058035
0.02723246
-0.0030710814
-0.03309403
-0.13167833
-0.065298446
-0.118275404
-0.047524072
-0.044255428
0.010803963
0.016201632
-0.12444199
0.010034794
0.038375624
0.024436451
0.04488226
0.054331776
-0.07803184
-0.062019765
-0.1012
0.017023506
-0.031698007
-0.12522072
-0.05214664
-0.0308722
0.10455443
-0.004844754
-0.09051557
-0.06219189
-0.0037798942
0.017353674
0.02439048
-0.07808666
0.06373814
0.0036075744
0.083657354
-0.14183387
0.02992682
-0.10132863
0.112762675
0.05730936
-0.051399212
-0.046717692
-0.014875734
-0.06906522
-0.023608694
-0.022348229
0.027003264
-0.12891024
-0.04817664
-0.014295978
0.016760765
0.08739954
0.033053525
0.03663973
0.10174187
-0.033411335
-0.1049198
0.021669079
-0.053278476
-0.15695989
-0.025870182
-0.006959088
0.08212547
0.065783635
0.036857583
-0.09776111
0.062306926
0.056383602
-0.021317435
-0.05105873
-0.121022925
0.018124837
0.049887497
-0.032794207
0.084978774
0.026505237
0.04635661
-0.0698151
0.10281755
-0.018878974
-0.14702992
0.029212734
0.074615136
-0.017901527
-0.038087454
0.036671545
0.03569977
-0.029151648
0.0020745303
-0.10753136
-0.03883408
-0.03890747
0.08294553
-0.03835924
0.0736912
0.02228871
0.09303791
0.041154146
-0.14346766
0.03886983
-0.0058928235
0.034022663
-0.025469411
-0.08933705
-0.0010982052
-0.1392562
0.06595396
0.056411628
-0.084454484
-0.00076038635
0.0585825
-0.041175306
0.067423835
-0.077501796
0.058977615
0.030919677
-0.0069078025
0.043984998
0.047934137
-0.014486308
0.011725013
-0.11326393
-0.011349445
0.028189017
-0.046423282
-0.108144544
0.009852793
0.09469223
-0.022508187
0.0008632414
0.057859447
0.031705763
-0.008756274
0.09198741
0.058783863
0.018165527
0.11985494
-0.0961023
0.04978315
0.07813747
-0.00598955
0.08853411
0.09972871
-0.09189335
0.0016434226
0.0710435
-0.12089891
-0.023513699
0.19706321
0.06345992
0.03795524
0.04322334
0.0949256
-0.11397481
-0.0023815092
0.10036181
-0.04117505
-0.15859134
0.026548965
-0.17711744
0.06356487
-0.03373654
0.14938599
-0.09791276
0.051547013
-0.043548457
0.023578763
0.026535574
0.069367714
-0.16671602
-0.06557654
0.01658152
0.06941366
0.11434973
0.13048832
0.04116192
-0.03913417
0.095283635
0.07497969
0.09543653
-0.029110765
-0.050066825
0.16521508
0.04568645
-0.042915847
-0.043028347
-0.09744184
0.044980116
-0.0551723
0.014568627
0.0095510995
-0.13744687
0.042070385
-0.039103862
0.055317685
-0.10128823
-0.048200645
-0.008886041
0.0639563
0.08511849
0.09902014
-0.19323508
0.069332376
-0.06759197
0.019312356
0.18240854
-0.01704344
-0.044854093
-0.07429906
-0.0036548947
-0.14135972
0.023203958
-0.07715164
0.033226766
0.103259794
0.0444816
0.033954155
0.03195336
-0.07240018
0.002178358
0.07410398
-0.08419336
0.0124127325
0.008659747
-0.03842129
-0.06113489
0.064359196
0.018855976
0.040156268
0.06494852
0.071009174
-0.048577014
0.023783874
-0.005783196
-0.04498601
0.043159004
-0.09604954
0.12010301
0.0008686096
-0.07036609
-0.13010448
-0.10646848
0.038735475
0.07695002
0.06542516
0.09601992
0.09611588
0.10074032
0.022037895
-0.09801802
0.012928301
-0.026313294
0.07059671
0.07285667
-0.07120797
0.07379628
0.024033822
0.09911419
-0.010188169
-0.1023249
0.08408983
-0.07860004
-0.09843691
-0.044483792
0.039065115
-0.07461935
-0.13670897
0.10398162
0.088913076
0.11445672
-0.11087328
0.03691156
0.0078728525
0.019414483
-0.011133622
-0.012511267
-0.08260758
0.08157371
0.010924975
0.090368316
-0.01826747
0.041819006
-0.08219326
0.030273592
-0.10158729
-0.02241993
-0.006530061
0.024054306
-0.10838722
-0.046447195
-0.05010705
0.08602405
0.05836787
-0.080527164
-0.028720777
0.022624265
0.049124163
-0.0025993045
-0.0913125
-0.014358864
0.07757335
-0.14212954
-0.03279765
-0.071692646
-0.073731646
-0.06257278
-0.108713485
-0.06788429
-0.06154756
0.0009895052
0.051489808
-0.050063245
-0.042490356
0.095671035
-0.05370822
-0.0222429
-0.04233796
-0.09510123
0.019169424
-0.02240058
-0.06253367
0.046810277
-0.031177288
-0.01937625
0.08326181
-0.03648363
0.100986406
-0.06432757
0.13341147
-0.060462408
-0.117258176
-0.08533972
0.062719315
0.04865007
-0.034992486
0.08230898
-0.05650789
0.048050627
-0.06275191
-0.060201854
0.1373131
0.16844325
-0.122380614
0.0449823
0.046314128
0.022857845
0.12855066
-0.034900572
0.0049874554
-0.14305921
0.045521345
-0.075328894
-0.046896525
-0.16028573
0.041285656
0.113983355
0.057466205
-0.022068795
-0.033547662
-0.09321964
0.04524611
0.0004506143
0.015441869
0.07726062
-0.043822702
-0.03714311
-0.048672453
0.1522559
-0.11689896
0.14366414
-0.03941297
0.04956499
0.023402324
0.021444058
-0.09955596
-0.057707213
-0.0656739
-0.11311177
-0.034779713
0.029460002
-0.06053908
-0.0037010524
0.07408926
0.05665257
0.10939437
-0.07486095
-0.0616708
0.07590424
0.04423637
0.08011203
0.0800777
0.011262688
-0.03360848
-0.07905038
-0.02858883
0.06099907
0.09617964
0.108172394
-0.095148034
-0.047890805
-0.11218947
0.037827265
-0.0041347733
0.041648604
-0.03241276
0.043414842
-0.06047936
0.02644339
0.038487762
0.06667306
0.020062076
-0.051383458
-0.01644764
-0.1113835
-0.087300986
0.06900013
-0.076977886
0.08846812
0.0784979
-0.0865719
0.022707425
-0.065863565
0.11089009
-0.06632787
-0.024023961
0.03779931
0.03128854
0.05059183
-0.0054231295
-0.076994866
-0.034115948
-0.07018923
0.0366743
-0.09253279
-0.02425808
0.022957357
0.046821665
0.124820136
0.055213068
-0.08512401
0.009750227
-0.054536473
-0.034155212
0.073718496
-0.14346138
0.030549621
0.047315393
0.041640982
0.09204383
-0.106468305
0.06411551
0.09530141
0.05530113
0.15164061
0.07286243
-0.072770335
0.05554789
-0.02556546
0.018734977
-0.09664318
-0.028908307
-0.057988208
0.09673884
-0.034824573
-0.052793175
-0.0038213113
0.07690779
0.05408156
-0.041456524
-0.0014598443
-0.033629313
-0.04567909
-0.112597354
0.044773296
-0.062188257
0.06631503
-0.14375696
-0.029839065
-0.04973027
-0.08833908
0.013194568
-0.0939089
-0.10335498
0.15703507
0.066291004
-0.052600764
0.004229334
-0.06724647
-0.093882896
-0.10187017
0.101803996
0.048584975
-0.01185671
0.06947945
0.11557233
0.06598
-0.15784352
0.1130269
0.0012762725
-0.07206962
0.046309803
-0.022044158
-0.040674385
0.0483393
0.01677172
-0.10182402
-0.0076845037
0.057639536
-0.05459907
-0.0016049512
-0.03431823
-0.12218807
0.018549163
0.03264441
0.06416543
-0.054058816
-0.10151819
-0.13834965
-0.038993992
0.101009235
0.11547484
0.04217784
0.05384622
-0.016853077
-0.02181432
-0.012690592
-0.02656648
0.06278525
0.03771535
-0.13695368
0.11015497
-0.0041213124
-0.013535561
0.016256236
0.073220015
-0.101838656
0.12438939
0.018113147
-0.09289688
0.020268712
-0.042166602
-0.018383106
-0.033856414
0.059022613
0.050263677
-0.09760512
0.029573409
-0.007519639
0.05353798
-0.07346639
0.028796293
0.013581922
-0.096052654
-0.13969168
-0.102838844
0.043640174
-0.049829394
-0.060966916
-0.01803159
-0.006151637
-0.064059965
-0.018452508
0.029390564
-0.031509493
-0.005040482
-0.06309262
-0.02524365
-0.080619335
0.06439496
0.045344133
0.10048429
-0.085272975
-0.008214053
-0.061897356
-0.108644016
-0.011360956
-0.07430569
0.005278965
0.04897684
-0.054615267
-0.014822996
-0.0592056
-0.005025841
0.03438169
0.028087126
-0.058144603
-0.041142263
-0.057109293
0.04451765
0.019525405
0.12430563
-0.070654295
0.08485455
0.06436102
0.11541184
0.076853774
-0.12157332
-0.04373604
-0.107026
-0.04281653
-0.12528248
0.0035813407
0.058996666
0.07616849
0.027160292
0.0738661
-0.004895816
-0.068061724
-0.071306705
-0.021410435
-0.028432803
0.004727762
-0.07593471
-0.05619992
-0.018980768
-0.05877832
0.09243378
0.08157082
-0.13438295
-0.109355666
0.070931256
-0.06555964
0.07478305
0.113118835
0.032306217
-0.10126679
-0.03628762
-0.055957872
-0.04584771
0.093945056
0.08863333
0.026356334
-0.13898398
0.07225377
0.05261334
-0.028653748
-0.014630491
0.05439201
-0.077227764
0.013796843
0.103261165
-0.018694863
0.015193776
0.027787669
-0.090355895
-0.10591699
-0.10065301
-0.055146243
-0.06163974
0.02756833
-0.04084845
0.12647095
0.041089274
-0.03571889
0.025233438
-0.04900726
-0.027666338
0.017319467
0.073169224
0.092637725
0.11369738
0.040259447
-0.06713756
0.0018045125
-0.0725792
0.05685797
0.073203735
0.15311405
0.027223997
-0.14734663
-0.1081235
-0.10453928
0.059807204
-0.005149471
-0.0480283
0.11962667
0.037342083
0.011379656
-0.07563938
-0.007805417
-0.05039723
-0.08558724
-0.021062605
0.021001166
0.0983736
-0.029068995
-0.071360074
0.10305784
-0.04237043
-0.03577726
0.09282563
0.07866364
0.03667152
0.06890011
0.04538051
0.07893225
0.01778224
-0.044401325
-0.0632683
0.027803151
-0.13427198
-0.05426405
-0.077349186
-0.17622714
-0.0019874854
-0.09146278
0.099638954
-0.024862155
0.12039571
0.122278444
0.10538212
-0.051978514
-0.05736925
0.043738823
-0.011461309
-0.041414727
-0.053590287
0.11420013
0.0154012125
-0.015230143
-0.13793124
-0.06962392
-0.06913419
0.077346854
-0.10993477
-0.09552908
0.109737135
-0.09111419
0.043902274
0.005707025
0.058144584
-0.009584818
-0.028017128
-0.080256596
0.087202474
0.0720461
0.026028572
0.010521162
-0.07716608
0.024812482
0.008400729
0.05562562
0.052822724
0.028988784
-0.01547148
-0.06469317
0.111615285
0.088133164
0.084331974
-0.005808732
0.033995952
0.060664847
0.072614364
0.03066502
-0.0431457
-0.024238087
0.06901401
0.086964875
-0.0059920303
0.08502866
-0.03759254
0.0481502
0.01725647
0.004658496
0.06839236
0.0856125
0.06608479
-0.16422632
0.08367597
-0.0765892
-0.06928698
-0.11478536
0.019099977
-0.028622316
-0.043541886
-0.052969225
-0.0841004
-0.08039025
0.090056226
0.08460795
0.024134852
-0.03866871
-0.11810909
-0.09082753
-0.06412227
0.08016185
-0.048935194
-0.091717005
0.089255035
0.13843568
-0.059626773
-0.015503564
0.052198112
-0.046175133
-0.006475331
0.011579824
0.057512175
-0.09105158
-0.11917314
0.00787423
-0.13051087
-0.0713176
-0.019466352
-0.1455005
0.062681764
-0.013079943
-0.049797196
0.07112664
0.027036535
-0.019875415
0.12109096
0.022300093
-0.008799388
0.029697312
0.04476042
-0.025800478
0.037816267
0.09095609
-0.03971727
0.060103524
-0.0725573
0.19139883
-0.022211239
-0.07422124
-0.015257575
-0.05146792
0.12809995
0.028753573
-0.02544991
0.03015233
-0.027898522
0.0052159703
-0.055757362
-0.008232511
-0.09229798
0.07057327
-0.035320155
0.047842465
0.01257503
-0.10819427
-0.08922214
0.042479273
-0.005544463
0.13933113
-0.1258211
-0.06478075
0.004674768
0.027091721
-0.06846558
-0.01947691
-0.030948425
0.11783279
-0.09466061
-0.12554748
-0.16051799
0.008173946
-0.074401475
-0.12620232
-0.026928147
0.087686576
0.028444834
-0.063793264
0.026719114
-0.063424
-0.10232585
-0.094989024
-0.08697375
-0.043247543
0.021118164
-0.022923494
0.020693006
0.12200855
-0.06585566
0.04304108
-0.10744907
-0.08353036
0.066701405
0.035974845
0.10951838
0.12540288
0.06423963
0.058932472
0.021350535
0.101235285
0.029086558
0.009765865
-0.053315837
-0.030118342
-0.054950796
-0.11788813
-0.03585966
0.08400039
-0.06565372
-0.049200226
-0.026583865
-0.08480877
-0.09560078
0.028647587
-0.066204816
-0.056637492
-0.09538803
-0.08429676
-0.09005849
0.039554197
0.057666298
-0.09850709
0.070052676
-0.13600634
-0.10731159
0.032121163
0.056399886
0.03861252
-0.0334534
-0.0042647617
-0.08172074
-0.04157864
0.021715928
-0.039715227
-0.10515004
-0.038175978
-0.007941483
-0.12550622
-0.010062507
0.029560987
-0.08366307
-0.003399552
0.017401358
-0.074938454
-0.003384473
-0.013814485
-0.105937526
-0.09346211
-0.102393225
0.06351104
-0.029222965
0.044177674
-0.010189933
0.04753908
-0.08481353
-0.08520832
0.031651124
-0.05705394
0.010158125
-0.048642475
-0.00013781808
0.029005596
-0.04919171
0.03427975
0.014203084
0.061708834
-0.034855183
-0.017483192
0.08858895
-0.033067215
-0.08698281
0.053511433
-0.054674055
0.010360659
-0.027194243
0.06313076
-0.023829749
-0.00422122
-0.091895364
-0.15223496
0.0039692973
-0.020217385
-0.032868505
-0.027326714
-0.057613607
-0.012954359
-0.069114
-0.110635996
0.13897175
-0.05807003
-0.03954303
0.10655894
-0.031144934
-0.059900083
0.043621194
0.084556006
-0.18820098
0.048541583
0.043891482
-0.06218267
0.035614073
0.047562383
-0.05558828
0.002545726
0.006454431
-0.06126173
0.10060147
-0.055518817
0.05161816
-0.085511684
0.0237871
-0.1345829
-0.019921018
0.042164076
-0.0257306
-0.030593824
-0.022714976
0.051421177
-0.04426433
-0.06784609
0.097920276
-0.052780867
0.0962646
0.046069667
0.0076228892
-0.034847464
0.0005938017
-0.09421874
0.14262955
-0.15593882
-0.057459686
-0.09724844
0.01517022
-0.02191565
0.11490154
0.043220237
0.077294834
-0.14434534
0.023253445
-0.108377896
-0.041469153
0.038778935
0.005924825
-0.025891088
-0.010214785
0.043540142
-0.18794055
0.0020085594
0.00031824518
-0.09474194
0.03733171
0.019422924
0.02349207
0.051525205
-0.023947228
-0.08506558
0.046248008
-0.02080342
0.083083354
-0.01736358
0.019608479
-0.03101185
-0.006627013
-0.10013994
-0.067309484
-0.091413
-0.04976447
-0.04160875
-0.019579194
0.08544426
-0.07905563
0.008849715
-0.10106055
-0.034579694
-0.00047481884
0.03631067
-0.19555393
-0.023082122
-0.025253518
0.010365785
0.014789784
0.008512354
0.09510272
0.025138637
0.06957155
0.077674955
0.048576333
0.07870811
-0.027504908
0.0385618
-0.0698741
-0.07841544
0.09006598
-0.0016622085
-0.1252244
-0.03313594
0.00157508
0.0713869
0.017702011
-0.022776721
0.016669236
-0.061969776
-0.045150254
0.005982842
-0.05947932
-0.056047752
0.0038655836
0.106046245
0.034112167
0.02765365
-0.108430326
0.060517106
0.077467285
0.051188648
0.02866463
-0.052270237
-0.020694062
0.07231348
-0.0047449903
-0.026085429
-0.098054916
-0.0074655423
0.07073642
0.08247804
0.05313539
-0.028219804
0.09881875
0.037200764
-0.010597243
0.039685313
0.059202306
-0.08104281
0.014262366
-0.050963536
0.035968073
-0.054988347
0.063708544
0.082825586
-0.0033944855
0.013527332
-0.1143837
0.07549972
-0.0346603
-0.12653644
-0.09523483
-0.047302917
0.024449656
0.08390004
0.009546186
0.091557935
0.044520136
0.06765713
-0.13496405
-0.028523484
0.04822602
-0.026193148
0.0113546625
-0.09555454
0.05923448
-0.120349325
0.046071663
-0.088568285
-0.07933885
0.023738666
-0.056828834
0.096372895
-0.04161629
-0.0075162533
0.16662377
0.09213305
0.07455027
-0.030216025
-0.06664322
0.14699261
0.112032555
0.0772959
-0.08556399
-0.059885576
-0.034576807
-0.0015904394
-0.020517843
0.07682101
-0.030794404
-0.09593533
0.10044403
-0.046553243
-0.040369958
0.1051209
0.02228745
0.070098616
-0.040591076
0.0018207665
-0.009747338
-0.07467079
-0.09131975
0.042820137
0.13647355
-0.055032697
0.13317502
0.031209866
0.1157638
-0.024135152
-0.057893958
0.050791215
0.0241878
-0.0070897513
-0.053919557
0.111634515
-0.14092487
-0.014856125
0.025665259
-0.12094247
0.040064935
-0.03405916
-0.050283585
0.02637179
0.040406607
0.026719429
-0.06222917
0.06952806
0.12737861
-0.12561826
-0.11711608
-0.13605782
0.11535227
-0.01849683
0.06138647
0.007474858
-0.049332436
-0.086406626
0.077549696
-0.1423833
-0.06481843
0.11580882
-0.064196326
-0.14132838
-0.00033940029
0.06690404
0.10572584
-0.005736346
-0.07472175
0.05892812
0.038738772
0.047937755
-0.047875665
0.11909989
0.11890076
0.036218505
0.02903258
0.041650187
-0.08374605
0.06592156
-0.10016973
0.10314764
0.027198322
0.025725178
0.016541423
0.06759619
0.022023074
0.07261894
0.07091008
-0.041264575
-0.104205236
0.00901828
0.0802934
-0.029677423
0.06971463
-0.044730958
0.030578163
-0.031775534
0.027059246
-0.019331643
0.037437953
-0.09196143
0.047071952
-0.0066258004
0.071377516
-0.0726094
0.09895884
0.0462648
0.010054326
-0.016182749
-0.07823429
0.046477124
0.078542784
-0.045315243
-0.0004700457
-0.014168515
0.041769594
0.005785095
-0.08063123
0.05749149
-0.12058055
0.024336034
0.08013885
-0.033472378
-0.07079108
-0.12264275
0.04750137
-0.06187197
-0.026590286
0.030957632
0.025445398
-0.061879367
-0.011065902
0.078221105
0.06319458
-0.11446693
-0.057900295
-0.0003205157
-0.106314704
0.007838091
0.11857432
0.042374734
0.08084751
0.033212095
0.047620613
0.041686557
0.031640675
0.077851936
-0.0543915
-0.06504389
-0.036585893
0.048961435
-0.13329592
-0.049188353
0.059074532
0.06658558
-0.04144389
0.04816113
0.03453761
-0.023239104
-0.114960395
-0.022643894
0.055732198
-0.10120892
0.049092006
0.018219884
0.033294074
-0.092235364
0.0010922377
-0.08890891
-0.08497586
0.03382382
-0.084719375
-0.017478518
0.010896307
0.093448944
-0.057782713
-0.06966155
0.050413072
-0.027717385
-0.02016651
0.039530538
-0.026908174
-0.033327363
0.0069836713
-0.03170515
0.00087733334
-0.0033851985
0.0100666005
0.06914286
0.08086199
-0.04058899
-0.058004692
-0.08880826
0.0707538
-0.073398575
-0.15099908
0.038290862
0.06738109
0.08037468
-0.06659015
0.0349059
-0.08055242
0.022497213
-0.016354298
0.08031618
0.010694619
-0.013377304
-0.11812034
0.061769072
-0.01290395
0.059166733
0.038551133
-0.039853435
-0.060238615
0.09588858
-0.012220651
-0.001824392
-0.0093236705
0.039520513
0.04155069
-0.16544087
0.13387084
-0.13185662
-0.120353505
0.008785938
-0.11661275
0.008356918
0.038816996
-0.094402336
-0.016353041
0.021201847
0.12406279
0.074684195
0.122036256
0.18511084
0.03081473
0.19457439
0.06569363
0.03153356
-0.04493887
-0.031821046
0.030897334
0.08613282
-0.072201386
-0.01643833
-0.083447196
-0.040416673
0.086669944
0.060130294
-0.07382602
0.069608435
-0.0969595
-0.030191205
0.07732839
0.05501695
-0.04520167
0.080881044
-0.0510503
-0.14423046
0.1085586
0.004917801
0.1105612
-0.03742757
0.059303503
0.07761345
0.10066897
-0.06692259
-0.05402455
0.07026514
0.0320404
-0.067825355
-0.18593997
0.017685048
-0.030833153
-0.009128957
-0.04394207
-0.14980265
-0.1462351
-0.0027626227
-0.09583381
-0.08881838
0.10398168
-0.17836873
-0.0045571816
0.04586254
0.07126809
-0.08801695
0.08021981
-0.030669393
-0.025151081
0.008792341
0.086519934
-0.05075701
-0.14720152
-0.018410195
0.059048966
-0.035509147
-0.011343768
0.008967974
-0.07121059
0.108469024
0.07562676
0.08270768
-0.05347368
0.13241214
-0.14766403
0.12864342
0.021314185
0.037721988
-0.1353416
0.05613259
-0.10417086
0.122726046
-0.10697443
0.013567465
-0.096823625
-0.1066214
0.046198867
-0.070972815
-0.06769136
-0.1504489
-0.037700783
-0.01961475
0.05975428
0.0015453657
-0.035825644
-0.0767824
0.022926996
-0.0102966055
0.07985871
0.080536954
-0.0018196702
-0.030643767
0.13819651
0.04079452
0.008521478
0.07464804
-0.1143834
0.06343065
0.05936273
-0.07210903
-0.09283311
0.038130946
-0.12955691
0.04916214
0.08580291
-0.013661468
-0.095450796
0.035803717
0.020939153
-0.021103036
0.046905592
0.068358004
0.03023916
0.12000578
-0.03885945
0.09919325
-0.107566275
-0.015643045
-0.052296344
-0.036279514
-0.0036834308
-0.011659001
0.07640242
0.16600087
0.0631645
-0.10498648
0.08571859
-0.044060573
0.10038503
-0.11295403
-0.17238483
0.0014395753
-0.090842746
-0.047571238
-0.0067605185
-0.16270742
0.09166202
0.0048482437
0.07509381
-0.02264404
-0.041593887
-0.09165847
-0.14027652
0.025999373
-0.16277331
-5.4952372e-05
-0.0071439324
0.06060195
0.038679
0.089763284
-0.11391112
0.035046976
0.061266217
-0.028972918
0.08365688
0.012434878
-0.004312215
-0.020670183
-0.0757374
-0.0530106
-0.11947276
-0.09050646
-0.0033925395
-0.038756363
-0.12123199
0.067086026
0.011128627
-0.050347686
0.07846374
-0.13957092
-0.043664876
-0.0037334554
-0.032861277
0.057817098
-0.0793465
-0.16011591
0.026296943
0.0030345821
0.030371126
-0.035001736
-0.051107455
-0.024336867
-0.09788566
0.024306396
-0.12056756
0.08888977
0.016900953
0.043335155
-0.08286455
-0.043589927
-0.009193744
0.039148323
0.08223081
0.022109129
0.0028592097
0.035171494
0.03415731
0.06473575
-0.00411792
-0.017296217
-0.10520398
0.053583667
0.046519924
-0.0053296066
0.038352065
0.030439677
-0.10613571
0.06677837
-0.010250807
0.060290836
-0.015238999
0.0047105993
-0.1465826
0.10966403
-0.052628312
-0.039874375
0.088034056
-0.050997633
-0.13171345
-0.0872297
0.03417298
0.03900732
-0.0040569515
0.06969788
0.07355103
-0.004376272
-0.038121287
0.07432209
-0.0069375946
-0.15132296
-0.047845118
-0.009255046
0.027819492
-0.07044252
0.07243275
0.014242717
-0.011459574
-0.08556187
-0.03614551
-0.088270724
0.08109935
-0.008394498
-0.025772909
-0.07562694
0.014912118
-0.025914907
0.055378694
0.015418161
-0.04002987
-0.09273821
0.033985756
-0.08290427
0.012831832
0.060129322
-0.13336396
-0.05696138
-0.08494431
0.047268927
0.0039528096
-0.08774375
0.14054392
0.02383442
-0.01986199
-0.09823523
-0.08366013
-0.16156478
-0.018836072
-0.06721102
-0.030845385
0.026591485
-0.0052686906
-0.030339312
0.05012144
-0.06398818
0.015834779
0.056336753
-0.008790071
0.03452278
-0.1307375
-0.11880661
-0.034454986
-0.022999054
0.072978854
-0.11279112
0.11399934
-0.0025239973
-0.014743369
0.035304293
-0.05798764
-0.019641148
-0.069952875
-0.049043022
0.04349695
0.04953836
-0.022069274
0.01198689
-0.04710398
-0.06847624
-0.030860221
-0.1275267
0.21636643
-0.02866369
0.10935184
0.031469434
0.07921874
0.12789775
0.066960454
0.02279987
-0.037363242
-0.06608238
0.06880899
-0.014830731
-0.027393973
0.11984673
0.02383427
0.11908012
0.07521288
-0.07500931
-0.06384939
0.08570368
-0.049109112
-0.08546262
0.05915366
-0.07566459
-0.06993658
-0.027634313
-0.035211943
-0.020115025
0.033904083
0.034639567
-0.03696002
0.105076134
-0.04164529
-0.16753191
-0.061285265
0.020919222
0.053446397
-0.022361001
-0.009157489
0.12999332
0.018755948
0.059600785
-0.078679174
0.0045795282
0.040254645
0.039962906
0.05109975
0.082508944
0.06368407
-0.10876374
-0.030412775
0.06720683
-0.08546768
0.0025865526
-0.09464203
0.023229068
0.052672904
0.0674047
0.091110975
0.057142954
-2.614296e-05
0.09476445
0.049220573
0.05517046
0.045035973
0.039110746
0.049864266
0.08517922
-0.086263165
0.030893268
0.03253878
0.006634214
0.011394368
-0.026114868
0.08582843
-0.0025818036
-0.034699798
0.055290934
-0.06883175
-0.05549007
0.09250823
-0.069315016
0.07652689
-0.005833982
-0.04435616
-0.07579947
0.083930366
-0.024911663
-0.14482814
-0.031230938
-0.02826927
0.03391232
0.12869279
-0.15389803
-0.029270686
0.09662809
0.07253788
0.017979436
0.088963054
-0.021772001
-0.03369493
-0.0035397937
0.0437901
-0.09810423
0.11867756
0.038814347
-0.07199009
0.05869214
-0.02145237
-0.06776309
0.06635788
-0.024651172
-0.06397616
0.06030457
-0.04054686
-0.08639589
0.10481048
0.084928475
-0.0340702
0.010179688
0.07032195
-0.0941687
-0.01030364
-0.10767949
0.02087426
0.019646807
0.06298693
-0.09770062
-0.0026564247
-0.031185176
0.00058562437
0.054887414
0.096366495
0.08779724
-0.012539833
-0.0054833824
-0.12325357
-0.038848713
-0.03890604
0.034957323
0.0923295
-0.10269654
-0.068472356
0.058346383
-0.093250304
-0.038447127
0.14086412
-0.0022348224
0.08302157
-0.025578978
0.06109712
0.07930158
-0.029462172
-0.03817905
0.0029961022
-0.07749177
0.037092786
-0.06148791
-0.078291304
-0.052499846
0.010916092
-0.023000931
0.09511857
0.043875743
0.059453
-0.0770838
-0.06048127
0.0025953646
-0.021680277
0.02626334
0.08820637
-0.08935015
-0.01893018
0.004093519
-0.11766729
0.0026959733
-0.044866838
0.09269391
-0.032601666
0.05486542
-0.10122044
-0.032428183
-0.1372761
-0.1535367
-0.04522653
0.17339218
-0.08695863
-0.06931985
0.015909906
-0.075745255
-0.1098368
-0.11331016
0.07259816
0.0135580115
-0.06571312
0.015331754
-0.070496246
0.094023354
0.0717627
-0.049004756
0.13336425
-0.12034093
-0.09409953
-0.012069012
0.0722344
0.09321446
-0.019039549
0.055764984
0.04961698
0.09703009
-0.015502644
-0.055109236
-0.047608685
-0.041783743
-0.053466506
-0.012956104
0.025160346
-0.016308177
0.041706566
-0.023318207
0.047677655
0.0007504186
-0.13203338
-0.046879984
0.0019881052
0.02810202
0.04192984
0.08634097
-0.070987746
0.026402099
0.09964548
-0.0012389187
0.108854026
0.08282714
0.012596105
-0.034238897
0.114235066
0.049130637
-0.08107384
0.02115504
0.08748916
0.049323477
-0.037474792
-0.035434067
-0.03954952
0.0078842
0.049800877
-0.016346699
-0.04509394
0.08153208
-0.03539218
0.05972196
-0.08626084
-0.13743885
-0.0959094
-0.15749411
-0.11676624
0.09413327
0.08523107
0.098629445
0.05611518
0.038150918
0.014311938
-0.1304505
0.05461322
-0.07175144
0.09223211
0.043920588
-0.011640184
0.021921076
0.029369937
-0.07740282
0.06835599
0.034577716
0.031174546
-0.0653303
-0.07954726
0.016447654
-0.097304896
-0.13462293
0.005461469
0.04340263
-0.1514456
0.010430266
-0.14107518
0.038702805
-0.006300219
-0.0721571
-0.012023186
0.08649579
-0.069262646
-0.06417308
0.07210434
0.089553975
-0.10183744
-0.07155029
0.15971456
-0.00097406644
0.009205318
-0.10066621
-0.043498848
0.08219686
-0.09466109
-0.0017853804
-0.0615489
0.066316925
-0.02937834
0.0013571051
-0.013497521
-0.027393678
-0.103669316
-0.08864026
0.035915084
-0.044508483
-0.057348985
-0.049868975
-0.06809278
-0.11237417
0.0056512817
0.025118794
0.022418275
0.15453179
0.05300827
-0.0011099458
-0.04447924
0.007875751
-0.094616964
-0.07507724
-0.06135131
-0.14852515
0.050761778
0.020299343
0.04336879
-0.0054381974
-0.07814824
0.18324469
0.033509765
0.051410556
0.0186864
0.022404857
0.014370451
0.057342075
-0.1691468
0.10922645
0.025817787
-0.040222835
-0.0015828273
0.10415736
-0.044908505
-0.0054280325
-0.057750657
0.042293135
-0.037899952
0.01662231
-0.011452135
-0.16601732
-0.078977026
0.017619025
0.020504383
0.038168512
-0.07744834
0.03742766
0.09397432
-0.0075620306
-0.14186947
0.023233848
0.0027255274
-0.088452145
0.016681196
0.05669658
0.034810644
0.022323081
-0.15338458
-0.008757234
0.03923645
-0.11941464
0.07634451
0.09258233
-0.110445164
-0.08281565
-0.09819082
-0.15098831
-0.082916096
-0.07977216
0.015467487
0.053702734
0.10443712
-0.12821878
0.034892105
0.09192049
0.05166407
-0.033494905
0.0841409
0.06190991
-0.0003581981
0.07901899
-0.030986747
-0.12532435
-0.056291606
0.0009604789
0.04747675
-0.0919948
-0.09710136
-0.06917705
0.027798243
-0.10437527
-0.0871635
-0.034644518
0.013947424
-0.06354642
-0.013900916
0.050690394
-0.10067465
0.028646974
0.10699436
0.06464467
-0.015627088
0.0027065394
-0.055983204
0.075312145
-0.081474565
0.10849573
-0.050255638
-0.13137405
0.069398895
-0.0029655253
0.0463706
-0.014611208
-0.0073432405
-0.049789183
-0.028178297
-0.11660785
0.09028003
-0.053605326
0.003823486
0.0646945
-0.04575733
0.039745837
-0.046468806
-0.051300928
0.08827604
-0.17777033
0.020026788
0.066420995
0.095066205
-0.035123516
0.0688065
0.084488444
-0.036533937
-0.013862466
-0.011795168
-0.055313066
-0.14667304
0.0982047
0.07262165
0.040396422
-0.006849185
0.13457264
-0.041201025
0.0698221
0.06850478
-0.023068847
0.0846253
0.07285764
0.10232757
0.037927378
0.036769826
-0.023379851
0.10659527
-0.10458207
0.04405304
0.048377905
-0.05188495
0.024086626
0.10098056
0.053440742
-0.023695538
-0.10395875
-0.018945955
0.008401863
0.04592393
-0.12067186
0.07711089
0.11090966
0.07012354
0.08664821
0.05303854
0.067272305
-0.08524515
0.04821292
-0.035667017
-0.07654066
-0.008466443
-0.07363499
0.10919384
-0.02787251
0.09381047
0.050583974
0.083413
0.05135283
0.00033435776
-0.06395714
-0.03082248
0.05536023
0.016420797
-0.010276851
-0.012894914
0.11054958
0.08633214
-0.06251541
-0.084922075
0.08535783
0.0373832
-0.059858594
0.082856834
0.02511995
-0.08702513
0.062261708
0.08347215
0.05576596
0.15933612
-0.08848983
0.06720851
-0.09682458
0.02890377
0.16185266
-0.032219935
-0.04137662
-0.031329963
0.06708656
0.019372959
0.054360867
0.018883653
-0.027274419
-0.107328296
-0.09834959
0.024754513
-0.028508628
-0.02648899
-0.0765223
0.078126915
-0.056487452
-0.06435516
-0.13496007
-0.04735455
0.08222439
-0.04795404
-0.053958517
-0.019670088
0.01630199
0.025303977
-0.048343536
0.0787696
0.036081042
-0.07872846
-0.05561501
-0.049400035
0.022917308
-0.045629013
0.04825521
0.043820374
-0.049871344
0.06779487
-0.005167633
0.017231537
0.08527314
0.0050963117
-0.05833464
-0.07083379
0.079263054
0.0469857
0.030632693
-0.10883189
-0.051558036
-0.05500806
-0.0269544
0.07349509
-0.008448679
-0.089660354
-0.09092353
-0.010858816
-0.018171212
0.052141882
-0.07490283
-0.026288189
-0.02478049
-0.109200366
-0.09467297
0.09885995
0.007684486
0.0493641
0.08005987
-0.03885206
0.08760636
0.010004761
-0.07974417
0.11725263
-0.04957415
0.0027063687
0.044976022
-0.10022999
0.08216797
0.062327016
-0.055471346
-0.032661043
-0.06615913
-0.0077052414
0.08901327
0.079197995
0.04460639
-0.06641018
-0.122965306
-0.05650753
0.044445243
-0.065982714
0.05990687
-0.0050486242
0.097558364
0.07577665
0.06427675
0.100688644
0.046335775
0.011130565
0.030601203
-0.036883924
-0.09308259
0.010084566
-0.015107493
-0.09019138
-0.05142696
0.03088315
-0.034719184
0.07395437
-0.037227448
-0.07386885
-0.047846496
-0.059680227
0.029121177
-0.19012204
-0.07189241
0.008624433
0.060574964
0.06566827
-0.021629907
0.080462515
0.023783565
0.061127394
0.029964099
-0.101669855
0.033438668
-0.036730185
-0.05707516
0.009232006
0.059908237
0.007832977
0.041923597
-0.0654261
0.0786675
-0.12229749
-0.09368866
0.066770196
-0.010134878
-0.0347158
0.1076626
-0.04222319
0.06784777
-0.11263092
0.048650023
0.10608099
0.0043734466
0.07855856
-0.060020667
0.047183137
0.019879213
0.042349324
0.02465655
0.0588593
-0.026839238
-0.1441821
0.07329487
0.047112606
0.06499886
-0.02170988
-0.065664925
-0.04207722
0.04659499
0.025780868
-0.068830535
-0.06967615
-0.11955207
0.04767217
-0.1121915
0.0008720679
-0.13994148
-0.07142758
0.061983667
0.030849809
0.13010897
-0.011986433
0.01931046
0.00031564245
0.037451394
-0.082160026
-0.10260146
-0.030915854
-0.17003767
-0.06501254
0.11936631
-0.18168762
-0.016534757
0.05157154
0.16028593
0.06667288
0.0037970103
0.054610178
-0.11784565
0.12251977
-0.04306239
-0.058382478
0.15141028
0.03432589
0.0069000307
0.019490803
-0.11614643
-0.091663316
-0.067673534
-0.016050527
-0.019061588
-0.12858666
0.026018707
-0.16320978
-0.09059012
0.058052722
-0.096064344
0.10416416
-0.03948786
-0.016065441
0.05412189
0.08918164
0.0075160153
-0.03644364
0.009807335
0.036031432
-0.01606358
-0.023395918
0.005898183
0.045359127
0.032590006
-0.07281598
0.045926552
0.0101115145
0.04508038
-0.036402956
0.052401446
0.037559263
0.049540177
0.038192924
-0.04765028
-0.03131713
-0.067912444
-0.08949449
0.06287014
-0.024467655
-0.1375625
-0.076835416
0.012275134
0.030094177
-0.13156235
-0.0029977148
-0.111556716
-0.10615062
0.022987502
-0.04767136
0.03192679
0.035782985
0.043598533
-0.13170126
-0.086515434
0.03679108
-0.06722846
-0.03716664
-0.0701316
0.05903846
0.029116195
-0.068002634
-0.091242716
-0.03438412
0.020886187
0.02941232
-0.089586854
-0.067964666
0.15904765
0.009108927
0.086508155
0.06386346
0.10232015
0.072849974
0.064612895
-0.022095563
-0.050362278
-0.00975998
-0.06920616
0.01297001
0.021353073
-0.13400261
0.020378888
-0.013828059
0.13778086
0.03406482
-0.12080232
0.05060794
0.010405098
0.014068206
0.046678975
-0.016271433
-0.015746022
-0.039310787
-0.13385859
-0.07316636
0.1128568
0.06131921
0.02396772
-0.07899469
0.11240843
-0.05748406
0.13148332
-0.042085014
-0.040815372
-0.017224928
-0.0053050336
-0.047479343
0.018008485
-0.09831092
-0.12961468
0.03941462
0.03548583
-0.07903758
0.13829234
-0.10054974
0.056460056
-0.031359714
-0.108184494
-0.11381583
-0.016295755
0.011331286
-0.11473601
0.030487608
0.107707605
-0.040800486
0.029465625
0.120912865
-0.117949255
-0.067539625
-0.08167678
-0.08356699
-0.011309712
0.040720124
-0.038656313
0.011145732
-0.06222369
-0.039062735
0.027139472
0.034402683
-0.07798353
-0.039117027
-0.0043005743
0.06713165
-0.02323322
0.035688486
-0.053403124
-0.048839394
0.0901334
-0.010586832
0.044529434
-0.052244086
0.08560761
0.067795426
-0.051958766
-0.08949841
-0.08817527
0.037720826
-0.054185413
-0.006726296
0.00966972
0.08970821
-0.105775565
-0.13582109
-0.011303451
0.08404783
0.06106979
-0.053241972
-0.02838692
-0.04689995
-0.008033687
0.088643186
-0.009042851
-0.018250864
0.007087292
-0.030230183
-0.004331207
0.027218776
-0.06779079
-0.0090844715
-0.013619606
-0.06581282
-0.0720761
-0.054851003
-0.026280595
-0.02019696
0.023480525
-0.001448149
-0.10046809
-0.06450011
-0.023342963
0.017581834
0.026726937
0.011898353
0.04416886
-0.09494598
0.0004300411
0.11891796
-0.1288821
0.12924907
0.109518
0.06371111
-0.020881295
0.021707056
0.104382
-0.17857024
-0.02756606
0.0071721105
0.049139448
0.007031893
-0.07840751
0.09004396
-0.15765788
0.012079219
0.021500781
0.10483158
0.08332954
0.018665604
0.016110782
0.0028956924
-0.07887224
0.09515747
-0.049685422
-0.013981028
0.07088012
0.044384006
-0.11374581
0.019921001
0.06572686
0.028404849
-0.011586053
0.0014450179
-0.11370779
-0.03643239
0.08373777
-0.07230187
-0.081614956
-0.11687236
0.066121876
-0.015808871
0.08823874
-0.10985833
-0.111052744
0.06403766
-0.06727681
0.007750471
0.0027794389
0.00090914516
-0.0011311659
0.046841294
-0.061837617
-0.082839966
-0.069443494
0.06583409
-0.010788185
-0.019541418
-0.042943075
-0.10793631
0.14106777
0.02200508
0.08157414
-0.084123716
0.027238946
0.08825643
-0.02344782
-0.10426056
0.08512063
-0.10192795
-0.0474658
0.0033466665
-0.037288483
-0.04168428
-0.063882455
0.055325214
0.0803242
-0.016645052
0.13179307
-0.13959678
0.07684088
-0.026366211
-0.010513477
0.014742549
-0.04665689
0.029360421
-0.059404075
-0.16491209
-0.08990933
0.111694016
0.040010937
0.09545411
-0.1078734
-0.17417797
0.049274746
0.040741548
0.09108587
0.009347014
0.02963151
0.1641687
0.14931904
-0.019263344
-0.095916435
-0.025959998
-0.07448743
0.034416307
0.076373555
-0.081828676
0.100467466
-0.07518852
0.15639637
-0.06894624
-0.13633035
-0.11479807
-0.0861263
0.090761155
-0.0019793718
0.11348848
0.05363641
-0.052256472
-0.035557695
0.0488292
0.08234394
-0.017065858
-0.14117755
0.08646941
0.07798063
-0.015202079
0.075550854
-0.08352207
0.006042355
0.11518556
0.02499736
-0.01958656
-0.05005028
-0.010850782
-0.024658501
-0.036091175
0.12891495
-0.010541819
0.03280214
-0.072945125
0.15968905
-0.12090732
-0.037192903
0.048702173
0.08973611
0.08881284
-0.06312077
0.052950475
0.031103618
-0.055922836
0.05815348
-0.0784819
0.09752918
0.032258827
-0.005993017
0.017818335
-0.0988406
0.02806254
-0.149802
-0.025015462
-0.12649567
0.039596546
-0.028054623
0.09376159
0.07996283
-0.07458063
0.053145528
0.06924189
-0.059044737
-0.050583974
0.09859321
-0.11493099
0.02256559
0.013918651
0.025302015
0.07466517
0.000863807
0.12689061
-0.090978295
-0.08445775
0.053646855
-0.031960886
-0.016157316
-0.045732174
0.13987117
-0.04150118
-0.069809474
-0.13443306
-0.039025005
-0.041007664
0.07803032
-0.039702903
0.12726617
0.09960838
0.027260205
0.04318997
0.026394095
0.090790056
-0.018645197
0.016734915
-0.120319456
0.08048695
0.1102089
0.045014217
0.04143905
-0.019257218
-0.010240521
-0.023066474
0.05184144
0.10460518
-0.0277259
0.10558661
0.12634388
0.06593956
0.037231866
-0.054311004
-0.07559326
0.022477046
0.051114693
-0.14730626
-0.04448132
-0.11259318
-0.011047677
0.027982173
0.019086562
-0.08442967
-0.0021816303
0.13201763
-0.00069763104
0.00204025
-0.08439918
-0.106372334
0.09214213
0.0972554
-0.03209937
0.0934564
0.011788924
0.02952145
-0.04912017
0.085830666
-0.032535255
0.102022335
-0.025377575
-0.08366066
0.0945548
0.052353155
0.08924062
0.039411116
0.093572974
-0.030209139
0.00025749463
0.021239912
0.06968504
-0.050863378
0.017806675
0.0035527856
-0.035581335
0.119522676
-0.027163297
-0.04489669
0.08200952
-0.057517737
-0.0740772
-0.07607108
0.05531052
0.060009032
0.117746964
-0.07327702
-0.016212456
0.0013303427
-0.07037742
0.049705926
0.10850645
0.010524651
-0.13327661
0.0010735295
-0.042882103
-0.08924326
-0.07044223
-0.09978533
0.16439433
0.08676551
0.07561263
-0.2111252
0.05356309
-0.10674465
-0.054498624
-0.001149054
0.0245678
0.017227884
0.12034959
-0.12873884
-0.09259288
0.07673309
-0.06906592
-0.21025944
-0.060763255
0.031141588
-0.016323166
0.08502213
0.09214499
-0.039128397
0.033933878
-0.034308515
-0.0029638917
0.12403186
0.06920345
0.187753
0.07884901
0.14007756
0.05702963
-0.06394641
-0.11886201
-0.006367489
0.03406045
-0.050257914
-0.05200427
0.067089505
0.032322273
-0.08227651
0.054874133
0.009033769
-0.016514119
-0.0077230535
0.053103726
0.011195449
0.003220575
-0.020385139
-0.08531737
-0.09447567
0.0043592704
-0.054319922
0.0565649
-0.08513321
-0.07678723
0.005619633
-0.11015529
-0.10954718
-0.010927309
0.03206538
0.0972416
0.0474904
0.06140562
-0.1208234
0.07710935
-0.087781854
-0.01864499
-0.017724518
-0.07479206
-0.10628048
0.07441777
-0.09399313
0.014024852
0.051654007
0.0047289054
-0.06692315
-0.1899394
-0.042619877
-0.06386177
-0.055447105
-0.059834935
-0.052417416
0.044643346
0.0048238826
0.080458574
-0.047953546
-0.066493
0.060334697
-0.1279933
0.038478147
0.05981948
-0.03497762
-0.03275268
0.03160811
-0.10334161
-0.030127091
0.100599736
0.107551955
-0.009674965
-0.13811308
0.10904345
0.050468948
0.067470156
-0.03394346
0.05693774
-0.08699489
0.061308924
0.006948399
0.052109543
0.13366851
0.02653522
-0.16063398
-0.08555421
0.011199714
0.09337431
0.055607546
-0.037812755
0.06600397
-0.099242635
0.03056468
0.016248716
0.003823618
0.00051270373
0.07694949
0.010821235
0.15408082
-0.074064955
-0.050586626
0.14151664
0.026426129
0.0033662934
-0.022117648
0.12055565
0.033215467
0.042388253
-0.065027826
0.083714
-0.0675796
0.08487243
-0.07157265
0.065675944
0.027416335
0.08765607
-0.08313537
-0.056471188
-0.043500397
0.12564234
0.11922835
-0.023359027
0.09107032
0.029186467
-0.0745479
0.00037195274
-0.08813454
0.06634162
0.15449096
0.020234179
0.065919004
0.031001745
0.06290364
0.0003192379
-0.014118252
0.008747476
-0.09947645
-0.018108498
0.055240564
-0.008198245
0.052698318
-0.05340885
0.05334259
0.052822996
-0.009787568
-0.116038084
0.035358526
-0.11628865
0.07279832
-0.028544318
-0.060808577
-0.079642996
-0.11439929
-0.08418533
0.008594495
0.025978679
-0.08880873
-0.08518949
-0.024381597
0.011477872
-0.06671702
-0.020294527
0.07016888
-0.08882791
0.0009283254
0.033031754
0.0268538
0.027035128
0.067347296
-0.03536016
-0.028811708
-0.032858536
-0.1274873
0.00033286156
-0.040406484
0.108714215
0.06380529
-0.12273807
-0.05838566
-0.09423406
-0.078847624
-0.09304467
-0.04465659
-0.03932024
0.039184414
0.045432188
0.0068069473
0.05690532
0.02151527
-0.020894635
-0.1267574
0.066964954
-0.013809054
-0.037516586
0.018040547
-0.059263952
-0.0830923
-0.07545081
0.023408743
-0.0857149
-0.03198563
-0.066038914
-0.045467686
0.07169064
0.11048327
-0.010541853
-0.015587016
0.09399146
0.010139477
0.05543032
-0.005896238
-0.078872055
0.07920732
0.081357226
0.001377414
-0.10852858
-0.11607725
-0.08582911
-0.101124935
0.0098775625
-0.047540437
-0.007845248
0.09158213
0.016772054
0.0850165
-0.03158252
0.05209289
0.061282832
0.05360399
0.09190465
0.02830429
-0.06395172
-0.095189385
-0.09437851
0.0038718001
-0.07358147
0.081027195
-0.0063981204
0.08315269
0.03616396
0.06512895
-0.06760705
-0.20619936
0.054790866
-0.032235444
0.08270024
0.042059228
-0.0809931
-0.07633568
0.042906057
-0.010623332
0.040200405
0.017960645
-0.050084148
-0.082438335
-0.037809372
0.06877155
0.11170129
0.08103081
0.04292517
-0.08659913
0.039055698
-0.11076456
0.04246597
-0.234169
0.12950157
0.043914907
-0.06372641
-0.11286373
0.09771384
-0.045373075
0.047267575
0.040815488
0.04564927
-0.009769852
0.06077704
-0.02692455
-0.05375526
-0.070545614
0.11245613
0.055999488
0.11115078
0.08259356
-0.015124114
0.06258381
0.025961425
-0.00505566
-0.10883764
0.038610432
-0.03419594
-0.069478735
0.033367895
0.07615582
0.07702303
0.12548505
0.13255666
-0.11863606
0.018932365
-0.08351026
-0.022459831
-0.081226975
0.1597938
0.031147365
0.039602723
0.032886136
-0.026269553
0.037203617
0.033882
-0.05587499
-0.024805102
0.017270818
0.0626868
-0.0039598546
0.08459746
0.04799568
0.0040036314
-0.10743212
-0.13856065
0.0752995
-0.05319461
0.08118726
0.05572265
0.15850618
0.032550544
-0.060529605
0.12843879
-0.045600895
0.014856124
-0.066529565
-0.05128937
0.043456357
0.10909343
-0.12246656
0.16710253
-0.019408043
-0.037656195
-0.07273834
-0.18009152
0.14435308
-0.010718847
-0.035551954
0.091581136
0.00897902
0.043675292
0.055635177
0.032376032
0.07889943
0.008400268
-0.07138615
0.009492077
-0.02018511
0.017271284
-0.012942337
-0.016901737
0.16813509
-0.04472326
0.043616597
-0.14005621
0.07637622
0.04806612
0.0054840404
-0.09437212
0.06755644
-0.10390677
-0.076921456
0.03837143
-0.023117993
0.045868363
-0.071766876
-0.017583754
-0.20888911
-0.11282844
-0.014649833
-0.07049656
0.03167928
0.0060379836
0.04442539
-0.08430471
-0.024887938
-0.049274467
0.10922926
0.034391254
0.011983682
0.03892305
0.057772063
-0.098118074
-0.052805215
0.050755408
0.008052302
-0.0018358433
0.046214864
-0.0047231456
-0.0764313
0.032558717
-0.11653967
-0.056867674
-0.040115863
-0.0020740358
-0.068558894
0.06533215
-0.016919008
0.0070743095
-0.021605253
0.08345417
0.07881617
-0.07352708
0.03551294
-0.03424256
0.07189801
-0.014570264
-0.011995856
-0.113315895
-0.0102957515
0.103449255
-0.072215684
0.11079982
0.039605517
0.011128652
0.03068943
0.04092553
0.05226769
0.0042022136
0.010203624
0.018386189
0.057385765
0.03997561
0.073108815
-0.05806418
-0.10281462
0.06959675
0.059279714
0.06112645
-0.063694805
0.06253707
0.00790767
0.085695885
0.043357078
-0.014097183
-0.046385515
0.088686295
-0.025860405
-0.051605362
0.026455194
0.083558366
-0.04810863
-0.12044736
0.074319236
0.028557278
0.015449492
0.0059268735
-0.035984814
0.0013780536
0.036346916
-0.103159115
-0.03889191
-0.023598678
-0.026913488
0.11841822
0.056173924
-0.09659559
0.022272825
0.020253863
0.024468862
0.04982871
-0.09611201
-0.04282769
-0.062533855
-0.06342092
0.15485327
-0.03437325
0.026811788
-0.08295595
0.10804059
-0.004649631
-0.10869437
0.07624658
0.011288985
-0.04266497
0.095999315
-0.013100355
0.057722885
0.030811718
0.09739948
-0.07328476
0.09450521
0.07313572
0.021424795
0.18379912
-0.053020637
-0.100028045
-0.013619795
-0.049862027
0.056514297
0.18987925
0.045623593
-0.05607837
0.07775905
0.08912869
0.20979339
0.04119789
-0.112898454
-0.06319182
-0.102252446
0.016984403
0.11767044
-0.09340776
-0.12850484
-0.15277393
0.024556905
-0.17056884
-0.031740576
0.124934375
-0.054726455
0.14184318
-0.091160156
-0.0819557
-0.04085796
-0.052534256
-0.056531888
-0.091404125
-0.037981287
0.016548442
0.064556755
0.078933164
-0.01263255
-0.14657304
0.053734068
-0.030915476
0.060034163
0.10069418
0.004396471
0.056586582
-0.09813774
0.08576092
0.054450195
0.086169414
-0.065033175
-0.0821223
0.0139730815
-0.037692845
0.024469396
0.023699524
-0.0693118
0.058556274
0.08109843
0.022967797
-0.10695023
-0.08079919
-0.049639255
-0.0038892278
-0.06546087
-0.011292432
-0.053377405
-0.038553294
-0.03285453
-0.06411428
0.017865492
0.002657619
-0.09726518
-0.0057299733
0.0678629
-0.101233095
-0.028047483
0.07414829
-0.04863533
-0.0737941
-0.081192456
0.036987286
-0.03965844
-0.06927845
-0.082351364
-0.116220795
-0.03785763
-0.04705783
0.037932917
-0.048298758
-0.023098478
0.027767038
0.00210284
-0.032815907
0.061275877
-0.03949782
-0.035977166
-0.03784487
0.075751826
-0.028929342
0.11502226
0.03782638
-0.04818461
0.05083709
-0.038436748
-0.044164885
0.06131064
0.19361687
0.013739884
-0.11062305
-0.09031431
-0.114602044
-0.028120335
0.10255596
0.09880504
-0.01892574
0.08447466
0.058417823
-0.088632464
-0.12516747
0.05560767
0.030193388
-0.09433276
0.058920007
-0.04607729
-0.20491998
-0.03548644
0.09105768
-0.016440026
0.08200005
-0.014145074
-0.015444892
0.05241558
-0.15383586
-0.012113039
0.0326481
0.09907245
0.016980562
-0.005220906
0.09672487
-0.03783943
0.027326373
-0.04823988
-0.051045936
0.13574411
-0.018691542
0.07199523
-0.02697086
-0.052845545
-0.14451107
0.0492356
-0.13859297
-0.041231904
0.02305172
0.00046393237
0.048036363
-0.16046453
-0.0837624
0.01627902
-0.060757197
0.11760449
0.024525847
-0.047293298
0.10391305
-0.015712367
-0.11147035
-0.06809324
-0.014933793
0.014161017
0.14041853
0.07813642
0.0046101417
0.10753341
-0.12214609
-0.08821509
0.006637323
-0.02029056
0.06814672
0.026292399
0.0624798
0.105589956
-0.104859225
0.040808033
0.041665286
-0.079670645
-0.013921738
0.027532993
0.017133297
0.0804639
0.06948964
0.008962873
-0.10070444
-0.019763203
0.004696106
0.020963812
-0.018945182
-0.0052067204
0.06695708
-0.025523951
0.032100283
-0.005360277
-0.046472423
-0.08011274
-0.06212207
-0.03489142
0.05410305
-0.04881682
0.038701143
-0.086322844
-0.020753628
-0.015219057
-0.01260701
0.07623082
0.056569975
-0.0038269872
-0.027075723
0.005092199
0.045872293
0.013200353
-0.10615365
0.05798052
-0.008491723
0.019693265
0.048852235
-0.026418742
-0.10389017
0.04907482
0.03198718
-0.06511109
-0.12938003
-5.577845e-05
-0.111699216
-0.05909681
0.041967392
-0.074595466
0.09073171
0.028816503
-0.029081995
0.062315818
-0.07788546
0.008609154
-0.015588743
0.09017773
-0.1063718
-0.011524151
-0.11170947
-0.09183662
0.0794266
0.12170077
-0.037619255
0.10891151
0.030420508
0.03566676
-0.054305546
-0.01047169
0.11274808
-0.14489931
-0.057612624
0.077170715
-0.047680918
0.09191947
-0.0943521
0.040947787
-0.10797977
0.0783721
0.022455651
-0.08446445
-0.029617906
-0.21158957
0.043530513
-0.042681936
-0.024928726
-0.087951206
0.063344836
-0.117640354
0.08870496
0.06140652
0.07344518
0.019723155
0.07775671
-0.087757
-0.06924167
-0.0015327681
-0.08029232
-0.023890285
0.039184645
0.0644972
-0.003402735
-0.10656153
-0.054821305
-0.10097581
-0.08887976
0.15591541
-0.0009341589
-0.072960325
0.039470524
-0.05557995
0.06008145
-0.12751807
0.10024924
-0.0065212734
0.11699518
-0.050860107
-0.10476255
-0.021076234
0.0044395574
0.08642987
0.033756223
0.009448087
-0.05705448
0.004228633
0.08080712
-0.095416375
0.036085416
-0.09005244
-0.048077017
-0.05235491
-0.060356822
0.12944363
-0.029975282
0.047782455
0.078388184
-0.058464646
-0.0030892454
0.044340115
-0.08330984
-0.1104046
0.11971365
0.108616546
0.042215277
0.03476897
0.16274865
0.08469818
-0.03792496
-0.06785022
-0.06451227
0.08592922
0.16283306
-0.0048721447
-0.019774789
-0.0797276
-0.077928446
-0.010467821
-0.15838091
-0.027392652
-0.08983785
-0.070944004
0.019254137
0.02596354
-0.04400984
0.019068973
0.08714043
0.008510558
-0.11993623
-0.054995265
-0.13301556
0.033266734
0.09168011
-0.07095492
-0.057795607
0.07906426
0.039964892
0.01580972
-0.02961372
0.048543803
-0.020896817
0.07911246
-0.06247666
0.023053402
0.070822425
-0.009650002
0.047114324
0.09364324
-0.071848504
-0.100543946
0.08419936
0.017364345
0.0038835239
-0.028526157
0.08415031
0.06417063
0.07671289
0.023479098
-0.08541914
0.078009725
0.011662121
-0.04813497
0.01281765
-0.07366985
0.046060313
0.021488992
-0.02619661
0.015278833
0.01666683
0.0855963
-0.04686774
0.07540286
0.08787587
-0.09175812
-0.027050348
-0.09779912
-0.12626132
-0.048727013
-0.0025142697
0.06862151
0.06343274
-0.11230625
0.039160408
-0.031567782
0.061545823
0.003563199
-0.09666766
-0.022187088
0.009477376
-0.089347586
0.06255053
-0.06442001
0.06731453
-0.055224594
0.034093913
-0.038825903
-0.08761837
0.010218244
0.09296808
0.026245894
0.008086138
-0.050692968
0.080273554
-0.03834467
-0.06119872
0.050029796
0.108595945
-0.06687094
-0.06234143
0.04985528
0.038879115
-0.033962566
0.010979253
-0.022087274
-0.12603137
0.10315519
0.014317703
0.049659062
-0.05407084
0.027414266
0.05851734
0.08812631
0.12328792
-0.09487474
0.080163516
-0.10720173
0.026025025
-0.0432999
-0.029608048
0.03448973
0.06723029
0.07588898
0.041119922
0.06697933
-0.008380818
-0.03496205
-0.14301424
0.045682445
0.015011594
-0.11493429
-0.033625815
0.13658762
0.040791992
0.09893718
-0.045311082
0.04122018
0.021424813
0.02445923
0.10773754
0.051136374
-0.02190571
-0.081801355
-0.07036592
-0.08383879
0.016241258
-0.00051674753
-0.012462029
-0.032105677
0.070070446
-0.0052735894
-0.12128755
-0.06317993
-0.06633975
0.02209227
-0.00031726013
0.09418705
0.05639973
-0.14535315
-0.009037291
-0.006676418
-0.038935058
0.10005024
-0.09600175
0.06740457
-0.06232726
0.0972673
-0.10220793
0.040710434
0.032170802
0.0500298
0.105776526
-0.022242958
0.071953036
-0.042216823
-0.0076036146
-0.05788631
-0.035383612
-0.0074572144
-0.025615787
-0.0036824844
0.01770928
0.053996705
-0.10658022
0.026257643
-0.022358796
0.088662356
0.08467233
0.078641884
0.052168746
-0.100625284
0.11984852
-0.011005667
0.009227468
-0.024550201
-0.08551687
-0.060425963
-0.04356716
-0.026879689
0.052378226
-0.06871461
0.045964055
-0.008243926
0.0383635
-0.0855576
-0.04140911
-0.0058934563
