0.17420614
-0.17710805
-0.14959916
-0.036539216
0.07393659
0.08653357
0.23645772
0.03264465
-0.17307892
-0.06802648
0.005208875
-0.09764437
-0.10299795
-0.098651454
-0.13877138
0.002240312
-0.062040795
-0.119569466
0.013620841
-0.07684683
-0.100961864
-0.07059988
0.2336656
-0.22631165
-0.012569337
-0.15560116
0.016469726
0.28534982
-0.13735034
-0.21510777
0.04795568
0.07990722
0.13614379
0.09975749
-0.14653431
0.054541454
0.07789257
-0.04426651
-0.08030857
-0.22103299
-0.20072643
-0.15292695
-0.0567814
0.09966736
-0.008222806
0.011878265
0.032233734
0.24615063
-0.0982634
0.047052044
-0.07616946
-0.012676406
-0.043380037
-0.01552473
0.09061542
0.043786306
-0.1382411
0.16430281
0.0407472
0.16625234
-0.14482698
-0.010806613
-0.043414082
-0.027538417
-0.0887365
0.04967447
0.15919933
0.31177574
0.041312084
-0.027290352
-0.1485501
-0.0670969
-0.23722035
-0.023296302
0.385951
0.04526292
-0.17858438
0.0017284125
0.013836043
0.041874368
-0.027384482
-0.25621703
0.09213717
0.085027665
-0.09517657
-0.106132485
-0.14047259
-0.003517698
0.03346627
0.012968221
0.14352125
-0.06419857
0.07020026
-0.13546507
-0.03131901
0.09318566
0.170585
0.07123985
0.16687052
0.19939668
0.10534051
0.19050296
-0.037393846
0.018324664
-0.09589938
-0.10942896
-0.024947632
-0.050876275
0.0039056344
-0.01675374
-0.15650102
-0.02825222
-0.039977446
-0.050410528
-0.09030799
-0.14210962
-0.03939983
0.0594467
0.111034974
-0.15457912
0.103161275
-0.07534382
0.022416847
0.015662227
-0.011467592
0.13549657
-0.167932
-0.14894934
0.10168714
-0.29563308
-0.024133658
0.012431943
0.18742986
-0.033298545
-0.22163913
-0.17103992
-0.107072644
0.18226628
-0.009415616
-0.030713059
-0.013371384
-0.20335436
-0.07320776
-0.1242737
-0.291619
-0.042348918
0.03511679
-0.15178497
-0.14759773
-0.12345986
-0.09540435
-0.03647625
-0.044077687
0.0249726
-0.026388137
-0.15420279
-0.04480108
-0.050857525
-0.023296507
-0.033744164
