-0.04106605
-0.046935637
0.022537302
-0.02729956
0.0020991962
-0.027550433
-0.02210573
0.0018193272
-0.018462168
-0.016860314
-0.02572515
0.033562697
0.02771382
0.006830799
0.03025844
-0.0055112247
0.021658653
0.004997854
0.019228077
0.041068796
-0.022807607
-0.02844654
-0.023994526
0.013470846
0.008097509
-0.013133571
0.015433109
0.017711522
0.02982612
0.01738537
-0.006752611
0.004425661
0.026684823
-0.023899654
-0.024852151
-0.00541001
-0.03536042
-0.025990225
0.016995454
-0.01882396
-0.028605578
-0.039323073
0.0033782364
0.023295118
-0.013680016
0.02834162
-0.018443858
-0.004956547
-0.0021259743
-0.012560668
-0.025064375
-0.040748313
-0.0066269995
0.008615727
0.010448913
-0.027672078
-0.04394763
-0.0025917585
0.018491684
-0.0011645905
0.012894997
-0.025394894
8.094725e-05
0.01072351
-0.026109904
-0.00021851926
-0.017303675
0.022384295
0.06287874
-0.036649864
-0.028181756
-0.017861824
-0.027696522
-0.02194127
0.015743636
-0.049410738
0.0088323895
-0.009427758
-0.014003605
-0.0074288477
0.024582988
-0.014235668
-0.03963944
-0.0067330054
0.03132656
0.025124995
0.004023358
0.016782124
0.007883313
0.00085320324
0.013723542
-0.007128278
0.023010455
-0.032773964
-0.017148748
0.02225652
0.025876451
0.0062907175
0.016036084
0.0036223622
0.02364754
-0.013980622
-0.019846905
0.026912896
0.023062624
-0.018860865
0.0011559072
-0.0026329393
-0.014072928
0.0076105217
-0.0052451924
0.001558721
0.010106999
0.013598551
-0.0031523015
0.0414176
-0.007474074
-0.022974484
-0.0050798464
-0.017185824
0.024400506
-0.013555987
-0.02332481
0.0315574
-0.0153442025
-0.040331714
-0.037003346
-0.014802563
0.021285659
-0.00617173
0.03443998
0.011827159
-0.008912272
0.014030309
0.036868993
-0.03282691
0.012732263
-0.010670851
-0.023424856
0.04311513
0.032489486
-0.03679669
0.017734189
0.02746656
0.04329959
-0.018996157
-0.009719276
0.020283325
-0.0059126513
0.02814795
-0.0006945444
0.014401709
-0.0073542083
-0.016714288
-0.010929318
0.03333003
0.0021840015
-0.0026560097
-0.03635338
0.019502172
0.020842945
0.0033703018
0.025519576
-0.02106256
0.013390621
0.0182376
0.006160996
-0.014496342
-0.019567305
0.00050559075
0.011860387
-0.018747875
-0.004253093
0.005206101
-0.051753324
-0.0076127783
-0.015146931
-0.015333745
-0.007970346
-0.02938639
0.025347093
-0.0076139565
0.017448647
0.018754471
-0.010406094
-0.010761021
0.011543181
-0.015483644
0.012509637
0.0027825008
-0.02284502
0.009744735
0.0062776655
-0.029101506
0.0075947214
0.0049411403
0.009070191
0.029091198
0.019412545
-0.023869587
0.010955985
0.00798325
-0.02577135
0.022536594
0.0037506435
-0.0277745
-0.0127373105
-0.027668947
0.03241542
0.011895886
0.0017930672
-0.03884664
-0.011624141
0.008979123
-0.03611185
0.027419418
-0.037914768
0.054851364
-0.022413494
0.020228067
0.04208773
0.018685386
0.002184992
-0.029151827
0.01453782
0.0035499725
0.01619889
-0.016231641
-0.012278743
-0.023873782
-0.013125234
-0.029353533
-0.02056449
-0.02881094
0.0011215899
0.023699196
-0.014653872
0.0015635409
-0.0028737788
-0.024685148
-0.0024571617
-0.017918332
-0.03125714
0.026966998
0.0115048
0.010416845
-0.004585255
0.008175207
0.0043505486
-0.014419182
-0.03022586
0.04785717
-0.023637254
-0.014654269
0.024478806
0.033059202
-0.006022871
-0.026221316
-0.008250035
0.009052509
0.00041435985
0.009368055
-0.009273777
0.0173838
0.011870027
0.0130360965
-0.0048552128
-0.00053226826
0.004857192
-0.024385499
0.012763253
-0.011985899
-0.022147724
-0.027281882
-0.019588767
-0.01058576
-0.0044190073
-0.012641767
-0.042167205
-0.0002604278
0.03016887
0.021255223
-0.02678285
-0.0050684866
-0.026373582
0.0146763725
0.020898508
-0.016753662
-0.021216925
0.0023753322
-0.027183004
0.020053484
0.039171107
-0.034900464
-0.004839159
-0.047674257
0.03659932
-0.015180016
-0.0053096665
-0.020088347
0.018064689
0.01919066
0.012152412
0.015073784
0.010904153
0.00093142263
0.012635483
0.00048380345
0.008385911
-0.02908714
0.021498086
0.041273843
0.029784577
-0.022974942
0.023591151
0.00020218223
-0.011197381
0.010268807
0.025374828
0.006643192
-0.023576772
0.03876579
-0.026605451
0.0025888
-0.029709622
0.010122666
0.00098599
0.0063690813
-0.0232814
0.029632607
-0.037544116
-0.013172671
0.023950327
0.01542872
0.0418051
0.023534257
0.038997497
0.021083763
0.013688931
-0.019098412
-0.009761381
0.019878205
0.021483745
0.0018237395
-0.009168144
0.018699093
-0.018870184
0.0011880014
0.03178483
-0.020049514
-0.006910442
-0.03105153
-0.0076145683
-0.023430951
0.023306582
0.016668193
0.011682735
0.007375334
0.013891704
0.012965353
-0.04017823
-0.03184882
0.0045417296
0.016018193
0.028473316
-0.017095812
0.024710327
-0.0019445736
0.04440619
-0.0024239246
-0.005503378
0.009753912
0.030294586
-0.0033488758
-0.0044499976
0.012002908
0.017426386
-0.0278362
-0.010659079
-0.026696898
-0.016195558
-0.010315957
-0.016292498
-0.030186344
-0.0025428045
0.013710735
0.007976947
0.0103078345
0.01388404
-0.00894929
0.020162268
0.03797229
0.0064044874
0.020903964
-0.026487878
0.037864923
0.011186498
0.00086014165
0.038441468
-0.010002229
-0.010465626
-0.013505631
0.010235645
-0.0025231452
-0.0014608683
-0.024328621
0.0040554
-0.00046032682
0.020780599
0.024882566
-0.00084978784
-0.033098113
0.009401425
0.00072450825
0.030205155
-0.039437123
-0.050133903
-0.036720484
-0.032513205
0.023886336
-0.010289716
0.025858514
-0.028366074
0.009729389
-0.016118927
-0.020163245
-0.00079385965
0.015769757
-0.00057933107
0.019080652
0.03477826
-0.03630372
-0.015687192
-0.00035667274
0.029484602
0.05028079
0.003533832
0.026943931
-0.019715004
0.015940314
0.03317874
-0.0029761794
-0.022241782
0.037683077
0.03272172
0.011753879
0.022857273
0.0023393705
-0.010450227
0.015337658
-0.008402321
-0.0012602445
0.0078100334
0.0509981
0.008859006
0.005853011
-0.02437442
-0.0015138497
-0.023731759
0.026409656
0.015292851
-0.001355384
-0.008245979
0.017585522
-0.044835612
-0.0063493224
0.036101505
-0.056941327
0.0075856084
0.031331554
-0.017995792
0.0046701017
-0.018879145
0.019619577
0.0062997504
-0.013600357
-0.028511615
-0.00043545052
-0.02384988
-0.014574844
0.013646664
0.035681628
0.012117059
0.04042064
0.017352205
-0.03059713
0.014611126
0.004656604
0.027493868
0.011665367
0.016447654
0.0068015605
-0.026609994
-0.04131534
-0.036892653
0.018074539
0.006468963
-0.008685359
-0.004753866
-0.015070043
-0.0017619653
0.0008155911
0.032550298
-0.0028961194
-0.029979799
-0.018597875
0.0058293045
0.013998513
0.0039292504
-0.00093622645
-0.011857595
-0.0046000145
-0.001474359
0.000687433
-0.0048577343
-0.017788267
-0.028353855
-0.014352495
0.025596963
-0.0106700575
-0.022136612
-0.022708079
0.021290971
-0.00072187773
-0.04325824
-0.024504337
0.019430416
-0.009525223
0.00018265408
-0.03496027
0.010653515
0.021693187
0.01641202
0.024674457
-0.018177157
-0.02717548
-0.03516045
-0.04675339
-0.012222877
-0.03597621
-0.005809207
-0.031123642
-0.004886424
-0.014821267
0.028038222
0.005489243
-0.020597087
-0.013049133
-0.022674015
-0.022053445
0.047137186
-0.013379246
-0.03836667
0.013346787
-0.018180927
-0.0076019936
0.026504662
-0.03576783
0.0074867504
-0.029224236
-0.030814655
-0.012793171
-0.012718878
0.0067590247
0.00504193
0.015050539
-0.019789992
-0.0173962
-0.012703956
0.0006261663
-0.02222302
-0.010629124
0.043807235
-0.028702164
-0.023153616
-0.012496602
-0.00091761723
0.009443702
-0.008289604
-0.016454166
0.03155175
0.025113316
-0.008161161
0.0074847443
0.06021397
-0.0352665
0.0412819
0.013986763
0.0023998693
0.027037546
-0.011693958
0.005550864
-0.03269313
-0.035309896
0.01605897
-0.0036612588
0.0028100833
-0.011308645
-0.02873194
0.029498138
0.033023793
-0.012018833
0.011857573
-0.0010277624
0.043251052
0.012014322
-0.01955764
0.0074301944
-0.003880433
0.012695958
-0.006383064
-0.03996503
-0.024427569
-0.055875994
0.013858644
-0.01698121
0.006623681
0.030672802
-0.005926986
-0.019024685
0.00423721
0.03909713
-0.0057805986
-0.01000379
-0.03720116
0.008671569
-0.018215742
0.020557422
-0.011181372
0.014885888
0.014741027
-0.010980791
0.036832646
0.0036476366
0.019710723
0.015447127
-0.019615434
-0.020253139
0.025470676
-0.0164937
-0.0037023851
0.008327562
-0.0034346632
-0.020612622
0.0413609
0.0171409
-0.01784354
0.048693385
-0.027155587
-0.033182885
0.009145561
0.013559864
-0.040381003
-0.015272575
0.0010677867
0.010607942
-0.020890553
-0.0022254824
-0.0459261
0.010717333
-0.02064963
0.0005077884
0.026573518
0.010699254
0.0040219813
0.004684549
-0.009386837
-0.0036587385
0.024639426
0.01276097
-0.01634722
-0.017855566
0.0012673112
-0.000782709
0.005298179
-0.01820942
-0.014705085
0.022046866
-0.005489262
0.0051533217
-0.028711298
-0.021419242
0.02596298
0.035071626
-0.0042356453
0.0011375624
-0.022258647
0.0039079413
-0.031226257
-0.018446213
0.005039876
-0.014359057
0.021208525
0.0064032357
0.0028006507
0.016872257
0.0043092766
0.005880704
-0.02366555
-0.003701897
0.008063439
0.011528716
0.018086476
-0.023633305
0.016349059
0.011209106
0.02655076
0.01313358
-0.042010505
-0.029490016
-0.0089966385
-0.024781331
0.002844909
0.016462086
0.011948739
-0.04286522
0.030288564
0.042813502
-0.025277488
0.008081538
-0.031063046
-0.012068949
-0.001891336
0.01757488
-0.017460488
-0.02378938
-0.0054971203
0.0011875
0.019580003
0.0002448405
-0.026291603
0.015735744
0.0029413204
-0.019205337
0.007743587
0.010765405
-0.008420039
0.016672965
-0.021648068
-0.033613015
0.010218718
-0.0053206724
0.021876348
-0.032239057
-0.013425921
-0.018119
-0.034669533
-0.04047743
0.009810233
0.016300287
-0.023459857
-0.04268902
0.0038278026
-0.005290837
0.026834909
-0.013504387
-0.020008588
-0.015906679
-0.019511186
0.01039097
0.015506346
-0.0106886625
-0.009782318
0.038746316
-0.01149197
-0.0036596565
-0.022717502
0.008472918
0.008401827
0.037251644
-0.010338015
0.007148745
0.004623403
-0.031004472
0.05200072
-0.019574696
0.031167451
0.021100324
-0.0058460995
-0.006374002
0.04718399
0.026873788
0.006765907
0.00024917923
0.013915327
-0.010878773
-0.018880118
-0.024673207
-0.023734622
-0.0019894694
-0.027694672
0.00527835
0.035972737
-0.008778642
0.009217707
-0.007193863
-0.0018686296
-0.014276105
-0.012406275
0.0047508017
-0.01671477
0.0006091314
-0.0045631537
0.014836052
0.007777075
-0.033103954
0.0035377068
-0.000344087
-0.015055431
0.027050046
0.02659625
-0.020236177
-0.034239467
0.0051930016
-0.023419462
0.014966695
0.015216224
0.02930515
-0.00580199
0.043098588
-0.05043246
0.0009005677
-0.032452893
-0.0398758
0.010091036
0.041624505
0.01802663
0.017464941
0.04464188
0.0024686577
0.021403117
-0.00028696453
-0.015196847
0.01785339
-0.037216
0.0046765567
-0.033079784
0.006513925
-0.0061627226
-0.0037647462
0.04500261
-0.006977051
-0.029153151
-0.013509562
0.0347061
-0.02962418
-0.024332538
-0.018317437
-0.0031624977
0.007614399
-0.028050186
0.00583662
0.01115197
0.02508142
-0.04581276
-0.012885874
0.010233234
-0.0022680794
0.042817656
0.010743828
0.0324104
0.027553547
0.002008245
0.00199278
0.02280338
-0.017525937
0.012722067
-0.022570193
0.0021287545
0.02003679
-0.016648673
-0.017325664
0.004330946
0.0075598904
0.030025445
-0.0167705
-0.021439511
0.019476939
0.019226864
0.015105726
0.007435901
0.015372444
-0.026567658
0.0123326555
-0.0020041713
0.035374645
0.009834908
-0.024338834
-0.013878768
0.018319484
-0.0031393582
0.0035192573
-0.02226496
0.019062474
0.017271085
0.026793052
-0.0074160853
-0.04619463
-0.023054615
0.032363158
-0.05106267
0.019315867
-0.017198192
-0.02511721
0.020414451
0.03597503
-0.0082985535
-0.0122510865
0.013151254
0.020385373
-0.0048339725
-0.0072466084
0.007293807
0.02500051
0.0025058356
0.0327885
-0.025333313
0.0019615942
-0.010922834
-0.04047334
0.018341431
0.016444465
-0.029390449
0.015733488
-0.013930607
-0.00036235843
0.025431216
-0.009522122
-0.031293184
0.010510349
-0.0030614256
-0.0016307072
0.019002335
0.029322064
-0.033738203
-0.012125163
0.015344334
0.022660794
0.0036744648
-0.0015956295
-0.00097538414
0.0194459
-0.02155571
0.034116987
-0.019545984
0.018290063
0.016707532
0.034642063
-0.0027479334
-0.008182044
-0.002827183
0.0352313
0.005499649
0.033164922
0.028827537
-0.010961972
-0.034930438
0.032754548
0.01240886
0.022520835
0.0048046354
0.026252154
0.008559354
-0.007588557
0.0032342635
0.025077747
-0.014768645
0.010397736
-0.025507044
0.00083497906
-0.0028156096
-0.016451737
0.0008550845
0.019806314
-0.017111905
-0.013664194
0.041136507
-0.0071717533
-0.01913678
-0.03672514
-0.0014048257
-0.027192557
0.003301013
0.008141899
0.001213217
-0.004807041
0.0150373895
0.022568876
0.010212603
0.026159981
0.004499919
-0.030579608
0.0025847296
0.005901966
0.020167392
-0.00014937478
-0.0017539954
-0.015524742
0.016817188
0.0057499963
0.012133852
0.013909225
-0.0027719026
0.00894184
-0.031659555
-0.014826549
0.03175368
-0.0037608957
-0.023294114
0.009756717
-0.012017486
-0.0015037524
0.01202624
0.012017856
0.015237824
-0.022396402
0.007199987
0.0038097634
-0.010876029
-0.0034929782
-5.418402e-05
-0.021683883
0.009856728
-0.0027918557
-0.011559541
0.028739827
0.018634817
0.023105668
-0.010968089
-0.016471177
0.01958338
0.027507113
-0.01754805
-0.026197601
0.0017870918
-0.015053156
0.0054391986
0.058543537
-0.026422178
0.022840265
-0.0041994154
0.025983483
-0.032006104
0.002768564
-0.008072955
-0.024032118
-0.011549362
0.03503888
0.025935132
-0.007337795
0.0052965083
-0.009737734
0.0033979744
-0.015728429
-0.013504535
0.009041403
-0.021836713
-0.03432461
0.010128282
0.010424011
0.0046236143
-0.028216334
-0.017909251
0.015608238
0.01611401
-0.022407329
0.033490784
0.027744919
-0.013132887
-0.009642152
0.007019169
0.0020649256
0.0630858
0.016361786
-0.0071631554
0.019995678
0.021336263
-0.010293574
-0.030340306
-0.031059545
0.019311238
-0.019950565
0.025725275
0.0229238
0.0064723846
0.004971958
-0.0024935938
0.025214693
-0.0001428147
0.023722704
-0.008801385
0.007416822
-0.00981408
0.017988857
-0.02143395
-0.031226557
0.0036451854
-0.016721956
-0.030600816
-0.010318648
-0.014376003
0.0033141526
-0.018980848
-0.016359227
-0.010190037
-0.018366147
0.0008126321
-0.014474143
0.0018675057
-0.029504122
-0.0328528
0.057211608
-0.038119517
-0.027955137
-0.015880197
-0.044896096
0.007409993
0.03872177
-0.048869595
0.039609626
0.013241887
-0.010786615
-0.017576613
0.02015474
-0.007742365
-0.016146388
-0.009949291
0.028978148
0.044140704
-0.03216639
-0.038458776
-0.013114842
0.016910613
-0.01916284
-0.031148601
0.0056645526
-0.047337968
0.03138921
0.031854436
-0.022211853
0.013336403
-0.01548838
-0.00947899
0.011588793
0.04124963
0.021650512
0.018246654
-0.0060936343
-0.045899425
0.016663847
0.004363968
0.024253687
0.0094721615
-0.030311985
-0.00674623
-0.0110075055
0.052224416
-0.026780326
-0.007761777
0.0072501646
0.02985057
0.0010662082
-0.0064999424
-0.008675551
-0.025797071
-0.00875584
0.015798647
-0.00074911374
-0.004172153
0.0511182
-0.001578708
-0.0019818968
0.025563048
0.0025916891
-0.031425804
0.02371532
0.010301242
-5.532423e-06
-0.007116092
-0.017611207
0.0103047155
-0.014034263
0.01650159
0.033943377
0.027100187
0.034940854
0.008361904
0.0144710345
0.030821025
-0.00022352832
0.033708137
0.012123169
0.010639027
-0.013292229
-0.034393884
0.012989498
0.015201191
-0.008377013
-0.023686996
-0.014128284
-0.011689796
-0.01108274
0.018316722
0.028067453
0.005825551
0.01880488
-0.0028997122
0.027640248
0.0008285144
-0.012448557
-0.015139115
0.029198268
0.037368473
0.001844284
0.025971018
0.007804443
-0.0068513006
-0.012905827
-0.0041627144
-0.015349009
-0.03393415
0.01870152
0.013258552
-0.02630419
-0.016315036
-0.04102955
0.028809417
-0.01854235
0.014792049
0.028154429
0.008660588
0.006212008
0.026495261
-0.009041669
0.03599272
-0.03950536
-0.01844878
0.0025228593
-0.016996628
0.003938854
0.0030026908
0.017748674
-0.00039681525
-0.0052516726
0.013817022
0.00045482194
0.02997599
-0.030119175
0.04462236
0.017636742
0.010904131
0.0039945794
0.0023126788
0.00330362
-0.0039655864
-0.043855008
-0.04404308
0.010050688
-0.0043105744
0.080564216
0.022343049
-0.0007067173
-0.021528441
-0.0273534
0.0010212512
0.01964053
-0.005891522
-0.0015514045
0.019844178
0.004746481
0.057906408
-0.0014761509
-0.011771764
-0.0078240475
0.029599136
-0.031170305
-0.026967421
-0.046456333
0.025057627
-0.00031560112
-0.01845854
0.02198081
0.021334933
0.015910866
0.037472866
-0.030281924
0.009631087
-0.017083902
-0.0055537713
-0.049011707
-0.012050365
-0.021918138
0.026919829
-0.045038767
-0.033265796
-0.024265608
-0.0054663974
-0.052366983
0.019321917
-0.008279499
0.04014026
-0.009146457
-0.020249566
-0.015001816
-0.02504104
0.014334043
0.0121823205
0.015019095
-0.017544055
-0.002114253
0.018664544
-0.01034076
-0.022371808
0.02964932
0.053653598
0.011910016
0.010859374
0.037454266
-0.0013992438
-0.026845386
-0.016028212
0.01569485
-0.019735849
0.021118667
-0.0026941977
-0.018695839
-0.0020628567
-0.00019131381
0.026209053
0.018597158
-0.026210824
0.0032546616
-0.0064768083
-0.03135479
0.0483204
0.001571979
0.028113207
-0.033492394
-0.007569934
-0.0102005135
0.05394632
-0.0016111773
0.004849762
-0.0045223176
-0.04142776
-0.01727103
0.0007621918
0.028908595
0.0055350265
-0.023545364
-0.01314604
-0.051347334
0.0012815621
-0.016503599
-0.0075414185
-0.011388091
-0.031433024
0.008685991
-0.02777702
0.029073965
0.0026274323
-0.0011850559
0.006852968
0.0147941355
0.039559793
-0.0014337578
0.007020328
-0.018601038
0.030954482
0.013693908
0.023349926
0.0017296578
-0.01841694
0.018635316
0.002974466
-0.014740603
0.020007135
0.012532484
-0.00046821282
0.0479854
-0.04487008
-0.031556595
0.019095518
-0.03580142
-0.019648729
0.032790877
0.033609767
-0.010094943
0.05671776
0.0053469315
-0.030235328
-0.031629365
0.0054093297
0.00094077335
-0.031675566
0.049031787
-0.017950969
-0.020406205
0.021786852
0.022595294
-0.0028609557
0.02106198
0.0010446004
-0.025416221
0.0048480793
-0.03295569
0.021680305
0.03664263
0.045341175
-0.023950899
-0.03507428
0.05818322
0.018338025
0.026674405
0.018401338
0.012518742
0.019678721
0.027336793
-0.021024467
-0.031371526
-0.040794227
0.01723834
-0.029716043
-0.023898827
0.02423049
-0.033454753
-0.021002783
-0.02047471
-0.015914734
-0.025742734
0.016006183
-0.045033652
-0.02737933
0.012605704
-0.020749908
0.021668449
-0.00960184
-0.01076014
-0.0028927661
-0.008434009
0.017946633
-0.039196715
0.0017292087
0.0019038708
0.032633685
0.018822096
0.023701526
-0.0071184263
0.02746796
0.004446041
0.027445143
0.040482976
0.016674943
-0.024779107
-0.0042923437
0.005008607
-0.01976323
0.044397146
-0.012341031
-0.024436986
0.002619428
0.000929864
0.035937503
0.0099941855
-0.026385846
0.032072667
-0.00062565564
-0.004948737
0.02504749
-0.025448652
0.015031091
-0.0056160646
-0.012770994
-0.021540554
-0.00026589702
0.022526368
-0.008500793
-0.024977641
-0.013081875
0.014534877
0.02763814
-0.03395859
0.024893617
0.035126008
-0.05333239
0.0030360715
0.0097343605
0.027101088
-0.010154597
-0.0016494675
-0.0052241944
0.024407817
0.013391641
0.00036789224
0.026210386
0.0282306
0.0058219875
-0.023524309
-0.033670407
0.0074525215
0.029313631
0.008806574
0.023720609
0.004021949
-0.025500935
-0.010559677
-0.012419531
0.014478966
-0.024533002
0.014651792
0.03918092
-0.020213842
-0.023708878
0.018420774
0.05393989
0.043244626
-0.016843667
0.013761902
0.004966192
0.008412734
-0.035875324
-0.020818947
-0.024630845
0.029251507
-0.03178555
0.01317999
0.0061937743
-0.02243966
-0.042170852
0.0062813093
-0.042415988
-0.0047063855
-0.012383417
-0.01743892
0.026899157
-0.0052240407
-0.032469485
0.02136438
0.013598327
-0.020244407
-0.0017151956
0.0342691
-0.010729722
-0.048335254
-0.0063372375
-0.031931598
0.005640609
-0.039511353
0.0075025116
-0.052487474
-0.019311748
-0.026381992
-0.03889633
0.028194297
0.04640911
-0.003365547
-0.0046731075
-0.020891864
0.040786516
-0.026841866
0.0063237455
-0.038917843
-0.007862941
-0.028944805
0.0023549653
-0.017023876
-0.010561796
0.010039506
-0.06503162
0.023008933
-0.01215774
0.03594722
-0.0067097936
0.023978738
0.023025222
0.01926926
-0.018529244
0.015949786
0.01986149
0.025499625
-0.008670445
0.027040953
-0.007805384
-0.02521603
-0.0024894343
0.009211605
0.05580223
0.032464925
0.0066379784
-0.014251972
-0.011252794
0.00014279304
0.0019002523
0.058430348
-0.007136925
0.0022675062
0.0006071559
0.03747302
-0.0290691
-0.0409424
0.030457774
-0.0016177829
-0.05047238
-0.026589638
-0.0025763768
0.01906
-0.022732299
-0.01560171
0.010347684
-0.021285849
0.008806052
0.008270255
0.0066938074
-0.02197729
-0.012646568
0.0040299543
0.003190222
0.04933473
-0.028545033
-0.059236225
0.022993583
0.020465087
0.007655924
-0.020002177
-0.005417531
0.0040753293
0.013724631
0.017779067
-0.0066556344
0.035736687
0.027027063
0.005971183
0.0011507719
0.0017337112
0.0309139
0.024324367
0.0072254757
0.021223236
-0.012031648
-0.019951217
0.016696256
0.010363485
0.023442348
0.013377681
0.02042149
-0.000876101
0.04079527
-0.0043155155
-0.011614911
-0.020255372
-0.035955913
0.020779693
-0.025583142
0.031958845
0.03718274
0.022946943
-0.001775095
-0.0070185577
-0.037196722
0.03295763
0.016524682
-0.010065843
-0.015798638
0.020104626
0.002622986
0.02186297
-0.0059522097
-0.013543754
0.0024332253
0.030633042
-0.011241747
-0.016780872
0.023687197
-0.009924205
-0.022095183
-0.030355517
0.02576063
-0.033787355
-0.0049351207
-0.0034863667
0.037882823
-0.042438116
-0.031380624
0.03622828
-0.0012304471
0.0053207986
0.011226238
-0.045027476
0.016003896
0.006120957
-0.01161869
-0.064287156
-0.021101026
-0.042240195
-0.023173649
-0.0010393435
0.014487765
0.005328645
0.0090150945
0.018396491
-0.032680955
0.019452726
0.004965809
0.0063663516
0.015390149
0.0040025087
-0.00051550945
-0.010227087
-0.0100295525
0.033835232
0.0013646216
0.009710098
0.01019665
0.003262816
-0.01670716
-0.021278394
0.002359447
0.0021596034
0.0069015897
0.0057996027
-0.014120779
0.0019259108
0.019118872
0.01010453
-0.012962737
-0.015915705
-0.008441923
-0.0012506859
-0.0027481702
0.044628926
-0.043877155
-0.009823968
-0.005873807
0.04104338
0.039659422
0.019226713
-0.031724893
0.0030166528
-0.043787688
0.01281156
0.04166567
-0.008584841
-0.018845048
-0.0065110256
0.01609765
-0.025769543
0.03664596
0.008950077
0.025749205
0.006031016
0.033074673
-0.0012620675
-0.016180664
0.020698829
0.0058891196
0.0027076062
0.015018758
-0.0032977776
0.014325218
-0.019559033
0.020547261
0.016139701
0.013445128
0.018646784
-0.018573608
0.022722568
-0.0066121356
0.04038466
0.03690031
0.029205307
0.020586884
-0.018498302
0.017774329
0.031475227
0.009567257
-0.0038837595
0.036196753
-0.013492264
-0.00011656302
0.006687662
0.013272907
0.019519731
0.012784665
-0.022901108
-0.050828576
0.009007415
0.050416257
-0.0020112805
0.00028120694
-0.0023650841
0.007083905
0.015859867
0.0016279335
0.006471832
-0.039110754
-0.026923938
-0.019523185
0.020446084
0.006887746
-0.017578194
0.0003259255
0.024185086
-0.014858525
0.029523136
-0.0072212713
-0.011552194
0.01916062
-0.015823964
0.03973007
0.0026102215
-0.0009492606
0.009576123
-0.028383639
-0.026514886
-0.002132684
0.0119989915
-0.023864863
0.009901067
0.009037866
-0.03438949
-0.010605239
0.06682618
0.0057155914
-0.029458364
0.028907282
-0.029191362
0.038112443
-0.03217563
0.01762637
-0.029060077
-0.0101209
-0.0055085635
0.023150027
-0.039363526
-0.0064041987
0.005201098
-0.00089924684
-0.022243807
0.010300699
-0.013007746
-0.015578077
0.03790893
-0.023234578
-0.012513669
-0.00095377665
-0.00031847108
0.00092584995
0.014677477
0.04106725
-0.02813068
-0.020520814
-0.04188498
-0.029397583
0.029287893
-0.02684894
-0.008128093
-0.020350892
0.005994319
0.009918299
-0.016442358
-0.03189383
0.005975201
0.029202603
0.008438615
0.018758768
-0.026212348
0.0077979607
-0.021472912
-0.006553488
-0.007679345
0.019556765
0.02229537
0.027646957
-0.030080104
0.018305816
0.044852916
-0.009240174
-0.008055674
-0.012132392
-0.0108843995
-0.010607962
-0.019869093
-0.0054657706
0.0005041674
0.005879984
0.0033770853
0.033779424
0.022648241
0.04914055
-0.015767852
-0.0026454243
-0.0029641183
-0.04415761
0.024365984
0.031699084
-0.006969624
0.006994002
0.005215544
0.0001736184
-0.035466135
-0.023698807
-0.01085398
-0.048440088
-0.02656855
0.019560553
0.007768566
0.05155288
0.0048961528
-0.031866927
0.02464099
-0.021330817
-0.00032811097
0.023253387
-0.022515105
-0.037501458
0.01969507
0.017858518
-0.024701806
0.008987797
0.020819945
0.017734814
0.015538861
-0.026577886
0.026574802
0.035026267
0.032920256
-0.02496166
0.012090065
-0.02190569
0.029048897
-0.023931606
0.023383664
0.011296121
0.017139439
0.012935569
-0.0020444538
-0.017616156
-0.008418268
0.01048777
-0.008686039
0.025090186
-0.002858327
0.01928368
0.057675116
0.016117448
-0.027930928
0.027366303
0.009997884
-0.0180976
-0.004710522
-0.026593268
0.017455215
0.02849318
-0.010065075
-0.02169368
0.028957592
-0.03296875
0.044941816
0.017873501
-0.0070345644
0.029351173
-0.001413647
-0.009900513
-0.026006237
0.007756309
0.0069657825
-0.046684634
-0.042780213
0.036005344
-0.04327873
0.0010771014
-0.005843775
0.06494259
0.0037866654
0.038641494
0.0054488652
0.013748692
-0.02775219
0.036635045
0.022172121
0.02422805
-0.03142694
0.0015924365
-0.024765236
0.006319436
0.010597542
-0.011066649
-0.036128704
0.015994929
0.023497498
0.01446725
-0.020510647
0.052006003
-0.0017383604
0.004543935
0.018495329
0.02948139
0.012395709
-0.0010035752
-0.0016871493
0.012422737
0.034934722
-0.02679351
0.017355738
-0.023116438
0.024551753
0.023657098
-0.019600486
-0.042957712
0.027479662
0.005750626
-0.02301697
-0.056373533
-0.019560535
0.026320955
-0.035584986
-0.014226387
0.00089580443
-0.003805099
-0.00783292
-0.0044056824
-0.016217306
0.014418176
0.0043359213
0.013030647
-0.013414721
-0.030309206
-0.01749295
0.00068385404
-0.0048701293
-0.018464496
0.0158943
-0.01460422
0.031445608
-0.010333982
-0.03336005
0.0246034
-0.007925292
0.022383556
0.03218331
-0.0002628484
-0.014167769
-0.0017229139
0.014675746
0.0072349748
0.012728613
-0.053474177
0.040015925
0.019657675
-0.003664315
-0.009938756
0.027565515
0.0022853937
0.034854412
0.01956421
-0.008198454
0.0032555254
0.020605199
0.017169613
0.019398965
-0.038593326
-0.024542699
0.010897152
0.0116336085
0.007553343
-0.0126966415
-0.03144223
0.01570747
0.024090013
-0.008933628
0.012486571
0.03174822
-0.008315233
-0.007695734
-0.02852805
-0.0064547965
0.019590488
0.0018890785
0.015424373
0.025226545
0.011078059
-0.016740164
0.0021030584
-0.0014693508
0.03466493
-0.009190409
-0.010223182
-0.020187479
-0.023148123
-0.002290941
-0.0057847183
-0.02483281
0.022632329
-0.017125389
0.028198225
-0.025572913
0.021575755
0.014037717
-0.008924278
0.022172382
0.002839515
0.021360274
-0.00043598804
0.034039572
-0.02341071
0.015846433
-0.0039002707
-0.017319432
0.01537909
0.039893992
-0.002259524
-0.037709925
-0.004269797
0.016323017
-0.012189891
0.017856155
-0.0076841004
0.0015203424
0.012124506
0.0006397102
-0.037615664
-0.020461429
-0.0024657282
-0.02643887
0.025971297
-0.021248613
-0.01709
0.01706086
-0.01021498
0.012530971
0.009167866
-0.02728655
-0.015701514
0.038630925
-0.021355903
-0.013276566
-0.008630007
0.034773048
-0.02674432
0.025087703
0.019200401
-0.0060212966
-0.027813803
0.030967375
-0.0156944
-0.003087257
0.02663288
0.022367345
0.0132938
0.022669652
0.034527235
-0.009111919
0.0015878923
-0.019429827
0.0041763773
0.014198172
-0.003815072
0.013493834
-0.0021474436
-0.014812965
-0.0080356505
0.009238599
-0.018042084
0.025060058
-0.007563333
-0.047311034
-0.040159296
0.034422778
0.0070435996
0.011183202
-0.017048452
0.018069105
0.030567987
-0.0435371
0.02641578
0.0028825672
0.024695348
0.009900096
-0.0154464785
-0.0121931415
-0.041266587
0.038614716
0.038565766
0.03325486
-0.028892757
0.00028845412
-0.0029132108
8.0795726e-05
-0.023839433
0.011303756
0.015712146
0.011911655
0.03861013
-0.008671856
-0.001169047
-0.005667747
0.0074589956
0.03224891
-0.03518254
0.04816097
0.022852067
-0.014249535
0.00035449458
-0.0016259238
0.018057348
-0.005325407
0.02409734
0.012876517
-0.008106367
0.009889564
-0.021390341
0.015070498
0.018837506
0.040905338
-0.0038741091
-0.042408023
-0.02578107
0.05020234
0.052325282
0.018748628
-0.005514943
-0.024984613
-0.032680497
0.015981097
-0.037580006
0.02474276
-0.025845021
-0.0058279308
0.00037879864
-0.011318886
0.02358775
-0.030829463
-0.0106182415
0.026218448
-0.030375622
0.021551903
-0.013882437
-0.022228915
0.008549177
-0.019144986
-0.0023496677
-0.03601704
-0.015972484
-0.004765107
-0.057592303
-0.0070635295
0.027541028
-0.021246133
-0.033256713
-0.007968678
-0.0011968983
0.0012661949
-0.03751827
-0.033736303
-0.0050870827
-0.0068872347
-0.015950302
-0.0022143507
0.030479694
-0.062259704
-0.0006624874
-0.015503559
-0.025945442
-0.030267432
-0.02979049
0.019008176
-0.025145657
-0.015986959
0.034478936
0.0055510406
-0.03028192
0.0060914066
-0.022153243
-0.005934989
-0.024723914
-0.04525968
0.0041567245
0.0040624114
-0.04271905
0.03054652
-0.040403694
-0.00020217939
-0.021939022
0.037144657
-0.048344042
0.015545189
0.013558156
-0.011143428
0.007505369
-0.024468351
-0.040911224
0.024217518
-0.03441323
0.011030921
-0.019699367
-0.019401496
-0.026639085
-0.020172508
0.030323286
-0.012721109
-0.023620721
0.005677355
-0.02514593
0.014037872
-0.034160826
0.027154537
0.016911648
-0.005849048
0.041185234
0.02331902
-0.02266237
-0.022533564
0.0016150001
-0.027469996
0.012077499
0.0038086886
0.006748566
-0.013848391
0.022312086
-0.03788728
0.0055717905
-0.030602446
0.012027565
-0.008801743
0.033263408
0.0066782655
-0.013203613
-0.005682111
0.012572165
-0.0062307054
0.010910592
0.01182511
0.010080203
-0.010316936
-0.01826866
-0.0195246
-0.020624558
0.02027242
0.02029386
-0.008721472
-0.025701618
0.0047232523
-0.003313029
-0.015973037
0.030346246
-0.020146528
-0.013695456
0.008935164
-0.025582938
0.018143238
-0.0079953
-0.029116338
0.013971533
0.009944784
0.01767158
-0.018595636
0.027930481
-0.003453788
-0.039285928
-0.033123806
0.0399394
-0.004011342
0.0079470435
0.012644451
-0.018845342
0.003338597
0.024187043
-0.0099967765
-0.038107894
0.0067059617
0.03623369
-0.02388935
-0.031837683
0.020902008
-0.031050628
-0.00019831784
0.04626613
0.019090759
0.011742716
0.019588057
0.009004517
-0.01809884
-0.032202456
0.032399718
0.0059783976
-0.00754407
0.0066150953
0.037775874
0.021251047
-0.009816925
0.014601553
0.031570777
0.024287615
0.032204177
-0.017814573
0.03599133
-0.01942911
0.0024988104
0.005017003
-0.02677941
0.00040941624
-0.046631668
-0.020141175
0.030123971
-0.026859589
-0.030621149
0.00017357312
-0.005787181
-0.012133326
-0.023251615
-0.021281246
-0.023655092
0.015686331
0.025350949
-0.020237848
-0.012207067
-0.035035715
0.01438347
0.0031355706
0.03431214
-0.007935874
0.002013371
0.057591345
-0.03513052
-0.03131082
0.021760013
-0.0040484294
0.009301426
-0.0026422166
0.0045702853
-0.02740798
-0.009780149
0.0045466824
-0.04236914
-0.044684038
0.015840894
0.009473486
0.009319446
0.0063855858
0.024155386
0.03277674
0.01617802
-0.0019016374
-0.047746945
0.028305143
-0.020730821
-0.0098966835
-0.01372628
0.027436456
0.007876671
0.020976335
-0.029885184
-0.016850691
0.014249169
-0.031067638
0.029798254
0.0044561434
-0.03453979
0.0043989923
0.0031911784
0.0017683597
0.023461036
-0.017741632
-0.019683601
-0.010543367
0.006785004
0.0066742613
0.028449357
0.025407026
0.022129226
-0.0032276602
0.025214784
-0.014714524
-0.025617223
0.012090066
-0.011067953
-0.013631331
-0.012056516
-0.022122016
0.020992935
-0.010344301
-0.046210885
-0.0077113616
0.004375499
0.03432895
-0.01584843
0.00071805913
-0.037182856
0.027607203
0.024594977
0.011536131
-0.018639755
1.8214094e-05
0.031798366
0.033300973
-0.007627119
0.018038884
0.0004356536
-0.014104138
-0.023957111
0.02428474
-0.02416466
0.028888008
-0.036402073
-0.011437423
-0.014349699
-0.026674919
0.016494669
0.0021353995
0.021208616
-0.003896622
0.0013974501
0.014741936
-0.0021566616
0.032534532
-0.016792472
-0.016666664
-0.006824129
0.022435714
-0.03547185
-0.018391022
0.02581309
-0.058139745
0.032082275
-0.02187599
-0.016056515
0.0018815526
0.0020157662
0.008588203
0.034752667
0.0065417364
-0.011567848
-0.051507734
-0.005608453
-0.025146661
-0.05504106
0.010591093
-0.021859538
0.047754426
-0.020330066
-0.011251283
0.03236802
0.011196947
0.03500196
-0.018333515
-0.0014488036
-0.022226302
-0.010327687
-0.030841306
0.029865537
0.025844056
0.00020520741
-0.03754685
-0.007506863
-0.020410778
0.009097132
-0.022891825
0.03069207
0.006297579
-0.014782312
0.01737595
-0.0065576443
0.007899458
-0.036485285
0.0041832705
0.010724113
-0.0004620088
0.008448179
-0.04172525
-0.022206465
-0.045167994
0.011425742
0.018039541
-0.023362398
-0.0097526135
0.030473048
-0.037880216
0.017764827
0.005708334
0.031071782
0.011994275
-0.013372984
0.0047395215
-0.013192187
-0.0020402267
-0.031388525
0.019055482
-0.019774344
0.0015665387
0.038664974
0.017923862
0.004100759
-0.01903984
0.0069699893
-0.028396558
0.03130347
0.012591412
-0.015801404
0.022109034
0.0010735765
-0.0037178744
-0.010715294
-0.012056731
0.004472859
0.0050814073
-0.04636209
0.007384155
-0.0021404808
-0.0032227638
0.0077005294
0.0024532138
0.03620708
0.047008276
0.0040691253
0.013661257
-0.023555089
-0.0047512054
0.041831575
0.013784935
-0.017631168
-0.048310824
0.025209354
0.005582974
0.0163835
0.0035089676
0.020858057
0.0012206944
-0.02105113
-0.009181579
0.024448827
-0.0027025621
0.0023601498
-0.022737568
0.008223295
-0.021440215
-0.055553373
0.0035935724
-0.056807462
-0.0028024456
-0.004136586
0.021536715
-0.025780916
0.0032373562
-0.033082105
-0.018852977
0.0014998754
-0.027783277
0.034422323
-0.0046663866
0.049654603
0.027424915
-0.020782568
0.044260632
-0.025332337
-0.016830701
0.015555812
-0.009434636
-0.040840697
-0.029086277
0.01612963
-0.008045478
0.005404952
0.03206867
-0.025361188
0.024311492
0.013833951
-0.029492872
0.0023053365
0.019333826
0.0016680328
0.0005844252
-0.030429438
0.0043784403
-0.0158965
-0.0019081081
-0.0027394977
0.019672433
0.0039621186
0.021843525
0.017349115
0.029480565
-0.007303442
0.016496558
-0.00017015234
0.03838381
-0.0033790725
-0.006180374
-0.02372816
-0.00010796983
-0.02696847
0.015899403
0.029564084
-0.005445589
0.007998767
-0.004360757
-0.016001675
0.02287338
-0.014108334
-0.006741899
-0.003347645
-0.009216843
0.00030798223
-0.011524863
-0.021242369
-0.002021756
-0.014522335
0.015407148
0.000933258
-0.0071521928
-0.0062829675
-0.02785385
-0.00865524
0.012376657
0.011011407
-0.011311156
-0.01430545
-0.012185536
0.011378309
0.016987346
-0.022259563
-0.019509716
-0.0021310353
-0.005312827
-0.007566339
-0.0133060515
0.013706643
-0.0124822315
0.015452275
-0.01422359
0.008244066
0.040516306
-0.00037873813
0.010884907
0.02278144
0.017324846
-0.034471832
-0.024369163
0.011506811
-0.0025808741
0.013389642
-0.0452751
-0.0060112895
-0.025444299
-0.0051677907
-0.017247112
-0.004087829
-0.03811683
0.018179262
0.0045530153
-0.0046713715
-0.014322829
-0.0071791015
0.025073169
-0.0017700271
0.004857151
0.0035852434
0.003371717
-0.0077167214
0.010791409
-0.011539674
-0.028030757
0.00510195
-0.010291492
0.0044049216
0.03137282
0.006854697
0.00026072125
-0.022018727
0.027318707
0.0031616357
-0.017312132
0.010978768
0.040243246
-0.018651295
0.006025221
0.0038803774
0.049149875
0.0072001363
0.022554226
-0.015670363
0.013673911
-0.00720127
0.018180842
-0.0007873631
0.0114193205
0.024349933
-0.0037904154
-0.0064079138
0.027875949
-0.018331137
-0.01846684
-0.0047117346
0.033537235
-0.017316794
9.6092635e-06
-0.010967062
-0.02596373
-0.022726668
-0.01181432
-0.02456526
-0.01478836
0.019209094
0.0049205674
-0.007140993
-0.004227961
0.0094506135
-0.027755817
-0.008563458
-0.022465536
-0.037659902
0.008204886
-0.00036015428
-0.017051462
-0.011984794
-0.019748703
0.017299026
0.012304379
-0.037146993
0.0013410803
-0.0047564427
-0.010173113
0.008347592
-0.020429313
-0.0018945896
-0.012266231
-0.023625014
-0.034974027
-0.012763383
0.002532124
-0.0040700487
0.029378992
0.013538361
-0.00891962
-0.013826738
0.0090113515
0.00013776196
-0.00808147
0.009083551
0.041422922
0.028001705
-0.009425823
-0.018954713
-0.011215074
0.031179005
0.016633607
0.023501838
-0.015498763
-0.009897346
-0.04463265
-0.0019132841
0.020754991
-0.015128245
0.037646063
0.028290905
0.009814966
-0.012755787
0.039220463
0.047092818
0.031021383
-0.0103946645
0.028294113
-0.010316291
-0.005419147
0.01557773
0.018595263
-0.027880456
-0.00646989
-0.014382708
0.009906129
-0.037102427
0.008186502
-0.012183199
0.01986958
0.03347719
-0.023828084
0.003396367
0.023052739
0.007158185
-0.004705631
-0.024454845
-0.006798509
-0.017839761
-0.023980297
0.005683615
-0.015652023
0.041105226
-0.015412122
-0.033504736
-0.03439951
0.013735669
0.020712111
-0.037763648
0.029959152
-0.002615045
0.04453181
0.0066677933
0.0022694243
0.0019795795
-0.013043847
-0.027291356
0.027081234
0.021083381
-0.011500861
-0.011471761
0.018466622
-0.017790206
0.004158397
0.028401462
-0.0046397597
-0.009266317
-0.06258879
-0.002764947
0.014549589
0.041880548
-0.0072252406
0.00059682067
-0.029743219
-0.00046637023
-0.040295374
0.019724006
0.0376143
0.013490528
0.010689538
0.043737628
0.020831104
0.0131368255
0.001990197
0.010982887
-0.023129065
-0.030403245
-0.051491965
0.005431803
-0.03919296
-0.03606075
0.013943232
0.04870428
0.014443304
0.019627968
0.017181687
-0.027429225
0.01886608
-0.0046638604
0.00048588635
0.005393308
0.01029868
-0.004570192
-0.0022573678
-0.027377697
-0.016856933
-0.036742672
0.0010352979
-0.0012049692
0.02572677
-0.008366503
0.0062218104
-0.024041511
-0.014656874
0.0108367745
0.0047074063
-0.024809213
-0.014058457
-0.017915351
-0.00663419
0.015215143
-0.012668315
0.0013812331
-0.022679873
-0.0101176575
-0.016880825
0.025849925
0.027070694
-0.0062748874
-0.008678271
-0.014282863
-0.0327119
-0.0144781545
-0.0117332665
0.025852563
0.010328055
-0.009678873
0.034672324
0.00199656
-0.0045970124
-0.010181326
0.0076816157
0.029121023
-0.007989141
0.00827808
-0.010331988
0.036538288
-0.00030045505
-0.022925427
-0.017175388
-0.032979764
-0.02033236
0.027937748
-0.00042476956
-0.021897297
0.023020776
-0.002859188
0.020280689
0.006482633
-0.007060763
0.0005652875
-0.0058874465
0.003110479
0.022946911
0.0065148785
0.015559938
-0.026669411
0.009319554
0.014060927
0.011227835
0.010823279
0.00041917537
0.0063650054
-0.020751053
0.008283034
-0.013199459
-0.04209637
-0.022372993
0.00053377205
-0.004310057
-0.02609311
-0.014184928
-0.012414104
0.014202833
0.0011595018
-0.015987216
0.005031697
-0.033508684
-0.010700872
-0.0060806167
-0.020856807
0.016727332
-0.03069878
0.021779831
0.0024053596
0.0037038065
0.024086881
-0.0087996675
0.030179454
0.00020175164
-0.019787738
-0.014560107
-0.017119253
-0.040778264
-0.011874165
-0.0049160696
-0.0054258523
0.0026440937
0.011966929
0.029057173
-0.017052196
-0.014791281
0.01939042
-0.014588314
0.01774255
-0.018375346
-0.003466676
0.039909128
-0.02974531
0.008948967
0.013534152
0.024363419
-0.005613198
0.024697762
-0.024288625
0.0106751565
-0.0143286
0.015113732
0.0016538482
0.03851989
-0.016881172
-0.0005711503
0.016828422
0.02109916
0.02876651
0.014308369
0.03874184
0.011215059
-0.024634568
-0.030640153
0.009672643
-0.005360305
0.014472444
0.019949127
-0.00432744
-0.02131665
-0.0077529503
-0.0095041925
-0.013932234
-0.013757971
-0.013789739
0.013480875
0.018389542
0.0017652499
-0.020304052
0.003826406
-0.03225527
-0.015615871
-0.025278307
-0.009637103
0.009681572
-0.03253984
0.0031683214
0.021944564
-0.015530331
0.014085411
-0.009117675
-0.011140618
0.026735542
-0.017850436
0.011283658
-0.03834871
0.016011216
0.01342262
-0.016023662
0.020517886
-0.024849629
0.021603731
-0.008358043
0.017409706
0.040054426
0.008294124
0.02306949
-0.0014538276
0.013736581
0.0041125445
0.0151816765
-0.017929778
-0.0055682347
0.049817607
-0.0037641663
0.0072457474
-0.019917315
0.042091325
-0.027552126
-0.025004895
0.022991741
0.017404161
0.032444734
-0.03182602
-0.02525787
-0.022636339
-0.011498105
-0.009245061
0.017488798
0.012829448
-0.018291783
-0.023495322
-0.048352312
0.01914596
-0.0010354723
-0.024050845
0.028271254
0.02086261
-0.042301685
-0.023337318
-0.017622588
-0.011841217
-0.018165944
-0.019474085
0.03946326
0.012276072
0.04398469
0.031524237
-0.028927606
0.010580605
0.0018495523
-0.0068895114
0.01401253
0.0073509607
-0.045248367
0.025378663
-0.023674376
0.010614681
0.020717299
0.0062052803
0.0049929996
0.023040643
-0.0019611411
-0.036557324
-0.010418581
-0.023217233
-0.024955785
0.033822224
-0.033406947
-0.0061359606
-0.046427403
0.011532735
0.0024698104
0.00488396
0.014298591
-0.011829996
-0.0013781651
-0.024358138
-0.046340447
0.026513522
0.0041145706
-0.03556534
-0.013055906
0.034973152
-0.010259491
-0.0009914965
0.012412332
-0.026314331
-0.0042802123
-0.011866651
-0.004767571
-0.0133836
-0.004785082
-0.013207154
-0.0007106306
-0.042423856
0.011385572
-0.027909275
-0.013722102
0.005816148
-0.004991023
-0.019434579
0.020867212
0.028435541
0.018770248
0.036499772
0.0007427759
-0.024566641
0.026220987
0.013236559
0.005613969
0.003635212
0.007610804
-0.0011466118
0.013396276
-0.024988987
0.014425003
-0.015468961
0.031506337
0.0029075434
0.016531626
-0.023065774
0.012835158
0.028975202
-0.016082164
0.015009164
0.012143866
0.008556743
0.026456648
-0.0302419
0.04149253
-0.01534521
-0.0069405837
0.01842845
0.0009578605
-0.0057897796
0.003423234
0.012517315
0.020630717
-0.0011389581
0.013533918
0.019275852
-0.014574056
-0.01118742
-0.011713765
0.008394578
-0.00063127646
0.02896335
0.0405038
0.012307354
-0.02878644
-0.010218001
0.0049269088
0.026504967
0.007927521
-0.016307697
-0.018744651
-0.010153544
-0.023966413
0.015255063
0.018014994
0.02991656
-0.0044030068
-0.029816946
-0.021934217
0.036503818
0.012139251
-0.0075319586
-0.017607747
0.0075591644
-0.00061219203
-0.021340303
0.010831544
-0.01839647
0.013864992
0.009287885
0.017211752
0.000108038075
0.0128023075
0.013683121
-0.00043773552
-0.033239834
-0.03361461
-0.01482748
-0.015722347
0.007567843
0.022115832
-0.027347514
0.02590181
0.005101869
0.026126744
-0.024112985
0.003936941
0.0026091305
0.008609003
0.019831987
0.034724437
-0.020148795
-0.02010334
-0.0019392492
-0.022580381
-0.028336883
0.038012236
-0.03495585
-0.014692325
-0.012517121
0.005113976
0.011502835
0.015359351
-0.022210304
0.0005801683
-0.030440751
-0.008040364
0.0153842
0.04973605
-0.02563165
-0.024646772
0.0107982075
0.046299264
0.027459996
0.023202073
0.009769601
0.0043146256
0.012235602
0.008779596
0.015146102
-0.010738044
0.010343739
0.011893669
-0.0096651465
-0.004675875
0.03683979
-0.0019404313
0.03309336
0.023263589
-0.01858612
0.004245016
0.010143075
-0.009597738
0.0109425
-0.008322699
-0.00987653
0.010695312
-0.040975045
0.015840575
-0.030151073
-0.03154961
0.007716248
0.021005763
-0.027806364
0.023301363
-0.0020176992
-0.0071812333
-0.035766266
-0.002103842
-0.00058483577
-0.032719895
-0.0006217951
-0.014271867
0.0008939221
0.010899816
0.010668328
0.0054519647
-0.01676258
0.022453425
0.014365528
0.032052252
-0.008745355
-0.028579652
0.005721049
0.025263721
0.0126108555
0.009650903
0.022689622
-0.018710615
0.007912978
-0.05692517
-0.019872004
-0.036645368
0.0008051086
0.01645033
-0.00213019
0.020415215
-0.02352133
0.008962848
0.012208657
-0.036819357
0.030104138
-0.0028135926
-0.02685163
-0.015248832
0.018067362
0.012930666
-0.0016116907
0.027694538
-0.036300804
-0.01399736
0.00087894115
-0.0009607251
0.055525906
0.0077481046
-0.03980773
-0.040027864
-0.02989785
0.007916291
-0.0041712318
-0.015508851
-0.024081161
-0.01788592
-0.03904692
-0.009596648
0.011632704
-0.018258605
0.0016676147
-0.026709156
-0.019012012
-0.023101944
0.022154402
0.023836492
-0.007635523
0.03536651
-0.01053934
0.04663261
0.03726694
-0.024228241
0.015994841
-0.02537621
-0.024628129
0.0332578
0.034596696
0.016107125
0.0036932542
-0.015358834
0.029655688
-0.0033443337
-0.0025359057
0.0067167417
-0.0309866
-0.022104412
0.0040273415
-0.017186245
-0.0057325377
0.026559377
-0.023059316
-0.028311335
0.015294562
0.007279568
0.01056009
0.020497143
-0.00975867
-0.036788207
-0.021855224
-0.033994783
-0.009829492
-0.0030966804
-0.049056746
-0.0077600344
-0.029442104
0.03550397
-0.008665431
-0.009078818
0.009349657
-0.0026786171
-0.028565355
0.0057129087
-0.006871246
-0.006407544
-0.026027907
-0.030016745
-0.024551928
0.02900675
-0.0061713657
-0.010839518
0.03803086
-0.0038488337
-0.013134639
0.00047035818
-0.027223347
0.020828603
0.0041339686
0.024330234
-0.0045249285
0.032365844
-0.005306842
0.0139519265
0.025591714
0.001402381
-0.023502292
-0.0022353486
-0.027130572
0.023741746
0.009097973
-0.0067708464
-0.0058929897
-0.02792036
0.041165322
0.02794836
0.019943794
-0.0076704267
0.016226806
-0.016935594
-0.033513516
-0.012615734
0.037414543
0.012202695
0.013968896
0.0045058783
0.020651676
-0.03778428
0.019122489
-0.0064701983
-0.019487796
-0.0192543
0.0027138416
0.05854272
0.0020485905
-0.02580575
-0.047091365
0.038288444
0.014041552
0.025281847
-0.01993467
-0.0473607
0.03782984
0.022921115
0.0042907423
-0.014518451
0.0007345119
0.026094379
0.015247798
0.022991149
0.013889784
-0.038721647
0.0017099595
-0.0021287522
-0.025936242
0.029866504
-0.010079534
-0.007124406
0.0063231084
-0.0015584461
0.025250945
0.001413518
-0.052088648
0.013459796
-0.017400073
-0.0013602849
0.005327542
-0.011301527
0.031808224
-2.7905178e-05
0.008607833
-0.013530114
0.047681857
-0.0040525864
0.030755036
0.03419767
-0.019704036
-0.02346545
0.003303296
-0.016768644
-0.01437456
0.016405642
-0.00605456
-0.0108959675
0.011741289
-0.0128163
0.007822095
0.009878445
-0.00076017866
0.008511836
0.012130542
0.0093541825
-0.0050321757
0.042749852
0.03479408
-2.9917053e-05
-0.026607547
0.017514462
-0.038742814
0.0044449843
-0.026328485
0.00073632493
0.014702744
0.0025713164
-0.015992407
0.018522996
-0.022441521
0.020751508
-0.033487443
0.00531019
-0.028502326
-0.010226754
-0.04081473
-0.017800499
0.021386636
0.029196559
0.02299665
-0.0066221366
-0.0004467917
0.01799679
0.018175066
-0.026909636
0.018398713
-0.002909048
-0.015947958
0.037260383
0.00348528
0.022425024
-0.015040689
0.0075974604
0.007565957
-0.013477516
7.7698875e-05
0.0036190234
0.022236254
0.039006885
-0.05320491
-0.003775231
-0.02074463
0.025948394
-0.017304132
-0.01669392
-0.02703815
-0.049219042
-0.017459031
-0.034153063
0.03246149
-0.006401265
-0.002864575
-0.01048565
0.027343426
-0.013155644
0.008122242
0.0068720696
0.011060102
0.0281533
0.006532178
-0.006782858
0.000225493
-0.0021516413
0.009712164
-0.02748822
0.036595587
-0.04157021
0.021806436
-0.009988863
0.016926046
-0.05381232
0.01439573
-0.02408099
-0.008913239
-0.019316908
-0.038896758
-0.03786279
0.0039774664
0.017725315
0.03698448
-0.037122406
0.005426197
-0.027563576
0.045273736
-0.038432766
-0.016617391
0.022712363
-0.039289366
0.0028932467
-0.047810826
0.012018497
-0.063092925
-0.03382541
0.0017181708
-0.03729716
0.046550967
-0.013214008
-0.004306693
-0.0018829501
-0.035683624
0.026094355
-0.031082874
0.011253753
0.0022667958
0.04178986
-0.047501102
-0.0016426296
0.0033621832
-0.016190633
0.014958822
0.0390266
0.0046064556
-0.014340399
-0.010539115
-0.020546954
-0.002995212
-0.0047946796
-0.018596452
-0.0047692116
-0.005874909
-0.010008288
-0.041149892
0.038825836
-0.023450566
-0.025280274
0.013639163
-0.003935968
0.020323241
0.013982308
0.02293169
-0.00069396757
0.037132893
0.019383762
0.030997513
0.047700327
0.022511153
-0.0051674354
0.0227418
-0.03238879
0.013358847
0.010927813
-0.013338966
0.051121738
0.0039030057
-0.0345086
-0.03493138
0.01989767
-0.02072285
-0.0120264115
-0.017571783
-0.029777613
-0.036494736
0.017086849
0.004510483
-0.032144587
0.00497161
0.038024798
-0.033801123
0.047657307
-0.00056469464
0.017933484
0.020985372
-0.018658558
-0.004717215
-0.023062699
-0.011553637
-0.018150775
-0.015276751
0.0019592412
0.03162562
-0.002666398
-0.011611823
0.019177826
-0.01286992
0.007234116
-0.010648494
0.0038370711
-0.018903092
0.0020647817
0.023395535
0.009975048
0.033755686
0.024580725
-0.020453366
0.027250212
-0.014259021
0.023143103
0.023037175
0.031483702
0.00922773
-0.02658591
0.006963472
0.02025531
0.034118585
0.042932317
0.035975296
-0.008567274
0.020303387
0.013770614
-0.037954334
0.0011948381
0.029026391
-0.013394287
0.0040067276
0.02032825
0.020568399
-0.02326597
-0.007836903
0.04842435
0.013187596
-0.034405142
-0.028853623
0.025947759
-0.0036705968
-0.011933165
0.03293726
-0.0410152
0.0056647668
-0.039426222
0.016210474
0.0024967247
0.02015972
-0.020166269
-0.010938514
0.0068131797
-0.0056154453
-0.021976046
0.011768724
-0.0006010439
0.020271353
-0.012790068
0.0026112148
-0.009024408
0.004782895
-0.01514975
-0.006744736
0.010024058
-0.012144632
0.02092761
0.011016874
0.014564663
0.0043281903
0.017500866
-0.032860745
0.0075168926
-0.0066932035
0.0069319317
-0.014809167
-0.02022035
-0.033822794
-0.030691909
-0.029340632
0.03602639
-0.03697947
-0.011067218
0.012986676
-0.026157659
-0.024600971
-0.0030052725
0.010734422
0.0156273
0.0060394746
-0.032497328
-0.04893396
-0.0149061885
-0.051731165
0.00958479
-0.06202332
-0.014382817
-0.0121099865
0.02097573
0.004986908
0.010915723
-0.005301197
0.048173197
0.002531887
0.0017312745
-0.01408621
-0.003535463
0.028611604
-0.04222349
0.00374037
-0.015462093
-0.017757539
0.05380157
0.019414887
0.0045165974
0.0063216407
-0.014927073
0.01209145
0.0014851396
0.0014501207
0.014357524
0.02801944
0.026476184
0.030273862
-0.023187129
-0.008913194
0.025209911
0.00021126281
0.02481808
-0.013007674
0.000875939
0.02423105
0.012074305
0.0076905256
0.021126071
0.022956848
-0.029041803
0.014684346
0.006594028
0.05128683
-0.0287448
0.019955928
-0.053627416
0.01759749
0.03269402
0.017990084
-0.019847406
-0.00075230695
-0.01393031
0.021770107
0.0052911723
0.029509261
-0.00395874
0.04765971
0.00018968016
-0.0071136844
0.0014912462
0.03346426
0.0066357856
0.02346842
-0.00068747014
-0.00034519797
0.012398629
0.0010993993
-0.02854404
0.005041821
0.0032901936
-0.026679141
0.011722675
0.006905955
-0.012292482
0.041269198
-0.002413962
0.035488024
-0.025989993
0.005257742
0.010983458
-0.0014441726
0.032624427
0.02698677
-0.0004357901
0.025468254
0.013801666
0.018195357
-0.034468584
0.02269397
-0.032958098
0.0058123176
-0.027064681
0.030674594
-0.017300196
0.012114913
-0.003893988
-0.008290175
0.007432572
-0.00010243046
0.022483917
0.042196862
0.016022122
-0.01763953
0.009360556
0.025886217
-0.021689758
0.026964787
0.041876685
-0.024628436
-0.016977685
0.0105013475
-0.037445173
0.016791632
0.012363701
-0.008936438
-0.0023374597
0.036781665
-0.0029082259
0.018538488
-0.014239965
-0.036872514
0.016470073
0.017704427
-0.016628271
-0.009650287
-0.0009015658
-0.025569508
0.0074462555
-0.08390958
0.02061562
0.028391685
-0.0018288234
0.004903267
0.012560578
0.046985283
0.062722534
-0.043475814
-0.0161765
0.038139638
0.0140077695
-0.008242035
0.009891216
-0.019755201
0.034380253
0.012372105
0.00075413147
0.025334872
-0.0036046735
-0.032771207
-0.0066529736
-0.007849216
-0.016679138
0.029303538
-0.038594157
0.003575778
-0.019975664
-0.0032893347
0.035630785
0.050664116
-0.03050538
-0.010045529
-0.001103699
0.0057990197
0.0041029966
-0.006272366
-0.0029625804
-0.026736856
-0.044734884
-0.035666723
-0.010684772
-0.014752271
-0.014388383
-0.0118449405
-0.045721855
0.0268795
-0.014462618
0.031712126
0.0019003077
-0.023912992
0.060130022
0.0025762008
0.007044649
-0.030294392
-0.039065458
0.022205345
0.005387793
0.013491871
-0.011226862
0.0011679998
-0.040962238
0.005716163
-0.02727754
0.023601072
0.013134367
0.023484495
0.010852902
0.036215965
-0.014845266
-0.014408441
0.034873098
-0.006599125
-0.020781036
-0.0053638676
-0.016971627
-0.013327958
0.0045240424
0.030981917
0.03243444
-0.0430898
0.01510554
-0.004529708
-0.008104187
0.005045538
0.033051196
0.0060666655
0.02597446
-0.030036436
-0.046356503
-0.010202398
0.005068637
-0.043935597
-0.009791685
0.031029968
-0.01728617
0.0023580908
0.015619491
-0.0075747455
0.020264717
0.053845007
-0.0010088386
-0.03646478
-0.015702812
0.008182528
0.013041684
-0.0028526108
0.0022957097
0.02643813
-0.03086124
-0.009702253
0.007166704
0.028828401
0.0061725643
-0.005696464
-0.008553879
-0.025961502
0.02792606
-0.021197418
0.01649437
-0.025778744
0.021652238
0.008540231
0.032470044
-0.029464671
-0.03131183
-0.0059434325
0.0029358321
-0.0042496086
0.008037178
-0.021615168
-0.009461538
0.020069128
0.033735353
-0.010563631
-0.029132267
0.017398188
0.0069197877
-0.008108917
0.02007413
-0.023122353
0.012584801
-0.0023246668
0.0061993273
0.01593421
-0.00047797116
0.0045770113
0.027305454
0.0058287713
0.04121862
0.012964387
0.027645832
0.016985727
0.02503817
0.032493617
0.021870207
-0.016624529
0.005095993
0.018140465
0.0051846406
-0.028374417
0.0043125665
0.02889303
-0.00792097
0.00689053
-0.012426763
0.014429591
0.007408265
0.0058908686
0.005875433
0.013048324
0.025006877
0.0040829913
0.007814206
-0.020854667
-0.012940846
0.0046291864
0.034460574
0.012702461
0.022824852
-0.010884391
0.013397392
0.027511733
0.03484123
0.026784174
-0.0052639632
0.004149763
-0.014651613
-0.013354088
-0.0037473692
-0.02504356
-0.009496648
0.00882125
0.0008314378
-0.020692693
-0.045900352
0.0077990647
0.0028983124
-0.02083466
0.015511428
-0.0068149036
0.023080684
-0.0070319534
-0.001583679
0.042624783
0.04825511
-0.018996263
0.006700516
-0.014248731
0.04186543
0.023855643
-0.017964195
-0.041716985
-0.0069247205
-0.042734195
-0.015364445
0.029306114
0.02551243
-0.0082861
0.012264454
-0.03990335
0.04213699
0.026977744
0.022092761
-0.013957375
-1.3038898e-05
0.011553034
-0.004198027
0.008773486
-0.026792204
-0.013032051
-0.025280626
-0.002137016
0.00026023606
-0.0093235625
-0.010016185
-0.0042369086
0.028604295
0.006487966
0.019558555
0.0038141075
-0.0077873166
0.0039166054
-0.034565672
0.012782801
-0.03869623
0.012270733
0.032731295
-0.024249535
0.028602814
0.0073861307
-0.03240801
0.02077438
0.029329939
0.00078817346
0.029438782
-0.040059637
-0.0074629504
0.0069167
0.002914411
0.02007112
-0.02421369
-0.020447064
0.035095546
-0.021505414
-0.008907656
-0.027734755
0.009346792
-0.045788426
0.04876758
0.019087987
-0.019280678
0.038456492
0.024741534
-0.0026268156
-0.008617837
-0.0073750457
0.020466404
0.01595748
-0.0059608743
0.026576318
0.0055319094
0.023511719
-0.006522387
0.027029632
0.040236823
0.017079378
0.021698125
0.003668067
-0.007818296
0.024097795
-0.010313696
0.0055024805
0.016668102
0.0051301545
-0.0011127152
-0.022226753
0.0024753334
0.01022824
-0.034592777
-0.016263025
0.022153344
0.012404165
-0.0022682415
0.017320208
0.012825005
-0.02888747
-0.00073478627
-0.014041662
0.0016014476
0.00852888
0.02052037
-0.018824684
0.021016462
0.0055939583
-0.0071533592
0.025721231
0.021072503
0.009805122
-0.005696898
0.0022426771
0.005257403
-0.011657135
0.035273757
-0.0039244764
0.024678499
0.021614948
-0.025359819
0.009392309
-0.016541637
0.020564938
0.00083056773
0.015433662
0.010838027
-0.00691133
-0.0031141515
0.02131577
-2.902153e-05
-0.0081885625
-0.030596456
0.004097717
-0.021310912
-0.050389078
-0.009535073
-0.010513775
-0.016691985
0.0029272132
-0.02115084
-0.0042939316
0.021171713
-0.059829235
-4.741945e-05
-0.015396192
0.009278629
0.0021614349
-0.012092245
0.026689647
-0.002808858
-0.02006143
0.04252096
0.03495589
0.015906349
0.037780885
-0.011719335
0.04712918
0.008000005
-0.029877145
0.016153445
0.03937393
-0.0056025344
-0.011796722
0.020238684
0.0003606394
0.0158741
-0.027222615
0.0034386008
-0.013511098
-0.001771599
-0.004357115
-0.02363293
-0.017350972
0.035593178
-0.03108917
0.030355288
0.00069884514
-0.0055606114
0.018011076
0.011416964
-0.001215862
0.016840491
-0.0005159597
-0.019789273
0.02144734
-0.0070539284
-0.020550497
-0.010110514
0.01611123
-0.01610646
0.009268888
0.002073945
-0.008502563
0.007378543
0.010243404
0.0021681879
-0.018259125
-0.016871
-7.10061e-05
0.018775476
0.020354532
0.0021117285
0.011028607
0.02306384
-0.023987642
0.028066238
0.013061416
0.017413592
0.011969098
-0.014181188
-0.01434429
0.030131292
-0.0198634
-0.006168499
-0.026501296
-0.02667374
-0.02484958
0.017434733
-0.014440265
-0.0016557765
0.010223892
0.0032857533
-0.00509455
0.009630354
0.03693417
-0.02207043
-0.048063442
0.017840618
-0.0136568975
-0.046705708
-0.011990386
-0.010382185
0.021127252
0.0043623177
-0.024558943
0.006494801
-0.00964304
-0.042947836
-0.028697204
-0.013692222
-0.008028537
0.022293568
-0.007254474
0.011671582
-0.022516092
-0.013461998
-0.0010158672
-0.020480894
0.0014643427
-0.0062155975
0.04725644
-0.022141648
0.029660359
0.0073224544
0.054132424
0.014988385
-0.011165201
-0.0041381167
0.015840728
0.028441284
0.0044889464
-0.00961739
-0.02579925
0.010564078
0.0066407323
0.030279635
-0.006903781
0.0009830731
-0.012685562
-0.018651009
-0.016236413
-0.014049618
-0.0066853403
-0.003889278
-0.042816594
0.014083154
0.03594472
0.024429703
0.031805683
0.015738478
0.0054114405
0.029931217
-0.022833157
0.0026856586
-0.014759173
-0.017333524
0.022804353
0.061604857
-0.0017529641
0.033181928
0.0076905666
0.002052412
0.01500338
-0.006739923
0.0077637457
0.009193558
0.011042235
0.024528716
-0.003454055
-0.01016763
0.011067251
0.005190294
-0.004518922
0.02309339
-0.019547213
-0.018641086
0.064619526
-0.009435986
-0.02049202
0.008152158
0.02656649
0.04802473
0.005700679
-0.04131523
-0.009802373
0.026487483
0.028798426
0.0012668831
-0.035002988
0.022223465
0.026875345
0.032320328
0.00457788
0.010812334
-0.0066697407
-0.0009422878
-0.011059209
0.0051488825
-0.009259689
-0.009115563
0.005948608
0.012547309
-0.017369822
0.00787164
-0.01726576
-0.010044926
0.001070721
0.02336768
-0.05098694
-0.04035167
-0.015526923
-0.00409164
0.050834633
-0.041826714
0.016320128
-0.034631584
-0.011746634
-0.0011049159
-0.015672253
-0.013320355
0.013657434
0.014973927
-0.004881283
0.0069290167
0.0022134634
0.008706839
-0.022964764
-0.0037306687
-0.052485805
0.026066227
0.06309711
-0.0013156914
0.05899882
0.02747162
0.009805534
0.007554821
0.022391079
0.045489613
-0.0131150065
-0.026632758
0.013715564
-0.02029574
-0.004793085
-0.0292022
0.013212016
0.005410179
-0.035561483
-0.044472985
0.030676072
0.001570998
0.047525227
-0.018365597
-0.041712753
0.013656494
-0.033975367
0.020454023
-0.022417543
0.034044847
-0.019113626
0.0095974915
0.0072930246
0.0020819758
-0.01808101
0.02662953
0.01063756
-0.030433074
0.022264646
0.0043617534
0.021487
-0.008862362
0.024699103
-0.015544014
0.0019991656
-0.030282168
0.005028374
0.01838314
0.036223896
-0.006055904
0.023798555
-0.008785522
0.03733758
-0.009182889
-0.02457964
-0.04942433
-0.026214622
-0.01289877
-0.009024294
0.023909265
-0.012627733
0.03386949
0.02828319
-0.015493036
-0.02204941
0.045822263
-0.0070960606
-0.014330033
-0.023185397
-0.00091511465
-0.015529403
0.01870867
-0.013535807
0.025755873
0.019033939
-0.049277104
-0.0053530964
-0.0055634556
0.037279516
-0.01520696
-0.015728671
0.002835196
-0.046774007
-0.0025920437
0.0014242603
-0.008620631
-0.011971541
0.02625603
0.03254033
0.014467018
0.0069030006
-0.016475266
-0.031249836
0.017998798
-0.025461938
0.025787871
-0.026710395
0.057003506
0.0025570004
-0.015500659
0.012747307
0.007981077
-0.0068748672
-0.023608474
-0.009658711
-0.0047495593
-0.008459605
0.003991772
-0.02702496
0.0001730905
-0.023194324
0.010314596
0.021168815
-0.03195378
-0.0054936344
0.013184972
-0.015594151
0.021484796
-0.017063204
0.014174158
-0.0077093015
-0.011847421
0.011268494
-0.022028483
-0.016011955
0.034483816
0.015293508
-0.0060643544
-0.016591605
0.01742862
-0.040603418
0.0025056684
-0.044439767
0.014379469
-0.010626364
-0.03723521
0.013508996
-0.0050378847
-0.0039211516
-0.014478232
0.008179312
-0.039120074
0.00405612
-0.021763591
0.016852764
0.012579778
-0.01903687
-0.028775726
0.0015831812
-0.0046272743
-0.017926525
-0.016350871
0.0018481485
0.03261885
-0.0081066005
0.0060181348
0.024927296
-0.014607747
-0.032772496
-0.031282336
-0.034070693
-0.015169715
-0.030746518
0.017837595
0.018764699
0.011713039
0.009468389
0.0054340255
-0.019803273
-0.0054775057
-0.0285492
0.016500175
0.036631852
-0.011499977
-0.03728271
0.015456475
0.009056595
-0.00898186
0.0082367025
0.009134376
-0.012589978
-0.020061554
-0.04291195
0.033455927
0.02887635
0.007815351
-0.059481934
0.016765706
0.028201185
0.016928889
0.046118885
0.02793096
-0.009979763
-0.013870961
0.005808344
0.032721467
-0.02096619
-0.020752037
0.016590051
-0.014441948
-0.0054788236
-0.023669263
0.015013282
-0.055764277
0.029384315
0.008108673
0.047168303
-0.054103836
0.0031331074
0.013862673
0.025440497
0.0027836398
0.012880679
-0.01811322
0.0018897536
-0.011459342
0.03223314
-0.028430112
-0.010409353
-0.01846089
0.049179435
0.016579125
0.022774357
0.022110362
0.008677478
0.040739
0.015167974
0.025994338
0.026915459
-0.0035877381
-0.0026727158
-0.026805079
-0.030535009
-0.043901198
0.021937195
0.008777646
-0.042626515
0.019566452
0.01511706
-0.026036128
0.02696768
-0.014994827
-0.023047222
0.012142171
0.026668986
0.020516759
0.024822226
-0.007638209
-0.019934796
0.033173367
-0.0038940797
0.03049244
0.04974696
-0.004973859
-0.017871117
-0.03522758
0.026167853
0.0011953588
-0.029386126
0.023323502
-0.017049288
0.034530543
-0.028492872
0.010559514
0.017305493
-0.0026354406
-0.021555385
0.010153315
0.011928256
-0.011231765
-0.021720337
0.01967988
0.023427617
0.041442595
0.030594138
0.02966066
-0.025057467
0.009558941
-0.0031236117
0.02647468
0.017284917
-0.016719362
0.048179884
-0.024321096
-0.0013340147
-0.0055087097
-0.045250382
-0.012133456
-0.00041151725
0.0009252646
-0.012786583
-0.020892425
0.0155541
0.0044013197
0.001401713
-0.018197728
0.02596607
0.03438657
0.025147542
0.002741381
0.032482922
0.0046317647
0.014898617
-0.007515736
0.022013787
0.029511537
0.0127988765
-0.033876635
0.011819065
-0.04550754
0.045207642
-0.017476482
0.03852216
0.023526512
-0.0030683456
0.023377493
-0.038142845
0.025530431
-0.03287198
-0.04325413
-0.049908515
-0.00040314023
0.0138546415
-0.009488168
-0.019333651
-0.012618071
-0.022078784
0.017992092
0.006958654
0.014074972
-0.034511868
0.06427784
-0.019656455
-0.0101179965
-0.010747958
-0.029780155
-0.0549561
-0.039648876
0.006714367
0.008357465
-0.021484172
0.025665592
-0.004511386
-0.011466657
-0.011675043
-0.006706754
0.016177619
-0.011012882
-0.021830492
-0.012468341
-0.0090437215
-0.00042814808
0.012075282
0.010100177
-0.013695017
0.037339978
0.029585592
-0.0022415405
-0.0033084445
0.02636894
0.015678538
0.00035048113
0.020389963
-0.008683154
0.020022761
-0.037783045
0.047081325
-0.02935827
-0.014212693
0.0062466264
0.003354335
0.040290337
-0.0041699563
-0.017101271
-0.029854551
0.02637899
0.01549552
0.007833564
-0.0012514142
0.0069438736
-0.009969355
0.020416398
0.012839475
0.005221608
-0.007485872
-0.04040194
-0.030180989
-0.0044889785
0.0392455
0.029304024
-0.005144018
0.017081339
-0.0019038043
0.030007016
0.019240914
-0.013310536
0.013441756
-0.012917214
0.0022602996
0.024794023
-0.023344107
-0.046623703
0.002749509
-0.0054908413
-0.010410176
-0.009162527
-0.0103668
0.001060218
-0.020643236
0.031315174
0.031447887
-0.004552474
-0.016247435
-0.0033156225
0.03344233
-0.0006108377
-0.015550552
0.02490557
0.032441758
-0.04650051
0.016461508
0.026328806
-0.010040558
0.028987546
-0.0016673306
0.010918712
-0.0054059434
-0.012199343
-0.018180711
-0.024634149
0.03123312
0.034057103
-0.031991135
0.020413792
-0.0043576374
0.017961182
0.012129169
-0.021451626
0.00088384474
0.00969458
0.02295956
0.03497862
-0.011218688
-0.022149466
-0.038941063
0.043202974
-0.011513798
0.0152304815
-0.018159265
0.018454865
-0.07331659
-0.023739537
-0.015492181
0.011190997
0.024477439
-0.023988944
-0.01105681
0.024005316
-0.0087706
0.028762108
0.019201925
0.0032509812
0.0251023
-0.0041193524
0.04463576
0.027031051
0.03244408
-0.011830683
-0.047943946
-0.0005783389
-0.013046392
0.004250911
-0.031495556
0.025257591
-0.017465461
0.014368852
0.019214923
-0.008727466
0.03090362
-0.013546279
-0.045657884
-0.003731687
-0.053506713
-0.010831763
0.009975489
-0.032150514
0.023912007
0.03881941
-0.025670027
-0.017430242
-0.01106622
0.007778523
-0.012335721
0.011560318
-0.030530727
0.017072098
-0.0055954056
-0.020872258
0.012207369
0.00409887
-0.0033745777
-0.0018342996
-0.012025581
-0.04561107
-0.000925451
-0.005523691
-0.0348597
-0.03366197
-0.0018110123
0.0010771232
-0.00523635
0.012184087
0.010192844
0.037428528
-0.004802157
-0.020017393
0.028346963
-0.032097507
-0.0041112043
-0.007245399
-0.032866143
-0.02733452
-0.019389134
0.03682801
0.008001637
-0.02095272
0.022231553
0.00016701275
-0.030143837
-0.0039301417
-0.02494116
0.02435743
0.010931734
-0.009265349
0.023858145
-0.0016862687
-0.011289315
0.03313236
0.033556
-0.0032500979
-0.0017668232
-0.03498225
0.0061602495
-0.005850803
-0.007409386
-0.041268725
0.016064586
0.0281493
0.030608242
-0.010470874
0.0077397525
0.01993754
-0.005346178
0.008165122
0.028932115
-0.042966604
0.008353063
0.014017876
-0.037593532
0.004080012
-0.01938916
0.023576207
-0.048315994
0.014812086
0.002294782
-0.00807087
-0.011593947
0.012694115
0.040319826
-0.01657526
-0.03343484
0.012761812
0.030312946
-0.023319952
-0.00895131
-0.0075784107
0.012630342
0.034880005
-0.041704983
0.0305959
0.02054581
-0.033551257
0.0149277365
0.0012542827
-0.02984161
-0.013403281
-0.009076517
-0.0003138638
-0.025717884
-0.0018414307
0.0007083188
0.012650263
-0.038534038
-0.024111846
-0.011565525
-0.0011471803
-0.024835313
-0.0073858565
-0.0052898154
0.01784819
-0.030938806
0.018611303
-0.015979525
-0.00835269
-0.018653212
-0.005182442
0.008954706
-0.008068607
0.045233727
0.0029283618
0.0033564058
0.009617023
0.02835205
-0.020140452
-0.028261574
0.0101524005
-0.029274674
0.02426833
0.0043383464
0.03609867
-0.001873598
-0.022727758
-0.0044417595
0.033695865
0.029885909
-0.036548182
-0.008718403
0.005908607
-0.0062392163
0.030831648
0.013670201
0.009247739
-0.015737578
-0.0033321187
0.01620444
0.020315513
-0.023022952
-1.7629358e-05
0.011497862
-0.019510763
0.022181056
-0.0072571663
0.0051978636
0.0013778344
-0.024239954
0.0011892538
-0.011815721
-0.030274872
-0.0076735304
-0.020479197
0.012946227
0.03728178
0.013409523
0.02637903
0.0012942647
0.02335413
-0.039866146
0.023838675
-0.023017336
-0.013777053
-0.040480934
-0.0004409318
-0.024060411
-0.039006118
0.05091921
-0.018089747
-0.008950615
0.053055767
0.017032389
0.016328363
-0.022187907
-0.027072947
0.031567134
-0.0016466918
-0.02132223
-0.011447656
0.0120578585
-0.034731794
-0.016306017
-0.020047687
0.026779853
-0.015559104
-0.0065112137
-0.008445427
0.032334387
0.0032403646
-0.010576241
-0.004357365
-0.0103087
-0.007814195
0.0051478283
0.009803663
0.021672599
0.0017092716
0.023066668
0.0010655744
-0.039240696
0.014274401
0.014433939
-0.006718848
0.0035156456
-0.04937322
0.00615775
-0.01903477
0.0068977564
-0.027326895
-0.039504074
0.028926192
0.002348404
-0.008001553
-0.01706323
0.04489042
-0.03531817
0.01975864
0.004636895
0.015435924
0.006778117
-0.02868266
0.02190375
0.06301752
-0.03973975
-0.034552936
0.032772355
0.0035302127
0.027722256
0.03525449
0.007690288
0.009256131
-0.0007003332
-0.0041661514
0.033888206
-0.028388795
-0.0070781186
-0.0058921506
0.007638052
0.0009927808
0.025378615
0.035643388
-0.017222945
-0.015292261
0.013298578
-0.004127507
-0.0016523199
-0.0034747072
0.022984687
-0.008382022
-0.008611444
0.015123896
0.0011271575
-0.05011364
0.026341923
0.04466837
-0.024428235
0.0228715
0.014272997
0.015470942
0.0070376876
0.002187259
0.033606306
0.0068810387
0.0042217327
-0.00050042034
0.028357936
0.03735652
0.0012781721
-0.0129183065
0.003911419
-0.009179198
-0.0094093615
0.001929113
-0.0043745087
0.034693323
0.030217465
0.0014089786
0.028740663
-0.036188066
-0.019990038
-0.00865916
0.0389546
0.020220038
0.038574155
0.033690486
-0.0038196528
-0.021963252
0.019023554
0.010955941
0.021916486
0.0079079075
-0.0003170303
-0.015264264
-0.012479744
0.002843927
0.054222748
-0.0034343097
-0.0367226
-0.021790626
-0.01570596
-0.013322163
0.0070672752
0.017074153
0.02223423
0.02387006
0.018761814
0.009007535
-0.002559478
0.016676625
0.018240055
0.027852228
0.028542794
-0.030883651
-0.01199447
-0.014426175
-0.00824647
0.046028756
-0.029983856
0.02880181
-0.011420385
0.042922482
0.040785205
0.01640443
0.02670153
0.0006803005
-0.036659908
0.0010309544
-0.024511585
-0.017207861
0.011178882
0.011783462
0.016688583
-0.017976265
-0.033365823
-0.008931324
0.0116915805
-0.007858643
0.040979136
0.0007484987
0.014378779
-0.0111631835
0.014560681
-0.010500611
0.026627393
0.027576717
0.0007213892
0.017025769
0.00683858
0.019597877
0.014883359
0.025250182
0.0051043513
0.0056942664
0.022441128
-0.034080982
-0.008201432
0.0026254982
-0.026573572
-0.012124826
-0.02539019
0.023404403
0.019161545
0.004527021
0.022238657
0.03534422
-0.016487034
0.017517855
-0.016960645
-0.012575098
0.013534771
-0.018658873
-0.031383697
0.05828387
-0.004714175
0.0261841
-0.03469993
-0.02190717
0.034671854
-0.0045881597
0.014209622
0.008610111
-0.04926171
0.017754463
0.022171808
0.00504882
0.061936103
-0.03549373
-0.06050196
0.056062117
0.0026032217
-0.029791918
-0.041594945
0.0054329755
0.028989106
0.010562392
-0.04697593
-0.027117997
-0.011327604
0.02690194
-0.0049299006
-0.0465101
-0.03081988
0.035638575
-0.00080394815
0.0389145
0.005394045
0.0015776837
0.0007920624
0.019815339
-0.034289286
-0.03236173
0.02398743
-0.009705589
-0.004284979
-0.032153927
-0.0005260127
0.0003712403
-0.02297889
-0.022985313
-0.021272056
0.01980436
-0.011538347
-0.018402744
-0.041389342
-0.016399065
-0.012913424
0.06815084
0.0014983774
0.0054670973
-0.030063143
-0.026255643
0.017046656
-0.05077895
0.06662756
-0.0026448097
0.033063475
0.0249181
0.017544786
-0.018375808
-0.013356543
0.045829497
-0.017290978
0.102217026
0.016116235
-0.040140007
0.0307584
0.021427289
0.03441995
-0.01709086
0.040085707
0.019746713
-0.009283234
-0.025803149
0.012716137
-0.031118287
-0.014409205
0.03541228
-0.047382064
-0.03828955
0.060739033
-0.057400897
0.06446989
0.026353737
0.004511288
-0.013596326
-0.026440972
0.0060211658
0.026753215
0.04918993
0.017816754
0.0413836
-0.024992017
0.0005053248
-0.0015799316
-0.045742664
-0.007295043
-0.013677845
-0.016055992
-0.013577679
-0.033304967
0.00430487
0.0058410987
-0.04532809
0.020137383
-0.00734946
-0.046451278
0.00593638
0.015903821
-0.0035530066
-0.0031424
0.024829783
-0.01590594
0.019437985
-0.02144692
0.0057165395
0.016856538
-0.027802898
0.001533737
-0.02168964
0.02948989
-0.050919026
-0.015195797
-0.0062505878
0.0048705195
-0.026655376
-0.022655735
-0.0030968762
-0.0019375791
-0.0024283198
0.016091164
0.026243443
-0.02801691
0.008719065
-0.0105341375
0.03629537
-0.04043922
0.008850158
-0.03260399
0.015523724
-0.023472346
0.012044376
-0.0107552605
-0.02004314
-0.034572918
0.003377232
-0.018488405
0.009703249
0.019320942
-0.056589678
0.034636796
-0.046045963
-0.06938322
0.005431433
-0.0541265
0.026195217
-0.009442678
-0.038019232
0.02741156
-0.032379594
-0.020309795
0.05291115
0.02158409
0.032790113
-0.015185334
0.018372575
0.018997619
-0.012653561
0.0030781913
0.062718526
0.009641784
0.027180333
0.027156767
-0.028183924
0.051328942
0.019613214
-0.004361713
0.04138043
-0.048293836
-0.04973359
0.038912743
-0.00767194
0.035438765
0.04853106
0.03918306
-0.020284917
0.0035674458
-0.025214054
0.012851248
-0.04210625
-0.014845251
0.03699488
-0.036466803
-0.007913554
0.07829228
0.005668021
0.087642476
0.045804217
-0.02817447
-0.010936846
-0.036782622
-0.0044931634
0.0025876055
0.045826174
0.0033253646
0.01824934
0.005795337
0.028601045
0.0152506605
0.01840422
-0.029665522
-0.040387765
0.023126291
0.0055479244
-0.012512237
-0.00066793954
0.026824161
-0.0024964535
-0.0018973514
0.043683417
0.021812407
0.027091043
-0.050553504
0.02466296
0.020028694
-0.044282507
-0.011380062
0.028502865
0.00726253
0.0043433835
-0.00044037282
0.0038163965
0.01097745
0.019774342
0.060314104
0.034699947
0.021552598
0.011575119
-0.008196532
-0.021624118
0.030151179
-0.0138919195
0.037874956
-0.032845665
-0.02812335
-0.024907533
-0.0020862853
-0.012770081
-0.008543108
0.016871082
-0.0004954223
0.010398643
-0.03235587
0.0063351276
-0.0084208995
-0.0041907984
-0.014298155
0.00892931
-0.0028330367
0.022097236
-0.017416257
-0.022395892
0.03432383
-0.057679854
-0.033578046
0.03048656
0.017091788
-0.015216566
-0.009447825
-0.043468554
0.005648179
-0.0049322112
-0.0062521272
0.018463027
-0.038508777
-0.043870695
0.024975391
-0.01774091
-0.00658812
0.009897702
0.011300351
-0.01575882
0.020468362
-0.03647437
0.004487392
0.018424982
-0.034471955
0.027747756
-0.09152282
-0.044746697
-0.043561134
-0.0040419395
0.012103912
0.019433798
-0.019496508
-0.060294826
0.015370849
0.07495039
0.019223697
0.05714011
-0.035288777
-0.0062237815
0.0027884883
0.08336785
-0.03130911
0.00023432692
0.0121737
-0.01742013
-0.061403334
0.011931769
0.003409899
-0.009050197
-0.029467331
0.045593522
0.0032726633
0.025718465
-0.02692652
-0.019085672
0.017424889
-9.9296274e-05
0.0011286696
0.017472835
-0.02026104
0.010430234
0.0029498797
-0.034800258
0.007474604
0.0077568702
-0.018453728
0.013468358
0.0069995183
0.0027412248
0.0020655245
0.030289374
-0.030860957
0.013187444
0.009897325
0.02301422
0.037480958
-0.004006507
0.00873948
-0.033601116
-0.0027743368
0.0038472943
0.01366074
-0.0012180551
0.005523902
0.029042661
-0.057298645
-0.022403577
-0.005442865
-0.025717538
0.020071331
-0.005128238
-0.005720713
0.01697878
-0.020629602
-0.01082498
0.034443047
0.0065598805
-0.022267748
0.029524526
0.006182966
0.007803909
0.039658427
-0.028942537
-0.008021663
0.0057938327
0.009952022
0.011104894
-0.04235428
0.016285254
0.001418581
-0.036262017
-0.006367341
0.023505466
0.016934939
-0.047324628
0.06325318
-0.023268659
-0.04619151
0.0047614574
0.00781937
0.0328336
-0.0415693
-0.052756637
0.012060577
-0.010945481
0.0127136875
0.034324978
-0.036587153
0.044353236
-0.014916688
-0.019155655
0.042442366
0.011417544
-0.00066064746
0.0060779094
0.0015269921
-0.0032561522
-0.015634842
-0.017235748
0.03314539
0.04262711
0.0040584747
0.023850514
0.0010099346
-0.00657613
0.052393068
0.023516128
0.032039434
0.03828169
0.031727005
-0.040008303
0.02140201
-0.0055686194
0.04645151
-0.0088064
0.00028337887
0.028035576
-0.037825402
-0.022325585
-0.004075495
-0.069298595
0.0712954
0.046676766
0.016423853
-0.054841135
0.02720472
0.015358265
-0.011890672
0.03162829
0.0073958393
0.02393502
0.014983084
-0.0023083116
-0.01189783
-0.037056603
-0.020558463
0.017614573
-0.011529373
-0.026399774
-0.060254816
0.032230154
0.028667958
0.0076817106
-0.0053333854
0.005908996
-0.05566878
-0.007672173
-0.02135262
-0.011427852
-0.016931454
0.02620853
-0.03117646
-0.042584565
-0.047269408
0.015480721
-0.013709541
-0.018567402
-0.025939334
-0.030886596
-0.014536948
0.020209922
-0.029921355
0.007077859
-0.0011738052
-0.046137482
-0.010382742
-0.04420857
0.013454695
-0.0021165633
-0.02096526
0.03503222
-0.020876082
-0.043612015
-0.019433862
-0.01870658
0.0028647927
0.050367225
0.008769201
0.0065178443
-0.026138658
-0.015865365
-0.006999778
-0.01827709
-0.029246084
-0.007919211
-0.00999353
-0.04680022
-0.021973921
-0.011175096
0.018613694
-0.023717567
0.005638655
-0.012222505
0.010711824
0.007906977
-0.023636943
-0.023302512
0.012232548
-0.030496538
-0.0203838
-0.018535871
0.028360259
0.008510802
-0.017659055
0.036990486
0.006413162
0.02500593
0.03197897
-0.0076185083
-0.020754319
-0.013463938
0.011209159
0.014077434
0.0019597805
0.037165407
0.018872494
0.028284589
-0.040323198
-0.038486075
0.0065558213
-0.007922029
-0.008657759
-0.032785933
-0.0033599208
-0.011923696
-0.036391146
-0.0055980324
0.0041466565
0.03360589
-0.009368133
-0.025091292
0.033388082
-0.0071257283
-0.022170894
-0.023090469
-0.01802706
0.024051683
0.02105169
0.002419254
0.008484746
0.024593439
0.023491565
0.01580019
0.025875011
0.002127957
0.028939193
-0.032254383
-0.012686466
0.03358075
0.034662202
-0.016914885
0.017834578
0.032444302
0.037893347
0.025057578
-0.026627555
-0.0027390074
-0.010707216
0.041525558
-0.024099337
0.025221389
-0.018704148
0.011779631
-0.014639314
-0.019617084
0.026786286
0.02162634
-0.055411246
-0.0101519935
0.035195522
-0.06304991
-0.008817394
-6.7768444e-05
-0.056039058
0.0012050037
0.022551963
-0.006422794
-0.023076564
-0.026659142
-0.014547958
-0.00014724271
-0.010740074
-0.009363693
0.016925339
0.003979111
0.009311147
-0.0421403
0.02413578
-0.042572528
0.0069813146
0.058509104
-0.014840203
-0.0152421305
0.011798068
-0.0062315143
-0.03148589
-0.02642729
-0.0028973438
-0.014942584
-0.008623449
-0.032755084
0.014929034
-0.01799196
-0.023995137
0.030425875
0.048006207
0.018807786
0.0044883257
-0.022575315
0.00061754324
-0.017540436
-0.007445687
-0.019283108
-0.0073539102
-0.0046681203
0.0022608987
-0.017570743
-0.023556013
0.00551803
-0.016955527
0.010939353
-0.0466223
-0.010795282
-0.02075237
0.026825137
0.0060028103
-0.009573649
-0.042084035
0.025648875
-0.010343272
-0.03117112
0.029372165
0.021225559
-0.036393788
-0.0043477872
-0.00027052843
0.008603675
0.029565485
-0.023839815
0.0063556177
0.036214866
0.021101937
0.012943042
-0.028309695
3.4832352e-05
-0.022807099
0.043825764
-0.021464275
-0.018039318
-0.020899517
0.016933037
-0.003305832
-0.0038482007
-0.023783779
-0.029291786
0.00050632143
-0.030412251
0.031602647
0.028374827
0.010889912
0.016069327
-0.020160062
0.02191423
-0.00077711634
0.043585964
0.025002638
-0.015031304
0.036877073
-0.011808535
0.051536907
-0.010696232
0.008377944
-0.021977032
-0.09174759
-0.03298491
0.00056396396
0.005448711
0.015871998
-0.03188412
-0.0040313695
-0.0050970376
0.016644532
0.026892586
-0.010531573
-0.0010144898
-0.035761382
0.0015079257
0.06333775
-0.045697767
0.0053520477
-0.06125439
0.001340398
-0.0034476963
-0.024638344
0.015313725
0.009255281
-0.004222172
0.012865125
-0.030138899
0.019198952
0.011350599
-0.019768959
0.057463832
-0.023319194
-0.024001949
-0.014883606
-0.0220326
0.010831171
-0.014452938
0.042752147
-0.0039273757
-0.0013120094
-0.0068098083
0.0019808363
-0.02208267
-0.0042472617
-0.051502023
-0.00012473653
0.05415783
0.010447323
-0.03620624
-0.002863498
0.019461317
0.013123028
-0.03706963
-0.0042868424
0.052065633
0.0026712185
-0.00984384
-0.03797293
0.024893278
0.026355553
-0.008797589
-0.009945982
0.032898534
-0.041091386
0.039591916
-0.014956142
-0.0011501217
-0.01051938
0.010500513
0.006802829
0.008878348
0.009541424
-0.02751124
-0.0057203714
0.036519684
0.0076280115
-0.007109811
0.014910378
0.038322467
0.0055746757
0.010315245
0.0038117438
-0.011089015
0.010846088
0.030537253
0.038020562
-0.015823914
-0.0086458055
0.0008299535
-0.08854433
0.0011931189
-0.0023971035
0.015693655
0.008017056
-0.008659652
0.02070731
0.027469141
-0.02015588
-0.036890168
0.024022413
0.017032158
0.005018236
-0.037698448
-0.009830577
-0.0027828903
-0.040321395
-0.017251668
0.039223988
-0.038317345
-0.040429406
0.020492762
0.035376657
0.037467796
0.022362445
-0.033215467
0.012273794
0.031205732
0.024303488
-0.0072123334
0.0041140625
0.00999808
0.014792014
-0.013112586
0.010198951
-0.015298536
0.0019973493
0.0453521
0.013910933
0.009312355
0.031517856
0.0033706701
-0.0075626476
0.008621756
-0.0019406918
-0.01806758
0.0067445296
-0.020470295
0.008011392
0.018216401
-0.014732081
0.04454493
-0.024891483
-0.0069546583
0.002461232
0.032312192
-0.006145806
0.0030831853
-0.011993976
0.037170414
-0.024931377
-0.021648763
-0.044754103
-0.0073219417
0.0034017116
-0.013232987
-0.02467546
-0.006289478
0.025411455
-0.04026296
-0.0138473585
0.01172473
-0.024171675
0.01754786
0.009286544
0.034326494
-0.0034539837
-0.026940975
-0.02420042
0.03291722
0.027482763
-0.0009193398
0.045471277
-0.03981078
0.027215762
-0.019125277
-0.036303774
-0.007510279
-0.003691743
0.0002177111
-0.006145116
-0.030114831
-0.032201935
0.017593198
-0.038931508
-0.0007066237
0.029468112
-0.0047834567
0.026508575
-0.0152598005
-0.005920957
-0.039257195
0.017086659
-0.012342786
-0.01452297
0.020020174
-0.030890148
-0.012179046
-0.01069973
-0.038223825
0.012819251
0.016867282
0.0069674426
0.013718382
0.022413548
-0.035581347
0.008814537
0.00831472
-0.019949667
0.046426035
-0.012503883
-0.02105678
-0.00218326
-0.0032373157
0.022850612
0.03376853
-0.04032248
-0.014556387
0.029703757
0.022993378
-0.0055499827
-0.064085975
-0.018082144
-0.039471243
0.005516871
-0.010729279
0.0010597757
-0.0028513097
9.791535e-05
0.0065515744
0.033230543
-0.034155
-0.014806055
0.023896264
0.010597914
-0.010735053
-0.0118974475
0.010245617
0.036035057
-0.021501582
-0.022774741
0.012518995
-0.0035748056
0.009431202
-0.037983064
0.033249166
-0.006361392
0.019028796
0.033481706
-0.002920447
0.06924287
-0.013732917
0.02758131
-0.04891421
-0.0019907313
0.0009651696
0.04552309
-0.004387769
-0.04619018
-0.015464374
-0.0018537244
-0.06580286
0.009484582
-0.049534373
0.0059371963
-0.013742241
0.0029908693
0.030122934
0.036974065
0.00043548382
-0.047106028
0.031971402
0.008052003
-0.0060222675
-0.0062133274
-0.0071703433
0.035278328
-0.10538084
-0.018197058
0.012534885
-0.07348907
0.018450376
-0.017918475
0.04180899
-0.027510589
-0.011485457
-0.018821921
0.032426883
0.03868888
-0.07720773
0.020643242
-0.10910911
-0.00954619
-0.020726778
0.014886142
0.018098133
-0.0023452481
-0.05120805
0.069461055
0.030927215
-0.0025107178
0.11519368
-0.06503776
-0.015216447
0.05478871
-0.051264912
0.0010996202
-0.0024416046
0.028054053
0.01836231
0.0038434444
-0.04012858
0.05297817
0.0022470786
0.011229499
0.011918205
-0.062301364
-0.12967108
0.0008971777
-0.0755922
0.102580495
0.05306592
-0.0306038
-0.034567934
-0.016448349
-0.045465074
0.0032745432
0.026193827
-0.009431941
-0.011465557
-0.0706967
-0.033190425
0.017272934
-0.001737787
-0.0036740554
-0.013682959
-0.022277141
0.029208766
-0.025655676
0.016054915
0.053785298
0.0012209559
-0.010507678
-0.002902262
-0.043616235
-0.0009987045
0.028231533
-0.008248998
0.013191234
0.018438367
-0.0049059014
-0.023696493
-0.018397326
-0.024275405
0.0022266216
-0.03597464
-0.01887412
-0.023053112
-0.048184667
0.04857202
0.0010442687
-0.046425026
0.034766093
0.008366371
0.008232542
-0.0039022623
-0.015306953
0.011650925
0.05493432
-0.032146256
0.030244255
0.02825102
0.010945898
0.021949913
-0.0057370006
-0.036425974
0.008394839
-0.018806249
-0.032425385
0.002340622
0.039957207
-0.02094126
-0.030632855
-0.021435948
-0.05443971
0.035898373
-0.00887311
-0.040146414
-0.043781634
0.021489454
0.003712348
0.0064483257
0.032927338
-0.0035958574
-0.026748588
0.036123563
0.0066130627
0.0009001703
0.009918075
-0.0277044
0.0017983725
-0.035876088
-0.01665447
0.0043532937
-0.039152823
-0.026656622
-0.009458893
-0.029842079
-0.0011067016
0.0029909695
-5.9670576e-05
-0.020470222
-0.04888936
-0.012909888
0.004881483
-0.003822853
-0.011768592
0.047669422
-0.017134923
0.014388116
-0.0031987107
-0.020911152
-0.014355898
-0.0071192384
2.3242803e-05
-0.012931609
-0.02205881
-0.030381344
0.002889303
0.018763293
-0.016333701
-0.02980601
-0.0074301646
-0.014946137
-0.01678035
-0.018173883
-0.0064003314
0.026141455
0.007728755
0.005993645
-0.043366946
-0.013814114
0.0007306962
0.027283942
-0.028015448
-0.030010037
0.01630502
-0.011066812
0.043242056
0.01030452
-0.021503145
0.009963975
-0.025352992
-0.013594763
-0.020455908
-0.02837033
0.016886981
0.0028152303
-0.06746268
-0.008560445
-0.006780018
-0.045731455
0.00924835
0.0660727
0.020185336
0.013642637
-0.019312523
-0.00962403
-0.022906493
-0.034470152
-0.01661833
-0.039898667
0.0033993793
0.016699556
0.013663996
0.009725933
-0.0024403138
-0.00755364
-0.04037495
0.01800903
-0.014475083
0.009880547
0.009800916
-0.05188196
-0.05037682
-0.0131025715
-0.008612654
0.017140502
0.019001557
0.030933278
-0.007381988
0.015679149
0.0144924
0.046462804
-0.0056526302
-0.0012127141
-0.043440904
-0.05502969
0.007005749
0.006510577
0.011712527
0.017744629
0.008351056
-0.02363173
0.0042646257
-0.019372068
-0.036366224
0.0107151475
0.020822816
-0.021477543
-0.023511447
-0.001403619
0.016463267
0.0151714245
-0.00087757
0.020486638
-0.008308313
-0.032989535
0.03196871
0.0024072742
0.02198718
0.07081632
0.007368699
0.00658652
0.002962121
-0.02358035
0.017998714
0.02106475
0.003664503
0.009058386
0.043428555
-0.016391898
0.00701798
0.02523317
0.040665563
0.029902574
0.038980726
-0.0019983738
-0.012267666
-0.024406897
0.013409599
-0.029174581
0.021290429
-0.010305945
0.017560627
0.01494877
0.041069742
-0.04032905
0.023253491
0.04080051
-0.011574288
-0.0221814
-0.024096455
-0.04268422
-0.025524713
0.022507641
0.016961629
-0.036806546
-0.030812958
-0.013189298
-0.033306394
-0.033696957
0.0060062227
0.01642645
0.024830164
-0.01323689
0.017357595
0.023744874
0.003983661
-0.066258155
0.00641324
0.021352101
0.062982105
0.0060852226
0.013405768
0.0073352116
-0.01395198
0.065023914
0.014496814
0.06322331
-0.0088054575
0.0034513946
-0.006978319
0.051566333
0.036118604
-0.08413452
0.024549922
0.043495942
0.010849553
-0.0038808703
0.008533901
0.02277961
0.0025070654
0.002047856
-0.004538959
-0.03899106
-0.012894827
0.043635577
-0.032339603
-0.002134672
0.021518083
-0.04632963
-0.03208799
0.040019426
0.003599122
0.03134598
0.06940196
0.009260354
-0.02699073
-0.040845808
-0.019367628
0.0062484243
0.051206622
-0.005634413
0.009148176
0.00671054
-0.012377545
0.046217814
-0.010670562
0.009135956
0.007137466
0.046422534
-0.005951969
-0.004268846
-0.019171856
-0.016460357
-0.009055374
-0.027159367
-0.015579085
0.017728323
-0.03396895
0.0028771902
-0.013399158
-0.021342507
0.0058359555
-0.0043320525
0.0018613978
-0.0075815576
0.01922485
0.03384996
-0.040590134
0.004604462
0.016516138
0.00959344
-0.0142566385
0.0248972
0.03794002
-0.023344249
0.009278786
-0.0104013905
-0.001154317
0.02902867
-0.004867198
-0.025162498
0.00191422
-0.0040499824
0.023283591
0.020179464
0.0060387603
-0.0030635574
0.022680266
-0.062148582
-0.0020800051
-0.041360375
-0.01934569
-0.027028669
0.02330346
-0.01410805
-0.055507895
0.04106261
-0.019303374
0.01762905
-0.009623414
-0.0024303654
-0.023708282
-0.04339953
0.015387032
-0.0007346566
-0.006948468
0.008286483
0.00636374
0.01275864
0.027335884
0.034373138
-0.012974534
0.045121666
-0.0092654405
-0.002534761
-0.014311646
-0.024271354
0.0035943526
0.016778298
0.01993904
-0.03491859
0.003254837
0.019475343
0.006741444
0.017659009
0.03488208
-0.0010346718
-0.007251865
-0.007246373
-0.010229344
-0.039242927
0.038947288
-0.010271176
-0.013151116
-0.005212673
0.0013247065
0.03991302
-0.0026186353
-0.01098017
-0.04008683
0.029915268
0.021637376
-0.0246938
0.012028607
-0.007661917
0.0014477543
-0.034822933
-0.018226463
0.010112872
-0.008015927
-0.0051524327
0.0181583
-0.017368684
-0.021608215
0.02302838
0.0064591374
0.021989653
0.0062556486
0.025202408
-0.008283354
0.004929424
0.008195691
-0.013743894
0.054941002
0.019093513
-0.031421572
2.6687405e-06
-0.013601107
-0.00393213
0.011816495
-0.017303858
-0.0386047
0.0516155
-0.031824946
-0.0044618016
0.016788103
-0.021438273
0.045928895
-0.015372506
0.03200344
-0.021270948
-0.017898375
-0.020523379
0.016003573
-0.0014831119
0.0092462525
-0.0011500396
0.0040446916
-0.03925678
0.048867524
-0.047734097
0.0017193824
0.013942246
-0.021434685
0.006181423
-0.0006244127
0.02256682
0.0043343357
0.011849539
-0.049987238
0.010870996
-0.0007069041
0.008001204
0.038318455
-0.0033632077
-0.019067928
0.03368669
0.012615413
0.028538147
0.0009652353
0.0007035458
0.017355675
0.019523654
0.05892347
-0.037891526
-0.036481336
-0.014273546
0.0059435177
-0.049340896
0.01133315
-0.010084271
-0.0077063483
0.023425763
0.018790506
0.04542552
-0.0069322246
0.013939556
0.029763604
0.00504571
-0.026345033
0.004885266
-0.012954257
0.0041223466
0.040123895
-0.040386282
-0.02177688
0.022386685
-0.015210068
0.008238086
0.05283743
0.011443171
-0.021562228
0.0030262887
-0.021817697
-0.032022916
-0.007726044
-0.035316993
-0.031760264
0.0454504
-0.020161936
0.023721296
0.018342262
0.002641271
-0.0148616815
-0.029205086
0.0012740636
-0.0455046
-0.016859066
-0.017303934
-0.0044958675
0.020591661
-0.03789542
-0.038752038
-0.04331316
-0.0656386
-0.015471368
-0.03968231
0.0022833473
-9.246073e-06
0.040239412
-0.0052724523
-0.0016494172
-0.015092852
0.031188529
0.018242318
-0.0047736424
-0.008416973
-0.023241872
0.045859266
-0.01766265
-0.011936167
-0.007906716
0.011763707
-0.01586568
-0.050393246
-0.010759532
-0.0007040202
-0.041228745
-0.013578877
-0.048287533
-0.053381067
0.009137109
-0.015646638
0.013033212
0.02413578
-0.027971305
-0.00031941832
0.013683116
-0.0014901203
0.0047651245
0.043710005
-0.03787428
-0.02958556
-0.038669705
0.015530008
-0.0064217886
0.033862874
0.02230848
-0.007978321
-0.03944648
-0.042843703
0.0019257135
0.024929294
0.0022264887
-0.01068132
-0.00016767674
0.033440378
-0.029161628
0.027963882
0.03548966
0.027634922
0.013118033
-0.022392744
0.0041522887
0.00069310004
-0.031089967
-0.008295001
0.029708063
0.010265779
-0.010943721
0.049602807
-0.02163896
-0.035256486
-0.0358885
0.022942595
-0.030374298
-0.04471147
0.046477366
-0.0056916513
0.02360055
0.009034987
-0.023444198
0.018988397
0.026261842
-0.005367681
-0.023923937
0.018451624
0.03683808
-0.0075165215
-0.028699486
-0.027615363
0.0077403937
0.011398139
-0.0390262
-0.0020703217
-0.013373006
0.046337396
-0.09759368
0.020455249
-0.019858595
0.043919615
-0.029384544
-0.031491283
-0.00680567
-0.005934021
0.008128566
0.028347323
-0.0032783502
0.055668283
-0.030363586
-0.068888664
-0.043480475
0.020702435
-0.04801689
0.013878914
-0.03561974
-0.0014360817
-0.016675372
0.00044042524
-0.0159892
-0.003449025
0.013678835
-0.017924376
-0.032861695
-0.02626607
-0.023923568
0.020349737
0.018517423
0.0015683647
-0.0042175776
-0.018484259
0.02097331
-0.045419455
-0.012336844
0.016631559
0.012421763
0.0007150147
0.0084218895
-0.014643503
-0.0037184928
-0.0077491784
-0.046387125
-0.0113046225
-0.022023272
0.011520482
-0.0007404843
-0.0046262355
0.023355084
0.010562554
0.021109117
0.026474038
-0.026074318
0.021149809
0.03453686
0.0047310633
0.029980492
-0.0012409048
-0.0025445595
-0.031232452
-0.014962435
-0.018654274
-0.06197241
-0.012023019
0.0159708
0.006528557
0.0034966357
0.018467367
-0.03266608
-0.03736204
-0.0060316934
-0.005133128
0.02051656
-0.012096898
0.016951371
-0.005545603
0.0019341739
0.023956427
0.04692864
-0.035998285
0.04130846
-0.007827765
-0.023676723
-0.01836851
-0.010593927
-0.0049365447
-0.0089813275
-0.018210819
3.6946105e-05
-0.0062876237
0.0054912367
0.03084451
-0.011761351
0.012969764
-0.013809779
0.0060694893
0.026428837
0.020227801
0.018362628
-0.009112889
-0.0011500325
0.06792701
-0.0065268124
0.034835093
-0.0073593706
-0.0046652006
0.021135345
-0.015061704
0.004551885
0.016775966
-0.06801352
0.033374872
0.005511345
0.04359889
0.023500819
-0.01729997
0.016129687
-0.02339525
-0.04156817
-0.00037249783
-0.009566336
-0.01778111
-0.011184813
0.019735537
-0.019092843
-0.043133687
0.05464838
-0.0015096621
-0.020979239
0.0144124655
0.036112208
0.015348164
0.019314382
-0.030859422
-0.0018576027
-0.022992339
0.016921544
0.014544464
9.540247e-05
-0.025555521
0.0068135113
-0.0028086726
0.01572541
-0.022868337
-0.028949214
-0.031878673
0.016629962
-0.020634841
-0.00419206
0.023196824
0.041134775
0.008619019
-0.0027742498
0.025512114
3.7486407e-05
0.023994898
-0.008581032
-0.0021119462
0.037201274
-0.0001754801
-0.037448715
0.025215674
0.005058592
0.017659215
0.023842659
0.015550153
0.017280193
-0.013202468
0.008601613
0.009550573
0.0033013653
-0.016286466
-0.020034647
0.028687833
0.021874346
-0.054193564
0.011890691
-0.017615935
0.007938823
0.04207179
0.082447395
-0.0400106
-0.033357676
-0.01872177
-0.03952754
-0.030581994
-0.035539657
0.0135851735
0.008722101
-0.037652403
0.053032003
-0.011902359
0.026917303
0.0162678
0.06254392
0.008825373
-0.0388594
0.016838714
-0.024979187
0.025925132
0.03191706
0.0061043063
-0.034910753
0.012063449
0.023719955
-0.05546162
-0.03320806
-0.003995407
0.018091014
-0.01118687
0.003468874
0.016253402
0.005324257
-0.030429212
0.01985359
-0.024129508
0.001914143
-0.01776248
0.047684662
0.02867668
0.017113281
0.051803075
-0.005993574
0.052666005
0.036116745
-0.03167609
0.013491464
-0.028708685
0.013983365
0.0043522827
-0.026717316
-0.020747222
-0.010911117
-0.018038651
0.058855552
0.048313376
0.044351503
0.073165044
-0.038307562
0.01310618
0.0013090547
-0.013161423
-0.006652899
0.004412754
-0.004662244
-0.046075016
-0.016508114
0.020074524
0.009088344
0.014312287
-0.0051240264
-0.018584896
-0.006952515
-0.015621447
0.018034592
-0.0037143864
-0.07033228
-0.025818242
-0.043022163
0.030493164
-0.061041016
-0.011270129
0.031843737
0.021192074
-0.07349808
0.019037157
-0.06395026
0.012012213
0.06986751
-0.026566323
0.0481099
0.0012831463
0.009571261
-0.01083534
0.03475308
0.04716014
0.008145438
-0.035201382
0.04384812
-0.0160217
0.009501467
0.09136166
-0.030311579
-0.093236156
0.066740565
-0.051475484
0.029551608
-0.0099619655
0.015930614
0.013816811
0.018742848
-0.05325573
0.07745378
-0.025690278
0.0031499919
0.02534446
-0.08001666
-0.0956673
0.0065582613
0.0033282433
0.045189247
0.10819186
-0.0019229848
-0.0043874374
0.035544373
0.0077184187
0.020038182
0.003034775
-0.029160654
0.009707802
-0.01741141
-0.0111344345
0.011302654
-0.035454407
0.036228232
0.018661423
0.05117551
-0.033874124
0.027573563
0.016420398
-5.5081404e-05
-0.025666952
-0.029970549
0.03734281
-0.07117943
0.019027995
-0.032922048
-0.0167582
0.029675419
-0.07315715
0.014087029
0.049526084
-0.04689225
0.014279867
-0.023138892
-0.030751089
0.0077326037
-0.010329751
-0.0013747119
0.041016534
0.052927814
-0.005562697
-0.015396475
-0.07056351
-0.024376838
-0.04617078
0.002087065
0.04020311
-0.013514791
-0.069563344
-0.04433695
-0.013979632
0.021377128
0.016106559
0.032826938
0.008149165
-0.018217316
-0.043926656
0.030205913
0.0121825775
-0.0030601115
0.01836097
0.020350032
-0.04224486
-0.017080553
-0.06657541
0.0033905979
-0.04794219
-0.0041909204
-0.04902211
-0.060578104
-0.018988235
-0.0632204
0.061706305
-0.054454885
-0.01885036
0.0057751583
-0.0021675266
-0.039455507
0.07761417
-0.01474458
0.029727306
0.026113903
-0.088748865
0.06810721
-0.073596366
0.061141934
0.0013228758
0.025648804
0.0012553016
0.04560792
-0.01715024
0.017920677
0.032080952
-0.031170556
0.042673502
-0.0490776
0.014279809
0.06562966
0.027661962
0.038013153
0.015238412
0.010328402
-0.006679065
0.0038373726
-0.03315475
0.051218323
0.0073904875
-0.052620158
0.042256527
-0.06642118
-0.010971869
0.07072155
-0.041808262
0.060960647
0.05461374
-0.0065242737
-0.035242178
-0.03139145
-0.060368396
-0.012885488
0.016892038
-0.045178443
-0.0021966754
-0.04269816
-0.028420623
0.08869823
-0.0011195877
0.013936021
0.0034160193
0.058861624
-0.019211745
0.04606219
0.023134153
0.028228784
-0.059554026
0.004408828
0.039561387
-0.044423472
0.018087307
-0.06492419
-0.013765777
-0.04602127
-0.07888933
-0.048642706
-0.007253793
0.015670585
0.0031173218
-0.009513246
-0.0113595575
-0.016904091
0.017922822
0.02451627
0.019582242
0.033000525
-0.01295778
-0.062770575
-0.009620274
-0.081762746
0.06311659
0.063147224
0.028049108
-0.05926466
-0.044434555
-0.013959491
0.023041848
0.04642515
-0.0077367276
0.03628
-0.048961025
0.03528884
0.01865535
-0.0017366656
0.01595447
-0.0399384
0.03246302
-0.017136285
-0.04192417
-0.0035110363
-0.010921505
0.02470928
-0.09047135
-0.02863714
0.09860594
0.065639704
-0.0025094643
0.035185125
-0.013508395
0.0017927238
0.038968064
0.0050206482
0.067800105
-0.021888116
-0.004793699
0.050491724
-0.05695092
-0.039088815
0.01295726
0.028908262
0.021210507
0.012154588
0.004447546
0.0019735543
0.015660211
-0.02311099
0.052538592
-0.030839395
0.045701813
0.0018595608
0.013922947
0.035615236
0.03638927
-0.017493004
-0.06260478
-0.0146206925
0.035427097
0.0045397966
0.033703607
0.02279888
0.009182323
0.0022290717
0.054819245
-0.032881364
-0.0037106795
-0.003945131
-0.016741898
-0.021681838
-0.02955739
0.007440973
0.039087895
0.0037280046
0.0190464
0.025939152
0.017859256
0.026335854
-0.04578528
0.024367072
0.05765303
-0.032635916
-0.01450964
0.005347936
-0.046050183
-0.014042473
-0.030929517
0.01336206
0.0020860827
-0.012838168
-0.044507716
0.016646218
0.007241426
0.015753593
-0.0064041945
-0.039622582
-0.017914683
-0.03323435
0.009831011
-0.023482371
-0.10745267
-0.008677195
-0.026963128
-0.02610387
0.0057086917
0.017724032
0.011612742
0.02439529
-0.02407063
0.009031241
-0.013193927
-0.013634323
-0.005814548
0.046668135
-0.053072535
0.0492184
0.028501395
0.01061352
0.012461419
0.022497434
-0.069006085
-0.012756594
-0.05516351
-0.017091382
-0.022949338
0.055474363
0.020131262
0.012938926
-0.00066456926
0.019848973
-0.009321587
-0.036574952
0.050804034
0.0022232097
0.003990818
-0.0011598509
-0.016933383
-0.009140769
-0.004513272
-0.005792257
-0.003652721
-0.053973537
-0.008088436
-0.05563038
0.002741863
-0.021503504
-0.032391764
0.055383984
0.03984004
-0.0033563392
0.010428411
-0.012789616
0.010569982
0.030224523
-0.037414547
0.028026875
-0.018703857
0.043066725
0.0747768
0.007556168
0.0021436764
0.032038353
0.029448759
-0.032168217
-0.010563114
-0.009448489
-0.017960362
-0.009186943
-0.043519527
-0.014008808
0.007789965
-0.021569267
0.07109239
0.0154688
-0.036836278
0.0019237367
-0.05603364
0.040472116
0.030155249
-0.040520363
0.0001910852
-0.09477131
-0.045986794
0.0254205
-0.07204991
0.036055785
0.023488076
-0.06327955
-0.023046128
-0.07054795
0.030196102
0.03201145
-0.025102464
0.031045195
0.021886015
-0.009404241
-0.02136398
0.014953021
-0.03780728
0.036911648
-0.04190198
-0.004028762
-0.011173329
0.049319852
-0.009575762
0.06470977
-0.008069041
-0.013624483
0.026873937
0.0024256334
-0.0015556797
0.004871609
0.021911185
0.036603995
-0.0053374465
0.0018047953
-0.023414666
0.024097096
0.03727644
-0.015288902
0.021079427
-0.030257829
-0.051451243
0.0014225057
0.05681672
-0.0024122265
-0.000233544
0.036044538
0.0066357343
-0.007092727
-0.047601838
-0.02650144
0.0005056925
-0.008995412
0.035928372
0.02496481
-0.03578457
-0.031863652
-0.03210525
-0.038231418
0.007761478
0.062185213
0.018416058
-0.052647747
-0.014480068
-0.01799526
-0.01775205
0.0042895554
-0.042511713
0.018767286
-0.013473557
0.02491023
-0.040771708
-0.031226782
0.04332068
0.018833818
-0.0022872477
-0.019189455
0.040516492
0.0074628927
0.011313974
0.013450541
-0.0041812067
-0.013363928
-0.012482062
0.010170453
-0.050636217
-0.0012646266
0.010771984
0.0065265847
0.045302697
0.047819026
0.007710694
-0.0044642533
0.02036044
0.0067594475
-0.021833483
-0.01978888
0.010347068
0.030768663
0.01318929
-0.003025221
-0.017445456
-0.04268416
0.001504757
-0.025209617
-0.024959456
0.012052457
0.0053646485
0.00018172507
0.020568734
-0.055874273
-0.009721189
0.029648501
-0.017348608
0.03380445
0.0384394
-0.023886459
-0.016033202
0.010766472
0.012493743
0.06272957
0.05029202
-0.008350777
-0.018404074
-0.033494104
0.013896431
-0.0449769
-0.026400113
0.06117058
0.029644225
0.028297296
-0.006303766
0.017893376
0.0285695
-0.026595203
0.041953184
0.019188982
-0.024996718
-0.013693244
0.009035609
0.04203145
0.029306613
0.013605301
-0.01756693
-0.012356492
0.03142799
-0.020953292
0.024622753
0.01898738
-0.035951883
0.017880496
-0.04246138
0.030125126
-0.04410566
0.009868878
-0.022075739
-0.05176536
0.03821383
-0.03193595
0.010024031
0.026982732
-0.029018752
0.031107564
0.020185314
-0.0563416
0.04059825
0.03432171
0.0010628841
-0.008409813
0.034203537
0.02680985
-0.012775811
-0.01715714
0.015798487
0.013716274
0.0044429544
-0.0027104751
0.058869325
-0.014600995
0.023905197
0.027713008
-0.03628499
0.0031223132
0.029683808
-0.021531502
0.012119658
-0.020236367
0.072859555
0.010751906
-0.008246081
0.02200622
0.013447752
-0.054078035
0.0602887
-0.034430787
-0.012241481
-0.021140544
-0.018791558
-0.018427433
-0.05330622
0.0014325066
-0.04521529
-0.009177508
-0.0049530054
-0.010575517
-0.036114722
-0.015030207
0.015582876
0.030429939
0.056124575
-0.04634757
-0.032280024
0.040508635
-0.03454442
0.061188783
0.016455894
-0.011815102
-0.04430594
0.00542191
-0.018511593
0.004887497
0.030208495
0.013264687
0.0018781606
0.0029702478
0.008504675
-0.03784685
0.036723692
0.052021064
0.058839533
-0.04154098
-0.0072947363
-0.011733081
0.02552601
0.051347464
0.04318324
0.027367959
-0.067336604
-0.0049705873
-0.0014899439
-0.04674824
-0.04130703
-0.040203106
0.014090151
0.07935744
0.05098364
-0.003094724
0.036185034
0.0626204
0.024225162
0.032291718
0.03497957
-0.039433524
-0.016814208
0.017378997
0.019811513
-0.0891907
0.046510063
-0.00032206156
-0.05470681
0.013858005
-0.022323709
-0.0004649342
0.046480637
-0.023159275
-0.012668834
0.05643921
-0.09653061
0.0070809396
0.04685779
0.034303796
-0.018730987
0.09381946
-0.031049402
-0.033354558
0.008260057
-0.061939947
0.046706904
0.0061248285
0.0021869438
0.04854805
-0.0804955
-0.028694587
-0.045703806
0.0007758849
0.036723927
0.027428614
-0.03016861
-0.06816818
-0.036242224
0.032111835
0.08156196
0.06339681
0.06038893
-0.029150188
-0.05642142
-0.020046635
0.014748423
0.00957452
0.0029803247
-0.040913034
-0.00045068597
0.004582622
-0.028109636
0.014886968
-0.005773017
-0.011254992
-0.04760308
0.016152121
-0.02411493
0.06526854
-0.016577663
-0.0010505354
-0.013976448
0.0014044517
-0.023593357
-0.011465053
-0.015488013
-0.011345988
