-0.0066226576
0.0075374157
-0.016956706
0.017969832
-0.025946334
0.0110882735
0.038695782
-0.032228734
-0.0015765361
-0.047231972
0.039951477
0.023498373
0.0026754874
0.007855329
0.012328603
-0.020467872
-0.015907157
-0.02759108
-0.0113606
0.015787674
-0.013603202
-0.0061562588
-0.0019650478
-0.048999466
0.035949897
0.015480615
-0.007686746
0.005484694
-0.006523737
-0.0044823023
-0.00049893773
-0.0064706495
-0.007476565
0.010482494
-0.0037534053
-0.0044090566
0.041398343
0.019234939
0.010031704
-0.019810183
-0.03259929
-0.008785608
0.017074555
0.003853553
-0.014928857
-0.0027515274
-0.00011253528
0.010124321
0.0136257345
-0.0126819955
0.013478777
0.006420694
-0.024174843
0.023444233
-0.004140688
-0.0074993973
-0.005976619
-0.0074693593
0.030669343
0.018874973
-0.027211959
-0.009172434
0.029136945
0.018145347
-0.008194467
0.005503988
-0.022190161
-0.014838045
-0.028468536
0.004411436
-0.010991835
-0.01149982
0.012803205
0.0132824965
0.064404294
-0.019566007
0.032954574
0.02060174
0.0014018104
0.017329475
-0.030995613
-0.020799924
0.006863496
0.007959721
-0.009218248
0.016897708
0.011618591
-0.005295545
-0.012317206
-0.00058432546
0.00061555643
0.017325908
0.027454667
-0.02485933
-0.011453877
-0.0044097276
-0.030093167
0.02412938
0.0027361128
0.025479054
0.011303622
0.019337557
-0.021125255
0.015011007
0.028575888
0.016580258
0.01783532
0.038333498
-0.009109163
0.020018222
-0.027672142
-0.011711037
-0.0051579145
0.005640182
-0.014017377
-0.004142185
0.02734915
0.0042840694
0.005000722
0.021277273
-0.018546524
0.005003879
-0.008883741
0.00010079247
-0.021041036
-0.011069954
0.0016301689
-0.020211054
-0.01436192
0.045327332
0.027099114
-0.009503724
-0.012280388
-0.008825779
-0.014533111
-0.01155401
-0.007168855
0.03923298
-0.04114873
-0.00989772
-0.020044196
-0.019899346
-0.022222713
-0.0056962366
0.03946
0.03519362
-0.02525016
0.0006045799
0.008849519
-0.0073782364
0.033450767
-0.020949218
-0.01341687
0.0013809907
0.032517485
0.010209093
0.015194322
-0.014453158
0.019335132
-0.005747789
0.04265509
0.00907259
-0.0023100888
0.012558268
-0.02479442
0.007939315
-0.0036560593
0.016350148
0.0009076127
0.0019976457
-0.006190849
0.01813243
-0.006815528
0.021068173
-0.009515021
-0.00510455
-0.0018702461
0.025018675
-0.007379959
-0.0011128158
-0.03561833
9.961187e-05
-0.043668885
0.024163898
0.0011662806
0.019281784
-0.006384022
-0.01716818
0.010395387
0.010775396
0.015563881
0.036836375
-0.018927658
-0.005348265
-0.022110216
0.026316145
0.009159302
-0.029981798
0.0027276014
-0.036341343
0.005477316
-0.010761323
0.027216839
0.0031392493
-0.044941183
0.010874273
-0.00093016843
-0.022593787
-0.052088898
0.018738803
0.017671175
0.001710482
0.015462788
0.021924855
-0.054695286
-0.00093783764
0.049983673
0.027882792
0.0009817173
0.020072093
-0.027051242
0.002936116
0.00041052577
0.027710104
-0.004866871
-0.027781196
-0.018733436
0.028680094
0.008905914
-0.0096100615
0.00776174
-0.024228375
0.0027379137
0.011918181
0.019433953
-0.020720731
0.020460095
-0.03386954
0.01138528
0.01326559
0.015259778
0.022342246
-0.0074052997
-0.041762568
-0.015949667
-0.0068710377
0.009578039
-0.014359806
-0.021226237
-0.014362168
-0.037851088
0.012797226
-0.0243376
0.015664034
0.008554315
-0.013053895
-0.007333858
-0.008218424
0.023869839
0.0071561625
-0.036272697
-0.010638047
0.009872902
-0.0048673972
0.0060998704
-0.01457241
0.022277871
-0.0037538193
0.0057409545
0.017924547
0.016530834
-0.018774867
-0.0015852628
-0.00064915634
-0.02338499
-0.00054717285
-0.027200468
0.005957595
-0.0024324022
-0.004875803
0.018690167
-0.0077440063
-0.023993772
0.01317489
-0.01806155
-0.008202334
0.020387432
-0.009337978
-0.0032477707
-0.0074402485
-0.0023128893
0.0038374632
0.011854013
-0.0040911734
0.013894722
0.036294106
-0.0071954695
0.0053133415
-0.031478655
-0.026511036
-0.023198098
-0.00042419275
-0.03405961
0.019307762
-0.027840601
0.038896214
0.009628149
-0.012690626
-0.010755757
0.016338095
-0.03164531
-0.018309262
0.027327547
-0.016432153
0.029151155
-0.008081781
-0.0065725944
0.014231483
-0.023005296
-0.020797808
0.021951359
-0.008281538
-0.0016412863
-0.0023327996
0.021600032
-0.0371137
0.024125706
-0.017652676
-0.0251912
-0.033639792
0.019035995
0.019700646
-0.01967919
0.025729578
-0.005865489
-0.0096353255
-0.015292468
-0.014652394
-0.042241964
-0.008860502
0.042952728
0.007439445
0.03211024
0.017335447
-0.007935209
-0.011331552
-0.034641445
0.01465346
0.02301486
0.0039662374
0.012629555
0.023623934
-0.014032078
0.00351259
-0.004275027
0.0020612928
0.009038705
0.0031492768
-0.023004975
-0.0047079837
0.008524531
-0.030095877
-0.005073528
0.0101559395
0.017674003
0.0059484015
-0.047210038
0.03171412
-0.021066725
0.007862535
0.030958682
0.017672647
0.0050129746
-0.022439945
-0.00063808326
-0.0070578847
-0.006400326
-0.019297758
0.017581431
0.027619544
-0.030446012
0.0029528895
0.004742866
0.008281816
0.017284887
-0.008998403
0.0140335485
-0.009381922
-0.0029547133
-0.0057137157
-0.02618492
0.020369008
-0.007378436
0.034758877
0.004709457
0.022939902
0.016775792
0.00044268745
-0.0013376937
0.00089999766
0.026363706
-0.03100751
-0.013021595
0.027757684
0.016025536
-0.027068911
-0.017510487
-0.008930788
-0.017873537
-0.023257209
-0.014517215
-0.017226394
0.015992215
0.035697114
0.06839243
0.0068283104
0.0010719335
-0.023998654
0.0046314825
-0.04278766
-0.017835908
0.015213359
-0.055391677
0.0033331858
0.025771825
-0.023674278
0.019835819
0.02471406
0.0018594498
0.009193025
-0.041013435
0.010625867
-0.0014216405
-0.032206137
0.0010097285
0.012647438
0.0048613856
0.03945504
0.0031214568
0.00033879103
-0.019087305
-0.015678927
-0.020767095
0.005583241
-0.037011214
0.012262392
0.020866038
-0.0054558124
0.0025528672
-0.053874508
-0.038789183
-0.017058896
-0.05323227
-0.025977394
-0.024061978
-0.0026359644
0.014726073
0.0026224898
-0.0052231583
0.009930074
0.013665238
-0.051228218
0.0027286857
0.052706886
0.02573666
-0.040382978
-0.016055359
-0.012479127
0.002448461
0.01110445
-0.005558615
-0.005890683
0.024813497
-0.003353271
0.040172618
0.025958484
-0.024077855
-0.011579538
0.026731078
0.017229337
-0.017756652
-0.020879332
0.01044993
0.023569666
0.0044936975
-0.018737953
-0.011196593
0.0022085381
-0.030508224
0.02130597
0.024744136
0.010803072
-0.021315087
-0.012497832
0.0150064835
0.0036832253
-0.019854978
0.005013508
-0.01649673
0.010921954
-0.02138299
-0.024459096
-0.03482195
0.008218207
-0.038894355
-0.047000952
0.014579482
-0.02455205
0.009225362
-0.010170397
0.011200133
-0.02380308
-0.044648755
-0.006457408
0.01801311
0.0018555784
0.011704503
0.023950007
5.087523e-05
0.002378011
-0.023153346
0.00856397
0.008223123
-0.016841518
0.04077536
0.0017418544
0.01749835
-0.0032369625
0.00378168
-0.00997706
0.03345665
-0.018351853
0.034520432
0.024322655
0.0063969116
0.008158062
-0.005437005
0.06985422
0.006073804
0.05942174
0.01277163
-0.01149213
0.0166265
-0.009441627
0.028391838
0.018727487
-0.02697884
0.024025863
0.03136066
0.019213106
-0.03845118
0.016828304
0.036968082
0.029753622
-0.033942226
0.016779663
-0.016032556
-0.035088684
-0.021158932
-0.0011844621
-0.011325561
-0.00081341696
0.010590533
0.052347347
0.010485043
-0.017177159
-0.0044216705
-0.043563146
0.012289755
-0.021243716
0.001410682
0.037671685
0.0067669116
0.010167814
-0.002360448
-0.016628733
0.015639566
0.03189083
-0.0026035048
0.013886631
-0.019168349
0.03955159
0.02402056
-0.046058267
-0.011824582
-0.0055061486
0.035733916
-0.0068540205
0.016349044
0.0020474605
-0.01745309
-0.011440549
0.01889647
0.015496214
0.01719631
0.0359579
0.005446583
0.03629055
0.0068576215
0.004050929
-0.02029796
0.0173584
-0.014236036
-0.012102014
0.04839674
0.0054019736
0.0035937522
0.016282363
0.058186892
0.03908506
0.023214933
-0.04148306
-0.03787773
-0.007342564
0.05195642
0.0072982353
-0.022360692
0.01119496
0.008984037
0.005481133
-0.012786763
0.00092253013
-0.02479687
0.037483074
-0.036443498
-0.014493033
0.04976102
-0.022934321
-0.015138052
0.030190868
-0.0042417347
-0.011283173
0.0103884125
0.011662382
-0.008287013
-0.026456581
0.02445108
0.033442758
-0.029478664
0.00041550226
0.022898776
-0.020559309
0.017179498
-0.007816072
-0.014910541
0.02407948
0.01640893
0.011109921
-0.00041109527
-0.002213418
-0.028937379
0.040465217
0.0035019803
-0.0043589757
-0.0038630904
0.00864693
0.041441526
0.016636841
-0.0009561253
0.02697607
-0.019734157
0.040778507
0.024840226
-0.033485588
0.01860046
0.04437697
-0.029979289
-0.009458382
-0.00013094641
0.05382889
0.037034974
-0.018373702
0.00040882317
-0.017878411
0.032145873
0.024608975
0.022443615
0.013989172
0.018606622
0.01583659
0.01548104
-0.0022859534
0.022108592
0.027028896
0.028079344
0.0319505
-0.021389687
0.022744901
-0.028580917
-0.03072549
-0.0027883393
3.9094757e-05
0.00763465
0.022150995
0.019155486
0.022982938
-0.02359864
-0.021859346
-0.022592958
0.019970663
0.006325638
0.016269958
0.01654181
-0.030748846
0.00795689
0.016052313
-0.0036191347
0.028544702
0.017938102
0.012184649
0.030180795
-0.0007258783
-0.008112262
0.014341318
0.026019378
-0.00447908
-0.018637551
0.007955888
-0.009936914
-0.021355832
0.017795281
-0.0013283509
0.0054849475
0.021063501
-0.0038293805
-0.02247332
-0.021951653
-0.03414778
-0.016299404
0.031712018
0.00043263825
0.0033045667
-0.023557113
-0.003537317
0.016626576
-0.0021737756
0.0198985
-0.038565792
-0.0071005183
-0.029901959
-0.016816135
-0.024576288
-0.009578449
0.004418068
-0.027159093
0.013419614
-0.005118413
-0.03349039
0.029639034
0.016831333
-0.0261336
-0.0055124266
0.008679673
0.010890471
-0.015440026
0.0049240785
0.018465888
0.00061538944
0.017759979
-0.030362342
0.013343121
0.008788741
-0.020983428
-0.0046544424
-0.015145793
-0.021108756
0.0047284365
-0.0018212298
-0.043007318
-0.032071352
0.004984883
-0.015611211
0.02529851
0.0061412165
0.0132769495
0.0060769347
-0.035939485
0.025851535
-0.004251039
-0.030061008
0.014503135
0.028482284
-0.006210724
-0.0111756595
0.013647588
-0.0006422572
0.009158137
-0.024369894
-0.025087144
0.015217327
0.01609991
-0.038450006
-0.014077986
-0.016949305
0.030709015
-0.025779212
-0.029156365
-0.020908846
0.040729854
0.03526743
0.006104368
0.033269737
0.022924194
-0.011925838
-0.01753554
-0.02642956
0.012620603
0.031959854
-0.012248399
-0.00017013194
-0.026592184
-0.0048334105
-0.036956675
0.0061112302
0.033557843
0.032404527
0.027875341
0.039273046
-0.011970031
-0.026484733
-0.0062594065
-0.040916514
0.029061014
-0.004994041
0.038572825
-0.0015982452
-0.009415903
-0.016271124
-0.008930765
-0.014637371
0.004528292
0.019109922
0.008315031
-0.041372616
0.012413116
0.019863853
0.031306006
-0.001364976
-0.028424084
-0.01929771
-0.024219103
-0.02621551
0.027948463
-0.024688108
0.018164715
0.02618444
0.025477584
-0.029848756
0.035955295
-0.03499919
0.029051779
-0.022113243
-0.009796931
0.0035524406
-0.012963025
-0.013643804
0.0056221313
0.023725012
-0.009001791
-0.011802288
0.018024629
-0.023115193
-0.041058518
-0.008861685
-0.0064878003
-0.0067579052
0.017085688
0.015767986
-0.013728872
0.010014844
-0.030746115
-0.007910145
-0.026412772
-0.007725871
-0.005282859
0.00062381395
0.0018130881
0.006316625
-0.029312028
-0.027279947
-0.022001408
-0.0128680095
-0.020601613
-0.030876616
0.02294911
0.004344158
0.006003131
0.021745294
-0.010623736
0.024941973
-0.0144267725
0.016859017
-0.009606095
-0.033258654
-0.017953668
-0.016644105
-0.017157713
0.018498832
0.0035467283
-0.012754824
0.0013930269
0.011162899
0.0009943274
-0.0024895007
0.016476562
0.0175806
-0.0038054716
0.039847627
0.02931193
-0.00789626
-0.03013436
-0.019638235
0.033577025
0.00015731182
0.009842216
0.009924272
-0.0098795965
0.014917489
0.0030422937
0.017329812
-0.013767311
-0.0071400357
0.01807279
-0.0448473
-0.015655667
0.018430447
0.007846697
-0.03797912
0.02185955
0.0059890365
-0.02821972
-0.009712464
-0.014381562
0.061688554
0.01912467
-0.00872295
-0.019816596
-0.008168733
0.025409075
-0.028535053
0.018928805
-0.024744213
-0.040295053
0.023888811
-0.0060280846
0.0209892
0.014328968
0.0024244257
0.027718982
-0.0031724053
-0.008687179
0.005669497
0.028428005
-0.009389365
-0.0018497196
-0.015978971
0.02309788
-0.020911219
-0.0030775273
-0.001120449
-0.021340797
-0.02234953
0.008627018
-0.01801532
-0.0396552
-0.023829818
0.0117958635
-0.02710082
-0.02265191
0.0022214043
0.0016600731
0.007885317
0.02294798
-0.010690075
-0.005692172
0.005929463
-0.023795143
-0.03631202
-0.0043497276
-0.028716508
0.0024756356
0.0015151708
-0.0070204255
0.019639254
0.015153906
0.008271779
0.011471242
-0.015228778
-0.0017279286
0.02093507
0.008374358
-0.032592982
0.007008521
-0.009121104
0.020976435
-0.008245408
-0.0062793856
0.03248333
0.030205466
0.012337046
0.009310341
0.024671616
0.024447741
-0.028806427
-0.0138193285
-0.0027540396
-0.0028704195
-0.012606954
-0.0009387408
0.01345809
-0.008546723
0.0064785476
0.0055669267
-0.018591726
0.006395711
0.007742861
-0.016917914
-0.028013034
-0.0071217134
0.019721927
0.006258148
-0.0058146534
-0.0051914807
-0.031942893
0.017438605
-0.038479336
0.0011823471
-0.0037546586
2.908197e-06
0.015024865
-0.02887615
0.017856797
-0.0044940966
0.008003879
-0.010501954
0.032132257
-0.013932573
-0.024356386
-0.020026002
-0.002344493
0.015962193
0.018373061
0.009088945
0.028302567
-0.031103564
0.022200536
0.017657004
-0.011814412
0.0018376249
-0.013020333
0.012631551
-0.01719404
0.029530594
-0.009137567
-0.015244941
0.009776699
0.026337538
0.012211885
0.010352791
0.043988258
-0.007285754
0.01399051
-0.03075858
0.041936006
0.0013357291
-0.021143293
-0.045119446
-0.02414403
0.045574658
-0.01634228
0.024396248
0.024497775
0.013842783
-0.0151148895
-0.025965255
0.011873786
-0.0067519643
-0.024502778
-0.0062672594
0.005834393
-0.030045679
-0.017675882
0.016253538
-0.03450521
0.015877612
-0.03275875
0.01413307
0.02324444
0.014325622
0.02837062
0.009257402
-0.03274404
0.036241066
0.016213255
0.03750213
0.035697117
-0.0039485977
-0.0004994831
0.071255215
-0.004653707
-0.0011956216
-0.0048072212
-0.025937263
-0.012695831
0.015737368
0.006278271
-0.005507556
-0.029146414
0.0058994074
0.044800546
-0.0034925335
-0.002778728
-0.02313101
0.0050247945
0.0068085585
-0.01973768
-0.045849912
0.009377382
-0.007768813
0.016529577
-0.0042521446
-0.021907069
-0.031028625
0.041214652
-0.052239798
-0.0033077903
0.0315478
-0.009455601
0.016617876
-0.008650822
-0.0022877897
0.015017116
-0.019161543
0.0038083014
0.048402846
-0.0044206134
-0.02651684
-0.025589567
-0.027860604
0.022036167
-0.012995741
0.04812739
-0.0060919654
-0.027516484
-0.020387452
-0.0065618833
-0.002246165
0.040078584
0.010116034
-0.014493121
0.03278367
-0.0077442843
0.026502917
-0.054790106
0.026865873
-0.0074136034
-0.01612253
0.022526931
0.004323583
0.0061390875
0.0150883645
0.012868125
-0.019263977
0.022508344
-0.021916635
-0.014178238
-0.019534592
0.023376666
-0.010733432
0.010773518
-0.037684035
0.014886131
0.0207659
-0.030193139
-0.0146303475
0.0011253362
-0.03381525
-0.027696213
0.016642325
-0.014939085
-0.043261234
0.0023827248
0.0047659813
0.0061754338
0.0046186047
-0.0073599317
0.01657419
-0.00026823737
-0.009755806
-0.0199931
-0.028903397
0.005748442
0.012271485
-0.016160078
0.0015652163
-0.0068399454
0.015733575
0.027550522
-0.020887323
0.04358708
0.0043065874
-0.0018288313
-0.005594933
-0.036720585
0.018711
0.007006061
-0.004967976
-0.028864233
0.0014265236
0.016690569
-0.01273354
-0.018564256
0.0126336785
0.007094388
0.02386824
-0.0078039253
-0.012151147
0.00868764
0.016546024
0.015402761
-0.016217778
-0.0011851075
0.034039408
0.00467053
0.03234038
-0.02768061
0.021131907
-0.011329055
-0.020602569
0.01065745
0.020870086
-0.0053897672
0.012696653
-0.001254449
0.019282274
-0.022495562
-0.037118994
0.020555142
0.0048664757
-0.0054610795
0.004230613
-0.030333724
-0.03126742
0.0031524322
-0.02944653
0.032970876
0.024103064
0.012662954
0.0069867577
-0.00302936
0.03334472
-0.038287144
0.0039935517
0.006326408
-0.006465726
-0.057083152
-0.030481547
-0.032774396
-0.021564221
0.0063227806
0.0022676229
0.0058063813
0.011075219
0.015059513
0.0245888
0.01887845
-0.00030513454
-0.021752724
-0.008133021
-0.007874145
-0.036280457
0.0017212179
-0.023069175
-0.03754948
0.023097925
-0.01837353
-0.0076053133
0.009407153
0.008100252
-0.01643199
0.0324648
-0.00660304
-0.022532117
-0.015510357
0.03566235
-0.016021295
-0.024560494
0.018708037
-0.01950831
-0.02915266
0.029929021
-0.046101384
0.019189011
0.04596064
0.01804523
0.034753818
-0.00423162
0.0020477301
-0.006293611
0.018447831
-0.003468337
0.0032108647
-0.019827586
0.022336798
-0.04748716
0.04222188
0.031204293
0.009339454
-0.012800357
0.014267872
0.009222219
0.015991343
0.01201469
-0.02002008
0.025007276
0.01226644
-0.034293048
0.01756261
-0.01005878
-0.002165571
0.019431349
-0.0280621
-0.0021065911
0.054246806
-0.043778516
0.012440987
-0.004615804
0.03998289
0.013990651
-0.004754422
-0.046468712
0.02437301
0.032691788
0.01575566
0.02523227
0.012079155
0.027850427
0.00017842547
0.05455526
0.030810174
-0.001500151
0.047035933
0.010884329
0.036180247
-0.023414426
-0.020629663
0.000688049
0.028267652
0.04098641
0.015270449
-0.0017681213
-0.05823945
0.013926582
0.0010653015
0.007612828
0.0068996237
-0.03107201
0.028675247
-0.011492235
0.010926461
-0.0023278613
0.02457956
0.0573684
0.019853666
0.040997665
0.00047890955
0.034237716
0.016075049
0.019144155
0.014717315
0.042826198
-0.018655399
0.019471979
-0.023060713
0.009973176
-0.037007432
-0.008473831
0.011482095
0.016011938
-0.017593507
-0.03016623
-0.0069119646
0.033733666
-0.003615992
-0.035773758
-0.00301435
-0.024323853
0.0030501497
0.0099384785
0.006876721
0.0138170365
-0.022929385
0.021336904
-0.002643563
0.012162728
-0.016335262
-0.0035665531
0.04764111
-0.0031546648
-0.0048549925
-0.00684055
0.017322248
0.027975636
0.03233534
0.025657
-0.0077333297
-0.019962175
-0.004440047
-0.032710254
-0.031935852
0.02954111
-0.021817276
-0.009319481
-0.022534885
0.003437587
0.026629383
0.0050319624
-0.0102651995
-0.0006090668
0.014292638
0.017424984
-0.016693471
-0.020270603
-0.011837602
-0.031487178
-0.02348022
0.03428486
-0.01859634
0.014850482
-0.014687191
0.007086223
-0.040528182
-0.0061699273
-0.008412008
0.0396434
-0.014257005
-0.025336852
-0.0026410304
-0.036685493
0.021938628
-0.018153742
0.008615353
0.0062387763
-0.00046418913
0.060621653
0.03828504
-0.04572334
-0.001695316
-0.024896009
0.037136912
-0.042198848
-0.00052205595
-0.025009347
-0.0041933428
-0.026714012
-0.021800736
0.012626738
0.029724723
0.017991198
0.013983798
-0.019876266
-0.01060602
-0.02229204
0.030828642
0.046332497
-0.0061384602
0.0029063306
0.021499898
0.009474483
0.022046285
-0.032531243
-0.016352655
0.008398551
0.010777497
0.019766351
0.019195689
0.034912083
0.0013959651
-0.018676057
0.009567836
0.0028590627
0.008549979
0.030039296
-0.026799629
0.006340449
0.050174724
-0.02429254
0.018051896
-0.005977719
0.014730179
-0.0130827
0.0017504441
0.015849734
-0.01961058
-0.0082506575
0.020886268
-0.0077919792
-0.03096582
0.028139792
-0.013711597
0.0029894647
-0.0059587476
-0.017629633
0.053877804
-0.049177017
-0.03899411
0.028207682
0.049012132
-0.0289693
0.035175607
0.07207099
-0.008171572
-0.009101696
0.0032847442
-0.014257009
-0.013217305
0.005208816
0.022736935
-0.00946143
-0.014975385
-0.0141410455
0.036500923
-0.0035189723
0.024158584
0.01217303
-0.000539443
-0.00010287131
-0.0020016143
0.034804028
0.036508676
-0.00668078
0.02685485
-0.029395953
-0.0017053114
0.041876204
0.0031364884
-0.026230343
-0.038118497
-0.016559757
0.013538348
0.0072451667
0.03434559
0.009331834
0.011601422
0.0222651
0.0068710875
-0.011982738
0.00983804
0.0032304705
-0.00044878165
0.0088095255
-0.0054354975
-0.000686969
0.004260521
-0.020032447
0.03370291
0.015367431
-0.012683764
-0.008624516
-0.01768452
0.0128222415
0.022800747
-0.016122067
-0.036734823
-0.002349034
0.026505051
-0.014104409
-0.003544567
0.023357278
0.013733439
-0.00045933318
0.001836845
0.021168508
0.0155036645
0.048962522
0.02022361
-0.0049433736
0.0050798813
-0.026722252
0.013516764
0.008284344
-0.021800786
0.016686413
-0.02931734
-0.020265438
0.014943628
-0.02418417
0.022416115
-0.009511924
0.018397382
-0.0104378415
-0.026717016
0.008726327
0.022162508
0.036821883
-0.016170088
-0.0070107104
-0.054156147
-0.009224218
0.030832196
-0.011432441
-0.033235505
-0.029429862
0.000971567
-0.0028496755
-0.02709505
0.008860443
0.011748529
-0.018906165
0.040493432
-0.009810702
-0.013147374
-0.030542811
0.0120460745
0.025047895
-0.016778503
-0.0057769585
0.022180606
-0.007228508
0.01425304
-0.02224719
0.025964921
0.0033277068
0.00045615842
-0.010241006
-0.018641552
0.01630133
-0.017473452
0.020865444
-0.014633064
-0.014028986
-0.009697222
0.035549905
-0.028868504
0.013127045
-0.00957526
-0.041305326
0.023550512
0.026042284
0.039288312
-0.004853287
-0.025284538
-0.03526965
0.011244916
0.0054480666
-0.0144981565
-0.01683542
-0.010618178
0.048519954
-0.010697383
-0.011084346
0.002708436
-0.024724057
-0.01146894
0.037807588
0.024180615
-0.017387314
0.011950759
0.00013339425
-0.046642743
-0.026951458
0.015713463
0.032299485
0.04948576
0.012144296
0.0074763116
0.015257413
0.016724054
0.044789087
0.026636163
-0.022764374
0.03558799
-0.025541024
0.010047041
0.010122096
-0.028514126
0.022226037
0.023194807
0.029596973
0.004993687
-0.0048533943
-0.021675758
-0.038876537
-0.011718784
-0.017533213
-0.016941618
-0.035305545
0.0063259657
0.0120591605
0.009435163
-0.028549323
0.024441298
0.02735943
-0.023366414
-0.0038423901
0.024263186
0.0046715583
0.012832509
-0.011944727
-0.0093484735
-0.0013247782
-0.028189378
-0.019713538
0.02299337
0.014917812
0.029417444
-0.029788129
-0.02164261
-0.00819866
-0.014724195
-0.035519022
-0.00053588045
0.015712304
0.0077782264
0.022597603
0.031180393
-0.026803548
-0.029954234
0.02079549
-0.0065025976
-0.00015287293
-0.03312012
-0.04472263
-0.0110144885
-0.005064746
-0.052469924
0.0072950083
0.0048626494
0.013724292
-0.036823336
-0.011753022
0.026281446
0.0006725416
0.014451542
0.0057278844
-0.004130251
-0.023293605
-0.006273544
0.002212563
0.017470539
-0.009458691
-0.0010271206
-0.024974106
-0.0007484818
0.014796268
0.016243802
0.007184526
-0.026866904
-0.028940637
0.036712125
-0.0001261966
0.0077227717
-0.021251474
0.0053758984
0.002057505
-0.021556357
0.025082322
-0.02300636
-0.028218275
-0.021140644
-0.0073600174
-0.021511866
-0.033881854
0.000256633
-0.014400879
-0.041593656
0.010103726
-0.0075890035
0.010885052
-0.014295884
0.012667231
0.0019600473
-0.0019606282
0.032426897
0.013836345
0.004247966
0.0130168265
-0.055660944
0.023688745
0.029116882
-0.0074764127
0.00027542733
-0.007309752
0.012534928
0.016322691
0.021351457
-0.004810852
-0.012206256
-0.010399207
0.01735305
-0.0071708374
0.0127897635
-0.009981772
-0.006328734
-0.016422974
-0.02292444
-0.030079564
0.014657093
0.022668807
-0.025768647
0.023901857
0.018686416
0.010403707
-0.023969747
-0.012136594
0.007863145
-0.022075016
-0.025416372
0.033182595
-0.02147678
-0.035169136
0.048016317
-0.020454787
0.027457915
0.028562637
0.036236912
0.015229627
-0.02228182
-0.008811396
0.009881396
-0.011028319
0.003650627
-0.017973877
0.0033430974
0.015186738
-0.007373679
-0.015881924
0.009562538
-0.039007653
0.011478846
-0.023021668
-0.007850573
0.012094276
0.0054590567
-0.001286034
-0.014563223
0.019495621
-0.024669187
-0.00628598
-0.0030752993
0.00036416468
0.04407841
0.01546717
0.0044414517
0.027652903
-0.025715118
-0.0032403779
0.04638976
-0.028765686
0.019367557
0.014103289
0.028715117
-0.031289317
0.024316212
0.0185592
0.013459317
0.00052688475
0.00416294
0.017008452
-0.009580878
0.0060597397
-0.042154014
0.050408624
0.0064772987
-0.003264157
0.0045362213
-0.0070075365
0.03927957
-0.02015055
0.0007062159
-0.036987208
0.04261565
0.059335433
0.033483706
0.03142564
0.039845407
0.027596014
-0.026167199
0.02766822
-0.0086088525
0.025241155
-0.013350126
-0.013653963
0.041935574
-0.00974774
-0.0055981628
0.006810732
0.014007214
-0.011689132
0.009870456
0.002917582
0.0010555787
-0.003346734
0.027474076
-0.0006453985
-0.0026181252
-0.008131305
-0.012681028
0.029414278
-0.016063573
-0.0061966437
0.020677265
0.016899373
-0.0049857157
-0.0419453
-0.022454584
-0.0212573
0.018810099
0.026998987
0.004935246
0.034264263
-0.005458802
0.004386162
-0.00032993613
0.006190403
0.023267703
0.020910854
0.012330852
0.03560983
-0.0035397164
-0.021502094
-0.02313884
0.0037463484
0.0037941036
-0.023177288
-0.027101826
-0.00027794015
0.02059186
0.040290292
0.0012935956
-0.0239207
0.037189685
-0.027001325
-0.00049049116
0.021548918
-0.0052298056
-0.0060137687
-0.053838104
-0.0020126284
0.016534477
0.010032952
-0.01426001
0.014366279
-0.013352561
0.0053135273
0.020333044
0.020969288
0.028301802
-0.020107774
-0.01390928
-0.013796039
0.038418103
-0.024955602
-2.6724194e-05
0.014726842
0.0067232177
0.012293865
0.022871563
-0.027432142
0.001112463
-0.0013129329
-0.010002329
0.017416883
0.008145063
-0.024338527
0.017364431
0.02239039
0.022801526
0.0013078204
-0.03988654
0.0016812348
0.034189492
0.0037754679
0.0154546015
0.013566819
-0.013313201
0.019531906
0.022318948
-0.016213737
0.025909064
-0.00019517471
0.034577567
-0.0021055755
-0.034460288
-0.011447144
0.011440516
0.01747045
-0.020383539
-0.027688678
0.016216433
0.022239791
-0.007505404
-0.012193749
0.018947924
-0.00090780243
0.042408332
0.01997644
-0.00676267
-0.014662643
-0.010862125
0.025630027
0.019002037
-0.00552099
-0.016593508
-0.004467712
0.017078659
0.0034685887
0.0064426977
-0.013121215
-0.013873645
-0.002081766
-0.024595233
-0.0075327624
0.02250286
0.034124218
0.034278914
0.016284773
0.034216054
0.028604297
-0.020626932
-0.011107541
-0.0067446167
0.007967978
0.0031445003
-0.0018887839
-0.038906317
0.00015581513
0.00960956
-0.038431447
-0.030853428
-0.00039277296
0.016267875
0.02388153
0.01003919
0.013862152
-0.017722934
-0.024345227
-0.003122282
0.0026519678
0.014304115
0.0099358205
0.021975463
0.017584518
0.0007246203
-0.009604685
0.0024241426
0.019343652
0.020853123
0.00888531
-0.003112779
-0.0005788706
-0.017202074
0.023472156
0.014286855
0.012962545
0.019412117
-0.015584897
-0.0044455985
-0.027512249
-0.016040802
0.015513248
0.003739358
-0.014407188
-0.0136336805
-0.0072128987
-0.009178848
0.02734354
-0.016450152
-0.011534153
-0.004807212
0.007542327
0.012954274
-0.0023957698
-0.0060050394
-0.006773064
-0.00557459
0.011411011
0.011699903
0.017497757
-0.014342627
-0.018351408
-0.022775639
-0.010261195
0.0011498992
0.01492245
0.0229041
0.01266748
0.018330192
-0.0090349065
-0.0018932752
0.032789525
-0.010563967
-0.012448652
0.0072910655
0.012798549
0.0071922773
-0.010119589
-0.010449893
0.0050287517
0.0109470235
-0.0009800661
0.00011860613
0.012516494
-0.0021687383
0.008573802
-0.012647886
-0.016654707
0.014243854
0.03042283
-0.02686385
0.014817046
0.007303259
0.00562432
0.006700882
-0.0063165724
0.031302344
-0.00643653
0.01589777
-0.041128222
-0.014472939
0.015832774
-0.011779097
0.011695715
-0.016156035
0.0027026744
0.03349874
-0.020838264
0.01997785
-0.0047110063
0.0045052143
-0.010275578
0.018561216
-0.03196926
0.008971608
0.0015568347
-0.021516945
0.010241841
-0.007931365
0.02980546
-0.002216401
-0.0026880149
-0.00902372
0.03070542
-0.0022571497
-0.01150782
0.016795052
-0.013192521
-0.008351161
0.010067672
0.03327767
0.00072557834
0.04401667
-0.0065982984
0.0004681675
-0.009858843
0.0039195935
-0.027213236
-0.0060751988
0.026021905
-0.009291034
0.02986421
-0.006929516
-0.021547718
0.03652477
0.0497982
0.0144648645
0.000579898
0.049289916
0.013434929
-0.015096967
-0.010691606
-0.054619856
0.02518599
-0.009273708
0.014377215
-0.0231884
0.012468328
0.009316884
0.041058756
0.0037562011
-0.035340708
-0.044178627
0.032243107
-0.020241901
0.0006241395
-0.013122275
0.021719182
0.021621155
0.017379086
0.021766474
-0.009289521
-0.027238688
-7.827397e-05
-0.03171791
0.021197177
0.021739269
0.01973576
0.0034948657
0.0066763954
-0.03984839
-0.025573438
-0.028161408
-0.03750171
0.037876606
-0.0010090163
-0.009955836
0.010872954
-0.015153834
0.0024047755
0.0047082785
0.0014336605
0.036069617
-0.0069399597
-0.024493927
-0.031602167
-0.04414327
-0.026840862
-0.044379137
0.02713282
0.049676973
0.020653537
0.01754866
0.013319188
-0.02081814
-0.0347634
0.03031667
0.013250552
-0.0051532006
-0.014592894
-0.014399847
-0.045307983
0.013144385
0.039199706
-0.0014010097
-0.00870079
-0.00871997
-0.039341986
0.025981707
0.0012496947
-0.032297548
0.0055711344
-0.027138315
-0.024519728
-0.0028565698
-0.028139737
-0.004273119
-0.03295998
0.0052638496
0.0214037
0.0049612285
0.012834488
-0.03148746
-0.016328644
-0.0020045375
-0.007973847
-0.0069219903
-0.014490129
0.011552388
-0.0025191002
-0.020532327
-0.027924247
0.031384688
-0.021124367
-0.01649392
-0.008315195
-0.03622545
-0.01701701
-0.019101357
-0.033190586
0.001917833
-0.0061712214
-0.013439932
-0.023960808
-0.026279792
-0.039813437
0.009784831
0.009627232
0.0033027772
-0.016155666
0.009391502
-0.039421827
-0.03372597
0.005115311
-0.029687563
-0.019770576
-0.027255587
0.013173161
0.01175119
0.001815079
-0.0039836187
0.012985448
-0.004494682
0.006758105
0.009396758
0.008183847
-0.031834908
0.031942654
0.034951184
0.0040050377
0.012112343
0.004619177
0.019194625
0.019031212
0.035781197
-0.007960725
0.03634108
-0.022680713
0.01893254
0.03709811
-0.011609993
0.037406493
-0.03292063
0.000899949
0.025644898
0.009139349
0.009660158
-0.019299656
0.014683164
-0.037210133
0.023844935
-0.008483948
0.009651794
-0.017575879
0.018030975
0.021409435
-0.014888152
0.030726409
-0.01546731
0.025389874
-0.024055699
0.017797425
0.002286553
0.003146641
-0.055009585
-0.012156846
0.01614868
-0.032625496
0.036075614
-0.023049753
0.0038518624
-0.035050336
0.027032962
0.029636882
0.013072354
0.00928906
-0.029399943
-0.028691953
0.0046723066
-0.02115827
0.0065968586
0.019326612
0.0013381522
-0.021522393
-0.029437974
-0.0038089459
-0.024180392
0.017182514
-0.012174607
0.0027177387
-0.014650404
0.00029184524
0.005227237
0.022350125
-0.04983592
0.02269257
0.011852014
0.012055555
0.027323784
0.0011396534
-0.008184265
-0.009601065
-0.00820818
0.00072013587
-0.028560447
-0.0008537126
0.008521813
0.01309322
-0.02866691
0.011139601
0.0071841865
0.032248225
-0.004514097
0.015197847
0.03996709
0.027896771
0.0115045495
0.037379935
0.006673572
-0.0057592136
0.011348467
-0.0059307
0.0065043117
0.0037158162
-0.0014697639
-0.02718711
-0.008030941
-0.01803411
-0.003111737
-0.03320478
0.006022526
0.0063502374
0.023475109
0.03126957
-0.0048355893
0.025899528
0.0031374586
0.006778961
0.007048735
0.03997849
-0.019061193
-0.0022902307
-0.024784826
-0.009260534
0.013747527
0.011882441
-0.032718003
0.008793333
0.036691595
0.041113116
-0.0007837487
-0.03160098
-0.0052118017
-0.024674866
-0.00093460124
-0.03714113
-0.034858022
-0.041868564
0.022220545
-0.04701679
-0.012480993
0.031488076
-0.03264567
0.0022556586
0.03367664
0.021379976
0.012492744
-0.012111207
-0.020410042
0.014965292
0.010332393
-0.00017572915
-0.023565207
-0.029003747
-0.012012194
0.008059026
0.028736664
0.008666484
-0.012937347
-0.01235617
-0.04016725
-0.01629585
-0.010058146
-0.022528088
-0.0028131371
-0.008444612
0.0018287826
0.010125439
0.0006108062
0.03282483
0.02282074
0.019392107
0.017707042
-0.004562867
0.008876575
0.007864946
-0.019853879
0.02494678
-0.00841688
0.010055161
-0.023513308
0.028389841
0.007407041
-0.008463348
0.010699718
0.017318487
-0.0062730857
-0.022511309
0.0141173275
-0.008953925
-0.01370958
0.0016161248
0.02587384
0.025333991
0.010235779
-0.020655254
-0.0092539145
-0.016816285
0.00831865
0.021844024
0.022259206
-0.016037181
-0.0016841821
-0.007367026
0.0040854425
-0.00635125
0.012145271
0.022639351
0.01805318
-0.021351961
-0.008044405
0.0034679526
0.0058461833
-0.012139625
0.005580055
-0.020639189
0.01520386
-0.0203959
0.019867267
0.0076582492
-0.014494457
-0.01745174
-0.004476511
0.0024301773
-0.050360054
-0.012729758
-0.012411443
-0.013916713
0.0148013085
0.007411485
-0.013460308
0.0025829664
0.015292997
-0.035975087
0.006903038
-0.025738701
-0.014854081
-0.018081445
-0.043094695
0.0092502115
0.013165339
-0.023632618
0.012946495
-0.029795147
-0.0037272403
-0.025265034
0.006360023
0.023990687
0.023566682
0.0026069866
0.04204502
0.012832138
0.024070792
-0.0023849073
0.035862
0.04008545
0.028404413
-0.04389014
0.017498171
-0.035547055
-0.005446928
-0.019934008
0.00095250603
0.012016489
-0.0055429945
0.0132990815
0.046891302
-0.008839212
0.029008912
-0.05661813
0.011619186
-0.03214568
0.0196638
0.03076819
-0.027673008
0.017457504
0.008887689
0.032103825
-0.0026907604
0.033273093
-0.020869456
-0.006591249
0.015484358
-0.03738034
-0.010856429
-0.0028473977
0.025032304
0.020555135
-0.030615326
-0.0154654505
-0.023813505
0.010082166
0.0045390488
-0.011624395
-0.052187096
0.014069425
-0.026237266
-0.044603318
0.016725596
-0.009219764
0.010141531
0.022243368
-0.010605139
-0.018961553
0.018885534
-0.020179426
-0.023950692
0.002006495
0.024086485
-0.025876563
0.030855918
-0.04659398
-0.022539906
-0.015896313
0.02422383
-0.0011019337
-0.0044742804
0.019028222
0.031755235
-0.0038205457
-0.034103904
0.012580977
0.023216914
-0.0066738594
-0.018840313
0.043332234
-0.008684715
-0.018132437
-0.011698059
-0.0010686679
0.002720581
-0.031534884
0.040098883
-0.02155783
0.0035811558
0.01708263
-0.014890135
0.0042742877
-0.00647012
-0.008033315
-0.006508488
-0.010102195
0.013572864
-0.017871574
0.026573151
-0.030498292
0.0015997342
0.036565736
-0.011029919
-0.02284696
0.0060579213
-0.001896713
-0.030738316
0.022405475
-0.029743273
-0.0025151279
-0.036874544
-0.023243051
-0.03601007
0.029815417
0.027356846
0.02962537
0.016878918
-0.01759542
0.019062363
-0.005813179
-0.036523953
0.006151015
-0.02156862
0.023917433
-0.005099616
-0.010446279
-0.011600181
0.006960681
-0.048199046
0.03502675
0.020405669
-0.028427873
0.014563375
-0.03384586
-0.012335333
0.042473454
-0.009790281
-0.016814582
0.020965727
0.039632544
-0.0021731479
0.007419572
0.017416108
0.014905965
0.0039403294
-0.017974522
0.013814358
-0.00028752725
-0.0082871625
-0.0068348986
0.014937235
-0.00013027541
-0.031299073
-0.01795694
-0.037410986
0.009491376
-0.041003257
-5.672259e-05
-0.036717135
0.016643472
-0.004017281
-0.013998651
0.013157771
0.012807097
-0.011304876
-0.03305545
-0.0025195857
0.05726162
0.024465477
-0.02305917
-0.010377995
0.015183996
-0.025271788
0.010400665
-0.024638703
0.004290699
-0.0005545556
-0.02897173
0.0024476848
0.0029648442
-0.0046142912
-0.017290711
-0.043709997
-0.02182062
0.009043431
0.01511107
0.02180281
-0.0029132199
-0.03441153
-0.0044361027
-0.027029483
0.009667586
0.017563451
0.00031901055
7.593523e-05
-0.0071738088
0.014244973
-0.033927243
0.0114017995
-0.035620697
-0.015974825
-0.020654334
-0.0048694
-0.008273227
0.025500203
-0.040313967
-0.006047416
0.01009969
-0.006738212
-0.019383613
-0.0021258716
0.021292027
-0.02176858
0.0043725907
-0.00666377
-0.0040815016
-0.0021164955
-0.0039865524
0.021386812
-0.004368223
0.039259147
0.0044117495
-0.016629992
0.0070428993
0.009043427
0.0003782066
0.009608724
0.013904431
-0.008625633
0.01359463
-0.006457642
-0.019540787
-0.0060989982
0.017987967
0.032697666
-0.0018795765
0.022566793
-0.0054978766
-0.016852206
-0.0036613713
-0.0009727727
-0.007061051
-0.0025287583
-0.016752142
-0.02086514
0.012358903
-0.011762946
-0.008404257
0.02514943
0.00864968
0.006949939
0.007994255
0.013352442
0.0053878897
0.025983099
0.027253712
0.014715199
0.021065583
0.0106528485
-0.0004921015
0.0058414913
-0.0126661975
-0.003182603
-0.021266088
0.011525615
-0.014638051
0.010915895
0.0034722157
0.037250675
-0.00532688
0.0006554208
-0.024271004
-0.02466832
0.008024071
0.013197848
0.043774474
0.010161894
0.0072359913
-0.007103573
0.024397451
-0.009974293
-0.011400552
0.016235558
-0.0043777213
0.0040989416
0.017834488
0.003080495
0.01686106
-0.018011628
0.0073527624
-0.011745723
-0.02138638
-0.025846947
-0.021607269
0.028586553
0.0031515176
-0.020902444
0.013387793
0.00021963884
0.008883058
0.014724206
-0.04485367
-0.015357061
-0.0021456415
-0.017533349
0.009343789
-0.019237956
0.02543205
0.024980227
-0.027003217
-0.011352974
0.013290806
0.02492231
-0.015998363
-0.022036757
0.0045496775
0.016390242
0.0047978833
0.018343836
0.01871689
-0.015472268
0.030280983
0.00956478
-0.004171236
-0.0017281695
-0.011045064
-0.025738366
0.032804996
0.022749227
0.03117124
-0.0023306333
-0.006008864
-0.02501088
0.029777983
-0.0035915182
-0.0344344
0.006973582
-0.0044801375
0.0078111147
-0.013520735
-0.032138083
-0.019875292
0.023021769
-0.018889397
0.02115075
-0.012744616
-0.04487844
-0.0076027745
0.020565584
-0.00047288073
0.0120541975
-0.00942627
-0.019691957
-0.0007949009
-0.02098824
0.024762006
-0.0073080375
-0.0010649407
-0.0060097314
-0.03574766
0.008230177
-0.030733993
0.002325437
0.024865327
-0.035687324
-0.027289586
0.003508898
0.017594129
-0.0137226
0.0061092614
-0.011968892
-0.008161385
0.040989622
0.022734808
0.025927015
0.016450334
0.0036215005
0.02119361
0.016983153
-0.012576413
-0.021558182
0.016798029
0.020797957
0.010737641
0.013807661
-0.035944507
0.032481436
0.018076012
-0.03156654
-0.014142604
-0.018431526
0.011342905
0.037161473
0.011763865
0.009814993
-0.04221281
-0.024826925
-0.008424318
-0.030441176
-0.023513677
-0.0042125364
0.020383444
-0.0008674856
0.0305058
-0.021325942
-0.00504684
0.012065066
0.021617327
-0.025127456
-0.02635283
0.017897466
0.010041954
0.010709645
0.008523194
-0.004956238
-0.0029072512
0.009817158
0.002805277
0.061340645
-0.00044270066
0.006254592
-0.013375185
0.026758963
-0.03221931
0.030237863
-0.04103711
0.004168561
-0.013785903
-0.041402053
-0.022038596
0.024520325
-0.01634984
-0.0010688959
0.015936244
0.010030015
0.008461155
0.010640088
-0.0031784985
0.0010046152
-0.017924923
-0.010070009
0.0013559221
0.0036335178
-0.0053758677
0.033693485
-0.023793278
-0.021014249
0.0020442596
-0.020166352
-0.013930982
0.017336523
-0.033214785
-0.0030984278
0.0068728114
-0.01528801
0.011066467
-0.01596756
-0.008194961
-0.010921509
-0.05069247
0.030223055
-0.012878345
-0.00819824
0.0029934798
-0.006340206
-0.013533531
0.006723547
-0.004113307
0.0016960755
-0.0061570997
-0.0021977806
-0.031403568
-0.014890023
0.02119146
-0.03309825
-0.012223314
0.014231292
-0.012142391
-0.017152954
0.04935948
-0.010252284
-0.018944772
0.007169417
0.01780148
0.019972712
-0.016027356
0.0184612
-0.016508834
-0.014657138
-0.0014887473
0.014311519
0.039287213
0.014181625
-0.03649441
0.022777103
0.013821409
0.033995736
0.034577418
0.028945442
-0.0015211616
-0.0052571585
-0.027694074
0.019936021
0.011228841
0.0056106783
-0.060215387
-0.0068655103
-0.012611142
0.03149853
-0.0101051675
0.007539803
0.0016976026
-0.011264008
0.038299255
0.02190841
-0.033768926
0.01652064
-0.033402514
-0.019834755
0.01808
-0.020595035
0.0012249091
-0.021641742
0.005694506
0.0036166576
-0.015748644
0.015145749
-0.017533481
-0.012564099
-0.008856079
0.04712311
0.028253356
-0.007313206
0.018260257
-0.016485138
0.0021105264
0.00076628197
-0.0141189145
-0.010628351
-0.020224439
0.011387269
-0.0047328877
0.009319155
-0.005253625
0.012606227
0.0057983585
0.025393117
-0.0030951996
-0.013179453
-0.018573077
-0.010228328
-0.016579518
-0.0006852897
0.017432781
-0.003403123
-0.0032756669
-0.009089142
0.013981524
-0.0019335743
-0.00512174
-0.019958297
-0.020662514
-0.015848532
0.0036322311
-0.015912658
0.00030295015
-0.012435108
0.023069419
-0.010367107
0.022610635
-0.02674005
-0.015185508
-0.0072811954
-0.034975033
0.012120313
-0.005833815
0.009512394
-0.014995066
-0.00611181
0.006837827
0.015021784
0.019219529
0.027831888
-0.005326207
-0.015023019
0.0041089384
0.0033922747
0.018765328
-0.0026869962
-0.031926867
-0.025185911
-0.01252346
0.0014182233
-0.016792763
-0.008820984
-0.029798934
-0.0149797555
0.03226624
-0.029515313
0.010849637
0.035526276
-0.008456713
-0.0006115756
-0.0010782139
0.009998059
-0.036782734
0.003928134
0.002947703
0.032400902
-0.0019533632
-0.010143274
0.004762861
-0.005806186
-0.0014055476
0.028647723
0.015097081
-0.0022453652
0.022355402
0.011307092
0.00263518
-0.0225868
-0.010144067
-0.00023624653
0.0061954563
0.034388658
-0.0023961053
0.017344134
0.01768477
0.030965893
0.03357977
0.028650358
0.015422113
0.009821928
0.0039368295
0.0070712715
0.017450552
0.0023136917
-0.015046353
0.0055908333
0.0017664972
-0.0054063103
0.019468922
0.003785462
0.011869581
0.015389275
-0.020210933
0.0348099
-0.029869769
0.010278546
-0.018736044
-0.012501597
0.017698891
-0.031732958
0.00029638933
-0.015679134
0.0011796128
0.022738537
-0.023228766
-0.040905785
-0.008247047
0.029804882
-0.0027700632
-0.020685151
0.03055745
0.026816303
0.015790818
0.020337017
-0.0077396547
-0.029055227
0.0037008463
0.0017237652
-0.025885405
-0.0070352238
-0.003326409
0.03781345
-0.0012360053
0.008742411
-0.033550713
-0.010963809
0.011453789
0.015854882
-0.033108626
-0.008376947
-0.03976446
0.022598414
-0.014604229
0.018457083
0.015582641
0.014155855
0.009447502
-0.0036304996
0.037212085
0.016592432
0.01776457
0.017818209
-0.03945521
0.04216979
-0.03762245
-0.014103498
-0.01659939
-0.0015960641
0.02411944
-0.015792433
0.011714099
0.013345208
-0.0106420815
0.009589417
0.026804311
-0.026653819
-0.04307844
0.017319618
-0.021814032
0.01743782
-0.0055690343
-0.020985661
0.017522246
0.028924618
0.00546999
0.0035172803
-0.009335441
0.010892669
-0.0020080921
0.0048700077
-0.019875258
0.010426845
-0.017384928
0.007980934
0.025473129
-0.004567453
0.0007442838
0.0033381109
-0.019363318
0.008632064
-0.0011582127
0.036799375
-0.0007148139
-0.008531821
0.031350117
-0.025643162
-0.010028044
0.01739657
-0.0008486336
-0.006790947
-0.0061647827
0.02711526
-0.0061074304
0.021472957
-0.0027583805
0.015043418
0.00945766
-0.024595104
-0.0031766377
-0.01473759
-0.01852202
0.0036630335
-0.02099593
0.0002478292
-0.004600546
-0.008468625
0.020336093
-0.014786724
0.019804467
0.0041466923
-0.0117445765
-0.010131651
-0.032708894
-0.0352044
-0.0019161723
0.026374072
-0.024351353
0.0017231774
-0.020403093
0.024804607
-0.020634573
-0.020131428
-0.023965502
0.043138035
-0.0077820276
0.02053549
0.0026015588
0.012071273
-0.02814937
-0.031045642
-0.00322579
0.00057675526
-0.0175162
0.025506893
-0.010613437
0.0016548885
-0.010829506
-0.011918284
0.012550781
0.009922044
0.021928342
0.0336319
-0.03551976
0.0062704924
0.017183846
0.0045844833
-0.027896859
-0.024591524
0.007965307
0.010049923
-0.017787231
-0.02216751
0.0018859387
0.016460868
0.022852665
-0.0019997275
0.011290317
-0.0011405898
0.029321903
-0.044760328
-0.008817436
-0.015886018
0.021153389
0.010759505
-0.0053770407
-0.034639496
-0.025013955
-0.0066301785
-0.00070783234
-0.021069976
-0.026313359
0.0010114145
-0.025233407
-0.032472976
0.00078792736
0.0053374283
-0.02985363
0.036817107
-0.029371787
-0.0037941004
0.020692125
-0.016267998
-0.0014786795
-0.03415972
0.008576609
0.0359723
-0.011280297
0.012987023
-0.03765895
-0.029698579
-0.006106928
0.0239126
-0.009705844
-0.035416268
0.019056873
0.00021931941
-0.045569632
-0.017770965
-0.020551944
-0.0030676357
0.023898574
-0.006793809
-0.02900633
0.007481281
-0.022878118
0.0027941305
0.019576028
0.030762317
0.02638894
0.017633859
-0.023468466
-0.008183498
-0.001347215
-0.006904613
0.027412051
0.008964605
0.014942312
-0.046120513
-0.018297687
-0.0075589432
-0.015084646
0.017572042
0.022950923
-0.031618964
-0.022838261
0.030268518
-0.010484242
-0.014192633
-0.012245418
-0.00335807
-0.039415315
-0.009411092
0.018676998
-0.020345246
-0.0019846756
-0.0075857416
0.0011529744
-0.00053023157
-0.025094178
0.010034995
0.00800153
-0.016962454
-0.008974078
0.04266996
-0.014044298
-0.0356492
-0.012189863
-0.012832055
-0.023364885
0.013813645
0.016378883
0.032883983
-0.032370195
-0.005817653
-0.0016318823
-0.03208408
0.032913636
-0.0010281872
-0.005088153
-0.015797447
0.022085713
-0.017735727
-0.0033508947
0.00017566056
-0.025331544
0.023471145
0.0014418651
0.028886765
0.024463955
-0.003696652
0.008720383
0.0066560106
0.002719617
0.01731874
0.014231693
-0.012394878
-0.009773028
-0.031698685
0.019891646
0.04684974
-0.028628098
0.0245163
-0.0012401755
-0.021095715
0.04652618
0.029272554
-0.026225217
-0.009671074
-0.027431909
-0.04075292
-0.00277616
0.015414093
-0.020869805
0.026937982
-0.015079852
0.026250131
0.0066770036
-0.0014415955
0.0019442284
0.025851505
-0.007557493
-0.0038855076
0.042431675
0.017945426
-0.018589042
-0.010835116
0.033586517
-0.0052565397
0.032788914
0.028243462
-0.034666326
-0.037720334
0.0070177116
0.036782116
0.014162546
-0.015383175
0.012438468
0.003969796
2.9876007e-06
0.020182025
0.017010197
0.01565072
0.004158529
0.020623814
0.018740928
0.00876287
-0.03489722
-0.01637854
0.00014674068
0.004329335
0.013064431
0.0062955604
0.0058325436
-0.005109623
-0.019859148
-0.0056655947
-0.015021609
0.004935275
-0.018507881
0.028672766
-0.03499848
-0.024717955
-0.010981571
0.027722472
-0.022606315
-0.0059191408
-0.027982786
-0.011712681
0.007874164
-0.004293782
0.025339544
-0.025546692
0.005329327
0.015792327
-0.0018878176
-0.01241358
-0.0027724567
0.003389803
-0.01795543
-0.010826131
0.0047820397
0.018941177
0.009264952
0.02242432
-0.026951114
-0.030366449
-0.036145378
0.046416264
-0.0137693295
-0.0032418584
0.0055337036
-0.0017296977
0.0031714505
0.013954031
0.020132435
0.036994208
-0.00777373
0.0005038214
-0.00305914
0.008507187
0.00990603
-0.020366028
-0.033007868
0.01664838
-7.717089e-05
0.0045981836
0.0025801857
-0.011934001
-0.017479815
0.022224635
0.03314252
-0.027413428
0.021921864
0.009562961
-0.022018123
-0.014805945
0.025590625
-0.028846037
-0.013121302
-0.0069433176
0.00739623
0.0064054476
0.02782484
-0.028880967
-0.008209171
0.024853762
-0.0024476112
0.012958608
0.0005530979
0.02059969
-0.0020247423
-0.0003321279
0.028726608
0.011371073
-0.0129252365
-0.031029947
-0.008375715
-0.0070411386
-0.023890639
0.0083681075
0.0040950854
-0.03342477
-0.015524828
-0.0064897025
0.023905767
0.041490417
0.03690096
0.0066548614
0.027771922
0.0110549275
-0.0076171937
0.04015903
-0.002981553
-0.030935172
0.039621532
-0.025912851
-0.013442273
0.024946798
0.004978499
0.01761762
0.02604556
-0.031639192
0.023753192
0.040018246
0.0010921782
-0.012690804
0.036736175
-0.012627573
-0.020883925
0.037050594
-0.0034547711
0.0035881137
0.0020088414
0.01702976
-0.011305242
-0.034746654
-0.014803771
-0.031402696
-0.001763958
-0.02811955
-0.013395728
-0.03422306
-0.0021840932
-0.002272502
-0.028156305
0.034957018
-0.005796492
-0.015151448
0.00785135
-0.015801586
0.015292842
0.03351478
-0.04898047
-0.00442627
0.045544066
0.028343253
-0.03439217
0.008909315
-0.012261924
0.008196333
0.0067711296
0.022149278
-0.03180601
0.0073017776
0.0032772713
0.021113228
0.017528934
0.015950069
-0.03278005
0.028017132
-0.02336027
0.011483461
0.022974113
0.025357367
-0.03114252
-0.050609298
0.0038413394
-0.051375262
-0.008056601
-0.027008656
0.033290718
0.021919725
-0.0024678798
0.008510913
-0.021954881
-0.0026048324
0.013710702
0.021072088
-0.00572786
-0.0017459452
-0.026151706
0.025280124
-0.0054852027
0.009331386
-0.027835699
-0.017550834
-0.008135369
0.005693725
0.013274985
-0.013934297
0.014879838
-0.020418214
0.014343267
-0.033542626
-0.03417656
0.015601459
-0.016780743
0.011462867
0.0013505061
0.018418988
0.020543974
0.023353202
0.018635375
-0.03217887
0.009138188
-0.023493165
-0.02269707
0.029609473
-0.016384158
-0.00449999
-0.0031205895
-0.019227918
-0.010082061
-0.008784743
-0.015717665
0.016140407
0.00025627034
-0.03940403
0.0076512983
0.0041327258
-0.025564412
0.017037438
0.020007154
0.02046006
-0.0007085207
-0.029303495
-0.036287665
-0.029053977
-0.009418061
0.0058742585
-0.028801411
-0.022972822
-0.0076647867
-0.011288418
-0.0020871724
-0.011847166
-0.010425261
-0.030234747
-0.0028432412
0.011244273
-0.0057685794
-0.0059865844
0.019386653
0.016723575
-0.026271172
0.029663663
0.009673402
0.0029800858
-0.02614806
-0.023562476
-0.0051614586
-0.00913604
0.008970876
-0.007236669
-0.019967899
0.015563531
0.005538935
-0.030456506
-0.014935322
-0.016986175
-0.020971509
-0.008304477
0.049469117
-0.009799498
0.021302773
0.0039783353
0.012334894
0.03457516
0.0018943914
0.0052350424
0.014033255
0.03373038
-0.0073859603
-0.0062785135
0.022517407
-0.004576726
0.021358414
-0.01617447
0.0002000326
0.009701312
-0.0009799546
0.015588383
-0.0010491754
0.020577535
-0.0046943957
0.02153269
-0.006584108
-0.03201457
0.021381732
0.010605994
-0.0019726553
0.0017105887
0.027668944
-0.00673609
0.012457889
-0.0030434977
-0.030019414
-0.004673901
0.019384496
0.02540167
-0.018703777
0.022699798
0.012417655
0.03053046
-0.010563454
-0.0049689845
-0.011773657
-0.023806982
-0.0078444425
0.018047424
0.032222297
-0.0046534226
0.014629209
0.014360166
0.018657431
-0.0030081305
0.03720108
0.0061085024
-0.0046745823
0.004544076
-0.009807881
0.018783506
-0.04167628
0.0011315517
-0.034235436
-0.0347991
0.0010193862
0.014285898
0.022026533
-0.006097485
-0.024432467
0.031848006
0.023143975
0.0044702096
-0.030276498
-0.007415249
0.0061830143
0.019690232
0.0013505274
0.029488485
0.034674823
0.013020859
-0.0009541223
-0.0065838103
-0.030128945
0.012140566
-0.0394444
-0.015872493
0.009094989
0.03697562
0.008007307
-0.015092661
0.021259192
0.013187918
-0.013764741
0.027679512
-0.00682078
0.002171884
0.0018874368
0.0012046433
0.019014254
-0.0099787265
-0.019453704
0.0015461175
-0.0054333536
0.019602275
-0.0011644262
-0.0025504378
0.0030923854
0.0151649
0.0069735562
0.006345114
0.017135808
0.0042702444
0.0076183253
-0.016408287
-0.021675603
0.010223854
-0.014293533
-0.012229112
-0.013078928
-0.0364734
-0.019337678
0.00045725668
-0.0038666357
0.00014605511
0.010612777
0.0048888526
-0.025511062
-0.0029009723
0.016067207
0.0011807248
-0.0034807967
0.020590572
0.028629819
-0.0047252895
-0.0064829695
0.008863344
0.012276523
0.006434388
0.0030851392
0.021017289
-0.0033944093
0.002174243
-0.0075035933
-0.017494867
0.02392198
0.0012396598
0.023869254
0.021726431
-0.0016482342
-0.0006743269
-0.010157235
0.0043542
-0.009015309
0.0027625153
-0.00669715
-0.008428557
0.0024984174
0.026728654
-0.02503539
0.022174878
-0.015040292
0.0038707047
-0.018012071
-0.013212413
-0.022588402
-0.017402934
-0.026023196
-0.0016196859
-0.022167621
0.016303627
-0.0004646639
0.019059138
0.0011980567
-0.011045059
-0.006454676
-0.010693532
-0.021612003
0.010944108
-0.014787898
0.019909807
-0.01130263
0.012254858
-0.020075876
0.010791001
-0.024681907
-0.020972135
-0.013812506
-0.0055730254
-0.01657402
-0.0048633358
0.0065835197
-0.002361222
0.0080959555
0.029919736
-0.02251612
0.009197928
-0.014184652
0.012052088
-0.0052932044
0.0029118096
0.0033271979
0.029542565
0.024254858
0.016109275
0.0014410062
0.0037865737
-0.028212205
-0.020333748
8.9795e-05
-0.022290366
0.015334368
-0.027039206
-0.019886065
-0.0057700053
0.03935726
0.0154394945
-0.00560689
0.002249956
0.006663033
-0.022211198
-0.010378417
-0.030484289
0.011544557
0.0034974648
-0.0118208425
-0.05975717
0.043569036
0.008098948
0.015479818
-0.022677971
0.019631635
0.02965866
0.0155639965
-0.028646894
-0.017447717
-0.035796497
0.006401256
-0.0027928462
0.053270303
-0.0067128246
-0.0024795868
0.017144984
0.017912637
-0.02757567
-0.0013431193
0.0007752644
-0.013102363
-0.0009388896
0.022124963
0.013286018
-0.018597225
0.01906899
-0.02408996
-0.019435035
0.038455255
0.028697714
-0.0009120356
-0.009303022
-0.0003809207
0.041758128
0.004803474
-0.01859039
-0.03444134
0.011538263
0.0071706176
0.0119851
0.017072562
0.0012451939
0.0008664979
-0.020873362
-0.044394467
-0.008468357
0.0014692546
-0.002812482
-0.021312384
-0.014882308
-0.010152242
0.003858114
0.044461638
-0.024650365
-0.018715236
0.00941917
0.0137903085
0.0024523195
-0.0025566642
-0.0022585
0.00025482723
0.018795304
0.017197771
-0.012457638
0.018655041
-0.010917871
0.010013725
-0.012352354
0.029510723
0.017500699
-0.008206915
0.03257894
-0.0482868
-0.0054054824
-0.019660592
-0.007597325
0.0065351506
-0.006227361
0.020249901
-0.03237961
0.003221318
-0.015576363
-0.007426139
-0.0022800083
-0.007184977
-0.011207974
0.0050250604
-0.0071828295
0.029147167
0.02424648
0.021535218
-0.010347887
0.019031938
-0.005218336
-0.016487537
-0.00078913785
0.030307716
0.005658366
-0.005059719
-0.029574156
-0.015365174
0.026795909
-0.0025293003
0.01864471
-0.007344646
0.025763778
-0.02564301
0.00021044316
-0.024031721
0.005091213
-0.018455878
-0.02703084
-0.017042417
-0.0145228235
-0.012529067
0.005316445
-0.03292041
-0.0033907
0.049653728
0.028754469
0.008192184
-0.031735945
-0.03592594
0.022152418
0.0039359485
0.020473989
0.0012380235
0.03242644
0.010979455
-0.0289316
-0.00040092785
-0.0010004312
-0.0065893466
-0.010207394
0.0057586767
-0.03583915
-0.041143984
0.0330439
0.026446424
0.00046124347
0.021763569
-0.019479912
-0.023407008
0.02157733
0.0122693125
-0.016505346
0.027628543
-0.0010582972
-0.034295943
0.005989987
0.027332794
-0.03939065
0.004959734
0.012878139
0.013207084
0.01649124
0.0083602695
0.005433732
-0.007103195
-0.011746488
-0.009897953
-0.00932153
-0.008637422
-0.010306917
-0.032836806
0.0077500944
0.010735899
-0.040801793
0.013342643
-0.025270449
0.0028591224
0.007790385
0.005732493
-0.017460672
-0.022494948
0.02855436
-0.031175457
-0.016525442
-0.01987455
0.008280358
0.023086779
0.028740635
0.0031276552
-0.012730226
-0.027730748
-0.014063501
-0.0262944
-0.011797502
-0.014594525
0.029442942
0.0024586604
-0.03577941
0.022717088
-0.011604694
-0.031046608
-0.02839414
0.013633973
-0.0083962055
-0.0011306913
-0.0016186887
-0.014084987
-0.005350389
-0.032808263
0.021066606
-0.0058454713
-0.02271777
0.01628095
-0.0008072149
-0.007933036
0.036584105
-0.031778753
-0.015655493
-0.020426726
0.0171493
-0.015978547
0.009657364
-2.7625589e-05
-0.011268601
0.007071725
0.0373565
0.016794873
0.022002969
0.045021303
0.017011082
-0.012988577
-0.03761844
-0.032576207
-0.010044822
0.0026215739
-0.01730791
0.040166613
-0.022731194
-0.019491531
0.020583846
0.020929951
-0.01568366
-0.009293162
0.037621792
-0.009999159
-0.013785147
-0.0022808025
-0.032286134
0.0008444361
-0.015763616
-0.0063336054
0.009834275
-0.031417497
-0.046629414
-0.004982148
-0.024689239
0.009425395
0.016062245
0.0038920688
0.03428793
-0.028999805
0.020381095
0.02602853
0.02905897
-0.038095787
-0.019438392
0.014899156
0.0205231
0.020437384
0.0006772974
0.035446335
0.022834962
0.01768544
-0.013111449
0.021317797
-0.022244101
0.00343045
0.009091464
0.026689885
0.0012621044
-5.21241e-05
0.021878518
0.012389265
0.022881418
-0.012216016
0.015966287
0.027416687
-0.0086447075
-0.023988057
0.0012128587
-0.003722998
0.015433956
0.01758291
-0.011807607
0.00871174
0.016341599
-0.008352062
0.033361517
0.012010315
0.021439457
0.0071617435
0.009343017
-0.013300432
-0.0061668674
0.02340859
-0.010569833
-0.0007303847
-0.006669754
-0.015415469
0.0073599285
0.022972872
-0.040196296
-0.0077746883
0.025772104
0.010974299
-0.012953778
0.022458144
-0.011921048
-0.0010492422
-0.011734796
-0.019177299
0.012184382
-0.0023896755
-0.020301593
0.023846213
-0.0034938005
-0.0006139971
0.019781224
0.018831946
-0.026685635
0.0032442196
0.011812251
-0.039601263
0.0026658291
0.027670413
0.007059679
0.015785284
-0.0045056124
-0.033382133
-0.014242994
0.02792624
-0.005531
-0.0029991611
-0.026920395
-0.0024971082
-0.0060793487
0.0115540465
-0.047659207
0.0023255562
-0.031337004
0.015535856
-0.022595659
-0.027475933
-0.009880611
-0.051723856
0.0068603912
0.0007797239
0.010240685
0.017056484
0.0029911338
-0.016617792
0.015931692
0.010255669
-0.011816276
-0.009437485
-0.046553753
-0.009252945
-0.008263339
0.02622678
0.03922942
0.0006081004
0.022763273
0.006214259
-0.0042088255
0.011501324
-0.019402996
-0.019645208
0.02426637
0.016001528
-0.012342916
0.029332036
0.05141988
-0.034781195
0.039166115
0.0058952193
-0.0067862477
0.019378051
0.018405221
0.011707942
0.007862713
-0.008120224
-0.004307028
-0.030075599
-0.0079182545
-0.032506116
-0.033408657
0.008342218
0.0118435435
-0.0081516355
-0.011574205
-0.03159931
-0.016230071
0.008479756
0.0072854892
0.0044135037
8.408509e-06
-0.01528334
0.0053843153
0.017430153
-0.0038837024
-0.033690173
-0.035561513
-0.000895699
-0.024299871
0.032287184
-0.011040294
-0.020092664
-0.016991869
0.007772712
0.019923525
-0.0070447647
0.03027746
0.0027292513
-0.015536962
-0.036933906
-0.014421325
-0.0025706363
0.025632873
-0.0030119289
0.014895281
-0.006418334
0.012687175
-0.012780323
0.011652784
0.008992495
-0.016951876
-0.013602384
-0.028398633
-0.0028103127
0.0056312447
-0.014413579
-0.013295815
-0.009106274
0.011728058
-0.009468994
-0.014553044
0.0073002432
0.0065150172
0.010530873
0.0003585878
0.021997172
-0.008629574
-0.03307327
-0.0186559
-0.0032287745
-0.0009093185
-0.009311994
-0.02041794
0.004811481
-0.005295459
0.004301041
-0.00031140502
0.011384995
-0.017340563
-0.010214169
0.020509548
-0.008257308
0.016832877
-0.0044801626
-0.0094156535
0.009035304
0.017790643
0.017288206
0.0018135209
0.022096366
0.008438786
-0.00942404
-0.0064694574
-0.019910239
-0.008176868
0.007890228
-0.034034792
0.021023616
0.032754347
-0.016479623
0.008072885
0.037012592
-0.037295748
-0.0032345373
0.009945391
0.019611694
0.011757557
-0.008790157
0.01133157
0.012430882
-0.0021965129
-0.027901959
-0.031955518
-0.014270463
0.0058681257
-0.011811277
-0.01783515
-0.002044423
-0.03273359
-0.00851579
-0.015159416
0.011560928
0.018817287
0.0052624713
-0.0070628924
0.013687216
-0.0065573948
0.0068237795
-0.0038450155
-0.030086914
0.0060203727
0.021778712
-0.043709293
-0.01767209
-0.001955992
-0.0053423434
-0.0302146
-0.013307973
-0.023291443
0.025312778
0.004774502
-0.006734209
-0.03221298
0.0015691258
0.0021955338
-0.005163318
0.016885633
-0.0070200767
0.0015709834
0.005786767
-0.015998932
0.0024376903
-0.01752173
0.0062067052
-0.00357921
0.024972217
-0.004408793
0.015721912
-0.0037733377
-0.028599136
0.017502833
-0.017675849
-0.033974614
-0.027541881
-0.012923718
0.0023101072
-0.0040693698
0.027254196
-0.0085933525
-0.035800107
-0.0018641751
0.03776736
0.005708603
-0.0045565646
-0.01627685
0.008473116
-0.0151319485
0.021432064
0.011316787
0.019310297
0.014588515
-0.03246777
-0.031761523
-0.0055764494
0.005968275
-0.02078761
-0.011649366
-0.0142347375
-0.008531453
-0.007039773
-0.026829228
-0.023499219
0.019988902
-0.041906804
0.010633542
-0.007060288
0.013308853
0.009128182
-0.01355743
0.012024664
-0.004055569
0.013513142
0.0026278242
-0.0010367035
0.016240839
0.009942656
-0.027148012
-0.01813512
0.022190183
-0.0032386289
0.020874605
-0.005690058
0.0152902305
-0.0054087355
-0.008417482
0.019861009
0.017208286
-0.0005748827
0.007815325
-0.02737946
-0.041671135
-0.02038084
0.013762869
-0.032485653
0.026334751
0.00958579
-0.021758026
0.020218236
-0.020302314
-0.018341513
-0.007837122
-0.025360463
0.0008985665
-0.042166155
-0.010833084
0.00500706
0.013901736
-0.004231681
-0.012763053
-0.0062678778
-0.015924374
0.016222764
-0.019521987
0.011420838
0.01605721
-0.019634947
-0.014352093
-0.029395554
0.02726148
-0.023858825
0.010890214
-0.013193343
0.009059817
0.023789084
0.010707051
-0.011011771
0.033752467
0.0055327923
-0.02632286
0.038362496
-0.0006774779
0.0017890403
0.002139707
-0.0244408
0.022672469
-0.0041741235
-0.00985534
-0.017515786
-0.02254605
0.027584491
0.009338011
-0.021468598
-0.016445713
-0.02979561
-0.01632529
-0.021389043
-0.0059723873
-0.015105687
0.018945638
-0.016854774
0.015754817
0.006560518
0.0049301027
-0.017085925
-0.027325438
0.00047395076
0.024461526
-0.019330649
-0.00939855
-0.02980576
0.0100348955
-0.0019736595
-0.012473693
-0.017129442
0.0042645796
0.029480508
-0.01749156
0.0065839794
0.004098617
-0.023576438
0.028999848
0.015483052
0.0050634597
0.007592374
0.02733818
-0.00640672
-0.03807747
-0.019354999
0.0145797115
-0.028773945
0.0073206094
0.009331212
0.0107797505
-0.0081557175
-0.008962011
-0.0023637796
-0.0038048113
-0.01764785
-0.01635603
-0.002332293
0.033063952
-0.02416423
0.005060073
-0.030592268
0.014880051
-0.020250073
-0.029627217
0.008736709
-0.0033828148
-0.017052842
-0.0021999618
-0.022518208
0.02598912
0.01265351
-0.010480202
0.027519856
-0.00807421
0.025174221
0.008247011
-0.025827194
0.024833571
0.009234027
0.021317596
-0.04906433
-0.03068911
-0.004876
-0.037269298
0.04539125
0.010531442
-0.002274262
0.042047355
0.000944896
-0.01828571
0.05426041
-0.023446323
-0.0037169878
-0.010762264
0.02252864
0.026935892
-0.01482941
-0.008480293
0.00028876486
0.011299967
-0.0046030935
0.009697201
0.015057922
0.017008021
0.0065286974
0.016000126
0.0018910558
0.0022427905
-0.00054422475
0.0120369615
-0.013628453
0.01926954
-0.0050170477
0.03838402
0.020395797
-0.002058542
-0.008743335
0.023665551
0.028354524
-0.021978298
-4.3658936e-05
-0.0005145219
0.027921265
0.0031559651
0.04690396
0.0038343002
0.030836845
-0.011205963
0.012463223
-0.0025414543
0.0043796105
0.03835443
0.006517582
-0.0073604523
-0.0351154
-0.022468193
-0.018606972
-0.028085705
-0.004553286
0.009721687
-0.009924937
-0.010612944
0.011009156
0.011344814
0.0044925585
-0.0062819547
0.008881022
-0.009944772
0.01570135
-0.0054937536
-0.0016758776
-0.021383265
-0.027641945
0.035191458
-0.015566555
-0.013311277
-0.03055356
-0.03437797
-0.019110108
0.0077046314
-0.027774947
0.0117557235
0.02883956
0.022155581
0.019468369
-0.0212259
-0.015690278
0.0022118012
-0.012919209
-0.017784413
0.029892543
0.0077003837
0.028194763
0.020403946
0.03434663
0.0066408105
-0.011664886
-0.037157513
-0.002461757
0.020629138
-0.0041230908
0.031059895
0.023198355
0.0053581735
0.02744302
0.020477002
-0.016389422
0.01778687
-0.023426553
-3.386976e-05
-0.012289811
-0.004885086
-0.008477993
-0.003486193
-0.023198396
0.026707632
0.0031067932
-0.02844821
0.0066653434
-0.016469229
-0.013360205
0.0051532844
-0.00603891
-0.034748707
-0.03952041
0.0029784283
-0.009376888
0.019878192
-0.0077934265
-0.012251562
0.023265956
0.00460828
0.042700727
0.015805224
0.001617024
-0.0160173
0.0061959196
-0.01115671
0.017503494
-0.021352457
-0.026621688
-0.0042699757
0.0047317427
0.041461196
-0.00974289
-0.011725845
-0.015950331
-0.00800355
-0.00034811164
-0.0052125156
0.018022275
-0.009590326
-0.01672914
-0.01570369
-0.0025081818
-0.00475626
0.00064841524
-0.015712054
-0.034268808
0.021903927
-0.021690482
0.016888855
-0.02781553
0.0041565257
-0.0075049596
0.014817195
-0.016072374
-0.008975254
0.02110253
0.03181311
5.511899e-05
0.014408955
-0.015198254
-0.022181656
0.047066137
0.030170899
-0.019819112
0.02050893
0.025470665
0.033412963
-0.02463264
-0.021269469
-0.014835502
-0.002375396
0.036181502
0.013285758
-0.00017954539
-0.024759693
-0.008481008
0.009097105
0.032596674
-0.012309047
0.009302838
-0.0038651086
-0.008997527
0.010205133
0.0072720745
-0.0055864826
-0.034048192
0.018096669
-0.021127451
0.020689668
-0.003289343
-0.006170075
0.0077159274
-0.0128450245
0.011835318
-0.014817826
-0.018734047
-0.042667374
-0.0062201046
-0.0037107875
-0.026459655
-0.020595403
-0.015067025
-0.015338785
0.026824418
0.03599132
-0.021008413
0.017831672
0.026101544
-0.02121666
-0.016484654
-0.024929797
-0.0056575467
0.002174947
-0.030728277
-0.004422245
0.016695706
0.016409718
-0.0076674656
-0.009539336
-0.0030520451
0.012233217
-0.020011142
-0.01442298
0.0009265277
-0.015520209
0.020545445
-0.020981636
0.005587612
0.005252817
-0.0022647069
-0.004060237
-0.0069868886
-0.015468668
0.0048350403
-0.018367209
0.00848897
0.009991594
-0.02637231
0.010930456
0.026311861
0.029326025
0.0006816481
-0.015001959
-0.017880943
-0.016801491
0.0029452837
-4.265459e-05
0.0096029425
0.0041759363
0.008291881
0.004342661
-0.011533678
-0.016157338
0.016193647
0.0053924494
-0.0061719553
0.0058357907
-0.026867101
-0.006927226
-0.016665524
-0.02869439
0.023580698
-0.0214972
0.0064507443
-0.008926618
0.018491404
0.003948096
-0.008617189
-0.043657146
-0.004402451
-0.008190275
-0.012583312
0.002197045
-0.012608324
-0.00070677843
0.016467398
-0.046080872
-0.021585753
0.024435464
0.006339091
-0.034963973
0.005292876
-0.029228292
0.029407367
0.015647145
0.010362657
0.015665967
-0.017906968
0.01204176
0.00053987314
0.04376548
0.020736441
0.004093957
-0.018736426
-0.019869529
-0.006297681
0.026527807
0.027964525
0.012197724
-0.007120184
-0.01745978
-0.02403058
0.020529762
-0.0112169385
0.0037361707
-0.015887782
0.0038559337
0.016376602
-0.012939968
-0.008800983
-0.003500169
-0.017872846
0.0072832094
-0.024239954
-0.021333244
0.02469804
0.011106244
0.021247454
-0.026292149
-0.0019662844
0.04325557
-0.03938861
0.032602426
0.0242605
-0.0069608097
-0.03626538
0.03216616
-0.014841286
0.016415972
0.019735178
0.006808282
-0.041466877
-0.008322403
-0.0067699654
-0.010188759
0.011426808
-0.0021946016
0.01149245
-0.006468091
0.020503933
-0.0057747224
0.01651927
-0.023332119
-0.04450723
0.004970983
-0.030768234
-0.024573633
-0.018229129
0.032383606
-0.0025319385
0.00974442
0.008038401
-0.030688938
0.011251903
-0.00016224441
0.031635858
-0.004233792
0.032976404
-0.01329532
-0.034157354
-0.0023745233
0.021924436
-0.01825985
0.006531799
-0.012505254
-0.022636352
-0.007446087
0.010296035
-0.008870195
0.009224435
-0.029814292
-0.0024298814
-0.003971874
-0.04394439
0.0018822127
-0.050209776
0.015884362
0.00038842796
0.007338965
0.0073014596
-0.015682438
0.01719652
0.023692554
-0.019396048
-0.026302842
-4.5425728e-05
0.021411987
-0.01651227
-0.016866535
0.021368625
0.008885629
-0.022159347
0.028133359
0.024662383
-0.037942614
-0.0042943745
-0.01944449
0.020726042
0.0059303334
0.011480861
-0.027903963
0.02145275
-0.0065454277
-0.020242019
0.03269581
0.015165488
0.005906683
0.028787838
-0.025135403
0.0069170487
0.0051523065
0.002330134
-0.011817241
0.023316074
-0.0054243077
-0.012303476
-0.017880518
-0.008405028
0.014817091
0.013613088
0.024104923
0.019008517
-0.011836924
0.0043988246
-0.038939282
0.028454494
-0.0042748
-0.022845961
0.0046879174
0.0129584335
-0.038701642
-0.010124243
-0.025658568
0.014571223
-0.028385596
-0.0018442378
-0.0030795957
-0.025811283
0.003900127
0.02454776
-0.024075419
0.015164635
-0.0022842344
-0.0014175232
0.02922936
0.03292662
0.0020335424
0.023115372
-0.0062335893
-0.030025726
-0.022744458
0.019353319
-0.01349318
0.01844238
0.004577745
-0.015968716
0.010515412
0.01925009
-0.015663603
-0.015801892
-0.0056834854
0.009086362
0.009073113
0.012075379
0.013805158
-0.021111457
0.025734391
0.016742138
-0.016695749
0.011242761
0.01521344
-0.038609743
-0.036337174
-0.019443316
0.020152478
-0.0008983219
0.0032528355
-0.028464323
-0.00029584032
-0.020093
-0.014997822
-0.014412434
0.00094356143
0.04465527
-0.018118074
-0.008027345
-0.022196634
-0.024779635
0.016163215
-0.014081175
-0.022721045
-0.025056666
-0.01088853
0.006812846
-0.038486253
0.0013276897
0.026106827
0.008101725
-0.024761818
0.018835707
-0.014776032
0.024104383
-0.011741085
-0.017021177
-0.03377469
5.0414976e-05
-0.012108642
-0.012223686
-0.026154755
-0.003938399
-0.002844837
-0.037759084
0.0022146476
-0.036478665
0.012170557
0.016121397
-0.01952424
0.00071556016
0.009129154
-0.0065060575
0.012307703
0.034577884
-0.026353875
0.0066441246
-0.009543984
0.012570105
-0.0085007325
-0.012083212
-0.015294857
0.02400837
-0.0013725677
-0.004632745
-0.029342517
-0.007591315
-0.013657015
-0.036100395
-0.029022727
-0.006499598
0.0006198282
0.011630453
0.0042724544
0.031885155
-0.0116066495
-0.01427564
0.022096334
-0.038002536
-0.00037805105
-0.014617157
0.016118752
0.004130005
0.025842283
0.014059306
0.0066562467
-0.009460163
-0.036079336
-0.0070382413
-0.025327617
-0.0016504669
-0.007396622
0.009431904
0.019839218
0.033158917
-0.01824415
-0.0056840694
-0.012081335
-0.03729372
-0.0068674167
0.0076326877
-0.012868378
-0.021576328
0.052100558
-0.024938872
0.013277316
0.0027211187
0.0010268112
-0.013088774
0.03058047
0.02229646
0.03114277
-0.01851908
0.039680835
0.009254585
-0.033725977
0.033098005
0.031031167
0.014553907
-0.00442538
-0.019273523
0.0018485325
0.009591999
0.020336758
-0.010308642
0.01547997
0.022216307
0.013558363
0.017375585
-0.01288351
0.016686294
0.0013789055
-0.0067079724
-0.0016867296
0.02747362
0.0094628
0.033058666
0.027774984
-0.008210036
0.03476883
0.022189394
0.02199897
-0.014060162
0.025309794
-0.00020426774
-0.016294919
-0.03456861
0.012899134
0.031751722
0.012779359
-0.0004948704
-0.02943351
0.0076399622
-0.0036211149
0.020464713
-0.008693285
0.005571662
-0.010298852
0.02777092
-0.015237178
-0.0024441024
0.008223963
0.022532515
0.0023708225
-0.0046718116
0.035603937
-0.0033370594
0.0035399166
0.0034123503
0.0022316265
-0.002148204
-0.011970756
-0.017910546
-0.017235124
0.0083968965
-0.015905578
-0.039053205
0.0038654404
-0.015965959
0.009652399
0.009251425
0.00027648296
-0.004441358
-0.007170817
-0.008626773
-0.017258748
-0.012170663
0.010784537
0.0012701445
-0.012639756
0.021517102
-0.021574976
0.01289444
0.033651907
0.0019530692
0.0020842503
-0.0038848512
-0.00474729
-0.008696749
-0.012571094
0.0016545252
-0.0054937666
-0.035904214
0.012724073
-0.028085357
0.010541545
-0.0058676167
-0.010712606
-0.04671168
-0.02656153
-0.03176042
0.036447037
-0.015724702
0.025713362
-0.002480941
0.018612681
-0.015356402
-0.0014067902
-0.006876794
-0.0052148416
0.010483086
0.041861355
0.008663907
0.00043739149
0.03288879
-0.014739348
0.007932318
-0.05671005
0.00884671
0.032123957
-0.023349775
0.014212205
0.009724338
-0.021822266
-0.0296493
-0.017381756
-0.00030085593
-0.006063133
0.023484197
0.00870016
0.030769657
0.012783335
0.027479876
-0.013315746
0.045635056
-0.0005954827
-0.046233676
0.004631059
-0.005863881
0.0031737874
-0.012730946
0.021744587
0.0015862939
-0.0071069538
-0.0069622886
-0.020726396
-0.015841637
-0.028741138
0.0016100454
-0.0016915939
-0.002431427
0.014184566
-0.02968513
0.0093378145
0.020199614
-0.026850441
0.028113648
0.016360778
-0.004222587
0.002019889
-0.054042283
0.03226463
0.008864063
-0.004279063
-0.052498776
0.016259119
-0.00022324678
-0.011608714
0.037072416
0.03629898
0.020427698
-0.008129922
0.022126157
-0.0026787654
0.012590439
0.015472677
0.031070063
-0.00714297
0.05652411
0.056323178
0.03160468
0.02436299
-0.032638807
-0.0432309
0.004760874
-0.034108534
-0.02756159
0.029796764
0.009979914
-0.015489935
0.0057062055
-0.012507531
-0.0059797214
0.0121412445
0.011191752
0.0059391605
-0.028891107
-0.009153569
0.03418178
-0.010981369
0.025795737
0.022992412
0.052953236
0.01540224
0.0061318832
0.01442661
0.008919318
-0.00096969795
0.040615477
-0.0010843854
0.0027873232
0.011561842
-0.020830898
-0.0045428732
0.0038557746
0.020406632
0.0073440466
-0.018336972
0.010071357
-0.015521812
-0.002718097
0.0140346745
-0.027644854
0.0071394704
0.02123917
-0.016719334
-0.0073171556
0.017729552
-0.0060506947
-0.02566493
0.041920815
-0.017548498
0.018415634
-0.001284674
0.0102142515
-0.013780989
0.017806314
0.029983502
-0.025872126
0.005414299
0.040179376
0.01392688
0.00714
-0.014807347
0.03529892
-0.03205837
0.02124169
-0.01505913
0.009405529
0.032991383
0.010702089
-0.014317284
0.023138782
-0.0073141083
0.026818438
-0.0009919512
0.0048140124
-0.0037379672
0.03740297
-0.023117822
-0.0026979898
0.0064492794
-0.017684275
0.029313952
0.033901237
-0.026184598
-0.0048605613
-0.010764284
0.00021366875
0.007172236
0.031228483
0.008541178
0.027177414
0.008724776
0.021980353
-0.0051367595
0.028120475
0.0026599476
0.04557582
-0.009858424
0.017670855
0.00395728
-0.025134236
0.0041240533
0.023571044
-0.018788328
0.016415125
-0.0035371995
-0.0026836917
-0.017605592
0.0059639784
-0.0036476941
-0.013603258
0.025883175
0.004742309
0.0045863297
0.037114196
-0.013546778
0.008807651
-0.0005116989
0.012944744
0.007368471
-0.02146516
0.019844862
0.01338693
-0.011308744
0.026574876
0.0052462323
0.00055441825
-0.0009314369
0.0061439187
-0.031593587
-0.014817205
0.0023200596
0.010137563
-0.0034643395
0.00974273
-0.030360755
-0.03441377
-0.0105067035
-0.013420739
-0.01812769
-0.019070286
0.024618383
-0.014628368
-0.0041023623
-0.0051896605
0.011101366
0.012893224
-0.0010938768
0.00480444
0.034313153
-0.026977293
-0.00712576
0.0149390735
0.003552285
0.017937576
0.00086936675
0.021006072
-0.005927726
0.010038125
0.024651922
0.034390956
-0.03619125
-0.016093684
0.018178742
-0.029252024
0.017628336
-0.021799318
-0.0062422724
-0.008016044
-0.012541034
0.01759426
0.012616378
0.0029537391
-0.0048887036
0.013440762
0.0013571852
-0.012511219
0.017854465
-0.014061534
0.02991792
0.02682266
-0.021401338
-0.034639772
-0.010178705
0.026817173
-0.008174906
0.012600063
0.014560971
0.021610912
-0.016495634
0.001981513
0.015655795
0.0005223917
-0.021810357
0.0117711425
0.02754527
-0.0024442368
0.0382876
-0.011936999
0.016589668
0.014387194
-0.008096572
0.0037580966
0.028572997
0.0013234162
0.035425477
-0.0054985844
0.026661798
-0.0036586975
0.007930072
0.0038539653
0.024542667
-0.016859708
-0.00915914
0.0049288473
-0.0051727872
-0.009210163
-0.019864293
0.00061437197
-0.021366365
0.022254197
0.008259766
-0.005584359
0.0031973727
0.002284319
-0.009957351
-0.012901633
-0.03225983
-0.024456251
-0.014100647
0.0065811328
-0.021064112
0.023426263
0.0069230828
0.012825211
0.005884536
0.0240262
-0.01931728
-0.0064775753
0.002175405
-0.018111559
-0.0123176025
-0.0077723605
-0.010482006
0.0013060728
-0.011532665
0.029315261
0.011981128
0.014230444
0.008363646
0.00014921692
-0.012223367
-0.014463092
0.009555088
-0.006685565
-0.0060777264
-0.027744295
0.016627092
-0.004820341
0.025915373
-0.03475598
0.025355667
-0.0043320167
0.016121114
0.008054996
0.034181938
0.0036962647
-0.039601646
-0.010099322
-0.027719973
-0.018314756
-0.008821028
-0.015442374
-0.029760718
-0.020672297
-0.00069766416
-0.014796441
-0.018759921
0.018084258
-0.014276386
-0.00080676866
-0.00906768
-0.015563117
-0.04198104
-0.005302546
-0.017828848
0.009288219
-0.02622864
0.0016044143
0.018635072
-0.03352025
0.012964443
-0.004059531
-0.023177078
0.034865275
-0.016565971
0.025947336
0.047220938
-0.020630052
-0.00031010894
0.009328282
-0.022015797
-0.004693937
0.025091762
-0.019776855
0.021864256
0.016755363
-0.0031196936
-0.012335154
-0.014459387
0.009409415
0.0030199247
-0.02761335
0.0009158163
-0.0025685707
0.017657222
-0.018548775
0.006558836
0.015492583
-0.016558371
0.036840543
0.0025297448
-0.013249425
-0.015736341
-0.018110262
-0.018050015
-0.008724736
0.007489805
-0.035402086
0.0004121728
-0.00924646
-0.028158588
0.019571973
-0.04361312
-0.0036858667
-0.033063248
0.022235105
-0.023528673
-0.064920746
0.016851474
-0.022830674
0.00072376744
0.011690855
-0.008993254
0.032712687
-0.0048594745
-0.024915354
-0.022447621
-0.0048601306
-0.012783703
-0.0073883003
0.023340054
-0.0016974966
0.011364232
0.048967786
0.003920266
-0.03057374
-0.010011529
0.024253538
0.010370918
0.016934017
-0.008735097
-0.0139083415
-0.015607578
-0.023176767
-0.00206388
0.02066447
0.05203369
0.009926932
-0.0014195349
0.021096395
0.013102944
-0.00018003241
-0.014133004
0.011193305
-0.0063873236
0.0104147745
0.0038325489
-0.0077828965
-0.01932005
-0.02235173
-0.008813111
0.017617801
-0.0126518635
-0.002262575
0.0062526353
-0.0330701
-0.024688926
-0.011932775
-0.006174379
0.0216179
-0.018071936
-0.017875357
-0.00079820125
0.0013503607
-0.03049683
0.007075645
0.032448575
-0.007382607
0.010744337
0.018864887
-0.009469409
-0.0009255027
0.012083983
-0.009472546
-0.027280387
-0.029554253
0.001616683
-0.029582215
0.010680395
-0.011574175
0.0010066886
-0.005018199
-0.012459674
-0.009465878
-0.04866172
0.021487877
-0.019214312
-0.0041768802
-0.034755927
-0.015540555
-0.03175454
-0.0021064028
0.016536443
-0.038688514
-0.022624567
-0.00019720233
0.023935724
0.009061433
0.02673161
-0.0057887947
-0.013335103
0.008357037
0.0036490757
-0.005656195
-0.03082454
0.007658154
-0.029069971
-0.015388674
0.007642835
-0.0021258271
0.014686163
-0.044568792
-0.006954845
-0.018353198
-0.009129864
0.0021634472
-0.033742435
0.0010202761
0.026711632
-0.028640004
0.00347651
0.009079935
-0.013802844
-0.0009205429
-0.02791092
-0.034416858
-0.0017700332
-0.015715618
-0.012927781
0.02761616
0.026178423
-0.018290512
-0.02490281
-0.015923329
0.012658672
-0.015437472
-0.01812125
0.019111998
-0.0054746633
0.01709224
0.0067145256
0.03508945
0.02255558
-0.0036464548
-0.0019126135
0.013163436
-0.01921714
0.026746877
-0.02204721
0.0033985954
-0.011537852
-0.007060328
-0.02423632
-0.023089183
-0.023361137
-0.03859633
0.0018802446
-0.012834216
0.010883504
0.008584881
-0.0066518327
0.008017063
-0.018006831
-0.0023922683
-0.023565242
0.026101205
-0.017091697
0.020479828
-0.021001818
0.011390813
-0.005572433
0.023513174
-0.01481518
0.022225857
0.0063707298
0.0032980829
0.025561752
0.026617987
-0.017119963
-0.00792163
0.010270957
0.013370494
0.0059540584
0.010327371
-0.0074288677
-0.00518583
-0.025430677
-0.0056139845
0.0004525109
0.0016855213
-0.02417752
0.009724137
-0.007951741
-0.014448943
-0.01681169
-0.053223945
0.03920867
-0.012580363
-0.025659036
0.00032376483
-0.0065771546
0.039757702
-0.007638
0.019944021
-0.009432443
0.01784243
0.023267653
0.025517784
0.011795717
0.011090757
0.014923397
0.036539976
-0.033681456
0.007933839
0.004566085
-0.015328819
0.040729012
0.029413145
-0.0022596177
-0.011423588
0.010921726
-0.0021918595
-0.012012801
0.028292412
-0.022516157
-0.023779023
0.015465826
0.0034416667
0.015720649
0.021893064
-0.012236967
-0.022482958
0.0012343315
-0.001954757
-0.033677913
-0.026716193
0.0016954988
0.0019796707
0.016706927
0.023433976
0.04044167
-0.013084636
0.01559859
0.0008164145
0.031304616
0.02380783
0.033076655
-0.014061945
0.01900055
0.0022620538
0.009277411
-0.021029396
0.0094293365
0.02980664
0.0021844357
0.031325884
0.013871804
-0.01396493
-0.010696293
-0.015732223
-0.010532875
-0.02890217
0.0018899707
-0.004621407
-0.0034655854
0.0020345394
-0.0017414023
-0.03559757
-0.0016533065
0.0006228546
-0.012241386
0.003220905
0.00073082786
0.02580843
0.031042336
-0.014708969
-0.0072925766
0.02486901
0.0070624035
-0.019433506
0.0134609165
0.011576801
-0.009599503
-0.020362493
-0.021265648
0.0038652387
0.005382655
0.017518299
0.025424771
-0.0061161136
0.0075103957
0.022762747
-0.0038414346
0.0044768867
0.0065705585
-0.024213906
0.007387211
-0.020955568
0.022911822
0.0070991386
0.008791718
-0.005352184
0.009909146
-0.010440931
-0.0140531305
0.009905528
0.012693343
0.010034827
-0.010998715
-0.0033254009
0.020695668
-0.01632882
-0.018301085
0.0019275227
0.02161908
0.024263842
0.010922497
0.019629078
-0.008280266
-0.008708679
-0.0033394054
0.011744433
-0.0077364244
-0.0021216015
-0.0134767005
-0.0073201507
0.0012550574
-0.018041689
-0.020678598
-0.012070521
0.0017647066
0.017319363
0.018699167
0.0131378835
0.0026242088
-0.01233627
-0.014725329
-0.0076458147
0.0045651593
-0.01445127
0.005664291
0.03881074
0.013223388
0.0024399392
0.02535227
-0.026391447
0.0053753154
-0.011970658
0.035144955
0.029237999
-0.017590659
-0.046033308
0.027441693
0.05826348
0.023501785
-0.038331494
-0.00042710418
-0.017622698
-0.019499768
-0.01714996
0.00032496688
-0.032286003
-0.041867297
0.009309723
-0.04360574
-0.003267284
-0.02341313
0.050215438
0.02450673
0.026168872
-0.022038735
0.0052365507
-0.06347695
-0.025562117
0.016642181
-0.02009526
0.0005329266
-0.012312911
0.005090919
0.0070922812
0.0106898695
-0.008723514
0.0045167785
0.014822349
-0.023602812
-0.019899739
0.01426655
-0.024349498
0.026161728
-0.022632498
-0.005774617
-0.053166974
-0.013770202
0.011171154
-0.038576055
-0.019698692
-0.021293998
-0.021373754
-0.01225195
0.015512065
-0.010419703
-0.020193378
-0.015635343
-0.01927328
0.011585197
-0.013705796
0.013886662
-0.029686488
0.010028392
0.015419574
-0.011401679
-0.001086557
-0.00788561
0.0053451373
-4.327915e-05
0.026878601
-0.001871044
0.023279916
0.0051330794
0.0069841626
-0.04747615
-0.011119193
-7.831649e-05
0.005112655
0.01500965
0.021527637
0.016415041
-0.0027972844
0.029381106
0.020448212
-0.009095687
-0.013884615
0.038515974
-0.026209386
-0.034026142
-0.0021728252
0.032648984
-0.024118198
0.010050313
-0.00937333
-0.012920428
-0.021902781
0.026571492
0.0060059396
-0.03017365
0.004712345
0.00063101266
0.0066884146
-0.0030389652
0.0040703765
-0.021576932
0.028554892
0.018330023
-0.008031602
-0.022398066
0.0040120487
-0.0005106934
-0.018197194
-0.008516617
-0.0016912677
-0.0018587896
-0.030516412
0.02553065
0.019841421
-0.0085814195
0.02299539
-0.008006278
0.00741275
-0.028223677
-0.036217876
-0.029286774
0.009732167
-0.0020854198
0.0119125685
0.034429047
0.008753884
-0.040797196
0.012033071
0.030931387
0.0059556807
0.036417305
-0.024661455
-0.021595074
-0.0094474815
-0.010249352
-0.024678703
-0.01643184
-0.02033229
0.008571544
-0.0040843785
0.0065139127
-0.016147126
-0.006515967
0.012838828
-0.01924801
-0.009070873
0.034045145
-0.019830199
-0.01359836
-0.0024372279
0.0054929904
-0.021285942
-0.025362207
-0.014493056
0.01878632
0.03839388
0.014461917
-0.010126758
-0.024898805
0.02246025
-0.038833965
0.004195261
-0.04019078
0.011058119
0.0028962025
-0.005755565
-0.009044339
0.02585253
0.0076265894
0.0014359326
0.023552008
-0.0055957553
-0.0067629796
0.0001937257
-0.03668704
0.0069365613
-0.0058190343
-0.0013286294
-0.0046881833
0.014468672
0.015767071
-0.009371352
-0.019334264
0.016235054
0.019513257
0.008187041
-0.011903506
0.016005974
0.024563856
-0.011842205
0.023368364
0.03628086
-0.023977542
-0.018197011
-0.00509519
0.04695891
0.031358447
-0.016722295
-0.04223019
0.029456204
0.0063570593
0.016742108
0.01649855
0.0013756416
-0.028738618
-0.012885242
0.0127736665
-0.008511031
0.014757054
0.011979549
0.01916893
0.00083761476
0.029426763
0.0136942305
-0.012182301
-0.0032450738
-0.001709673
-0.009333834
-0.010046375
-0.010283737
-0.023116933
-0.007320989
-0.012926894
-0.020530105
0.017142737
-0.007256647
0.012645335
-0.013332342
0.0037491089
-0.013275731
-0.009993059
0.014787929
-0.008783017
0.0013730227
0.043251645
-0.0302145
0.0071022045
-0.0058428766
-0.02734644
0.02576471
0.012906952
0.017936634
-0.014550832
-0.033634737
-0.0425604
0.0313145
-0.021779204
0.00310793
-0.02479155
-0.014655931
0.0009843736
0.0041317423
-0.0018415112
0.013095981
-0.0128645655
-0.02388144
0.043535378
0.003769993
0.005736992
-0.013914365
0.012373278
0.0005365601
0.0059928657
-0.028701842
-0.01698685
-0.017979862
0.0110084
-0.032543603
-0.022936586
0.012785886
0.00475623
-0.010761449
0.0071284724
0.008208075
0.0056118006
-0.01402526
-0.025270822
-0.010515055
-0.008470998
0.009815427
-0.005126258
0.022080038
0.02017338
-0.01443162
-0.0065212036
-0.023731647
0.019274384
-0.017854083
0.027782861
-0.017073046
-0.010707227
0.0019843355
0.004293554
-0.01618069
0.000701065
0.0013073649
0.0006540887
0.008255354
-0.004303143
-0.009630488
-0.00052802474
-0.0075058136
0.019809566
-0.009803027
-0.012678532
0.0109256245
0.008410911
0.0010748839
0.016626198
-0.016508553
-0.017424911
-0.002507782
-0.0020966076
0.004609623
0.010561907
0.013761924
-0.01678236
-0.021207048
0.022866527
0.016359443
0.0024831134
-0.0012709178
-0.01658682
-0.020320095
-0.033435628
-0.01532494
-0.037655286
0.0013774093
-0.013393414
-0.006472135
-0.020223223
-0.036628395
0.018560376
0.020572491
0.0023753226
0.019639978
-0.0036224977
-0.003200793
0.01147341
-0.0018737663
-0.039446052
-0.029127302
-0.0331354
0.021601334
0.0022711577
0.014740822
-0.027748618
-0.020700503
-0.0165575
0.0075838435
0.019937122
-0.023263816
-0.043402545
-0.029873675
0.01710222
0.0058548683
0.00012458432
0.008239753
-0.031230919
-0.031746704
-0.0077598123
0.0048565506
0.013037647
-0.0010865865
-0.033737957
0.0055747847
0.009560833
-0.027013969
-0.007705315
-0.008586426
-0.015617553
8.5342836e-05
-0.022866702
0.0037387346
-0.025707997
-0.03680176
-0.016885957
0.012170664
-0.027457971
-0.02830961
-0.020502554
0.015127897
-0.0022037074
0.0068490403
-0.009977847
0.021485709
-0.053481482
-0.013678848
0.014524881
0.01879291
-0.026062025
-0.039838824
-0.0027021572
-0.0038447645
-0.036271565
-0.038990583
0.012537745
-0.008792484
-0.007005272
-0.014976935
-0.011430908
-0.04748599
0.012386329
-0.022068575
-0.020149847
0.033983603
0.0034696518
-0.012486446
0.027510956
0.003930783
-0.013442247
-0.012945713
0.01042409
0.01891421
-0.04700489
-0.0356896
-0.01939767
-0.027392048
-0.017114045
0.005128986
0.01996262
0.0001563009
0.0066867517
-0.02064615
0.0032613282
0.030364452
0.011678429
-0.035059538
0.019051723
0.0095141
-0.0151215745
-0.014583746
0.012143349
0.011858122
-0.026324375
0.019209385
0.012102634
-0.0017069312
0.013716928
0.026977412
-0.01786145
0.025107786
0.023004236
-0.003432731
-0.0125124315
0.0017424956
-0.027310073
-0.01659289
-0.011065226
-0.0013349117
0.01043754
-0.017237961
0.017309396
-0.016299982
0.030519415
-0.003921019
-0.004365226
-0.013100971
-0.008332651
0.033278517
0.009160395
0.03424384
-0.01402264
0.0010436509
-0.018911092
0.0019028921
-0.022913203
0.037964877
-0.017300246
-0.0056498507
-0.012690408
0.020844469
-0.0075654443
0.019799817
-0.018064788
-0.031100834
0.006732027
-0.027683105
0.0016946802
0.023695424
-0.0074230595
0.0010331515
-0.031852003
-0.007490178
0.000522931
0.017015217
0.026977181
0.03139414
-0.026128465
0.02579089
0.014221321
0.021435307
0.02125669
0.009913179
-0.0002187819
-0.007154108
0.003043899
0.00640484
0.034971215
0.017914873
-0.0040199053
0.00963128
0.042925667
0.032895334
-0.038339905
0.011796841
0.009698104
0.013630515
-0.01344857
-0.015014362
0.029442536
0.011671489
-0.005926539
0.037980385
0.0027680055
-0.016812157
-0.020932306
-0.0353958
0.0056049456
0.025084572
-0.007652842
0.004818331
0.013645503
0.0031537518
-0.023391748
0.010629241
0.025759906
0.004562111
-0.01803011
-0.020627744
0.025975691
0.021681262
-0.030406127
-0.01314854
-0.0027773916
0.016637987
-0.019203633
0.0052208835
0.0053169015
0.010954841
-0.044457126
-0.030970791
-0.031301692
0.0197483
-0.0008156084
0.0054331324
0.017297925
-0.012557101
-0.01893949
-0.007856561
0.006979324
0.01081594
0.012371614
0.011913353
-0.018801073
-0.0037231748
0.018101024
-0.01385212
0.019408418
0.01868939
-0.031995792
0.0076316507
0.00043036215
0.024823278
0.017741997
-0.02107141
-0.043893397
-0.0006939588
0.0018084777
-0.013038756
0.0038196503
0.0058692996
-0.0057397387
-0.014309343
-0.016912237
0.008800132
0.016998472
-0.020907726
-0.01323526
-0.015103539
-0.008056684
0.003815941
0.0067963367
0.025561068
-0.023373617
-0.023960141
0.013810416
-0.016181236
-0.02537374
-0.0049855257
0.0059300386
0.026720038
0.011386587
-0.035792243
-0.02230471
-0.0027052986
0.019600537
-0.023888549
-0.0009894698
-0.0065126973
0.017081335
0.013277944
-0.021958211
0.005112402
-0.0039917803
0.0049760407
-0.035323836
-0.010118249
-0.028025046
0.015955096
-0.010529141
-0.01790537
0.02917472
0.033019204
0.0024926993
-0.004652081
-0.010034153
0.010479403
-0.0023991403
-0.012560497
0.015724303
0.041176975
-0.03059386
-0.0043584607
0.024282694
-0.014268243
0.011450377
-0.009888208
0.032785732
-0.015696028
0.009677945
0.032202467
-0.02701828
0.0013706435
-0.026412359
0.032717995
0.025104238
0.025368053
0.022838742
-0.030460184
0.001786063
0.023668163
0.0047826027
-0.016770303
-0.0016240029
-0.032258417
-0.0067182076
0.020576086
0.0029491726
-0.0066360272
0.001631046
0.010610129
-0.011104813
-0.031857733
-0.0043351506
-0.010527159
0.012983796
-0.009525834
0.011709156
0.009620687
-0.0009909327
0.020488217
0.02661572
0.007766985
0.026165484
-0.0039619072
0.007545929
0.020791128
0.022251392
0.0117329005
0.02174595
0.037357114
-0.019710053
0.005331356
0.025208136
0.0029760294
0.023397723
-0.003230836
0.01650567
0.03155094
0.040169206
-0.0198079
3.0710948e-05
-0.0008029662
0.028836528
0.002191884
0.042666517
-0.044397775
-0.009500062
0.015107086
-0.016595675
-0.04404104
0.014833266
0.021425197
0.014192711
-0.013918608
-0.007892453
-0.011444351
0.011236248
0.029918246
0.00037433035
-0.030454949
-0.008433096
0.014096375
0.005088899
0.008172877
-0.0009945678
0.0053180763
-0.030603845
0.0025393437
-0.036513284
-0.0005598301
-0.029466895
-0.012974564
0.03263913
0.009875402
0.012825546
-0.024550261
0.0037525336
0.0215647
-0.011152786
0.021264875
0.024501033
0.011384706
-0.026277576
0.04935868
-0.009674887
-0.0053858305
-0.039900165
0.0239626
-0.011184521
-0.052703887
0.02402708
-0.0063023376
0.007624258
-0.005717728
0.023177255
0.00970348
-0.015133808
0.011508344
-0.010243478
-0.034650806
-0.0032193803
-0.014100532
2.2606204e-05
0.047508325
-0.017557295
0.01295707
0.022552669
-0.014136237
0.022351597
-0.01084209
-0.016614547
0.022984626
-0.003157177
-0.012807321
-0.0021088545
-0.04747051
-0.009453172
-0.008934256
0.025840709
-0.008187093
0.009141469
0.022566468
0.009338808
0.037357476
0.0041163783
0.0008343553
0.0094379205
-0.006814497
-0.013773516
-0.0072770277
0.01855282
-0.013162043
-0.031198075
0.042114835
-0.007953951
0.017430546
0.012416446
-0.02088993
-0.024079902
-0.013676902
0.019697782
-0.02930106
0.017773649
-0.0076460317
0.0019577965
-0.052939504
-0.004821805
-0.008704895
0.0067460355
-0.016488526
-0.015923245
-0.014375615
-0.039862495
0.016032958
-0.020140605
0.0016388368
0.022474619
-0.018674852
-0.014827944
-0.019922135
0.011668519
0.019005308
-0.0020368558
-0.0032107828
0.010730237
-0.012708415
-0.003763391
0.013431877
-0.00025193428
-0.01551425
-0.028517418
-0.023271106
-0.013993644
0.0073668584
0.00917734
-0.0071504014
-0.0064141266
-0.021548035
0.026364768
-0.033360653
-0.0022484772
-0.020130193
0.011614623
0.025866047
-0.008769273
-0.003870998
-0.0073766527
0.0031867758
-0.043313567
-0.0149123175
-0.022320557
-0.009642802
-0.027746385
0.029391797
-0.03767355
-0.016546918
-0.025011472
0.028660152
-0.02672378
-0.003822566
-0.030254863
-0.012024112
-0.0022130345
-0.022339191
0.03080737
0.017322887
-0.023902368
0.015221712
-0.017291183
0.0052685994
-0.0041770977
-0.0021618225
0.036712516
-0.0024647103
-0.02789076
-0.031061735
0.0071315654
-0.0007554472
0.04047674
-0.0028894653
-0.0016142352
-0.02758137
-0.011824771
0.014577559
0.048172917
-0.02499734
0.001702963
-0.021948682
0.011812516
0.03907418
-0.017182326
-0.0065539484
0.014229378
0.0023956266
-0.04259954
-0.021872995
-0.018417021
-0.03447712
0.037975
-0.037117854
-0.043368388
0.014141785
0.010261481
-0.0018430594
-0.028332217
0.020128703
-0.02413455
-0.012099098
0.019153195
-0.0032044877
-0.003218967
-0.010778578
-0.015706483
0.0066750394
-0.030870983
-0.00658483
-0.022459317
-0.012733319
-0.013852726
-0.007881767
-0.049943924
0.007834302
-0.0021941839
-0.018502828
0.019052869
0.032690816
-0.029486058
0.0360074
-0.019791238
-0.026739623
-0.015972402
0.010168041
0.039095014
0.031483747
0.01783051
-0.023582885
0.020335646
0.03723609
0.0015081062
-0.0036792564
0.024810337
0.021095643
-0.028296221
0.003983667
-0.02441912
0.050903253
-0.007195794
-0.01413024
0.02355564
-0.013744259
-0.032698534
-0.018922864
0.021691283
-0.0034639852
0.032380875
0.03789063
0.020965308
-0.0010347998
-0.011090151
-0.009607235
-0.023378091
0.005174303
0.005574237
-0.009413916
-0.02799384
-0.011637791
0.001367086
-0.014825523
-0.029943967
0.029411219
-0.019252118
-0.0013332595
-0.013727101
-0.0056820065
0.014940305
0.008667966
-0.01905401
0.0025820993
0.03337415
0.0056358785
-0.0025843638
-0.040357836
0.03007482
0.0016831466
-0.008604986
-0.026264943
0.049617343
0.034740586
-0.019234572
-0.0052388636
0.01363548
0.02501177
-0.022557545
0.024999129
-0.013562511
0.019487208
-0.02636932
0.0014535444
0.026578074
-0.021847894
-0.008556332
0.056921747
-0.011502929
0.03172913
0.0131968055
-0.02544199
0.00982207
-0.0017894576
0.03936028
0.024978993
-0.0035300476
0.010114072
0.023953993
-0.022110496
0.011863276
-0.038995087
-0.0029975544
0.028431285
0.018055107
-0.0030819844
-0.00010443879
-0.018894019
-0.016137302
0.002232166
-0.019866122
0.039117865
0.0023898336
-0.020329772
-0.02957673
-0.033280443
0.017020933
0.0264541
0.0075330874
-0.027113924
0.0057115015
0.023779139
0.013134517
-0.007913096
-0.02150467
-0.024581382
0.024329334
0.01860446
0.01732058
-0.018330758
0.0027811425
0.013983754
0.02206064
0.005340681
-0.017700601
-0.022515206
-0.016910197
0.01950662
-0.005655285
-0.024757497
0.04771672
-0.027884502
-0.0019317227
-0.040094417
-0.014690218
-0.005409146
-0.012559374
-0.0077461633
-0.011375913
-0.010392632
-0.011324459
-0.0021812138
-0.005897208
-0.024889173
-0.016567048
-0.005743789
0.010959762
-0.041547198
0.03809404
-0.0104857655
-0.0018315052
0.023705535
0.026756799
-0.033069413
0.009810658
-0.023076318
-0.0045316624
-0.020732913
0.014935266
-0.028738456
0.028165795
0.019438291
-0.009356342
-0.028271088
0.03846871
-0.01759025
-0.00050586934
-0.033909064
-0.025714677
0.00265924
-0.030172156
-0.005838095
0.0006354386
-0.017399652
0.021373747
-0.0021700035
0.017966274
0.008347017
-0.007931196
0.015080922
-0.0038095398
0.014222994
-0.011954893
0.035804126
0.0007543913
-0.019257134
-0.012503688
0.028224101
-0.030878622
-0.012301831
-0.048130136
0.02369735
-0.03121948
0.0030815066
0.029694147
-0.027402192
-0.03691843
-0.014759568
-0.0004246825
-0.004542455
-0.024469502
0.013769048
0.033985537
0.0036382412
-0.0053938366
0.018863946
0.02473082
0.011879358
-0.0021130096
-0.019447021
-0.015207187
0.00072975556
-0.005588422
0.013912772
0.026191572
-0.043438263
-0.024093721
-0.034097895
-0.016633471
-0.013701814
0.008285481
0.029867247
-0.0070073013
0.007416811
0.008310252
-0.041125733
0.052697454
-0.023783194
0.01601643
0.002088136
0.0011658043
0.0057765255
-0.013666239
0.049175125
0.013388075
-0.0215175
-0.018038368
-0.022771448
-0.026093751
-0.00035096053
-0.004724125
0.012330534
0.01431675
-0.014603214
0.022591218
-0.00073585584
0.007388994
0.022513041
0.0036367879
-0.010971874
-0.017929062
0.0035010956
0.017773654
-0.030757908
0.017151456
-0.03343095
0.04691586
-0.008170556
0.030212354
0.0068224515
-0.0011005109
0.024164554
-0.038567588
-0.01026894
0.037556995
-0.025151692
0.017311467
-0.0041148025
-0.0054436103
-0.023328433
-0.008936624
0.00514892
0.007336446
0.016518012
-0.0124555435
-0.014717989
-0.0150647815
0.015749602
-0.023822928
0.020401739
0.007086077
0.016204605
0.024415374
-0.006178872
0.0019588869
-0.014172012
-0.017308548
0.016503787
0.012611246
0.0022507203
-0.016328346
0.0077460054
0.007760537
0.03521133
-0.008590327
-0.0031167134
-0.005546856
0.027899902
0.012668699
-0.03146159
0.008611601
0.0069425157
0.007702585
-0.01691202
-0.037877727
0.02367824
-0.04672147
0.03931854
0.026531652
-0.020194784
-0.025100619
-0.01730951
0.025420293
0.014730077
-0.004431868
0.017837683
0.009073529
-0.0028157437
-0.0046357447
0.033794187
-0.02874871
0.020926636
-0.008334456
-0.008207586
0.017742477
-0.013394175
0.008753218
0.004470237
0.0019701843
0.022685116
0.012779842
0.0128923245
0.0119728055
0.026721688
0.019306958
0.020338146
0.02493542
0.015776264
-0.013634589
-0.012468247
0.00091338006
-0.016391052
0.011463362
-0.013519212
0.0032387292
-0.035589818
0.02858301
0.019564232
-0.020081233
0.0037028939
0.011824581
0.03893759
-0.012637291
-0.008542854
-0.011939005
0.0145015465
0.026966488
0.014435154
0.042370982
0.0063813236
-0.016822474
-0.02490669
-0.03344092
0.0024852382
0.007760986
0.01904112
0.017235197
0.036694646
0.0061296704
-0.0031242445
0.005307139
-0.016198874
0.00041187517
0.024575286
0.03306108
0.002643103
0.012488164
-0.020075701
0.018049195
0.00015287497
0.0050842213
-0.0070216176
0.00810945
0.011303203
0.0048002773
-0.02027636
0.02203477
0.023985116
-0.018687623
-0.0007026694
-0.01572298
0.03021157
0.008612313
-0.0028618544
-0.023909697
-0.012464602
-0.0050951755
-0.008681179
-0.013542924
-0.026768578
-0.026092477
0.00531926
0.017085578
-0.019942803
-0.0044987663
0.015052771
0.013598961
-0.027942378
-0.01972297
-0.027956838
0.018058045
-0.0046386267
0.010133402
-0.01849898
0.022954639
0.013485626
-0.024661832
-0.014608403
0.027272653
0.0029648412
-0.015525882
-0.0100464495
-0.028985139
-0.010157731
-0.01136791
0.0047562234
-0.02452524
0.008736679
0.012309515
-0.026258966
-0.019308206
-0.011518189
0.0045187636
0.03595691
0.042321235
-0.043468297
-0.026524078
-0.0050057615
0.009377172
0.03402807
0.006586404
-0.010856088
-0.014996957
-0.0065751164
-0.02549954
0.009671835
-0.018387651
0.00027011303
-0.007378143
0.01197935
-0.0014405205
0.003127897
0.02651881
0.0037502178
0.034724504
-0.021140834
0.022074223
0.022201652
0.021448072
0.017077247
-0.022446746
-0.00023729297
0.00034890126
-0.0016223114
0.0029052943
0.016079804
-0.0036897594
0.019726723
0.0031645542
-0.0027654741
-0.0061924756
0.025056928
0.006832993
0.018789293
0.023346126
-0.009268074
0.011532127
0.0011963324
0.0053091547
0.0075027863
-0.012343187
-0.0028750135
-0.012471942
0.0026497815
0.0044955956
0.022050953
0.02265694
-0.008443371
0.0030318112
-0.00930306
-0.0010188738
-0.010175999
-0.003070984
-0.010277867
0.013238901
-0.02503358
0.015795762
-0.0064431145
0.024610253
0.023016488
0.012847581
0.033815887
0.025689587
0.005305972
-0.018318811
-0.008751171
0.0033070606
0.024203327
0.0030001677
-0.011573451
-0.01621072
-0.00041688496
0.002254015
-0.0053669554
-0.016149879
-0.017927393
0.0062682796
0.011784351
-0.009368205
0.006760874
0.025781414
0.02453021
-0.002879304
0.0029153165
-0.015495024
-0.013127666
0.017658746
-0.032785546
-0.030317346
-0.028878985
-0.028160557
-0.0071821893
0.015795337
-0.01239057
-0.0011514856
-0.02174191
0.0058887447
0.024407413
-0.01693985
0.00032973426
0.02231944
-0.04312064
-0.0031687366
0.018007092
-0.016138198
-0.031755146
-0.014229532
0.025656559
-0.0034317519
0.008116924
0.030615726
-0.0038563663
-0.015314604
0.0015792849
-0.038062703
-0.019565158
-0.015620559
0.052301213
0.0037179682
-0.020466244
0.0038117382
-0.0071946452
0.022510769
0.0030812987
0.00034379103
-0.027191387
-0.056207713
0.040766094
-0.023517786
0.03181623
-0.03906337
-0.04136196
0.019391684
0.0042453334
0.02598655
-0.019912116
-0.012386751
-0.011846737
0.00033896868
0.016567323
0.03209527
-0.04202707
-0.019153949
-0.03173952
-0.047348615
-0.015358661
-0.028448576
-0.008658624
0.018407749
-0.027169641
0.01448891
0.011655326
0.03314802
0.009495843
-0.018201072
-0.027629275
-0.0009928643
0.034507737
-0.03420197
-0.03298821
0.0058710803
-0.007970557
-0.026581438
-0.011986375
0.005136586
0.025369314
-0.015440713
0.0058750096
-0.021826906
-0.044957448
-0.034446772
0.02226842
-0.02515127
-0.003969158
0.028060725
-0.008262726
-0.0078074737
0.016470576
-0.019133257
-0.0046627875
0.023912733
-0.030681921
0.03310526
0.0021719842
0.017047232
-0.0130013935
0.005949055
0.0097688325
0.022683127
-0.024015663
-0.008515584
-0.019675156
0.013823824
-0.021862457
-0.008391542
0.0017756608
-0.017818538
-0.030251889
-0.033766568
0.00022071441
0.012265131
-0.007184752
-0.0062122117
-0.022572033
0.008517077
-0.0015110519
0.014180948
0.0027005856
-0.031832814
-3.7839425e-05
-0.03190644
-0.01259146
-0.025489863
0.00518621
0.012468977
-0.0318355
-0.012593966
-0.04311756
0.028009156
0.019453978
0.011385663
-0.015626024
-0.027946683
-0.0012336387
-0.044118255
0.022235123
-0.0013140157
0.010968295
-0.00483849
-0.03541341
0.026227077
-0.012682285
0.009520168
-0.024147302
0.008765857
0.0035817754
0.012409985
0.0064758165
0.004804716
-0.023034938
0.009667731
-0.006985137
0.0005469767
0.0033254712
-0.02474287
0.03364721
0.0034944557
0.008134576
-0.053395662
-0.036483385
-0.033962883
0.046572004
2.382449e-05
0.010685339
0.0066934717
3.7098886e-05
-0.009351284
-0.03011775
0.0067665777
-0.02032437
0.0019448561
0.010701914
-0.008523774
-0.014011357
-0.019997723
-0.018155934
0.0017394252
0.01464663
-0.015326473
0.038016625
0.037470873
-0.023101553
-0.014891214
-0.0106584765
0.0067979484
-0.019508384
0.020404566
0.004899148
-0.04536248
-0.006589288
-0.010938529
-0.025794832
0.006436347
-0.01803465
-0.021027122
0.0038569295
0.011702951
-0.002039396
0.043690372
0.020397583
0.0407367
-0.010569429
-0.014284996
-0.011705258
-0.010545698
-0.0067491983
0.010610001
0.015170616
0.020305803
0.028074691
0.024820754
-0.03243658
-0.019510387
-0.023314584
0.015099171
-0.009141785
-0.011505043
-0.013231181
-0.016895391
0.045088716
0.025238607
0.022983264
-0.001952464
-0.019854398
0.022421176
0.008626727
-0.0023390658
-0.01826382
-0.01678723
-0.01574179
-0.018325541
0.010919663
-0.010196815
-0.003801138
0.0026573993
-0.015951922
-0.01994281
-0.018645903
0.029231291
-0.012833308
0.0051745274
-0.0012480351
-0.0003701293
0.015971882
-0.014509894
0.02239319
0.012241403
-0.020319497
0.01803647
0.009367682
0.010954186
-0.025080591
0.018245036
-0.016827134
-0.013273898
0.008930301
0.027844694
-0.024544504
0.029568953
-0.016630286
0.028500738
0.0070330645
-0.008937135
0.021121504
-0.0016450854
-0.022204192
-0.021823684
-0.043053832
0.009045493
-0.0135667045
-0.015565971
-0.010424228
-0.006536506
0.024963621
0.0072888806
-0.009886017
0.025549714
-0.02539252
0.019264024
0.005557629
0.005729313
-0.035512496
-0.023429288
-0.0065113367
-0.00012538486
-0.011444683
0.026904196
0.0078343665
0.05862528
-0.01842766
-0.011623181
-0.049800757
0.03462326
-0.0030905528
0.0177185
-1.8911222e-05
0.014793268
0.038220514
0.013805565
0.032835126
-0.015840484
0.008567777
-0.018460326
0.011920312
0.028608294
-0.0020501253
-0.016716022
0.00084667007
-0.005685072
-0.026904296
0.00056055584
0.018698098
-0.034484915
-0.020538429
0.014205184
-0.013642854
0.015521225
0.0041052797
-0.019341152
0.006845697
-0.010977716
-0.013804564
0.0019629088
0.0062813023
-0.014465267
0.005969373
0.000623274
-0.01834123
