-0.049562134
-0.39052522
0.22176482
0.29528296
0.2228374
-0.07486108
0.18745601
0.09170616
-0.08311493
0.0058810026
-0.2946556
-0.28822237
-0.28079382
-0.15128605
-0.22325791
0.23786396
0.13070115
0.3174314
0.0026772516
0.056798447
0.09180423
0.05576586
-0.08031485
0.17605165
0.1321908
0.17915764
-0.3878381
-0.06651716
-0.27614674
0.16480613
-0.20277084
0.16362694
0.1707638
0.13763657
0.041590117
-0.23331772
-0.40133443
-0.404812
0.30084366
-0.28801033
-0.12320511
-0.16217878
-0.41209167
0.13911317
0.22874081
0.09231144
-0.26749614
-0.2608821
0.03256623
-0.0033794695
0.29900682
-0.16283688
-0.05726602
-0.1911492
-0.22260445
0.08136705
-0.13469468
0.19274837
0.2823018
-0.001620179
0.29853278
-0.25447184
-0.13027833
-0.39662609
-0.21437031
0.25696227
-0.28956887
0.0663523
0.1513885
0.050379377
-0.33652627
-0.21167727
-0.07255887
-0.13398153
0.05789654
0.10445819
0.1397549
0.18859847
-0.34597597
0.16897535
-0.119399995
0.18894182
0.11023002
-0.2572308
-0.35617593
-0.14329539
-0.48997778
0.1334756
-0.18505496
0.12752646
-0.04052867
-0.27685273
-0.3821176
0.0916776
-0.18570036
-0.0070732036
0.20803438
-0.19410771
0.13334933
-0.13236864
0.14486493
-0.5039118
0.22111915
-0.32238883
0.22415939
-0.301318
0.025218904
-0.33124226
-0.17942314
-0.12112283
0.027118003
-0.28391594
-0.19546829
0.12282238
-0.30708417
-0.2020756
-0.18701449
0.15470138
0.2073645
-0.46180093
0.19073221
0.2282769
-0.15879893
0.00550124
-0.30368596
0.11727803
-0.044071656
-0.18094698
-0.3112514
-0.115508914
-0.28668925
0.13939738
-0.20531718
0.04228527
-0.16538231
0.02188274
-0.22451964
-0.05169655
0.06464979
-0.33659613
-0.43868494
-0.019694706
-0.2480469
0.15145057
-0.30894855
-0.4240918
-0.3020387
0.20401132
0.22801588
0.09187744
0.044540066
-0.1446455
-0.20514323
-0.25013682
0.26109827
-0.15224464
-0.3454824
0.39344075
0.1598761
-0.040239714
0.049773794
-0.06714459
-0.30833623
0.05558014
0.029629232
-0.23142259
-0.20450388
-0.2195568
-0.22330746
-0.0414186
0.3153595
0.17930934
0.11036076
-0.39930657
-0.12346641
0.23028187
-0.049493153
0.17747402
-0.28261244
0.23549642
-0.04784292
0.18836975
-0.30343306
-0.07366039
-0.3042375
-0.074778706
-0.14710607
-0.29111016
-0.5643287
-0.04576468
-0.30296844
-0.31577727
-0.24846393
-0.12412023
-0.08056945
-0.32811096
0.14816524
0.2548462
-0.18255864
0.24180897
0.2277607
0.15650907
0.027408438
0.09484196
-0.087429166
0.15883249
0.18157756
0.10116677
-0.3525603
0.19007799
-0.010849808
-0.31927818
0.2037251
-0.3290991
-0.1520367
-0.20897578
0.15723857
0.2404246
0.076045915
-0.41263473
-0.05476528
-0.060981598
-0.33554488
-0.22135632
0.2309394
-0.12815464
-0.25527364
0.1897647
-0.17192948
-0.35948867
-0.30334848
-0.25108424
0.33874586
0.15626526
-0.17062715
-0.08244916
0.060405914
-0.025532538
-0.18231188
-0.3230575
-0.3939379
0.112672694
-0.3656518
0.121813364
-0.20863074
0.12520608
0.13923712
-0.21628845
-0.17328931
0.14365034
-0.12373223
-0.3443402
-0.2660641
-0.22714399
0.024001187
-0.2995806
-0.18101045
-0.11183282
0.08189801
-0.0730894
0.16986533
0.1559775
-0.18746282
0.15495427
0.19665813
0.09781284
-0.38683438
-0.3070857
-0.15961592
0.15541409
-0.24858473
0.1337012
0.11838514
0.043918785
-0.28433284
-0.2642096
0.15916184
-0.1627612
0.21801515
-0.09414936
-0.20881422
0.058925953
0.24465364
-0.09518917
0.22331724
-0.09400126
-0.10110938
0.07893933
0.16790019
-0.28680965
-0.096617
-0.3401353
-0.22906367
-0.1882441
-0.007995337
-0.027087195
0.33751768
-0.12332921
-0.26856488
0.2736238
-0.03292758
0.24269676
-0.23568779
-0.036377426
0.17246564
-0.43061095
0.24919184
-0.2358503
-0.14978367
0.056856144
-0.20186621
-0.17486893
-0.27951983
-0.049490787
-0.075304635
-0.4070522
0.22397028
0.22034457
0.10617974
0.17971763
0.09634882
0.042821176
0.16525862
-0.07705631
0.08678622
-0.43766826
0.2159125
0.21473452
0.20255448
-0.44822913
0.11931896
0.23831609
-0.08140777
-0.20289029
0.20413229
-0.40247726
0.23066923
0.21263218
-0.16249497
-0.26828977
-0.2003297
-0.33765405
-0.31733945
-0.1717552
0.2293521
0.19341643
0.21934265
-0.24453048
-0.19452886
0.19037536
0.109736666
-0.27996153
-0.0094839195
0.12075107
0.22131903
-0.34487313
-0.36475185
-0.18818262
0.12623821
-0.2755998
0.1994423
-0.20323151
-0.0045333356
-0.24423838
0.124486744
0.16890189
-0.077611625
0.13761523
0.18754812
-0.2866834
0.1744822
-0.10946581
0.11122483
0.18027005
-0.32235208
-0.47248852
-0.22734141
0.16051954
-0.0821511
0.12167921
0.17444767
-0.008454395
-0.011799871
0.10563393
-0.237607
0.20703714
-0.17363162
0.18457666
-0.15065555
-0.032826386
-0.27840862
-0.10824938
-0.23007464
0.21633516
0.19270423
-0.262927
0.073256224
-0.21995
0.14788996
0.021224134
-0.24843922
0.17207901
-0.44123018
-0.4212321
0.18642205
-0.38835603
-0.2656166
0.21978958
-0.24645127
-0.2761225
0.18853964
0.043239407
0.12288382
0.25633034
0.0037359996
-0.19915356
0.1931879
0.14724572
-0.0009007753
-0.18202855
0.189676
0.18810514
0.051748715
-0.23791197
-0.1815701
-0.05706036
0.13215475
-0.21515414
-0.19411218
-0.28076524
-0.25379854
0.22388375
-0.01976721
-0.07831283
0.08335269
-0.13990587
0.23161937
0.28651002
0.027993675
-0.09978028
0.16774213
-0.285518
-0.00016164387
-0.077270925
-0.33439198
0.2916711
-0.21783838
0.30666468
0.13352273
0.2798195
0.13258271
-0.1944899
0.29890034
-0.27258408
-0.10762418
0.020233786
-0.056334212
-0.06705955
0.2084829
-0.33975142
0.12675993
-0.45271406
-0.28256917
0.2679512
0.18806733
0.25075325
-0.2236586
-0.06505949
-0.20289572
0.07806343
-0.09502731
-0.2931162
0.23707664
0.22149232
0.13181059
-0.35205787
0.15707864
0.27731657
-0.23210865
0.027314197
0.053671464
-0.071427226
-0.32480097
-0.19785133
-0.29738656
0.1919927
0.033257358
-0.3911234
-0.24383117
-0.08863659
-0.15958107
0.2841484
-0.23985855
0.08914921
0.10824877
0.03682972
0.15479916
0.05420929
-0.3842451
0.0037376483
-0.37992343
-0.122100696
-0.2731025
-0.45027834
-0.1695413
-0.21052578
0.2179541
-0.18247569
0.18596071
0.24945751
0.25117564
0.12265178
-0.07935425
0.31538633
0.31877494
-0.38714567
-0.08858595
0.067763515
0.32868683
-0.34372857
-0.08814724
0.10592116
0.26885602
-0.001532859
-0.2596041
0.06363859
-0.030368568
-0.030716134
-0.28957576
0.17070496
0.16530317
0.3093779
-0.22255117
0.04862701
0.26335058
-0.15134159
-0.37742406
-0.2853082
0.03392114
-0.2853949
0.08629202
-0.29967004
0.17611864
-0.0023586447
0.29731607
0.2309818
0.20970863
0.26517633
-0.27051133
-0.1694243
0.08227859
0.19077608
-0.10725357
-0.2068418
-0.21611038
-0.13193454
0.19527178
-0.43419206
-0.24422409
0.23024093
-0.28688607
-0.3070846
-0.29332003
-0.18349701
0.21335383
-0.028210951
0.1958078
-0.3430335
-0.0012627105
-0.41757244
-0.12502864
-0.34023154
-0.2793667
-0.0016732189
-0.40210435
-0.24451001
0.19624017
-0.12077422
0.21286267
-0.09108555
0.08763758
0.019057186
-0.16799268
-0.4266203
0.15514229
0.24162251
0.23611781
0.2346303
0.22335108
-0.07001297
0.12008867
0.2091851
-0.24927193
-0.025030773
-0.3063929
-0.17711888
-0.027194772
0.13723017
-0.08529109
0.039951716
0.17298399
-0.33934665
0.3330432
-0.27402312
-0.09525982
0.2729151
-0.1062113
-0.14547773
-0.22570997
-0.087149225
-0.41924056
-0.12716685
0.0051618814
0.2828458
-0.28060862
0.0014828724
0.08287385
0.07496225
-0.055050187
0.3339203
0.14609472
-0.16406466
0.18306385
-0.105410755
0.023918107
0.071895346
0.30125192
-0.19799237
-0.13018237
0.112708725
-0.33068416
0.11643627
-0.3155021
-0.33261925
-0.29832414
0.18047413
-0.0037251106
0.16276053
-0.18374643
-0.25654438
0.20397353
0.16552934
0.12660877
-0.24694523
-0.20803192
-0.064722516
-0.019174576
0.26445118
0.20716488
-0.2727392
-0.12126248
0.031687338
0.16638051
0.14551935
0.054976247
0.32493725
0.28522953
-0.15350363
0.28419158
-0.112273395
-0.269212
-0.17613505
-0.051117763
0.09449773
-0.072998315
0.01368701
0.09990059
-0.37211365
-0.22720908
-0.22784512
0.011493187
0.085041195
-0.52771485
-0.36886656
-0.023877116
0.095065944
-0.038035985
-0.14937943
-0.4193827
-0.12507196
-0.35072508
-0.33689898
-0.064104915
-0.27752814
0.1534327
0.22241943
-0.1107052
0.1510693
0.20048456
0.12775718
0.18285829
-0.0892327
0.033806764
-0.32154366
0.19468632
-0.0041628988
0.12687972
-0.44300386
-0.2525128
0.20182896
-0.39886984
-0.27273118
0.008106708
-0.43096185
-0.1064003
0.01307739
-0.2239407
0.04583053
0.06148753
-0.42412543
-0.22870287
0.21245974
-0.22530344
0.09894388
0.28821692
0.060366068
0.14760442
-0.21196643
-0.28942654
0.27849102
-0.00012107732
-0.09607015
0.21824698
-0.22632831
-0.3201211
-0.12628603
0.1141021
-0.34918773
-0.28319964
0.1774775
-0.044811282
0.3216562
-0.21896215
-0.010550006
-0.38639554
-0.13398235
0.08520079
0.03836246
-0.27316424
-0.17282037
0.15869975
0.1573259
-0.35295102
-0.16385362
-0.19666061
0.10292749
-0.32632023
0.21021049
0.19975398
0.17685986
0.08624623
0.2046668
-0.0908231
0.19030724
0.13791594
0.11739496
-0.22747819
-0.2874884
0.18373702
-0.11963542
0.08725822
-0.3247878
0.107136995
-0.4424626
0.043896664
0.022985648
-0.027636647
-0.17710006
-0.009306883
0.15790051
-0.1415964
0.10432971
0.15167595
-0.40805817
-0.21465369
-0.3394728
-0.31289148
0.10372279
-0.069905676
-0.36853895
0.22551799
-0.12953866
0.09666781
0.0034731575
0.13023166
0.22399709
-0.2869989
-0.01631163
0.11661378
-0.36061028
0.23772793
-0.20178191
-0.39941278
-0.18094999
-0.34621635
0.09926396
0.22931965
0.17514959
-0.19341162
-0.15731217
0.2855903
-0.24121226
-0.41809058
0.28940907
-0.24712892
-0.3139132
-0.21175955
-0.39934668
-0.0845459
0.27655542
0.003944689
-0.3454251
-0.21201506
0.06976232
-0.14069857
0.31769451
0.007228124
-0.4303902
0.12951665
-0.20321213
-0.081622235
-0.43357646
0.07184016
-0.21115942
-0.31864554
-0.13848588
-0.06285846
-0.22463524
0.20423022
0.13015322
0.19800903
0.06965453
0.21838102
-0.27393323
-0.27493057
-0.24768297
-0.22514631
0.29659745
0.122578345
0.28270796
0.021342564
-0.123222165
0.029439708
0.2079341
-0.32354966
-0.28127906
-0.29348585
0.042306554
-0.20740765
0.13631605
-0.23211421
-0.35149476
-0.1560115
-0.15640299
0.21602279
0.049896013
0.14472395
-0.23779796
-0.30076662
-0.18383335
-0.086348794
0.0325564
-0.10891746
0.27829146
0.27660963
-0.34070304
0.28100908
-0.31563038
0.19290668
0.18475932
-0.11493849
-0.20043492
0.068448804
-0.2436868
0.04058297
0.16912094
0.03420597
-0.38206586
-0.3870127
-0.04793461
-0.44375277
-0.3980479
-0.04017849
-0.0546851
-0.20511362
-0.0017209597
-0.17699598
0.17659307
-0.16566409
-0.40123728
0.24199687
-0.18350285
0.26961422
0.18543246
-0.17561291
0.15156297
-0.1445864
-0.22398823
0.13658005
0.07601238
-0.3359887
-0.22285922
-0.3525198
-0.16639128
-0.18369864
-0.22326405
-0.09947733
0.14302446
0.21282436
-0.0956572
-0.102195404
0.19435316
-0.003666408
0.09655924
0.16883135
0.2399102
0.04023837
0.17246513
0.21419655
-0.4987262
0.04657954
-0.34943134
-0.28751248
0.036897853
0.2657539
-0.27290797
-0.12324235
0.21215749
-0.34137508
0.22676183
0.14963858
-0.094707385
-0.0013968284
0.17092393
0.042412765
0.1613553
0.21998319
-0.13075373
0.09650274
0.15215631
-0.16176485
-0.34067085
0.05616243
0.20203002
-0.04735117
0.26910165
-0.21746664
-0.18125816
-0.4044199
-0.02767206
-0.08009527
-0.23212154
0.24094583
-0.18501802
-0.015265871
0.24883434
-0.45520943
-0.060773604
0.07563875
0.14687209
0.14258088
-0.21922712
-0.3472364
-0.25282505
0.14882857
0.28238934
0.17999963
0.207529
-0.042607293
-0.003064181
-0.3031398
-0.43086627
0.14045201
0.23338856
-0.2831973
0.115230225
0.20674355
-0.043017935
-0.20180447
0.09768534
-0.022141712
-0.36570603
0.2440318
0.20969833
-0.24326046
0.09072171
-0.24861385
-0.17491154
0.3135558
0.030949622
-0.05792327
-0.2515337
-0.43334553
-0.29697785
0.065536425
0.09009328
-0.12114999
-0.103159495
-0.16557842
-0.32412732
-0.11019317
-0.37237924
0.2580264
-0.034565356
0.02419652
-0.13605157
-0.17686832
-0.057276223
0.121929854
-0.3773819
0.15023118
-0.0032834962
-0.1778566
0.1489988
0.1257661
-0.39290544
-0.25143737
-0.111947425
0.080901414
-0.32376373
-0.3744385
0.02834437
-0.13153447
-0.0059649795
0.170701
0.11208586
-0.0885027
-0.26555583
0.1944309
-0.44318908
0.21694794
-0.17064756
0.24270321
-7.4024974e-05
-0.2581168
0.25056803
0.23365985
0.006773766
-0.06632353
-0.011708459
-0.25038102
-0.24568625
0.23074725
-0.12752731
-0.39002725
-0.006700654
0.17462818
-0.041335743
0.09710742
0.103308775
-0.38372636
-0.33092338
0.11526037
0.18197523
0.21831487
0.14117466
-0.10213902
-0.34548074
-0.2745387
-0.09549599
-0.13762534
-0.38712388
-0.2683183
-0.3910543
-0.014468934
-0.16091116
-0.28272036
0.23717989
0.10325568
-0.26734585
0.0890433
0.030152887
-0.2264096
-0.31820238
0.2240765
0.07311889
-0.32682994
0.22330989
0.118810035
-0.30007893
-0.07490382
0.017493663
0.0056154383
-0.03147669
0.00073266105
-0.02158712
-0.1387869
-0.07760114
-0.04724571
-0.09304684
0.15139367
-0.14219083
0.1618129
0.01133016
0.0697488
-0.021166902
-0.0311111
0.09705015
0.1136911
0.13364606
-0.024624772
-0.19017224
