0.09397716
-0.3142787
-0.3388489
0.15860662
0.19124575
0.018189274
0.21497186
-0.010896581
-0.42853892
-0.31571487
0.018895166
-0.2600931
0.17896034
0.23652121
0.13124403
0.21435389
-0.03733237
-0.06279242
-0.18888481
-0.13613717
0.025751311
-0.19982389
-0.033910535
0.25947544
-0.14985241
0.19608396
-0.13524367
0.2094313
-0.10937435
0.24061573
-0.07838188
-0.20310892
0.22479548
0.18667255
-0.23214237
-0.3324068
-0.4336341
-0.2088076
-0.35957035
-0.3320698
0.091392756
-0.3913639
0.16998197
-0.043818027
0.07908385
-0.26380497
0.21646394
0.15485986
0.11408642
0.1572911
-0.12632138
0.14675748
0.15765373
-0.19980939
-0.16058815
0.19712475
-0.19385834
-0.10114133
-0.008491337
0.11590789
-0.14367975
-0.36779338
0.07583113
-0.43800646
-0.22673932
-0.22293307
-0.29453814
-0.32301375
-0.23267736
0.12797181
0.15821673
0.10817845
-0.18239763
-0.41772726
-0.10434746
0.06426903
0.2880975
0.18203005
-0.19586997
0.24599002
-0.300823
0.11964151
-0.21353303
0.2703942
0.19258684
0.024351478
-0.054472756
0.2123712
0.23774359
0.22763819
0.1757632
0.23995216
-0.30680272
0.20677742
-0.28399047
-0.23190056
-0.18204714
0.10197543
-0.068791285
0.13136756
0.100568995
-0.33705997
-0.20491046
0.16732816
-0.11133491
0.2214382
0.1711445
0.1140222
0.15095118
-0.23493552
0.22851603
-0.21074815
-0.20175493
-0.27327642
0.2778792
-0.37003765
-0.2023459
-0.39773718
0.046007615
0.076733105
-0.264623
-0.06399222
0.24128938
-0.114709236
0.032994673
-0.1367105
-0.3676316
0.22806962
0.09631977
-0.3846331
-0.45535928
-0.032606382
-0.31079912
-0.045867477
-0.07966664
-0.03362405
-0.25182533
-0.2482138
-0.15553223
0.19447492
0.2243915
-0.11887281
0.24765518
-0.024726622
-0.11916303
-0.32911807
-0.39030704
-0.15560314
-0.32433203
0.26917747
0.21806383
0.19320385
-0.194155
0.0051669176
0.23280229
-0.07000697
-0.2949522
0.23652025
-0.2615456
-0.1823484
-0.19993009
-0.11775674
-0.28353736
-0.008377306
-0.275335
0.2607438
0.24745527
-0.21045873
-0.13236076
0.20114449
0.14482045
-0.11926436
-0.36556938
0.15225421
-0.0153269535
0.22574306
-0.09292021
-0.21652798
0.09246979
0.20887803
-0.15768526
0.21250223
-0.048116308
0.15958309
-0.57397693
-0.31585458
-0.15604039
-0.27548763
-0.3480902
0.21823367
0.19570665
-0.3093064
-0.32985786
0.22081366
-0.14536689
-0.13317978
-0.04396103
0.16253379
0.23259419
-0.37634254
-0.29438597
0.057368394
-0.11493465
0.25726584
0.22346458
0.2597283
-0.028038265
0.19883934
-0.21789674
0.14529392
-0.034683187
0.28110614
-0.17191441
0.16315553
-0.094358675
-0.08888431
0.17651676
0.25923207
-0.18338789
0.13115975
-0.11008657
-0.023218146
-0.098724626
-0.17748623
-0.056338396
0.2839106
0.2407341
-0.35901958
0.2465242
0.18548718
0.06756343
-0.31905738
0.18827955
0.21331571
0.22253844
-0.11319301
-0.20959875
0.106271476
-0.039885752
-0.20867775
-0.20906124
0.07866073
0.1173262
-0.20925394
0.03208542
-0.063476175
-0.41592076
-0.21547188
0.20032398
-0.23367709
-0.21031512
-0.0426568
0.09740169
0.1576034
-0.00030231557
-0.35061753
0.21586037
-0.31296536
0.20800796
-0.21304545
0.21125795
0.19756794
-0.45112428
-0.2293743
-0.015076226
-0.0991549
-0.19377251
0.2071975
0.19309334
-0.21035956
0.034887668
-0.035372112
0.2623874
-0.33823276
0.14329839
-0.25709787
0.21146964
-0.23414469
0.0024556217
-0.45106763
0.13691646
0.29303354
-0.27551386
-0.19121893
-0.06477886
-0.05838549
-0.07221156
-0.07016878
0.20004831
0.26962656
-0.3540012
0.2666525
0.29145038
-0.20861673
0.27739307
0.25661427
-0.09012597
-0.14309685
0.12188325
-0.10440221
-0.062410995
0.06947815
0.1771968
-0.21536392
0.27520213
-0.28440315
0.23304784
-0.2524757
0.10824226
0.016657313
-0.09778952
-0.3764667
0.26680416
-0.08563157
0.26054373
-0.3034153
-0.02157503
-0.42261156
-0.2229799
0.2881843
-0.021733955
-0.4484757
0.012888505
-0.28532284
0.15540664
-0.3707931
0.20287003
0.20512307
0.1320242
0.2042569
0.12871878
-0.283456
-0.09001863
-0.24261576
0.17408583
0.16676585
-0.34582183
-0.48572037
-0.31990418
0.102896735
0.06605918
0.16270615
0.17723627
-0.21574228
0.07146254
-0.50630677
-0.50944537
0.11086127
0.06157684
-0.13983665
0.011449158
0.16832674
-0.30540156
-0.16676158
0.12049042
-0.28932312
0.023027046
-0.19299689
-0.18839066
0.14835903
0.11748492
-0.30428445
0.19711696
-0.047649663
0.07397718
-0.1967418
-0.12491048
0.22916113
0.057860214
0.017692463
0.25586763
-0.1801572
0.23077564
0.19166538
-0.44892734
-0.363837
-0.30705765
0.23708057
0.23956594
0.22470258
0.20631479
0.16303413
-0.35803005
-0.1420039
-0.41004518
0.176074
-0.38298044
-0.38340476
0.16506548
0.04644213
-0.116060756
-0.062179327
-0.25816715
0.0746599
-0.006209697
0.121286206
-0.43143436
-0.17614244
-0.23663668
0.14653917
0.2938963
-0.26728332
-0.037829194
-0.13553903
0.0139259035
-0.18909761
-0.33083925
-0.27881885
-0.19015765
0.084293194
0.2754465
0.04968587
-0.4606894
-0.09839554
-0.36945644
-0.010160866
-0.37809926
0.2893148
-0.08711815
-0.13837828
0.105798125
-0.13396645
0.20994686
-0.29639152
0.21564032
0.22764651
-0.40995917
0.14743572
0.20100173
-0.006722339
0.19491988
-0.3353476
-0.48930997
-0.40824127
0.21295796
0.086992376
0.16884637
-0.43219015
0.11524404
0.21847826
0.18508111
-0.18720892
-0.23451445
-0.3363516
-0.18762109
-0.028353209
-0.19457428
-0.40575826
0.086574845
-0.105124086
-0.28681362
-0.34630695
-0.18180257
0.20399846
0.18165626
0.20512204
-0.30576912
-0.24592595
0.21831937
-0.18576807
-0.31828535
0.21929881
-0.20975187
-0.27816173
-0.22125082
-0.13191468
-0.3773736
0.1595774
-0.25595313
-0.33019954
0.07800436
0.16422172
0.26311538
0.24075396
0.18273988
0.21122822
0.13375276
-0.098528855
0.16037002
-0.046284314
-0.24073987
0.12509054
0.18713687
0.176953
0.17916298
0.17373167
0.021659674
0.21103294
-0.36914197
-0.07105934
-0.15749374
-0.47493044
-0.16538882
-0.2577854
-0.28918254
0.13771416
-0.16068819
-0.112343155
0.21320085
0.011260809
-0.36276975
0.16825831
0.20518734
0.2742838
-0.10315697
0.18991952
-0.2352844
0.23288117
0.16123688
-0.3062361
0.09522284
-0.29728162
-0.29254836
0.2428689
0.22605325
-0.28571382
0.1828943
-0.1614709
0.24641839
-0.24199916
-0.14103246
0.24381344
0.21708849
-0.12608403
-0.17746842
-0.30728847
-0.07708611
0.029538516
0.24142505
-0.13417783
-0.28442433
0.24387933
-0.06816208
-0.22428654
-0.08376485
-0.2079099
0.13720116
0.3398544
-0.48285013
-0.15579921
0.3094602
-0.20682067
-0.3497162
0.2810514
0.012812115
-0.10404374
-0.1541127
-0.24392985
-0.32682753
-0.2939037
-0.12478509
-0.2153382
-0.20103355
0.15270717
-0.30035943
0.21697387
-0.27343506
-0.31459805
0.2471051
-0.1358965
0.24378376
-0.18953525
0.20222986
0.18191828
-0.045377493
-0.1826484
-0.41180432
-0.04605508
0.056112107
0.059126582
0.25837415
-0.22914636
0.19823642
0.27954724
0.26399276
-0.16421449
-0.03004272
-0.10941836
-0.08350913
0.0044803782
-0.21177076
-0.20065019
0.20311038
-0.12978739
-0.4902867
-0.0410999
-0.016760312
-0.37313244
-0.25020638
-0.13987318
0.17933594
0.14816199
0.24605225
-0.06680496
-0.10386369
-0.25505733
-0.08285178
-0.11869132
-0.24812946
-0.4010152
0.17239544
-0.01934727
0.28396815
-0.21429588
-0.03548442
0.2817835
0.15321022
-0.33805662
0.07954609
-0.15822355
-0.1991616
-0.20970292
-0.5217413
0.15199912
0.16301455
-0.32568547
-0.26779723
-0.42411914
0.17510468
0.15145281
-0.02127247
-0.115790814
0.17380458
0.06773347
0.030537559
0.17782666
0.16761847
-0.09259347
0.10691186
-0.04711187
0.3021053
-0.088505395
-0.23744062
-0.31096756
0.042632632
0.10692595
-0.32374373
-0.09351964
0.26900738
-0.31792083
-0.28113207
0.19455102
-0.1172127
-0.23386313
0.24189186
0.27346987
0.25119105
-0.3616491
0.20990835
-0.25363332
-0.10730095
-0.016793652
-0.0668573
-0.12368045
0.25607786
-0.314243
0.19970596
-0.119084984
0.22810651
0.05756019
0.19298719
0.2589379
-0.38399863
-0.1473921
-0.24448398
0.1304313
0.17253108
-0.5691847
0.15864657
-0.024439376
0.18073417
0.11485029
-0.4171253
0.12719187
-0.20196134
0.13199818
0.13256568
-0.27675143
0.1185775
0.16023628
-0.35103294
-0.20648055
-0.08922333
-0.019249743
-0.056917824
-0.3669309
0.01293752
-0.36086348
0.013058123
-0.31804067
-0.04005923
0.16666885
-0.17223513
0.112879954
0.17212643
0.014590443
-0.22379935
0.22551724
0.17319724
-0.31408104
0.22684498
-0.21649711
0.10583017
0.13833639
-0.07045942
-0.32963827
0.27607992
0.071669936
-0.1112283
0.17211506
0.23310733
-0.050269492
-0.27302733
-0.35124925
0.14594743
-0.035491332
-0.3885231
0.03709675
-0.31926447
-0.06319075
0.17135563
0.21355116
-0.28108886
0.11609387
-0.22160342
-0.11404809
-0.50728434
-0.16927676
0.15649
-0.3498924
-0.3361771
-0.00012136723
0.1463901
-0.08648589
0.18040687
-0.2809611
-0.18226701
0.15815179
0.1841332
0.12716356
0.08358775
0.24489917
-0.270322
0.18400641
-0.37247944
0.031009141
-0.13479583
0.07313908
-0.23325235
-0.06365593
0.17602679
0.24373233
-0.03813742
-0.14845294
-0.347741
0.12754375
-0.0075851274
0.28712872
-0.33699355
0.19130044
-0.3060735
-0.41907215
0.18502527
-0.13569649
-0.0049847867
-0.21427256
-0.21910816
-0.22556035
0.15060188
-0.0025744797
0.22088943
0.15745175
-0.099007115
0.2497198
0.24092504
0.15922378
0.25471961
-0.050347675
-0.22304112
-0.044249207
-0.25424218
0.103039585
-0.28201517
-0.20205875
0.23956732
-0.1013924
-0.104640424
-0.12145386
-0.38502508
-0.13818602
-0.057787728
0.12343185
0.15857413
-0.10337047
0.26404262
-0.42082834
0.22877611
-0.12085556
-0.14903171
-0.32205352
0.06452909
-0.2764252
-0.2438987
-0.017144123
-0.41759226
0.07426963
-0.26952195
0.07281352
-0.42871284
0.025093865
-0.21076576
-0.32726482
-0.13162218
0.037347235
0.07713546
0.035829827
-0.09914201
0.01063269
0.19754939
0.15796119
0.15265436
-0.35118058
-0.16967383
-0.25062215
0.028942166
-0.22435279
-0.2466346
0.18741514
0.11362102
-0.27472392
-0.13639478
-0.08873939
-0.11078267
-0.16411309
0.19051313
-0.16467969
0.066109784
0.25016057
0.18271841
-0.14760889
-0.03701389
-0.31070304
-0.022765452
-0.23426254
-0.061230425
0.27507982
0.26029843
-0.17450066
0.25089014
-0.36231536
-0.4593753
-0.25549054
-0.117441185
-0.038894113
-0.05495222
-0.42973614
-0.23809688
-0.42413464
0.23752251
0.31147125
-0.28726593
0.2807492
0.047912046
-0.120929874
0.22543676
-0.2320027
0.24599987
-0.33703816
-0.05477748
-0.17193669
-0.38316673
-0.09045145
0.094189376
-0.42401165
-0.20641457
0.21201305
-0.35906258
0.2665098
0.23818277
-0.33659092
-0.059137724
0.19136246
0.22164266
0.16489157
0.18957163
-0.29060552
0.12274559
-0.010567004
-0.27087644
0.06999868
-0.36511576
-0.34473267
-0.3310525
-0.30529708
0.0790559
0.1041313
0.21722835
0.21330144
-0.16751544
0.1719679
0.09008009
-0.24049255
-0.20197026
-0.24602275
0.06598189
0.21538621
-0.5770514
-0.10553024
-0.24480477
-0.368453
-0.11813171
-0.11760732
-0.14524624
0.20404379
-0.22897659
0.19748421
0.19296674
-0.026451258
-0.42827716
0.23420258
0.20913921
0.20154165
-0.24925444
-0.10914349
-0.50563514
-0.019142563
-0.05698097
-0.15357606
-0.32224226
-0.3044316
0.1883272
-0.029904079
0.1113729
0.19269384
0.10767569
-0.1729706
0.190242
-0.318537
-0.28830558
-0.24025497
-0.4180109
-0.20141198
0.1308307
0.17598383
-0.44150072
-0.046521794
0.21769051
0.21583736
-0.1979428
-0.035601117
-0.14499964
0.2477094
0.1305721
-0.24367133
-0.29589698
0.2920326
-0.12291416
-0.102629475
-0.30665424
-0.20069185
-0.20310146
0.26741958
0.19224556
-0.13869394
-0.2785875
0.038624372
-0.29464158
-0.26006427
0.2392732
0.014520443
0.19572347
-0.374365
0.18749696
-0.052686032
0.17673783
-0.1443259
0.23956226
-0.118997455
0.20453912
-0.24612862
-0.0073896386
-0.47451314
0.23392141
0.20646895
0.19588916
0.18680774
-0.22634983
0.12875654
-0.012745817
-0.4069282
-0.043749396
-0.022574415
0.26552534
-0.35453126
0.27523565
0.23473807
-0.27279562
-0.31066498
-0.29907098
-0.15905862
-0.29534325
0.1818255
-0.067039005
-0.14102879
-0.4271941
-0.0020634711
-0.046077065
-0.32351938
-0.3483948
0.08472802
-0.24395917
-0.39157942
-0.4205382
0.15103443
-0.081379
-0.0493555
-0.3872671
0.19807102
-0.008217415
0.22462532
-0.42900646
0.13837314
-0.25930095
0.12140758
0.2257272
0.23805745
0.011284324
0.19270374
0.14435458
-0.10187623
-0.15579568
0.22401336
0.21696159
-0.3725716
-0.3747382
-0.13465413
0.123892635
0.09720995
0.21720563
-0.37784436
-0.09593418
0.10909028
-0.38555345
0.14846398
-0.19907825
0.30313972
-0.12885585
0.032931812
-0.0672087
-0.09137467
0.30087197
-0.23277414
0.2431709
-0.24958469
0.14695111
-0.2018863
0.22703843
-0.2476409
0.17934118
0.30566975
-0.20241523
-0.30987614
0.07753751
0.27604148
0.092055835
-0.07962021
0.17482322
-0.065013
-0.40128702
-0.04515817
-0.1851157
-0.3058519
0.22443186
-0.079597995
-0.13143082
-0.27278435
-0.38256726
-0.027933765
0.24800965
0.2625417
0.23354773
0.12832263
0.1953118
0.10581071
0.0016479217
-0.0675967
0.042424742
-0.09592728
-0.04713061
0.055192497
0.17150669
-0.089394525
0.061228216
-0.016016701
-0.17141394
0.011144462
-0.026831316
0.090145044
0.24063036
0.060397908
-0.133594
-0.20792153
