-0.35256368
0.18530817
-0.26125163
-0.21275598
-0.27055764
-0.14637491
0.18570621
-0.111715324
-0.40801916
0.18063784
-0.14490691
0.20443144
-0.08915853
-0.35073093
0.13186623
-0.4479314
0.06083674
-0.20418759
0.001822651
-0.11653403
-0.343894
0.18643782
-0.29864058
-0.17000848
-0.07832506
-0.18349302
-0.31407928
-0.02087824
-0.3254883
0.1446437
0.038650617
-0.16109504
0.18624216
0.17953704
0.062534906
0.14503346
0.15653084
-0.25004044
0.2694488
0.22990093
0.24759755
-0.3443039
-0.32760847
0.27971876
-0.24245481
-0.40924814
-0.081915356
0.25208986
-0.05491667
0.15762801
0.12159458
-0.29440033
-0.21486406
0.2196149
-0.21904103
0.23726657
-0.21055058
-0.42802918
-0.5550676
0.034732424
-0.12364303
0.1798884
-0.14966977
0.16316728
0.2017721
-0.010326579
-0.07119027
-0.26900896
0.15937571
-0.15597163
-0.09233432
0.18156707
0.14755403
0.1450952
0.16329733
-0.2755239
-0.036156237
-0.33835027
0.24885762
-0.43274653
0.05133981
-0.43153685
-0.3859643
0.04853748
0.22784364
0.16156584
0.19715685
0.15285116
-0.30040872
-0.31210998
0.17918332
-0.12315335
0.25811645
-0.086564906
-0.060891606
0.22428738
-0.045180358
0.023900146
-0.27762306
0.2456318
0.2139691
0.27113542
-0.41088384
-0.30653808
-0.008688844
0.25295913
0.07698901
0.22993115
-0.17629668
-0.22200976
-0.35658616
-0.47034466
-0.18732238
-0.32333854
0.022698658
-0.3750076
-0.042623866
-0.28392
0.17491192
-0.04280791
0.13891838
-0.02256512
-0.053425886
-0.055351704
-0.2918393
0.21049425
0.020685522
-0.13583328
0.14263052
0.086880736
-0.2096825
0.1762179
-0.2724879
0.23694395
-0.1233934
0.22510698
-0.013064966
-0.22621027
0.11883583
0.107869476
-0.39511946
0.22788966
-0.07639645
0.19866034
-0.26163307
0.2240857
-0.37653223
0.20355852
0.22762379
-0.061014187
-0.04275266
0.26231498
-0.32222196
-0.31203127
0.15000446
0.18771072
0.21975634
-0.30495554
0.19148114
-0.2106545
0.092028104
-0.4877016
0.010512812
-0.20587938
0.11788717
-0.35538468
0.085297614
0.078863695
0.13319321
-0.36571458
-0.21700902
-0.004411585
-0.07789591
-0.23153189
0.15910263
0.07073029
-0.3422581
-0.06529067
0.16588703
-0.42309576
-0.07861136
-0.27549568
0.19333269
-0.20123915
0.23917055
-0.12450904
-0.14610864
-0.4441621
-0.092425495
-0.32399037
0.22954324
0.2392866
-0.06742902
0.21407165
0.051395256
0.2449308
-0.03235679
-0.4108945
-0.28979716
-0.10154482
-0.1639659
-0.14925516
0.1701084
-0.027737413
0.21996187
0.20857391
-0.26419792
-0.04471714
-0.26398447
0.13294007
0.032133866
-0.38390654
0.056529853
-0.22419062
0.09667931
-0.5012269
-0.28128532
0.105313815
-0.11740692
-0.4024556
-0.36231503
-0.19555233
0.10901562
0.105195805
-0.34833717
-0.3438238
-0.27180564
-0.29863745
-0.35240537
0.085035056
-0.17619383
-0.3895099
-0.024877587
-0.012072159
0.17822343
0.1793695
-0.4106159
0.20196998
-0.40410954
0.053466108
-0.479536
0.14994732
-0.11121317
-0.4384835
0.17521872
0.22416279
-0.0110537615
-0.17884405
-0.38348573
0.26804063
0.16085286
0.18576165
-0.2898649
-0.29749677
0.03769796
-0.32319632
-0.26425582
-0.27800196
0.2056259
0.25564995
-0.31595847
-0.4270719
-0.22862633
-0.12832652
0.15999088
-0.088239074
0.23982158
-0.22524141
-0.51458836
0.16632521
0.15315248
-0.20032707
0.18636507
-0.13939777
0.24643753
-0.17745286
0.15402223
-0.3482595
-0.20199433
0.23482376
-0.056589738
-0.21992226
-0.16893947
-0.2516484
-0.32444626
-0.1766058
0.14476223
-0.1903269
-0.037719507
-0.53598404
0.19101378
-0.38273683
-0.28010967
-0.33011973
-0.03642667
-0.5268659
0.17045227
-0.35222042
0.06592169
-0.35651118
-0.291533
0.11533684
0.16363889
0.1974747
0.10199285
-0.2794966
-0.24214245
0.18213315
-0.36188185
0.032595735
-0.15141249
-0.22866434
-0.036120772
-0.36811978
0.15707792
0.23774749
-0.03247044
-0.25920814
0.030435894
0.1953174
-0.2580001
0.24042194
0.20127776
-0.3084762
-0.272611
-0.23737213
0.19496186
0.22791041
-0.09805172
0.008033892
0.20162518
0.27537426
-0.17052358
-0.19528769
-0.14031984
0.0011747559
-0.24865703
0.088645
0.18742844
-0.33801073
-0.20590165
0.17973368
0.2505951
0.21253417
-0.2612651
-0.33944035
-0.11375959
0.23372553
-0.18214335
-0.0009449552
0.15765384
-0.24012263
0.20958157
-0.33579054
0.23229128
0.0657505
-0.3463577
0.20167887
-0.13695815
-0.26943055
-0.19087143
-0.37770292
0.2418349
-0.0484933
0.23680454
-0.12761503
0.1658957
0.24909796
-0.2039758
-0.48281986
0.013631301
-0.19720522
0.22173123
0.14218602
-0.2093402
-0.27550638
-0.4557769
-0.26424494
0.24260654
0.22135183
-0.19491686
0.14304014
-0.092792846
0.15163767
0.09703215
-0.40269718
0.13494937
0.09762771
0.040546488
-0.20966619
0.11169476
0.12811874
0.07439699
-0.36336106
0.10336757
-0.285443
-0.14671823
0.17048152
-0.25368318
0.16520192
0.18867576
-0.3049742
-0.059855822
-0.46312174
-0.09409825
0.10025865
-0.119077615
-0.36585805
-0.2411184
0.095543325
0.06322995
0.093809485
-0.42076913
-0.2642028
0.14972556
0.14809172
0.19214113
-0.1730989
-0.4892621
0.115012996
-0.020953614
-0.21897839
0.121571176
-0.24360092
-0.0011057901
-0.23998842
0.12330004
0.07460304
0.09486285
0.13513952
-0.33225647
0.07907668
-0.07098509
-0.5440465
-0.5463833
-0.50216913
-0.54863536
-0.064086735
0.0943618
-0.43682638
-0.23639922
0.07613093
0.10486289
0.13666381
-0.30074903
-0.43585357
-0.12865184
0.117694825
-0.19138467
-0.34573478
0.13536426
-0.18056418
0.1433629
0.0863369
-0.2704132
-0.30516285
0.24224564
-0.10790153
0.20080245
0.19844495
0.2295226
-0.08403339
0.25853524
0.08835608
-0.12843463
0.1982369
-0.30565387
-0.18416859
0.2718058
-0.3757819
-0.37392938
-0.036080074
0.06540833
-0.22487295
-0.26620704
0.22990598
0.07775771
-0.16679034
-0.042312354
0.03410633
-0.18035555
-0.2661412
-0.044246808
0.00083422946
-0.31627253
0.04015321
-0.03092612
0.28839245
0.29718596
-0.25512528
-0.17321979
-0.22759658
0.24097736
0.1722228
-0.009710295
-0.14453882
-0.38391834
-0.5568795
0.1717012
0.1450666
0.062945746
-0.35601786
0.14331187
0.19276431
-0.02938375
-0.1530261
-0.395117
0.17874792
0.16560425
-0.21341798
-0.09786769
0.019635333
-0.056307327
0.17398524
0.13239563
-0.025984388
-0.36032778
-0.17023711
-0.18742596
0.12700497
-0.21035394
0.20897284
0.21513346
0.21259883
-0.14280006
-0.0835846
0.24009731
0.22859411
0.20532185
-0.3251569
-0.28392324
-0.40314525
-0.23595066
-0.30352315
-0.2751323
-0.22816846
-0.1862042
0.19804053
-0.24791303
0.29623318
-0.10496083
0.29185873
-0.24828848
0.23837408
0.02167081
-0.08612248
-0.30331492
-0.17149039
0.27179268
-0.021645132
0.2668984
-0.41071162
0.14455867
-0.1107129
-0.43246073
0.14425057
0.106256194
-0.090320505
-0.14551714
-0.17058426
0.29375276
0.16784084
0.25181976
-0.1762003
-0.19107234
-0.10600102
0.04606882
0.016969243
-0.24804571
-0.27132282
-0.105494656
-0.3093886
-0.23431271
-0.08989311
0.28154907
-0.35193318
-0.133019
0.285646
-0.10474332
-0.2724308
0.064054936
0.06257997
-0.23307262
0.14058949
-0.232392
-0.44324294
-0.18496287
-0.15584566
0.21396072
0.044283435
-0.34462023
-0.07678905
-0.20993602
-0.16644554
-0.43693385
0.11249153
0.11201964
-0.4759877
-0.12721871
0.07100428
-0.011846671
0.12256736
-0.4270012
0.01768249
-0.1525862
0.090561725
0.104856476
0.10466142
0.06306742
0.14701031
-0.20611282
0.14748749
-0.3016045
0.11196712
-0.27191475
0.08645858
-0.36679205
-0.34642014
-0.30097333
0.08233564
-0.45812938
0.13513018
0.13879654
-0.25221556
0.10354348
-0.27717727
0.11544681
-0.49965596
-0.30283996
0.018174931
0.19994958
0.26836696
-0.17973672
0.22337922
0.2437694
-0.15163626
-0.13224943
0.23055948
0.19341354
0.26034367
0.23210119
-0.37746716
0.15564413
-0.13975555
-0.2690902
0.13458297
-0.09264993
-0.21875226
0.076205604
-0.28121948
-0.43489584
0.05877598
-0.2640918
-0.22379737
-0.28333604
-0.21149015
-0.051010687
0.031385288
-0.4569201
0.071318164
0.08361934
0.040521342
0.067595124
0.062022954
0.051531255
-0.19282384
0.20568882
0.17076008
0.21454471
-0.37797007
-0.20832688
0.16382179
0.05641768
-0.60929227
-0.29979795
-0.08216654
0.09404975
0.20168845
-0.40803713
-0.15803435
-0.26831663
0.14801207
0.19369516
0.22556539
-0.38560188
-0.4690644
-0.13543063
-0.22953902
-0.08567645
-0.15016533
-0.55925995
-0.17658181
0.17475735
-0.4768052
-0.21362548
0.18775134
-0.3520971
0.22043476
0.21221097
0.17144442
0.04811335
-0.22609767
0.18254802
-0.10714659
-0.027096242
0.28913555
0.12285754
-0.24993125
0.31340572
0.08201855
0.040078133
-0.17132069
-0.11108364
0.0143190045
0.2651228
-0.19930556
-0.08172694
-0.3674999
0.2046673
-0.22534834
0.05097776
0.30435842
-0.3570053
0.047417585
-0.27208155
-0.10235656
0.13396482
0.32452613
-0.2769002
-0.40182972
-0.3047281
-0.02324198
-0.33900532
0.2841492
-0.0061648916
0.2925363
0.02476446
-0.2762254
0.047533162
-0.26933616
-0.13972586
-0.29283264
0.19108146
-0.39602816
0.1967215
0.23127748
-0.42091075
0.2014632
0.216115
0.18961261
0.2218167
0.20154096
0.028006982
-0.089649074
0.18800355
0.15440394
-0.40947482
-0.2480893
-0.44026288
-0.43014902
0.025566861
-0.19907275
0.20656872
-0.25551355
-0.5294209
0.18031555
-0.31542873
-0.122541524
-0.066623375
-0.24596713
-0.066971295
0.1728337
0.15440808
0.19695961
0.20689535
0.20591183
0.18988037
0.18756586
0.17524031
-0.5084607
-0.36973247
0.06694756
0.1534191
0.18387103
-0.4139175
-0.09175688
-0.0034631162
0.13654132
-0.19164099
0.20211789
-0.10093195
0.033600926
0.19840638
-0.2579606
0.1552279
0.23948263
-0.5073756
-0.3828238
-0.004943412
-0.32960072
-0.23660661
0.07353144
-0.3399001
-0.24104308
-0.12830102
-0.2954069
0.18589991
-0.078005746
-0.24168245
-0.14220585
-0.12816481
0.18112475
-0.3044758
-0.20106103
0.31869018
-0.202473
0.27266175
0.20322876
-0.39545065
0.18587734
-0.44367152
-0.20582025
0.21513842
-0.060480762
-0.15523212
0.16821453
-0.10699222
-0.20679937
-0.058054317
-0.23138864
0.20177187
0.20473787
0.20232292
-0.22284597
0.19788009
-0.33571354
0.13701303
-0.08428402
-0.29759535
0.16930583
-0.20519881
0.13180958
0.18635531
-0.09195335
-0.23727004
-0.27007884
-0.02423191
-0.050767574
-0.07802546
-0.53931254
-0.032641016
-0.33986497
-0.39779344
0.1450692
0.18870132
-0.2106014
-0.39598268
0.27847677
-0.09915109
-0.26701337
-0.102822
-0.44703755
0.06006225
0.26868233
-0.05021582
0.24932244
0.31007192
-0.077354334
-0.33779314
0.0057513053
0.24453534
0.18055458
0.033945467
-0.18966012
-0.13790245
-0.081940934
0.06595913
-0.3744727
0.07483813
-0.45940268
-0.17448862
0.18660481
-0.38322556
0.2027289
0.15624705
-0.3761811
-0.09410295
-0.23092198
-0.37078822
-0.44129613
0.18294337
-0.13418046
0.18298317
-0.14323585
-0.33148915
0.17260377
0.08049152
-0.2936132
-0.034673646
0.05749833
-0.118301556
0.23913637
-0.31385162
-0.23842825
0.008900121
0.14440182
-0.056805678
0.30782863
0.26605657
-0.09727489
-0.065932184
0.23898424
-0.44241956
-0.027843101
-0.08358898
0.0918965
0.1725217
-0.15340635
-0.35858378
0.19234551
0.17500961
0.19846155
0.01240424
0.084235206
0.17725234
-0.17868058
-0.31104827
0.083812445
0.12366987
-0.44609347
-0.34727156
-0.12337371
-0.3431819
0.32936132
0.20995966
0.018396353
-0.30470455
-0.14157479
-0.1623044
-0.04054818
0.0033494064
0.09812176
-0.29281256
-0.1657084
-0.16130139
-0.39988393
-0.06592579
0.32876644
-0.2691272
-0.15986729
0.128988
-0.2989105
0.23277894
-0.2190727
-0.08263747
-0.31240255
0.14846838
0.2264898
-0.21697874
0.2459814
-0.27981052
-0.20925441
-0.1261744
-0.053808752
-0.29654092
-0.26412416
0.21616144
0.19367918
0.11871383
0.0929711
-0.24996303
-0.3263867
-0.45256546
-0.23165105
0.14196938
0.16259803
-0.22394401
-0.10591615
-0.31065106
0.14615573
0.027341036
0.20610084
-0.4278427
0.040266227
0.20627852
-0.13434316
-0.31704938
-0.12801255
0.1912095
0.2532193
-0.288262
0.27198097
-0.21332572
0.2093079
-0.103818305
0.24474576
0.10586072
-0.086890735
-0.5398556
-0.12292783
0.17357099
-0.18646376
-0.4384959
0.24311154
-0.0132834995
0.18542017
0.11377828
0.17753215
-0.3368537
0.14286631
-0.46848723
-0.23225977
-0.01572278
-0.32778463
-0.12447877
0.23447973
0.2761262
-0.13207956
-0.33246186
0.13607429
0.07993727
-0.18453656
-0.31837544
-0.34230015
0.13650885
-0.13440596
0.109363995
0.16342945
-0.15151338
0.15180716
0.051080488
-0.15769415
-0.19442149
0.13165456
0.1265711
0.131104
0.1138684
0.017562727
-0.3226162
-0.19238266
-0.2694998
-0.22428189
-0.404918
-0.4017193
-0.23295873
0.20505266
0.18581186
-0.22543554
0.18618058
0.15337478
-0.16730066
-0.35392693
0.23706377
0.21075444
0.23216723
-0.37163356
-0.2331473
-0.35679063
-0.20129879
0.1383135
0.0043468513
0.118315116
-0.08374919
0.21467136
0.23992538
0.29651287
0.3114216
-0.06262836
-0.09243291
0.1995523
0.044521894
-0.082021296
0.020019792
-0.31618747
0.30078733
-0.2978665
0.3206746
0.01960531
-0.22225231
-0.060484808
-0.12922221
-0.32179648
-0.20012698
-0.10211111
0.021074947
0.08188864
0.002531698
-0.03112247
0.018095832
0.03640549
0.099836126
-0.1914596
0.07737053
-0.1386952
-0.013529319
-0.046081696
7.4823206e-06
0.2345334
-0.032443132
-0.130199
-0.021357695
0.01551443
