0.082804374
0.054145344
-0.37612677
-0.13869494
0.13503873
-0.047903333
0.16099128
0.12548679
0.067402825
0.1293272
0.10407504
-0.32058793
-0.23096009
-0.3709437
0.038002495
-0.1898229
-0.44582963
-0.23596965
-0.11990496
-0.15123671
-0.12559119
-0.15854551
0.12778138
0.28584856
-0.4131972
0.1808363
-0.05190738
-0.20323846
0.04061085
0.22994521
-0.16423202
0.24592441
-0.42830908
0.052666254
-0.25737485
-0.3967484
-0.10342432
-0.31738174
-0.22481583
-0.25858197
-0.20424742
-0.159644
0.13145325
-0.42627326
0.19000009
0.11678587
-0.0776594
-0.05517137
0.18272924
0.10604496
-0.09060879
0.14490665
0.16054133
-0.3142976
0.12920068
0.14473028
-0.03500362
0.2065319
0.25944734
-0.28857338
-0.20041287
-0.17430831
0.11031925
-0.35371518
0.014090602
0.28809595
0.32620442
0.09679211
-0.27475652
-0.23508126
-0.08241341
0.11408636
0.18277256
0.04075559
0.0445571
-0.2623447
0.097826086
0.13810275
-0.1366484
0.061026122
-0.42527258
-0.1706693
-0.45990694
-0.16722627
0.19322991
-0.19734205
-0.34700596
0.112406336
0.006495436
-0.19958113
0.2064862
-0.24974546
-0.4702557
-0.10942128
0.16701183
0.1657097
0.14127854
0.18560414
-0.16413014
-0.19306318
0.13844146
-0.21980204
-0.1831688
0.1686761
-0.30409625
0.18417266
-0.20086539
0.1625049
0.17349853
0.11381112
0.17463791
-0.46968347
-0.29301336
-0.2950984
0.18095629
-0.40012944
-0.16839264
-0.21582185
-0.19369124
-0.15009502
-0.07575765
0.16531254
0.261324
0.23456958
-0.2370955
0.1560119
-0.31737527
-0.14938207
0.09840995
-0.29577935
0.25971854
0.2588918
-0.10877783
0.12203576
-0.12171175
-0.23320217
-0.25153735
-0.18805958
-0.20066094
0.19738309
-0.035576206
-0.1910851
0.08202616
0.16618992
-0.017610164
0.120942295
-0.4971039
-0.19526331
0.12937619
-0.01632262
0.14209147
-0.12714511
0.22754368
-0.031846922
0.3319515
-0.14560962
-0.091857865
0.2851477
0.24335594
-0.13246618
0.23097621
-0.16415994
-0.152906
0.16131622
0.31963024
-0.0624596
-0.11231238
-0.25615272
-0.37068427
-0.20385227
0.16421051
0.120256595
-0.42272186
0.045403957
-0.08686408
-0.301021
0.0020209283
-0.2914414
-0.19845748
0.18407242
-0.12644675
-0.02802711
-0.18975085
-0.4230332
0.1815046
0.14964744
0.09842614
0.1715304
-0.29598418
0.08586659
-0.25424242
0.1138283
0.12858261
-0.29472944
-0.053791333
-0.22761369
-0.32570487
0.2350468
-0.22856161
0.26927534
0.06875243
0.24366844
-0.018801052
-0.15229048
0.016856445
0.092100635
-0.01416021
-0.22000088
0.18956038
-0.16896366
-0.26777965
-0.068352744
0.05906928
-0.15628517
0.092632495
-0.15543002
0.20136246
-0.11373493
0.14132248
-0.51103544
-0.08023655
-0.3743572
-0.42106143
0.11690975
0.2263978
0.21809144
0.26814768
0.22673212
0.058039494
0.07318339
-0.024625655
-0.3060076
-0.2929292
-0.2617978
0.030480867
-0.28480136
-0.13858503
-0.081097424
-0.32694712
0.1980169
0.0025610386
-0.30452695
0.32483166
0.1274836
-0.16204426
-0.24300368
-0.18828362
0.13653286
0.25259662
-0.21525483
0.24442613
-0.33128268
0.13897106
0.20401797
-0.0050611733
-0.076375
0.23511939
-0.16240703
-0.13321063
-0.24860868
0.122495644
-0.08140521
-0.38577294
-0.034139637
-0.27135822
0.11634171
0.0829517
0.22395004
-0.2388357
-0.30669102
-0.3090586
0.23651114
-0.07240848
-0.17150186
-0.1322239
-0.092518784
-0.0706248
0.24519828
0.23854566
-0.11726638
-0.08915364
0.16564365
-0.19843307
0.25478822
-0.035732158
0.2696999
0.3264943
-0.15126225
0.3311261
-0.19303857
0.21419583
0.30206862
-0.072022505
-0.059882548
-0.17580216
-0.2722155
-0.1754824
-0.1160256
-0.15184657
-0.12177846
-0.017929394
-0.048454687
0.14725001
0.0008886824
-0.0065500014
-0.18803056
0.16913204
-0.19191237
-0.0025659495
-0.24339208
-0.22289631
0.22306055
-0.19213499
0.2092246
-0.08706093
-0.16389479
0.10532605
-0.4368936
-0.42717126
-0.41560614
0.18370938
-0.008247774
0.114286005
0.15886347
-0.24293196
0.020589542
-0.22621119
0.20497175
0.035861205
0.17624837
0.04164513
-0.2705628
0.22676706
-0.19801287
-0.083451785
0.03302963
0.26100454
0.04929272
-0.3695973
-0.4442995
0.041597016
-0.08219684
-0.122576825
-0.2315913
0.24153543
-0.24330889
-0.3295111
0.14235847
-0.2780438
-0.36658433
-0.2064964
-0.23861186
-0.07391166
0.102082804
0.139916
0.23951492
0.22922659
0.06338298
-0.21058333
0.2407939
0.13311864
-0.2747216
0.2092508
-0.27969956
-0.26242003
0.1074196
-0.05218546
0.20829196
0.113584764
-0.34612465
0.25753018
-0.14817254
-0.00017656038
0.2889257
-0.169109
-0.24756554
-0.1800244
-0.12726282
-0.20605214
-0.065801814
0.18103123
-0.13761029
-0.14118378
0.2102152
-0.38149017
-0.17211036
-0.1348483
-0.022433035
0.13768439
-0.3147133
0.2091303
0.17281115
0.28390718
-0.14378384
-0.21562345
-0.03905108
-0.34149644
-0.17339522
0.12044041
0.07697385
0.016043354
-0.17064081
0.12703751
0.17253523
0.13502565
0.20705648
-0.20935889
0.003637408
-0.30976003
-0.3331442
0.059986062
0.20043424
-0.2184949
-0.077884935
0.0698374
-0.21402445
-0.21382491
-0.27481386
0.122829534
-0.058446385
-0.06495764
-0.16953643
0.20112751
-0.31986982
-0.023576805
0.17638183
0.21169986
-0.046285287
0.23363225
-0.33308756
-0.34293616
0.33672908
-0.2482935
0.35322934
-0.0751508
-0.06546971
-0.2671983
-0.27453664
-0.050655548
0.06930844
0.26198554
0.18258768
-0.19534571
-0.24227619
0.26839077
-0.027676014
0.015418939
0.16314477
0.087283194
-0.29679748
0.2611801
0.19983977
-0.18703927
-0.12159073
-0.27594092
-0.20777693
-0.14869177
0.17023638
0.19324547
-0.10443728
-0.1610736
-0.08185647
-0.38945785
-0.12418194
-0.058802046
-0.025407309
0.16330983
0.18486108
-0.2757616
-0.2511866
0.04838389
0.21680164
0.037790887
-0.28789178
-0.33122352
-0.12036509
-0.33753076
0.25631875
-0.20836394
-0.12885357
0.19879182
0.06743685
-0.271894
-0.20607266
-0.34081137
-0.088256955
0.19641429
-0.0480414
0.17252001
0.23683849
0.23116171
0.24006958
0.2203149
-0.061811794
0.08353089
0.29688346
-0.20617379
-0.019149628
-0.26520866
0.21296889
-0.3502637
0.25127935
-0.2861719
0.26515397
-0.25041372
0.07272785
-0.15544946
0.03537748
-0.24848609
-0.12544616
0.03200963
-0.07720709
0.25726876
-0.1849507
0.22769552
-0.14422758
-0.039176267
0.090518914
0.1644805
0.02877022
0.06667928
0.18325861
0.12373951
-0.1269303
0.22266753
-0.37368587
0.23739034
0.21834445
-0.5043722
-0.30826935
0.06258022
0.05749425
0.19004168
-0.12972923
0.10997293
-0.0113881705
-0.1529087
-0.22841863
0.14906119
0.22888821
-0.1144709
-0.018725656
-0.31514475
-0.28569877
0.031762023
-0.3863747
-0.14356993
-0.25864717
0.15041226
0.23862973
0.15508501
-0.29348025
-0.46043006
0.15693462
-0.33260685
0.076144345
-0.30509716
0.088914305
-0.20377374
0.16173893
-0.24568824
0.13243228
-0.017695528
0.16019668
0.115717694
0.030800883
0.12960374
-0.18694
0.14023218
-0.20184427
0.24350962
-0.24189897
0.2345575
0.004872537
-0.24560803
0.2550244
-0.12776028
-0.19766147
-0.1835904
-0.36365446
-0.11203985
-0.0067860615
0.17698246
-0.2382656
-0.143874
0.20267467
-0.30448437
-0.15608887
0.24465826
-0.17974365
-0.12932251
0.11626322
-0.085387245
0.23960191
-0.10749722
-0.088092454
-0.19248536
0.2930765
0.2448092
0.12167116
0.19213605
-0.12894371
0.10268643
0.259383
-0.18020271
0.27184927
-0.053136744
-0.29983553
0.2612158
0.22183785
0.16831647
-0.32053736
-0.30385464
0.20798837
-0.45939547
0.041306783
0.2664034
0.10323324
0.2103286
-0.23330645
0.15867566
0.122605935
-0.27203625
0.16545103
-0.06404851
-0.10692466
-0.35457674
-0.05768895
-0.14348376
-0.11519578
0.2454593
-0.30595803
-0.099334225
-0.026919963
-0.09617048
-0.16916928
-0.37145665
-0.055018723
-0.15649965
-0.27275562
0.24652924
0.29457274
0.16601282
0.27784148
0.043358102
0.3087867
0.11939823
0.124250695
-0.16513166
-0.07264966
0.24532521
0.29979047
-0.018058313
-0.18641028
0.2697903
0.3214289
-0.11914811
0.27870545
-0.22308114
0.03767269
-0.13094011
-0.34021005
-0.27039102
-0.08362235
-0.2567579
-0.039402742
0.011250221
-0.31628865
0.16201712
-0.1529356
0.17686069
0.08062755
0.001194942
-0.28530693
-0.23870803
-0.2536132
0.08337197
-0.39665654
0.21414009
0.19594055
0.15922855
0.13819662
0.11503325
-0.19420525
-0.37467152
0.19054933
0.17049009
0.18216424
-0.018878656
-0.05974155
0.19048117
-0.10394506
-0.2763853
-0.03121349
0.1906509
0.1466868
0.16917902
-0.3009627
-0.35428366
-0.05772195
0.06631541
0.20866862
0.18260406
-0.10236289
-0.37536594
0.15650348
-0.27816114
-0.27408093
-0.30394676
-0.17522699
0.17029347
-0.08179915
0.14132765
-0.31820062
0.18250652
-0.3275491
-0.43449017
-0.15961006
-0.40925103
0.25795844
-0.017108984
0.1670872
-0.22345337
-0.17176408
0.2885798
-0.1802286
-0.0024159516
0.20590319
-0.34504348
-0.17243141
-0.031393338
0.009911127
-0.18014282
-0.042974826
0.12230373
0.2832894
0.23230025
0.22581722
0.2236042
0.22630991
-0.21475606
0.22335567
-0.13311969
-0.14591408
-0.25279453
0.056266043
0.07977924
0.25526652
-0.26422766
0.17465365
-0.002350726
0.29190692
-0.12944396
-0.06571103
-0.37171417
0.026451612
0.23004466
-0.30987525
-0.2701393
-0.098272145
-0.32066774
-0.16710383
-0.32421133
0.24412584
0.23524109
-0.068757415
-0.16521153
0.24701604
-0.20771194
-0.21726038
-0.3089362
0.19438386
-0.3063872
-0.09939911
-0.3321712
0.069136865
-0.22813079
-0.042717163
-0.12873113
0.13879406
0.14546575
-0.30986947
0.17677748
0.20985992
-0.010162197
0.1287731
-0.12521437
-0.29386115
-0.030828975
-0.32153773
-0.033810608
0.15558094
-0.18122934
-0.16814469
-0.010214982
-0.5014696
-0.27446613
-0.2996646
0.27360395
-0.21048029
-0.21111588
-0.108830996
0.06864395
0.30745974
-0.28980047
-0.1359762
0.03356034
-0.048346017
-0.32039934
-0.03551115
-0.105308704
-0.07853617
0.29924035
0.23224501
-0.098750696
0.07665152
0.28559023
-0.12964924
-0.24387504
0.28096226
-0.1544262
0.24665146
-0.19152021
-0.11253478
0.029966189
-0.110835366
0.25559974
0.087174155
0.24664217
-0.1619247
0.031360403
-0.27289987
-0.38299635
0.1314722
-0.27972746
0.17365387
0.061939746
-0.1092641
-0.090637945
0.27763972
0.0992681
-0.22452912
-0.095249
0.2862623
0.23805575
0.031380575
-0.0964703
0.21550389
0.11629665
-0.13759568
-0.23646401
-0.2638429
-0.24911739
0.26635242
0.09615734
-0.31180617
0.21652535
-0.17295521
0.07107734
-0.034065586
0.25192606
0.0044753165
-0.2981212
0.15388493
0.02657818
-0.011955656
0.13922697
-0.2314352
-0.4254182
-0.10500312
-0.10885045
-0.25996897
0.26717925
0.27520815
-0.27757812
-0.14833246
-0.25067034
-0.105893835
0.19714859
0.11711144
0.16595833
-0.2539474
-0.056455474
-0.15622874
0.20098661
0.047572024
-0.2592332
0.0012852685
0.001179914
-0.41895613
0.24461468
-0.14353994
0.23521596
0.29870003
-0.3342487
-0.048687726
0.10318564
-0.019421937
-0.050814122
-0.2710586
-0.27973223
-0.17127828
-0.00656017
-0.2049939
0.033895954
0.31057233
0.2817515
0.13370901
0.15062515
0.022914743
-0.2165387
0.27014402
0.16816927
-0.32280612
-0.2878288
-0.046302494
-0.33928657
0.14319012
-0.2458027
-0.10131474
0.20097439
-0.049806986
0.16482002
-0.21490042
0.031357616
-0.21151327
0.19279417
0.23279664
-0.40285498
-0.024770245
0.13813296
0.03249444
0.13790312
0.25788426
0.20503204
-0.10839801
0.11654327
-0.1559913
-0.19100338
-0.27124134
-0.25215766
-0.09699591
0.20751849
0.18634836
-0.10449006
-0.31189707
-0.26789877
0.24069299
0.1966891
-0.015605832
-0.051614415
0.26620528
-0.37407544
0.25610498
-0.1466412
0.19357054
-0.2182766
0.24646272
-0.25244108
-0.06676628
-0.08490413
0.28645343
-0.34507772
0.23571661
-0.04558676
-0.34522715
0.025741586
0.16373105
-0.22460511
0.22709197
-0.19322002
0.043878004
-0.23574582
0.23258252
-0.29190686
-0.20213452
-0.18375409
0.18891914
-0.23179927
0.2701022
-0.16248463
-0.2498367
-0.09702482
-0.0017798792
-0.28542382
-0.09199788
-0.19212502
-0.09018508
-0.25941488
0.15776664
0.2239882
-0.12516615
0.10697294
-0.05911645
0.23948437
0.042339817
-0.23268063
0.11816819
0.056763504
0.05662056
0.11610278
-0.4481704
-0.17270593
0.24403137
0.26342052
-0.15208527
0.19737142
-0.26452598
0.1755782
-0.104266785
0.24297383
0.21334893
-0.015571361
0.17332053
0.24803202
-0.3777784
-0.1330905
0.22544408
-0.048387416
-0.18880709
0.11409572
-0.2989129
-0.2300811
0.23900859
-0.33756602
-0.18058795
-0.14014582
0.14099528
-0.2746848
0.19755018
-0.2183144
-0.32047138
0.23287944
-0.14822572
0.11268924
0.102819905
0.26501745
-0.2922114
0.102205485
-0.051887833
0.10110026
-0.17765693
0.11861582
-0.36366662
0.026536142
-0.27728245
-0.033937074
-0.13649759
0.23911786
0.2612533
-0.21793163
-0.25237623
0.15827028
0.23064111
-0.08498663
-0.1817344
-0.24905117
0.1854393
-0.073529154
-0.31386647
0.049985055
-0.17948185
-0.29820824
-0.2834759
0.18525408
0.15054981
0.10900426
0.17328776
-0.101819076
0.21321101
0.04134574
-0.27606842
-0.14997241
-0.36574742
-0.36561376
-0.08046986
-0.070375994
-0.118039064
-0.1805852
0.24120481
-0.0302087
-0.089928
0.08032159
-0.10079791
-0.0017748127
0.08261897
0.055959888
0.0037818071
-0.05797501
0.049285334
0.118336044
-0.023334885
0.05127548
0.0026248337
-0.13628691
0.060030267
-0.05559372
0.16250847
-0.14407241
-0.098044895
0.08129996
-0.09111018
