-0.08520739
-0.41004565
0.22805546
0.25565737
0.25378335
-0.10090151
0.18501857
0.15980378
-0.083132096
-0.042468674
-0.35178044
-0.2896248
-0.29311824
-0.17837873
-0.26542047
0.25542718
0.17099722
0.30569175
-0.028725028
0.053553335
0.09641027
0.055299725
-0.07527673
0.1780673
0.13313685
0.18679434
-0.40824395
-0.08815897
-0.29179418
0.17262727
-0.19240953
0.17284746
0.17871465
0.121207476
0.037248015
-0.31202894
-0.4244558
-0.40964833
0.28815743
-0.2955965
-0.096313894
-0.1584156
-0.4411965
0.14349176
0.24682848
0.097557336
-0.31861004
-0.2785673
0.034137517
0.013034416
0.29149395
-0.21911891
-0.08683114
-0.21439101
-0.24893472
0.10481795
-0.11799112
0.19634303
0.27355602
-0.010552776
0.27994347
-0.30521494
-0.13983303
-0.42296898
-0.21110459
0.2578817
-0.30535084
0.08841119
0.15597017
0.11005284
-0.4060644
-0.20954062
-0.087040104
-0.1688264
0.0737839
0.12332637
0.13481194
0.18828557
-0.3787364
0.17603643
-0.1445906
0.17484902
0.122236304
-0.24461362
-0.38245562
-0.16034564
-0.52248514
0.13158682
-0.20671666
0.12018044
0.006053062
-0.30262595
-0.4247961
0.11226945
-0.20722225
-0.007970846
0.20356676
-0.256846
0.13029821
-0.13902654
0.14969148
-0.5369917
0.22252609
-0.31938973
0.22919579
-0.3434572
0.044836488
-0.34611166
-0.20005964
-0.13722244
0.04468956
-0.30867937
-0.18963946
0.12887864
-0.32053497
-0.22221206
-0.24445763
0.15644898
0.19680494
-0.46623677
0.19723904
0.21180241
-0.2089654
0.014343117
-0.32084924
0.13520326
-0.002366919
-0.20388907
-0.37334755
-0.11193368
-0.30863008
0.16527121
-0.20860626
0.0489687
-0.22015695
0.052288134
-0.26080573
-0.16292481
0.09543407
-0.32741025
-0.4836861
-0.029258028
-0.3028987
0.12990493
-0.3352538
-0.4687965
-0.32465178
0.17171006
0.22762726
0.15702294
0.069453664
-0.1265719
-0.23356222
-0.24445471
0.29188246
-0.20141855
-0.34200016
0.39735514
0.1175855
-0.09840722
-0.005086968
-0.11858248
-0.30709955
0.08821828
0.010422288
-0.31312937
-0.20182501
-0.2123623
-0.26876494
-0.007815062
0.3364115
0.18364966
0.11917877
-0.4212607
-0.13599698
0.2227213
-0.04076999
0.1802118
-0.29946554
0.22703873
-0.01916724
0.2022562
-0.30557793
-0.09256354
-0.33693007
-0.09647489
-0.15870123
-0.3052502
-0.60444945
-0.02765342
-0.32640803
-0.31626874
-0.25544956
-0.19970304
-0.07772646
-0.35960025
0.1317348
0.2533785
-0.1879415
0.23975718
0.21226513
0.17203094
0.03924609
0.11538116
-0.0854726
0.18180522
0.17233403
0.1237091
-0.3623195
0.18855113
0.01248299
-0.32377484
0.20646265
-0.3344965
-0.16632485
-0.27886808
0.17084731
0.23496152
0.1020923
-0.44388163
-0.07355643
-0.06251218
-0.3473104
-0.18685557
0.2254485
-0.15102169
-0.2581653
0.16585435
-0.21812892
-0.362257
-0.32265902
-0.27161902
0.3179917
0.10230181
-0.21173182
-0.08499256
0.14245436
-0.027755799
-0.21132484
-0.31841147
-0.444963
0.16685465
-0.39788854
0.082932
-0.23026897
0.11335478
0.108066656
-0.26489288
-0.18734074
0.1429563
-0.13831519
-0.37700328
-0.25345466
-0.2571
0.033047706
-0.36459064
-0.20257969
-0.12026442
0.08885946
-0.06517986
0.17621598
0.15562907
-0.191279
0.16047835
0.19294792
0.10512187
-0.40546846
-0.29858482
-0.20655939
0.1655463
-0.23322259
0.10109338
0.16036451
0.005929879
-0.33084214
-0.352614
0.1940781
-0.15511793
0.23086172
-0.11994484
-0.23823188
0.089772984
0.23754418
-0.10580797
0.21888308
-0.09612472
-0.102737315
0.094346404
0.16816649
-0.3274344
-0.10818909
-0.35427707
-0.27929324
-0.18675274
-0.022189047
0.040977497
0.33087376
-0.15518163
-0.3076817
0.27663755
-0.0028414014
0.2519341
-0.23658046
-0.060997646
0.18470906
-0.46232998
0.23204176
-0.3093824
-0.23566224
0.09100973
-0.25920564
-0.22188051
-0.2987764
-0.101926066
-0.08320164
-0.42614695
0.20893566
0.21137649
0.14735493
0.19108965
0.09810842
0.05407618
0.15529978
-0.08318269
0.093934625
-0.476169
0.22147839
0.21091348
0.1848104
-0.48279712
0.12843442
0.24839418
-0.05853397
-0.22588076
0.2024401
-0.43285018
0.23932365
0.21169397
-0.17242831
-0.30327857
-0.23092008
-0.34085894
-0.34055412
-0.18350126
0.2180026
0.20538813
0.22541648
-0.25363922
-0.20249352
0.19964369
0.085565925
-0.28414354
0.016273113
0.11176984
0.23153284
-0.4117437
-0.38420326
-0.18772876
0.14237343
-0.29923385
0.19020784
-0.22277123
0.021452645
-0.25845882
0.124901555
0.17968172
-0.14549622
0.15150966
0.18215086
-0.31944135
0.17570087
-0.12055423
0.12234813
0.18146706
-0.3446031
-0.48919937
-0.27633718
0.14868811
-0.08030584
0.122297324
0.18996172
0.0060118292
-0.05037801
0.093553096
-0.25783923
0.20074213
-0.23483428
0.18931706
-0.1824159
0.019758448
-0.3570182
-0.10529132
-0.29650933
0.22031759
0.19144097
-0.282633
0.08916132
-0.21343832
0.14471638
0.0154585745
-0.25887612
0.1654564
-0.48826095
-0.4740867
0.18802814
-0.42956707
-0.3201579
0.22888263
-0.24876396
-0.2835741
0.20205708
0.0559854
0.12166362
0.24658677
0.015996592
-0.24308702
0.20225805
0.15518266
-0.045961373
-0.22689435
0.21179113
0.19267897
0.0780127
-0.28848666
-0.25950426
0.009878749
0.11483036
-0.26012734
-0.23260309
-0.2842975
-0.2676307
0.16305867
-0.03194709
-0.10900154
0.11683419
-0.115375645
0.2377255
0.28892508
0.05497352
-0.07987945
0.16776869
-0.2790521
-0.021143505
-0.114769086
-0.34594867
0.29633448
-0.27001992
0.3057089
0.1242681
0.28768003
0.12633713
-0.19486919
0.30001915
-0.31683022
-0.127789
-0.013194974
-0.050461166
-0.09103183
0.21620525
-0.36018524
0.13191777
-0.45459992
-0.3277687
0.2594752
0.19255973
0.2613264
-0.24451664
-0.061051015
-0.21030071
0.097590886
-0.12606807
-0.32037318
0.2272256
0.23177798
0.127227
-0.39154944
0.16852516
0.26060566
-0.24829133
0.026021617
0.07697715
-0.10104396
-0.36077857
-0.22792353
-0.31224358
0.22843805
0.06318071
-0.3903237
-0.26224953
-0.080209136
-0.17034376
0.2582585
-0.25270343
0.10710521
0.13123807
0.06958593
0.16574232
0.07955169
-0.4492526
0.008306844
-0.39316672
-0.14867808
-0.29971683
-0.48562542
-0.2026662
-0.19177033
0.20954524
-0.21996216
0.16349508
0.24284263
0.22878727
0.14480464
-0.07240444
0.32474554
0.3310794
-0.39155257
-0.14305454
0.00984057
0.34668076
-0.33875507
-0.112117976
0.07594137
0.30121377
-0.034025267
-0.24521334
0.024713995
-0.075559795
-0.05320647
-0.29468265
0.16191024
0.14446868
0.31315055
-0.21300803
-0.0009059528
0.2562934
-0.1703139
-0.4048126
-0.29912278
0.023333127
-0.34919834
0.09808356
-0.34904048
0.20044866
-0.025716666
0.29806906
0.24769056
0.21398503
0.2677739
-0.26228723
-0.17621441
0.050745506
0.19615015
-0.13061489
-0.22080548
-0.22289012
-0.14760213
0.19427258
-0.47009683
-0.2708927
0.23225594
-0.28346333
-0.31205314
-0.30852684
-0.2325598
0.20665632
0.003906389
0.21404696
-0.40092313
-0.041991696
-0.43770528
-0.13189161
-0.3356469
-0.29022136
-0.02904796
-0.4286515
-0.23441151
0.19920851
-0.16076858
0.21854849
-0.13657896
0.13018315
0.03666589
-0.20903406
-0.44437647
0.1744449
0.23001336
0.23350225
0.23078674
0.22606832
-0.12097101
0.08776353
0.2382056
-0.23495142
-0.03224685
-0.31826946
-0.2452056
-0.045879364
0.13143022
-0.08345628
0.060630318
0.20031215
-0.35352004
0.3167094
-0.2739731
-0.09362708
0.26361552
-0.08703612
-0.19929367
-0.24564901
-0.08182698
-0.43661717
-0.15751034
-0.039233875
0.31451407
-0.25892574
-0.04008234
0.043490794
0.024130998
-0.05989156
0.33392859
0.08864364
-0.1744937
0.21254727
-0.13274361
0.009985289
0.07803319
0.32509497
-0.21420051
-0.17931646
0.107544556
-0.38377774
0.13046703
-0.30790588
-0.33016756
-0.30129632
0.19447225
0.04800975
0.17316963
-0.17730354
-0.28760865
0.19520006
0.15192628
0.14054064
-0.25244454
-0.26044226
-0.11236646
-0.0018306532
0.27459243
0.22194079
-0.32056883
-0.13585319
0.0010100353
0.1774132
0.15706687
0.010544795
0.3292761
0.26822528
-0.13179937
0.2993141
-0.14892483
-0.3147267
-0.23539922
-0.06264224
0.113766395
-0.061846733
0.024950553
0.08862827
-0.3752475
-0.27499026
-0.2422054
0.02944774
0.08448965
-0.5415179
-0.37543488
-0.0047134836
0.074842
-0.03605638
-0.13090453
-0.44720727
-0.12946041
-0.3718513
-0.3537543
-0.063042
-0.25473216
0.173344
0.20371705
-0.15014587
0.17643586
0.20194542
0.13297531
0.19118562
-0.11406615
0.04492095
-0.34893247
0.19923595
-0.028690882
0.16520117
-0.47674078
-0.29097408
0.19553974
-0.4805311
-0.3213597
-0.01549484
-0.47883448
-0.14824611
0.0036428063
-0.24479313
0.074701265
0.046471566
-0.44690177
-0.2664624
0.200883
-0.23794527
0.13520458
0.296531
0.10257748
0.094039604
-0.24045122
-0.27375913
0.29253078
-0.0033714366
-0.11640018
0.21239981
-0.20372124
-0.34631693
-0.18968971
0.09734272
-0.34269965
-0.29158276
0.22165424
-0.007896796
0.30063376
-0.22468458
-0.037537873
-0.39330116
-0.18331428
0.13007838
0.012053231
-0.27447402
-0.17925994
0.14526567
0.15807529
-0.3808661
-0.18572134
-0.23360196
0.104258806
-0.3594286
0.1969636
0.19966972
0.1847388
0.11157819
0.19319272
-0.09604262
0.19128764
0.15766737
0.12995858
-0.25733602
-0.32732454
0.17727539
-0.11159947
0.088745154
-0.3124322
0.10402298
-0.4868909
0.023672687
0.04555276
-0.025748037
-0.17354497
0.0044587483
0.14938405
-0.16144578
0.10858198
0.1506512
-0.45046327
-0.2193198
-0.39022332
-0.33487904
0.10785098
-0.055842355
-0.3872412
0.22321017
-0.17509748
0.102481216
-0.019512096
0.15184996
0.21739307
-0.2794618
-0.038016357
0.12879978
-0.39438632
0.2272024
-0.21889618
-0.43487734
-0.18608984
-0.39445198
0.106133424
0.23699544
0.19503622
-0.20939562
-0.13332716
0.29802597
-0.28156066
-0.4359242
0.28756604
-0.27541545
-0.34165987
-0.24000408
-0.4145589
-0.1469615
0.28100485
-0.0103901075
-0.36318034
-0.25083476
0.09201979
-0.14266211
0.3221149
0.035692498
-0.44692704
0.13763905
-0.21763547
-0.058296863
-0.4446547
0.09666467
-0.22625084
-0.35708565
-0.1268674
-0.06629986
-0.23697507
0.18420488
0.13616315
0.19466895
0.08285174
0.2077385
-0.30048504
-0.27377212
-0.28106177
-0.22947931
0.29448804
0.06682622
0.29604232
0.03929477
-0.12371532
0.039268687
0.2288088
-0.37171167
-0.28821075
-0.33007118
0.050476097
-0.24873896
0.10254748
-0.23379253
-0.39443636
-0.17928953
-0.20069887
0.22235322
0.014594742
0.13252228
-0.2849032
-0.3135306
-0.20085123
-0.05936052
-0.008172683
-0.108641535
0.27753827
0.28826725
-0.3711729
0.26203626
-0.37560683
0.23809467
0.21401484
-0.16585407
-0.19803919
0.04828611
-0.26756302
-0.018904166
0.19152778
0.027048407
-0.3864226
-0.40690613
-0.035015468
-0.4385255
-0.4130784
-0.06101683
-0.038636077
-0.18777825
0.011375602
-0.19104029
0.1580089
-0.20557043
-0.41401234
0.26716954
-0.22493346
0.26054382
0.18809186
-0.18489797
0.15490052
-0.18540353
-0.23286247
0.155493
0.06507999
-0.3849777
-0.22665004
-0.38262844
-0.16481748
-0.18006526
-0.24049692
-0.11910763
0.15938562
0.20772028
-0.10218449
-0.09536683
0.18441175
-0.010930357
0.124955826
0.16910908
0.23201102
0.01806918
0.17466749
0.22753124
-0.5121521
0.032431584
-0.4023011
-0.3027963
0.051286597
0.247866
-0.30630603
-0.1319044
0.21598849
-0.3633485
0.2182134
0.16965911
-0.07741358
-0.029183205
0.18304065
0.04806952
0.17988965
0.22475415
-0.17928909
0.06869837
0.18550508
-0.16945474
-0.35060886
0.04701153
0.19689319
-0.058252517
0.27324706
-0.24037407
-0.1988474
-0.41601256
-0.04555532
-0.05852447
-0.25097102
0.23156984
-0.2511
-0.044208676
0.2431664
-0.47592485
-0.0788946
0.09358857
0.16833857
0.14450546
-0.18171126
-0.41179547
-0.27185827
0.14984591
0.27293545
0.1936754
0.21363541
-0.050912004
-0.022449296
-0.31587577
-0.45973134
0.1496126
0.2272611
-0.29466957
0.13058996
0.20728092
-0.055606466
-0.20575805
0.116446815
-0.009268504
-0.4008931
0.23928995
0.20592509
-0.2712722
0.089494266
-0.255694
-0.15993258
0.3065756
0.03384998
-0.059912022
-0.27066323
-0.46280837
-0.29644534
0.05295032
0.13685922
-0.13887018
-0.08274328
-0.1975211
-0.32191968
-0.11685525
-0.4114658
0.24216084
-0.08848358
0.06011106
-0.113711804
-0.18035798
-0.07460976
0.13840796
-0.41688067
0.15730307
-0.018643212
-0.16018666
0.15360674
0.1122918
-0.4006446
-0.26733667
-0.13552928
0.08788639
-0.33877638
-0.41010168
0.032233495
-0.18232477
0.0021421385
0.1642254
0.12509806
-0.09880487
-0.2624441
0.1940925
-0.48005977
0.2303329
-0.1663209
0.2523538
0.0023478079
-0.28773573
0.2483169
0.2277494
0.005741178
-0.054138932
0.010535988
-0.3032543
-0.26498094
0.22933523
-0.16444252
-0.40130246
0.03093879
0.15427168
-0.04363095
0.10173065
0.11967593
-0.40054312
-0.3263796
0.14859521
0.17313817
0.20402692
0.12906958
-0.09696115
-0.35821345
-0.28506884
-0.11509897
-0.1564917
-0.4109675
-0.31376642
-0.42468247
-0.050218903
-0.16197613
-0.3030902
0.21547814
0.1511868
-0.28365943
0.117222935
0.037710007
-0.24433896
-0.3577491
0.20180933
0.0757669
-0.36285177
0.2234633
0.13465533
-0.33013728
-0.06630966
-0.013319634
-0.005772905
-0.056037545
0.012020739
-0.06450088
-0.18161999
-0.08306959
-0.076685086
-0.066833146
0.19553651
-0.14525765
0.21767215
0.011678205
0.04586202
-0.01868992
-0.024648283
0.14736381
0.13526742
0.13862489
-0.03373074
-0.25936088
