-0.34813517
0.19132313
-0.2218169
-0.2108001
-0.25203747
-0.15218592
0.18183531
-0.108981475
-0.4039129
0.17156442
-0.12858811
0.20534614
-0.09514064
-0.32993487
0.12884882
-0.4004762
0.05181233
-0.20779257
-0.014045013
-0.10243775
-0.2916798
0.19143112
-0.25747988
-0.14207959
-0.07195818
-0.15635991
-0.32245535
-0.00023684576
-0.29718688
0.12757945
0.03383577
-0.1400428
0.18130271
0.17618679
0.052907247
0.14219062
0.16474386
-0.21875587
0.26824665
0.2177226
0.24400312
-0.32206237
-0.2876327
0.28292567
-0.22292069
-0.38977456
-0.07555755
0.23717104
-0.02349406
0.1601979
0.10649511
-0.27360407
-0.19935153
0.21788378
-0.19003195
0.23967096
-0.21743123
-0.40420908
-0.5109765
0.044461448
-0.11256568
0.18714571
-0.12926036
0.16003513
0.19403893
0.0011991003
-0.06641483
-0.24761976
0.14407127
-0.12921602
-0.07139377
0.17877556
0.14159672
0.14101316
0.1545338
-0.2694918
-0.016347002
-0.31395993
0.25132594
-0.41266173
0.05577225
-0.42142507
-0.35888517
0.044321354
0.22334766
0.14625828
0.18088345
0.148094
-0.2658397
-0.27706882
0.17901254
-0.12875065
0.2624903
-0.055700105
-0.054976523
0.22089939
-0.04459096
0.03243089
-0.25569257
0.24723528
0.19847588
0.27705282
-0.37875384
-0.2981676
-0.026720345
0.25475252
0.086428955
0.21851942
-0.17371526
-0.18223953
-0.34385654
-0.43519625
-0.16407627
-0.3226205
0.055342406
-0.3436692
-0.046774052
-0.25468644
0.20128699
-0.047890827
0.12309572
-0.03138429
-0.04415893
-0.030585164
-0.283034
0.20657861
0.0003578318
-0.10640265
0.115003675
0.1253309
-0.15876414
0.15332465
-0.2528077
0.23263745
-0.12650473
0.21689984
0.015668886
-0.18386169
0.111208156
0.114527166
-0.37867373
0.2218723
-0.068100534
0.18665904
-0.26583338
0.22273575
-0.348375
0.21790275
0.2256568
-0.03981343
-0.019619238
0.2582887
-0.27241915
-0.30735955
0.14733274
0.18429296
0.2287728
-0.28995365
0.19364725
-0.19035254
0.08440887
-0.43987942
-0.0005398201
-0.20083405
0.107850514
-0.32419503
0.09574188
0.05588012
0.11928781
-0.33628687
-0.21931079
0.02970188
-0.06487724
-0.2242027
0.14702879
0.05558404
-0.27901334
-0.050599046
0.15663238
-0.4052534
-0.06060309
-0.25528404
0.18479483
-0.18373595
0.25053793
-0.119123496
-0.1241331
-0.41895303
-0.085307136
-0.31752017
0.22623134
0.2285926
-0.077073276
0.2111388
0.053904094
0.24458309
-0.024213372
-0.3842564
-0.26663733
-0.083034895
-0.13260664
-0.13159011
0.16662356
0.003039709
0.2165854
0.19293225
-0.23302895
-0.029514262
-0.26940304
0.1434424
0.013443792
-0.37027404
0.068277635
-0.20707537
0.08351181
-0.46643117
-0.2638734
0.108326204
-0.11881174
-0.37145165
-0.32926273
-0.13845778
0.0986453
0.105501026
-0.34920034
-0.31814516
-0.24939676
-0.28623718
-0.35164475
0.08432692
-0.14107683
-0.36276168
-0.005435183
-0.031340517
0.18334104
0.16483083
-0.36994943
0.1882551
-0.38898322
0.05148822
-0.448753
0.13002577
-0.06517172
-0.4069815
0.17630552
0.23724808
0.0024124626
-0.12355765
-0.36555532
0.2706413
0.15441374
0.1965758
-0.2751397
-0.29840896
0.02766916
-0.3114006
-0.24574111
-0.28085518
0.1850122
0.26324204
-0.3044174
-0.39185724
-0.20860979
-0.10048766
0.14881958
-0.07853803
0.2535592
-0.22326988
-0.49329194
0.15190378
0.13115843
-0.17812596
0.17588004
-0.11838757
0.24706414
-0.14234297
0.14541477
-0.31807682
-0.17810655
0.2342445
-0.040668998
-0.21309663
-0.13430548
-0.20620002
-0.28115058
-0.14685129
0.1240552
-0.17478944
-0.0672396
-0.49261856
0.19389828
-0.3699913
-0.26290783
-0.29583988
-0.024484558
-0.48470426
0.17623043
-0.3357623
0.06770623
-0.32970977
-0.26927695
0.1048882
0.1576562
0.20388919
0.11333137
-0.2693276
-0.2250806
0.1688968
-0.3151089
0.054431055
-0.14815196
-0.22612095
-0.05516988
-0.31913054
0.17490706
0.23511493
-0.029026395
-0.21698509
0.014072551
0.19321287
-0.25673145
0.2337493
0.18236218
-0.26923794
-0.2871591
-0.23443921
0.19113971
0.21855804
-0.084722064
0.02880129
0.19770412
0.28493196
-0.14364396
-0.16776913
-0.14024259
0.0038412644
-0.22026008
0.06810264
0.18300116
-0.30983514
-0.1748911
0.16356792
0.24692374
0.21932837
-0.25059804
-0.3254828
-0.08308487
0.22840388
-0.1735925
0.046325248
0.13356766
-0.22317725
0.21658148
-0.3311766
0.23149371
0.05422535
-0.31032446
0.18802637
-0.090758316
-0.23192737
-0.1789631
-0.37134054
0.23339076
-0.02125739
0.23363517
-0.10731401
0.1548606
0.25970668
-0.18533187
-0.44883323
0.03737243
-0.16651256
0.21951759
0.12093257
-0.17219329
-0.24392897
-0.43867025
-0.24539703
0.24489197
0.21587773
-0.17641115
0.15622844
-0.052519
0.15031007
0.08293304
-0.38987795
0.12162878
0.09176223
0.037589576
-0.17151198
0.11094355
0.11649461
0.06401387
-0.3331586
0.10526035
-0.2506738
-0.113174215
0.18421121
-0.26190534
0.16699484
0.20600277
-0.27617893
-0.08379229
-0.4010753
-0.10795167
0.06919306
-0.10542831
-0.34156826
-0.24561636
0.09370147
0.08071055
0.08743502
-0.38270414
-0.25113904
0.1465138
0.14663234
0.19626974
-0.16687346
-0.45537096
0.11926983
-0.033115685
-0.21547878
0.11975776
-0.24281293
-0.008044862
-0.21997896
0.12710226
0.060069542
0.09229583
0.14260076
-0.32661852
0.06688044
-0.06773954
-0.5016055
-0.51465446
-0.45109
-0.50977105
-0.06275246
0.09576075
-0.41356203
-0.23734215
0.0559203
0.10006259
0.13491054
-0.28000107
-0.4012743
-0.13116527
0.12003815
-0.17508952
-0.34123257
0.1428894
-0.17350844
0.13546245
0.061691537
-0.24560592
-0.2705514
0.24493949
-0.11218875
0.19395998
0.19776545
0.22892834
-0.08914303
0.2617073
0.07549598
-0.102394335
0.18424402
-0.28742737
-0.16833149
0.26974183
-0.34838635
-0.34259617
-0.025375664
0.0756562
-0.20669816
-0.2577164
0.21465026
0.07989879
-0.17800461
-0.039215073
0.08355566
-0.1728586
-0.24779245
-0.040734638
-0.012287864
-0.2903647
0.06093178
-0.024321081
0.28347382
0.29477113
-0.2216944
-0.1595762
-0.16596965
0.2526091
0.12814082
-0.021868687
-0.12647475
-0.35912168
-0.49478477
0.17669083
0.1418638
0.0571879
-0.3361064
0.1298137
0.19899324
-0.025127996
-0.13335314
-0.3583221
0.17165045
0.16229618
-0.18521509
-0.04912762
0.017605508
-0.030708238
0.1734746
0.14079867
-0.0033670987
-0.33087382
-0.16143207
-0.18485346
0.12585764
-0.17971346
0.1983528
0.206536
0.2193133
-0.09181862
-0.06543837
0.23855065
0.22058526
0.20437197
-0.3225612
-0.25309277
-0.37999335
-0.21595302
-0.2886918
-0.26571873
-0.21983247
-0.16449709
0.19548014
-0.21126357
0.29634684
-0.08826846
0.28579077
-0.21825579
0.23016824
0.039920527
-0.09253116
-0.28676343
-0.1573383
0.26969495
0.008467107
0.26242232
-0.38707447
0.12270412
-0.12044737
-0.39752987
0.11857807
0.07987068
-0.09157096
-0.11649845
-0.16481008
0.3000843
0.16757295
0.2584273
-0.18564735
-0.183386
-0.09058497
0.07399867
0.04318275
-0.21040854
-0.2478637
-0.061376527
-0.26267073
-0.20915943
-0.07153556
0.2891296
-0.30941698
-0.098420404
0.28300354
-0.09045513
-0.2572032
0.059886623
0.05195835
-0.19989094
0.101112105
-0.20470518
-0.38352934
-0.16353464
-0.1599139
0.19936472
0.031628765
-0.32044145
-0.06499617
-0.18389735
-0.13301769
-0.40598255
0.11457525
0.1081734
-0.4309806
-0.11744898
0.05855926
-0.024535244
0.13139337
-0.3855277
0.0018402814
-0.13924071
0.08088532
0.11074377
0.09629672
0.06760148
0.1462523
-0.20242149
0.14697048
-0.27743763
0.117259495
-0.25104526
0.074617155
-0.34761897
-0.31709343
-0.26745677
0.08548379
-0.39797598
0.13561383
0.13596794
-0.24292077
0.09598917
-0.27265403
0.113287844
-0.4768812
-0.26160067
0.02686332
0.2011847
0.27170178
-0.12090472
0.2107163
0.2450515
-0.15369213
-0.103543855
0.23090522
0.179053
0.25848478
0.2350227
-0.3364481
0.15469606
-0.117891625
-0.2790156
0.13673708
-0.069014065
-0.19238621
0.07449373
-0.25730383
-0.40334657
0.05801656
-0.23351437
-0.19449663
-0.244903
-0.18849014
-0.039219476
0.030603098
-0.41524416
0.067333035
0.08294584
0.032388166
0.06449515
0.059845913
0.048875127
-0.17345497
0.19631574
0.16708377
0.21943031
-0.36071432
-0.19298916
0.16388339
0.050250035
-0.5655855
-0.26091886
-0.04523292
0.073738016
0.20375668
-0.3581321
-0.1715447
-0.24461071
0.14329009
0.19550349
0.23025799
-0.3416917
-0.4349318
-0.112952225
-0.24564023
-0.07395662
-0.1462053
-0.53193396
-0.15834345
0.17311026
-0.4496453
-0.20266837
0.18403624
-0.33859774
0.2200605
0.20898633
0.17236985
0.039094083
-0.20310718
0.18003698
-0.08714589
-0.031186078
0.2720567
0.13429904
-0.235455
0.31187305
0.11368296
0.08009731
-0.17126068
-0.1057394
0.06171029
0.2516514
-0.18710457
-0.0805503
-0.33911172
0.19213325
-0.19951347
0.055948094
0.30493113
-0.3150993
0.036721524
-0.24076651
-0.08666008
0.1373921
0.3177345
-0.27638534
-0.37475437
-0.26508376
-0.024951346
-0.3245863
0.2711567
0.0066507068
0.28844213
0.013340539
-0.24613874
0.07694101
-0.24368565
-0.121265575
-0.28642866
0.1985285
-0.3689047
0.20320322
0.23675752
-0.39125565
0.19720648
0.21588063
0.18552332
0.21999139
0.20686504
0.023277761
-0.0707338
0.17748336
0.14746879
-0.37172094
-0.22387342
-0.39649022
-0.39735532
0.046324737
-0.16887417
0.20144208
-0.23662926
-0.49064678
0.18243107
-0.28731182
-0.098833874
-0.033180878
-0.21941699
-0.062249865
0.17071281
0.13959697
0.19525765
0.2075413
0.21179305
0.1906501
0.18391038
0.17018354
-0.44742447
-0.35033044
0.068755455
0.14124085
0.16729338
-0.36642662
-0.065395825
-0.00091870595
0.1252305
-0.1626644
0.20192751
-0.08937649
0.02212903
0.21600378
-0.2518502
0.14302084
0.23607543
-0.46274546
-0.3495982
0.02032671
-0.33370447
-0.21805312
0.030769479
-0.31647837
-0.22209454
-0.08835885
-0.27646014
0.21610126
-0.046327356
-0.2241416
-0.13144903
-0.08086358
0.20438863
-0.28547537
-0.19665556
0.30997363
-0.17670317
0.2591596
0.20507064
-0.38743284
0.18373291
-0.41509205
-0.15958804
0.21557525
-0.023015602
-0.11518496
0.16916959
-0.10166232
-0.18517146
-0.04452668
-0.19408229
0.19263253
0.19934765
0.20281132
-0.18345454
0.2059385
-0.33606154
0.13070625
-0.09788727
-0.24846962
0.16650403
-0.17188203
0.11533352
0.18888657
-0.07793462
-0.18778588
-0.22212099
-0.014472776
-0.047231298
-0.05440256
-0.50566405
-0.057385713
-0.31644496
-0.39373738
0.14265119
0.19438925
-0.19702186
-0.37249973
0.27354285
-0.09294275
-0.2683588
-0.078682445
-0.41072413
0.08920505
0.2653409
-0.03505384
0.24168587
0.3051627
-0.06744938
-0.29664433
-0.017038912
0.24096835
0.17171301
0.06351374
-0.1826398
-0.13277061
-0.09095836
0.049611643
-0.35233718
0.062166344
-0.43083775
-0.16621293
0.18495473
-0.35347214
0.2064851
0.14337835
-0.35098606
-0.07013137
-0.23413989
-0.35205215
-0.40006578
0.18024628
-0.10502484
0.18665548
-0.13467103
-0.3392824
0.14542326
0.0782282
-0.2772963
-0.03188634
0.109272294
-0.1020237
0.23388627
-0.29034814
-0.23005411
0.0016103885
0.12447023
-0.008692374
0.29879797
0.27047813
-0.075566046
-0.0489144
0.22925086
-0.3967336
-0.016867664
-0.082324386
0.09583013
0.16750675
-0.116881415
-0.3486087
0.19038537
0.16960528
0.2021073
0.0208471
0.06271537
0.18307357
-0.18073882
-0.26307136
0.08359239
0.115306444
-0.41069114
-0.330027
-0.11824109
-0.33481726
0.32195616
0.20644356
0.011718078
-0.288157
-0.09296851
-0.15549916
-0.0183797
0.024760889
0.08866038
-0.26857543
-0.13681024
-0.14778565
-0.3883811
-0.04422628
0.3208238
-0.25413275
-0.13946794
0.11915414
-0.30363575
0.23906125
-0.17901555
-0.044145115
-0.3075107
0.16233906
0.21575813
-0.17131954
0.23532599
-0.2526856
-0.1768462
-0.10865447
-0.07604024
-0.27792034
-0.23901246
0.22245654
0.17351301
0.111840636
0.07460376
-0.24224499
-0.3064594
-0.4219335
-0.20546594
0.14198582
0.15390562
-0.17290646
-0.09191038
-0.2858326
0.13706097
0.005498962
0.21320528
-0.4006755
0.03391275
0.22069193
-0.13234045
-0.2982178
-0.121950775
0.16752513
0.24673231
-0.27204293
0.27940637
-0.17465343
0.21231471
-0.09263552
0.25232747
0.10408379
-0.06847476
-0.48864338
-0.11746164
0.1892425
-0.17271543
-0.40658233
0.24562311
-0.023406943
0.17476873
0.10090564
0.18090561
-0.3382453
0.13053337
-0.41083133
-0.1727551
-0.04437699
-0.30571747
-0.141372
0.23752604
0.2820875
-0.11914274
-0.32062948
0.13064505
0.05849533
-0.15755673
-0.3027078
-0.29437453
0.12861861
-0.121448144
0.09823642
0.16206835
-0.153429
0.15409228
0.036884155
-0.13152073
-0.17608525
0.12701713
0.12368726
0.12258407
0.12941813
0.02326564
-0.29684955
-0.18513827
-0.24188085
-0.19351968
-0.39133933
-0.36889267
-0.22911109
0.21672682
0.17084064
-0.2167028
0.18404457
0.15461847
-0.16919084
-0.33283508
0.23839192
0.21156058
0.22801206
-0.35014698
-0.21319611
-0.3097646
-0.16609474
0.13373025
0.026720185
0.10469326
-0.07167913
0.2099908
0.22462298
0.29738832
0.31063768
-0.046831474
-0.079424
0.18563032
0.050314747
-0.046682894
0.028909495
-0.3207123
0.30326894
-0.2889716
0.32077152
0.03876773
-0.18122412
-0.04237023
-0.11065846
-0.28919888
-0.21060748
-0.09128945
0.013340974
0.06283272
0.006948467
-0.023744173
0.027376574
0.02492262
0.08198791
-0.16627757
0.066821046
-0.12832467
0.001052901
-0.04619909
0.0048949644
0.20069341
-0.023608185
-0.112404905
-0.007152076
0.01065813
