0.17739363
-0.09670195
0.24777421
-0.1738319
-0.3401786
0.24875943
-0.16925819
-0.18036526
-0.2926071
0.2595691
0.23495743
0.28173485
0.21171936
-0.11273759
-0.088229224
0.053338528
-0.02016612
-0.051625766
0.08659184
0.13404007
0.22446841
-0.12653126
-0.022836683
-0.3526677
0.20512396
0.21992308
-0.38940284
-0.4696543
0.1860768
-0.25899458
-0.13702706
0.16559005
-0.446708
-0.14932811
-0.19100115
-0.41043967
0.20882449
0.18123601
-0.20114417
-0.4163
0.26973704
0.19326326
0.17989516
-0.074814774
-0.44214493
0.17380075
0.0703906
-0.27714217
-0.14108811
0.07101157
0.21540052
-0.27137533
-0.46671662
0.23153426
0.20493194
-0.022269605
0.04713643
-0.1406369
-0.18035343
-0.21322697
0.20051943
-0.040157385
-0.2569903
0.2057082
0.20128551
-0.4919642
-0.25668213
-0.18166715
0.10142369
-0.13209398
0.04903328
-0.307028
-0.022000065
0.28016537
0.075163566
0.19944757
-0.35780954
-0.040246025
0.13836038
-0.42651054
-0.40239874
-0.22575003
0.012855168
0.06735058
-0.32821828
0.131284
-0.37604064
0.12836778
-0.014798518
-0.46201846
-0.45011446
-0.3137882
0.14362743
0.15923385
0.14069551
0.04545451
-0.23336723
-0.4410701
0.19950545
0.006078795
-0.20445547
0.15965705
0.21690944
-0.20808464
0.08073011
-0.47191086
-0.12376193
-0.39589962
0.20811838
0.1358189
-0.18400921
-0.41852078
0.2074215
-0.316139
-0.08581827
-0.29830036
-0.45483518
-0.013874286
0.1807461
-0.32318538
-0.41262203
0.1675673
0.18182375
0.14553846
-0.06444022
0.09023107
-0.41898102
0.13924056
-0.014894152
-0.40584263
-0.26662102
-0.28184298
-0.7818087
0.024210954
0.15172507
-0.38659036
0.090794735
0.21564107
-0.60713404
0.09904076
0.20825717
-0.048218317
0.20301652
0.06986205
-0.056450013
0.06552615
-0.40781036
-0.6290591
-0.41089767
-0.26676095
-0.55206376
-0.5305624
-0.37988678
-0.0910766
-0.07297411
0.17243664
-0.027403504
0.1251692
0.103923075
0.18836966
-0.22875464
-0.35777315
0.02840083
0.11475775
-0.48260164
-0.39916635
0.07563601
-0.16429973
0.07982648
-0.3442905
-0.18061319
-0.12529823
0.22553703
0.1024093
0.1670192
0.27366278
0.24394439
0.2492087
-0.13396764
-0.0316096
0.09022057
-0.2018545
0.28345618
0.24079083
0.19213882
0.06836586
-0.48057306
-0.46437886
0.10408863
-0.43558723
0.31281698
-0.041094027
-0.30406916
-0.01595604
-0.1992071
-0.35724542
-0.4400331
0.2567564
0.31430903
0.29831725
0.17313634
0.114763446
-0.2132997
-0.12663066
0.18219623
-0.33876395
-0.011945568
-0.24628052
0.07118055
0.19559035
0.19166572
0.11809935
0.0031916844
-0.3140972
0.20693187
-0.49127844
-0.035338573
0.24935101
0.18381447
-0.097478166
0.19351497
-0.24498905
-0.42829064
0.07169671
-0.36869237
-0.47736922
0.21707924
0.1922619
-0.38501355
-0.37910497
0.1990385
-0.29704627
0.24205334
-0.3379406
0.12982288
-0.25390935
0.061003573
-0.019194541
0.23063049
-0.15923303
-0.22936274
0.22113542
-0.025988596
-0.1021665
0.081270546
-0.42568633
-0.40683752
-0.11282236
0.2124779
0.3430393
-0.26166824
0.1872973
-0.019681713
0.07182895
-0.0984781
0.14524469
-0.058937933
-0.025488565
-0.38115558
-0.14505614
-0.116459064
-0.31060693
0.2752177
0.1604914
0.1563288
-0.22725677
-0.11754544
0.19177772
-0.39601588
-0.064679086
-0.2497418
-0.38713503
0.17700876
-0.42526174
0.0150413485
0.068642676
0.20807874
-0.3646995
0.16006699
-0.10211335
0.1276547
0.122445725
0.12629628
-0.009145732
-0.15089321
-0.35735556
0.18558459
0.16433889
0.011203443
0.18143363
0.1895607
0.10644108
-0.4259173
-0.34839618
-0.17136376
0.14385445
0.21061751
0.17924447
0.1523565
0.1877498
-0.37527767
-0.040290773
-0.37098947
0.14754781
-0.28292152
-0.13809517
-0.15302469
-0.1090252
-0.2644787
-0.21917507
-0.18668716
-0.0071162772
-0.084107704
0.06314542
0.2247221
-0.1717541
-0.5043144
0.24726279
0.20813361
0.27207375
0.24779405
-0.06990206
-0.3635666
-0.23593296
-0.37362844
0.20607638
-0.27194315
-0.32298967
-0.17093062
-0.3303788
-0.2756545
0.045380153
0.065516934
-0.20189482
0.221267
-0.36322322
-0.42643136
0.22102025
0.22998755
0.22059771
0.22866382
-0.08037896
0.32447648
0.13393484
0.0012257086
0.07331312
-0.41727355
0.08986169
-0.073686145
-0.16424106
0.34423894
-0.15785518
0.34912038
-0.15082404
-0.051858645
-0.49542433
-0.37724742
-0.014353114
0.0045639896
0.15744986
0.079201534
0.1935634
0.22700633
-0.15476345
0.059000704
-0.37913787
0.039972566
0.23366871
0.12790807
-0.16923541
-0.30663726
-0.20856304
0.1091488
-0.28973854
0.22222158
0.08166159
-0.36065245
-0.16694786
-0.29394352
0.2838532
0.13528956
0.21840005
-0.38743192
0.22986679
-0.49389893
0.21449071
-0.21383356
0.08647974
-0.29667613
-0.09585053
-0.3672984
-0.015279062
-0.038077936
-0.30100983
-0.28796515
0.22021554
-0.34401783
-0.041270364
0.20399918
-0.003414965
-0.34877574
-0.31405702
0.15498294
0.20444572
-0.16265379
-0.17525864
-0.118965104
0.18382356
-0.2698689
-0.45602965
-0.14836948
-0.50581104
0.28376552
0.26131132
-0.18263242
-0.3045303
-0.00547317
-0.051675607
-0.48263955
0.16080892
-0.1752313
0.17046177
-0.011175051
-0.049351163
-0.21522439
0.14353989
-0.26753592
0.10343352
-0.5651953
0.20261489
-0.47568184
0.14505562
-0.25916597
-0.17558467
0.15726429
-0.05392519
0.018071238
-0.23145895
0.10758793
-0.09182188
-0.3065782
0.22251436
-0.3762012
0.065823056
0.25854984
0.08651417
0.18329583
0.15355566
-0.32125622
-0.22820511
0.22315806
-0.0861489
0.13366024
0.17033939
0.19176634
-0.20253679
-0.17421053
0.049109813
0.19022584
0.19580372
0.2544954
-0.389901
-0.18516296
-0.18676798
0.25984913
-0.39583397
0.19916558
0.21808852
0.2144668
-0.4341432
0.15666334
-0.027041722
-0.20241337
-0.3431775
-0.10052572
-0.22080514
-0.41301957
0.16297558
-0.5117073
0.19611815
-0.51837355
0.14748432
0.13593458
-0.30020136
0.12253242
0.23794185
-0.16242065
-0.2947304
0.14397271
-0.1986495
-0.0966511
0.23875442
0.10435515
-0.4527143
0.13241689
0.04969396
-0.39747387
0.066014305
-0.022970397
0.17507847
0.1566327
-0.42945096
0.012700542
-0.4887301
0.012880559
-0.039125778
-0.36970833
0.19912276
0.1997494
-0.0035840273
-0.542729
0.17100799
0.033348057
0.17261674
-0.25676396
0.15261841
-0.31160054
-0.1802897
0.1559269
-0.48208168
-0.4158705
0.1546503
-0.4934416
0.10751836
-0.4347815
0.12008952
0.14566694
0.11890064
0.19784063
-0.42411038
-0.10917571
-0.281421
0.2208743
0.049432945
0.118962616
0.10241038
0.13433729
-0.073161736
0.14394204
0.17265368
-0.3918041
0.12171232
0.0755783
-0.5053418
0.201472
-0.32366136
0.119671814
0.014389083
-0.3258065
-0.3034754
-0.055753417
-0.05387423
-0.32743168
0.2587593
0.18046553
0.19892895
0.12304641
0.18015523
-0.31322476
0.21925223
-0.26656312
0.22232659
0.056420807
0.2390771
0.09923737
-0.49359334
0.0966472
-0.16773386
0.058872737
-0.080732636
-0.17426866
-0.13927671
-0.16740645
-0.18543153
-0.27969715
-0.12352202
0.041568622
0.2601367
-0.21386632
0.16998436
-0.08634812
0.15505742
-0.30216378
0.1017644
0.25308484
-0.37931138
-0.26447675
-0.29639435
0.06457672
0.06856969
0.23816395
-0.26804626
0.22989799
-0.11587297
0.2068026
-0.023865657
-0.007716543
-0.37714398
-0.28014567
-0.3313248
0.24023178
0.2336327
0.097084925
-0.36535084
-0.18591733
-0.2307965
0.2017044
0.19897106
-0.18187812
-0.1396306
-0.13360295
0.004971953
-0.5233247
-0.29856822
-0.054303415
-0.34152904
-0.14003903
-0.35192394
0.26041254
0.09987642
0.1934211
0.03315906
-0.11259955
0.24879713
0.19074415
0.23091677
0.23500991
0.22310466
-0.05591679
-0.020515075
0.22414936
0.1471006
-0.11923675
0.1832688
0.22220789
-0.33839726
-0.22662134
-0.08460278
-0.31617868
-0.17335267
-0.03987838
0.2744942
0.212412
0.28943378
-0.40904546
0.2890929
-0.37989157
-0.20863889
0.100221336
-0.3606149
-0.35125497
0.15941861
-0.13183619
-0.5981463
-0.44839388
-0.39945033
0.013608669
0.15635318
-0.23135939
0.106126465
0.10236521
-0.17009386
0.15328558
0.14088772
0.10916309
-0.16624211
-0.31272224
-0.5844271
-0.13960056
0.17807932
-0.25161138
0.18017371
-0.2557434
0.15827411
-0.1578938
0.17502594
0.10890314
0.07905166
-0.2592135
-0.17749818
-0.46977055
-0.04922332
-0.072952
0.12607351
-0.25574896
-0.326764
-0.030427633
-0.29619533
-0.25939688
0.2776588
-0.41052303
0.026255725
0.05076134
-0.032572065
-0.42325172
0.09383564
0.2082152
0.06275625
-0.20488778
0.30670375
-0.23875292
-0.3472402
-0.28166926
0.28721765
-0.09231746
0.040625285
0.0065978253
-0.20997895
0.20482421
-0.20886458
0.1591259
0.3450728
0.25176775
-0.29262948
0.09614555
0.25724337
0.283298
-0.020423409
-0.11002599
-0.5743285
-0.15222505
-0.47302416
0.072726995
0.04591794
-0.54151154
0.08918519
0.08513702
-0.26159793
0.095883235
0.047395613
0.06437484
-0.0852095
0.08735039
-0.09726349
0.06945756
-0.39571607
-0.38165724
-0.010032524
-0.43107584
-0.3772771
-0.4621409
-0.63688636
0.20106888
-0.27825972
0.1999072
0.08272401
0.05064337
-0.09679251
-0.17929213
-0.21081161
-0.32271084
0.0004796947
0.19853684
-0.30381042
-0.25969255
0.03631094
-0.06694754
-0.07410081
-0.19650218
-0.4422048
-0.506256
-0.055019505
0.025144193
-0.4902821
-0.11356263
-0.02147521
0.046814207
-0.16436054
-0.6158386
0.040524926
-0.21606043
0.003942709
-0.25466263
-0.471746
-0.2999792
-0.56733966
0.036365528
0.055294342
0.03312928
-0.22355905
0.26353306
-0.22906154
0.18922488
0.08371724
0.21121886
-0.00010653646
-0.013736849
0.12970588
0.24002123
0.21699613
-0.25986743
-0.082670756
-0.40162876
-0.16127145
0.19918366
-0.30375195
-0.38094935
0.28804696
0.2053744
-0.013066215
0.12837279
-0.18533775
-0.4759566
0.22270596
-0.40465978
-0.10326489
-0.5269489
0.040700115
-0.055140883
-0.37668556
-0.4974971
0.13997142
0.20044042
0.22940207
0.19072226
-0.4633246
0.044193164
0.1829701
-0.23234302
0.2023808
-0.37796065
-0.060069636
0.15528914
0.22568066
-0.2957133
0.057803564
0.020311067
-0.29254872
-0.33222118
0.24562775
-0.17946388
0.2023501
0.20709442
0.14184262
0.24436222
0.1875156
-0.034366786
-0.55171907
0.21405768
-0.6956874
-0.38760546
-0.13087551
-0.40889904
-0.2503187
0.21259731
0.1506792
0.02449657
-0.0710089
0.1392056
-0.36300364
0.040263534
-0.1933194
0.1936461
0.16366263
0.19161332
0.14903125
0.07270836
-0.29789704
-0.3401525
-0.39632243
-0.26523045
-0.30864948
0.056152187
-0.3564659
0.1780125
-0.21623023
-0.41428292
-0.16439745
0.052634787
-0.3802405
-0.29567888
-0.058514386
0.064334676
-0.15921791
0.23757923
0.21651788
-0.19696678
-0.3828953
-0.13497934
0.07139175
-0.068343565
0.1584436
-0.2585693
0.279882
0.2788024
-0.4150886
0.007895526
0.025001118
0.015937967
0.17441885
0.2782541
-0.3835525
0.23738952
-0.35016137
0.2448277
0.03711311
0.25156853
-0.18515342
-0.13774171
-0.30679992
0.06145429
0.20023656
-0.421927
0.018097814
-0.13109158
-0.4652168
0.28883225
0.2405147
-0.2567943
-0.24117564
-0.24149464
-0.00803011
0.12744826
-0.44189912
0.111633494
-0.5934916
-0.26461577
-0.15928286
0.1339556
-0.3058413
-0.14479713
-0.19321175
0.08786392
0.083691865
0.17400657
-0.3968998
-0.4567989
-0.071545176
-0.17356063
0.12678386
-0.2871245
0.18066497
0.17328976
-0.35290232
-0.066693045
-0.19111887
-0.35677314
0.19757578
-0.26184523
0.22394493
0.09738209
0.23447207
0.0830826
0.23952676
-0.53057027
0.15409103
0.21323892
-0.0076486603
0.15035865
-0.1448972
-0.15294276
0.08971275
-0.20628442
-0.108174466
-0.025162937
-0.27697265
0.23108871
0.098257646
-0.3332936
-0.2577611
-0.2169931
0.014329608
0.28543153
0.13043381
-0.2900018
-0.07896811
-0.060689174
-0.038846076
0.19908588
-0.056194317
-0.16148138
-0.34824562
0.16540709
0.17954312
-0.052198417
0.13047607
0.15074551
0.10136411
-0.23583801
-0.4888219
-0.1240114
0.07919573
-0.27572277
0.048918884
-0.1747008
-0.5886536
0.14349066
-0.28466916
0.29999474
-0.4378454
-0.32290307
0.05554246
-0.027438266
0.25459883
-0.36003593
-0.3536425
0.2985828
-0.011520511
-0.0837288
-0.06838417
-0.47802383
-0.16160922
0.15063989
0.3143425
0.12144786
0.124840215
-0.3157436
-0.10306735
-0.54212666
0.24312143
-0.29837304
-0.3933778
-0.21117018
-0.550088
0.06915352
0.10010872
-0.17336649
-0.28822562
0.16814928
0.041716408
0.15386608
0.1508026
-0.17990978
0.06251823
0.24198513
-0.073369026
-0.00459619
-0.0029481696
-0.12509252
-0.04574643
-0.3356985
0.043828096
-0.60980546
-0.6191951
-0.017103573
-0.48556426
-0.4825177
-0.050195
-0.22754255
0.06900769
0.06478979
0.065207824
-0.256977
-0.2854904
0.017461115
-0.22986384
0.09853519
-0.3023706
0.24076697
0.24030012
-0.06838683
-0.20310506
0.254007
-0.2032487
0.21511392
-0.6861313
0.18557787
-0.18876573
0.09107106
-0.41280362
-0.35615027
0.18574609
-0.14855249
0.19506286
-0.15292782
0.16853543
-0.18112159
-0.1371303
-0.17109779
0.13478895
0.19633602
-0.30488548
-0.29742423
0.2184901
0.20952798
0.08525344
-0.2733164
0.0045006564
-0.39004934
-0.17631337
-0.14436956
-0.21178031
-0.23499796
-0.04867166
-0.02618399
0.118862346
-0.11507867
0.0644838
-0.054145828
0.055650964
0.044080738
-0.12954132
-0.041383542
0.06470535
0.07288778
-0.057000704
-0.09318113
0.29447466
-7.1053178e-06
-0.08519728
-0.05251059
-0.12373213
