0.099307515
0.05960029
-0.37882236
-0.1275081
0.1306424
-0.057888098
0.1347992
0.12290214
0.08215381
0.13521096
0.11334696
-0.33190206
-0.24918893
-0.36600852
0.042585135
-0.22311513
-0.47736385
-0.23164006
-0.12605199
-0.16132301
-0.113519914
-0.18048762
0.16319823
0.27502406
-0.45532733
0.21769896
0.031893354
-0.20916344
0.013996657
0.2208899
-0.13322085
0.22698832
-0.45805925
-0.046514727
-0.30005208
-0.44631907
-0.16246507
-0.31377685
-0.2387812
-0.283124
-0.2183742
-0.14377055
0.11996343
-0.42177784
0.16679107
0.13461524
-0.119082995
-0.04790069
0.17160724
0.12146443
-0.08251504
0.15508573
0.15948549
-0.35076016
0.13819712
0.13916716
-0.012846011
0.21698244
0.24807137
-0.27790213
-0.23925038
-0.2279858
0.10477902
-0.3769991
-0.048675843
0.28475326
0.31162497
0.13052572
-0.26310974
-0.26848868
-0.0944461
0.098170586
0.22516224
0.10450034
0.038845874
-0.27489632
0.116156064
0.14842969
-0.16387343
0.11799534
-0.45922342
-0.17144264
-0.46663517
-0.1635884
0.1806963
-0.22439209
-0.39601874
0.10618724
-0.039131407
-0.21033826
0.21178904
-0.26177585
-0.5057087
-0.10347584
0.1628116
0.16648953
0.13708033
0.18667139
-0.20216282
-0.22045094
0.14019912
-0.24449976
-0.24294277
0.16507049
-0.2901126
0.19683293
-0.20726693
0.18468677
0.18987717
0.11651964
0.1574915
-0.45891845
-0.29199168
-0.3233181
0.17893119
-0.41330743
-0.16184843
-0.2482641
-0.22458468
-0.17652181
-0.10695978
0.18262874
0.2681053
0.2582527
-0.25733396
0.16869889
-0.31917682
-0.15258819
0.10562185
-0.31411144
0.25124627
0.2514719
-0.12315001
0.12776916
-0.13796154
-0.21699445
-0.30188078
-0.23216712
-0.20482758
0.17349428
-0.028473167
-0.17715771
0.11149929
0.15829866
-0.0025982438
0.12416884
-0.5323873
-0.20663905
0.106409706
0.014943921
0.15400817
-0.13468558
0.23154236
-0.05650997
0.3355857
-0.18069367
-0.10323907
0.2880886
0.23529033
-0.17735882
0.23206005
-0.18889993
-0.15599154
0.17078327
0.32322323
-0.1468962
-0.12111964
-0.23912206
-0.40533063
-0.16381411
0.1990258
0.10534596
-0.43622124
0.09055966
-0.11368371
-0.3081513
0.009897126
-0.36968327
-0.20426656
0.16203505
-0.10369056
0.00083844375
-0.2198967
-0.4173782
0.17206612
0.14642537
0.12306486
0.15885575
-0.2836347
0.08334831
-0.26631144
0.115608454
0.122324385
-0.2671703
-0.08787731
-0.21579371
-0.33501452
0.24300762
-0.23802942
0.26544532
0.009304958
0.24524514
-0.028879307
-0.19479969
0.008392071
0.08161615
0.03233038
-0.22862452
0.21225633
-0.16246247
-0.28154123
-0.04023737
0.03663324
-0.15524474
0.07956818
-0.1853886
0.21670613
-0.06585156
0.14913802
-0.56150633
-0.09675156
-0.41578814
-0.44623217
0.11113001
0.21691716
0.2290137
0.25883684
0.2296169
0.054649457
0.02015169
-0.015874732
-0.31919032
-0.3404885
-0.2645301
-0.00042807296
-0.32111177
-0.16406757
-0.11672317
-0.3624035
0.24167262
0.01617077
-0.30257657
0.35943556
0.08295916
-0.16751419
-0.23536444
-0.18817484
0.14395228
0.24385989
-0.25643834
0.22170456
-0.32939622
0.136498
0.20037952
0.013610116
-0.08685657
0.22512677
-0.20023721
-0.13794725
-0.27266207
0.15673673
-0.04032792
-0.40667003
-0.08625851
-0.24772726
0.12185168
0.0994413
0.23949245
-0.2275342
-0.30870083
-0.34644315
0.2329294
-0.044249997
-0.22455728
-0.16297142
-0.13015029
-0.08637403
0.24640025
0.227699
-0.16236633
-0.0935595
0.16124429
-0.2526229
0.27373534
-0.020987343
0.27929538
0.32456604
-0.19906037
0.3099136
-0.19243224
0.22739778
0.29872444
-0.054922827
-0.10570703
-0.22350988
-0.28377953
-0.15165223
-0.14645192
-0.21744451
-0.11987081
-0.03148282
-0.14532532
0.20192158
0.047950853
-0.01989919
-0.21112005
0.18327342
-0.22872816
-0.0059955064
-0.24967046
-0.20952624
0.20779002
-0.20151278
0.20347533
-0.07248004
-0.16741203
0.13069628
-0.47966594
-0.43033022
-0.42203
0.18172295
0.009898561
0.10710853
0.15448095
-0.2494109
0.012342891
-0.27231318
0.17603824
0.06549619
0.17614593
0.08136659
-0.2605287
0.20368327
-0.19982816
-0.10769968
0.074245915
0.24245518
0.06622412
-0.39363775
-0.46513116
0.06273308
-0.11021223
-0.14255023
-0.22125144
0.23182894
-0.26968667
-0.37085482
0.15958448
-0.28536472
-0.3769155
-0.20370176
-0.29701585
-0.10408862
0.11930873
0.14001736
0.2505799
0.23089007
0.025484676
-0.20841728
0.24463953
0.14092441
-0.2852939
0.2055179
-0.30872804
-0.26286528
0.112518385
-0.09286767
0.22793077
0.13079588
-0.38266972
0.2666066
-0.13659091
0.0035913722
0.28072244
-0.2387949
-0.27890617
-0.25238594
-0.14186142
-0.19415285
-0.04485994
0.1795667
-0.14131229
-0.18444069
0.21762002
-0.38821536
-0.18800282
-0.14383635
-0.039844446
0.15879159
-0.3321181
0.22259362
0.18572202
0.27607176
-0.17877606
-0.18656096
-0.043196734
-0.35925925
-0.20394589
0.13487545
0.065325715
0.03230829
-0.1943194
0.16414855
0.17244388
0.14090829
0.18282498
-0.16787232
0.021492187
-0.34814698
-0.34188417
0.054234643
0.16798931
-0.22631839
-0.0914531
0.11126706
-0.2664413
-0.24148501
-0.27154812
0.09705712
-0.11462134
-0.099602684
-0.15206477
0.2346522
-0.30719864
-0.05027622
0.19152687
0.24558008
-0.034131903
0.23360914
-0.3067769
-0.33443472
0.31736466
-0.22743629
0.32232794
-0.12856336
-0.10819349
-0.27554518
-0.23531248
-0.048593253
0.06657017
0.25246528
0.19895525
-0.2157545
-0.2679522
0.2536616
-0.017763633
0.006525204
0.15808126
0.09799544
-0.32269523
0.2679304
0.19225098
-0.1895287
-0.1226438
-0.2810159
-0.20082389
-0.15367414
0.17340188
0.18796545
-0.09157687
-0.21444893
-0.06110586
-0.40813714
-0.14674988
-0.027544858
-0.03561763
0.17384522
0.17804089
-0.26772046
-0.26479182
0.033537943
0.20660064
0.053196818
-0.29320037
-0.32545033
-0.111897714
-0.3350827
0.24503158
-0.24469005
-0.14704119
0.21394439
0.04614073
-0.3199746
-0.2157171
-0.33399296
-0.08461266
0.19691373
-0.069121845
0.17416649
0.24502783
0.23567612
0.22771844
0.2327744
-0.06480277
0.0973662
0.2946332
-0.26591522
-0.014737645
-0.2563272
0.21157356
-0.37877524
0.27582404
-0.29511628
0.28129157
-0.2812459
0.09492605
-0.22226563
-0.033079706
-0.24610044
-0.16219169
0.037708517
-0.102407746
0.25163567
-0.16515864
0.19798087
-0.18255103
-0.020515447
0.10813861
0.17414661
-0.023197033
0.029747127
0.20276423
0.16690286
-0.13899101
0.21185987
-0.39005172
0.24027568
0.21203439
-0.55407465
-0.33697075
0.061689217
0.08625791
0.17718792
-0.14780818
0.14974067
-0.025925735
-0.15907568
-0.22849464
0.15105073
0.2263421
-0.15956582
-0.02450518
-0.32954514
-0.30928004
0.06886876
-0.44528085
-0.11487998
-0.25642267
0.15156789
0.22379807
0.15758453
-0.29840103
-0.49201578
0.13941771
-0.31865197
0.09599397
-0.31956246
0.09723509
-0.23524384
0.15806392
-0.23987994
0.1429425
-0.02237641
0.15716322
0.12266158
0.038144853
0.13595082
-0.20831619
0.13029243
-0.23026153
0.24066932
-0.24317792
0.23170839
-0.016946368
-0.25386655
0.25676578
-0.12538008
-0.18130381
-0.20297271
-0.4152976
-0.1269973
-0.0250574
0.19022372
-0.29694867
-0.093357466
0.21267058
-0.31449705
-0.15300488
0.23695637
-0.24372509
-0.18849075
0.10910391
-0.120992415
0.23507789
-0.14089034
-0.108117044
-0.17530333
0.28639874
0.2523913
0.15265583
0.20189866
-0.17645828
0.15573873
0.2514177
-0.2029395
0.2748284
-0.068890356
-0.2951363
0.2592795
0.2262001
0.20283219
-0.33092272
-0.3230877
0.17911722
-0.48541632
-0.03360107
0.25790823
0.14371811
0.22169022
-0.21647085
0.1652882
0.09333689
-0.23091939
0.20054573
-0.15334016
-0.13910004
-0.38200027
-0.09144759
-0.1568022
-0.14201903
0.2506044
-0.32659453
-0.13671018
-0.048482124
-0.08473069
-0.18822841
-0.38382164
-0.11551003
-0.14295956
-0.2744523
0.26818243
0.2892786
0.21745087
0.2919817
0.032405376
0.2935269
0.080379054
0.14834467
-0.18355757
-0.084957905
0.26062876
0.29157683
-0.047756813
-0.15692465
0.2861015
0.32266048
-0.12942976
0.28409857
-0.25601086
0.036754753
-0.112496205
-0.33578935
-0.3172791
-0.09989995
-0.28906196
-0.0407511
0.025324998
-0.32046956
0.15151528
-0.1812455
0.15296917
0.10038116
-0.023237089
-0.2914201
-0.27737185
-0.27403235
0.09486493
-0.4223242
0.21423967
0.18966693
0.1679748
0.15883017
0.1253543
-0.17224862
-0.3885874
0.19046591
0.17354888
0.17675146
-0.03822209
-0.07258282
0.1951313
-0.14021231
-0.28405142
-0.06721125
0.18806331
0.15308028
0.18503216
-0.35784248
-0.35641074
-0.07545242
0.09327129
0.21243344
0.18468653
-0.1757541
-0.40264124
0.18225174
-0.27820614
-0.26874113
-0.32440513
-0.24248831
0.18252794
-0.11616584
0.1704927
-0.32342944
0.15233806
-0.32645407
-0.4758773
-0.20586763
-0.43059757
0.2503952
0.051807348
0.17005633
-0.21028621
-0.2108696
0.2900956
-0.22107008
-0.07991877
0.21934177
-0.35222444
-0.19552028
-0.07594921
-0.021843445
-0.16561389
-0.014784956
0.13070843
0.2783136
0.22787902
0.24279186
0.23628779
0.23577642
-0.21758524
0.23220421
-0.15026432
-0.17064811
-0.2699438
0.05685343
0.08435856
0.26197368
-0.3014897
0.19425835
-0.012945888
0.2978655
-0.152338
-0.049546394
-0.38159326
-0.00029283276
0.24933842
-0.33846158
-0.26149723
-0.1615947
-0.34616342
-0.14857545
-0.33582708
0.25843662
0.24139132
-0.083351865
-0.1602052
0.245849
-0.17929591
-0.24434063
-0.3594321
0.20422734
-0.32134828
-0.13012499
-0.3378727
0.048047513
-0.25068033
-0.070338845
-0.09877287
0.13795316
0.13966224
-0.3351595
0.17669956
0.20024489
0.036572676
0.14279696
-0.0985931
-0.30664596
-0.07166411
-0.3231545
-0.026389042
0.18499579
-0.24630335
-0.20495917
-0.020785853
-0.54147726
-0.31345022
-0.31885815
0.2762513
-0.19658649
-0.23334774
-0.12295869
0.016081689
0.3102602
-0.2925454
-0.15453492
-0.043037303
-0.07793494
-0.33722085
-0.028431265
-0.12070864
-0.08726457
0.2958408
0.2504204
-0.104002476
0.10652554
0.30086032
-0.21971299
-0.2615607
0.2737625
-0.16641258
0.26637977
-0.18483849
-0.13798161
0.03104447
-0.08683022
0.2578857
0.09449846
0.23193115
-0.17381471
-0.03260411
-0.2977237
-0.415057
0.20060274
-0.2818955
0.15881008
0.035480704
-0.12644583
-0.07828951
0.2721869
0.11747182
-0.21309978
-0.090033956
0.2768003
0.24699289
0.016092615
-0.13679805
0.21834421
0.12993751
-0.19471133
-0.22144383
-0.26252067
-0.2658321
0.26793545
0.122486204
-0.31355283
0.22335155
-0.1941714
0.08606214
-0.062208332
0.24457794
-9.6028496e-05
-0.3240419
0.17248932
0.029504854
-0.05969046
0.18457069
-0.26151332
-0.47432807
-0.11329617
-0.14139637
-0.27594325
0.26984861
0.26358598
-0.29565194
-0.15694723
-0.2832497
-0.11841379
0.20292978
0.15805532
0.16114512
-0.27850422
-0.07975775
-0.1489742
0.19909537
0.08179431
-0.25196436
-0.008989227
0.015482054
-0.40808126
0.22671533
-0.1586595
0.21506982
0.28762683
-0.32736447
-0.089131564
0.11071352
-0.07978482
-0.06359818
-0.2877435
-0.2607749
-0.1842718
-0.097604066
-0.20153823
0.004498975
0.28633094
0.2956288
0.18984844
0.19129092
-0.00067672186
-0.247312
0.25834838
0.1861723
-0.3102797
-0.26053682
-0.07383659
-0.35527587
0.1525125
-0.25763118
-0.15680508
0.20986319
-0.1207346
0.1552392
-0.2173631
-0.047413804
-0.21801256
0.20321682
0.23696005
-0.3998159
-0.029474428
0.16762032
0.014019442
0.16043182
0.25494128
0.20188446
-0.12114981
0.11957202
-0.16924763
-0.20948258
-0.25062516
-0.28308535
-0.098224804
0.20741162
0.18808405
-0.18237913
-0.32092103
-0.30720142
0.23313086
0.21789275
-0.004443687
-0.022861088
0.2496518
-0.36958447
0.26051104
-0.16122857
0.1998891
-0.24604191
0.25556666
-0.29589885
-0.060711205
-0.1593522
0.27601436
-0.37379986
0.2478552
0.014064067
-0.35574546
-0.07482856
0.17217386
-0.23184915
0.2225468
-0.2335768
0.106156416
-0.21815698
0.23132546
-0.27088812
-0.22803907
-0.19097781
0.19594836
-0.22325855
0.25178102
-0.20127976
-0.24384105
-0.115598
0.026808122
-0.2952684
-0.10090427
-0.21020067
-0.12828848
-0.29541928
0.1862004
0.21366599
-0.09670065
0.14858964
-0.06741284
0.24117248
0.033247225
-0.24250776
0.11181958
0.089417
0.023336131
0.1424233
-0.49636078
-0.24930023
0.21689379
0.25883067
-0.1600571
0.20349458
-0.25770402
0.18735693
-0.12782367
0.2246185
0.24276869
-0.04855001
0.16887586
0.23942061
-0.40483603
-0.11889861
0.23969041
-0.05819075
-0.20088436
0.100660965
-0.3151989
-0.21467686
0.23887967
-0.34094757
-0.18595201
-0.17352709
0.18937643
-0.33705893
0.2063189
-0.19529131
-0.36191413
0.2510733
-0.13118605
0.1204401
0.048840076
0.2674377
-0.25824773
0.12177851
-0.088178515
0.035495058
-0.20366636
0.055086162
-0.37007567
0.05015811
-0.2711214
-0.10351297
-0.15377277
0.23218922
0.24966815
-0.26426584
-0.30912343
0.19075045
0.2283383
-0.101576164
-0.22705638
-0.23408602
0.17342527
-0.01046838
-0.33822846
0.13579868
-0.25066558
-0.29099378
-0.28805357
0.17957088
0.17327309
0.14395016
0.17941937
-0.17921583
0.200994
0.039589483
-0.27037108
-0.20420209
-0.3955892
-0.39381197
-0.09351182
-0.063634686
-0.19484742
-0.19447212
0.22672512
-0.0004971172
-0.04680307
0.10602169
-0.14183933
-0.026206415
0.09119797
0.06389804
0.012185299
-0.09629514
0.040541973
0.16713127
-0.025669098
0.0656468
0.0048260707
-0.21723025
0.025338551
-0.006705928
0.22207232
-0.1319876
-0.073341615
0.093221776
-0.13106239
