0.037494056
-0.0114388
-0.00015512243
-0.03308232
0.021703344
-0.0051305294
-0.021140652
-0.008463373
-0.014661248
-0.022027632
-0.04226688
0.005722741
0.013444626
0.005776601
-0.010528119
0.033242878
-0.005938715
-0.01686322
0.002215544
-0.012125039
-0.035354145
-0.01410217
0.0046414896
-0.0035137893
-0.020902835
-0.025243597
-0.00058509543
-0.010378755
-0.028784605
-0.04042151
0.018120857
0.009584696
-0.027605167
-0.036276285
0.02350121
0.03815186
-0.0009391793
-0.0066596004
-0.026970243
0.0018521043
0.015045819
-0.026745789
-0.032672126
-0.018467167
0.014742344
-0.033324882
0.024221182
-0.035942335
0.02597098
-0.044067197
0.013160376
0.027212879
0.030899609
-0.016424447
0.01451099
-0.0026350378
-0.032168854
0.027121011
0.029366914
-0.018799074
-0.024890566
0.01723415
0.03156522
-0.0056859683
-0.023205662
-0.035252698
0.006920352
0.005363233
-0.00653394
0.007881628
0.024244294
0.02057949
0.043911397
-0.0031906534
-0.044586025
0.024842866
0.045486744
-0.007895763
0.044499017
0.018517686
-0.00069649925
-0.015893964
0.01607861
0.048440114
0.0036222804
0.025794003
0.031118399
0.054056067
-0.038493484
-0.04880834
-0.023132984
0.01704707
-0.0005267887
-0.017986828
-0.027026135
0.029750276
0.05572414
0.0523302
0.010392138
0.034999516
0.020816954
-0.02615485
0.033896513
-0.016540041
0.022931857
-0.019806664
-0.036994476
-0.01173417
0.0076929387
0.028077459
-0.01634081
0.002741739
0.013182239
0.045791715
0.02038956
-0.009434141
0.008141718
0.008770544
-0.015905466
0.04389422
0.038177483
0.013855131
-0.013606041
-0.01634418
0.0016159455
-0.031910595
0.010678822
0.029070573
-0.018061757
-0.02976579
-0.042708214
-0.024723202
-0.02046244
0.016185453
0.025169592
-0.008364593
0.013971113
0.009159632
0.013926301
0.0056961896
-0.040615648
-0.0019287801
0.013524812
0.00063520734
0.00047695922
-0.011389152
0.037542086
0.0063500325
-0.014687904
-0.0085887
-0.0016638709
-0.023566341
-0.013816457
-0.037778914
-0.010400672
0.005189236
0.005566479
-0.026280873
0.015412016
0.032689128
-0.011377996
0.01459098
-0.021614738
0.03666421
0.030190697
-0.008448718
0.012206183
-0.0016210614
0.031165402
-0.014179569
0.0011893935
0.027797908
-0.03000649
0.03805164
0.003186772
0.012885327
-0.0027416863
-0.005500659
0.036763445
0.015405934
-0.011138296
-0.028013792
0.028451331
-0.004162909
0.042402875
-0.005996778
0.03194074
-0.006148734
-0.0017970995
-0.021821994
0.0009087589
0.015723476
-0.015463666
0.03127638
-0.037623648
-0.011077839
0.012594164
0.033579487
-0.011645881
0.0020832547
0.00811515
-0.007972215
0.00015755086
0.03874315
-0.029842531
0.032161154
-0.008793207
0.039667025
0.0077328365
-0.03790729
0.023799507
-0.0018902322
0.04192449
-0.004983621
-0.0077076834
-0.026194852
-0.053840533
0.02048584
0.02708091
-0.018379536
-0.010072034
0.004683742
0.031013906
0.05356352
-0.009472724
0.031188756
-0.014966256
0.006360339
-0.014924366
-0.0038469257
-0.033881903
-0.009623186
-0.0008659017
-0.0058311317
-0.014048895
0.0049724355
0.021845534
-0.027535502
0.015384773
0.007301407
0.034901973
0.014966917
-0.0155919315
0.025268206
-0.011977253
-0.037304927
-0.005894926
-0.0107921595
-0.012520657
-0.0055806288
0.030229468
-0.00083160383
0.008131728
-0.0066859433
0.017004434
-0.0029954899
0.0039448063
0.006543663
0.011115265
-0.028663345
0.019643318
-0.03251234
0.0074091665
0.008554845
-0.023416327
0.019519428
-0.012442756
0.02261793
0.041654132
-0.009454262
0.016986385
0.0006888465
-0.012529075
0.016359475
-0.025774855
0.05238555
-0.03739184
0.009184846
-0.05285963
-0.020416344
0.009918035
-0.014185231
-0.040621225
-0.01806283
-0.010838585
-0.027849637
-0.017085118
0.018469226
0.009454524
0.0146792075
-0.03332762
-0.024595384
0.01152366
-0.022067886
-0.012322982
-0.022218006
0.03753134
-0.041132722
0.028036674
0.03715331
-0.043035485
0.019040361
-0.015153948
-0.009872909
0.0018866346
0.00841084
-0.018401418
-0.016002629
-0.010664791
-0.019062895
0.035960376
-0.014526693
-0.0005811425
-0.007122224
0.011233054
0.03882485
0.0073561245
0.0048563182
-0.014977358
-0.0200717
-0.022446807
-0.010094891
0.034814354
0.00018090455
-0.0042789294
0.0011161743
-0.038222194
-0.03128846
-0.0067482563
0.0330761
0.02902642
0.059398286
-0.022717837
0.0077515584
0.0022732008
-0.025256913
-0.041085113
0.035613555
-0.02643809
-0.010682902
0.009601089
0.041615266
0.03896414
0.0074519617
0.013481376
0.01032724
-0.01850216
0.026675865
0.042012542
-0.01499807
-0.02472751
0.037762478
-0.0396042
-0.013659537
-0.039421372
-0.033636596
-0.0033610687
-0.018978167
0.02547283
0.033951253
0.020536354
-0.01863507
-0.003658675
0.0065553617
0.034401137
0.009530459
0.0112022385
0.028511778
0.031236747
-0.017639317
0.025422812
0.015715921
-0.001133863
-0.0019041977
0.020454401
0.034985363
-0.008882756
-0.0156734
-0.021086253
-0.02142664
0.0016300287
0.026982823
0.006403347
0.028265439
-0.03950475
-0.012901493
0.046345953
-0.02305712
-0.005525981
-0.0013427094
0.0036947362
-0.044131543
-0.031635832
-0.023736915
-0.0015892901
-0.013019965
-0.04254033
-0.0035794873
0.0032186615
0.012020806
-0.003401856
0.036919724
-0.02409564
-0.0035910078
-0.0075743273
0.014475137
0.0033765913
0.0128755355
0.010478224
0.0068130344
0.008693248
-0.0010104371
0.009716175
-0.02063091
0.0023501583
0.0030621772
0.043016378
0.015541792
-0.0035057894
0.014129174
0.014606445
0.044145733
0.026926879
-0.0027020783
0.019959658
0.010053947
0.021074263
-0.012697649
0.016984943
-0.02780444
0.037846077
-0.019658046
0.029793926
-0.008148557
0.020352252
0.0061563672
-0.015602893
0.024937298
-0.04236434
0.02185064
0.0075160493
-0.0056344266
-0.022812849
0.027175736
0.023963664
-0.002495132
0.023551753
0.025690304
0.009121696
0.007908424
-0.0034074602
0.007618364
-0.013336788
-0.030138757
0.0028542385
0.0035377354
0.02180376
-0.007182314
-0.010117694
0.057635415
0.03086715
-0.008455441
-0.011087824
0.0013571712
-0.013071518
0.007032099
0.024439842
-0.02425754
0.016339628
-0.023872592
0.0004763413
-0.036425985
0.043889564
0.043520063
0.0071982285
-0.01114439
-0.018950727
0.008499535
-0.013682672
0.027748995
0.0046684346
-0.010941122
-0.013099723
-0.009115121
0.024670996
0.0015366421
0.019308249
-0.009549918
0.009901229
0.021464733
-0.037646372
-0.03791284
-0.0019746076
-0.011101869
-0.018158616
0.03426798
-0.010502275
-0.04691965
0.0014968704
0.021374136
-0.0031707308
0.025015857
-0.014802379
0.01838082
0.013825219
0.008036191
-0.017498001
-0.0031090854
0.009785789
0.021666013
-0.010710541
0.023582406
0.03020017
0.025743568
0.019764636
-0.028965816
-0.01814726
-0.017922014
-0.00799285
-0.0061146505
0.018782951
-0.040072843
0.016604826
0.018562524
0.043145996
0.02134751
0.02856133
0.0014110657
-0.024017978
0.0101854075
-0.00034166317
0.06851282
0.020734407
0.011768138
0.030377887
-0.0258086
0.0032877529
0.017296473
-0.022405501
0.004948375
-0.008939885
-0.00913368
-0.002205531
0.016973581
-0.034900166
0.0030580726
0.05200633
-0.02697742
-0.009576788
-0.008009497
0.016397644
-0.018439947
0.0112325875
-0.00036655317
0.015970638
0.0009365688
-0.020246655
-0.030225383
0.06395239
0.01644936
-0.03526953
0.02931277
0.027888527
0.042680103
-0.02466394
0.02495113
0.03236771
-0.013286866
0.0044533517
-0.011590481
0.045133088
-0.0019383549
0.0075057484
0.013632716
-0.009500401
0.0015483595
-0.011422586
-0.0043405015
-0.026889117
0.0090149315
-0.05674516
-0.014999845
0.022761306
0.00052867836
-0.002283308
0.012412359
-0.00467593
0.041363955
0.027114138
0.013357435
-0.040597215
0.018391553
-0.0020902017
0.033725817
-0.004778207
0.04915042
0.023588417
0.046534766
-0.007934168
0.05173482
0.022621
-0.029231854
0.0068387543
0.013076898
0.034491554
0.030462673
0.019242333
-0.012179411
0.027127625
-0.01878924
-0.017344879
-0.015197375
-0.0021942565
-0.027151177
0.0121546285
0.046992227
0.0027817343
0.01715566
-0.018157905
0.009839612
0.0073337364
0.015071652
0.052209128
0.02431176
0.04492227
-0.017479692
0.014617281
-0.0024934919
-0.010265759
0.01625085
0.01963493
0.004393483
-0.022425663
-0.019253474
-0.007683554
0.03698359
0.003974817
-0.0036057457
0.029083164
-0.031864673
-0.015535744
0.036992367
0.013814782
-0.035496768
0.018969204
0.0137506295
-0.017923754
0.029784383
-0.02204224
-0.031880494
-0.025995458
0.03383174
0.05982942
0.018032009
-0.0058400203
-0.017688101
0.004485037
0.05767753
-0.007816932
-0.012873869
0.017922523
-0.003734503
0.0022246493
0.010370989
0.009175959
0.015307882
-0.037271164
-0.018729346
-0.028076677
0.02282011
-0.03475847
-0.009605283
1.4122887e-05
-0.03610465
0.05245639
0.020124128
0.033494353
0.04657517
0.009506703
-0.012968442
0.016368568
0.01868764
0.017390106
-0.016693018
-0.021236166
-0.021584814
-0.012198172
-0.033879645
-0.013234681
-0.0016668205
0.006486907
0.035286292
-0.00853444
0.007664928
0.007048389
-0.00422401
-0.00031476535
-0.021810446
0.0010931924
0.0035085995
-0.01066844
-0.0238146
0.022048019
0.00023824786
-0.025998699
-0.023312429
0.010115879
-0.03125944
-0.034206174
-0.006963
0.016749388
-0.0044106757
-0.0019011921
0.04592653
-0.028921528
0.028619854
-0.02170939
0.042847544
-0.0009723489
-0.034120772
0.018832609
0.018930322
-0.013893364
0.02314284
-0.027055975
0.008275482
0.0073996847
0.01061855
-0.011675402
0.00038289998
-0.023019848
-0.014796466
-0.009747719
0.036098663
0.021473816
-0.020266347
0.02461448
-0.035438675
0.007459496
0.015227452
0.014620462
0.032768246
-0.0010699856
0.041454207
-0.028849678
-0.013687575
-0.008315502
-0.014289716
-0.0066298614
-0.0049566817
-0.028455287
0.01692917
-0.033163812
-0.021547027
0.010169442
-0.00017320129
0.030770272
0.012082906
0.0012539487
0.004749073
-0.007954701
0.00031954495
0.040229686
0.017036349
0.009362919
-0.0013744226
0.02604628
-0.04251038
0.017688118
0.031958334
-0.0005004802
-0.036739524
0.011876688
-0.012286445
0.00640543
0.012833749
0.026612887
0.037658148
0.012726466
-0.010977299
-0.0028592064
0.019298866
-0.012825898
-0.0036712394
-0.018740447
0.004984862
-0.028969666
-0.0011359411
0.0010060658
-0.025062446
0.005312522
0.007475403
-0.013388971
-0.02201015
0.034246873
-0.010626916
0.037611865
-0.030667339
-0.00561238
0.015414293
0.0014483373
0.01586666
-0.034766734
-0.022331582
-0.01813036
-0.025507221
-0.004269989
-0.0046012653
-0.0065945946
-0.020671258
0.014541035
-0.025131568
-0.007816237
0.035484646
0.020606425
-0.0019029967
0.017654767
-0.002144253
-0.0071227304
0.024573391
-0.0138911465
0.030054666
-0.013958274
0.018493237
0.014162253
-0.032494523
0.006247861
0.031733003
-0.003024503
0.019454392
-0.0031344627
0.0035163935
-0.009289048
0.049157824
-0.029182447
8.1484795e-05
0.013831676
-0.03891272
0.007897066
0.024985768
0.023798717
0.021914633
-0.028386237
0.0003758828
0.009137155
0.018141486
-0.014729067
0.023429722
-0.02668042
0.01146997
-0.00408402
0.014684032
0.023143295
0.015248317
0.011277087
0.005412516
-0.017059103
0.016033975
-0.00915447
0.033619784
-0.017493581
0.0022671446
-0.0005046866
0.009473538
0.022164524
0.028068941
-0.0041052997
-0.009330206
0.03180419
-0.015873676
0.019171612
0.010456164
0.011149906
-0.01315517
0.0072846087
0.04363696
-0.0018892038
-0.04209825
0.009157478
0.0057452293
0.0020099415
-0.024987826
0.01851239
-0.0049522603
0.01993835
-0.015090764
0.001857523
0.007836663
-0.024070833
-0.042040046
0.016840545
-0.015885051
-0.010483444
-0.027053617
-0.019002866
0.016258243
-0.0065634646
-0.028529791
0.010672469
-0.011066328
-0.0073352945
0.022581153
-0.0164861
-0.021063974
-0.0095003415
0.0009820284
0.0010781938
0.024677558
-0.029595098
-0.038281612
-0.00731683
0.004475595
-0.032082822
-0.0066711386
-0.016781695
-0.0140906675
-0.008084109
-0.0049423547
-0.0014852046
-0.028123982
-2.2659837e-05
-0.026678683
0.0104954
-0.020429458
-0.001193547
-0.009549417
0.027495142
0.002529798
0.013641316
0.01133355
0.018362686
-0.017237334
-0.024943199
-0.020711556
-0.01805198
-0.010649619
0.0234509
0.021602182
-0.009940224
-0.010408351
-0.016208502
0.009454662
-0.014981644
0.018436134
-0.019153876
-0.033899963
-0.0014173324
0.017346634
0.0016584103
0.029469451
-0.0149855735
-0.004067072
-0.0046496196
-0.027592199
-0.018276474
0.019548977
0.013396611
-0.009441789
0.017470822
0.012400715
0.0026457203
-0.013330768
0.0035586273
-0.005333513
0.024249999
0.034372006
0.015303966
0.011633518
0.026675826
-0.016919129
-0.017577685
-0.022159979
0.0045410073
-0.01276183
0.02776395
-0.005377555
0.007354454
-0.0111060105
-0.0025093157
0.0059048003
-0.029537376
-0.026887748
0.026992738
-0.010092113
-0.02474835
0.016279755
-0.009408758
-0.018048324
-0.029803112
-0.01487113
0.014323052
0.01803723
-0.011149244
0.004850003
0.025954068
0.01727313
-0.018846907
0.024732247
-0.0038429294
-0.012109456
-0.022949073
-0.0134131955
-0.027032336
-0.008425099
-0.017935291
0.018221527
0.015114203
-0.02991739
0.0059617516
0.036240023
-0.028865265
-0.013049527
-0.020689437
-0.003995103
0.004308907
-0.02895852
-0.0151680205
-0.00029434066
0.027011702
0.01711291
-0.0053500724
-0.012669562
-0.025345493
-0.020805275
-0.008974253
0.0006444102
-0.016010342
0.05124802
0.017908784
0.00644776
0.006049367
-0.006174499
-0.052845184
0.046711046
0.020272575
0.0049858666
0.016180502
-0.030196989
-0.033699535
-0.025952753
0.038327806
0.02164858
-0.00028189868
0.030000448
0.007163686
-0.010055564
0.026492402
0.029000822
0.024813754
0.017513372
-0.022177503
-0.030055424
-0.024076752
0.023683628
-0.023056151
0.023121305
0.0009087029
-0.040396847
0.01877395
-0.021968942
-0.014531656
0.020404054
-0.004038184
-0.03382756
-0.027746044
-0.009704808
0.00430159
0.008362974
-0.015733525
-0.0042282953
-0.0023833446
-0.0326551
0.03009174
0.008871502
0.03455161
0.020337777
0.021452663
-0.020475112
0.050763488
0.00935643
-0.0019842729
0.0128153
0.04645939
-0.017945563
0.008023654
-0.022829382
-0.0019871222
-0.0082110865
0.02981705
0.047765784
-0.033915933
0.01877979
-0.020277422
-0.007116447
0.019008273
0.014973215
-0.029307794
0.014924818
-0.044791233
-0.023505831
-0.01574012
0.011776736
0.020215983
0.023458924
0.012000894
-0.019290863
0.004116678
0.02387775
-0.039762963
0.04154503
0.0056251455
-0.013924411
0.021664863
-0.01879145
-0.010794807
-0.02300243
0.020935616
0.02271647
0.03710707
0.029019281
-0.040841036
0.039961282
-0.01144276
0.023447124
-0.008176175
-0.011656893
-0.00046976167
-0.020165782
0.00064688694
-0.0044217943
0.020020992
0.0018003989
0.011122409
-0.010479757
0.0038185492
-0.035294592
-0.0063306256
-0.0020472507
-0.0057402784
-0.025936645
-0.016488656
0.01443759
0.046918646
-0.049995508
-0.015792137
0.005532932
-0.020743646
0.03429013
-0.04541447
0.01802691
0.0041673733
-0.008870755
0.028361512
-0.015465361
-0.014391631
-0.03132815
-0.0211793
-0.01639785
-0.0031560094
0.004404863
-0.031195505
-0.008179847
-0.0036311555
-0.0075581684
-0.008115156
0.0047340523
0.032342106
-0.003900327
-0.018231567
0.020272547
-0.0042940145
0.015582682
-0.00016399298
-0.004979096
-0.0051234392
-0.013394211
-0.01641871
-0.006429493
-0.0115675675
-0.027506666
-0.013099121
0.013917591
0.0012573841
-0.03590877
0.029350419
-0.013873361
0.008229531
-0.02812717
0.018682698
-0.018449396
0.021742802
-0.013727903
0.032342076
0.021245854
-0.028172256
0.028567484
-0.00771256
-0.00755271
-0.04274289
0.027777141
0.00025150407
0.007925646
0.02053044
-0.019854482
0.01286384
0.0025921953
-0.0081634065
0.031531617
-0.01044195
-0.005563167
0.010399743
-0.015946044
0.018403491
0.037408844
-0.028469821
-0.023869958
0.0002298021
0.011309094
0.028777177
0.021897964
0.0362544
-0.028777802
-0.019439673
-0.02746087
-0.0004746841
-0.0019565069
-0.026359303
0.012771865
-0.04522516
-0.0010750677
-0.0018897499
-0.017114647
0.046610206
-0.0018513341
0.030631661
0.022438848
-0.028577812
0.0060159634
-0.01401389
0.017570002
-0.026753582
0.035993453
-0.020161055
-0.0172111
-0.020456592
0.026644057
-0.025354963
-0.011493145
0.002865674
-0.008000101
-0.002744945
0.03764585
-0.009294939
0.01677716
0.02152018
0.05238928
0.009001383
0.024599295
0.003749486
-0.0020599477
-0.023062177
0.018238502
-0.027018428
0.026795432
0.016545013
0.0045451513
-0.0036596318
0.025061417
-0.0014893251
0.010358642
0.025016068
0.002197634
0.045188755
-0.022414757
0.0028709471
-0.01754478
-0.0046083457
-0.028762218
0.010249137
0.02448419
0.022124387
0.0010304486
-0.027500102
-0.005807411
-0.0367836
0.0090530515
0.043960307
0.01170391
0.01667168
0.009767845
0.03088971
-0.045539297
0.019873474
0.010676073
-0.01727649
-0.00082075415
0.027297694
0.027877456
-0.020116674
-0.04631334
0.051215395
0.016699936
0.0018898323
0.0038035458
-0.03781556
0.0531053
0.021811452
0.020068966
0.042624746
0.0019291987
-0.020201204
0.0086784335
0.0053294436
-0.008930277
0.021716125
0.008144575
0.014639354
-0.023384212
0.019749261
-0.004549681
-0.02622172
-0.012771231
0.03128769
0.016365618
0.021835184
0.0071354173
-0.010836884
0.04192014
0.021357628
0.040333673
0.024288593
-0.034772117
0.04056459
-0.0053151003
0.023701863
0.026848799
-0.0016318054
-0.004263308
-0.025656145
-0.0027327777
0.02597612
0.0037775664
-0.032985177
0.0007274975
-0.005302057
-0.013300037
0.025447397
-0.026765833
-0.010259502
-0.0067226416
0.022487085
0.010867165
-0.034051836
0.020735398
-0.00027186007
0.013451457
0.042318117
-0.0055656196
0.0057717897
-0.015738284
-0.009945398
-0.015322312
-0.05451331
-0.034571696
0.0011031083
-0.02737718
-0.03665353
-0.043407224
-0.0345952
-0.047152296
-0.025350723
0.017937915
-0.010348891
-0.00025667882
0.009783235
-0.028513681
0.0022291
-0.0068984306
0.0027238126
-0.008028353
-0.02324438
-0.01566572
-0.0155547
-0.029776895
-0.005384195
-0.009638459
-0.0022279772
0.007947907
0.042816862
0.035214745
-0.04265143
-0.02382456
-0.022975508
-0.016945763
-0.013553681
0.023980845
0.00060032203
0.0037519957
0.005103092
0.0042013135
-0.014333344
0.002789185
0.019226324
0.021588063
0.04788105
0.04197494
0.01583502
-0.033829346
-0.0017311771
-0.0140618635
0.003783593
-0.024642749
-0.013875682
-0.004458962
0.002155178
-0.0028139446
-0.0024869994
-0.017036973
-0.015428098
-0.0024660756
-0.025051912
0.0064099496
0.047848847
0.008206409
0.023439419
0.038250703
-0.0016088075
0.042646848
-0.00163434
-0.029714588
0.024225522
-0.013795021
0.032803662
-0.00095510203
-0.03602201
0.0061544403
-0.0003708163
0.025036015
0.015488549
-0.013992143
0.010189103
-0.03632908
0.029917624
0.0034341598
0.024915896
0.03150612
0.017298304
-0.0022081274
0.015218329
-0.007960278
-0.016579328
-0.010141676
0.03207601
0.0267769
-0.028318765
0.016737493
-0.029612105
-0.011153596
0.0029679276
0.0010291466
0.0067482386
0.02945884
-0.040758967
-0.0099488
-0.010188742
0.0011162945
0.07083654
-0.0027467099
-0.040485594
0.02204909
0.025130998
0.026762662
-0.052290995
0.007597566
0.019553075
0.0025977308
0.018486822
-0.01660448
0.036948685
-0.010787497
0.02441423
0.013802356
0.033195984
0.032504242
0.015840182
0.027385373
-0.009599702
0.031717684
0.027872074
-0.0059419023
0.0065869177
0.013692814
-0.020710865
0.026913507
-0.034393776
-0.034045875
-0.011492349
0.028305078
0.011298232
0.0014919597
-0.018243972
-0.030048784
0.02241709
-0.004420408
0.041484497
0.018733418
-0.016239522
-0.027027935
0.036518935
0.016632851
0.038041383
0.026841229
0.022613056
0.000752101
-0.039360344
-0.02286497
0.016053634
0.015213028
0.018651504
-0.02456473
0.014935838
-0.018675318
0.006841469
0.024078613
0.0065727658
-0.03565865
0.018180529
0.023640385
-0.018957889
-0.010764948
0.029949734
-0.0018005043
-0.014500838
0.003698331
0.007053131
0.026898798
-0.042219054
-0.019456735
0.0031790386
-0.0052389014
0.0050683008
0.0047378712
0.00874718
0.021778997
-0.033947613
0.011016704
0.0018966434
0.027490923
0.010691273
-0.04692747
0.0235702
0.011928562
0.03658963
-0.041583996
0.0028349482
0.0025300349
0.0056107463
-0.030755045
-0.0042366725
-0.013469012
0.023718957
0.045218658
-0.014020992
-0.05781711
-0.016526014
0.03228738
0.010021167
0.007740465
0.023895333
0.05369631
-0.013451178
-0.021215579
0.0060795546
-0.00082366384
-0.019558994
0.035506107
-0.021397622
-0.004982064
0.011499119
-0.0141706355
-0.005492883
-0.016594544
0.0014577978
0.033441752
0.038029723
0.0033166653
-0.02039829
0.029101163
-0.031208852
0.020248247
0.01056825
-0.0022490013
-0.012994328
0.05275441
0.0003221014
0.009694144
-0.03350448
0.0008795753
0.02785944
1.1120086e-05
0.002125456
0.03753773
-0.040996928
0.023774428
-0.0057633715
-0.0055299406
0.023627726
-0.0047560236
-0.009174616
-0.0006098945
-0.00055230584
-0.037212264
0.011236574
-0.012248218
-0.01088927
-0.009122122
0.07049674
0.026534738
0.014431917
0.0069998065
0.03314446
0.009652281
-0.0131275905
-0.0048524966
-0.017591871
-0.034156505
0.047929138
-0.014920049
-0.0074368813
0.0036181423
0.013821033
0.0162315
0.047324967
-0.0097902
0.006445546
0.042526096
-0.002495014
0.005320219
0.014552186
0.01879059
0.029654965
0.027913991
0.0026362585
0.019784026
0.026628392
0.024262438
-0.0043724705
0.055691514
0.037415534
0.041921504
0.032907784
0.021001928
-0.04287522
-0.014692036
-0.03632468
0.010562678
0.017698336
0.013050254
0.026383417
-0.04622728
-0.026051879
-0.0030847762
0.022959184
-0.013857361
0.00265143
0.00037992938
0.049397375
-0.0020117105
0.024750419
0.0028290737
-0.010612945
-0.0013900269
-0.020732658
-0.006640096
-0.01640445
0.0016900178
0.023994856
-0.007713972
-0.012522611
-0.02463682
-0.020678455
-0.011776588
-0.017977266
-0.0069856513
-0.0011721362
0.028402865
0.0041559557
0.014239037
0.03754187
-0.02009495
-0.018972823
-0.023840467
-0.008038943
-0.00033533742
-0.019820716
-0.005248304
0.033323426
-0.017518206
0.008460077
0.02140969
0.01423818
0.020249546
-0.0045260275
-0.0076034046
0.0040919674
0.00064689224
-0.009805598
-0.033328984
-0.011862916
0.0010774253
-0.035759516
-0.019857634
-0.012387544
0.002415757
-0.004032242
0.009946114
0.018417813
-0.016005345
0.020792754
0.009293288
0.026400931
-0.029053377
-0.0073872916
-0.012251155
0.011903063
-0.053343806
0.007270153
-0.01051151
-0.020319996
0.014004302
-0.029646657
-0.016241757
-0.038013466
-0.0122582
-0.0028042966
-0.0051893843
0.010272007
0.0156122325
0.014546486
0.013796647
-0.022002628
-0.013632996
-0.029733218
-0.016310034
0.04443878
-0.042598303
-0.028442932
0.031948313
0.0047301156
0.027689863
0.0055072666
-0.027816689
0.029678475
-0.0141266165
0.012882853
-0.011743621
0.001554478
-0.011393808
-0.03613706
0.026086701
0.015984057
-0.0019674394
0.007283535
-0.023260998
-0.03056632
0.020831142
-0.03559549
-0.016886476
-0.033851206
-0.005423372
-0.027116267
0.0034575132
-0.028451325
0.004064984
0.021908134
0.0563027
0.028896324
-0.0023453324
-0.021711636
0.025259448
-0.010617808
-0.012831322
-0.034496084
-0.0036879026
0.015462534
0.020714307
0.007382402
-0.000275215
0.01399695
-0.04056464
0.0045998106
-0.03572189
0.0036142461
0.017865345
0.03338548
0.02434206
-0.008060134
0.009484417
0.002485614
-0.0066943234
-0.0027557083
-0.028519701
-0.006161127
-0.009643649
0.0483716
0.0063119326
-0.01798075
-0.0013427604
0.03824296
0.015995177
-0.005463533
-0.015228759
0.0070958296
-0.0024403809
0.019331237
-0.003779172
-0.022891028
-0.019790435
-0.0016605031
6.800874e-05
0.0028616474
0.013930418
-0.01272314
-0.019564733
0.014125394
0.035066973
0.021788243
0.0060940282
0.012250236
0.0052090897
0.027910892
0.001711385
0.0039627412
-0.0013618061
0.023501782
0.021501524
-0.017868657
-0.012713307
0.012844582
0.015478118
0.012551952
0.050415598
0.031744644
-0.03101885
-0.022800492
-0.00528583
0.031269215
0.023595167
0.02759784
0.011796342
0.0008662393
-0.0015300682
0.008278892
0.0317709
-0.031516455
-0.009598406
0.03689208
0.018842742
-0.016935319
0.008550093
-0.029375242
0.016845543
0.024507325
0.0025989448
-0.0046739876
0.0024558073
-0.03412238
0.032140225
-0.0048430604
0.0069152755
0.052769434
-0.00715104
0.039646752
-0.022512602
-0.021791296
0.0049355575
0.016873626
-0.027957479
0.0009094698
-0.0006734031
0.019287664
-0.0050113667
0.027695319
0.04870624
0.03820856
0.015781946
0.009090217
0.027444754
0.02787926
0.010416003
0.008175476
-0.014325463
-0.013815804
-0.0023622639
0.016066333
0.021003125
0.026096256
-0.023573594
-0.02250115
0.017155468
0.013815697
0.040231347
-0.0038500244
0.013526311
0.03217727
-0.031840544
-0.02147322
-0.0002799375
-0.0067022825
0.03130181
0.009475538
-0.018581478
0.0321696
0.021477347
0.036448453
-0.00097351894
-0.016215285
0.026207987
-0.010601782
-0.02569095
0.006750205
0.026265927
-0.0062554893
-0.04256626
-0.03886795
-0.018154828
-0.021856025
-0.0035850436
0.030083934
-0.02126632
-0.032979745
0.026313804
0.007571729
-0.033970904
0.018821334
0.010630961
-0.0270005
0.0054172273
-0.0107820975
-0.03154505
0.01455645
0.021115888
0.0088135805
0.008227991
0.015901228
-0.010070205
0.016821552
0.005274195
0.018249953
-0.008846947
-0.029262954
-0.011478748
0.010155493
-0.016523987
-0.010380162
0.017857453
-0.015028653
0.015610455
0.0022769752
-0.014503187
-0.028814988
0.01295242
0.0061067184
0.015188612
0.0058837538
0.054360338
0.005042695
0.053705137
0.016913196
-0.013488462
-0.04155747
0.04203436
0.009908762
0.0076676537
0.013734494
0.017325299
-0.0075705517
0.04908902
0.012308647
-0.0016736323
-0.01594863
-0.0037824325
0.03265224
0.046946596
0.0027483439
-0.029318148
0.029862834
0.009593507
0.035234023
0.003342676
0.016154002
0.03025159
0.022984125
0.0192031
0.03248336
-0.013567256
-0.012105067
0.0006727364
-0.011147914
-0.019387824
-0.017126126
-0.028167073
0.029986493
0.00574898
-0.021130815
-0.033677444
0.012812269
-0.034273103
-0.0012706843
-0.011464475
0.00097289064
-0.0046590064
-0.039154742
-0.009288694
0.006146898
0.017852193
0.008656735
-0.006917728
-0.010427921
0.007608887
-0.027065817
-0.030759076
0.00093496416
-0.027393809
0.019377487
-0.0016908214
0.010019309
-0.012910023
-0.010138904
-0.0213674
0.005890096
0.005095292
0.025960965
-0.002416761
0.0053429506
-0.013040264
-0.032401785
0.0015901683
-0.036306076
-0.029059688
-0.01870223
-0.0041237976
0.0053014304
0.003167361
0.031268556
-0.039799683
0.012404149
-0.0001339959
-0.012665126
-0.001175879
-0.010730048
0.014736371
0.0032762417
-0.00271299
0.032345433
-0.017653886
0.013352901
0.0069843372
0.027574996
0.016960388
-0.0004438156
0.018623587
0.03705612
0.004695841
-0.013512242
0.022791661
-0.010321214
0.013046232
0.009244624
-0.026198374
-0.013552806
0.010524155
0.010943827
0.022967532
0.028746689
-0.0031070758
-0.004017273
0.009486878
-0.0025444913
-0.0044652843
-0.026361907
0.0062048445
0.013212699
-0.009635955
-0.0070069097
0.0011551309
0.0008068065
0.024788432
0.0103066815
0.023039188
-0.018725667
-0.04486041
-0.01762873
0.010992553
-0.0015452395
0.016230235
-0.005800528
0.013342878
-0.008505814
-0.0015934457
0.023593888
0.0052498234
-0.009574183
0.011879965
0.016620912
-0.0135336565
0.027584406
-0.03523886
0.005312771
-0.022218069
0.025958527
0.023753796
-0.01256985
0.0015421087
-0.029461684
0.008452011
-0.05256816
-0.010011808
-0.012969401
0.024776863
0.015616522
0.016473074
-0.0029842416
-0.034497704
-0.021231795
0.02124374
0.027245935
-0.010606794
0.015868781
-0.018337952
-0.02133114
0.0016322888
-0.016892426
-0.0027337242
-0.009274442
0.008282957
0.05420044
-0.01865895
0.026900154
-0.015008001
-1.1739892e-06
-0.012009271
0.040962934
-0.036754202
-0.013740232
-0.037650134
-0.013256716
0.027671734
-0.03106833
-0.010965282
0.0010710881
-0.005235718
-0.021020543
-0.01644854
0.022895947
0.02431711
-0.05235389
0.008379133
-0.0061072367
-0.025859233
-0.004042379
0.030817581
0.019032663
0.010115904
0.023536792
-0.0034359025
0.008167288
-0.048132118
0.005251331
0.04597209
-0.024546314
0.029071879
0.0030672434
0.022596031
0.0062425854
-0.00045456656
0.034814723
-0.021154188
0.010459396
-0.0038791883
-0.024728242
-0.005587542
0.0070613325
-0.020088641
-0.016062712
0.04088769
0.022007093
0.030910213
-0.017918315
0.025702663
0.014144322
-0.00072755845
0.014278682
0.0062920777
-0.0063477266
0.0032568926
0.03661742
-0.0538006
-0.05900091
0.020618418
0.0067164507
-0.03194877
0.019917848
0.013705885
0.005262111
-0.0013536398
0.005623616
-0.002634605
0.023141833
0.017675178
0.017367544
-0.0055308705
-0.01506917
0.01774804
0.023860049
0.014831244
0.008730096
-0.028333299
-0.0270387
-0.0043632267
0.00013978212
-0.02039876
-0.005452623
-0.019646283
0.060689595
0.029599546
-0.030694317
0.00011243974
-0.021455562
-0.002527859
0.02472748
-0.013672912
-0.0028730975
-0.027612353
-0.02482556
0.03551981
-0.027996434
0.041748032
0.010492881
-0.027985448
-0.02291702
0.053662512
-0.023275847
0.027281132
-0.0024706663
-0.033401445
0.011971252
0.026677743
-0.018317154
-0.0035049943
0.018357182
-0.018525774
-0.019232018
0.002786799
0.053566147
-0.018889071
-0.009810502
0.002181444
-0.0037765636
-0.02138449
-0.005896666
-0.00038962835
-0.044005062
-0.0067320974
-0.026652519
-0.0014047067
-0.013972424
0.024646422
-0.026402792
0.01689243
0.017905546
0.03690294
0.021868035
-0.022334503
0.010936744
0.004246978
0.007865565
-0.018037245
-0.0029877026
-0.00867966
-0.008719784
-0.020089732
0.025551392
-0.031233609
-0.005034519
0.018930383
0.036426093
-0.020207811
0.014509918
-0.021311624
-0.027397458
0.03880733
-0.0029746431
0.02408728
-0.038217515
0.035262443
0.024775628
0.012179237
0.028422335
0.0008766332
0.023577191
0.00043177354
0.009010133
-0.022018125
0.035834458
-0.026622446
0.013134848
-0.035012208
-0.004954266
0.011525719
-0.0156142
0.01537588
-0.007424545
0.022412382
0.02796323
-0.037586667
0.022317143
-0.0062698065
0.0001262259
-0.000988944
-0.015260707
-0.010307618
0.008614136
0.023624659
0.021032168
0.0028566995
-0.0040282067
-0.017690979
0.0136839785
-0.013541754
-0.04416091
0.030298254
-0.03135157
-0.011501897
-0.004330658
0.01781538
-0.052550267
-0.0014615465
0.012650066
-0.026248597
-0.009114889
-0.007069893
0.0060614133
-0.011053146
-0.0027540058
-0.029762063
0.019406024
-0.042262953
-0.026597109
0.022841955
-0.024708986
-0.0032478417
-0.02186207
-0.03301505
-0.010409156
0.0051110196
-0.03164812
-0.006673715
-0.011763281
0.011950891
-0.025442261
0.0011714089
-0.01662823
-0.002129332
-0.016032103
0.015625782
-0.02845879
-0.043048535
0.00476791
-0.022633791
-0.014598146
-0.016425569
-0.012985484
-0.038713016
0.00567441
-0.01433639
0.021891639
-0.0041586068
-0.014111335
0.005059998
-0.030552367
0.02971771
-0.030760199
-0.01663817
0.026533343
0.018550185
-0.017734393
-0.03342383
0.022614889
-0.025971346
-0.011670828
0.01802264
-0.01112029
-0.0015289895
-0.0081490055
0.017502826
0.0012782692
-0.026288101
0.019113388
0.0014851165
-0.011479539
0.014947617
-0.011716422
-0.0009372062
-0.023127995
-0.012404282
-0.0025910032
0.031837028
0.016542913
0.05232446
0.0059455438
0.015256371
-0.013751348
-0.021788543
-0.012384602
-0.005357782
0.038640983
-0.023344584
0.004453219
-0.025310442
0.026585711
-0.022157896
0.0073864125
-0.011536288
-0.019797798
0.0016689711
0.037571188
0.049156684
-0.0071686013
0.017903218
-0.021965224
0.0033495617
-0.02139108
0.001220259
0.019312277
-0.00250399
-0.04028573
-0.019369377
0.020787142
-0.049739063
0.016963251
0.03353459
-0.0075862533
-0.016630286
0.017211968
0.014657082
-0.013466253
0.0029779554
0.034130618
-0.016955588
-0.0038284017
-0.0052171038
-0.0074182837
0.0014601655
0.0087454645
-0.0032537738
0.011531765
0.008832617
0.00036009616
0.0074381283
-0.025685055
0.0091940835
-0.0049607465
0.01612449
0.0037628284
-0.015813908
0.023493262
0.001965328
0.01577468
-0.003268119
0.008563511
-0.02055672
-0.03066687
-0.007750518
-0.004627003
0.0028499342
-0.021372493
0.020136755
0.018724034
-0.018599244
-0.002776699
0.02361481
0.006470761
0.005012897
-0.009379418
0.019454814
0.0163672
0.0061486084
0.025031814
-0.052681677
-0.031514708
0.0062196916
0.0016376498
0.016859457
-0.0060767927
0.019355463
-0.001788437
0.015854686
-0.0053453892
0.0064656097
0.005626035
-0.017320354
-0.018402582
-0.04101048
0.024787294
0.0047425646
-0.007100384
0.006173622
-0.010409982
0.0063825166
-0.0079267835
-0.023903517
-0.018547006
0.007894274
0.031485554
0.049950134
0.0020876366
0.0060618035
-0.028908148
-0.010963618
0.035436556
-0.054035835
-0.037873626
0.013979421
0.012143557
0.016090028
-0.041065104
0.038081493
0.021159653
-0.015835682
-0.013444779
0.022768203
0.0069903494
-0.00012277036
0.019552773
-0.040398866
0.0021580877
-0.021725925
-0.007747557
0.03486109
-0.008239711
-0.002689523
0.031279206
-0.019404478
0.0073396713
-0.013506007
-0.000657622
-0.0021899103
-0.011615282
-0.035518106
-0.020241393
-0.039917223
-0.009114824
0.025976334
-0.008824608
-0.008754095
0.0041809487
0.013195796
-0.0033471428
-0.023238335
-0.029381901
-0.043051273
-0.018220881
-0.020688107
0.00835248
0.03244905
0.032382626
-0.00089473225
-0.0019766646
0.01229815
0.012719844
-0.0066981185
0.010239953
0.003843564
-0.027490687
-0.008207372
0.012078531
-0.0049190354
-0.030650413
0.021214388
-0.04155116
-0.03602543
0.015130302
-0.0028079676
0.016861062
0.026525551
0.019126482
-0.014371088
0.031845234
-7.769068e-05
-0.0033961462
0.019875068
0.00013735946
-0.0121730445
0.003931931
-0.004603363
0.020647418
-0.015705
-0.04891487
-0.011613427
0.013131698
-0.007478456
-0.031124424
-0.0168424
-0.0057877614
-0.013940207
0.022264246
0.015087188
0.020443525
0.008065938
0.019473689
0.01485663
0.0015921438
0.034360513
0.026210066
-0.024789903
-0.03350671
-0.0019272522
0.0011678865
-0.0064837085
0.027289035
-0.00062653056
-0.011956019
-0.006669765
-0.025255503
-0.044289544
-0.016310956
-0.042727727
-0.04861216
0.016388468
0.035709176
0.027056837
-0.032893226
-0.0038786063
0.015269128
0.008594948
-0.0339652
0.029477462
0.0101023745
-0.010860698
-0.0064033587
0.010651115
0.005392535
-0.025050886
0.023237975
0.035976913
0.02454147
0.0359576
0.016706744
-0.015878387
-0.041970927
-0.020649118
0.0016784264
0.009489286
-0.0078005637
0.0011027246
-0.016005283
0.0032489295
-0.030073732
-0.026371507
0.009274718
0.0051487777
-0.013945951
-0.008699857
0.002230177
-0.009049015
0.0218778
-0.007102435
-0.022079691
0.027134882
-0.045963258
0.019896599
0.010256067
-0.0069673266
0.0050676577
-0.058816627
-0.00044948657
0.01857379
-0.01869619
-0.014427483
-0.046010025
0.028311271
0.01785275
0.012634275
-0.032396726
-0.005402862
-0.008107008
-0.021356463
-0.00070570485
-0.017771093
-0.00782346
-0.021046698
0.0141654005
0.012262473
0.012600965
0.010873681
-0.006780028
-0.032851715
0.042766772
0.0210707
-0.020143094
-0.036142927
-0.032069925
-4.9492365e-07
-0.014611643
0.034199987
-0.024111034
0.023688389
0.0051260414
0.02213277
-0.020386579
0.0038571388
-0.0038666062
-0.026062742
0.009872854
0.006794186
-0.030432975
-0.0073512793
0.0040729744
0.015633984
-0.018991096
0.030212132
0.015536728
-0.016089592
-0.0015714599
0.018665865
-0.013593425
-0.0035271023
0.020542793
-0.0071705435
-0.012900493
-0.010122318
0.011972089
-0.04804755
0.017739803
-0.0062229233
-0.010545732
-0.0073441076
0.00025312827
-0.0010450631
-0.045138035
-0.00093807676
-0.014260327
-0.011448388
-0.007796473
-0.033946846
0.03043394
-0.02559193
-0.019944347
-0.0051964275
0.01100295
0.029617485
-0.009459342
0.043616947
-0.027717229
-0.010534485
0.0066624475
0.0015320259
-0.00075004046
-0.017192407
-0.0082788905
0.025140326
0.017771669
0.012869836
-0.039726593
0.011983569
0.023072198
0.038723715
0.021626055
-0.03887059
0.048883576
0.0046255384
-0.0073547633
-0.009003843
0.023402663
-0.0074791703
0.011082242
0.0034854356
-0.018420942
0.004236678
-0.022850662
-0.004188991
-0.008602594
-0.02074949
0.011906578
0.030902194
-0.013876724
0.013942855
-0.010474558
0.022067076
0.01119725
-0.036415827
-0.012873175
0.00921953
-0.010779058
-0.008868302
-0.00457176
0.018708263
-0.0065994184
-0.0025514842
0.035511885
-0.014219017
0.0048139067
0.008128229
0.009756952
0.020117002
0.017783828
-0.0010668653
-0.03165827
-0.01686588
0.022836963
0.037467655
-0.0046545328
0.00070778566
0.018854083
-0.0057837786
0.04147635
0.034053363
-0.00069739
-0.006734043
0.03694944
0.014978
0.0018740678
-0.037757654
0.0088182
-0.010621614
0.01997278
-0.014937953
-0.015707685
-0.0033228106
0.005901815
0.014155908
-0.02966721
-0.0038455217
-0.01677312
-0.015812071
0.013402644
0.015640432
0.039493337
-0.043560576
0.00823559
-0.001941667
-0.009428721
-0.007224203
-0.008815722
-0.0058329985
0.020519448
-0.012909676
0.017582629
0.012848257
0.037523158
0.0012431754
0.025451675
-0.020599078
0.01061015
-0.022520475
-0.015565818
0.0017044568
0.021141099
-0.012455499
0.03732257
0.0035748456
-0.01359846
-0.008637777
0.0052045905
0.005869385
0.028733455
0.013899844
-0.011267924
-0.014279445
0.023237893
0.006661383
-0.017300474
0.000454679
-0.038352925
-0.035523668
0.026015846
-0.013067171
0.02423244
0.011204548
0.026585365
0.03085971
0.018283853
-0.009062038
0.021557044
-0.0109677045
0.026799735
0.014761321
0.023679985
-0.019557662
-0.0049804673
-0.0041838353
-0.0149280615
0.020834569
0.015281632
-0.006236448
-0.0031804186
0.027070334
-0.012932865
0.009769618
-0.00062806666
0.006754658
0.022009647
-0.008684689
-0.023408338
-0.011699142
-0.013128843
0.010951654
0.02015804
0.00021163034
0.017782236
-0.002069885
0.027367609
0.005706133
0.0037335374
0.010736846
0.007122661
-0.031980246
0.0106062135
-0.03499668
0.032683995
0.0081019895
0.019946141
0.0107017
0.00094374426
0.012980339
0.015228076
0.028283767
-0.029589685
-0.030217338
-0.0015026511
0.013229492
-0.017256983
0.004991968
-0.013441906
-0.023697343
-0.026461571
-0.023660563
-0.0031779069
0.010212069
-0.031153701
-0.022077344
0.0044419146
0.033375464
0.00554018
-0.042045947
0.01970708
0.013114706
-0.0001807256
-0.012267214
-0.015630307
-0.022577468
-0.021306222
0.0053767473
-0.030302722
-0.0036999045
-0.0146930525
-0.043848448
-0.016250944
-0.020226913
-0.0073945452
0.010930787
-0.02240894
-0.041334737
-0.015947025
0.027841117
0.0053753573
0.023645379
-0.012775178
-0.024368437
-0.021628758
-0.00901192
0.016515527
-0.006105186
-0.013147325
-0.03252972
-0.02880402
0.020408532
-0.00021997106
-0.01864679
-0.00494757
-0.015703443
-0.004610324
0.014404019
-0.0043066656
-0.032316945
-0.01065002
-0.0009219634
-0.0049747224
0.008620471
-0.012444754
-0.010445025
0.0023543134
-0.015198514
-0.023793448
-0.023873616
0.035180565
0.0133685805
-0.0004094068
-0.018326396
0.0075606764
0.009034571
0.016525848
-0.034284867
0.0007879473
0.023378648
-0.033059254
-0.008163922
0.020582225
-0.020258838
0.025889874
0.007843472
-0.018732963
0.01553082
-0.015155841
-0.009027272
-0.0037242845
-0.00018754177
0.019973109
0.014611446
0.035301615
0.015315492
-0.014066895
-0.010624378
0.0045194696
0.025408953
-0.032802653
0.016193802
0.022427859
0.032871336
0.02138639
0.019272247
0.0118614575
-0.004970349
0.05269047
-0.01035244
-0.01991008
0.009369053
-0.017900892
-0.018184345
0.02131054
0.020940945
-0.0024221858
-0.015396809
-0.024427349
-0.060457967
-0.007209829
-0.02665836
-0.01061127
-0.008352002
-0.051728074
0.003929753
0.011367898
0.03205071
0.020145021
-0.0026211264
0.014283541
-0.043077007
0.006561563
0.0013613031
-0.0084458655
-0.029942509
-0.020233091
0.020004462
0.011600383
-0.026004283
0.0127980495
0.00013796063
-0.01586062
-0.024155483
-0.0021354165
-0.02343362
0.0056337724
-0.021417653
-0.012172397
0.020771569
0.015308576
0.010297547
-0.011741223
0.021800691
-0.0027711669
-0.026734706
0.004912926
0.012960464
0.0065681613
0.015062003
-0.032167032
-0.022874651
0.024009852
0.003412081
0.003892885
-0.006484049
0.030463386
0.009973083
0.014934775
-0.021975769
-0.017328482
-0.014388201
-0.016444242
0.030426577
-0.014009049
0.0028164433
-0.018489104
0.027012642
0.007045703
0.006752126
-0.005958507
-0.009578123
-0.033956937
0.023905776
0.0074732807
0.036735184
-0.001864362
-0.0117745325
-0.035478324
-0.006972424
0.01006407
-0.0054033385
0.0017357061
-0.023858557
-0.0008692173
-0.025367262
0.015043594
-0.012945418
0.019358894
-0.038199253
0.031665687
0.034049068
-0.02907907
-0.0026528179
-0.023680089
0.034739323
0.0056071416
0.015832039
-0.029443793
0.018333202
0.020003797
-0.017050313
-0.015245384
-0.024049006
0.010188072
-0.021649221
0.0074832197
0.026519371
-0.0061842427
-0.01318685
0.03181768
0.012003097
-0.012214935
-0.014273162
0.020034809
-0.036242366
0.017422877
0.028571676
-0.006437207
-0.01744511
0.029327614
-0.035817426
0.027248314
0.022991585
0.022960352
-0.01452833
-0.017848538
0.01917981
-0.00025220786
0.0039516627
0.018392233
-0.0065945447
-0.016457146
0.0031228582
-0.018544417
0.026301011
-0.015130002
-0.011238062
-0.030794056
-0.016070666
-0.04076569
-0.020539701
0.013346898
0.021652916
-0.00437427
-0.003503905
-0.015439922
-0.026788976
0.012949456
0.009103532
-0.032222725
-0.00052130804
-0.026861627
-0.0031603877
-0.03498142
-0.015980946
0.016363878
-0.04715258
0.007988981
0.0041136807
-0.05235995
0.015292333
-0.03353751
0.021566626
0.007146621
-0.0181481
0.002852244
0.020864327
0.01799929
-0.021695964
-0.021696508
0.030260766
-0.017625272
-0.030931426
0.032303546
0.030820217
0.027319558
0.001911519
-0.014559677
0.012203719
-0.02322245
-0.00675333
-0.032476213
-0.009764863
-0.013783248
0.017558752
0.01207446
-0.012637641
0.032427482
0.03300199
0.012572882
-0.03436396
0.037544962
0.033161968
-0.005330949
0.033759553
0.02211184
-0.01877898
-0.016781127
0.0053488817
0.019032529
-0.008443803
0.018471502
0.004001264
-0.022935959
0.022636196
0.019754773
-0.00095309614
0.014253843
-0.004978623
-0.019002313
-0.015418783
0.03694595
-0.027496427
0.020512039
-0.04527645
-0.0026062473
0.013855257
0.028484879
0.024760352
0.0057442947
0.01295802
0.023513079
-0.016237829
0.021715824
0.043185286
-0.012895152
0.0057130777
-0.010926649
0.032874804
0.021395324
0.008590738
-0.021407204
0.01711087
0.022471352
-0.018288588
-0.005832872
-0.010317841
0.01459806
0.015942791
0.03468769
-0.012751117
0.009611585
0.016493704
0.013867664
-0.012268103
0.016223203
-0.00039590875
-0.01706279
-0.033408403
0.011771051
-0.0003125612
0.032383222
0.020957936
0.017416494
0.018916601
-0.014564943
-0.02676308
-0.00014801635
0.03109007
0.00396341
-0.005251212
-0.03854106
-0.0054253433
-0.019495782
0.012350538
-0.037711844
0.0096712215
0.00023908928
-0.016102
0.003538863
0.033849407
0.013261978
0.011801899
0.0033399162
0.010982749
0.01970196
0.028595215
-0.014972166
0.027998116
-0.02098777
0.047831677
-0.027246993
-0.031778436
0.009379145
0.051750675
0.03205751
-0.022164218
0.026393041
-0.00817547
-0.031975146
-0.001818136
0.008518337
0.0010335229
-0.008749275
0.01272464
0.017853945
-0.008841327
0.017645603
-0.026569715
0.011155151
0.02051382
0.018439123
-0.022590943
0.01705686
0.00095130136
0.005698731
-0.010225667
-0.021176048
-0.010670402
0.020026943
0.00085899985
-0.01885276
-0.03598465
-0.0064467513
0.02207371
0.0026015667
0.006479837
0.01289561
0.035009027
0.024231654
-0.024158964
0.0019491033
-0.028713306
-0.015434314
-0.027758747
0.014835478
0.012078776
0.01093338
-0.013336115
-0.022397323
0.005705886
-0.016174134
0.009840086
-0.039457075
0.01025156
-0.02266946
-0.029675126
0.011826881
-0.0062753344
-0.029781403
-0.0070311334
-0.029449217
0.004868315
0.009302509
-0.010190371
-0.029597297
-0.010318644
-0.008502644
0.027695226
-0.012113871
-0.025312964
0.033960328
0.0232811
-0.035596844
0.01354676
-0.0056613786
-0.012061022
-0.013787272
0.023835488
-0.01307491
0.0154584935
0.0034772044
-0.04347315
0.017550532
0.04135204
-0.03652792
0.018675944
-0.026139574
-0.008224778
0.005432113
0.017776327
-0.013198615
0.026180146
0.022299273
0.013514991
0.014004143
-0.024206765
0.013720925
0.016287507
0.0026035514
-0.011242125
0.0051399935
0.011860392
0.031914573
0.0029881492
-0.034144927
0.03492299
0.036384158
0.006705052
-0.02239333
0.038268358
-1.5531643e-05
0.0030748108
-0.030828824
-0.028406207
-0.0066503203
0.018219285
0.03153146
-0.006618481
-0.032273296
-0.0016505255
0.02819222
-0.018254288
-0.016640611
0.01663056
0.028491134
-0.013159219
0.0038345961
0.0018745202
-0.018698832
0.0076337107
0.01887045
-0.012248469
0.0052684075
0.0021946318
-0.00033326226
-0.042887356
0.01715214
0.007901355
0.0010043855
0.008394105
-0.037670873
-0.029762113
0.025562957
0.019748306
-0.03484171
-0.018859036
-0.023028977
0.021766033
-0.032561257
0.023083983
0.036920108
0.02189779
0.0035858578
-0.015869146
0.012816111
-0.020043047
0.017575389
0.00788081
-0.00960727
0.038653046
-0.015878156
-0.0022413386
0.021715257
0.01726494
-0.025950642
-0.03272446
0.008223225
0.027931567
0.020338718
-0.016389394
-0.008499681
0.015373724
-0.00028884638
0.04516621
0.020368442
-0.032061145
0.026151974
0.007907385
-0.012849763
0.00016950534
0.027328512
-0.00314098
-0.019347198
-0.013956052
0.01190541
-0.031152852
0.021014938
-0.02957824
-0.014147788
-0.02656532
-0.005447909
0.020424861
-0.0053223865
0.016909072
-0.0005987988
-0.009965228
0.008928749
0.0063193785
-0.022565687
0.015410952
-0.004824061
-0.034727477
-0.020903686
-0.015838543
0.0046815374
0.0031500757
0.01634538
-0.007446072
0.016000524
-0.040087875
0.01899366
0.0022561029
0.017931236
-0.013426
-0.015650395
0.032711837
-0.0013445837
-0.018349633
-0.01337037
0.038529694
0.0058297813
0.007110698
-0.03730271
0.012456062
-0.012400527
-0.03641751
0.055057224
-0.024872815
0.007236665
0.0117800785
-0.017571358
0.008873213
-0.00073146966
-0.027239054
-0.013429232
0.020115634
0.008012841
0.0045585064
-0.01616953
0.0038934778
0.0102175
-0.007132187
-0.05099003
0.033604704
0.01004542
-0.0034457087
-0.02717478
0.0083705615
0.018116867
0.035666652
0.02065741
-0.025464786
0.01920868
-0.029826678
0.01277555
-0.028965643
-0.019269785
0.016591683
-0.0072249896
-0.002874292
0.027487813
0.025121063
-0.019947985
-0.0014121353
-0.019478707
0.029895993
0.026643448
0.00578747
-0.04150189
0.024926707
-0.007317053
0.017959464
0.018032134
-0.045229483
-0.025423314
-0.015662393
-0.010921546
0.02789193
-0.017790157
-0.025336806
-0.0035664102
0.010455429
0.0004708076
0.012857475
0.01916139
0.040973004
-0.017276606
-0.0153840585
0.009967986
-0.012028601
0.03823196
-0.0029088787
0.03646841
0.023662986
-0.0005375916
-0.0064988295
-0.044452973
0.0037765277
0.0033344978
0.037569772
-0.021298138
-0.00053111714
-0.02048183
-0.009838409
0.039970614
-0.025685746
-0.01435975
0.009362173
-0.0013833004
0.020099778
0.016713155
0.021587329
0.011777596
-0.043157436
0.024912478
-0.02258038
0.053567145
-0.02034644
-0.017913291
-0.014270486
0.017219657
-0.026193352
-0.0163783
-0.016865999
0.026418513
-0.007403078
0.030462626
0.014709576
-0.014696618
0.02564218
-0.037427433
0.005953438
0.0013848904
-0.03520145
0.03638624
-0.0018165656
-0.034660418
0.0018806123
-0.004144953
-0.006929268
-0.022837166
0.007639476
-0.00026890443
-0.04595048
-0.025981843
0.013465438
0.014205994
-0.0099341795
-0.010823443
-0.011100961
0.021974491
0.00032510053
0.0049741957
0.02599494
0.033455566
0.0068079205
-0.010595444
-0.004697229
-0.0013855723
-0.041884582
-0.038618274
0.012245646
0.017693331
-0.025107253
0.026414007
0.024809018
0.0026874845
0.0019632631
-0.04765643
-0.004328868
0.03788375
-0.041573882
-0.045846686
0.008375118
0.03110606
-0.01325668
-0.015323781
-0.017962545
-0.0016604087
0.0042823516
-0.026116626
0.001135818
0.022595244
-0.005034725
0.0077774874
-0.030139478
-0.011129393
-0.024641648
0.022131104
0.036587145
-0.0036742415
0.020008054
0.009655673
0.019322803
-0.010170172
0.009199205
0.016996253
-0.008899187
0.023174483
-0.020421747
0.018734623
-0.026426079
-0.030413939
0.020742929
0.016023098
-0.015316707
0.03887836
0.018839711
-0.017848482
-0.002178993
0.017060516
0.0011842626
0.013259808
-0.022091994
0.00989501
-0.02898982
0.008354793
0.03148264
-0.0040727854
0.00111562
-0.0068489574
-0.004594152
-0.020099867
-0.020081218
0.0091573475
0.03254218
-0.015405284
0.012257772
0.03225309
0.017138323
-0.023834279
-0.024198486
-0.00013595782
-0.02878195
-0.02052629
-0.043009188
0.01989403
-0.0197583
0.0060466956
0.019174624
0.03830865
-0.013898681
-0.0035677252
-0.026400996
0.025233123
-0.022945125
0.02278841
0.011440481
-0.0066130916
0.00454029
0.00807868
-0.0275861
-0.01773088
0.027565
0.019667564
-0.016197117
-0.016082015
-0.02783457
-0.011248323
-0.019875014
-0.021608878
-0.019692482
-0.017161831
-0.025211314
-0.01691053
0.02232209
0.027195407
0.017012224
0.02333786
0.035728127
-0.03477292
-0.01945434
0.030611977
0.03397949
-0.031919125
-0.033366982
0.0017132292
-0.0046032015
0.021404661
-0.03326719
0.0060734483
0.020378603
-0.032366496
0.050950784
-0.0018806242
-0.016260128
0.024184825
0.020947823
0.0047476813
-0.0022587744
-0.0265327
-0.054656666
0.029663919
-0.028880367
0.025108049
0.014060708
-0.016842693
-0.013149972
-0.029453672
0.043153852
0.012551152
0.013415611
0.029136637
0.009252958
-0.0024493951
0.015655769
-0.041059967
-0.0034124225
-0.019687809
0.04174513
-0.014206971
-0.03557664
0.024519065
-0.016279656
0.0043377704
0.036365658
-0.012154006
0.007888527
0.019323315
0.024842827
0.01298018
0.01624893
0.04149607
0.013368356
-0.017343072
-0.019421026
0.035144027
0.0016247194
-0.014969252
0.01447204
-0.017050873
0.03635027
0.0017538051
0.030052064
0.015508611
0.008184109
0.011828663
0.025789076
-0.032273766
0.0047187055
0.00018271926
-0.0012767914
-0.01690333
0.007053429
0.011059526
-0.021306442
-0.0027677184
-0.017103674
-0.00012459153
-0.03958594
0.006891767
0.031348404
-0.002977158
0.012419873
0.0026659572
0.032175533
0.011527359
-0.014880373
-0.013312102
0.036243774
0.00018127519
-0.01589129
0.0079712225
-0.0060561695
0.008034052
0.013841916
0.012924442
-0.008267189
-0.005735272
0.0061811926
0.0111411065
-0.0022570067
0.026488032
-0.014608349
0.022937959
-0.013053803
-0.0015554525
-0.049482778
0.031714518
0.008148525
0.009857459
-0.019559301
0.000112854505
-0.004061903
-0.02620637
0.0017071504
-0.0040732953
0.011104114
0.016327335
-0.003886547
0.02162446
0.00603791
0.0052136444
0.0009463713
-0.0110744955
-0.025374874
-0.017747456
-0.007949365
-0.029850753
-0.014963852
0.026288401
0.013428545
-0.0154645
0.02143689
0.014343105
-0.01128827
0.0037361018
0.018609352
0.015077111
0.00799169
-0.0006422928
0.021247631
-0.01902436
0.0032094207
-0.0127715785
0.031098267
-0.0064600133
-0.029910415
-0.012000915
-0.020756606
0.031421892
-0.015870424
-0.0024457648
-0.025932848
0.01906671
0.019093033
-0.0060485713
0.017816804
0.03227586
-0.027853874
0.005787888
-0.009026857
-0.0066139423
-0.009910968
-0.011234509
0.0065366216
-0.0138585875
0.021415997
0.014434185
0.028158156
-0.01696313
0.017481947
0.0010406878
0.020676265
-0.0012686463
-0.026107728
-0.053090055
0.021364467
0.019035822
0.00939431
-0.012343913
0.02967204
-0.00959697
-0.008070047
-0.015216879
-0.0030270135
-0.015734509
0.008322761
0.0173949
0.0055503314
-0.016790822
-0.0012292892
-0.026168656
0.007375739
-0.021566482
-0.018310308
0.0036480336
-0.024843687
0.01582016
0.0046714805
0.017584475
0.021696594
-0.012755305
9.368868e-05
0.014118648
-0.054451723
-0.027731134
0.042690024
-0.017334254
-0.018587431
0.0059310687
0.031698234
-0.01879269
-0.019025534
0.000900177
-0.010965353
0.036309578
-0.01793007
-0.016312659
0.00048033608
-0.013940905
-0.011114832
-0.0007964083
0.0064592836
0.0027002872
0.0050409106
0.025861308
0.0012448116
-0.0379773
0.0342114
-0.00050816423
0.04485771
-0.014450818
-0.0002628822
-0.020132743
-0.015870344
0.005422073
-0.0038801595
-0.022583136
-0.021280413
0.021322053
0.020583112
0.024044622
-0.008103366
0.03113293
0.02007879
0.013450707
0.025162498
0.0002960276
-0.025976943
0.017414445
-0.0023555004
-0.03612307
0.016269168
-0.027431604
-0.01916549
-0.023682937
0.015208137
-0.0050523723
-0.0038469878
-0.0060561653
-0.009077658
-0.052772187
-0.00047882024
0.0076717366
-0.0329242
-0.029353866
-0.0039795693
-0.0032582565
-0.003979181
0.019274376
0.0036887364
0.010680866
0.027195653
0.0141748395
0.03844741
0.0070653376
0.0076948553
0.0033657243
0.026146147
-0.01177715
-0.020253863
0.02900381
0.015156296
-0.031734418
0.01590312
0.042922884
0.029725995
0.01453851
0.052082483
0.009052619
0.01549638
0.013060926
-0.0074061025
-0.018366676
-0.006387304
0.031614542
-0.056744494
3.3619435e-05
0.021878008
-0.0066362005
-0.046192996
-0.02568909
0.022120269
-0.018718787
-0.026714686
0.0059735365
0.019394984
-0.02957146
-0.018154973
0.0033014433
0.027207278
0.038692687
-0.022900382
0.005923394
-0.004616237
-0.003783395
-0.004343071
0.0070972242
0.017837184
-0.012871074
-0.002203745
-0.0026881783
-0.0016830151
0.018390298
-0.022647193
0.02088413
0.010741743
0.013065868
-0.012649478
-0.007987879
-0.029241938
-0.017461909
0.024835795
-0.0013070176
-0.008707724
-0.032999054
0.031641874
-0.042540573
-0.019156229
-0.0077605215
-0.001831104
-0.01959845
0.015264184
0.01771645
-0.008543631
-0.01480228
0.0052210013
-0.027922738
-0.021563714
0.021189744
0.01793931
0.001100374
0.030772641
-0.022718756
-0.018916834
0.005370329
0.0076713446
0.008081318
-0.010803881
0.00014700275
0.015233445
0.024442548
-0.018981643
-0.02526334
-0.0114448145
-0.052232157
-0.04520398
0.0431782
0.014053123
-0.039206985
0.010583499
-0.04309669
0.005871807
-0.018660065
-0.028615398
-0.0077192993
-0.0013398415
-3.4356155e-05
0.015152745
0.018959926
-0.04414465
-0.016590554
0.013047248
-0.024167757
-0.023985306
-0.016678745
-0.019025072
-0.0038757205
-0.019712407
-0.03215327
-0.010108376
0.043162327
0.008390139
0.0004033532
0.016436288
0.0396944
0.026761472
0.032522988
0.0017310817
0.017728996
-0.012815516
0.009023484
0.006375165
-0.0332091
-0.0048256274
-0.019603247
-0.027185226
-0.013770025
-0.009998685
0.0010801586
0.017539974
0.009850323
-0.007722647
0.024921065
-0.034205545
-0.0039675343
-0.009263248
0.020714194
0.026012441
-0.014659137
0.018904734
0.018988365
0.012379765
-0.010057248
0.011438752
-0.013928774
0.019985292
0.02196083
0.034122124
0.006037983
-0.0038313607
-0.029463718
0.00057191
-0.051240034
0.019358056
0.021726869
-0.018511076
0.022144143
-0.0016359969
-0.028069532
0.013920017
-0.03171032
0.031996217
-0.025130603
0.0054074866
-0.025088022
-0.025703168
-0.0008799739
0.0008690928
-0.023899918
-0.02721275
0.017870422
0.03132042
0.021044564
0.024073638
0.011454269
-0.016803922
0.0032706663
0.024420874
-0.025405822
0.011339727
-0.016945716
-0.009587783
-0.014890454
0.0022473354
0.022134582
-0.029507719
-0.0021481265
0.0027118854
0.022744233
-0.011147396
-0.012208556
0.029386314
-0.0066794637
-0.02043268
-0.012915206
0.04077502
-0.019264998
-0.0024036693
0.02600308
0.049091246
0.009117072
0.022905057
0.0054699066
0.0254918
0.011281976
0.029037127
0.03444632
-0.013010959
0.005907772
0.03074173
0.0045124376
-0.023922192
0.0056374962
0.01995939
0.025685862
-0.028904885
0.012366635
-0.01691583
-0.01715042
0.007427582
0.018975062
-0.002642071
0.017381765
0.011034311
-0.01080183
-0.040344138
0.012393058
0.027344825
-0.0025762194
-0.010129096
-0.008076541
0.022315903
-0.00775844
0.013360755
-0.0012098344
0.0143185565
0.008137216
0.019857448
0.003902841
0.0057210946
-0.0065358547
0.0003321233
0.031364385
-0.024308112
0.010935454
0.007779484
-0.0046909587
-0.006394981
0.028662425
0.020245098
0.013004305
0.011184756
-0.00065516087
-0.023467038
0.020606672
0.013660218
-0.021450022
0.019168159
-0.010836071
-0.035223957
0.014345563
0.035456043
0.038076695
-0.017847927
-0.025833702
0.005848325
0.0057142074
-0.017268583
0.009672992
0.009637089
0.016369881
0.009893611
0.024433862
0.033785794
-0.024300415
0.030761005
-0.007805814
0.028272195
0.005688367
-0.027820013
-0.042606104
0.04418986
-0.015131165
0.021981686
-0.0001690444
-0.08417464
0.029503131
0.024903797
-0.03587679
0.026069434
0.015943184
-0.018398887
0.007434073
0.01759755
0.0045114076
-0.029345764
0.0146840615
0.0063700476
0.02012236
9.2962815e-05
0.018472241
-0.020503974
0.012847751
0.025949907
-0.007950665
0.0060895993
-0.016199857
-0.017238405
0.004014617
-0.06012836
0.024027755
-0.006333925
-0.0101252375
0.009992909
0.0026086492
-0.011041061
-0.029430088
-0.0050907806
0.023708753
0.00037082602
-0.031954084
-0.031521197
0.018262466
-0.008873499
0.004865704
-0.014785361
0.014217703
-0.019486345
-0.032263424
-0.0490047
0.031567775
-0.023064984
-0.036941994
-0.007750614
-0.038294308
-0.010373943
-0.012093991
0.017755082
-0.0045299823
-0.02481833
0.04492246
0.022678202
-0.03553833
-0.02235568
-0.014345065
-0.013079613
-0.0072270087
0.011445814
0.040501572
0.039257407
-0.0061637154
-0.029057091
-0.020098384
2.7153594e-05
-0.038241733
0.028632995
0.011748211
-0.015635828
-0.020074636
-0.005058936
-0.00548068
0.027947895
-0.007801167
0.0039127916
-0.007431952
0.032220177
0.011125987
-0.022428537
-0.0015201744
0.004354751
-0.0142136775
0.021091077
0.0004891101
-0.023843562
0.038450833
-0.00102026
-0.026574457
0.016442405
0.01155969
0.022500996
0.012450988
-0.005604739
0.030851409
-0.01652504
-0.0062124366
0.018961277
-0.00026439616
0.006385378
-0.02021137
0.008880495
-0.02750144
-0.0057995785
0.033261262
-0.030606216
-0.00085459626
0.015522525
0.008380805
0.009318218
0.005061246
-0.024661377
-0.014659078
0.028525341
0.036859114
0.01832703
-0.016115023
-0.008632866
0.008984665
-0.017911686
-0.0049376264
-0.0006776325
-0.014958608
-0.031121418
0.029283231
-0.0059109936
0.025993215
-0.009407906
-0.019409882
-0.018613528
0.031790648
0.018098274
-0.004260765
-0.006763348
0.015875474
0.002060035
0.043598037
0.00417524
0.016812084
0.04105243
-0.030850844
0.014601539
-0.041042574
-0.021571172
0.01848376
0.0144136185
-0.04957528
-0.032251336
-0.02584909
0.03736301
-0.007629809
-0.009442653
-0.007349154
-0.025072496
-0.010105634
0.011733087
0.00624151
-0.0030756698
0.012571084
-0.021730462
0.040032994
0.01417003
-0.013589327
0.0073113292
-0.0098810075
0.02692152
0.019957183
-0.019592643
0.015057917
-0.021381255
0.0101341
0.02222257
0.01776235
-0.0018259361
-0.009051658
-0.030943269
-0.03248424
0.006720903
-0.023671713
0.03791424
0.009269305
0.006234166
-0.029726684
0.0357721
0.03937626
0.0010254885
-0.0013818606
0.0066633997
0.0059333243
-0.024035905
-0.011014119
0.030070864
-0.0077748355
-0.016380318
-0.0041595777
0.012305378
-0.0032799682
0.004109583
-0.008795664
-0.0038515225
-0.03778393
0.018615289
0.0234568
-0.015367468
0.018426957
-0.006528797
-0.007352203
-0.015665928
-0.0052596754
0.039678026
0.00835744
0.0033485095
0.016056547
-0.019232985
0.018963069
0.02057854
-0.01654668
-0.0076195667
0.011338726
0.0081041055
0.017790908
0.00030842118
-0.011430168
0.023341533
-0.01080652
-0.019475646
-0.009936814
0.0024740547
0.009786549
0.008645329
-0.011214065
-0.010789605
-0.010370054
-0.003920577
0.018682932
-0.033593867
0.033886272
-0.024628734
0.008205929
0.029096285
0.023634732
-0.03690402
0.0125855645
0.0009230436
-0.021133272
-0.012749157
0.0017085397
0.0075669843
-0.006493165
0.022239408
0.026066095
0.0120880725
-0.006786891
0.02212886
-0.02304262
-0.012516229
0.015068717
-0.037115853
-0.015059757
0.01201334
-0.017915756
-0.024609158
-0.03723618
-0.01754228
0.0010593025
-0.012929032
-0.021168472
0.01887358
-0.01660957
0.012926817
-0.010305221
0.012089629
-5.552128e-05
0.022908246
-0.009982824
0.012594119
-0.02608431
-0.018563287
0.007524849
0.028210444
0.010086552
0.010056171
-0.018369887
0.012056719
-0.0053697214
-0.012516496
0.005941966
0.0009996325
0.010234074
-0.03555685
-0.0065603238
-0.02381348
0.0031451627
-0.005226062
-0.00042842806
-0.00058320956
-0.032238837
0.0056236116
-0.013628956
-0.021898255
-0.020693475
-0.00507329
-0.01758784
-0.018022554
-0.005776528
0.032728016
0.0008503548
-0.043535937
0.012073878
0.010807068
0.012757808
-0.016198475
0.014570787
0.0091669895
0.022444572
-0.023668114
-0.0019151327
0.008973148
0.028422939
0.0015523882
-0.04154142
-0.02549663
0.03665533
0.025837898
-0.006141397
0.024483886
0.0062638195
-0.024131287
0.00041298423
-0.00863164
-0.032566145
-0.024219047
0.003944527
-0.009766454
0.013853399
-0.0065643815
0.009268385
-0.035744336
0.019310046
-0.0216
0.018490788
0.023106664
0.01571107
-0.05045707
-0.017582705
0.010594194
-0.02684399
-0.029583447
0.006852974
-0.004058063
0.0005241856
0.017792312
0.0034719321
-0.008490141
-0.0014509112
0.033377655
0.014037182
-0.0075152135
0.022845648
-0.013866985
-0.018023837
0.013834484
0.030747946
-0.020651028
0.0046816845
-0.017709877
0.005237297
-0.0001257209
-0.0018313394
-0.016764427
-0.017756578
0.022304038
-0.022769352
-0.040909022
0.009828577
0.0029044235
0.025642995
-0.0064558703
0.011209535
0.024177227
0.0030671274
0.045450155
-0.0035992707
0.005296212
0.004894403
0.023739737
0.0021061609
0.002383332
0.019950429
0.0011491397
-0.01571405
-0.007964354
-0.027271291
0.00729842
-0.013775369
0.007945621
0.0108418865
-0.030048992
0.0034192558
0.022395309
-0.003341132
0.0025766704
-0.0032716922
-0.0033892076
-0.016798882
0.021750528
0.023597172
0.0018669396
-0.002248568
-0.013701582
-0.002458494
-0.03289444
0.00088723033
0.013808571
-0.0055806027
0.00912169
-0.010200061
-0.007945877
0.026424332
0.035849378
-0.036159515
-0.001481337
-0.032035463
-0.015317332
0.013970726
0.014775722
0.009269988
0.030594725
0.043827944
-0.034921765
-0.024949718
-0.020592963
-0.0007140895
0.0066132993
0.010625963
0.012482191
0.009535995
0.0016479371
0.0048447363
0.0013771659
0.00941731
-0.0072970237
0.0047573885
0.009272202
-0.026743282
-0.010290945
0.008752306
0.013616081
-0.020860687
-0.0059357407
0.019138357
0.026324894
0.028101103
-0.010139518
0.0047237766
0.019417262
0.0005344214
-0.024182044
-0.0018146626
0.004223895
0.04064477
-0.030973345
-0.009667046
-0.013260827
0.0120937135
-0.00078385806
0.016838392
-0.03163889
0.020663394
-0.021661904
-0.002578294
0.022744538
-0.017730022
-0.018891206
-0.007058014
-0.018316243
0.035249013
0.010380138
0.04017471
0.028186861
0.009404209
0.0073139644
-0.021705577
0.026356969
-0.021884015
0.008233103
0.0027421594
-0.037562188
0.020860784
-0.030949049
-0.025652826
0.016890611
-0.031249486
-0.02261951
0.008899523
0.01272803
-0.0113726705
0.026843583
0.011314073
0.01783719
-0.0019591798
0.028427264
0.03291739
-0.01962698
-0.038340516
0.012457173
-0.029567411
-0.022811105
0.0012245589
0.021385329
-0.014631026
-0.00026156282
-0.010601788
0.030805413
0.018112238
-0.011651117
-0.012188203
0.00532483
0.03815142
0.001012488
-0.0042733117
-0.014091644
-0.00021572511
-0.021699898
0.008385002
0.019892571
-0.004056762
0.029806
0.021260414
-0.03295209
0.026198328
-0.005828025
0.011583563
-0.034989167
0.03234138
0.02618475
-0.012569464
0.0059842905
0.031176016
0.020130742
-0.016599271
0.02956027
0.035535067
-0.0436672
0.022083806
2.81421e-06
-0.021895317
0.0336139
0.023990965
0.026895642
0.016864525
-0.035631146
-0.027541125
0.00087666174
0.01802478
-0.023944153
0.00014401872
0.018187763
0.01599377
0.015121226
0.014434216
-0.019390006
-0.013135507
0.006842027
0.0009957018
0.0100601055
-0.0068339934
0.017171409
0.026497846
0.020595783
-0.0021816436
-0.00064408313
0.025671108
0.045231584
0.01628402
0.010734951
-0.0020451813
-0.009172837
-0.0027025125
-0.006929163
0.008295703
0.0013776763
0.009011849
-0.0029863094
0.02734609
0.0325052
-0.008875455
0.0033626931
0.038830176
0.017721241
-0.010713639
0.0022016757
0.002841587
-0.018186022
-0.011508862
0.009280589
-0.0062720957
-0.016355377
0.004001739
0.009743922
-0.0047590774
-0.008765607
0.009959401
-0.0011221861
0.043150865
0.00093894074
0.027800806
-0.021655804
4.537206e-05
0.036235526
-0.02152768
-0.012344131
-0.028513204
0.026219591
-0.03237034
-0.017539613
-0.0030229567
0.004251727
-0.026257966
-0.015013451
-0.007492273
-0.025399543
-0.01880098
-0.00046321133
-0.016895333
-0.005427624
-0.0132013885
0.019205835
-0.010973379
0.016828557
0.032993976
-0.014996094
-0.02551409
-0.032002207
0.03422671
-0.0060950685
0.0329789
0.008733619
0.008850044
-0.012242581
0.04955693
-0.008784414
0.009002021
-0.012379909
0.00899144
-0.0068010516
0.033127617
0.0007510093
-0.02922792
-0.00052235974
0.002907922
0.0037838302
0.011830832
0.01958617
0.01160742
-0.022163456
0.012474155
-0.017162766
-0.0046334798
-0.023842977
-0.0155141
0.029051367
0.010251114
-0.005985336
-0.027038656
0.016410025
-0.0045813425
0.009096342
-0.03229103
0.016994081
-0.019527515
0.026094222
0.016524982
0.04374331
0.0038164912
-0.0066494322
-0.004492772
0.01131694
-0.02829217
0.04826503
-0.032206874
-0.0055675847
0.015223308
-0.034575112
0.014709803
0.0006252664
0.010699133
0.007534231
-0.033653032
-0.024010088
-0.0073848353
-0.031309944
0.00585126
0.008134942
0.011037156
0.021193363
0.025837956
0.010905368
-0.032624908
0.02544456
0.017330367
0.0011562343
-0.005391312
-0.040241808
-0.0036586248
-0.03208254
0.0095852725
-0.013379207
-0.0028073352
-0.00265741
-0.025564643
0.025562147
-0.02898225
0.020553209
0.014455835
0.02499269
-0.018229753
0.0031196245
0.039037965
-0.027212385
-0.027189275
0.021996966
-0.025626954
-0.013936897
-0.034763604
-0.00011456653
-0.003624309
-0.016788682
-0.023223085
0.009989222
-0.005807892
-0.024332445
0.026536418
-0.0131423725
0.004735789
-0.0013356835
0.04464713
-0.03137173
-0.013325781
0.0046443334
-0.031916052
-0.027128454
0.027211148
0.009575525
-0.0008624411
0.014223715
-0.009734142
-0.014672582
0.004771107
-0.009177516
-0.011993186
0.018805778
-0.027889498
-0.02590294
-0.02805617
0.0057483506
-0.004207263
0.027371049
0.01640267
-0.0076407017
0.0055933325
2.5975349e-05
-0.01326667
-0.015340076
-0.029665604
0.021527717
-0.005414026
-0.0013421018
-0.030060625
-0.024158537
0.028706733
0.014535418
-0.014974865
-0.03294568
0.027903136
0.012786283
-0.011322196
-0.035879415
0.03550565
-0.02119232
0.0052198437
-0.011979383
0.03372493
0.010414394
0.023781529
-0.00885519
0.024212472
0.0056422376
0.034269363
0.026836324
-0.0038045484
0.0445259
0.0191988
0.0051906575
-0.006219417
-0.014054116
-0.0009269128
0.0038679705
0.011397716
-0.0009956298
0.0039162515
0.0021099402
0.0045441655
0.011488811
-0.023101352
0.00097520644
-0.0027365573
-0.005123316
-0.01599793
-0.008784257
-0.002691001
-0.015684392
0.0054060444
0.020872444
0.017176725
-0.020038724
0.0022744741
-0.0055497703
0.01611962
-0.012446888
-0.00017251048
0.035779536
0.030416066
-0.017325364
0.03369177
-0.031002056
0.034400642
-0.028779315
0.024340788
-0.015971137
-0.011490433
0.006689522
-0.021655567
0.009943901
-0.008111428
0.0019216323
0.0115637025
-0.005244974
0.03125458
-0.031195067
0.014565874
0.021558197
0.015862245
0.016421389
-0.016901772
0.006411087
0.008396692
0.015201944
0.0129265
-0.0108454125
-0.043720827
0.010256618
0.018857505
-0.021527002
-0.008274722
-0.028041748
0.035677705
0.015346703
-0.017281238
-0.005812735
-0.0048119742
-0.02073852
0.03328642
-0.026547804
0.0031126512
-0.010854774
-0.030429637
0.017210491
0.0024784612
0.01040738
0.023949431
0.017324762
-0.0016392355
0.0038463213
0.0003099535
-0.005466886
-0.0069462694
-0.035991937
0.0046939724
-0.021911759
-0.0012172554
-0.004146099
0.022205768
-0.027364142
-0.022815686
0.018977536
0.00044532178
0.027992195
0.010738996
-0.00818071
0.00050677574
-0.04649549
-0.01953527
0.016563611
-0.027565207
0.0118162455
-0.0026488714
-0.015861843
0.017658342
0.022775754
0.00041673498
-0.018715458
0.022713874
0.05640224
0.020923315
0.007422097
0.021503286
-0.020542337
0.02780635
0.035797942
0.009997357
-0.008428092
0.01032945
0.0163614
-0.014617154
0.030292831
0.020993084
0.017925993
-0.0016666555
-0.02031908
-0.03158109
-0.0058924044
-0.005549243
0.006845776
0.050524294
0.008327065
-0.014024697
0.030747365
-0.0479044
-0.01707975
0.0064330506
-0.0046577724
-0.014034407
-0.005872016
0.023357805
0.025053378
0.0020076581
-0.022061128
0.0039549377
-0.03533196
0.040811066
-0.03689354
-0.0040080193
0.008815551
-0.014108591
-0.0032073827
-0.021955187
-0.012573293
0.004307753
-0.0007615111
0.028670132
-0.004797063
0.017562263
0.013339287
-0.010002989
-0.03553357
0.00081381516
0.00020311926
-0.02810341
-0.0052412497
0.024858454
-0.040647376
0.02536167
-0.015993496
-0.010831194
-0.0031686283
0.019242354
0.026060192
-0.037690546
0.0009738339
0.003146016
0.027319586
0.0024294744
0.008307428
0.007373927
0.010985468
-0.013316592
0.023304965
-0.023240661
0.0063286065
-0.025570767
-0.0059297504
-0.014323579
0.034563717
0.03843739
0.022922657
0.010056251
0.014068028
-0.0125541035
0.050077524
0.00823272
0.011239463
0.033646587
-0.0035829786
0.027230782
-0.00954477
0.032788083
-0.031393148
-0.0039516687
-0.008553831
-0.015438613
0.010480592
0.016011674
0.022377778
0.022582443
-0.01505709
0.026356488
0.005901067
-0.029542942
-0.012314841
0.004297617
0.0168783
-0.0118214125
-0.029368022
0.0050514117
-0.009796588
-0.009103019
-0.014737672
0.016714195
0.015562172
0.01043258
-0.012408883
-0.003612492
-0.020720884
0.00080558757
-0.018250618
0.013681157
0.031996675
-0.019260043
-0.025491564
-0.02647095
-0.009735582
0.023122758
0.00798129
0.028270075
0.007825211
-0.02664097
-0.028233431
0.008016346
-0.043838516
0.009463102
0.0302883
-0.01508469
0.017983899
0.012356463
-0.022582946
0.025585368
-0.03157502
-0.006315048
0.02317695
-0.010575829
-0.02532349
-0.008724988
0.024135437
-0.03243855
0.010704764
0.021028034
0.015485699
0.026274242
-0.00038510945
-0.019773485
-0.03474907
-0.042673383
-0.0027139632
-0.026724562
0.003426822
-0.038294178
-0.006581933
-0.014948805
0.033135545
0.0038448991
-0.00558274
-0.01385014
-0.0051871883
-0.003834483
-0.0042209597
-0.023759058
-0.023902139
0.021557778
-0.00028410938
-0.013666999
0.022781303
-0.009131017
0.04053311
0.027354458
0.050593477
0.008138807
0.007449393
-0.030559396
0.0032044079
0.0056114634
0.023923278
0.0042534033
-0.006103501
0.036129575
0.015498195
-0.026191985
0.017074676
0.024332594
0.022981908
-0.010491466
-0.034751564
-0.010095687
-0.011618186
-0.0053103967
-0.03128522
-0.005101736
-0.044347573
-0.0062791277
0.0072799353
-0.030575298
-0.02622585
0.005964869
-0.04312346
0.0024726277
-0.017951982
-0.015919061
0.0009718284
-0.023087202
-0.012987179
0.0131535465
-0.022264227
-0.013589903
0.031922784
-0.014860161
-0.00065983116
-0.026616484
-0.008391711
-0.002458987
0.041567504
0.010184196
0.02085505
0.027887901
-0.023057079
-0.03033869
0.029159361
0.03181328
0.02418183
0.023488507
0.01374401
0.04755242
0.014482325
0.02117814
-0.032003164
-0.009168097
-0.006155541
0.0003343414
-0.029960243
0.041440804
0.01960818
-0.01617862
-0.01249389
0.027243914
-0.040501047
0.030162107
-0.031868383
0.011477042
-0.0008466418
0.029526109
-0.013157348
-0.0060632853
0.032291748
0.031355042
-0.03516739
-0.023239937
-0.04123536
-0.0024061457
0.034257066
0.04554785
0.0054857964
-0.044854213
-0.032772508
-0.026043983
-0.020699734
-0.007437902
-0.00037619047
0.008309478
0.009695596
-0.02937366
-0.00076238334
0.014996609
-0.005905788
0.017456215
0.01474314
-0.0064604655
0.03804439
-0.02744819
-0.03878687
-0.0026706553
0.02766972
-0.017092349
-0.015945647
0.025858283
0.009187369
0.006320273
-0.013274745
-0.020558441
-0.0006967926
-0.006926108
-0.027176565
0.038202707
0.02173125
-0.026894052
-0.036237996
0.028775206
-0.008997849
-0.010840785
-0.024770327
0.0069835857
-0.0040841224
0.0044144243
-0.003145067
-0.024011737
-0.0006976512
0.009399361
0.022856902
-0.0004414523
-0.022357125
0.016053488
0.017089956
-0.003546394
-0.011423343
-0.01896986
0.0015987352
-0.0110503
-5.4630196e-05
0.03672678
0.032939635
0.0023166186
-0.024359053
-0.034796085
-0.00016041503
-0.04937484
-0.038459
0.037316665
0.011851158
-0.003263439
-0.0067328713
-0.010860008
-0.0019515987
-0.030960696
0.015236284
-0.0051328
-0.002726759
-0.030887611
0.013844234
-0.020200713
0.009533706
-0.012194078
-0.017020904
-0.029611237
-0.008389669
-0.015944857
-0.010932792
-0.023405358
-0.0023729596
-0.04815953
0.006359553
-0.031825777
-0.015513395
0.009018841
-0.025496904
-0.0003189405
-0.03198601
0.025828749
-0.0015443065
-0.017028434
-0.039961994
-0.033959385
0.032593608
-0.03562891
0.014300891
-0.038870554
0.022272099
0.034172874
-0.015133895
0.024580711
0.010113994
-0.013237025
-0.008829927
0.022799177
-0.020424046
0.03538833
-0.0020220578
0.0039936933
0.022360425
-0.017531006
0.018701274
0.031363845
0.0068212594
-0.00011631097
0.01568153
0.0083374
0.031713285
0.006456531
0.012230092
-0.01065256
0.03419233
-0.00239729
0.034692697
-0.008662925
-0.013519127
0.03905183
0.011755989
0.042782485
-0.020841565
0.02694935
-0.015597656
-0.02681148
0.0060842424
-0.021405727
0.009546482
0.03404327
0.0019161685
-0.003958757
-0.013971087
0.015202948
0.0028066686
-0.00034076156
0.045208313
-0.0071121035
0.025975514
0.0046714875
-0.008662293
0.008740574
0.033360533
0.019478833
-0.014419911
-0.0076745227
-0.009736384
-0.0028702738
-0.002779858
-0.017497366
0.03231194
0.024618495
0.026115587
-0.015772648
0.027927747
0.013355724
0.02871599
0.004229681
0.0028203446
0.0067918072
-0.0038736553
-0.031084042
-0.028627975
0.00810688
0.000815276
-0.02059359
0.0065303436
0.03569685
-0.00091012754
-0.01696828
0.020669773
-0.009753595
-0.026014974
0.012600653
0.033367082
0.009846679
0.0078997025
0.00057161535
-0.02780224
-0.04264642
0.015172
-0.02578519
-0.007496053
-0.027101198
-0.014916456
0.014957686
-0.0102646835
0.019567067
-0.00022529147
-9.919003e-07
-0.019009532
0.00356628
-0.015142042
-0.03586596
-0.035196558
0.0066611115
-0.0057014404
-0.010464376
-0.020051185
0.005731349
-0.034479763
-0.010807227
-0.016276747
-0.009772369
-0.035737026
-0.008925838
0.004620482
-0.0072449264
0.003757002
-0.011416432
-0.029097984
0.016380087
-0.00095466175
0.005851321
-0.009378572
-0.03374277
-0.012287407
-0.029833779
0.02024221
0.016906122
0.019768182
0.04530142
0.006445655
-0.0044725467
0.031845495
-0.01718093
0.022299748
0.005957921
-0.0025110105
-0.011435622
-0.016902294
-0.010737364
-0.0053909253
0.03700534
-0.038534015
0.0050497856
0.011718732
-0.0095042605
-0.035335936
-0.0016787542
-0.00043946897
-0.012695597
0.009512246
0.0011370163
0.013284579
0.022234162
-0.009116026
-0.04219303
-0.015654648
-0.01895215
-0.021613762
-0.030952372
0.010560597
-0.033285383
0.006514143
0.026778907
-0.005684297
0.011985319
0.02078138
-0.011478864
-0.009098527
0.012409779
0.010619189
-0.03213738
0.005451029
-0.010476084
0.0021199756
-0.023626314
-0.03772493
0.0019354289
-0.039369773
-0.008745968
0.025348129
0.04215598
-0.025116537
0.023039136
0.014213641
-0.01796551
0.005824378
-0.027547864
0.023956735
0.008104422
0.0042015775
-0.007451512
-0.021623626
0.0028783425
0.054276053
-0.005961547
-0.033864513
0.0103536425
0.039349444
0.02525949
0.019527229
0.012357299
-0.02380222
0.0029852074
-0.03561877
0.018112497
0.021775242
-0.008523914
0.015781164
0.019537603
0.027273096
0.0018502963
-0.026991652
0.0140164755
0.024465092
0.014344985
-0.010780515
-0.009040648
-0.035243604
0.0014259986
0.015203037
0.027515003
0.033876996
-0.016498962
0.009758936
0.015252314
-0.012605173
0.030745696
0.019364024
-0.043722868
0.006449496
-0.019897727
-0.017036678
0.026489543
0.0047641485
-0.00022353863
-0.008161066
0.035245623
-0.018697586
-0.0218079
-0.01977115
-0.03180289
0.013494792
0.0100997705
-0.018098637
-0.0035689836
0.0032760762
-0.010115591
0.023974901
-0.019295683
-0.00988404
0.020378591
0.00709625
0.01641753
-0.05883149
-0.04466806
0.032047246
0.0031358195
-0.0081941765
-0.034985412
-0.031966973
-0.026029097
-0.04612259
-0.06985198
-0.0033339728
-0.013964765
-0.04217513
0.006068426
-0.012271861
0.02391809
0.012662072
-0.029387124
0.0033816514
-0.030271973
-0.0037583956
0.006922811
0.0022923842
-0.029858718
0.012879967
0.00095958
-0.026604902
0.0020126705
0.01079783
-0.007897771
-0.05158195
0.036218315
0.013962055
-0.01628392
-0.020663358
0.0010953936
6.0206632e-05
-0.04193549
0.009050894
-0.0073682996
-0.025638154
-0.030761285
0.038791522
-0.0016300794
-0.03343129
-0.0016546968
-0.00670273
0.019331282
-0.003611803
-0.007908755
-0.010687752
-0.014486865
0.030223673
-0.01469093
-0.026025085
0.035824865
-0.007875103
-0.030159336
-0.033543035
-0.005675475
0.016908895
-0.0069609988
0.043693
-0.041939985
0.02051045
-0.01492983
0.002131264
0.025540037
0.028906018
-0.03369757
-0.020491498
-0.020377452
0.034178223
0.041957643
0.007210225
0.01544367
0.00029783687
-0.017180415
-0.0025351534
0.01945587
-0.0010188334
0.028856551
0.008475616
0.015807815
0.018847037
0.020751966
-0.00771733
-0.020244116
-0.0051894127
0.028809201
-0.005173917
-0.017045956
0.019354066
-0.005668676
0.02032153
0.0017486567
-0.016574852
-0.03699837
-0.012878439
-0.0010215633
-0.009331559
-0.019581154
-0.0003690377
0.01880088
-0.04485804
0.031134529
-0.040385332
-0.0063001686
0.034719404
0.0043390146
-0.037634477
0.013569133
-0.0007685507
-0.00018233547
0.010178958
0.015827132
0.006685863
-0.023205362
-0.0065439567
0.0024469658
-0.037017252
-1.8188624e-06
-0.010434873
-0.034145195
0.00095827185
-0.013914967
-0.020933298
0.00011998537
-0.0025489544
0.003269288
0.029498601
0.012986232
0.02949897
-0.011856478
-0.016773129
0.0039620916
-0.006041329
-0.005529376
-0.008509571
0.0012680825
-0.022197684
-0.011710829
-0.0001087361
-0.023521846
-0.019170076
0.02095544
-0.04844037
-0.043898184
0.022116562
-0.020586357
-0.030421915
-0.01273758
-0.026324702
-0.028987985
0.014093952
0.037206575
0.01701936
0.02058283
-0.0057429266
0.0027831702
0.026411064
0.012751333
0.012761016
-0.016926412
0.0020033468
-2.3063012e-05
-0.020707265
-0.037074145
0.002209638
-0.01179456
0.032662895
-0.018976638
-0.011846201
-0.003420897
0.019027907
-0.005611644
-0.018083844
0.01680318
0.00718557
0.021273239
0.03127296
0.004911822
-0.011360763
0.009781891
-0.03236358
0.021037765
-0.006304881
-0.036178004
-0.0032978598
-0.01870852
0.007688232
-0.000887277
0.014004585
-0.0035285796
-0.0022288323
-0.014993754
0.016353706
-0.010435821
0.0032825628
0.013336121
0.017159916
-0.02115143
-0.014650121
-0.0067119393
-0.01755888
-0.023955109
-0.014047749
0.04734647
0.017529111
0.028836919
-0.02022719
0.026507165
0.00055917026
-0.002434347
-0.0002552637
-0.0035664728
0.01712577
0.0067783752
0.003077742
-0.023427505
-0.03182296
-0.004627744
0.00020253593
0.02836688
-0.0022082666
0.028269138
-0.027203789
0.0053975023
-0.024682835
-0.022030186
0.001921349
-0.006420466
-0.011647726
-0.0055378606
0.01963092
0.016035369
-0.009615529
-0.033750568
-0.006705968
-0.026153699
0.022958916
-0.0083204005
0.012462857
-0.014788469
0.028991062
-0.012081418
-0.007616366
0.025148124
0.0019263354
-0.035775375
0.015120521
-0.0103724245
-0.038863365
-0.0101612825
0.0049708444
0.0038796181
-0.006666726
-0.023364227
0.031529076
-0.01762937
0.0009556254
-0.010756634
0.0073447637
-0.02871625
0.001974145
-0.026841532
0.0031602797
-0.048047364
-0.0018113158
0.031917166
-0.0038576352
-0.01211542
0.020264652
0.0056459773
-0.009603761
0.029982202
-0.0013166887
0.0051751263
0.0028232005
0.022379851
-0.007273877
0.013077124
0.014573794
0.017885901
-0.012052054
-0.018437343
0.00014151793
-0.019494396
0.028684363
-0.016607104
-0.00783647
-0.015217444
0.0007016362
0.00029141692
0.018574487
0.024396388
-0.0073573645
0.024990646
-0.030872785
0.03468004
-0.03846806
-0.0031188675
-0.011534777
0.01268535
-0.026561026
0.025104666
-0.05495909
-0.012233098
-0.010003595
0.03657621
0.0041562505
-0.029364867
0.00056187407
0.04707
0.010802999
-0.052235954
0.019366916
-0.012479637
0.0021829726
0.04182557
-0.028557204
0.0042371415
0.009359373
0.023866666
0.006828824
0.020598797
-0.013555444
-0.017315079
0.0049672993
0.01712851
-0.008144185
-0.0091687115
0.039881263
0.001655604
0.019399228
0.011282585
0.009540083
-0.01612085
0.0044058925
-0.014733188
-0.043043964
-0.004796298
0.008564981
0.0018744121
0.03495182
-0.012001927
0.0006530302
-0.0034218277
0.017255997
0.013508389
-0.06789372
0.0055252523
-0.02224401
0.006630031
-0.017270142
-0.012030305
-0.03918087
0.036129545
-0.015223497
0.012604045
0.007723508
-0.018702703
0.04149975
0.01731482
0.011117118
-0.0048600733
-0.0029684876
-0.01700334
0.0016408281
-0.00202144
0.023233783
-0.015606266
-0.014602263
0.04472076
0.017180912
-0.019373033
0.013730074
-0.004398586
0.013322895
-0.031426314
-0.046909507
-0.007152674
0.0015589813
0.031366892
0.021754296
-0.0441535
-0.00088029314
0.010249024
-0.03073851
-0.014086676
-0.05203216
-0.0142599875
-0.0013606251
0.044228747
0.018393131
-0.03249934
0.028953148
-0.0011715447
0.016451959
0.0012782676
-0.03998287
-0.02982579
-0.00083492487
-0.03294176
0.027056212
-0.018953726
0.027856309
0.0046746493
0.0061897696
-0.019256469
0.00015371844
0.01826799
-0.012574872
-0.002773573
0.016692823
-0.012331401
-0.015665706
-0.018614843
0.0046350514
0.04165552
0.008887916
0.0012994952
-0.028317027
0.017683642
-0.028125541
-0.031048574
-0.006142017
0.009198842
-0.012649194
0.004472233
0.0045561995
-0.019033581
0.013401085
0.024175731
0.004338472
0.004997681
0.009000849
-0.0063654385
0.033272408
0.0428293
-0.0048735915
-0.007947293
-0.021728186
0.00842667
0.024377093
-0.023342192
0.027923062
-0.017249538
-0.0104988115
-0.0068757487
0.01696268
0.046906568
-0.015511481
-0.011762955
-0.016769186
0.04076021
-0.02544582
-0.029370645
-0.034867764
-0.024515519
0.008900052
-0.0032532848
-0.025822286
0.030588768
-0.0073757884
-0.012315471
0.0063085943
-0.03716329
-0.0070995125
0.006715061
0.0009133631
0.00019375494
-0.004204805
-0.009797159
-0.03149491
-0.0028123597
0.0039174296
0.011403643
-0.026027372
-0.022158137
0.007977402
0.010506457
-0.025905393
0.032523774
-0.013534141
-0.007906886
-0.0064168833
-0.01828481
-0.017527113
-0.0061075743
-0.0016310822
-0.029255304
-0.036043555
0.0020589286
0.012383552
0.011447428
0.0041687163
-0.032877587
0.0069717173
0.0077422895
-0.001771302
0.007450443
-0.033746846
-0.0064268643
0.005082554
-0.005229574
-0.018098349
-0.004689586
-0.03065942
0.009957796
0.010043453
-0.0005326302
-0.0027687259
-0.0059023737
-0.008377735
0.0092996415
0.0022126003
0.019794911
0.012459456
-0.03540768
-0.022908032
-0.015656594
-0.012276995
-0.0149930185
0.0118899895
0.018059881
-0.023983361
0.011667326
-0.00505415
0.027829489
0.012911676
0.009146086
0.0327055
-0.039839152
-0.024121765
-0.018765213
0.015957862
0.0071601137
-0.021407261
-0.0118458895
-0.0064554177
-0.007138997
0.02110773
0.01976166
-0.010016525
0.0130149415
0.025350036
-0.0026298508
-0.020895004
-0.036392856
-0.009613117
-0.021845102
-0.01801359
-0.016227743
-0.015430288
-0.017619353
-0.0190021
-0.012435496
0.019783203
-0.035089616
-0.0057605593
-0.011056367
0.023635326
-0.02917138
-0.0019105305
0.01105726
0.015883664
-0.002868448
-0.022980176
0.011478213
-0.02496439
-0.0073230756
-0.00035913946
0.03900306
-0.02107436
0.020567134
-0.041055832
-0.005984019
-0.031943146
-0.0153526915
-0.023858305
-0.0058599613
-0.031165252
-0.04181355
-0.022210563
-0.03176344
-0.022984678
0.009053052
-0.012614609
-0.008336884
0.008403611
0.036960628
-0.011582599
0.018368723
-0.019810695
0.015611878
0.024342742
0.0033108895
-0.019483618
-0.013877351
0.024934415
-0.03334497
-0.025876967
-0.018634986
-0.00024556377
-0.012420449
-0.03278104
-0.0017965486
-0.012420404
-0.010943094
0.00011137571
-0.033769555
-0.0057447217
0.014311932
0.0021703853
-0.02475619
-0.01884556
-0.013403403
0.004196435
0.0053250412
-0.01878111
-0.030934803
-0.007833344
-0.020120928
-0.0010356202
0.008348857
-0.0036311527
0.018628886
-0.009108616
-0.024146864
0.026574697
0.005966631
0.011236453
-0.012937529
0.015999962
0.015698772
-0.034256928
-0.015573261
-0.029497012
-0.0016094657
-0.010647781
-0.02889254
-0.046103716
-0.019495305
-0.02697671
-0.03847115
0.0063680424
-0.04055875
-0.013321449
-0.012794671
0.027378276
0.0127172945
-0.019769304
-0.033807762
0.010185753
-0.00093085004
-0.02488402
0.01925923
0.011746468
0.0147458855
-0.031984106
0.01029054
0.0019175002
-0.008600423
0.009451987
0.0038666243
-0.023730522
-0.04160691
-0.037349746
0.014336123
-0.022300519
0.010397187
-0.026600612
-0.008011906
0.0049903737
0.018884785
-0.019674305
0.022852594
-0.0019752157
0.011562411
0.0006079634
-0.023982195
-0.04624788
-0.009767791
-0.023843288
-0.003496249
-0.0012964816
-0.0018421216
0.010376319
-0.022851977
0.006843451
0.012304514
0.025029682
0.010921064
0.028293807
-0.011092835
-0.01996206
0.00444879
-0.005530072
0.011820605
0.024171028
0.008860907
0.011962692
0.02558849
-0.008965231
0.06381374
0.0108895665
-0.028504277
-0.025296004
-0.019707592
0.011770219
-0.034476936
0.019818498
-0.043665066
-0.05126212
0.024633821
-0.015948322
0.021927383
-0.016471095
0.017244939
0.0026133505
-0.015565266
0.017544983
0.01832446
-0.020442719
0.022804078
-0.027587647
0.018872906
0.008153472
0.0017488737
0.0062279766
-0.0095763225
-0.0142467525
0.036389157
-0.013666018
0.011413369
0.030017281
-0.02202465
0.0034081226
0.010785449
0.033679325
0.001507156
0.02722746
0.020831274
-0.0069611324
0.0031903677
-0.006214191
0.0058418848
-0.009201782
-0.018745644
0.039300654
-0.027830668
0.016881816
-0.02107483
0.0036774364
-0.018829357
0.03617746
-0.021773668
0.031960975
0.027601516
-0.02656085
-0.0035541605
-0.023405274
-0.02779356
0.030735595
-0.02493051
0.0033209797
-0.0075219804
-0.02673096
-0.024564357
0.025316738
0.028789176
0.035272926
-0.025187252
0.021243766
-0.015923142
0.009110631
0.01979615
-0.013989424
0.03379025
-0.016877456
0.017673459
-0.011222181
0.017507551
-0.00048756588
-0.048642624
0.01475348
0.0103466995
-0.02021044
0.022059353
-0.0067223585
0.010148038
0.03675911
0.035461836
-0.030858561
0.0027050837
0.021840328
0.0316594
0.011752102
0.03004949
0.046281822
0.035676163
-0.0073551945
0.038199943
0.04260681
-0.0069076396
-0.031050775
0.012056476
0.009262388
-0.024939816
-0.009889338
0.01620268
-0.0130208265
0.024540553
-0.013668776
-0.019726543
-0.018006051
0.026849588
0.037774723
0.0058308905
-0.02902707
-0.02818531
-0.012298337
-0.0003737456
-0.0009178151
-0.017390467
-0.001482366
-0.021611208
-0.01642938
-0.007204975
-0.0056170793
0.009742631
0.0008573249
-0.022030273
0.0057793413
-0.02833039
0.020963991
-0.0089052
-0.047517583
0.0018320639
0.0006296879
0.01962694
-0.014944146
-0.016145334
0.011727001
-0.018891722
0.023117736
-0.0047629764
-0.02568545
-0.026918173
-0.010390622
0.012311658
0.003862733
0.014325707
0.003756969
0.02579194
-0.02596262
0.0035904583
-0.02153336
0.029376034
-0.011624905
-0.022375967
-0.016067602
0.016281761
-0.009377413
0.016578587
-0.008293669
-0.0014882102
0.01183022
0.00644273
0.03030666
-0.039878145
-0.0005726266
0.004742338
-0.017062556
0.029398162
0.045076124
0.0023100078
0.0054192785
0.026026612
0.013638029
-0.02055539
-0.026610143
0.013649217
-0.024796937
-0.016201789
-0.0258377
0.026084453
0.011970492
0.004057271
0.038908757
-0.009589351
0.040360786
0.023560744
0.012784337
0.037544858
-0.003983407
-0.0031372195
-0.040850855
0.007273548
0.009252968
0.003468386
0.017589223
-0.030764364
-0.0072055017
-0.013825732
-0.00913197
0.014450601
0.03204401
-0.03206307
0.0041273246
-0.02764749
-0.037951753
-0.033922102
0.021716997
-0.023218663
0.03353804
0.007916911
0.013474217
0.003640116
0.031117555
0.020473303
-0.041728932
0.033776168
0.019974254
0.011458316
0.020246858
0.0025403611
-0.011494692
-0.03245056
0.027804798
0.0065889717
-0.04113264
-0.010965584
0.003985511
-0.013343807
-0.031423632
-0.01687918
-0.017759934
-0.029596051
-0.009569813
0.011945345
0.015960805
0.027604096
0.004003465
0.015211486
-0.003592353
-0.010005866
0.01687078
-0.012532739
0.007862266
0.01942581
0.005830785
-0.022373695
0.009772119
-0.021559559
-0.020230798
0.011745196
0.032236326
-0.0021558357
0.018669227
0.02575339
-0.026728438
-0.050555605
-0.030199919
0.013314734
0.00033462947
0.02041206
-0.033137698
-0.0244492
-0.01672423
0.04860879
-0.019924376
0.025306398
-0.0009203467
0.0015230249
0.016371654
-0.0014400195
-0.011827689
-0.0010884082
0.0017648904
0.00693116
-0.024043703
-0.02052885
0.0053848126
0.015038773
0.0037095766
-0.02040969
-0.009586668
0.031106118
0.019011103
0.0045749503
-0.024653243
0.024853202
-0.0096478425
-0.015529777
-0.035562556
-0.0091347555
-0.02962091
0.0070377006
0.017855294
-0.060815684
0.011643873
-0.035684787
-0.0396785
0.013224801
-0.022108976
0.033134103
0.00048572503
0.026877385
-0.036220748
-0.01998408
-0.02367414
-0.013690602
-0.017173901
-0.01182341
0.0070522283
0.014347236
-0.00017974047
-0.011432781
-0.0065569584
-0.027848372
0.0067075687
-0.009712729
-0.008937258
-0.019268159
-0.050959885
-0.007179622
0.016296752
-0.034325615
0.007173722
-0.025233625
0.015126272
0.022271767
-0.0209708
0.0018752897
-0.026975296
-0.015369051
-0.0048534498
-0.022408584
0.0039768335
-0.018675309
0.017861726
-0.03016962
-0.03923289
0.02006179
0.027388621
-0.021908833
-0.015265829
0.0035377657
-0.04422691
0.018088592
-0.023205489
-0.0061586862
-0.023498772
-0.012775321
0.017646037
0.022028403
0.012031839
-0.034080118
0.0031103261
-0.022679916
-0.010064719
-0.015311087
0.009680378
0.029808737
-0.03684179
-0.015282546
-0.0073871766
-0.0054931305
-0.0061110845
-0.019373853
-0.0042562666
-0.0026126306
0.039613064
-0.028393198
-0.0117246555
0.008945672
-0.013810423
-0.005601508
-0.018784076
-0.01859727
0.01770618
-0.0029840278
-0.025322353
0.017861476
-0.024823993
-0.007000296
-0.05486551
0.0027909286
-0.04639069
0.018992878
-0.03574874
-0.037181497
0.01767807
-0.006319357
-0.035723966
-0.0012189138
-0.011904039
0.00015616365
-0.005480563
0.0015780574
0.018400783
-0.026580371
0.03424476
-0.00012325923
-0.0048494716
-0.0057648444
-0.026484985
-0.0018559811
-0.018494654
0.014959669
0.001814225
-0.054187704
0.03891003
0.014487911
-0.02889207
-0.061911404
0.010427079
-0.007128612
0.00055585784
-0.022520933
0.0014699463
0.0064174845
-0.031303685
-0.01910651
0.023727296
0.009926794
-0.040924154
-0.066188484
-0.02409502
-0.016817939
-0.011784134
-0.005422237
-0.011388729
0.0016075202
-0.016273662
0.02444085
0.017828593
-0.022749472
0.013538109
-0.0035666237
0.01892167
-0.031499896
-0.003759546
0.018718716
0.015952816
-0.022399532
0.019518184
0.025648495
0.0148578985
-0.010727674
-0.045398016
-0.024460312
0.0198769
0.006476178
0.016736563
-0.023449434
0.0065590986
-0.031837363
-0.047881488
-0.009861343
0.025506811
-0.02459819
0.005597302
-0.0037545955
-0.01468543
-0.011781392
-0.038382042
-0.015595538
-0.014729467
0.014133235
0.015542226
0.01782589
-0.035378147
-0.0029097681
0.026570668
0.0075114616
-0.005463365
-0.010253542
-0.020349594
0.0051884744
0.00040679096
-0.020453887
0.0060199606
-0.007360598
-0.016997064
-0.012227632
0.022668043
-0.027177177
-0.026874954
-0.0028835302
0.019955609
0.0051489617
-0.01863985
-0.050602473
-0.004287756
0.016960073
0.028836226
-0.031039383
-0.0013342997
0.026379405
-0.017056756
0.015215686
4.5289402e-05
-0.0032441625
-0.04687252
-0.028889818
-0.016859831
-0.017242264
0.01528267
-0.011357887
0.04061118
-0.020885343
0.023946106
0.049952462
-0.056900352
-0.012971961
-0.0061003314
0.017417984
-0.005293496
-0.018667758
-0.0027950327
-0.014716648
-0.020796783
-0.032986496
0.0012517861
0.012081951
0.007287825
0.004343532
-0.035877366
-0.0034670685
-0.011073017
-0.0053631095
-0.035793107
0.011940682
0.021557732
-0.026807014
-0.005693352
-0.01722391
-0.0012662027
0.015295019
-0.015770473
-0.015428519
0.020478109
0.02889311
0.020689448
-0.024138829
0.017834235
-0.04166328
-0.04701456
0.04655603
0.005805227
-0.0073408815
0.025402172
0.00899831
-0.016298002
-0.011116383
-0.0028020514
-0.031081952
0.033524495
-0.012506837
0.021234885
-0.05196138
-0.010080712
0.045754027
-0.030040089
-0.0021565666
0.008533408
0.0018875035
0.0071423748
-0.015557779
0.0340052
0.018513873
0.031170279
-0.01397376
-0.026381642
-0.0155115295
-0.009205699
0.011698622
0.017334728
0.02390606
0.041428138
-0.0121354535
-0.031764466
0.056876708
0.039485514
-0.029564114
0.0016443342
-0.02790533
0.037449647
0.037535228
-0.017963441
-0.025765827
0.008738625
0.026582232
-0.028126793
0.017624397
0.003552017
0.0050946656
0.034036074
0.03477654
-0.032647967
-0.010849605
0.030261287
-0.036940668
-0.02453202
0.040720075
-0.008106224
-0.0022469074
-0.033800658
0.050360415
-0.015001638
-0.018784976
0.007245849
0.008470666
-0.008249304
0.0197152
0.009631584
0.013339617
-0.006289414
-0.032294087
0.016896708
0.029554475
-0.0022991525
0.029500486
-0.009267469
-0.026966987
0.04872499
0.026115129
-0.036808204
0.023477132
0.006894661
0.027322946
0.03983808
0.015492479
-0.022945326
0.059268087
0.02756041
-0.05010682
0.008967022
0.032668293
-0.011262842
-0.02861975
0.013029524
0.056632884
0.04137752
0.0021128985
0.028966032
0.011194693
0.009527683
0.036650106
-0.009902396
-0.015367675
0.011924015
-0.004631254
-0.013915609
-0.0120913135
0.018031832
0.05160361
5.346506e-05
-0.034757383
-0.0005451875
-0.043875746
-0.0053283405
0.0128861535
-0.0062334873
-0.008842615
0.018370526
0.0111779
-0.00957053
0.0046785637
0.013200066
0.046174794
-0.035533424
-0.007260329
0.028907806
0.043037277
0.023158943
-0.015802842
-0.016950358
0.027612083
-0.034678187
0.015462515
0.017523302
-0.0050749243
-0.0039762044
-0.027135752
0.012327417
-0.041172225
0.023205806
-0.015418985
-0.03149416
-0.003187855
-0.049288034
0.0020636406
-0.012425257
-0.041912377
0.004509601
-0.0051632747
0.018065464
0.047374815
0.018043166
0.0051520546
-3.9027764e-05
0.016729582
0.013226621
0.031858668
-0.0358888
0.014121628
0.03822953
-0.036801748
0.019524556
0.014435392
-0.023658214
-0.03211671
-0.010113182
-0.015337797
0.011398075
-0.00249756
0.0107722655
0.019153003
0.01028076
-0.01292438
0.04192523
-0.0047217836
-0.0030076462
0.044696253
-0.05374779
0.036904313
0.04009273
0.006098342
0.020301152
-0.0053408956
0.03936527
0.01221552
0.02802364
-0.0010935388
-0.02391899
-0.0061022053
-0.021714123
0.031702735
-0.0048206216
0.024950908
-0.0035025065
-0.024011578
0.026750807
-0.037753325
-0.041051585
0.008301719
-0.035780564
-0.0078101256
-0.017502356
0.0061949627
-0.032823745
-0.016574012
-0.027370205
0.018457135
-0.013944922
-0.017125303
0.051925927
0.026167203
7.418045e-05
0.0014751477
-0.036970224
-0.04837048
-0.01298196
0.014344077
0.015068789
0.006404183
0.005563787
-0.01726682
0.027989978
-0.013899965
-0.010923865
0.025675947
-0.007882729
0.0094071785
-0.03355777
0.018247847
-0.02801078
-0.027730437
0.019546594
-0.030184198
-0.009781074
-0.030090014
0.012088383
0.010065985
-0.015483685
0.024691738
-0.02256874
-0.009447395
-0.0295902
-0.01756649
0.007541385
-0.019702725
0.018759724
0.012180186
-0.032209102
0.008144345
-0.03152719
0.020953774
-0.01184753
-0.0057622483
-0.003785457
-0.027782638
0.023688043
-0.016990997
0.018452853
-0.0033584584
0.036983125
0.00862535
0.00057287456
0.0047639282
-0.023992075
-0.024937207
-0.008308654
-0.012480748
0.00096078985
-0.018155724
0.034629457
0.006142314
0.024613952
0.01898432
0.020730253
0.037537187
0.014066455
0.009201276
0.00399775
0.018527117
-0.010425857
0.00091379526
0.008947697
-0.007586095
-0.04154022
0.0008529634
0.038117323
-0.013570978
-0.021819552
0.014562971
0.016187068
0.006178141
-0.013012122
-0.029072192
-0.026451265
-0.041157153
0.012939573
0.040531456
0.025922157
-0.036640372
0.039208673
-0.026246734
-0.012752512
0.0049272063
-0.022329502
0.0055441656
0.026110055
0.026875295
0.033812173
0.0046525043
-0.053327143
-0.006798531
0.025289657
-0.002309227
0.009183104
-0.01805749
0.014697516
0.013849075
-0.017746849
0.008160826
-0.0074417866
-0.034658745
0.0035335675
-0.02486824
0.015604881
-0.0068855025
-0.01855045
0.026381064
0.02035397
-0.021505652
0.025923306
0.039528947
-0.020495094
0.009465234
-0.004313589
-0.025383271
0.017932996
0.030368567
0.007546152
0.0048814868
0.036617998
-0.016456438
0.019071136
-0.0042791185
0.028244063
0.0397011
0.042409237
-0.017016523
0.0049226945
0.00094857055
-0.024807552
0.023450531
0.0041328445
0.009657269
-0.0092581585
-0.014609889
0.022280904
0.00652778
0.018981883
0.009994307
-0.010209813
-0.020119313
-0.017298726
0.023931121
-0.028106479
0.00015572767
0.02103915
-0.0029855464
-0.0015302429
-0.023979656
0.005875682
-0.0037485398
-0.029443242
0.005957435
-0.011853583
0.008883945
-0.034571204
-0.025397426
0.012541987
0.014198276
-0.021814976
-0.007785176
-0.014105338
0.015439574
0.02888969
-0.018866349
-0.034626033
-0.010265024
-0.027856778
-0.020579398
-0.008927756
-0.0019326684
-0.006658417
0.025821097
0.008635303
0.003890119
0.01356211
0.024358973
0.011269091
-0.0018162844
-0.021050975
0.0057561346
-0.031224953
-0.014757506
-0.04404058
0.013225029
-0.020294355
0.02104488
-0.0011441209
-0.024861027
0.016364114
0.02035444
0.014691477
0.0064794137
0.00888738
0.020188155
0.025199369
0.005854476
0.0096836295
0.009773453
0.015647054
-0.02426867
0.0382382
0.021707596
0.0334593
0.010097183
-0.021856762
0.013483014
-0.017414387
0.0026469799
-0.037094105
0.012267002
0.025372978
0.0017661906
0.018930132
0.004053839
0.02733737
-0.0067811306
-0.01718483
0.020709794
-0.006113955
-0.020208884
-0.023087163
-0.008677962
0.012140909
0.0141354855
0.0073891287
0.028924258
0.024408098
0.0017752791
0.014206929
0.00597889
-0.01607715
0.014874317
-0.021949455
0.00034858592
-0.040289022
-0.0070418334
-0.014944864
-0.0077429167
-0.027476255
-0.012202941
0.013085291
-0.016648704
-0.009576914
-0.014647822
0.0018667052
0.0012160254
-0.018297767
0.014757907
-0.028253822
0.025305508
-0.019382041
0.0028597051
-0.027525965
-0.016795803
0.029813841
0.008601764
0.0110417465
-0.024930513
0.007967656
0.0035911526
0.025783107
-0.0043776245
-0.021207923
-0.004147738
0.031441852
-0.0120363645
-0.029629348
-0.039184146
-0.015544574
-0.04130596
-0.014389385
0.014044615
0.023633676
0.010105897
-0.0024288043
0.01952484
0.019153848
0.0018447092
-0.04062198
0.025336456
0.0011378905
-0.0025500318
0.020465342
-0.033078477
0.019758495
-0.0077558216
-0.03810166
-0.036788035
0.03585911
0.027197605
-0.014980454
0.016481131
-0.005186423
-0.040528603
-0.059383314
0.003139337
0.015720624
-0.0014427671
0.007199581
0.0345488
-0.03568837
-0.015324003
0.014752507
-0.016918534
0.0029700412
-0.011181178
0.031882882
0.004674049
0.020906068
-0.041787744
0.016369568
-0.016081471
0.024104124
-0.003139813
-0.025108464
0.014993272
-0.045685653
-0.012805879
0.053326156
-0.011118868
-0.013668032
0.032376923
-0.038804356
-0.022278355
0.037108418
0.041983232
0.004117262
-0.011835221
-0.0045295684
0.031054541
0.018356135
0.0047183526
0.015522667
0.018009366
0.012322478
-0.00048410156
0.028746234
0.027688028
0.018461555
-0.014102199
-0.025814656
-0.037560612
-0.027906144
0.046051536
0.05092576
0.026828086
0.0038873586
0.024969794
-0.035663165
0.011001252
-0.0060489248
0.0014331853
-0.023588816
0.024720563
0.0088526225
-0.0066940156
-0.008056454
0.0061985804
0.021782344
-0.010991838
0.008181823
0.021409214
0.047988106
-0.019863646
0.011664517
0.0008574864
-0.03185118
0.041185807
0.010636317
-0.048311565
-0.002843698
0.039815716
0.0068263286
0.03520888
-0.003676165
-0.0042957454
0.011775945
-0.017765226
-0.044748668
-0.03578257
0.020873623
-0.028649744
0.0043918905
0.017935235
0.018906314
0.003552832
-0.051823143
-0.02969569
0.009368495
-0.017354315
-0.02764135
-0.0024542583
-0.007335869
-0.050116263
0.0017238018
-0.01961661
0.0032717725
0.04271378
0.0053115464
0.028080534
-0.01781714
-0.002114789
0.027812874
-0.018780133
0.012814916
0.017207954
-0.019279232
0.027303213
0.012702495
0.020430863
-0.010526275
-0.016393786
0.018899892
0.042169802
0.019546703
0.009956339
-0.024874862
0.016967371
-0.0020860278
-0.0077208146
0.007186976
0.02087688
0.014986216
-0.028006004
-0.021889448
0.019085068
-0.014526317
-0.01925331
-0.029991746
0.005321059
-0.015382786
-0.0111863585
-0.036264647
0.016352564
-0.041961394
0.0322905
-0.037633833
0.030109568
0.005411326
0.0044573788
0.04447431
0.038535163
0.046863124
-0.0061086095
-0.006668634
0.040449146
-0.029549418
0.023133785
0.020993698
0.004754429
0.010063582
0.01117931
0.014651944
0.029215913
-0.018564085
-0.005214213
0.008467042
-0.0010578169
0.0007693882
0.052277032
-0.024072263
-0.028134862
-0.029780528
-0.02171561
0.023132274
-0.01394735
0.01609681
0.012930405
0.022808291
0.0076985103
-0.01837365
-0.026719626
0.025726395
0.010385099
-0.0070559816
0.011583836
-0.023775559
0.027212027
-0.025211493
0.003969656
0.010072464
0.016316244
0.010005476
-0.0096113235
0.0403832
0.027754476
0.013205956
0.007106616
0.03430308
0.01955511
-0.01861425
-0.031255763
0.0055804653
0.0038498288
0.022540338
0.035123084
0.024718786
0.012862899
-0.014966581
0.009396129
0.008906867
-0.046042442
0.021826414
-0.0143907275
-0.0070884866
0.001080456
0.007386914
-0.0020925945
0.041978087
0.023663826
-0.017955013
-0.020402163
-0.020550564
-0.0416043
0.052163914
-0.03058388
-0.04610716
0.05439159
-0.03395659
-0.022789098
0.0056934496
-0.021103429
0.039640643
0.02500556
0.020434411
-0.018264934
0.006615928
-0.030255612
0.0096632335
-0.00069273356
0.026260536
0.00015582227
0.034598485
-0.009558851
0.00874893
-0.04349465
0.031330712
0.041832183
0.01754418
0.027199117
-0.030679686
0.012715325
-0.02013745
-0.02818313
0.021491092
-0.00834886
0.013323382
-0.016947623
-0.04053105
-0.029200098
0.018928763
-0.012509415
0.016294716
0.014282707
0.015878417
-0.02316732
-0.023152607
-0.014209744
-0.0025955217
-0.0015237019
0.034257635
-0.004767557
-0.03385389
-0.0012780414
-0.022402748
-0.012210575
-0.026945522
0.02617278
0.011526769
-0.012273697
-0.052794524
0.0072611426
0.0040494753
-0.026268022
-0.02583431
0.013617345
-0.041329056
0.020954719
0.009627502
0.032092918
-0.02030691
0.004424914
0.039440308
-0.037803136
0.0008633414
0.0030430607
-0.0065329466
-0.008671817
0.012407262
-0.0016500026
0.012603897
-0.005537914
-0.011914525
-0.013737562
0.012950514
0.018486382
-0.016222637
-0.03890328
0.0025023008
-0.004655048
-0.019331751
0.0260107
-0.04516212
-0.017199447
-0.028457453
-0.047006916
-0.005433235
-0.033851046
0.035119317
-0.00223788
0.031207396
0.0011080402
0.0060505588
