0.046663295
0.0022048664
0.0075204098
-0.02762416
-0.040191457
0.007538185
0.013336818
0.011187311
0.025294194
0.016290054
-0.0028988183
-0.02812126
0.039854266
0.009123673
0.023376992
0.018014925
-0.00564029
-0.015823947
-0.024340166
-0.024993412
0.014069716
-0.018094055
0.035856895
0.0060606063
0.0102481665
0.005537941
-0.033093486
0.0012329944
0.01196834
-0.0072011813
-0.014724766
0.02528477
0.036073204
-0.006653835
0.0037078648
0.021102486
0.01995495
-0.0005756614
-0.009370271
0.008772469
-0.026657218
0.021182068
-0.012727657
0.008591041
-0.03460646
-0.012607829
-0.012757741
-0.01565429
-0.032157175
0.041336548
0.0013747786
0.015770888
0.011515152
0.009408338
0.012946892
-0.026711827
0.023479344
-0.021074157
0.008090879
-0.03465405
-0.012633962
0.016704319
0.013830756
0.026916893
0.032643937
-0.037962884
0.013928366
-0.020018939
-0.009544123
-0.0347038
-0.010144158
0.02417586
-0.005865351
0.008485053
0.003305784
0.014891604
-0.008067951
-0.024245294
0.00511258
0.008164286
0.007328182
0.0021892837
0.04004525
0.011137904
0.0117405625
0.0056316284
0.0019405925
0.017624468
0.00021124366
-0.0032149416
-0.0019923912
-0.003519665
0.02433961
-0.010461741
0.011559205
0.011422879
0.0158578
0.048490494
0.023341753
0.017553782
0.031178458
-0.0414249
0.01512078
0.027126357
0.012889128
-0.0063471585
0.0023861204
0.006660656
0.0132747805
0.04160382
-0.0016301663
0.009793489
0.047212977
0.007539643
-0.037779547
-0.012341568
0.0076867966
0.02063325
-0.052012395
0.029487617
0.021886783
-0.023004094
-0.018006176
0.028897656
0.048318747
0.020206226
-0.037771136
0.035809666
0.0054517253
-0.0010999078
0.004285111
0.0131225055
0.036254246
0.026807072
0.013928502
-0.018252105
-0.0013769501
-0.017766101
0.01085349
-0.0070453943
0.03635555
0.014128768
0.0063357255
-0.032234382
0.0025339816
0.0023140719
0.021882886
-0.014527093
0.00047716752
-0.02041091
0.012200484
-0.018672775
-0.019277172
0.0374382
-0.008120438
-0.017211054
-0.0016497021
0.024789486
-0.021504197
0.021223707
0.010798035
-0.0028331398
-0.006808256
-0.001284282
-0.01905099
-0.0025716785
0.04750602
-0.02408916
-0.02449268
-0.0019822416
-0.008258459
0.0023574599
0.027971087
-0.030904897
0.041673947
0.03043807
0.033998333
0.024412159
0.021026256
0.0028587973
-0.01627475
0.02094189
0.0039707487
0.00591735
0.009667103
0.009825333
-0.00036849186
-0.0006627031
0.0068287617
-0.009710109
0.0179951
0.017717302
-0.01896418
0.017706648
-0.034096446
-0.0067531094
-0.000898777
-0.010884964
-0.0040270896
0.02233351
0.042872258
0.024144795
-0.0018244403
0.005882522
0.020551186
-0.0239292
-0.013318555
-0.031559326
0.027569368
0.01367217
-0.024965825
0.01415465
-0.019176304
-0.0030649484
0.02996212
0.0060360976
0.039103203
0.012854405
-0.016299587
0.036626868
0.0038429932
0.007201418
0.021765264
-0.03282944
-0.0030086348
0.013963215
-0.008880815
-0.006983648
0.03333868
0.030550849
-0.0041738437
-0.012639415
0.030367818
0.04351516
-0.012745495
-0.01708972
0.020137874
0.009237849
0.003212238
-0.017753934
0.030150112
0.033378668
-0.028605994
-0.012281199
-0.01959024
0.027264442
-0.0007852158
-0.014090756
0.0019011616
-0.020935096
-0.0035954772
0.0171252
-0.016288342
0.0104894275
0.03323342
0.020323973
0.0021184296
-0.0074202814
-0.007012943
0.00079522753
-0.0047017965
-0.022084601
0.007399226
0.007461936
0.0055646603
0.008915504
-0.03839018
-0.021169312
0.016269773
-0.030625314
-0.00050551933
-0.00784482
-0.006351372
-0.0035227013
0.003314047
0.021975534
0.0065383804
-0.008894058
0.035033654
0.014872055
0.022348667
0.015106795
-0.00048053672
-0.0370543
-0.023438072
-0.0012465635
-0.01711765
0.050187506
0.03484813
0.026893305
-0.030217167
-0.0010658264
0.03851829
0.016217314
-0.012819382
-0.018979188
-0.03819536
0.026960861
0.0015164778
0.020115197
0.040083215
0.027444111
-0.033027347
0.017800268
0.017255543
0.022191202
-0.02731297
-0.012683536
0.027733887
0.0008327116
-0.0087240795
0.0022238807
0.011994018
0.041731242
-0.005599926
-0.037019826
-0.018636389
-0.02637067
-0.01547834
0.01617104
-0.034932546
-0.028040431
0.008423467
-0.03236383
-0.035141326
0.006999906
0.010971184
0.002315603
-0.0024421823
-0.014602826
-0.0011364736
0.034999985
-0.011321319
-0.0134399375
-0.046449326
-0.015742647
-0.008381391
0.026965547
-0.0025630635
-0.0042285104
0.03641183
0.014071816
0.01252699
0.012902701
0.012519669
-0.003976813
0.005667402
-0.010188606
-0.0066024205
-0.036395136
-0.016750908
0.0021971727
-0.01578612
-0.036285482
0.0071471836
0.02021175
-0.014933646
0.006787532
-0.008192817
-0.0040506907
-0.02915158
-0.01314264
0.0111426925
0.0065515377
-0.031320874
0.0100552635
0.024948442
0.00615706
-0.004742204
-0.009970731
-0.01718403
-0.025411485
-0.005680462
-0.040737245
-0.008830035
0.029134935
-0.0021971352
-0.034839775
-0.018874533
-0.02128008
0.0032354686
0.022921946
0.025458299
-0.0071414434
0.04221583
0.032154676
0.013295872
0.017193966
-0.012283557
0.00894752
-0.017631618
-0.027143499
0.005375992
-0.0010556747
-0.038630635
-0.008560338
-0.026886933
-0.0021200078
-0.021154588
0.006976059
0.02612001
0.02315104
-0.01767256
0.02515237
0.0080075795
-0.00034476098
-0.0066428827
-0.021752624
-0.0033636221
-0.043205548
0.012443152
0.030649338
0.02116785
0.023811212
-0.018931331
0.017180942
-0.001877394
-0.0403085
0.008096983
0.005143288
-0.004508917
0.0022219927
-0.024361027
-0.021757169
0.00814939
-0.026947662
-0.019623017
-0.043428384
0.016370792
-0.017053185
-0.010554361
0.0334822
0.006727217
0.016139662
0.01234634
0.007468285
0.0003386971
-0.0064450167
-0.0014114592
0.0151140755
-0.02955599
0.018298883
0.00069293904
0.0024910935
0.033513103
-0.018932661
-0.00559166
-0.016860679
-0.020202974
-0.027355485
0.012437541
-0.025831856
-0.0005395698
0.004228499
-0.005009884
0.032371692
-0.04075268
0.020808598
0.03938599
-0.027990822
0.024787001
0.018466601
-0.016242662
-0.02283558
-0.005267219
0.018554684
-0.0034595784
-0.033430625
-0.005288733
-0.0073871366
-0.023077676
-0.023424217
0.027699305
0.0020642434
0.0017594686
-0.024334282
0.023660168
0.003659939
0.03411911
0.015419618
0.026074033
0.026063519
-0.034987353
0.0011023768
0.008760855
0.008702553
-0.009945004
-0.02435944
-0.030388588
-0.03073918
0.026968341
0.0046981834
-0.018195506
0.036437225
-0.014980886
0.014060888
0.03489445
0.030350896
-0.051890623
-0.009242348
-0.031884227
-0.01577065
0.0070810732
-0.025161099
-0.032836013
-0.0009972019
-0.034859627
-0.02947644
-0.0069948067
0.027995821
-0.009084272
0.045960393
0.043993294
0.025455814
0.038211748
-0.012463456
0.011536939
0.012116042
-0.0012452302
0.016532728
-0.004251519
-0.008805522
0.007432795
0.022842137
0.025222875
0.009530849
-0.022053184
0.0062945485
-0.035711575
0.035189953
-0.0104591325
-0.051189706
0.026866848
0.0036333343
0.04733542
-0.014424292
-0.022593245
0.009401437
-0.018004926
-0.033710647
0.0049126986
0.042776614
-0.035726424
-0.006274038
0.015986899
0.009750705
0.040963076
-0.008751802
0.0056169843
0.03531241
-0.01261007
-0.015473406
0.0040675025
0.031699214
-0.0012675953
-0.017759321
0.0016948824
-0.017748615
-0.010188825
0.005891309
0.010969642
-0.00982651
0.027308183
-0.004600082
-0.016982622
0.04207842
0.047243696
0.0014151036
-0.01076708
-0.0014359693
0.02322192
0.012372209
0.018562574
0.022845596
0.022699969
0.03120486
0.0150702
-0.00018358284
0.040686987
-0.046362076
-0.01878868
0.0060389885
0.009577959
0.004434186
-0.008181799
-0.032432634
0.008520005
-0.0008477825
-0.005104134
-0.022580434
0.00782181
0.032287624
0.026739234
-0.031881597
-0.008644445
0.040381845
0.0058482457
0.0023055393
0.02015025
0.008193269
0.021392994
0.026163975
-0.015817262
-0.018896246
-0.025013348
-0.025427477
0.021850495
-0.045094326
-0.018671602
0.005613841
-0.0068413
0.0369631
0.009485332
0.04049638
-0.05056204
0.030882979
0.037925452
0.021716185
0.029659446
0.02848765
-0.034811042
-0.012025662
0.024455875
-0.028775042
-0.008606617
0.013374427
-0.022467824
0.014622452
-0.00040210233
-0.020558808
0.026521076
0.009737016
0.013508871
-0.01981135
0.0022457014
0.018177925
0.045874298
0.012578995
-0.00609213
0.037671503
-0.023334382
-0.004941247
0.03696555
0.035590075
0.010360635
-0.025911964
0.016888488
-0.020383812
0.0063833506
-0.016223582
-0.029904302
-0.0005167263
-0.022353377
0.04488748
0.007950197
-0.030064544
-0.029019104
-0.03315875
-0.022409692
-0.017129343
0.029413763
0.024653949
0.03892976
-0.03508077
0.015038971
0.009406644
-0.010663987
-0.012057132
0.022073327
-0.0006429892
0.023512064
0.0019030027
-0.02761764
-0.039801236
0.03921664
-0.01807016
0.027068114
0.026964834
-0.007203735
0.017407153
0.0037122697
0.014837578
-0.03229221
0.0227702
0.003360493
0.024484297
0.0049099647
0.022182088
-0.024501326
0.024361037
-0.00654036
0.009142096
0.022961482
-0.0019061712
-0.023234442
-0.02720133
-0.0021037476
-0.03131906
-0.013617315
-0.0126978755
0.0320119
-0.0019442153
0.01135562
0.007636604
0.018689955
0.029963432
0.014317025
0.036968485
0.0018865798
0.009109163
0.01951631
-0.01725154
0.03867657
0.027355986
0.02101179
-0.008662902
0.015312697
0.0002878226
-0.034985222
-0.016151344
-0.034394253
-0.0077793594
-0.010016232
-0.02598072
-0.012207494
-0.00963469
-0.011799541
-0.015502215
0.01671477
0.0010920943
-0.00079006614
-0.028005296
-0.0075800302
0.019531962
-0.031697515
-0.021003852
0.026498051
-0.015580796
-0.0039192582
0.023711933
0.027033297
0.015100148
-0.021297665
-0.020864919
0.008991308
0.0027034886
-0.02037715
-0.0066302693
-0.004906413
-0.039549757
-0.005795947
-0.009040351
-0.026479337
-0.017257063
-0.012423894
0.01018218
-0.028752325
-0.035376567
-0.014965668
0.0035544285
-0.009054357
0.0023805397
-0.0141482325
-0.006831422
0.030230159
-0.024599385
-0.023607934
-0.0147928735
0.0074333483
0.04693464
0.013974915
0.015191244
-0.007197679
-0.01744408
0.009352276
-0.0050276774
0.019376533
-0.05014152
-0.031516496
0.016964512
0.0020125736
-0.01001664
-0.009380152
-0.0229746
-0.018843729
0.01846643
0.0131225325
0.0037305765
0.020143852
0.0071544456
-0.042368174
0.0289122
0.035703924
-0.013838829
-0.0043072295
-0.032213863
-0.012506152
-0.021800976
0.015663458
-0.034584165
0.015475598
0.016433237
-0.0043476075
-0.008771472
-0.009239185
0.011496087
0.011700913
0.013020199
-0.005950693
0.00989582
-0.008611669
-0.007625557
-0.039764192
-0.018037926
-0.0067594387
0.005508277
-0.0072087673
0.009964196
-0.04261557
-0.017239532
-0.05845746
-0.0038373575
-0.000701968
-0.0009118984
0.0007667369
0.0028682416
-0.009993561
-0.0051192753
-0.022472376
0.003927883
0.007517503
0.020978734
-0.019400278
0.01210415
-0.052888192
0.019646054
-0.010825459
-0.0066498923
0.04044102
-0.012541255
0.008834792
0.024932137
0.02955096
0.0184284
-0.015234049
0.038133156
0.0037150818
0.010971581
0.0049133017
-0.048994895
-0.01807064
-0.019070212
0.0013217311
-0.036225032
-0.025419626
-0.021485284
0.003319736
0.022473728
0.017678656
0.036664933
-0.02963187
0.013043604
-0.006609704
0.0015468091
-0.0044380617
0.016087327
0.012513196
-0.02984407
0.025040023
-0.031324673
0.0049295085
0.021534454
0.0041196425
-0.038137835
0.017946122
0.00040029886
-0.016126247
-0.008688732
-0.029496152
-0.0032267072
-0.008678696
0.018003589
-0.025254354
-0.020535497
0.023866924
-0.02045247
-0.02379404
0.021410538
-0.00506111
0.0023128062
-0.01730267
-0.025103379
-3.272752e-05
0.011799148
0.022555232
-0.004681148
-0.02977026
0.002123493
-0.01332584
-0.014337802
0.017983513
-0.045507554
-0.0106313415
0.013162514
-0.004130591
-0.043536134
0.024941988
0.024174025
0.0072808396
0.021931458
0.0075431033
-0.01139364
-0.012622115
-0.011755788
-0.010848773
0.007578017
-0.03434597
0.028925637
0.025740692
0.027553057
-0.027064277
-0.012492106
0.0007270054
0.02452075
-0.010456571
-0.027991064
0.040277816
0.032414686
0.0019378703
0.012960639
-0.019183528
0.0063810814
0.024540205
0.004477489
-0.037471432
-0.04084239
-0.009922287
0.00754425
0.007709335
0.00030990216
0.02897785
0.01696054
0.036277097
0.0012583915
0.0068697412
-0.00045127398
0.021399729
0.0073364875
0.033290353
-0.019024853
0.011997962
0.015918992
0.0023812805
0.0070091668
-0.010454874
-0.0015631224
0.023710696
-0.010370135
-0.01511688
-0.015503356
0.004996565
0.011292434
0.013999373
-0.0015822249
0.0075392486
-0.0100738825
-0.026407052
0.00534246
-0.012556334
-0.011945679
-0.021762619
-0.0024416116
-0.0034089533
-0.0006674747
0.041876514
-0.0015167436
0.0025666107
-0.00014877027
0.009780672
-0.017339503
-0.014162781
-0.037387896
-0.0054816552
0.035383932
0.00453114
0.02388741
0.014659753
-0.011599062
-0.0030177985
0.008182717
-0.0145611875
-0.030867454
0.0005092616
-0.0033220346
-0.019545363
0.043066975
-0.0008978243
-0.0016202756
-0.021018771
-0.029803595
0.033585105
-0.001575105
-0.01729079
0.0165604
-0.0052505527
0.009416982
-0.030609228
0.01185743
0.015466782
0.03502874
-0.021076629
-0.0023007235
-0.0011927238
0.018752765
-0.0082945125
-0.030093588
-0.0067013977
0.0042663966
-0.011369552
0.025547097
0.04636504
0.015986368
0.008438476
-0.02120407
0.0034573155
-0.03276761
-0.0064861747
-0.032592934
0.0013287785
0.009577849
-0.040477104
-0.014684913
0.016804261
-0.012416292
-0.0042925035
-0.017118527
-0.013243902
0.0325152
-0.030399032
-0.025825763
-0.042058356
-0.015192531
-0.01676148
-0.009631553
0.034009043
0.033098094
-0.013659727
-0.020755343
-0.0074410266
-0.010706982
0.017146943
0.013225426
0.008860253
0.02019789
-0.0176639
0.0062956656
0.029184377
-0.009247165
-0.014094272
-0.027206704
0.04780579
0.021776235
0.025967851
-0.023495682
-0.010103832
-0.014759745
-0.009076302
0.024050213
0.032495704
0.023423068
-0.022039903
0.02193387
-0.002455045
0.015834969
0.015139496
0.0081679085
0.019323137
0.01152935
-0.0004501957
-0.021616865
0.007872043
0.022801537
-0.0058420203
0.0394809
-0.0038679212
0.007833178
-0.0210292
-0.0063155163
0.026933955
0.026024947
-0.010407157
0.030261204
0.011257005
-0.03009715
0.00018157276
0.010872922
0.019044163
0.00060509145
-0.022534516
0.006262157
0.02131584
-0.0005639795
0.022144299
-0.0291424
-0.018310329
-0.0044136527
0.006989031
-0.0053991284
0.003538706
0.012078215
0.008798112
-0.030468883
-0.0089365905
-0.0025268265
-0.009964651
0.0026523215
0.013517245
-0.025253043
-0.00054131454
-0.005390225
-0.016185794
0.021783566
0.0033813606
-0.021300612
0.032748125
-0.009189622
0.0246631
-0.016210048
0.023387665
0.034909733
0.008874365
-0.028916659
0.009747906
-0.006239905
0.018642914
-0.009948742
-0.025811924
0.02350426
-0.0053716344
0.0012813226
0.029502133
-0.004451316
0.0044281604
0.01548651
-0.02550662
-0.014799329
-0.022515466
-0.00428614
0.02834039
0.029408548
-0.0041550016
-0.0015279391
0.01947198
-0.04139172
-0.02465852
0.032121334
0.019843422
-0.021168156
-0.007970747
-0.03305887
0.0040196236
0.027750665
-0.012090848
0.012554581
-0.0077303867
0.0048343963
0.04502881
0.00873746
-0.007635446
0.033963986
-0.035102803
0.022529328
-0.03453083
0.011210194
0.04630737
-0.009364029
-0.012682496
-0.014049183
0.02763706
0.022103194
-0.0299519
-0.031947624
-0.002999248
0.0054308493
0.008805638
-0.0011693616
0.009691175
0.005577968
-0.011994213
-0.038432
-0.018229704
-0.03682106
0.016867604
0.027157474
0.0005366524
-0.00029776423
0.02689459
-0.02656159
-0.009284669
-0.024043227
-0.012144563
0.005249992
-0.019383147
-0.0028479241
0.023961004
-0.012495542
0.01186428
0.014255723
0.016323615
0.0027050884
-0.019625552
-0.008072204
-0.018057477
0.034356862
-0.012370277
-0.0137613155
-0.0045064017
0.0016423094
-0.0034631928
0.044730946
0.00071851927
-0.020180035
0.030094586
0.01881619
-0.013815696
-0.00094291853
0.005133083
-0.032288134
-0.00033691904
-0.035100587
-0.0027084467
0.010025974
0.01183121
-0.017718455
-0.0040327413
-0.020267645
0.039399307
0.00017154994
-0.043630857
0.022052633
0.023801334
-0.025907373
-0.014647631
-0.020947088
-0.023689145
-0.0048055733
-0.0026370015
0.012218894
0.016917188
0.010712765
0.018853517
0.033892155
0.006816211
0.016283778
-0.021642178
0.016964037
-0.0019526845
-0.019236853
0.021227721
-0.011698725
0.0063348706
-0.023798253
5.9405593e-05
-0.0010060542
0.0070005986
-0.011282216
-0.0028255603
0.020842904
-0.0034789091
0.03700043
-0.01993101
-0.02875115
0.034000598
-0.0030206172
0.011927444
0.033205893
0.031439412
-0.03453185
-0.04894066
0.018506208
0.02443117
0.02442116
-0.05220801
-9.5867035e-05
-0.012675467
-0.011405062
-0.02469078
0.0015856501
0.011886072
-0.016198855
-0.0103204185
0.024464672
0.027013462
0.024046816
0.0041938936
-0.02755457
0.01222819
0.0063095856
-0.051718645
0.008625766
0.0023674953
-0.019283263
0.022310046
-0.035218433
-0.018412553
0.032503933
-0.008137463
-0.015083404
0.033595234
-0.0063767238
-0.020274246
-0.016158614
0.041457757
0.00940511
0.009538237
-0.01901309
0.019447897
-0.02938861
0.037148423
-0.02397665
0.0219082
-0.01881667
0.023573598
-0.045598153
0.009833974
0.019895399
0.0080016935
0.007858242
0.032024268
0.017731877
0.021080887
0.0044082766
-0.00589508
0.011265552
0.018059142
-0.0132173365
-0.025240028
-0.034201566
-0.008692632
-0.018708093
-0.015828673
-0.048765633
-0.006984742
-0.028145049
0.036969636
-0.014160735
0.032340646
0.0118485745
0.030619653
-0.01039683
0.017872505
0.03564141
0.029163122
-0.026996562
-0.015024375
0.011382196
0.036997274
0.045028355
0.0149746
0.015408119
0.024737459
-0.020581758
0.052712277
0.035310496
-0.010294882
0.031024126
-0.01240829
-0.03117148
0.031877484
0.0028350696
0.041156393
-0.0007573142
-0.036914773
0.01870926
-0.011813109
0.003963225
0.008372619
-0.02197606
-0.008589088
0.04249181
-0.0014067256
-0.008867672
0.0043820236
-0.0005134372
-0.0243904
0.008729411
-0.0034865227
0.006053742
-0.02785717
0.017013222
-0.0052088876
0.017941069
-0.00389043
-0.0194654
0.001331803
0.017439235
-0.020396214
-0.02053521
0.02160214
-0.0064106663
-0.004962176
0.00093140296
0.02749243
0.010405139
-0.027044805
-0.02313784
-0.0012044264
0.016774086
0.007133898
-0.032502223
0.022493428
0.014561405
0.02939815
-0.015428238
0.007912193
-0.0146975685
0.013696691
-0.026884302
-0.0072991853
-0.024037626
-0.001699851
-0.014832978
-0.009971778
0.008065517
0.032404855
0.0069637774
0.0013796883
-0.012535808
0.014617211
-0.018589783
-0.0024348206
-0.010949424
0.0008939538
-0.008158134
0.013823908
-0.03606242
-0.014341038
0.021150766
-0.0024617529
-0.032900903
0.020987725
-0.008048867
-0.01971548
0.005982862
0.015656892
0.042425446
0.031213934
-0.018224968
0.016946247
-0.009138815
0.012938946
-0.017847052
0.031146893
0.016014379
-0.015661089
-0.0015740974
-0.021659447
-0.010814553
0.012151923
0.053633533
0.019106336
0.03771259
-0.047157556
-0.055525478
-0.008836988
0.03370179
0.03292626
0.023124075
-0.016558696
-0.004886556
0.0275979
-0.04402525
0.009251776
-0.0029509396
0.009253952
-0.002713305
-0.02795122
0.010323575
0.0153501155
0.014510119
-0.02694935
0.02812841
-0.0020673703
-0.016855866
0.0056981244
-0.022249615
-0.044640496
-0.022621194
-0.050854046
-0.028897036
-0.005001757
-0.025837151
-0.032582257
-0.015118072
0.014798654
-0.0070177657
-0.013651973
0.023336634
0.035887282
0.0044407113
0.03908459
-0.02047618
0.01613271
-0.009091257
-0.00012661042
0.030822841
-0.030442188
0.0006154465
-0.004937258
0.01013679
-0.020351475
-0.0028860862
-0.016039534
0.027330644
0.013195762
0.012233532
-0.015081171
0.005253284
0.0052073775
-0.0001855211
-0.022322716
-0.022600923
0.00013332699
0.01916738
0.02534188
0.01016073
0.006386815
-0.015604467
-0.011481236
0.00584897
0.039898165
0.0062151654
-0.027373582
0.011710486
0.015591783
0.010672444
-0.008662389
0.015736487
-0.011629112
-0.023814345
-0.016779095
0.047426045
0.0114075355
-0.022327518
0.02401345
-0.014106637
-0.0057723084
0.012546932
0.013031844
-0.029437223
0.013986549
-0.0011101011
-0.011789239
0.0060453867
0.0016893188
-0.039388955
0.035324622
0.017167386
-0.03859929
0.025537495
-0.02073802
0.021673549
-0.012413332
0.030898621
-0.021184996
-0.023980863
-0.021648794
-0.030355133
-0.005834754
0.0030594254
-0.050653744
0.00063370285
-0.006662718
0.017362382
0.015561493
-0.0019937987
0.036476452
0.013972537
-0.0026913872
-0.01894056
0.022203304
0.011495341
-0.031600837
-0.010075361
0.007483272
0.007005799
-0.023496656
-0.016432436
0.031551577
-0.028722359
0.025506895
-0.017919725
-0.018438416
-0.026007753
0.017312355
-0.04604211
-0.02342345
0.007339217
-0.009322446
0.0028329159
0.019162333
-0.023091605
-0.010326311
-0.017800812
0.017123494
-0.034498334
0.0034581244
0.026856106
0.010280476
-0.002415767
0.0071463184
-0.0031945165
0.014165256
-0.002887621
0.02250213
0.018796915
0.0011208919
0.0161936
-0.011484635
-0.03189277
-0.02091439
0.004959401
-0.012899292
-0.0012160337
-0.025901498
0.033124607
-0.007895961
0.019904036
0.012010223
0.0051575443
0.008895185
0.0024471702
0.014498478
-0.01070237
-0.014871107
-0.0059042876
-0.018978626
-0.014333092
-0.01613069
-0.047061022
-0.017737776
-0.036752537
-0.04422379
0.01523227
0.021258485
-0.010173627
0.03689647
0.047228277
-0.0014571942
0.0038674728
0.0070476965
0.012058383
0.029623909
-0.010840777
-0.02960417
-0.02684101
-0.007368047
-0.017628992
0.001993638
-0.012992979
-0.00015354018
-0.01732697
0.03590752
-0.031719636
-0.0018478164
-0.010285835
0.0044880034
0.03738654
-0.01159756
-0.019101482
0.007980341
0.0154019715
-0.038985956
-0.035036247
0.045259573
-0.0027321377
-0.02259119
-0.012858842
-0.019901903
0.00772713
-0.019030577
0.011001618
0.043155476
0.016855177
-0.0144535545
0.026741767
0.01243415
0.0036652412
-0.017409869
-0.012545741
-0.027526326
0.016025731
0.014171846
0.015203681
0.024243718
0.025111577
-0.022477884
0.016063642
0.05045093
-0.009381675
0.0016213341
0.02078239
-0.016863815
-0.0021838634
0.03735196
0.0007422923
0.0440582
0.0054022265
-0.013942616
-0.041196585
-0.006150133
-0.022261614
-0.017277924
-0.01464876
0.022148708
0.0019380468
-0.006869138
-0.019698735
-0.0151436655
0.025346007
0.004975567
0.015144084
-0.04075721
0.022551017
-0.02456953
0.008650292
0.0140522905
-0.02134322
-0.0022361493
-0.02938319
-0.04351258
-0.030742494
0.023785593
-0.0528918
-0.0004958519
-0.0077619595
0.0033960545
0.014329852
-0.014344292
0.00062004366
0.023049088
0.0247599
0.0031639743
0.005053621
0.006842122
0.007101571
-0.0008567446
-0.009923768
0.011594701
0.019354265
0.027068134
-0.02442284
0.010940701
-0.007959578
0.038670678
-0.0013501075
0.024961578
-0.04102672
0.042787787
-0.028807547
-0.0010655625
-0.02147385
0.02995879
0.01085151
0.0010455054
-0.009170186
-0.021394573
-0.0029645793
0.023232237
0.009007725
-0.012583238
-0.005055221
-0.011117648
-0.018238202
-0.008360561
0.008726641
1.0738048e-05
-0.017296331
-0.043038428
0.018236216
0.028637476
0.015237568
-0.025542827
-0.021198982
0.009925066
-0.039638456
-0.013039999
-0.00871211
-0.011113772
0.00761047
0.015070223
0.021692574
0.0028546064
-0.023360424
-0.0078076143
0.051522877
0.0016430672
0.020103233
-0.015279255
0.016149446
-0.0039109415
0.0008269165
-0.024087925
-0.0036917068
-0.03166859
-0.02500274
0.0053762225
-0.04651972
-0.014117198
0.016703838
0.026020825
-0.01709623
0.016844628
0.006245167
0.025292173
-0.023554498
0.0023019603
-0.0246636
0.001980814
-0.032551326
-0.0071078492
0.0382887
-0.03626825
-0.006028501
-0.012683757
-0.02661566
0.01930681
0.031156098
0.019545207
-0.009753462
-0.020041697
0.033383194
-0.01539009
-0.034274273
0.006940023
-0.0050666495
-0.011366929
0.02586813
-0.0016210924
0.02766823
0.030858418
-0.0034990788
-0.0010179335
0.0037387705
0.0055109607
0.004289343
0.024982909
-0.011263634
0.011211064
0.016923128
-0.023098985
-0.012280955
0.0027254685
0.036972214
0.01301298
-0.014354976
-0.020039847
0.012788907
-0.018144248
-0.011229088
0.018998846
-0.026590364
0.038602695
-0.016257904
0.027479978
0.015367817
-0.039497327
-0.021298435
0.0246637
0.041549586
-0.006318724
0.044859216
0.024070242
-0.031554203
0.029153273
-0.049303483
0.0018395449
-0.009527091
0.00070944056
0.010957304
0.0038299926
-0.02594207
0.010393498
-0.024695646
0.03776013
0.034216713
-0.020741807
0.018883001
-0.017574266
0.035014614
0.017337058
0.018904764
0.018204365
0.0014889115
-0.019540709
0.008336568
0.031739064
0.007763906
-0.02359397
0.0031575349
-0.016462734
0.01984598
-0.03285203
0.026782878
0.03495316
-0.016562037
-0.005018132
-0.0053003454
0.035214618
0.0017415915
0.010511089
0.012584444
-0.012615179
-0.002645962
-0.016480925
0.016776906
-0.00040959055
0.010177206
0.012255264
-0.004426129
0.024018072
0.04178256
-0.019740064
0.028060671
0.026007451
-0.027254935
-0.02883266
0.018054664
-0.022734916
0.027554283
-0.026101725
-0.025804034
-0.013353302
-0.015029034
-0.00932179
-0.021340936
-0.012593302
-0.022521803
0.003356099
0.0028202864
-0.017479809
-0.019650025
-0.0052521094
-0.017314227
-0.040510215
0.00144267
-0.009519093
-0.010280307
-0.024513198
0.015110078
-0.0017260915
0.021793704
0.008204274
-0.012199841
-0.0068439525
0.027891394
0.004948535
0.0047585913
0.025949026
-0.025955655
-0.010026476
0.0099604
4.0263953e-05
-0.0045917872
0.011891527
-0.020082045
0.02473597
-0.01724638
-0.006437251
0.0029413933
-0.010706356
0.000533311
-0.021073934
-0.0050757537
-0.0018183688
0.00032295295
0.015990816
0.0253429
0.027308645
-0.0058383704
0.005072797
-0.018085103
-0.024919013
-0.027128179
-0.03321417
-0.0021835363
-0.028085198
-0.00055348023
0.022581395
0.021539122
-0.021394476
0.029676173
0.018874217
-0.007196401
-0.02363226
-0.02829336
-0.020326445
-0.01297285
-0.01955467
0.0061616185
0.018441727
0.027512223
-0.02542298
0.027037134
-0.012315495
-0.009725039
0.02154009
-0.014813456
0.014153847
-0.011963692
-0.015910648
-0.027152015
0.00017964357
-0.022888117
-0.0029895545
0.0028732643
-0.02413078
-0.014036479
-0.034442853
0.0053142887
0.0070658224
0.021594832
-0.0060794638
0.010456981
0.0101119615
-0.028285319
-0.008404549
0.005027049
0.0019141466
-0.008123364
-0.008889544
0.026148563
0.01067083
-0.009227177
0.025568677
-0.0015599771
-0.01442107
-0.022039227
0.002285728
0.024364615
0.03045719
-0.018004691
-0.008759028
0.0020581689
-0.0067784265
-0.012360959
0.013779669
-0.025596505
-0.004803645
-0.022002403
-0.045789026
-0.014797153
0.00021803241
0.015109203
-0.015037067
-0.017115394
0.008702588
-0.009939296
0.011626835
0.0052957875
0.010544377
0.028831769
0.0042630997
-0.0022272496
-0.016772423
-0.009066049
0.023969185
-0.011638682
0.0030178546
0.0052136187
-0.011873836
0.009263587
-0.0060582967
0.014214757
0.03436263
-0.0010492931
0.0120900655
0.00947629
-0.008843319
0.009612969
0.021929327
-0.0070673805
-0.014321878
-0.01172811
-0.0227355
-0.0039269137
-0.006955739
-0.0073589887
-0.019800551
0.0012917295
0.0035378663
0.0155943725
0.021465259
0.018440183
-0.0122067295
-0.01593276
-0.011038175
0.019558296
-0.0032976898
0.00961122
0.0067996373
-0.008049437
-0.019597111
-0.003662813
-0.008026309
0.04010511
0.016019361
-0.0026135086
0.0012033646
0.026204277
0.0045190165
0.0022114294
-0.0012833971
-0.0369439
0.016672246
0.008672971
-0.02762712
-0.028086618
-0.008805592
-0.014815315
-0.013298247
-0.008102079
0.03829546
0.02519814
-0.018006742
-0.0051696855
-0.015400126
-0.030867139
0.009747896
0.022402309
0.011220133
-0.031831495
-0.029324617
0.022473067
0.038499057
-0.014511516
0.013563131
-0.024010656
0.021011585
-0.023304418
-0.0033750553
-0.0049917875
-0.016943071
-0.018325154
-0.03127297
-0.019065117
0.0031762028
0.025239237
0.035468727
-0.020941382
0.009747098
0.0068282057
0.0132549815
-0.0030533506
0.023595499
-0.007905023
-0.003770686
0.0015231599
0.0072792643
-0.019319868
-0.0015942818
-0.014364225
-0.008534256
0.025355987
-0.009659583
-0.033013664
-0.02613145
0.008605874
0.007325396
-0.03372899
-0.009242381
0.016103366
0.008458968
0.045317188
-0.025877276
0.022287993
-0.028325664
-0.037369862
-0.0066316705
-0.035634395
-0.0033897595
0.0010354754
0.018885719
0.013281307
0.009364829
0.034041345
-0.010382624
-0.032092277
-0.022779487
0.0025257873
0.004836501
-0.02805607
0.00820725
-0.015078996
-0.0021959539
0.01918003
-0.020506285
0.0039729527
-0.014711119
0.0010678803
-0.016880633
0.0075070173
-0.0016527893
0.024890328
-0.025304517
0.013636187
-0.0018136434
0.008897375
0.016604727
-0.010468516
0.028346196
0.03759915
0.011057225
-0.014022273
0.020673394
0.0072777085
0.015004281
-0.014973922
-0.017682338
0.01786234
0.013956711
0.013897566
0.0115718655
-0.025838925
-0.017663123
0.0052416795
-0.0023864028
0.0063047567
-0.04951953
-0.0043344656
0.033405636
0.01405294
-0.0137083465
-0.020315573
0.020165693
-0.022093613
0.029204581
-0.03915171
-0.014013921
-0.02806375
-0.003474435
-0.00044699755
-0.015265548
-0.023226457
-0.017115543
0.026790785
-0.015487632
-0.03254174
-0.025405383
-0.025058378
-0.055312432
-0.014771298
-0.009534943
0.038117155
0.008111174
-0.01928006
0.017820679
0.0050424226
0.005470653
0.0031537272
-0.007264438
0.01761472
-0.01346627
-0.0137871485
0.04927376
-0.009054982
-0.01926943
-0.0042486847
0.031542365
-0.014160867
0.0097684935
0.009353055
-0.010088102
-0.005503552
-0.025433732
-0.020892581
-0.014984916
0.012968259
0.023703344
-0.013964982
-0.018734377
0.00023730038
-0.0024575465
0.00012142969
-0.0075220605
-0.023980742
-0.025774352
0.0032911275
0.038892265
-0.019563619
-0.015417641
0.01068355
-0.040351223
0.013316234
0.019797431
0.008935134
-0.026508763
0.0012606418
-0.010327171
-0.018444154
0.012284487
0.00033437417
0.014507783
-0.04443301
0.0056707286
0.008566723
0.019704258
-0.01922578
-0.011307873
0.030705772
0.015089658
0.019131573
0.0039170873
-0.031025551
0.022429764
0.03891808
0.0023201003
-0.0061323186
-0.006739492
0.017479047
-0.0039076167
-0.0226686
-0.0006632611
-0.004383672
0.05419133
0.014885371
-0.021862177
-0.01713037
-0.004513679
-0.00092550204
0.01708313
-0.047928836
-0.0014819145
-0.018046072
0.015168066
-0.0116495835
0.014920586
0.0149617065
0.025109863
0.0004980559
-0.009009052
0.018434359
-0.011185698
0.001562124
-0.011340461
-0.010682443
0.019550757
-0.033704303
-0.034709636
0.031983808
-0.026842123
0.052947875
-0.007507096
0.001475612
-0.012344753
-0.00022152641
0.010157095
-0.00012662497
-0.023590058
-0.00816751
-0.015137147
0.02234289
0.02471923
-0.027392877
0.023991888
0.0040960913
0.01575773
0.027032686
0.004500473
0.015721759
0.03710364
0.009454228
0.00079131505
0.02304182
-0.031870738
-0.0130459545
-0.018214922
-0.038091537
-0.033853933
0.008061815
-0.02566205
0.008122846
0.03254444
-0.03319801
-0.031502668
0.028377376
-0.006985812
0.007016137
0.0309245
0.018036958
0.022622429
-0.0009784678
0.0026382494
0.037181534
-0.04944432
0.008442103
0.01747915
-0.009434697
0.025973963
0.014976886
-0.013431422
-0.011922548
-0.0014919837
0.030708525
-0.02352962
-0.039311074
0.021681601
-0.022567177
0.030173872
0.018789278
-0.026640393
-0.024985157
-0.020898428
0.010514344
-0.0030214193
-0.032472927
0.0084330905
0.00425345
0.017658612
0.030530145
-0.013138629
0.0039305775
9.442125e-05
0.041299764
-0.0014642517
-0.027477484
0.022415517
-0.017704727
-0.03199886
-0.030163359
-0.014280215
0.0069673797
0.022106579
-0.01506553
0.024218919
0.016422287
0.033672918
-0.0042172414
0.017219566
-0.029864024
0.0455966
0.013530811
-0.022489874
-0.024341336
0.032197196
-0.014490823
0.02184991
-0.010533584
-0.015459306
-0.01765557
0.008518808
-0.011385088
-0.028943714
-0.021087974
0.03561282
-0.0056040776
0.0047930307
0.009644271
-0.0070486986
-0.0119658075
0.011939428
-0.00026816648
0.007218177
-0.022600718
-0.016039528
0.00077523617
-0.009263932
0.022146167
-0.0075312345
0.037763912
0.011393617
0.0064708083
-0.0057140524
-0.015960077
-0.014804622
0.01067196
-0.011713771
-0.0042812377
-0.0065884152
0.03602133
-0.032647524
-0.010765968
-0.008539508
-0.00068666256
-0.00043723997
-0.0042045154
0.012248103
0.009100307
-0.021058181
-0.0017982636
-0.0056054797
-0.0033527962
-0.010245703
0.0022362333
-0.014572863
0.008801375
-0.010772293
-0.0044650435
0.0077724103
0.003857136
-0.022198124
-0.019787416
-0.0031545658
-0.013937709
-0.010490693
0.004078492
0.012979144
0.0013149811
-0.043201294
0.031654347
0.013874962
-0.005558555
-0.017954282
-0.013710966
0.0090149045
0.0074342326
-0.00949249
-0.04364453
0.024927948
0.020563422
0.013551851
0.011385313
0.0006388692
0.0198212
-0.022494387
0.0026790544
-0.012013795
0.02734147
-0.004401713
0.013209738
-0.0029896717
0.007997447
0.0047426154
-0.03258436
-0.032893427
-0.008507039
-0.010790063
0.0072888792
-0.033532977
0.010760704
0.015696295
0.025663627
-0.023180224
0.030029051
-0.0053406255
-0.039608225
-0.032241017
-0.012093648
-0.013335256
0.0034528202
-0.010578218
-0.007064966
0.021280019
0.010125334
-0.015832722
-0.04131103
0.020961434
-0.009625311
-0.0077283178
0.0026833522
0.024131415
-0.0036446592
0.018405985
0.003932183
0.022050438
-0.012808349
-0.011152254
-0.0124665
-0.036449794
-0.017317975
0.02231271
0.0029736264
-0.016097577
0.000708011
-0.031197198
-0.03779816
-0.017863099
-0.027416762
-0.00061955117
0.014388171
-0.021186683
-0.03352617
0.021264354
-0.012509385
0.0063709533
0.013461835
-0.0093735745
-0.021560282
0.04546108
-0.035823867
0.0006783817
0.012479448
-0.011115563
0.0096112685
-0.025661808
0.007705511
0.009346507
-0.014911593
0.013935975
-0.02022237
-0.007121172
-0.016301686
-0.044351332
0.012785898
-0.020140627
0.009853263
0.015788099
0.012221079
0.028865755
0.007777092
0.009788134
-0.0037569944
-0.003597686
0.022398945
0.0127821695
0.021990893
0.017154993
-0.0068157283
-0.012767687
0.019879563
-0.009506983
-0.030970046
-0.019405127
-0.033287764
-0.018749192
-0.0077329706
-0.01964489
-0.0029170054
0.0028497402
-0.024982007
-0.037327413
-0.033040844
0.007654777
-0.002741036
0.011165706
-0.0050612087
-0.042176258
0.03185951
0.01592767
0.007895313
0.041403543
0.012428665
0.008397797
0.0027188584
0.004726808
0.030665865
0.021941574
-0.0070452327
0.013289572
0.0043798517
-0.023647176
0.0124655645
-0.02889236
0.017561793
-0.01563549
0.046378553
0.003152648
0.02334227
0.022928352
0.00976105
-0.024925977
-0.015005092
0.0073998356
-0.026327105
-0.010143584
-0.013647739
0.007268634
-0.00037653474
-0.014871753
-0.012730667
0.015869569
0.022339486
-2.958491e-05
0.0019381704
-0.028530253
0.015462542
-0.041658852
0.0051350477
0.0038533623
0.010081933
0.013119214
-0.016688386
0.004104525
0.013543068
-0.026811833
-0.020903021
-0.03885259
0.009965547
-0.014899683
-0.016187413
-0.0054953694
0.029522624
0.012761812
0.010914493
0.0035050649
0.023290701
-0.013502481
-0.013102004
-0.03341541
-0.0073775803
0.0004279503
0.023979397
-0.018192314
0.015538061
-0.006137347
0.019065714
0.008856523
-0.007107876
0.01585988
0.030625166
0.012797764
-0.016589649
0.008471405
0.042005055
0.01300897
-0.004988618
0.0072013824
-0.021147849
0.0024013387
0.034550674
-0.02325076
-0.024807498
-0.020479877
-0.036255255
0.014211454
-0.015810493
0.00883906
0.029607845
0.015953185
-0.004492503
-0.025500067
0.014515858
0.006662369
0.027145168
0.036687925
-0.021915669
-0.031112231
-0.013466782
0.021882396
0.007057278
0.021948118
0.007262348
5.4026754e-05
-0.0114307795
0.022467712
0.00764613
-0.019667245
0.0039733313
0.003983562
0.013512203
-0.011554966
0.0069848173
-0.021981308
0.0025261985
-0.0005882092
-0.035142835
-0.01529078
0.011132244
-0.006223424
0.003629679
0.027845928
-0.029159356
0.017358778
-0.026853215
-0.013258724
-0.009280438
0.0076384107
0.006251147
-0.009708065
0.0012605626
0.008687496
0.005797125
0.0026062196
-0.024305355
-0.0033365237
-0.011997104
0.013731356
0.0039956067
-0.012036312
-0.024015486
0.04114514
-0.014970563
0.0057989866
0.009131897
0.014340467
-0.009401769
-0.030125178
0.0012078688
-0.0023268303
0.036479607
0.00075129553
0.025921868
0.028373506
0.006585928
-0.011360079
-7.42287e-05
-0.019701006
-0.02696757
-0.0075746537
0.018340996
-0.026860073
-0.011395626
-0.0016532827
-0.007412361
0.027571445
-0.0037548256
-0.020168236
-0.030499749
0.008275271
-0.00036576943
0.0015672712
0.025730997
-0.0053084525
-0.020790318
-0.029423783
0.021237578
-0.018722262
0.025552604
-0.012951788
-0.013704461
0.015308207
-0.015996786
-0.006313538
-0.018115886
-0.010350595
0.0058159004
-0.0027573134
-0.024817577
-0.00047755725
0.011908275
-0.0052913832
-0.006375567
-0.011514744
-0.0046852073
0.0073424284
-0.0003022166
-0.036042597
-0.00948805
0.0234023
-0.001212224
-0.007860779
-0.015691686
0.0045260293
0.013480812
-0.0078966245
0.010146736
-0.033023816
-0.009812328
0.004492978
-0.02474908
-0.031741675
0.019730648
0.003417881
-0.0280715
-0.02611611
0.017027223
-0.0017184763
0.009498446
0.00450321
-0.017504044
0.018484771
0.017160585
0.029597098
0.04709382
-0.012994712
0.010297518
-0.0033695048
0.03232852
0.0037382056
0.016350167
0.017456403
-0.028143492
0.027054587
-0.00013444529
0.03242689
0.027908614
-0.0053763515
-0.022454642
-0.010336327
0.02072133
0.01755808
0.0011910737
0.010825584
-0.02124963
-0.025921801
-0.020284837
-0.0131962765
0.012433404
0.0013745407
0.011194597
0.010830826
0.013458001
-0.017225487
0.021244397
-0.010822495
-0.042808257
-0.023749191
0.0028639908
0.015469682
0.020974522
0.024410153
0.018431373
0.03256026
0.008070968
0.0032187172
-0.012879528
-0.03599396
-0.020337075
-0.01952642
0.03370945
-0.0053866412
0.031202035
0.0031854575
0.013634156
0.011990372
-0.020122403
-0.017848857
-0.008731712
0.005275169
0.013121042
0.015554791
0.032836042
-0.0013943781
0.049181465
-0.017454095
0.01681829
-0.002908714
-0.01630346
0.034312975
-0.025168413
0.03715232
-0.008821142
0.066726044
0.014989739
-0.020932483
0.02304165
0.013891712
-0.0027904145
-0.05175048
0.011214391
0.008461813
-0.019214494
-0.0051131765
-0.05567674
0.032725934
0.000678508
-0.027007418
-0.015772313
0.009501773
0.031531896
-0.030110288
0.0139054665
-0.016088968
0.035545375
0.020263262
-0.058185715
-0.018215347
0.013743248
0.012983759
0.008217087
-0.0060482332
-0.008984419
-0.009929892
-0.007994276
-0.0052697477
0.022846354
0.011203073
0.0073594986
-0.013767599
0.02141838
-0.004211954
-0.0069070053
-0.015596683
-0.016825574
0.0037744055
-0.025259975
0.0045411293
-0.034517664
-0.0202804
-0.009779169
0.02215074
0.016046368
-0.028006852
0.03814566
-0.054551564
0.029639682
-0.011688202
-0.017537756
-0.023063019
0.020643245
-0.028548205
-0.0075599924
-0.015008039
-0.015160482
0.016981378
-0.0024290765
0.0029573075
0.002919338
-0.02051806
-0.012176228
-0.0008184917
-0.002493003
0.001230697
0.0235315
-0.0029911643
0.013893871
-0.027731922
-0.005173214
-0.0073633925
-0.007780367
0.0021572
0.0007773628
-0.037785616
0.021445861
0.03227968
-0.008630945
0.006583699
-0.024947459
0.019273655
-0.019204738
0.017263025
0.0021732699
0.0048784064
-0.005602646
-0.012273894
0.0065708254
-0.014197085
-0.03810988
0.009657501
0.0030979177
-0.0118954545
-0.031236542
0.011538432
-0.018642977
0.0013335521
-0.0025347848
-0.0038351642
0.017497834
0.023726914
-0.014059339
0.011009185
0.034232486
-0.011932092
0.0052302554
0.031540483
0.021512486
0.005706885
-0.014437292
0.0048544775
-0.021826928
0.00019543283
-0.009536778
0.002612942
0.016724685
-0.027060369
0.0017286302
-0.008514325
-0.014061241
0.0044220057
-0.030310573
0.00059782766
0.0056152805
0.016755177
0.029845841
0.012170912
-0.02602198
0.007778051
0.034783356
0.0023217928
0.013471476
0.011393098
0.023046654
0.016889036
-0.014553318
0.02436087
0.006347379
0.016494328
0.014627304
0.0028983166
0.018132325
0.0022525077
0.0048736
0.024106523
-0.0102196345
-0.020706153
-0.02600798
-0.0007203969
-0.0071450644
0.02254314
-0.005206047
-0.0006335981
0.013959653
0.0031208075
0.0035227644
0.024256773
-0.018468196
0.023997929
-0.0031321165
0.01813979
0.013818856
0.030975742
0.013414211
-0.047169827
-0.0024483406
-0.035902206
-0.02059905
0.0018055111
-0.004656636
0.008754199
0.011429763
-0.005758368
0.005451779
0.00078476645
0.026003573
0.010175018
0.013275892
-0.023462918
-0.013125358
0.0015817845
-3.6750596e-05
-0.009637828
-0.01726235
-9.376849e-05
-0.030411862
0.019004913
0.018513018
-0.004318862
0.043751422
-0.02533414
0.0139568485
-0.016077572
-0.0061570206
-0.0035888604
0.028942965
-0.008181119
0.028916122
-0.00073349825
0.011725763
-0.013581787
0.004857957
0.0082323
-0.029405365
0.022100925
-0.022964573
0.014000204
0.007603843
0.027187347
0.0063031116
0.009733824
0.044761114
0.022713302
0.022120519
0.02159103
-0.0048512006
0.014179185
-0.009747275
-0.031777773
-0.013108239
-0.000404995
0.028739003
0.02695202
-0.0115884915
0.0036165027
-0.01582981
0.0069974926
0.0043647024
0.012395122
0.031838056
-0.013792371
-0.009117493
0.011377474
0.007068293
0.0102522485
-0.029641723
-0.009154158
-0.018837873
0.021372573
0.0056669777
0.0027078814
-0.018921122
0.020890875
0.008886539
0.019088216
0.016175237
-0.023152683
-0.023975598
-0.0033286114
0.021184338
-0.016140055
0.018915076
0.024142258
0.028520688
-0.030307721
0.014730507
-0.020545723
-0.0008993019
0.029218268
-0.035997324
0.00069491024
-0.030089542
-0.013266387
0.0051962566
0.004234587
-0.022903627
-0.0040004314
0.023123004
-0.016294891
-0.00045017333
-0.0070099384
-0.04757529
0.026928442
-0.0077043343
0.0076350966
0.026738867
0.036315344
-0.026380412
-0.017731542
0.031967603
-0.00683778
0.0071682055
0.019919358
0.010601949
0.026671013
0.016071692
-0.032200433
-0.04010623
-0.023092616
-0.008636354
0.028351812
-0.018745054
-0.012680806
-0.022559745
0.020431675
-0.017528683
-0.026342701
0.027447727
0.016018631
-0.024612987
0.0025436115
0.02160386
-0.023430176
-0.047819298
0.003961014
0.03408593
0.00032840704
0.017797869
-0.014303889
0.018316574
0.022327987
0.02110567
0.019853849
-0.038992714
-0.033762712
0.0014136432
0.006505742
0.010351926
-0.0009276959
-0.024072345
0.012951226
-0.03176806
0.01916903
-0.004980855
-0.010567069
0.042975113
0.014951973
0.0003883087
-0.005004919
0.012056921
-0.0058269687
-0.005335032
0.021367876
0.028970988
0.025187453
0.0062523712
0.031839058
0.0072632697
0.014794938
0.008757334
0.0011319298
0.031984065
-0.026168806
0.027158082
-0.03903271
-0.017223088
0.005841312
-0.00886912
0.008640135
0.005018604
-0.0040551247
0.018502085
0.011689158
0.024581341
0.027356537
0.023897016
0.04143604
0.029632172
-0.007809036
-0.033767812
0.008212479
-0.035587326
-0.005251501
0.027914582
0.018663121
0.0048927316
0.005699753
-0.028962588
-0.009165767
-0.01235178
0.029554091
-0.01221684
0.009211846
0.0033208388
0.0013685343
-0.016352385
0.019031102
0.0024619335
-0.027398657
0.012011974
0.01584249
0.016118508
0.014461864
0.0026121435
0.0016595031
-0.028098838
0.008468553
0.012542274
-0.018453676
-0.0106189195
0.027397992
0.03697499
-0.034377992
-0.026059331
0.0024104165
-0.016840572
0.021964153
-0.012275446
0.0045932448
-0.002534418
-0.010601387
0.00660889
-0.0052659907
0.015281838
-0.017272482
0.01608598
-0.0055869385
-0.0008927029
0.011828917
0.019591454
0.017756822
-0.02710464
0.0031244692
-0.021248931
-0.026105342
0.037931852
0.0055595604
-0.0032882378
0.022848051
0.003150923
-0.0029784853
0.02455662
0.034009956
-0.015354613
-0.019303115
0.0073310807
0.006392252
-0.013316771
0.0017995628
-0.0007124149
0.012738232
0.007821057
-0.014033224
0.027087327
0.023969105
0.014368776
0.02067942
-0.0010552356
-0.026820231
-0.0020444756
-0.026508875
-0.0024943398
-0.0058857067
0.011096089
0.02277851
-0.0003110946
0.0007352464
-0.018831037
-0.021123488
0.0012826537
-0.04241314
0.026266467
0.01311566
0.0050949836
0.009853848
0.03220714
-0.005368398
-0.016792187
-0.0029482848
-0.011024473
-0.01971171
0.00022199813
0.007615648
-0.024829146
0.008533569
0.025390616
-0.02569759
-0.028189162
-0.0050428915
0.015093453
-0.01459209
0.004263162
-0.008799353
0.020040987
-0.02261314
0.0038041046
0.0053135995
0.013813872
0.00811289
-0.015637439
-0.02592379
0.003145161
0.026453137
-0.0030727012
0.0010448276
0.0029478425
0.02436703
0.011831329
0.0042575095
0.004112852
0.016998388
0.0075025577
0.0043171197
0.022643851
0.01799945
0.03121785
-0.020906584
0.043308552
-0.002905792
0.022471529
-0.0054023406
0.020842988
0.004026721
-0.019664949
-0.020645725
0.00020673225
-0.011653963
-0.0025354805
-0.018613767
0.023916343
0.022914205
-0.013465915
-0.0044174683
0.0153909465
0.011001797
0.015458726
0.0046766936
-0.038761828
0.022893595
-0.012616233
-0.009232233
-0.024853384
-0.012955329
0.0067341905
0.011435428
-0.028431311
-0.017734231
-0.019426646
0.011635519
-0.004306437
0.02527181
-0.016983002
-0.026571156
-0.049513802
0.027352307
0.02024132
0.0012656328
0.025000252
-0.029649047
-0.019053929
0.022096137
-0.023391126
0.039301526
0.012385014
0.016908377
0.001256916
-0.006176563
0.007627249
0.017917609
0.01743639
-0.017119514
-0.00019910936
-0.021620842
-0.020956784
-0.025550097
0.03377722
-0.0119824745
0.004003121
-0.022300737
-0.011978862
0.0152940685
0.0075297565
-0.02854304
0.033773005
-0.0022986606
0.008948125
-0.02219416
0.0038845409
-0.005217127
-0.0021513489
-0.005175103
-0.021586167
0.01193513
0.0012073014
-0.0056549
0.00053818966
0.032811075
0.015642967
-0.030588418
-0.030481122
-0.011362511
-0.014857872
0.01809861
0.016753187
-0.036971744
0.017500594
0.044919398
-0.035219796
-0.008304836
-0.007887928
0.002914438
-0.0082476605
0.013662739
0.02328713
0.034982335
0.02135404
-0.023614088
0.029730938
0.008182402
-0.026244441
-0.008699371
0.009174659
-0.050501537
0.0043729204
-0.0088327415
0.009452241
0.007751129
0.024459498
0.011790009
0.008321819
-0.0032910914
0.016323477
-0.009578463
0.0159346
0.011989227
0.019291058
-0.0046195663
-0.023889627
0.02364585
-0.03100858
0.005165226
-0.024327846
0.008341881
-0.0079655
-0.008879443
-0.021975273
0.016948586
0.026506886
-0.018793328
0.013509512
-0.016871521
-0.021691369
-0.021625832
0.0015887626
-0.0065196133
0.021411387
0.03726325
-0.015497197
0.013257666
-0.0093021905
-0.027067581
-0.025206884
-0.021519449
-0.021901364
-0.0037709032
-0.0057838033
-0.025803382
0.010294485
-0.019453552
0.012888124
-0.015323189
-0.008131464
-0.02415569
-0.022818688
0.028833948
0.015145082
-0.013186522
0.026618075
0.009099409
0.0037634124
-0.00039821415
0.014968479
0.012849518
0.00417713
-0.029836163
0.0007249374
0.01826176
0.017127385
0.014876181
0.001712839
0.02127026
0.016934205
-0.011274131
0.0051917536
0.01410416
-0.039497245
0.029611494
0.01400113
0.04067687
-0.043464985
0.018312762
0.03521264
0.012619485
-0.01716454
-0.018691622
0.040578324
0.00028829856
0.0022056585
0.0037608861
0.00069274934
-0.03807089
0.0051683313
0.02408074
0.004654966
0.0038789052
-0.010942761
-0.02014386
0.033325616
-0.053018477
0.020516565
-0.013726869
0.007760835
0.00963443
-0.02474903
-0.036572352
0.00011601884
-0.03688065
-0.04400795
-0.0077371383
0.0217409
0.0025462622
-0.007586227
-0.01850414
0.03173605
0.0204611
0.00901953
-0.039728314
-0.021678206
0.03982902
0.045577206
-0.009922455
-0.007829932
-0.021886077
-0.020661008
0.022553684
0.0013504825
-0.007176578
-0.012075809
-0.02550431
-0.0013715422
-0.016777627
-0.004095084
-0.0073181023
0.016189381
0.026290154
0.013771297
0.018218812
0.01721386
-0.007062302
0.013587282
-0.0070129423
-0.029485025
-0.004272547
0.0022305776
0.01762146
0.005372634
0.017097753
0.030146593
0.021241661
0.0053598443
-0.005752167
-0.03532537
-0.01483219
0.0028968262
-0.03294884
0.043364074
0.005189588
-0.019992398
-0.00013679282
-0.014206594
0.027217055
0.033397514
0.0043719695
-0.004416255
-0.006927752
-0.007715084
-0.013586415
-0.0060906936
-0.002829844
-0.0115314815
0.0061447597
-0.007167953
9.7178845e-06
0.019479306
0.012129675
0.007492798
-0.021740373
-0.035682697
-0.026447892
-0.018466951
-0.00027763075
-0.007319118
0.020548826
-0.020869838
-0.03761859
-0.014080324
-0.029701032
-0.038408946
0.027516218
-0.023761893
0.004400292
-0.007855714
-0.02060432
-0.0029748573
-0.014941903
-0.03418275
0.036907736
-0.0143302595
0.0071180956
-0.023268932
0.027298115
-0.006794089
0.011343809
-0.034531962
-0.006032132
-0.015476594
0.0018619694
0.027071336
0.01328118
-0.007353901
0.007877975
0.000467984
0.021007063
0.00961134
0.012558091
-0.007997773
0.017965376
0.03500657
-0.0026731424
-0.032624315
0.0025926696
0.015709037
0.02950749
-0.01698657
-0.021659318
0.039221227
0.022969479
-0.013281816
0.021254411
-0.021469401
-0.019141927
0.010663635
0.003253175
-0.013431771
-0.013968379
0.014232676
-0.01570253
0.02579359
-0.0024196743
0.016033554
-0.009930364
-0.009294831
0.020246891
0.007829946
-0.02587065
-0.0020842985
0.015986193
0.017131018
-0.00013898862
-0.020843288
-0.008545715
0.012448724
-0.035102747
-0.03364896
-0.015111274
0.011230469
0.0116105275
-0.015881807
-0.00882401
0.001644641
0.017558748
0.006098963
-0.0040368354
-0.019255178
-0.009665669
0.0039517977
0.011063305
0.0070905136
-0.026731819
0.0024150154
0.030224632
-0.015068396
0.00956913
-0.020709852
0.02476265
0.0077651083
-0.0051137484
0.022653067
-0.010476526
-0.0052744136
0.013656832
-0.00689328
0.03461923
-0.03831621
0.011601801
-0.03248766
0.02087973
-0.018599074
0.013725492
0.0006213963
-0.033376932
0.014253356
-0.032776088
-0.02483211
-0.014141811
-0.017777396
0.030011993
-0.007478255
0.011809438
-0.016619913
-0.026703428
0.0051898127
0.0011380921
-0.021437807
0.015496799
0.0044893785
0.00832592
0.019518105
0.013951502
0.026399856
-0.038606293
-0.0008971363
-0.007610472
0.0049913866
-0.02425847
-0.020362167
0.0031301563
-0.025505155
0.025788207
0.015734125
-0.011725791
0.030332731
0.01079162
-0.028956853
0.0036950768
-0.028950756
0.025261296
0.006190174
0.011552727
0.006204101
-0.00065955525
0.021844087
0.00030680574
-0.009248033
-0.021853117
-0.0003363923
0.021745097
0.012831412
0.00935076
-0.015810132
0.0024215402
-0.008077371
-0.024698066
0.007521775
-0.010816363
-0.0015030303
-0.031369474
0.005884301
-0.006428778
0.022599567
0.0010160946
-0.020160208
-0.0116793085
0.012233923
-0.0023012822
0.013270161
0.0135789085
0.025769759
-0.018779395
0.027855784
-0.009914053
-0.022502465
0.0019081284
0.012852787
0.016340584
-0.03102889
-0.007774088
-0.016374933
0.0009814738
0.002057041
-0.0020844378
0.038031153
-0.0172257
-0.022199865
-0.0027465764
0.011474352
0.006562971
-0.018190091
-0.0060753687
0.026904128
-0.012230041
-0.0050213328
-0.013039496
0.012728904
0.025778376
-0.015404533
0.025142645
-0.008617692
0.02723729
0.028958913
-0.021039292
-0.019371051
0.03724498
-0.031190021
-0.04094772
0.015479677
-0.0131001985
0.012460023
0.002305307
-0.00444433
-0.011753905
-0.015098691
0.01132078
-0.007327603
0.014555654
0.0046557165
0.016546339
-0.00055965065
0.0074187024
0.034105442
0.019846013
-0.04193327
0.01482318
-0.012960804
0.0010115597
0.00383553
0.008599667
0.018299403
0.022073798
-0.0076464782
-0.007368881
-0.000821797
0.00016498216
-0.03284393
-0.029902644
0.031898186
-0.038798768
-0.007458759
6.4267086e-05
0.02371282
0.024718821
0.017553557
0.011827809
-0.025198517
0.0027931272
-0.021366537
0.012445725
0.0017984385
0.018338526
-0.0040347893
-0.008088794
0.010956167
-0.02341587
-0.0018967866
0.021529838
-0.00955221
-0.008361432
0.0047818883
0.0020403503
-0.012646942
-0.020382825
0.037514918
0.00291958
-0.034321953
-0.016931891
-0.018863086
-0.01770145
0.0097057475
0.008522802
-0.018768737
0.0047091017
-0.015923845
0.0024990805
-0.0148108965
0.00838952
0.032891564
-0.0081498
0.038431518
0.005242135
0.0028231717
-0.023528982
-0.025990937
-0.002091693
-0.014471974
0.0034741252
0.01702882
-0.00020275166
0.03585988
0.030938426
0.015548678
-0.0048508197
-0.006641457
0.0259672
-0.004097096
-0.01235018
0.0035413152
0.0072706807
0.009209703
0.030819329
0.0026422997
0.015668193
0.017299637
0.012964227
0.0013281961
0.031458847
0.039453454
0.009452222
-0.017812468
0.003470701
-0.01955521
0.005244883
0.029717606
0.040468484
0.00920325
-0.009085342
0.014728009
-0.01574534
0.003398668
0.017427064
0.0031884809
-0.011690048
0.0126877315
-0.0025966263
0.028245969
0.0012564574
-0.012047361
0.025139794
0.006222986
0.023930887
0.019589981
-0.0013220962
-0.0072799274
-0.013767334
-0.03968326
0.008644668
0.01594886
-0.016968478
-0.034633476
-0.033324413
-0.006484343
-0.019995479
-0.013131806
-0.018978646
0.013194348
0.010522616
0.00044982377
-0.006877853
0.004167179
0.0035323654
0.0020912362
0.007096026
-0.01191428
-0.023987276
0.01569696
0.013236754
0.0259588
0.02093886
0.02851331
-0.021637945
-0.012694544
0.0131655745
0.037819088
0.021208914
0.0025510949
-0.029019138
0.0019401179
-8.0528895e-05
-0.0123013
-0.023879379
0.008158409
-0.0152504565
0.0066443845
0.010268531
0.0020053016
0.012825576
-0.0031589027
0.018618777
-0.0068082158
-0.008959943
0.011914057
0.003438248
0.020993382
0.025393812
-0.016696053
-0.022104759
0.010105653
0.0026954482
-0.017201938
0.0062609795
-0.019440452
0.047182705
0.0025281452
0.01976497
-0.008510499
0.010524333
0.009935834
0.02528447
-0.024675874
-0.030666944
-0.0049330844
-0.0105770035
-0.023283027
0.009780022
0.0022664994
0.021550227
0.023864752
-0.030444201
0.008287368
0.014346256
-0.0038334124
0.027987951
-0.021700153
0.0029576686
0.007837363
0.023954026
-0.014425074
-0.012191245
0.0012356703
0.016639644
0.0140652945
-0.029170314
0.02198912
0.028970404
0.016931413
-0.010008552
0.0019848198
0.0046961643
-0.00035997192
-0.010352576
-0.0011589442
-0.016253356
-0.016484804
0.0118030645
0.0077431398
-0.018755771
0.00826133
0.00462716
-0.02294236
-0.010439911
0.026903525
0.0411324
-0.011356037
0.0038921027
0.018034175
0.016381484
-0.008589259
-0.0098638795
0.023212155
-0.023079721
0.012933007
0.00724525
0.0110378545
-0.029089753
-0.02523367
-0.033012874
0.0044911327
0.026690617
-0.03099452
-0.024126828
-0.020562658
0.0110360505
-0.0071988297
-0.009052763
0.0029788115
0.018708464
-0.02862572
-0.0129935695
0.0165536
0.008430036
0.015886184
-0.012070174
0.017757397
0.026379744
0.023798356
0.017868856
-0.013320651
-0.021980539
0.0015112571
0.03468901
-0.016328389
-0.030644655
-0.026420524
-0.026220132
0.0132065555
0.020560592
0.01729034
0.021748075
-0.022677094
-0.02522797
0.013121721
0.024893025
-0.018785803
0.010821588
0.019008482
0.017187087
0.0068141124
-0.0015284669
0.00476826
-0.025916308
-0.04868225
0.00526003
-0.011383723
0.0035064023
-0.0064046057
0.007456728
0.036769137
0.011739227
0.018209348
-0.0006663641
0.03833642
-0.01220901
-0.035127267
0.030306866
0.021394717
-0.02360284
0.003244857
0.0136365155
0.017437195
-0.017618809
0.018318022
-0.01538699
-0.010482489
0.0021077804
-0.026850075
-0.004788902
-0.014435436
-0.022758583
-0.014610255
-0.032828026
-0.0074717742
0.042880066
0.025185885
-0.02988997
-0.025522323
0.02566507
0.010302179
0.001772797
0.012145562
-0.014375489
0.034498263
0.024508305
-0.013793462
-0.019066056
-0.012255194
-0.0025593538
0.009575064
0.009784532
0.008683369
0.004397935
0.017489923
-0.014186325
-0.008262101
-0.01602706
0.0005638097
0.010312959
0.025941722
0.022905953
-0.019571913
0.040738277
-0.009530058
0.011982566
-0.032923065
-0.009890945
0.019309165
0.013770001
-0.015787048
0.0009715849
0.009893012
-0.005296592
-0.0018708623
-0.002802834
-0.026937101
-0.0063469
0.011323098
-0.03110228
-0.00010634787
0.0032211596
0.003954478
-0.011363312
-0.013194403
0.004854708
0.028514735
-0.007933404
-0.0004963092
-0.0022883902
-0.021204276
0.0012939721
-0.0203635
0.00953355
-0.004974878
0.023286797
-0.002280895
-0.0025110277
-0.009685902
-0.0021395662
-0.02434172
-0.008500775
-0.024479453
-0.0008586251
-0.00010638106
0.00014386546
-0.024196856
0.0036029804
0.019842412
-0.0031137597
0.0057825744
-0.007712184
-0.01670338
-0.028507294
-0.01573436
-0.022514561
0.0062757637
0.017184721
-0.015690144
0.035574574
0.019108871
-0.02317351
-0.018510647
0.0122183515
-0.009928563
0.03624482
-0.03589381
0.014236487
0.021938963
0.0138898995
-0.0022029418
-0.027080571
-0.025859883
-0.011651264
0.017530214
-0.021226993
-0.030502712
0.010501995
0.028258001
-0.011198053
0.013606301
0.014840699
0.016937759
0.022659605
0.0267024
-0.033242837
-0.011417749
0.0018251024
0.029307408
-0.022674503
-0.0152679
-0.007908359
0.016051028
0.0023533774
-0.011239753
0.027719086
0.030787738
-0.049622025
-0.01037607
0.008301764
-0.014388005
-0.0040081395
-0.046361268
-0.010611773
-0.010020021
-0.034726158
0.012468635
-0.013260254
-0.012783293
-0.0041059554
0.013353228
-0.023040088
0.019220373
0.025178319
-0.01386716
-0.028244412
0.0033690927
-0.011301798
0.012076742
-0.025430549
-0.029186169
0.025159642
0.017389223
0.01981611
-0.015163481
-0.024070708
-0.022996936
0.005753127
0.041396648
-0.010090423
0.01731586
-0.0018547655
0.018441835
-0.027929155
0.016484594
0.03431945
-0.04485367
0.040483426
-0.024339827
-0.0018606614
0.0034082865
-0.036363207
-0.01873703
-0.02523424
-0.014780716
0.015149588
-0.024746133
-0.0058479873
0.0018450224
-0.032156553
-0.007651198
0.013753166
0.014639619
-0.025884895
0.015476386
0.014763467
-0.025462775
0.0021649755
-0.009532673
0.0019497363
-0.017266722
-0.005386006
-0.0066954447
-0.007213433
-0.006073482
0.0072412053
0.007849988
0.002171735
0.030817134
0.035531458
-0.0038331184
0.040664617
0.01767332
0.0076392977
-0.003032542
0.021353006
-0.0007271034
0.022869704
0.0012680888
0.010841788
0.017001443
7.0470895e-05
-0.01760736
-0.019456016
0.0013513278
0.04519881
-0.018195134
0.016031792
0.018444825
-0.026554806
-0.01355814
-0.017250681
0.03050179
0.034576282
0.020335948
0.023060309
0.021227023
-0.013253573
-0.00034143362
0.053854104
0.0053002397
0.024150085
0.034466937
-0.01950549
-0.009970936
0.0037897641
-0.0050361585
0.022595294
0.024183156
-0.009746382
-0.0059114727
-0.014610422
-0.035319075
-0.0074521033
0.010930336
0.028988244
-0.024513107
0.012102168
-0.015591899
0.006876961
-0.019538738
0.015457774
-0.02363083
-0.00446289
0.011991266
0.02635878
0.027564837
-0.014172324
-0.04231177
-0.036946274
0.0071821236
0.0020035035
0.015910154
0.013819102
-0.022778552
-0.017318329
-0.012383758
0.0065449383
0.008463383
-0.03806491
0.025925975
0.007299499
-0.013421946
0.0082215555
-0.039735984
-0.012220228
-0.022781147
0.0027673075
-0.0052299197
0.025088405
0.006648073
-0.0012986654
-0.005278673
0.025683109
-0.0142398765
0.0017287638
0.007976724
0.026173891
-0.018338773
-0.007842842
0.00591811
-0.02054384
0.015765162
0.025470275
-0.0047274646
0.010543743
0.009623044
0.015572019
0.03656726
-0.019636191
0.008553033
0.0053374986
-0.03481807
-0.019971369
-0.023246067
0.007505489
0.01586169
-0.03050847
0.002012881
0.017362429
0.022054728
0.014679727
-0.0057023987
0.021156149
-0.01999384
-0.008082479
-0.00373216
-0.005448038
-0.019864129
0.022471214
0.012952307
-0.022585029
-0.002008929
-0.01527648
0.023068283
0.00097553077
0.01411424
-0.007713283
-0.034201577
0.008045348
-0.00033554196
0.0009768301
-0.011475202
-0.019837229
-0.0060320026
-0.007420184
0.010498464
-0.03683336
0.0039585666
-0.019020882
0.028946355
-0.005759338
0.020516923
0.014703418
0.009454879
0.018089598
0.029449018
0.0065095704
0.008977655
0.017578512
-0.015353167
-0.030904938
-0.010109808
-0.012828337
-0.029248303
0.0052540335
-0.020179404
0.04110464
0.0005410964
0.006080172
0.0025290153
-0.015199702
-0.016474793
-1.550274e-05
-0.012348819
-0.0035477516
-0.005863331
0.0025667772
0.030126812
-0.009404173
0.017059423
0.011198982
-0.0281378
-0.0013355049
0.02801654
-0.0069285394
-0.04147267
-0.01175173
-0.038235933
-0.001033362
-0.01894113
-0.016365219
-0.02672582
0.012423508
-0.029082365
-0.0032763942
0.032724563
-0.003960025
-0.01988599
0.004482676
-0.03505223
-0.032451734
0.02614168
0.031418465
0.0019238002
0.027353503
0.00060366903
-0.00950288
0.0036331583
-0.01901119
-0.007348684
-0.034203786
-0.008730441
0.012492275
0.022755928
0.006884305
-0.00882298
-0.0053321244
0.032851823
-0.008312702
-0.00088617386
0.013560801
-0.020331666
0.00095920963
0.02686915
-0.020751838
0.022232793
0.021467555
-0.012367125
0.0038320036
-0.017264264
0.015086228
-0.008628705
-0.013754418
-0.023216346
-0.012550875
-0.024708418
-1.7552147e-05
-0.024943165
-0.009276587
0.011031863
-0.010897158
-0.02303539
-0.015547354
0.026047748
-0.0074684336
0.013679979
-0.009098572
0.005812756
0.008912217
-0.019140761
0.02506896
-0.009448849
-0.02590162
-0.027410846
-0.02096535
-0.021812566
-0.021561494
0.017873738
0.033865526
0.008361074
-0.018287735
0.002022523
0.010084017
0.034041528
0.01392213
-0.011222861
-0.002191059
-0.012613712
0.00092917
0.013441441
0.033173047
0.021206103
0.025996007
0.027647728
0.0010738437
-0.011613491
0.0076849908
-0.017532587
-0.0015544001
0.005521411
0.014407098
0.016756
0.020262938
-0.031367987
-0.028100232
0.017305335
0.00022884792
-0.002377876
0.0033729975
-0.0072644153
0.0043484154
0.028804244
-0.018811826
-0.007873069
0.021418434
-0.012979906
-0.027516155
-0.026998011
-0.0020896806
-0.017825907
-0.011297533
-0.002008235
-0.024723466
0.0020962767
0.017714806
0.018564185
0.006309341
-0.0012747216
0.017595587
-0.019424168
0.0065496215
0.013410524
0.039508414
0.017189167
-0.046813663
0.01806761
-0.015369315
0.01813515
-0.0002192035
0.020156804
0.0045813187
-0.018905893
-0.0060972627
-0.03153327
-0.048731387
-0.022050738
-0.008937075
0.036830135
-0.0059780143
-0.008964859
0.03382529
0.015474341
0.012816168
-0.021419583
0.0148336105
0.0058748545
-0.022457888
-0.031675983
-0.00069934275
-0.019486729
-0.0066426713
-0.018229889
0.035632998
-0.017648352
0.03791247
0.009848341
-0.007357672
-0.014933924
-0.022304289
-0.0012307878
-0.014350044
-0.00031033315
-0.016770015
0.021734856
-0.0075457594
0.02496752
0.047861878
0.012711459
-0.02570177
-0.02765207
-0.017006837
-0.015139969
0.013636489
-0.011447848
0.015444547
0.009137108
-0.038696118
0.031610396
0.011955897
-0.007710295
-0.02485055
-0.0061338884
-0.00012747421
0.0076405383
0.022415379
-0.003015744
0.011144571
-0.011285727
-0.025430035
-0.014473357
-0.014062774
-0.016286047
-0.021134567
-0.017026523
-0.030351613
0.00821048
-0.0023009845
-0.026003657
-0.014947343
-0.0023811297
-0.017537642
-0.0046531046
0.0015395561
-0.032305147
-0.027422043
-0.010338795
-0.034029257
-0.007893031
0.029615084
-0.011919811
-0.032801647
-0.016217483
-0.0117957825
-0.0077385935
-0.024765367
0.0005658315
0.016217899
-0.022827055
0.0078816665
0.02033342
0.011749075
0.02364018
0.021179195
-0.026494294
0.012001543
-0.04248384
0.011317571
0.0017082314
-0.0063611097
-0.012935884
-0.015024283
0.011581682
0.027798075
0.01960696
-0.034297198
-0.020492753
0.007916261
0.017979458
0.027072266
0.031291842
-0.024369368
2.4874853e-05
-0.05079674
0.004137011
0.03103051
-0.003635142
0.009787059
0.030499313
0.022091601
0.0011731801
0.00048449557
0.012580606
0.027863342
0.046569165
0.037247732
-0.007047922
-0.03702624
-0.007317003
-0.020792978
-0.0020176186
0.011245506
0.026246978
0.01650278
0.030105637
0.029749786
-0.010400701
0.012181087
0.003136917
-0.020587692
-0.012753062
0.009111364
0.0024292378
-0.012884798
-0.022316247
0.015062612
0.0334229
-0.010096397
0.005145519
-0.014252696
-0.007225108
0.017188482
0.015193055
-0.013484727
0.0033768343
-0.040155407
0.0073011825
-0.019149842
0.0318338
0.0025252262
0.02223568
-0.0002828993
0.004549636
-0.019013861
-0.015018755
0.0081281345
-0.005384736
-0.03555124
-0.021246912
-0.020949569
0.008785948
-0.00558317
-0.024071239
-0.0056961407
-0.0067750993
0.011871306
-0.0132963965
-0.0038053214
-0.022229427
-0.019641928
-0.008376344
0.002800587
0.010152309
0.036420096
-0.0070696417
0.017993439
-0.018975267
0.0033156397
0.0027944357
-0.0068917666
-0.03245266
0.002784137
-0.018419985
0.026095487
0.019960912
-0.014411622
-0.034276973
0.0022109367
0.016040608
-0.0030214915
-0.00038062755
-0.008224646
0.0021570765
-0.014238793
-0.010078398
-0.037093524
-0.0027296506
-0.018926945
0.01676296
0.009930982
0.0018824959
-0.010698925
-0.005602902
0.02524463
0.019238539
0.022962173
-0.017729342
0.023810454
0.022042945
-0.010328695
-0.0067829145
0.008635888
0.043309875
-0.0023780512
0.029173058
-0.023241842
-0.00789508
-0.011001249
0.0211429
0.0010772154
0.003419223
0.018885525
-0.03705778
0.005492767
-0.014023223
-0.006981716
0.020342596
-0.016723843
0.021846477
0.0044696224
0.037340056
0.008064471
0.022676183
0.028511673
-0.0031707222
0.013715056
-0.0027857926
-0.004264869
0.015856365
-0.021442307
-0.004591025
0.0018902819
-0.0009829663
0.022238584
0.01689733
-0.01321954
-0.05332308
0.0037121149
-0.0059597814
-0.013717427
0.009118544
-0.0113661
-0.037504625
0.015241241
-0.036640063
0.025355803
0.038515005
0.017964004
0.013078694
0.0055326796
-0.030920574
-0.023062617
0.03909843
-0.022696419
-0.035771683
-0.036081076
-0.004035979
0.005833823
-0.005832824
0.019259471
0.006871453
-0.0018061666
-0.0001713501
-0.009813014
-0.011926863
-0.0379595
-0.016617795
-0.012306207
0.033353332
0.01909461
-0.016245574
-0.033424716
-0.049770918
0.029608168
-0.012567205
0.010185761
0.000718974
0.05303286
-0.041213952
0.012144846
-0.046017542
-0.012408331
-0.02796235
0.014359451
0.008902042
-0.041638594
0.0017251449
-0.01876251
-0.01948419
0.022188762
0.002667033
0.0068289605
0.029922085
0.018605238
0.03585931
-0.013642575
0.015890295
0.018875752
0.021492492
-0.02122394
0.016644822
-0.009270354
-0.016456144
-0.012102808
-0.029480727
-0.0123562915
-0.0152888
-0.027499987
-0.037541404
-0.014465307
0.018061934
0.014407918
-0.040614817
0.011689931
-0.012979228
-0.021159858
0.015404353
-0.014054068
0.00955344
0.0003511932
-0.014576249
-0.020150824
-0.011664192
-0.0009067264
-0.005865486
-0.01117372
0.015964393
-0.01590061
0.018625813
-0.0061971773
0.01776053
-0.009735159
-0.021745814
-0.023163896
-0.021873234
-0.025812946
-0.036115978
0.0005472932
0.0031888946
-0.00018266648
-0.037769567
-0.020036846
0.016503317
-0.005282073
0.021170063
-0.008548203
0.013803199
-0.032461833
0.004258667
-0.0106831575
0.02756227
-0.010962291
0.009443973
-0.034254897
-0.012560042
-0.011740433
-0.02719908
0.0035086544
0.025052352
-0.022907352
0.032067467
0.009432045
0.007374825
0.00017573124
0.0059393034
0.005673224
0.03420834
-0.0100905495
0.02163253
0.014499133
-0.00020356676
-0.014527308
-0.01017246
-0.002661679
-0.022484275
-0.017016504
0.014950624
-0.0055684666
0.023622235
0.006054921
0.019383214
-0.016840149
0.005244279
0.019887352
-2.4212428e-05
0.008411117
-0.0041636657
-0.019200899
-0.03243282
0.01856539
0.012285046
-0.033040512
0.0018942797
-5.1362775e-05
0.021106748
0.033446953
-0.0066402378
-0.013642021
-0.010535138
0.02448668
0.017296396
0.025627956
-0.029602855
-0.013224424
0.021434449
-0.012058539
-0.011699015
0.021499299
-0.012450747
-0.002847817
0.017764794
-0.002488767
-0.017340388
-0.026071917
-0.0010747194
0.019038878
-0.02989428
-0.016178692
0.015813509
-0.04080586
0.032229137
-0.014282897
0.03653754
-0.012763719
0.01867997
0.011200164
0.0065912544
-0.0041093137
-0.02248525
0.015735459
-0.017348567
0.01735249
0.020812651
-0.025472796
-0.005158576
0.00943242
0.009214731
-0.0378606
-0.0014997879
-0.045848075
-0.017104166
0.014381445
-0.0015459784
-0.034466688
0.011191528
0.003492263
-0.026806375
0.030402143
0.03835092
0.0015686252
0.002056754
-0.0070452285
-0.017674077
0.022438291
0.028849533
-0.00039468825
-0.022873584
0.01607447
0.014702426
0.011848392
-0.00017098215
-0.0068805884
0.036345467
-0.014104113
-0.030393407
0.045643844
0.012286695
0.0006649475
-0.004084876
0.008053116
0.023639964
-0.0021687339
0.017806478
0.024064047
-0.0028668637
0.0021382265
0.0038021833
-0.009560605
-0.01494759
0.015408756
0.01649175
-0.017079433
-0.023246942
-0.0052374084
0.008357608
0.029554822
0.0068832343
0.025624724
0.031351574
0.0039891913
0.012657819
-0.0235609
-0.014062833
0.024129912
0.0024923764
0.034443997
-0.009002441
-0.0017010263
0.000171431
0.0036667816
-0.0033472725
0.03663608
-0.01489405
0.020057455
0.035092406
0.00549188
0.011384605
0.019142276
0.031494312
-0.03891606
0.017239735
-0.006204887
-0.016232628
0.011952303
0.048539985
0.008822831
0.024341391
-0.006900003
-0.016419249
-0.028380105
-0.012480164
-0.014400532
0.004433459
-0.008148157
-0.03328974
-0.019791488
-0.025084028
0.022256654
-0.03144153
0.04837988
-0.00028696537
0.014163193
-0.013343187
0.028836247
-0.02056651
-0.018781358
0.01072341
-0.025694886
0.028334212
-0.022361118
-0.03915538
0.008038813
0.025970075
-0.03940351
0.0034192821
-0.02262267
-0.038293168
-0.02550801
-0.024538148
-0.0027314492
0.01595271
0.035686824
0.0019848999
-0.017327432
-0.033530775
0.0041365675
-0.020005815
0.004019264
6.919963e-05
0.00453106
0.00638751
-0.027283972
-0.023700977
0.01283201
-0.021676429
-0.01137304
-0.03432367
0.012231102
-0.029033182
0.019794418
-0.010419605
0.014600198
0.040729955
0.0054237572
-0.00942823
-0.030854352
0.007819715
-0.038511418
-0.03909586
-0.021666126
-0.006598341
0.016528318
0.008264814
-0.014444678
0.022259004
-0.009482172
0.013428647
0.00079656235
0.03047154
0.0033861934
-0.0029218418
0.027743924
9.011634e-05
-0.03006567
-0.009135254
0.007237997
0.0074494057
-0.006017557
-0.016386686
-0.0028279014
0.0060337186
0.011694972
0.0024353643
0.0042845905
0.006326092
0.0005229649
0.024476655
0.0023000678
0.02408241
-0.019871736
-0.0058799703
-0.017637778
-0.011388718
0.01695013
0.00039233902
-0.0011104699
0.033010162
-0.009025672
0.014047401
0.03516955
-0.048397765
-0.0025044403
0.01569259
0.0014264629
-0.0061007985
-0.03022387
0.007863924
-0.023395274
-0.006622159
-0.013624557
2.1965621e-05
0.037006356
0.02203809
0.03325014
-0.0061408114
-0.005088657
-0.038228005
-0.028201923
0.011074338
0.033741724
0.00010377801
0.018290468
-0.0023728772
0.013643628
0.028020432
-0.024282705
-0.017851196
0.025530256
7.539931e-05
0.01629117
0.031220896
0.019368084
0.03600668
-0.024810039
0.01699101
-0.0044364627
-0.019500885
-0.020638216
0.031210113
0.035776135
-0.0026344778
-0.002555602
-0.02266803
-0.0022279993
0.0059674247
-0.027322982
0.023442937
-0.010556972
0.0048033027
-0.011590091
0.016856994
0.007630411
0.011887702
0.033537593
-0.0052968087
0.011341226
0.013539441
0.03352896
-0.012386095
0.031575818
-0.003315848
-0.010506533
0.0041750856
0.009117782
-0.017536815
-0.0104352245
0.01363536
-0.0317299
-0.002118477
-0.0052233725
-0.005946883
-0.005406268
0.012698014
-0.010443843
0.005600789
-0.017469892
-0.017969506
-0.017755415
0.016807362
-0.020208476
-0.021800024
0.02450369
-0.027784871
-0.0040617636
0.016713718
0.0058666808
-0.0076698028
-0.01600523
-0.03086158
-0.027636196
0.021277448
-0.013647736
-0.018782701
0.044187497
0.020450242
0.0015807591
0.011520561
0.0074313995
-0.026718218
-0.010401547
0.01566672
0.03456753
0.003626366
0.018047875
0.025594788
-0.020214787
-0.0037460513
0.01432551
-0.0299649
0.0036028996
0.0077517782
-0.002471174
-0.01842915
-0.01792714
0.031005593
-0.005273396
-0.0072295764
-0.03366058
0.007862241
0.037404757
0.012146189
-0.02328923
0.0060084364
-0.037451316
0.046658482
0.0004103296
-0.026468283
-0.020262737
0.034654964
-0.002252988
-0.016629156
0.01527423
-0.049577475
0.008244989
0.016923847
0.01915039
0.004001119
0.009643858
0.018301526
-0.007586585
0.024196126
0.009146232
-0.008572748
-0.014051906
0.024108231
0.033281464
0.0053295596
-0.01790211
0.03001541
0.007942527
-0.0100892205
0.036655884
-0.02175671
0.012505239
0.021947643
0.0034911607
0.0033716378
-0.028727494
-0.024678899
0.003770569
-0.02771043
-0.014262157
-0.01042376
-0.004687781
-0.024204573
-0.032600593
-0.013832071
-0.020526035
-0.025380364
0.03163946
0.030179
-0.0148628475
0.014435467
-0.016150668
-0.028208463
0.017541846
0.033380296
-0.010051179
0.01910814
-0.023215637
-0.017997647
0.021548614
0.00011465557
0.0013827797
-0.0018518018
-0.010140222
-0.04735791
-0.015839892
-0.0010694219
-0.019369805
-0.006857953
-0.000429786
0.00069884874
0.014823308
0.019334866
-0.026064444
0.043276824
-0.0216464
0.03353668
-0.030846579
0.024412043
0.028518366
0.012115264
0.047781292
-0.024975093
0.05151358
-0.016965931
-0.0016310008
0.0260281
0.03250168
-0.004736947
0.016599791
-0.021305682
0.033593226
-0.010122695
-0.024040397
0.016188644
-0.024807718
-0.02738635
0.0137670385
-0.006253677
-0.0057199285
0.0034801376
-0.015139586
0.015379096
0.030182268
-0.025983367
0.0076063657
0.026350146
0.013097244
-0.0039849235
-0.002559332
0.03020088
-0.0074200407
-1.5253189e-05
0.026876682
-0.0013419008
0.021039618
-0.012689779
-0.00992349
0.0025518998
0.016288582
-0.0059597185
0.0046280627
0.01622024
0.02523214
-0.007940612
-0.032244366
0.007615014
0.015325386
-0.021750456
-0.02198181
-0.006037992
-0.007031326
-0.0005051494
-0.020414133
0.011014976
-0.016522724
0.019824566
-0.0060282964
0.00017203571
-0.01410482
-0.019608796
0.00850581
0.016820481
0.019421665
0.022274585
0.015616701
0.009074355
-0.017464552
0.005848053
-0.05034793
0.017802235
0.025558103
0.018053265
-0.012159658
0.011965754
0.032577675
-0.020073138
-0.0164683
0.0031326923
-0.016388597
-0.0005015015
-0.008521049
0.00924884
0.0015181827
-0.021666868
0.016511677
-0.0023109415
-0.023180837
-0.020577021
0.028028391
-0.015908735
0.04293978
0.0033364506
-0.009835919
-0.0062258774
-0.01604012
0.0029173333
0.010591025
-0.038983632
-0.017733619
0.013648258
-0.004846368
-0.023770016
-0.02372855
0.020840166
-0.009854037
-0.040027797
-0.0021465602
-0.02406518
-0.031667218
0.0058422415
0.0033332927
-0.0025004998
0.025038296
-0.0072170454
-0.013221825
-0.0087709045
0.0026470767
0.0069188303
0.00020687758
-0.011078726
-0.017166555
-0.0089587215
0.02312107
0.0050557996
0.0056855935
-0.0062887906
-0.0020330206
0.0017256417
-0.0025097313
-0.03128966
-0.035649564
-0.0031587153
0.033180207
0.0032718186
0.02323258
-0.0048343027
-0.0022094233
-0.01617944
0.006220142
0.040158533
0.00075923867
-0.0014621294
0.01935614
0.011141384
0.019976733
0.011587245
0.03499866
0.005597986
7.463188e-05
-0.0152983125
-0.027046176
-0.026972044
0.02825826
0.024433006
-0.004873928
0.016159799
-0.0029247361
-0.0073951557
-0.020524327
-0.0041692415
-0.027058855
0.013977291
-0.020746458
0.0076741534
-0.03892353
0.010125333
-0.02135619
-0.008490197
0.032305256
-0.012800165
-0.029281445
-0.0046914155
-0.003747783
0.0031285086
-0.035168927
-0.03650024
-0.0027822347
0.0060289633
0.0077540698
-0.014175791
0.030169293
-0.00019984685
0.02880227
0.019803427
0.0153668085
0.01424504
-0.026036631
0.020575276
-0.020677682
-0.018876005
0.032461297
-0.025818951
0.03200565
0.018197551
0.019331606
-0.020346502
-0.0019614268
-0.0059144925
-0.007260038
0.017503733
0.0003475174
-0.009015768
0.00050826895
-0.008602365
0.01149574
-0.00650689
-0.016847065
-0.017845932
0.02544543
-0.008391124
0.024653308
-0.023884377
-0.021231366
0.023082273
-0.0037801785
0.0033099789
-0.023109108
0.032890737
-0.0057894713
0.025155315
-0.0052369894
-0.031090874
-0.027863055
0.029495286
-0.02804162
-0.0077413
-0.02388762
-0.019745601
-0.008300307
-0.007343117
-0.010184035
-0.02691904
0.018922336
0.030591624
-0.01054866
-0.018205749
0.03650887
0.020375913
-0.022908986
0.012900901
0.0023623619
0.020518199
-0.028395519
0.030746944
0.0027683983
-0.005795698
0.0034233886
-0.023562841
0.02774132
0.0013312153
-0.010267426
-0.029259596
0.004752083
-0.03901322
-0.0070831836
0.009902169
-0.021733504
-0.0013422586
-0.0091358805
-0.031832967
0.015454722
0.01340965
0.015442486
0.0181836
0.021135582
-0.054260153
-0.0060180663
0.0027620255
-0.00472788
-0.020390276
-0.03562468
-0.023198819
-0.0058111805
0.0026513995
0.011095696
-0.01573147
-0.022985771
-0.014349585
-0.014834906
-0.010897654
-0.013880824
0.006816429
0.016524956
0.01058109
-0.025683325
-0.035051506
-0.026471013
0.034366082
0.008758935
0.0077526625
-0.015766453
-0.037967276
0.008366826
0.016315322
-0.0054251505
0.008494618
0.026999095
-0.022585778
0.015095887
-0.030801615
0.00053602253
-0.03501101
-0.012678344
-0.008094201
0.02676394
0.019504758
-0.009296773
0.024473168
-0.03936838
-0.0153279845
0.019376937
0.007248771
0.006824569
0.013904402
0.010038295
-0.0013176384
-0.025953313
0.011648476
-0.017959915
-0.03658636
0.025139313
-0.034848098
0.01275195
0.015251474
0.033483174
0.0072059953
-0.01386929
-0.025715185
-0.023638273
-0.031614702
0.03926003
0.0034350522
0.021657819
0.0257666
0.007983525
0.015649462
0.022169739
0.04510139
0.00050686655
0.007039132
-0.02967956
-0.024924962
-0.028798886
0.0050587975
0.029363506
0.019094585
0.022568867
0.022194287
-0.017138915
-0.023698865
-0.012084221
-0.020416075
0.022941073
0.017818553
0.012687335
-0.004011469
0.014815514
-0.023087764
-0.03275043
-0.0016808006
0.030445304
0.03378143
-0.033984043
-0.02750512
0.014681025
-0.0062960037
-0.017857427
0.02742225
0.013912712
0.022761276
0.035327807
0.0036276889
0.0033383162
0.033387948
-0.030115824
-0.013446254
-0.009059485
0.030517308
0.0029902395
0.0083618015
-0.007934883
-0.034194488
-0.013607903
0.037019882
-0.032700744
-0.008336997
0.010403657
-0.007018199
-0.00059365993
-0.0023875702
0.0037124949
-0.019029832
0.038344163
0.010800845
-0.00023457049
0.0046418365
0.03372457
-0.04149589
-0.0366887
-0.04157463
0.060155496
0.036547586
0.006792899
-0.017072203
0.025780285
0.034284834
0.017292533
0.02419877
0.030938791
0.03587001
0.028426807
-0.0029454092
-0.010077395
-0.0029242076
0.012236357
-0.0066245715
-0.0009525834
-0.01284321
-0.010294536
0.0015926522
0.014057193
0.011105702
0.010466512
-0.0026184048
-0.02355459
-0.0112856515
0.0091656605
0.032925725
-0.00153501
-0.034068834
-0.017812297
-0.017145809
0.0021701988
0.038219158
0.0010417985
-0.038876723
0.00876503
0.013006056
-0.029576838
0.027596965
0.0096215755
0.03067846
0.008790713
0.023941498
0.011069328
0.034182925
0.02180312
0.0053098947
-0.0029192474
0.020040996
-0.0075536864
-0.010619326
0.00485628
-0.0022388352
0.03878148
0.025368836
0.03211564
0.034991335
-0.024965899
0.01037165
-0.019831281
0.049185213
0.009001297
0.015250181
-0.01750244
-0.014994082
0.004558529
-0.039194517
-0.026708009
-0.026360378
-0.019893194
-0.00054135517
-0.003826309
-0.02027125
-0.040817745
0.035670362
0.01812057
0.0076028304
0.0016648993
-0.024618356
-0.00085500476
-0.02857162
0.0028911107
-0.014731201
0.00065648917
0.028091386
-0.02394306
0.013153907
0.0042584906
-0.0054040686
-0.006960345
0.020695047
-0.030290533
0.031960417
0.009425643
0.0048772013
0.014674663
0.027801616
0.023804303
-0.019715318
0.021692617
-0.027674548
-0.0007188136
-0.022267336
0.019415297
-0.0033460238
0.019581812
-0.018436072
-0.014988579
0.02056319
-0.020477297
-0.009668843
-0.014788034
0.016138183
0.0050739427
-0.0038397394
-0.008296435
-0.025151122
-0.013532938
-0.0059307725
-0.014949948
-0.0047040884
0.037816666
0.0019115533
-0.0118458895
-0.007004666
0.016788226
0.025408974
0.014225086
-0.013360184
0.035580263
-0.01411975
-0.021389073
-0.0074936687
0.03388028
0.009346277
-0.0067397435
-0.018510887
-0.026803441
-0.008227408
-0.024632016
0.01219834
-0.01243517
0.0021742086
-0.023057219
0.011234179
0.008417811
-0.011939933
-0.010493124
-0.018353462
-0.0045444965
-0.03802096
-0.0055196304
-0.021812797
-0.004613085
-0.037438437
0.0031188333
-0.019235123
-0.010241774
0.0126617765
-0.00047790434
0.012309328
0.0187451
-0.021471102
0.015977329
0.042087037
-0.012552024
0.02225231
0.023958188
0.009418931
-0.011685015
-0.028620342
0.0009870317
-0.023765266
0.0013131193
-0.004162825
-0.008240246
0.034094512
-0.024401063
0.0034858442
0.02312125
-0.022846587
-0.025153505
0.03602796
-0.001634575
0.022801194
-0.035369188
-0.03705514
-0.013589313
0.02432193
-0.0216022
0.010355798
0.008451007
0.017845878
-0.024521962
-0.026681384
-0.028697615
0.022433791
-0.011562988
-0.043682363
-0.0053145955
-0.012676819
-0.02641504
0.022305101
0.058687378
-0.00027752534
-0.010806929
0.008472459
0.026010465
-0.011006499
0.019270856
0.027639383
0.014076008
-0.016032936
-0.001020261
0.009780337
-0.024709202
-0.017810864
0.024009619
0.017353114
-0.02337299
0.0039462154
0.0109408405
0.024730314
0.01593028
-0.026107397
0.02918684
0.004876913
-0.016648542
0.011169397
0.014692244
0.0080600055
-0.028440226
0.006125584
-0.028959358
-0.03089443
-0.013561055
-0.0038896995
-0.026549881
0.039520733
0.03771642
-0.00023513775
-0.0149198845
-0.038259417
-0.019316608
0.030747116
0.026145412
0.007340485
0.02497537
0.034157556
-0.01893427
8.488037e-05
0.010843549
-0.027767425
0.0202719
0.022786334
0.018716851
0.013619859
0.03199393
0.013747933
-0.013664276
0.011388247
0.024996443
0.008255015
-0.01702264
0.012784335
-0.03580578
0.020319216
0.0064219055
-0.021579022
-0.00046845985
0.015091031
-0.009171079
0.0027701405
0.021342693
0.013570583
0.018415814
-0.004418801
-0.019840514
-0.042387716
-0.005174449
0.01679251
0.012670732
-8.569942e-05
-0.0010416155
-0.00035584936
-0.020578424
0.024775427
-0.012481967
-0.0006505373
-0.009599189
0.0036407942
-0.028786762
-0.014607731
0.0287741
-0.01966827
-0.009581063
-0.0030411659
-0.021570256
0.004106078
0.045419235
-0.018910108
0.030154886
0.022555007
-0.015736822
-0.012521878
-0.000244207
0.012048104
-0.025451869
-0.0044596866
0.02711258
0.028148359
-0.015882947
0.024045773
-0.03414663
-0.01859122
0.015379809
0.016056925
-0.01745757
-0.0066941683
-0.03085867
0.036081184
-0.027821932
0.016638113
-0.004122805
0.030391851
-0.035261285
0.018815545
-0.016911397
0.0027052986
-0.0012805248
0.0009716379
0.027622357
0.00072366575
-0.013999698
-0.029109033
0.029264469
-0.025313007
0.017091017
-0.025917728
-0.018089755
-0.003938811
0.025975188
-0.026175901
-0.0008502933
0.0034516377
-0.0053486903
0.03822608
-0.027734853
0.0006882453
-0.019999895
0.011144515
-0.0054056407
0.010857163
-0.012817746
0.020359563
-0.025357632
0.012275215
0.01121612
-0.011733758
-0.004405888
-0.00039090926
0.02164376
0.029767253
-0.0001945956
-0.018724402
-0.02290995
-0.0013815091
0.005915469
-0.030149445
-0.01926087
0.0046465746
0.009294572
-0.004091115
0.012112243
0.038297173
0.025011895
-0.03526843
0.016944373
-0.019208694
0.005554955
-0.022357354
-0.020427732
-0.03558371
0.01896906
-0.00955545
0.021010885
-0.0031216827
0.018793765
0.013963782
0.009085717
-0.0023636445
-0.016990066
0.0015467803
0.026987065
0.0058639026
0.0083538145
0.00097573013
-0.0021310824
-0.00686773
-0.0026590778
0.0007397154
0.0060885916
-0.018206635
0.015954861
0.019584222
-0.0069126766
0.012503809
0.037000436
-0.0043185
0.016036542
0.011658849
-0.0025760436
-0.027885081
0.0011367967
-0.026345788
-0.010360159
0.010927558
-0.030245166
0.0021638195
-0.01059251
0.014541752
0.007087136
0.025352716
0.016199952
0.029745435
-0.0019338476
-0.03719349
-0.0032914057
-0.014018804
-0.034927905
-0.016815634
0.00086644635
-0.024979256
0.0019386098
0.017343208
0.022976222
-0.019411825
0.0042596846
-0.006546426
0.010976142
-0.0056402427
-0.015896803
-0.007873749
0.014655025
0.019144394
0.012880415
-0.004445971
-0.014117369
0.008775291
0.010233327
-0.037064683
0.0076815533
-0.0057894806
-0.0043882746
0.017131137
-0.0017621606
-0.035614368
-0.025674796
0.029946962
-0.0049871453
-0.014295053
-0.034681626
-0.008422088
-0.018867772
0.0034271132
0.008899558
-0.021248307
-0.0037968827
0.008366956
0.014913407
-0.015161916
-0.0139227025
-0.020067053
0.029791813
-0.016347967
-0.029804567
-0.031570382
0.003277675
-0.0047485335
-0.004577394
0.030443119
0.0075483453
0.01720556
0.0050073215
-0.032053873
-0.013458862
-0.019927554
0.018346729
-0.0005550478
0.0022247122
0.000831138
0.038256627
0.0081840055
0.029185932
-0.0033412483
0.008794771
-0.023944248
-0.0318233
-0.029085893
-0.035163686
0.0071982755
0.010370106
0.012398362
0.0001684672
-0.022915082
-0.02860356
-0.027223215
-0.018947076
0.02936226
0.016625274
0.019705066
0.008177032
-0.0060861614
-0.017151624
-0.019213257
0.016088987
-0.035648134
-0.030472321
-0.027308485
-0.014687066
-0.019037662
0.0010685053
0.039759997
-0.008183743
0.017284678
0.00845614
0.02670239
-0.023453554
-0.029793466
-0.022682548
0.018570421
-0.00907973
-0.005269429
-0.01953558
0.022354307
0.020451602
0.017999869
0.008007851
0.031210236
-0.03864584
-0.014467835
0.0073524695
0.01921173
-0.031405274
-0.014740888
0.019188229
0.0054990468
0.0018204072
-0.026100742
-0.002298877
0.029804457
0.0035934404
0.0032397103
0.03163829
0.009886989
-0.013526374
0.013683723
-0.030919772
-0.022305487
-0.027525334
0.012679246
-0.012397441
-0.017245527
-0.019270707
0.02208865
-0.026321277
0.010355619
0.028220266
-0.004404251
0.014695724
0.0018370774
0.0061860974
0.0052060294
0.0032183859
0.035088234
-0.061243318
0.008193854
-0.028368484
-0.01181925
-0.030487733
-0.0024776547
0.016785631
0.016565168
-0.009215651
0.019704578
-0.001368824
-0.0023877064
0.0019191868
0.009483918
-0.011692887
-0.0093530025
-0.014916235
0.0038891316
-0.005905437
0.020556703
0.020672057
0.008963756
0.011305081
0.023481688
-0.0061788936
-0.014122504
-0.016300289
-0.027406137
-0.012055488
0.010850426
0.011149183
-0.041069314
-0.027782034
0.016351525
-0.01818986
0.0050724694
0.021869924
-0.014533969
0.02875752
-0.009175751
0.016261352
-0.022816384
0.004372435
-0.0003716255
0.011724756
0.012061592
-0.021937104
0.03156458
0.036304083
-0.013631565
0.012241145
0.04740677
-0.022703618
-0.034182392
-0.016113194
-0.006397671
0.015254141
-0.008794034
0.0047013103
0.01721312
-0.01786272
-0.028577417
-0.0230242
-0.029448016
0.021857247
-0.018154746
-0.0100226
-0.00955754
-0.024944758
0.02804557
0.015624003
0.026174162
-0.020998651
-0.026580049
0.017410966
-0.005294161
-0.01845174
0.0055228956
0.01455451
0.035134733
0.01672763
-0.04162854
0.0003139957
-0.024904763
0.0091826795
0.0029781444
0.0067204204
-0.029003102
0.024329254
-0.028520351
0.028404549
0.013036395
0.018773435
-0.016985063
0.020444563
0.027328832
-0.0030424804
0.022891762
0.024779703
-0.010879784
-0.020220099
-0.00072014704
-0.015092249
-0.037396457
-0.005872465
-0.01921788
-0.003031805
-0.018112829
0.024200423
-0.020250674
0.026745405
-0.030376311
-0.0039999075
-0.0391085
0.027040817
-0.017156394
0.0061397552
0.035528112
0.012346103
-0.03768713
0.006829759
0.026683751
-0.023722334
-0.028899666
0.009432474
-0.016066521
-0.004986176
0.0012356996
-0.02046039
-0.020049894
0.008198869
0.0067028156
-0.023354104
-0.019306052
-0.026989836
0.041981902
0.027289154
0.01541807
0.006127009
0.011060402
0.012134558
-0.01378802
-0.009416606
-0.03436345
-0.021626523
-0.028604055
-0.026819512
0.012395164
-0.008874405
-0.011785483
0.007143921
-0.040986247
0.011025591
-0.008199862
-0.04302963
-0.025960712
0.0019145779
-0.0064919237
0.01483668
-0.02180734
-0.023913532
0.022544509
-0.017726995
0.006895549
-0.0372475
0.029489757
0.0042520934
0.007804029
0.018105231
-0.014373639
0.020981535
0.0051758736
0.011038252
-0.019696476
-0.037425213
0.021758944
-0.006049276
0.019284852
-0.0008862987
-0.0012659662
-0.015797721
0.01339175
-0.0011692074
-0.023956629
-0.034597196
-0.025575778
0.023702083
-0.026137574
-0.007940504
0.041559767
0.00067968265
-0.0050659114
-0.0095282
0.0073632207
0.0032199558
-0.0067330464
0.008663824
0.028620098
-0.021076547
-0.043863844
0.013052434
0.019357644
0.01767202
-0.016578246
-0.01939139
-0.009696227
-0.011162231
0.02126018
-0.0038956788
-0.012688493
0.0026527205
-0.04465359
0.021049524
0.024322037
0.031761415
-0.023598118
0.013975741
0.016776798
-0.017073346
-0.03481887
0.0013507027
0.021158122
0.041788537
-0.016008683
0.01346724
0.0186086
0.025050862
0.019958336
-0.0035077627
-0.0106321
-0.009106185
0.0028562464
-0.019770825
-0.03938473
0.023974137
-0.015338815
-0.031400576
0.012129107
-0.010717938
0.02531779
-0.015853513
-0.00036297808
-0.018437954
-0.020118048
0.028164431
0.01688072
-0.010297561
0.019374419
0.030938784
0.014528163
-0.025994591
0.028884133
-0.011705445
0.022225946
-0.031961266
0.035685204
-0.0013637503
0.01336618
0.016924677
0.009196559
0.027619762
-0.012542025
-0.0041554365
0.008016377
-0.027888598
0.003438893
-0.01890057
-0.007192961
0.015103711
0.018574977
-0.0006638814
0.036865447
-0.00573877
0.0022068936
-0.026732571
0.033398066
0.024033269
-0.01964077
-0.01763473
0.03614863
-0.010116287
0.011651388
0.012289536
-0.00053790474
-0.013312165
0.013692881
0.016757522
-0.030369373
0.005163295
-0.0014128605
-0.021226784
-0.010461613
0.038465735
-0.023952523
-0.020725667
0.023627644
0.01762415
-0.00038562354
0.024701275
0.0066466345
0.018294303
-0.005696094
0.002348358
0.0008643504
0.0054313727
0.02752935
-0.020092044
0.020706909
-0.017161723
-0.03445718
-0.012141742
0.04211861
-0.009968176
0.0014626683
0.012205339
0.019305069
-0.0057490733
-0.02792204
0.01865344
0.026551785
-0.03453765
0.014961079
0.03209796
0.017146071
-0.020302545
0.022482805
-0.025986848
-0.01961788
0.03712296
-0.028157769
-0.042688023
-0.013707694
-0.028662954
-0.022353211
-0.0426124
-0.027284406
-0.0071106497
-0.030693015
-0.001442339
-0.01031142
-0.01999774
-0.004714962
0.028433008
0.00051138265
-0.019472277
-0.010245383
-0.03430083
-0.028333161
-0.008978813
0.013670952
-0.023889463
-0.0016875423
-0.023564007
0.010917598
0.008365778
0.028736066
-0.01311309
-0.00038699925
0.0064288103
0.018593296
0.0031910925
0.004370067
-0.008575472
0.02817383
-0.0036929534
-0.013151316
0.016543053
-0.0015592328
-0.0023194358
-0.022842636
-0.003297577
0.015768167
-0.038838323
-0.0015392705
-0.0064932588
-0.016405148
0.005001002
-0.006027414
0.027993865
0.00076421874
0.013922634
-0.010899352
-0.00750057
-0.021538155
-0.00031451683
-0.02094659
-0.013081958
-0.024624294
-0.0027551004
-0.024272403
0.01211302
0.026869074
0.01095663
0.010516984
0.008033413
-0.008884947
0.0044912514
0.005352208
-0.025809709
0.028543953
-0.013843446
-0.021539709
-0.026375672
0.015034552
0.009587307
0.009412117
-0.0095238155
0.011106696
-0.047084853
0.0066102804
0.009423575
-0.029204953
-0.006539678
0.0086734
-0.0043682335
-0.020503374
0.018807873
0.012242548
0.0047291145
0.012717008
-0.007106168
0.020237908
0.021593226
0.025837848
0.022812665
0.023823434
-0.022171544
-0.0024966085
-0.008557742
0.014005924
0.010556095
0.014689171
-0.012027744
-0.0044398163
-0.027710462
-0.0011663216
0.027259406
0.00666916
-0.006887883
-0.024460679
0.009760713
-0.030253246
-0.018153222
0.019159751
0.01845031
-0.0052520377
0.026274882
-0.02928738
0.016050112
-0.025394421
-0.013535875
0.01320268
-0.019265391
0.019211281
-0.0088288
-0.009653429
-0.023200097
0.016230488
-0.015798086
-0.0033086967
0.0052186176
0.015484401
-0.011165744
-0.024528766
0.022312695
-0.012572052
0.033874188
-0.023922801
-0.0037464462
0.040652502
0.0013493632
-0.030674674
-0.012293223
0.0066743963
0.00681072
-0.004710227
-0.007570965
-0.005302179
-0.0153697925
0.017576158
-0.028876046
0.013880616
-0.03677951
-0.014255057
-0.02021519
-0.022247387
-0.013617804
-0.025245633
-0.0031884983
-0.003747244
-0.026520725
-0.006120353
0.03709706
-0.00927292
0.005911677
0.00092057534
0.045301348
0.0066307043
-0.014270783
0.028854348
0.0029324251
0.006870521
-0.017722359
-0.002876565
-0.013962175
-0.00636517
-0.053456564
-0.0141078895
-0.030927839
0.01231033
-0.011797989
-0.009283947
0.00677493
0.031501178
0.0069175763
0.0002625196
0.048014056
0.009990917
-0.00803792
-0.01334888
0.002425845
0.01936852
0.0039550946
0.043681666
-0.04130035
-0.016220989
-0.030081244
-0.018040476
-0.025044044
0.027000705
0.016499223
0.0025334589
0.008631488
0.008724935
0.024934797
0.015226992
-0.031268682
0.0037235797
-0.01907065
0.035790432
0.0012330456
-0.023740847
-0.025909131
-0.021360649
0.02361862
-0.021418283
-0.03127366
0.030618751
0.0151577685
0.012825119
-0.0046279705
-0.016299121
0.0024926965
-0.025506735
-0.00010757173
0.007485831
0.017830165
0.010554069
-0.021426126
-0.017712452
-0.01254028
0.029535376
0.01604517
0.015842598
0.008527146
0.0020635955
-0.009277318
0.030008538
0.018654803
0.003505495
0.0071763312
-0.014984458
-0.009992988
0.02967846
0.047179945
-0.008998279
0.0072566294
-0.009632606
0.0062113157
0.022753995
0.0010926859
-0.015129866
0.004107719
0.004028264
0.020933358
0.00840855
-0.003383912
0.00580488
-0.007246364
-0.023969777
-0.035582725
0.00014811975
-0.025569275
-0.010631035
-0.015076627
-0.020954084
0.014306569
0.019407436
0.001137711
-0.026392493
-0.017807102
-0.0062499857
-0.031600107
-0.011067439
0.022595068
-0.022906628
-0.035201535
-0.008386199
0.013620567
0.027741512
0.021894177
-0.012548122
-0.0054273633
-0.0040487316
-0.030285262
0.0069186967
-0.03130068
0.013844662
0.01556946
0.009066217
-0.0080496175
0.022018155
0.02112284
-0.028300239
0.0003621758
-0.03643872
0.018579848
-0.011635853
0.017481348
-0.021491798
-0.00126092
-0.010420144
-0.010289454
-0.00062744727
0.004197389
-0.023257716
-0.022062538
-0.007075067
-0.037717965
0.00067354384
0.011318569
-0.00995244
0.008830948
0.03194965
-0.006579168
-0.018727144
-0.03634619
-0.023048308
-0.009410409
0.0061079157
0.032639883
0.008222977
0.032909233
0.025656087
0.026071174
-0.013496363
-0.018187692
0.0077496157
0.02740266
-0.034736075
-0.038651597
-0.016346581
-0.0039639142
-0.0353715
0.02006365
-0.011014085
-0.024250865
0.008853472
-0.019451126
-0.0005640713
-0.009830741
0.024191376
-0.014025806
0.008394146
-0.013464101
-0.027363643
0.0023413436
-0.02052961
0.03640155
0.020603852
-0.0043859743
-0.006830418
0.010441664
0.019000838
0.01820711
0.03019795
0.024072088
-0.014948211
0.019300783
0.0012551679
0.043337867
0.021183858
0.015890252
-0.015612238
-0.010929722
-0.01672688
0.018066896
0.005070756
0.024491973
-0.011075047
0.023413168
0.014736885
-0.012198293
-0.012699501
-0.006530407
-0.028043022
0.020955238
0.0032513018
-0.028145164
-0.042579334
0.0043229046
0.0064041163
0.021386964
-0.00046018875
0.004769964
0.00200867
0.018336734
-0.03331369
0.016069058
-0.018656256
0.031463206
-0.0017531198
-0.017977655
-0.005680687
0.026571298
-0.0024291014
0.03417292
0.0063747996
0.021921704
-0.013656082
0.019593349
0.031499445
0.021077491
0.020274563
-0.00792523
0.015090357
-0.027850322
-0.015903736
0.00998165
-0.017573437
0.008272264
-0.046342473
-0.03851911
-0.016412506
0.013141447
-0.031450555
0.00980076
0.021980917
-0.025402902
-0.014371022
-0.02470201
0.001980984
0.019125551
-0.0034923756
0.016047914
0.030536538
-0.01247531
0.037425492
0.0404396
0.0012104295
-0.030279301
0.0139372805
-0.0012060541
0.0023226945
0.005717391
0.005239326
0.010427157
-0.015149574
0.01056426
-0.030960655
-0.01318724
-0.02726383
-0.019018643
-0.024079988
-0.004441265
-0.02440565
0.00843258
-0.010240651
-0.009224431
0.041505873
-0.026063932
-0.007622836
0.00092850096
0.0045324913
-0.0028705418
0.0065963743
0.013039309
0.0048058894
-0.024980875
-0.025953526
0.027041726
0.0052167717
-0.006261482
-0.0016422714
0.008321056
-0.023987545
-0.0024152165
-0.009228788
-0.008906467
0.005387456
0.042580586
0.028809104
-0.0015372485
0.016137782
-0.0314104
0.002315062
-0.049558647
0.0036139812
0.017417543
-0.0065105027
-0.02000711
0.016237833
0.004147304
0.016998533
0.0149454735
0.03153297
-0.0047464995
0.010624302
-0.0015722538
-0.017791666
-0.00688863
0.040443614
0.016403472
0.004802776
-0.026771875
-0.020776324
0.0059177442
-0.020003581
-0.026480654
-0.03302083
0.024920655
0.0041420874
0.0018096623
-0.008434905
0.016749637
0.01800388
-0.026738517
0.01378596
0.021442836
0.013866171
0.021238662
-0.007348027
-0.021627378
-0.034336958
0.006768852
-0.01522511
0.018604005
-0.010730487
0.019276692
0.0023473147
0.015105122
-0.010664368
0.024277281
0.0062301257
0.002255139
0.006151792
-0.016335301
0.008929374
-0.0053424626
-0.001372495
-0.009317457
-0.014478832
-0.029812325
-0.016749911
0.031674325
0.010661743
0.0054755607
0.0012358795
-0.0009942238
-0.022332573
-0.002490023
0.018934682
0.0069287857
0.019319575
0.03480287
0.038385823
-0.03302148
-0.0068999487
-0.009639034
-0.0084977085
-0.025818639
0.0013144423
-0.0022476723
-0.004312789
-0.005311636
0.019755855
0.009183451
0.016404524
0.014166644
-0.028170535
0.032161288
0.007483549
0.022698425
-0.020686788
-0.014225019
0.022449866
0.009132779
0.017615387
0.009264422
0.00078328984
-0.0012496455
-0.016348261
0.009180268
-0.01689666
0.04664155
-0.0048220907
-0.026288893
0.016597284
-0.016820986
0.012046129
0.029654272
-0.000637165
0.009121778
0.010585912
0.029285729
-0.033240516
-0.010706739
0.01941932
0.026564287
0.002856734
0.028422175
0.020342948
0.01153264
0.009404231
0.0074232644
0.019652335
0.0025058298
0.011965677
0.031872705
0.0030693398
0.000927793
0.013266819
0.018332124
-0.01041755
-0.029027687
-0.034806147
-0.010922255
-0.007589493
0.0033646682
0.012104941
0.0038288883
-0.0107077835
-0.0057640695
0.019245623
0.008785427
0.012484468
-0.012786774
0.012011712
0.0011964665
8.0305945e-05
0.02385046
0.012458545
0.015513224
0.01744749
-0.021314112
0.013661227
-0.0013476115
-0.012465384
-0.002640407
0.007417189
0.0045850524
-0.0043174303
0.0028480175
-0.013080945
-0.03614394
0.010948964
-0.022010593
0.009371904
-0.014545414
-0.015649727
-0.013534836
-0.023844982
0.0009437635
0.020183273
-0.047992166
-0.0104924245
-0.0012115373
-0.0040319413
-0.02195333
0.013085898
0.0072686356
-0.020457402
0.009959958
-0.001572384
-0.0137347765
0.00849096
-0.022407359
-0.011908879
0.0023587954
-0.030316371
-0.006339102
0.0037182036
-0.023615852
-0.012049504
0.0056112576
0.014202115
0.00667124
-0.008257559
-0.0021117888
0.016400924
-0.023010476
0.00064159
-0.004621455
-0.0018446279
0.022494176
0.0058408063
0.009070291
-0.0067427517
0.018893845
0.01680578
-0.019332422
-0.016121576
0.023520024
-0.015448455
0.0069084275
0.01983782
2.9378396e-05
0.026622554
-0.018933758
0.027673474
-0.01973806
0.012147146
0.024776846
0.01748898
0.011200585
0.025401663
0.0017241726
0.0025561894
0.024077848
-0.040486578
0.034773584
-0.015674796
0.01642384
0.018300094
-0.024370106
0.0053788214
-0.018776542
-0.0067565157
0.007129523
-0.03210577
-0.017808462
0.020608895
-0.0056939777
-0.020984203
-0.0012395233
-0.0038069263
0.015378672
-0.018191705
0.015011041
0.029445786
-0.030859666
-0.011114354
-0.0011528124
0.019113673
-0.009738001
0.027252598
-0.0355002
-0.03115946
0.01546832
0.009781774
0.008690633
0.012307135
-0.030160584
0.0078374855
-0.0036026456
-0.018247174
0.0415254
-0.002743022
-0.016512888
-0.033001546
0.053432938
-0.007876493
0.023684684
-0.0019149709
0.02207134
-0.031389758
-0.023111358
-0.01473885
0.0013433346
-0.033973236
-0.03068124
-0.0051911427
-0.0246204
-0.008898731
0.00081117224
0.003122854
0.017870763
0.016387582
0.025128247
0.036950495
-0.0053957882
0.0044231894
-0.005245987
-0.0042506666
0.004109389
0.0039075874
-0.009050688
-0.039682794
0.0013608341
0.015666835
-0.0013517896
-0.01184909
-0.012152629
-0.0088536255
-0.012695865
0.036235504
-0.020909201
-0.008681738
-0.026230562
0.019420207
0.0061824964
0.007091945
0.004101717
0.02394047
-0.01618641
0.0048206802
0.009218985
0.016789395
-0.02420694
0.03801542
0.032169193
0.0023220053
-0.029781982
-0.03908916
-0.028009223
0.0041278726
-0.019966723
0.0007283475
-0.037931014
-0.010984682
-0.015293279
-0.0050871167
0.018984756
-0.026548965
0.025263544
-0.0050962013
0.025618276
-0.028346965
0.03258625
-0.01575803
-0.014963726
0.0052561928
-0.013921152
-0.015417556
-0.0057252413
0.028201362
-0.020145115
-0.0033732313
0.02845684
0.0028312106
0.013000214
-0.026616402
0.022155065
-0.02103507
-0.015858868
-0.013000036
-0.014988954
0.02287636
0.014860885
0.019850735
0.003937961
-0.0061799944
0.0048128474
-0.03197161
-0.021926776
0.018142987
-0.03235467
0.005165175
-0.01325908
0.0050992696
-0.03507368
-0.011672265
-0.006620244
0.023457441
0.016298281
-0.022855416
-0.03787509
0.02420733
-0.024260297
0.01701927
0.0028527293
-0.03772204
0.010467694
-0.007071315
0.023676671
-0.011392205
0.026735429
-0.02493127
-0.0034346883
-0.016984027
0.024123393
0.010748637
0.019135984
0.017857151
-0.017984135
0.03158535
0.017628059
0.028050462
0.004996577
-0.0021862278
0.009801317
0.009521067
0.025727471
-0.031088434
-0.01664883
0.025939591
0.006971069
0.00478413
0.01991346
-0.015428649
-0.0075180186
0.03654197
0.013190965
0.012136871
-0.03261501
0.03760321
0.004934758
0.007115644
-0.012000752
-0.010481925
0.010956204
0.02390168
-0.022092883
-0.0018209758
0.0070968536
-0.021027725
-0.021199167
0.013749654
-0.012172248
0.01259109
-0.0130055975
-0.0050106226
0.027428983
0.015280683
0.036988273
-0.019007059
-0.016234403
-0.0006191691
0.031452883
-0.015709138
-0.006779757
-0.018342825
-0.008670531
-0.004357333
-0.0063098827
-0.036807653
0.015206912
-0.017423343
0.005351023
0.031026132
-0.0034872203
0.0061421664
0.009543456
-0.016446741
-0.01946352
-0.027005631
-0.029076818
0.0012410657
0.013143443
-0.016364383
0.0031330101
-0.0008762841
-0.00012612257
-0.03097567
-0.0038394344
0.016404064
0.0230467
-0.031565726
0.010978054
0.029336538
0.0035294888
-0.0056704674
0.008349654
0.0146605
-0.010445939
0.002186881
0.0022481878
-0.02931641
-0.015939267
-0.014283546
-0.026850617
0.0049233353
2.4189656e-05
-0.004845746
0.004564665
0.012522793
-0.0011751245
-0.016340224
-0.0085367095
0.0090161115
0.031102499
-0.018784402
0.0132570425
0.01357824
-0.0120607335
-0.014750681
0.027372738
0.03138732
-0.0015123737
0.011536857
0.0155774485
0.0061980914
0.0071273367
0.01728583
0.012271638
0.010055679
0.005612689
0.047532238
0.0022917911
0.0025897406
0.020914806
-0.04539804
-0.0031344288
-0.00036920514
0.03105144
0.0052421982
-0.020236062
0.012168898
-0.026032424
-0.016892575
-0.01162187
0.02053904
0.027168248
-0.019066546
-0.016698776
0.028794741
-0.024021152
-0.005659461
0.0086341025
0.031994835
-0.0062501417
0.01718156
0.011405623
0.00123526
0.03592396
0.020167118
0.02564245
0.031378467
0.019017868
0.019743165
-0.013106335
-0.03358486
-0.002546682
0.01029325
0.020481538
-0.00762201
0.028121676
-0.004530997
0.006034871
0.025002265
-0.004406149
-0.026903553
-0.013170372
0.026943874
-0.009331707
0.0028051608
0.027242891
-0.021549664
-0.0016590729
0.010391935
0.00038055397
0.0105520645
-0.0016395318
-0.020407856
-0.02707191
0.02007501
0.017599078
0.03258825
0.005611922
0.016755065
-0.026307676
0.01329981
-0.029027382
0.01089174
0.0035821318
0.021325149
-0.04367325
0.0073782806
