0.03925367
-0.0045231385
-0.0007068378
-0.020535357
0.04066948
-0.010610079
-0.013029178
-0.0049787536
-0.02260402
-0.009347466
-0.030232428
0.027225211
0.029202877
0.0126234535
-0.013422258
0.040501658
-0.008242892
-0.031225154
0.0012409214
-0.028367043
-0.027808575
-0.012824351
-0.0020783562
-0.0084036095
-0.004384976
-0.009304174
-0.0054005347
-0.012576225
-0.0350919
-0.042249132
0.014839783
0.0028411956
-0.033426423
-0.043393295
0.0034019735
0.028310215
-0.01641641
-0.005705336
-0.021729957
-0.001405248
0.0028628677
-0.029793568
-0.034243852
-0.023979785
0.0028887698
-0.029565655
0.009312142
-0.02869526
0.0354455
-0.025864666
0.016851783
0.034799412
0.029031046
-0.02892115
0.018614847
-0.013610803
-0.020482248
0.0315932
0.020884128
-0.012025532
-0.010929899
0.023223303
0.023851665
0.0019657877
-0.034638435
-0.033822402
0.01079833
0.017485019
-0.0006584276
0.018990776
0.025882704
0.01809408
0.041181423
-0.004022574
-0.04922947
0.024269521
0.042509496
-0.0068708663
0.020049043
0.02019854
0.012027781
0.0043035517
0.010069397
0.045586944
0.011909131
0.024105964
0.027685776
0.032108385
-0.036623497
-0.04592589
-0.023480609
0.0064295526
0.009099957
-0.024474947
-0.023071168
0.0327391
0.045630258
0.050288007
0.003673643
0.024234718
0.00047974777
-0.019385682
0.022531934
-0.031083502
0.021499839
-0.02031258
-0.028501665
-0.00253803
0.010107074
0.015917242
-0.03311078
0.0022980454
-0.0009175303
0.033222996
0.015161728
-0.02008186
0.009027049
0.006632483
-0.02356338
0.03108594
0.032686636
0.011400454
-0.017552359
-0.016534992
-0.002343868
-0.02840674
0.012083122
0.019139018
-0.016067417
-0.03463664
-0.046025805
-0.023745509
-0.01851547
0.019189369
0.020192027
-0.004159111
0.0055396347
0.0075429985
0.01057013
0.0074886614
-0.051011935
-0.0010594788
0.022091577
-0.00014295614
0.0025317008
-0.018440478
0.023465801
0.0116757415
-0.0033441423
-0.0032865852
-0.008567685
-0.027668893
0.0013672918
-0.02988749
-0.00018522293
0.007080235
0.015816512
-0.026006857
0.01692045
0.038027577
-0.011941542
0.01609807
-0.03645874
0.03219981
0.028864441
-0.017470816
0.002479442
0.008331203
0.010699322
-0.009575739
0.014119206
0.02167166
-0.024777524
0.020570267
0.015244174
0.0042470153
-0.009954044
-0.00625918
0.029995011
0.03412265
0.004142963
-0.036251113
0.032265823
-0.0014798385
0.042396616
-0.011089536
0.04703237
-0.0022384361
-0.006683687
-0.018554945
-0.005223202
0.024829179
-0.015720606
0.02546928
-0.04156689
4.2025364e-05
0.0040883664
0.029354822
-0.008513934
-0.002164795
0.0014154904
-0.009383746
-0.0061467695
0.023593321
-0.035667717
0.034350745
-0.009471599
0.041490953
0.01222236
-0.0444223
0.02010869
-0.0028148517
0.015595632
-0.02036927
-0.007737431
-0.031352654
-0.028254705
0.0053654313
0.025823075
-0.034513853
0.004906441
0.011456134
0.019896973
0.044756968
-0.010103798
0.022727698
-0.006315773
0.0027448004
-0.023048153
0.005502215
-0.023568448
-0.012985822
0.0072995517
-0.022110915
-0.009493953
0.0134921465
0.016122665
-0.03235739
0.002104499
0.013080096
0.0072869915
-0.0013374381
-0.009309253
0.017864117
-0.017833965
-0.03586731
0.004093343
-0.022783311
-0.008088713
-0.004257766
0.032478813
0.010713343
0.010342845
-0.0001956532
0.0040683327
0.0041574296
-0.008833156
0.016247323
-0.002256507
-0.018325878
0.019116245
-0.026983578
0.0046187635
0.020821717
-0.034967024
0.016412629
-6.095617e-05
0.006765629
0.031856023
-0.0023772444
0.0055355215
0.0013277781
-0.007390391
0.026075134
-0.023807593
0.048422854
-0.026356352
0.00052119244
-0.031062659
-0.011682473
-0.0026254507
-0.005991497
-0.037858523
-0.017072028
-0.017272046
-0.030380696
-0.026595015
0.009337311
0.012865891
0.023066293
-0.03798595
-0.02461522
-0.0005173924
-0.027736157
-0.0055634226
-0.014955831
0.030489938
-0.046411805
0.0381284
0.039095823
-0.030876394
0.016434394
-0.014479647
-0.013506349
0.00016068299
0.0191663
-0.030118419
-0.0006138434
0.0054025487
-0.030153828
0.02994695
-0.011379872
0.0032979916
-0.012631898
0.017516777
0.035995185
0.00055025803
0.007087913
-0.011955786
-0.01650899
-0.013916089
-0.026105138
0.026067164
0.01089747
-0.00570723
0.0010445607
-0.030143708
-0.037727654
-0.0033299238
0.033226974
0.017496824
0.05432722
-0.013284664
0.0152525725
-0.0069532758
-0.03183971
-0.042597193
0.023479505
-0.017873429
-0.010868571
0.024057858
0.042011093
0.03266389
-0.0037100508
0.017501587
0.014484095
-0.024208548
0.021315256
0.036163375
-0.000349498
-0.02654533
0.029981289
-0.029446054
-0.01169829
-0.02642808
-0.03190118
-0.004932685
-0.020875596
0.01614991
0.036786865
0.024693342
-0.0038816726
-0.0045448807
0.0034355575
0.027218293
-0.0057176114
0.017118495
0.020542044
0.025770653
-0.021312475
0.028894193
0.014400558
7.840567e-05
-0.015426604
0.009987507
0.026738387
-0.014474111
-0.02027484
-0.016264513
-0.027927043
-0.0005710979
0.028362159
-0.00410794
0.026539573
-0.04057388
-0.010696516
0.034271915
-0.01569301
-0.011733829
0.003621855
0.0033387935
-0.046006672
-0.02238948
-0.017248657
0.0005025599
-0.017155722
-0.04747288
0.0038623558
0.0053842794
0.0126899015
0.0014905389
0.030738458
-0.012354348
0.002584182
-0.011742313
0.019017167
-0.012126705
0.018424382
0.0123767685
-0.0036380892
0.018345457
-0.01560285
0.006538647
-0.028323924
0.006393234
0.0067749224
0.03753108
0.016364314
-0.012953466
-0.00043333397
-0.0032646686
0.032429382
0.026992686
-3.738436e-05
0.021680992
0.018808698
0.013801451
-0.014533852
0.023756439
-0.026109137
0.039741136
-0.0037307788
0.00894246
-0.011775476
0.012408907
0.00075873605
-0.0030781087
0.014606662
-0.04123861
0.014501769
0.008585412
-0.019475048
-0.039171457
0.01767642
0.022038803
-0.015046308
0.026135024
0.016407557
0.020172644
-0.000575234
-0.015469597
0.0079952795
0.012552757
-0.024232415
-0.007569807
0.0099338405
0.011550314
-0.0052915397
-0.02327954
0.04588843
0.02052407
-0.0055920393
-0.0094757695
0.002380275
-0.015640602
0.0045450293
0.024532171
-0.019329159
0.020486623
-0.025292585
0.00078077446
-0.034764156
0.03535139
0.046607077
-0.0021620798
-0.009901178
-0.007871217
0.010568937
-0.011258096
0.020464161
-0.0030204575
-0.01808115
-0.010649952
-0.013469374
0.027363017
-0.0018357678
0.025445117
-0.00543225
0.008570981
0.024004918
-0.034607217
-0.04224997
-0.00233006
0.00022816622
-0.013776586
0.033699546
-0.012510898
-0.036459237
0.0047106165
0.026981648
-0.008830651
0.023816908
-0.020809984
0.02255768
0.012091507
0.017495265
-0.014622095
-0.009661541
0.011338435
0.02421306
-0.01563305
0.033267155
0.03431314
0.028692434
0.02948621
-0.031533685
-0.02230612
-0.009346407
-0.003981091
0.0068146707
0.016126962
-0.05004723
0.018747622
0.024782725
0.036482908
0.037634905
0.026980005
0.011191397
-0.023614988
0.0140757095
-0.0094070975
0.07178743
0.0154768415
-0.0025586393
0.018067732
-0.026181798
0.008437173
0.02915412
-0.015451387
0.011855687
-0.009169901
-0.009957102
-0.011010209
0.003788934
-0.027759332
0.011700982
0.047692545
-0.026691532
-0.01873325
-0.010081626
0.021991892
-0.0023391375
0.012933416
-0.0023848326
0.014432702
0.0006695971
-0.015760176
-0.01723436
0.057939887
-0.0046499763
-0.032216616
0.013530438
0.030920306
0.035762623
-0.025429282
0.026183259
0.014713636
-0.011780496
-0.00017402368
-0.0098473225
0.05996502
0.0034404285
0.005192573
0.035523925
-0.023241017
0.0088951085
-0.013769507
0.000381158
-0.029184848
0.0068628825
-0.033361178
-0.015447066
0.035264775
-0.007181815
-0.016169392
0.008018238
-0.0013149496
0.03015056
0.03196355
0.024006188
-0.037695285
0.0010082178
-0.0058127046
0.025033738
0.0016300686
0.04404651
0.011411019
0.042900007
-0.019501524
0.04842293
0.007856658
-0.037743334
0.0062974156
0.010593934
0.011871671
0.026896974
0.015519668
-0.0072289524
0.035674997
-0.007883184
-0.03443508
-0.0146301715
0.0038290054
-0.039459318
0.0077229547
0.039092127
-0.006482439
0.022192597
-0.024708077
0.007424471
-0.0028284718
0.014785639
0.048796546
0.0031475932
0.035764404
-0.03735708
0.011986161
-0.011285771
-0.0062636547
0.015461607
0.016485248
0.012527987
-0.043989845
-0.03172771
-0.023024637
0.031573333
0.016752573
0.0009064042
0.021343788
-0.016350655
-0.0060724276
0.03009284
0.0075794207
-0.039400917
0.025333406
0.0048207305
-0.016038656
0.02121124
-0.01519301
-0.030111047
-0.01789034
0.036680706
0.058975242
0.017737374
-0.0058974396
-0.024139924
0.0108550405
0.042630922
0.0017512792
-0.016036635
0.0068891374
0.0028855512
0.00881495
0.021285804
0.025767207
0.010438051
-0.031386137
-0.016546434
-0.014971834
0.031693775
-0.029212818
0.0034976653
0.0003356702
-0.027835801
0.048526213
0.0034807604
0.032849215
0.040358793
0.020239925
-0.018539032
-4.7416273e-05
0.013851374
0.017981535
-0.021775624
-0.018013753
-0.021783324
-0.012815027
-0.031922918
-0.007881978
0.007852987
0.0031640036
0.034325022
-0.006811514
-0.005268255
0.022152781
-0.015389165
0.00065524474
-0.029358089
0.0015379095
0.000610595
-0.012995567
-0.024139747
0.01870746
0.0021483814
-0.024189346
-0.022710903
0.017674096
-0.026622878
-0.03424232
-0.009459402
0.0148815075
-0.00637558
-0.0021114768
0.054535754
-0.030261029
0.01717243
-0.016448677
0.036919992
-0.011909
-0.03800851
0.010177164
0.0052329088
-0.007707947
0.027130809
-0.03588124
0.0126453675
0.007316774
0.012318979
-0.01647404
-0.0058969003
-0.025628218
-0.01311783
-0.010064198
0.022262793
0.016354332
-0.01534232
0.02072628
-0.03358539
0.0138678625
0.0088598095
0.015766902
0.03208783
-0.008176185
0.052434597
-0.025956608
-0.012750029
-0.007593374
-0.011308605
-0.0030279448
-0.01244294
-0.027430464
0.025507005
-0.027617773
-0.020628065
0.013406247
-0.0017691051
0.023820033
0.012417973
-0.0039321645
-0.0014079309
-0.007160434
-0.0015796898
0.033312343
0.009956289
0.0027270997
0.0047440277
0.022722423
-0.046040572
0.015632145
0.030836353
-0.0016052328
-0.044896036
0.008442792
-0.012824187
0.009344284
0.0097018005
0.024945503
0.04294018
0.015373893
-0.010770551
-0.0108242715
0.015026046
-0.019470913
0.0021617766
-0.02269113
-0.0033609115
-0.028747292
0.009096148
0.0032367494
-0.02118917
0.0050285356
0.008585612
-0.009443009
-0.01655042
0.04023055
-0.00996383
0.029143604
-0.036322698
-0.00063585234
0.011510925
-0.0026792386
0.029882913
-0.016961074
-0.022498133
0.0017462508
-0.026147727
-0.0026227783
0.010452966
0.013934856
-0.01736574
0.017151108
-0.021587849
-0.008224054
0.022607645
0.022331847
-0.009431499
0.021813635
0.00480948
-0.011619659
0.016478816
-0.024588756
0.023265684
0.0069572683
0.020080758
0.0061288476
-0.03344139
0.009590594
0.028738005
-0.009595748
0.021074608
-0.00023835732
0.0087411525
-0.00760367
0.040869106
-0.029274538
0.003824943
0.014593932
-0.030060327
0.008662713
0.030654998
0.029177366
0.02278896
-0.013685092
-0.0059106206
-0.0037592456
0.021135084
-0.02068692
0.014566121
-0.02925787
0.011347446
-0.006784889
0.010196055
0.017679747
0.008239979
0.01719983
0.002840528
-0.019962987
0.025151636
-0.011513992
0.035222676
-0.01437268
0.001895293
0.002757182
0.016444843
0.008586913
0.03063977
-0.00044794244
-0.0100792
0.028209668
-0.011787824
0.012036041
0.009855983
0.0048492663
-0.016852397
0.010753185
0.051723436
0.002103055
-0.03772347
0.012869157
0.0014010003
-0.0029185088
-0.02498697
0.02197827
-0.010579766
0.02483271
-0.010045391
0.0055681905
0.00576857
-0.020316264
-0.03698869
0.019498726
-0.018677508
-0.0050000907
-0.02117519
-0.02426647
0.009927096
-0.0017302515
-0.02543709
0.0066873315
0.0021868958
-0.003753526
0.019428324
-0.020781111
-0.016508086
-0.015263816
0.01360053
0.0025522343
0.01731061
-0.026639769
-0.03565161
-0.0014703987
-0.0038305952
-0.027456641
-0.008342536
-0.013528227
-0.013839705
-0.001883996
-0.0009864104
0.0006906109
-0.027358018
-0.0063123736
-0.024030771
0.010635424
-0.015854921
-0.0027396274
-0.005585168
0.018076645
0.0025226683
0.019876873
0.012468092
0.017003525
-0.0153557835
-0.018844562
-0.03395748
-0.02276633
-0.0028768855
0.023809155
0.012902779
-0.0077054175
-0.008542864
-0.011965654
0.008171336
-0.016516037
0.017151032
-0.027471328
-0.033124354
-0.0090030525
0.009324206
0.0026573625
0.028537113
-0.024280166
-0.0047833547
-0.011134393
-0.026422327
-0.015333259
0.017224688
0.008020405
-0.0039018574
0.00832366
0.017085802
-9.35876e-05
-0.011186725
0.0056440746
-0.003410986
0.0242624
0.033989068
0.015746754
0.014229901
0.027466396
-0.013339331
-0.007874178
-0.020228386
0.01005985
-0.0041904836
0.018324677
-0.0010694964
0.019047596
-0.0085046245
-0.007213083
-0.0015402448
-0.016305184
-0.02932169
0.018813593
-0.0031529013
-0.029287444
0.019607928
0.00056696427
0.0010327122
-0.03405907
-0.0111509
0.005303237
0.01760538
-0.02716177
-0.0016884011
0.033497788
0.022650208
-0.017907545
0.00507608
-0.0028747257
-0.006149111
-0.014942774
-0.017770391
-0.0226655
-0.0071153576
-0.017811224
0.017326867
0.023783652
-0.02195217
-0.00643433
0.019896125
-0.028539522
-0.008787143
-0.013164321
-0.0075697214
0.0010216824
-0.027244734
0.0048430287
0.0048031174
0.021055834
0.0008677053
-0.002040971
0.0038348301
-0.025741365
-0.024916917
-0.017685028
0.011087396
-0.016172731
0.058475822
0.0050595426
0.0111504365
0.012848546
-0.012584879
-0.040774632
0.032286312
0.012247766
0.01229706
0.022672042
-0.014651974
-0.024421202
-0.0319902
0.039595764
0.018089721
-0.006783901
0.02208224
0.0032110545
-0.013616193
0.020250548
0.028288698
0.009473128
0.018708032
-0.01984724
-0.031706132
-0.01833905
0.022324737
-0.026441608
0.011757388
0.0035739667
-0.026912643
0.014824588
-0.021245318
-0.005823326
0.026154423
-0.01506948
-0.025655014
-0.021052329
-0.010121796
0.013725799
0.012951034
-0.011373808
-0.00630958
0.016583122
-0.03265193
0.020464843
0.0022451926
0.03124825
0.017760754
0.0175668
-0.020314986
0.032178495
-0.008422242
-0.003855521
0.018127292
0.04520844
-0.014989546
0.013651457
-0.028834885
0.009854277
-0.0060310476
0.022929769
0.049614765
-0.03602932
0.01652735
-0.019112883
-0.010753409
0.03245058
0.02880144
-0.02694161
0.017812464
-0.031200286
-0.026975958
-0.020715425
0.0036260684
0.008074179
0.017678337
-0.0039811702
-0.02220997
-0.005366689
0.024198417
-0.028323414
0.05477617
-0.0007418959
-0.0012925568
0.016412424
-0.01735622
-0.019692637
-0.016554598
0.020274553
0.009838313
0.021080002
0.02252793
-0.038242415
0.04747123
-0.0021598744
0.012977046
-0.0067414404
0.0045298524
-0.0035615787
-0.020254225
0.0076140137
0.003794958
0.012885299
-0.0045528673
0.009192981
-0.030514032
-0.0034314748
-0.036820855
-0.02586092
-0.005571896
-0.004661616
-0.025627753
-0.012860646
0.009536372
0.043424923
-0.041652173
-0.009115169
0.013073684
-0.022596424
0.0357502
-0.053583182
0.015794484
0.0072047063
-0.022286732
0.033313315
-0.015638053
-0.01896145
-0.038195647
-0.02809207
-0.02066639
-0.0177232
0.0039094314
-0.021392044
-0.0119979335
-0.010616718
-0.005246436
-0.0058909156
-0.009786272
0.029830439
-0.014305237
-0.026786165
0.015593843
-0.012405669
0.014276772
-0.010091754
-0.010127331
-0.0027114516
-0.019878397
-0.009344534
-0.0075013414
-0.014688567
-0.028078217
-0.020134699
0.020998068
0.0050093406
-0.03312602
0.031617194
-0.00818286
-0.0026715677
-0.040248457
0.011769397
-0.01812964
0.022499967
-0.015201221
0.015383061
0.019788936
-0.02788399
0.026792273
-0.003966741
-0.0045425203
-0.04491071
0.029286873
0.005035347
0.0052141617
0.010900967
-0.030022252
0.013293968
0.011414826
-4.7622925e-05
0.03276057
0.00025522904
-0.0059567746
0.01583802
-0.0049494645
0.017395755
0.026991144
-0.027115127
-0.019180853
0.0012541324
0.019852934
0.032247268
0.02032214
0.021993695
-0.018076977
-0.024911249
-0.009412013
0.007864833
-0.0029273133
-0.021882823
0.024338247
-0.062408563
-0.01562644
-0.0015144744
-0.01644876
0.034235206
-0.0022272444
0.036092546
0.012071241
-0.026722394
0.01043235
-0.0171973
0.013572117
-0.021412477
0.0363975
0.00461883
-0.024610462
-0.016746212
0.021544743
-0.020768793
0.00075217703
0.0036210632
-0.016761847
-0.00052174233
0.016736757
-0.0036685965
0.019409915
0.011217776
0.060106136
-0.006172821
0.02916358
0.0027660232
0.009498811
-0.011215623
0.01438925
-0.024417197
0.026293129
0.015714673
0.010073803
0.000209642
0.02001899
-0.0030454271
0.026401307
0.013817542
0.0020540385
0.028877202
-0.01302035
0.010084404
-0.010754222
-0.0030431347
-0.026299354
0.0021507205
0.006854075
4.4818466e-05
0.0014187382
-0.026665814
-0.0017744383
-0.030292049
0.022122694
0.06784311
0.0038647726
0.018939788
0.0003707822
0.042896092
-0.04985602
0.01244146
0.029468067
-0.022026803
0.00673435
0.019922188
0.023678204
-0.0037227336
-0.045954753
0.023374487
0.017189618
-0.002618797
0.009869479
-0.05323529
0.059088476
0.0032310141
0.019685933
0.04273676
-0.0028426612
-0.013025938
-0.002466635
-0.003934643
-0.0066392072
0.021756647
0.006339216
-0.00041917764
-0.02111839
0.008133258
-0.015410892
-0.021912158
-0.010626911
0.03711487
0.015732141
0.014390389
0.007465085
-0.020603916
0.03347225
0.01800872
0.038207803
0.01832966
-0.03856829
0.030323882
0.0022368608
0.031711273
0.023641735
-0.00029647467
-0.0077238493
-0.025526797
-0.00020034985
0.02085904
-0.0075494554
-0.024014762
-0.0070481235
-0.000776152
-0.0019707887
0.03692563
-0.03055457
-0.011001094
0.005662592
0.012731627
0.019492209
-0.035692908
0.01577674
-0.018387282
0.018047996
0.038811103
-0.0056084213
-0.006610143
-0.018017145
-0.015341067
-0.018383289
-0.05934302
-0.043072637
-0.0039346754
-0.04480602
-0.032794535
-0.045705162
-0.02805725
-0.040942628
-0.026112366
0.018015701
-0.017576702
-0.01086844
0.0010117138
-0.022899529
0.013686594
-0.0030899658
0.011355045
-0.007147656
-0.009889111
-0.008690471
-0.015820725
-0.030245781
-0.014471701
-0.0022587709
0.01598704
0.013771081
0.035048362
0.02155441
-0.04016279
-0.022682648
-0.020233562
-0.00851551
-0.0063900496
0.024856359
-0.006890046
-0.0016480015
-0.00023191745
0.0007027394
-0.014743763
-0.0061335145
0.0058509796
0.018672362
0.03780288
0.049160305
0.024098832
-0.026328627
-0.009781514
-0.009620555
0.00028240014
-0.018362679
-0.023386681
-0.007851598
0.0010849556
-0.005528054
-0.011927472
-0.024847643
-0.015316723
-0.005878914
-0.017298391
-0.00031591102
0.04214717
0.013571261
0.025677668
0.04928197
0.01640697
0.033311103
0.00059786596
-0.018121434
0.017978631
-0.028076682
0.035165988
-0.0026076725
-0.03586221
0.023157481
-0.0027823732
0.024563754
0.010773875
-0.007298648
0.002945965
-0.0349075
0.016916255
0.009155503
0.023751456
0.039062254
0.02368899
-0.0034611544
0.016779654
-0.0036425323
-0.0049459506
-0.016622169
0.024470957
0.019240558
-0.01443924
0.027853955
-0.026166689
-0.0022352776
0.0070828856
-0.001912863
0.004575164
0.026880942
-0.029585302
-0.012543079
-0.014508227
0.008501378
0.07775044
-0.00696127
-0.039428692
0.026089696
0.023552565
0.022562236
-0.03732658
0.01675116
0.02753447
0.00716234
0.026712148
-0.016377479
0.034883883
-0.0036191754
0.019146547
0.014038048
0.041165963
0.03457441
0.0149577735
0.032660034
-0.0012745331
0.030384453
0.030667204
-0.023156956
-0.0009967486
0.01718299
-0.00679486
0.021569071
-0.022921426
-0.03153014
-0.017797356
0.025393905
0.011035662
0.0037534072
-0.017712705
-0.028527597
0.019245883
-0.01951535
0.03252301
0.0101564545
-0.005739741
-0.019648565
0.038670536
0.017617058
0.033876423
0.028513359
0.013121866
-0.004580518
-0.041323856
-0.0190054
0.007141003
0.0064185737
0.010402634
-0.01448951
0.021551259
-0.008785191
0.005234288
0.03034562
0.009818345
-0.03270427
0.022793535
0.016268656
-0.030002007
-0.009832965
0.014489786
-0.0075401166
-0.015253982
0.0023028848
0.0037206437
0.018966872
-0.038091443
-0.022075582
0.0064796703
-0.0163172
-0.006921721
0.0026267848
0.00791255
0.02814823
-0.03579937
0.023373153
-0.010646172
0.029300332
0.013863778
-0.02294712
0.035367943
0.016474513
0.031497538
-0.04098724
0.0027832605
0.00082233775
0.0071601463
-0.027637003
-0.019638652
-0.014137127
0.00073075097
0.034531157
-0.019719968
-0.042528406
-0.0072430964
0.037407227
0.016633388
0.00809761
0.011154708
0.043342717
-0.019058421
-0.020032307
0.010918663
0.0012991478
-0.025113579
0.009707588
-0.0054146093
0.025131129
0.01650457
-0.009878364
-0.012905017
0.01309034
0.009767057
0.040825766
0.022519879
0.00057564315
-0.013076762
0.013788235
-0.034121625
0.019031186
-0.00076459226
-0.018457158
-0.029901814
0.049463395
-0.014100726
0.0050567817
-0.026127992
0.0058879075
0.024961052
-0.0031182228
0.012311884
0.026218308
-0.032576915
0.024624994
0.007154234
-0.0036589655
0.037966825
-0.006066698
0.0032552471
-0.01748529
-0.0026433335
-0.03454401
0.015924701
-0.013867277
-0.013620397
-0.012557621
0.06505901
0.03165403
0.01847971
0.009891025
0.03935432
0.012524485
-0.02743771
-0.0053856
-0.017289443
-0.035641234
0.040266193
-0.009640087
-0.007764642
0.0014939797
0.005416827
0.014644639
0.03681656
-0.0011686746
0.004367926
0.04263934
-0.0049757366
-0.007114377
0.021851733
0.033733558
0.026739616
0.020536369
-0.0048357295
0.0276238
0.029726118
0.021967664
0.0010241007
0.057076685
0.03301469
0.0325658
0.023144102
0.010816362
-0.045506466
-0.011665736
-0.0316264
-0.004692391
0.026105814
0.003764916
0.010372269
-0.046158757
-0.01968484
0.008944305
0.014934248
-0.01237728
0.010774652
0.0025609052
0.042711217
0.0101571465
0.019545091
0.001604258
-0.0052774497
0.0053569083
-0.012102334
-0.016073642
-0.009198482
0.004018216
0.02302828
0.00033777015
-0.013068268
-0.017557371
-0.028723815
-0.0216976
-0.024804045
-0.0026476136
0.00027335092
0.035886914
-0.017860154
0.024932422
0.040576585
-0.0189051
-0.005354356
-0.031797435
-0.01744594
0.006884438
-0.038378876
-0.009475797
0.03232099
-0.013585711
0.016818903
-0.004034044
0.00955168
0.011110529
3.3540604e-05
-0.0057918336
0.00032369103
0.0010559575
-0.012007296
-0.046359263
-0.014478205
-0.0050157094
-0.024768163
-0.019245831
-0.014102738
-0.0050955154
0.0034908492
0.01451229
0.005153708
-0.0034656692
0.0021066698
-0.0003896232
0.027739577
-0.027879003
-0.001653648
-0.00092150015
0.01358364
-0.052246526
0.009304123
-0.012573987
-0.03136898
0.013614453
-0.028837796
-0.015462317
-0.039246682
-0.011724052
-0.012671635
-0.005275788
0.0029577257
0.012283472
0.0231779
0.02110964
-0.011732361
-0.021599477
-0.03709574
-0.012490889
0.015223643
-0.048885893
-0.0158579
0.019101107
0.0077459104
0.029130466
0.010091928
-0.012982659
0.03206748
-0.014697654
0.013189545
0.002131915
-0.019098366
-0.029787777
-0.03877374
0.0327915
0.022545151
-0.0021472867
-0.0033997088
-0.025112968
-0.019734668
0.020091206
-0.026062742
-0.010353349
-0.029997032
0.0054984936
-0.027815588
0.0028196727
-0.031353902
-0.0057081073
0.020374693
0.052154757
0.026052421
0.0030300077
-0.011958767
0.022341797
-0.01453246
-0.014157376
-0.037145764
0.0056236153
0.011342058
0.012817263
0.004477608
0.008493493
0.017640164
-0.038166102
-0.004764881
-0.04151982
0.0008866226
0.010081004
0.025231162
0.027708273
-0.0044230567
0.016715666
-0.007266801
-0.008293059
0.009252231
-0.030349828
-0.010917887
-0.0067939544
0.033556987
0.011911025
-0.024915922
-0.0043829544
0.03435418
0.010977353
0.00022470731
-0.011720089
0.0065226615
0.0023782097
0.01604837
0.009209045
-0.027947597
-0.027056724
0.0058339317
-0.006731126
0.00020450637
0.013177061
-0.008856182
-0.016446982
0.030338837
0.039327648
0.018414862
0.013991141
0.009750385
-0.005718443
0.021586217
0.011793623
-0.00046509705
0.004812931
0.016709285
0.025577327
-0.025694182
-0.016446026
0.02926955
0.022537876
0.011501892
0.04653294
0.040781133
-0.02883009
-0.021784447
0.014603441
0.021045396
0.014973842
0.043479472
0.006109293
-0.0031942602
-0.0048172222
0.0052239853
0.034796894
-0.025526935
-0.011206291
0.026048312
0.009903364
-0.009244172
0.014997094
-0.019870633
0.018932056
0.010063301
0.00015586792
-3.423162e-06
0.0027471876
-0.043943487
0.03589822
-0.0061339973
0.013507522
0.057817325
-0.010801187
0.03435098
-0.0010502836
-0.027864391
0.006180077
0.017606677
-0.022447666
-0.008517116
-0.0037803464
0.01743594
-0.00014967658
0.029620001
0.04523801
0.04345804
0.015514904
0.003512627
0.040284783
0.029593926
0.0059126527
0.01560971
-0.007705756
-0.013437297
0.0043112957
0.011739894
0.02464332
0.019124566
-0.027847245
-0.01581471
0.015503038
0.01365978
0.03789659
0.002453318
0.014152102
0.034477215
-0.024651585
-0.017583678
0.0016011066
-0.017079934
0.030463904
0.0088231815
-0.010088038
0.032344434
0.020020472
0.027545044
0.0018281222
-0.016528288
0.02157472
-0.009669048
-0.032768734
0.00793376
0.029020615
-0.0076086055
-0.03277242
-0.029890234
-0.019582154
-0.016854534
-0.003865737
0.031996194
-0.024063563
-0.028267037
0.027148915
0.00860925
-0.02748379
0.007065842
0.0040048216
-0.023849003
0.00651363
-0.0037388576
-0.03950104
0.018161755
0.025879622
0.008230753
0.0019351621
0.020406144
-0.0012372677
0.012203239
0.012459124
0.013677186
-0.0035922418
-0.010563353
-0.017574487
0.011422071
-0.0142107
-0.0030044012
0.01792821
-0.008645935
0.010925607
-0.008813491
-0.00606385
-0.013944636
0.013130512
0.005814246
0.01392598
0.0008502095
0.04146786
0.016409228
0.055269077
0.0281023
-0.014391766
-0.03497803
0.03059203
0.009259851
0.018033924
0.0115297055
0.010967442
0.0032918116
0.04807264
0.013249819
0.010669138
-0.016665306
0.005185318
0.03164869
0.04330936
0.006464326
-0.029148078
0.023051139
0.022048512
0.027037937
0.01503318
0.0005230769
0.048034225
-0.0041449866
0.03298626
0.03635752
-0.019832185
-0.008551687
-0.003798671
-0.02941879
-0.01298356
-0.020070583
-0.013963721
0.027379597
-0.0059705446
-0.013367035
-0.039494015
0.010847678
-0.026447576
-0.013092351
-0.017724939
0.0046991017
-0.0005518851
-0.026140831
-0.0010063319
0.0016392224
0.0124436105
0.009981526
-0.0052141217
-0.014073107
0.0019015961
-0.02600156
-0.03651926
-0.0023834587
-0.02861038
0.019306121
-0.0013157243
0.0098636765
-0.022202635
-0.014820606
-0.02624237
0.0071570217
-0.00078567833
0.012010968
-0.005486565
0.0055818446
-0.018570056
-0.03595984
-0.003152587
-0.026771694
-0.046106733
-0.030038878
-0.004512412
0.011975911
0.0030942915
0.020916834
-0.044834703
0.008626325
0.0033745698
-0.008435095
-0.00674822
-0.009972716
0.006220116
0.0041726227
-0.010148331
0.02815347
-0.012353946
0.015560801
0.004094055
0.019666828
0.016947962
-0.003846363
0.027204728
0.025592951
0.0024227493
-0.01589776
0.018483436
0.0030320142
0.0152476095
0.009575162
-0.026333919
-0.0048783883
0.009874375
0.0029454904
0.026149783
0.027206894
0.010314895
0.002277604
0.013233117
0.0035349163
-0.0045433817
-0.027899295
0.010234178
0.0063772337
-0.0012679272
-0.01270308
0.012571754
0.00064067665
0.017235542
0.0035023764
0.0171754
-0.008860055
-0.048332162
-0.0110867405
0.0132418815
-0.0014061948
0.008204007
0.00090533186
0.0032105162
0.00026754473
0.0024479895
0.023261039
0.000914966
-0.004683507
0.0067537683
0.018442739
-0.011695228
0.024476135
-0.01653085
-0.009175997
-0.010884861
0.026739614
0.026510302
-0.0020019675
0.009678073
-0.019223735
0.030204497
-0.055369824
-0.023304304
-0.0023484472
0.022872688
0.017334739
0.020775925
-0.0099533815
-0.036405724
-0.02867706
0.02349312
0.021883443
-0.018398972
0.02531948
-0.022529718
-0.011401403
0.012389153
-0.005853281
0.011600618
-0.003557701
0.009591579
0.04887322
-0.012329933
0.022676328
-0.0154589955
0.006445084
-0.009808316
0.03617514
-0.030271446
-0.012152607
-0.036910146
-0.008327878
0.036522698
-0.018221484
-0.0044352915
0.0037970173
0.0076565
-0.02081431
-0.0033285236
0.019380381
0.03161901
-0.05976942
0.0046348623
-0.013440362
-0.026262453
-0.0037845778
0.031683505
0.017406305
0.005801626
0.01818742
0.008680739
0.0030439151
-0.054967847
0.00828292
0.043862477
-0.029526561
0.03019866
0.0048670145
0.017897032
-0.010420197
-0.002757833
0.03956231
-0.03199258
0.00335968
0.0012297678
-0.029656392
-0.0115963435
0.011238947
-0.025526075
-0.036584456
0.04042873
0.01572014
0.020590903
-0.015427652
0.024077883
0.01193608
-0.013200328
0.011681256
0.0055344864
-0.0027690248
-0.00022084986
0.038406633
-0.05399848
-0.05663978
0.021561094
0.0016734457
-0.040164784
0.018595245
0.013481737
0.000564004
0.0013104742
0.004700602
0.0027669137
0.015618517
0.019095741
0.013447112
0.0004043249
-0.013078286
0.013100243
0.010120844
0.012430621
0.008076031
-0.033538092
-0.028039621
0.013673928
-0.009150038
-0.021262856
0.0013748117
-0.026169384
0.06885066
0.028021589
-0.030893872
-0.002818549
-0.018876664
-0.0104524335
0.024995452
-0.002695328
-0.0015659992
-0.031326484
-0.020354405
0.018895136
-0.029032612
0.037113756
0.014552499
-0.031003434
-0.022067975
0.055308353
-0.02500435
0.015837116
-0.0025612905
-0.033961844
0.016102394
0.03250698
-0.010854378
-0.011287401
0.008008173
-0.018979475
-0.013919578
-0.0016415046
0.055185292
-0.012125285
-0.00942053
-0.0078038867
-0.00040251733
-0.018215548
-0.012793274
-0.002873157
-0.051636245
0.0003299087
-0.03975036
-0.009075304
-0.017155748
0.022778107
-0.032198828
0.014340484
0.01825144
0.038335122
0.025401264
-0.006558371
0.016504014
0.0077983723
0.0006947167
-0.018670674
-0.008521013
-0.011257143
-0.02448439
-0.011505083
0.017958336
-0.045528214
0.0032303208
0.012109198
0.039728496
-0.02071808
0.01705518
-0.020633502
-0.017482292
0.045685213
-0.008599351
0.02739601
-0.02666713
0.03521138
0.027984193
0.010425466
0.028164556
-0.0051652496
0.013356234
-0.007764046
0.010932439
-0.011421205
0.031775165
-0.03932382
0.035076093
-0.028918572
-0.019108523
0.0053946567
-0.032538
0.004870994
-0.0068739178
0.01084074
0.03765333
-0.034499206
0.007918004
-0.0019494088
0.0079678325
-0.022934955
-0.0057583605
-0.011492052
-0.0012742444
0.016889142
0.017755829
-0.008766235
-0.013446499
-0.010205776
0.019067604
-0.010594613
-0.018616522
0.025632981
-0.03729214
0.0019197034
-0.0031457103
0.022466764
-0.050248314
0.0050147166
0.016215654
-0.020556128
-0.012223331
-0.0112807965
0.011773828
-0.0151607385
-0.003709238
-0.010244297
0.009056087
-0.037181035
-0.030855075
0.025165906
-0.021111796
-0.0053918706
-0.021647634
-0.028397478
-0.0017737743
0.013505741
-0.025159614
0.001587251
-0.0064331666
0.003188994
-0.016421381
-0.0038627356
-0.010946572
-0.0042327447
-0.017095186
0.012522134
-0.027950242
-0.042769145
0.0046297316
-0.035847194
-0.017019896
0.0028178217
-0.015280071
-0.039032128
0.00028848593
-0.013311524
0.024103776
-0.0042304927
-0.00504928
0.009210617
-0.03141016
0.044641677
-0.019344855
-0.018401239
0.021145089
0.0154789705
-0.02456392
-0.021708658
0.03081935
-0.016076015
-0.0108726
0.010675657
0.009099429
0.004609604
-0.005919995
0.026614264
0.006458392
-0.019856775
0.011934877
0.008546865
-0.0024144722
0.019476235
-0.019063767
0.005782399
-0.016543793
-0.014285895
-0.0009223704
0.0378355
0.008283957
0.044016484
0.0056519276
0.016733577
-0.011564186
-0.018533153
-0.021339012
0.003550797
0.037651476
-0.027089799
0.015428543
-0.015728766
0.0205118
-0.029602228
-0.00053726323
-0.005790416
-0.030144762
-0.0014812248
0.032435093
0.035898652
-0.009221035
0.016695637
-0.022203818
0.008936397
-0.017014334
0.013498934
0.012431795
0.00210911
-0.041136526
-0.01896306
0.006145568
-0.05104339
0.002305486
0.020806052
-0.022013996
-0.02352381
0.011217853
0.0122136185
-0.0018820382
0.0064019132
0.038135406
-0.013014417
-0.011814019
-0.009272025
0.0005370152
0.004253693
0.008760876
-0.0016527217
0.009938808
0.019940527
0.0007037482
-0.002460933
-0.01504211
-0.005003713
0.00045140408
0.026763368
-0.0076875533
-0.017684871
0.010682988
-0.0015477658
0.012011405
0.0023507888
-0.0013004047
-0.013850245
-0.025880892
-0.006861843
0.0038445273
0.0038645978
-0.012553013
0.008095006
0.015860368
-0.015427397
0.008645201
0.017988887
-0.0026833299
0.0032885398
-0.012552085
0.016840547
0.009638629
0.0008707343
0.020481246
-0.041926555
-0.024390442
0.00026280293
0.006376562
0.019855656
0.0021112068
0.016633874
-0.015938008
0.0107526705
-0.0060139564
0.013582978
0.0070284707
-0.02046685
-0.0037669
-0.038345553
0.020350374
0.009810146
-0.0059891236
0.0019216092
-0.0095514385
0.0032511603
-0.011938567
-0.02623622
-0.01480781
0.014388485
0.023955274
0.04524952
-0.0045457366
0.003104746
-0.018956663
-0.008871592
0.038489304
-0.050455485
-0.035585474
0.0010462673
-0.00075606664
0.009212557
-0.040883712
0.03495396
0.020536063
-0.025513712
-0.0047800844
0.022591045
0.0012346616
-0.0065960055
0.016151557
-0.043047607
-0.0024958334
-0.018439539
-0.00041567863
0.016738063
-0.008499113
0.0029177016
0.0153219355
-0.014237735
0.0065755825
-0.010704768
-0.0018361637
-0.005474818
-0.018686065
-0.027508233
-0.024820516
-0.037059154
-0.009553239
0.025982937
-0.009729188
-0.0120522585
0.013970839
-0.0045615113
-0.005104527
-0.019693004
-0.028226037
-0.03207607
-0.013242994
-0.01216071
0.01198339
0.039333805
0.021525223
-0.0061263945
-0.0051026396
-0.0045826486
0.011341964
-0.009296955
0.01633829
0.0018291614
-0.019811578
0.0013494496
0.007639471
-0.019973798
-0.024705313
0.01967416
-0.0368731
-0.026021251
0.015771637
0.0010750348
0.023400504
0.037360378
0.025037214
0.0024550827
0.04131402
0.020866815
0.0004491948
0.018167052
-0.01632305
-0.009639261
0.0054979357
-0.00932331
0.016120696
0.0018141388
-0.059897076
-0.020008372
0.013015911
0.008997604
-0.014254799
-0.027924594
-0.025311073
-0.005719239
0.017273031
-0.00069478014
0.016742107
0.009725824
0.018876167
0.014603302
-0.0026496772
0.022377212
0.038611293
-0.016796758
-0.020172697
0.006275891
0.0057173916
-0.01654865
0.026200797
-0.0067637837
-0.0044489424
0.007013919
-0.028626433
-0.021370621
-0.020354075
-0.03227095
-0.048416182
0.03014193
0.03577541
0.02625684
-0.01864778
0.008429452
0.003310613
0.015316731
-0.043434057
0.035209488
-0.002255193
-0.00553301
-0.011214772
0.018784253
0.0027153536
0.0038240133
0.013062871
0.04036972
0.030787162
0.041952454
0.0022976953
-0.023587856
-0.04967516
-0.020049969
0.0023019335
0.012069903
-0.003810996
-0.0024218075
-0.013433676
0.0059358347
-0.032922763
-0.029486522
-0.0011249393
0.015133794
-0.025173493
-0.008673994
0.0037121235
-0.010382616
0.011180011
0.005123642
-0.029912002
0.016091533
-0.04663176
0.03107519
0.012417856
-0.010492977
0.022195045
-0.053608548
0.010278178
0.000362201
-0.02636262
-0.004846719
-0.044822305
0.030439917
0.017343808
0.0087486105
-0.019206678
-0.008438229
0.0006531349
-0.020157412
-0.0046495046
-0.012689176
-0.003745972
-0.020781444
0.0051802644
0.016323777
0.0052198195
0.0022005588
-0.0068241754
-0.03605691
0.040826757
0.017438412
-0.020144384
-0.03727937
-0.025036851
-0.0063912948
-0.0144144045
0.03246027
-0.026246244
0.020804215
0.00877189
0.0243751
-0.032502882
-0.00077675935
-0.007965314
-0.040411722
0.0063469918
0.0038909155
-0.025763348
-0.0018241997
0.010206692
0.009545334
-0.012521556
0.027952751
0.012954591
-0.011463261
-0.008511932
0.018221915
-0.020631053
-0.0026543539
0.0084449425
-0.015366176
-0.015735643
-0.00300925
0.017619384
-0.04184283
0.02241941
-0.008194099
-0.0059510954
-0.0013535812
0.0019140926
-0.013733669
-0.040289402
-0.011221927
-0.001846732
-0.0101134265
-0.0014524752
-0.028631685
0.019354062
-0.021093965
-0.025227724
-0.008113026
0.003781098
0.029003339
-0.003489646
0.038481843
-0.017727459
-0.010889325
0.0057696966
0.013006939
-0.00981997
-0.017988332
-0.0021462396
0.02097944
0.019617444
0.012394228
-0.034031898
0.016542865
0.021694344
0.04493343
-0.0022105337
-0.031672742
0.046022214
0.008139229
-0.0021532427
-0.0060924627
0.022174304
-0.0065497304
0.016166678
-0.010679808
-0.017271137
0.0057993024
-0.028648237
0.006931269
-0.0013343642
-0.014276089
0.0046808613
0.025561616
-0.012101523
0.005176152
0.00018991665
0.012330728
0.016615557
-0.039913014
-0.017045682
0.007736641
-0.01655285
-0.008557665
-0.00524519
0.019416058
-0.016558716
-0.0027827427
0.041533276
-0.007463526
-0.006973083
0.0076978602
0.0091352435
0.014448498
0.004614032
0.012973749
-0.028952487
-0.018311007
0.028863098
0.030748766
-0.00032760188
0.0012723706
0.018903296
0.002700581
0.04376833
0.03218469
-0.00095210876
-0.005578441
0.028781265
0.0058757574
0.009917224
-0.04465352
0.01277583
-0.01019888
0.021715868
-0.001932991
-0.016358256
-0.0022798006
0.0053598383
0.015624063
-0.03333262
-0.0014252538
-0.016866209
-0.01731908
0.0113379555
0.013132242
0.02842132
-0.041119758
0.025527814
-0.00088113925
-0.020139333
-0.01623241
-0.0041294796
-0.003310352
0.020083668
-0.008306574
0.022698672
0.003312632
0.034111965
0.0072417287
0.015931606
-0.016038382
0.00834057
-0.025598375
-0.012886706
0.0072009442
0.0152811445
-0.0132746715
0.031004393
0.009243128
-0.015004213
-0.0086596925
0.0065350547
0.0014957526
0.02149596
0.014966012
-0.0046964325
-0.016157856
0.017107857
0.013993074
-0.014554063
-0.001320839
-0.041219313
-0.028228382
0.019340213
-0.019800855
0.024651265
0.015088858
0.027203988
0.025503613
0.010893141
-0.010852047
0.02032711
-0.0048780115
0.02562945
0.0045588743
0.02395233
-0.023985188
-0.0064944993
-0.0015186279
-0.011960795
0.008079715
0.0075597637
0.0014530692
-0.0014920064
0.02844904
-0.0048914636
0.010098035
0.004868562
0.015692515
0.02477309
-0.006984077
-0.021536851
-0.01851792
-0.010139437
0.0059227
0.023637744
0.007360222
0.0046674344
-0.0092228
0.017303556
0.0134994555
0.014449179
0.014519863
0.0024996793
-0.041859284
0.0018395645
-0.031848136
0.020588987
0.018141711
0.016913483
0.017990323
0.0020006283
0.006373888
0.001168894
0.03236424
-0.026656076
-0.030847225
-0.01132438
0.015542809
-0.008246172
0.0104709705
-0.0077625257
-0.0057569635
-0.018209683
-0.022466736
0.0017736884
0.0019069753
-0.035822954
-0.002331439
0.020602616
0.024760753
0.008765845
-0.033826463
0.011527437
0.030769823
-0.02332189
-0.009975955
-0.0144756045
-0.031535443
-0.013269435
0.0046896953
-0.025576929
-0.013881676
0.004637612
-0.027329728
-0.009244505
-0.011741455
-0.0038941954
-0.0007901353
-0.026582317
-0.03787326
-0.013133376
0.03771286
0.0014732821
0.023615893
-0.013690243
-0.018421281
-0.016821941
-0.0022473587
0.012679386
-0.009620747
-0.0055015367
-0.032435734
-0.026243517
0.019498663
0.0029898228
-0.020184476
-0.009062268
-0.008661791
0.0047517293
0.018966813
-0.0002499191
-0.015848245
-0.01170441
-0.011510912
-0.0017106946
0.0108440835
-0.012080247
-0.006614585
-0.0047021615
-0.012809205
-0.02760968
-0.021416314
0.030160543
0.006007128
0.0073739295
-0.013166275
-6.7791014e-05
0.005925235
0.010320841
-0.021452095
-0.0025193798
0.030143041
-0.035202462
-0.008014509
0.010574236
-0.015116702
0.022112653
-0.0022320324
-0.02024317
0.0050836424
-0.018732106
-0.0082310205
0.015489344
-0.0009458569
0.0214499
0.0172612
0.031783674
0.013753592
-0.012772287
-0.010977312
-0.003758583
0.022522561
-0.04098018
0.017149817
0.021506293
0.028977912
0.013357428
0.015998881
0.0025199347
-0.012479037
0.050709214
0.0012227163
-0.0070040445
0.005508211
-0.011183968
-0.0189031
0.015347488
0.021243857
0.0037066182
-0.023854706
-0.022744125
-0.04350072
-0.008950164
-0.02467303
-0.0041393335
-0.010145231
-0.039996132
0.011934704
0.01629142
0.023670865
0.013421642
-0.002002113
0.026361378
-0.04003433
-0.004264546
-0.0058150734
-0.0034956075
-0.018551262
-0.016806569
0.01275304
0.015320702
-0.031497758
0.014653523
-0.01074635
-0.009222034
-0.03882306
0.0042928355
-0.014318284
0.0011963382
-0.020510346
-0.011509681
0.009019053
0.018348588
0.008929821
-0.008820266
0.02036848
0.008113563
-0.025736874
0.007910284
0.015349801
0.009339176
0.011687461
-0.036057208
-0.014373313
0.025622442
-0.008395966
0.009821997
-0.012850011
0.022742314
0.00028263568
0.01754207
-0.013149495
-0.0121066775
-0.007846246
-0.01694455
0.01238167
-0.014354748
0.0028244993
-0.009733305
0.027451476
0.004402488
0.00047844512
-0.0017070742
-0.020378323
-0.044574674
0.02859062
0.0016226969
0.039991107
-0.0057609016
-0.0072931787
-0.036387123
-0.0050923764
0.011880648
-0.0014838438
-0.015953617
-0.021980138
-0.0029309026
-0.007846356
-0.004514103
-0.0205129
0.02262642
-0.039672893
0.030015884
0.029270064
-0.026193073
0.0012388938
-0.027684323
0.03149107
0.0056362636
0.025195012
-0.030782677
0.01475518
0.026394205
-0.01696699
-0.019386306
-0.014852606
0.008890341
-0.017369363
0.008164448
0.013668973
-0.006485051
-0.0035206072
0.022107614
0.01728101
-0.021983422
-0.008057455
0.014867898
-0.032815184
0.010887517
0.0151632195
-0.0027544745
-0.021769948
0.027902892
-0.019685665
0.03436605
0.029186008
0.019073676
-0.007294318
-0.026231978
0.022087459
-0.012407365
-0.007424852
0.0146028
-0.007857043
-0.023538072
0.01470338
-0.009480875
0.020780152
-0.011307464
-0.023925634
-0.03379029
-0.0013472063
-0.03462689
-0.016323056
0.006487375
0.021268776
-0.0081676915
-0.007015037
-0.017656006
-0.02049494
0.0021653792
0.009819801
-0.03233839
-0.020474674
-0.024359774
-0.0037625143
-0.027717557
-0.0067516356
0.004464671
-0.04652321
0.0036003196
-0.0079074865
-0.048096087
0.012575893
-0.04465915
0.016357373
0.009483761
-0.017361218
-0.0033595057
0.017941898
0.014022705
-0.02880774
-0.017088592
0.022881098
-0.01883904
-0.026316611
0.038420796
0.020417634
0.026404744
-0.001453415
-0.015113157
0.010226035
-0.032672502
-0.007814842
-0.027700268
-0.013058052
-0.012684357
0.027973175
0.017124545
-0.005621187
0.023688916
0.04218152
0.025274526
-0.040618822
0.031355493
0.026131058
-0.007760293
0.027941568
0.02962651
-0.029720383
-0.021264138
-0.0003076839
0.017763259
-0.013587475
0.02080292
0.01273831
-0.019312194
0.02172226
0.011304322
0.0011549514
0.019453183
0.00270299
-0.025025172
-0.009065817
0.03157485
-0.02591956
0.026919495
-0.031953014
-0.0057300255
0.011541583
0.017383454
0.0250483
0.0066907182
0.00077272166
0.020210803
-0.010124203
0.042394754
0.028487192
-0.02220758
0.0054162177
-0.017725233
0.034724943
0.01644233
0.010570738
-0.021668538
0.021072336
0.020269949
-0.015247619
0.0072619384
-0.011670813
0.019677386
0.0216999
0.035871867
-0.014069708
0.005663146
0.018367616
0.012092664
-0.015005617
0.02241994
-0.0051977914
-0.008956225
-0.024832146
0.021041585
-0.01372499
0.014113583
0.03202543
0.012400661
0.008887502
-0.024216019
-0.007577976
0.00257109
0.03420074
0.0049698562
0.0066687968
-0.023343235
0.00046048246
-0.0067141904
-0.0045499145
-0.02884651
0.0034697868
-0.0037938864
-0.023953162
0.007707633
0.0398066
0.0133636845
0.0054988186
-0.004044828
0.015256065
0.011384396
0.036954295
-0.005391492
0.022630043
-0.028420806
0.03884227
-0.015895113
-0.038767993
0.0115070725
0.037817605
0.029815994
-0.011019287
0.03158786
-0.012056305
-0.028133422
0.0010220092
0.013327385
0.009282976
-0.012213115
0.018532341
0.017177684
-0.007553725
0.004563015
-0.014189817
0.0075338413
0.023185112
0.018866783
-0.028222283
0.019581063
-0.0005271929
0.007433048
-0.0075155846
-0.023563644
0.0013361569
0.02270942
-0.0074373805
-0.016269458
-0.036908645
-0.0070648496
0.010847396
-0.0049501266
0.0049478128
0.01177169
0.02000657
0.020740828
-0.022310581
0.006039077
-0.029049782
-0.019054713
-0.0252603
0.018055087
0.018456474
0.020965775
-0.0231143
-0.0056644706
0.008035602
-0.0070136995
0.0014024356
-0.024127679
0.020643342
-0.012677479
-0.018239843
0.020952031
-0.012876162
-0.019163564
-0.0041968995
-0.032745436
-0.006101279
0.0037606799
-0.006646373
-0.021166433
-0.009802425
0.010771049
0.015852945
-0.021673523
-0.023642173
0.03950692
0.012373269
-0.033488814
0.0029906237
-0.0028867556
-0.010564154
-0.014398037
0.016920641
-0.016056329
0.009768915
-0.0065667867
-0.034409843
0.024539826
0.03592453
-0.025489416
0.0029573818
-0.019294223
-0.005090191
0.0133113535
0.009471393
-0.013569591
0.034054913
0.011593658
0.015197396
0.016741412
-0.028501755
0.017974634
0.031819206
0.008972974
-0.015421555
-0.00062968815
0.015436994
0.023223093
0.009483483
-0.037714433
0.041335538
0.04951593
-0.00062821654
-0.0086149005
0.03772932
0.007221569
0.01703185
-0.017851884
-0.01906482
0.010699017
0.015492635
0.033465102
-0.020545837
-0.031660426
-0.010545181
0.038159315
-0.008489914
-0.01953487
0.019098854
0.014896764
-0.0068475697
0.004264976
0.010211729
-0.028972447
0.010277619
0.018380672
-0.021879844
-0.0040202774
0.0031127397
-0.009037975
-0.048390664
0.016027723
0.0034547215
-0.004959294
0.016414044
-0.037100855
-0.028440228
0.028205635
0.02163396
-0.022213738
-0.0050719827
-0.015901687
0.017351003
-0.035837926
0.017339913
0.030288657
0.02220978
-0.013302773
-0.02080681
0.011252745
-0.022596905
0.019120332
0.013761581
0.0036000926
0.028007552
-0.028913174
-0.006322005
0.0101031065
0.020163065
-0.029001664
-0.017379632
0.004244645
0.013297616
0.026822384
-0.009317403
-0.008679151
0.014026841
0.0021793328
0.03998919
0.015895655
-0.023490012
0.021197312
0.013282699
-0.013988428
-0.0053825728
0.028268116
-0.003015065
-0.025716502
-0.00029841656
0.019548103
-0.03489318
0.013684312
-0.015758498
-0.014488544
-0.022783754
-4.2929154e-05
0.017047739
-0.00105273
0.022518225
-0.00079386646
-0.010820714
0.009349025
0.009094055
-0.020170419
0.021070763
-0.00990531
-0.034414086
-0.026210219
-0.025829272
0.003056734
0.00040526185
0.014574366
-0.007660365
0.020410014
-0.04109713
0.013830202
0.012817991
0.016662998
-0.011253529
-0.026701026
0.022882793
0.009160032
-0.032713223
-0.0018775692
0.024042562
0.009237507
-0.000792282
-0.025764083
0.011212187
-0.016085332
-0.02751199
0.033662654
-0.026928391
0.0078149345
0.011888117
-0.024152026
0.0014014678
-0.012343531
-0.021919996
-0.012460028
0.014064195
0.004712709
0.0040329862
-0.013762875
-0.0022843755
-0.014616489
-0.013190001
-0.059399594
0.034843802
0.018799597
-0.0009951096
-0.019416587
0.0017037079
-0.012353303
0.042692915
0.019175656
-0.011447905
0.012330979
-0.037683845
0.017678652
-0.01319839
-0.031046446
0.024620961
0.014670551
-0.0038188328
0.018422406
0.025739752
-0.0063921353
-0.005855973
-0.02599269
0.006914704
0.022653714
0.011837885
-0.050781686
0.017438572
-0.014582957
0.025662025
0.026445244
-0.04398059
-0.008398403
-0.0060406853
-0.0056276103
0.010725114
-0.01698222
-0.03727889
0.022609152
0.014422314
0.0018874053
0.01239813
0.011198243
0.030576669
-0.010798739
-0.0072222888
0.008542405
-0.025278812
0.02914179
-0.0005646761
0.028613597
0.018314205
0.010308107
-0.0017409872
-0.037188355
0.008327814
0.00012261515
0.021568589
-0.025600472
-0.0014784908
-0.013185216
-0.008267101
0.043547045
-0.017127993
-0.008599083
-0.0064830338
-0.0058950796
0.036866527
0.009916939
0.018385692
0.01302683
-0.048941344
0.024340658
-0.03357334
0.052975316
-0.023330294
-0.026110658
-0.0036222395
0.012145674
-0.029683417
-0.02070508
-0.021951586
0.027090555
0.01634942
0.03867621
0.02490672
-0.012380669
0.018971479
-0.03537433
0.0072679063
-0.0030684997
-0.031075213
0.036799356
0.0068535698
-0.036467448
0.0015943913
-0.002038079
-0.0040274076
-0.02210303
0.0104045225
0.004754158
-0.029408101
-0.018059364
0.029625729
0.012835843
-0.0030580088
-0.00088702847
0.0025369083
0.016320877
0.0016385771
0.007408461
0.03078925
0.03943197
-0.00015577457
-0.00077450654
-0.00936398
0.008194077
-0.0327347
-0.022760496
0.009111836
0.02319536
-0.028854974
0.023227043
0.037258524
-0.0012806361
-0.010885451
-0.05111685
-0.0015548095
0.038296726
-0.030102255
-0.045917615
0.008136216
0.014749114
-0.04086921
-0.015385178
0.0011903287
-0.00047640366
0.0095275855
-0.04157295
0.00860666
0.030950846
-0.0073532504
-0.0018025629
-0.03123554
-0.019753052
-0.0245608
0.012769017
0.038470764
-0.0055277604
0.012153945
-0.00018637936
0.022217643
-0.007768206
0.0028440107
0.018021384
-0.002241384
0.020352481
-0.011421753
0.012344527
-0.022867598
-0.025021454
0.020225072
0.020958088
-0.01841742
0.037017353
0.018971384
-0.017893929
0.0022979332
0.01253674
-0.00042877495
0.009716436
-0.02883325
0.0072855856
-0.022198744
0.0029607979
0.03182712
5.053785e-05
-0.0075911814
-0.0008774799
-0.0020252883
-0.017968962
-0.025557678
0.0053810026
0.034502953
-0.01675003
0.016596794
0.035093352
0.02393315
-0.023235938
-0.026925743
0.0030530028
-0.029604666
-0.018875645
-0.0436773
0.014230041
-0.015818104
0.0054065394
0.024132108
0.038438097
-0.009653192
-0.0032567438
-0.023744207
0.0119186435
-0.0205077
0.016096659
0.0005894249
-0.00034319703
0.013495418
0.015421998
-0.017657924
-0.022531202
0.026447454
0.0069846436
-0.009872058
-0.004102609
-0.007972575
-0.0036235694
-0.011756595
-0.013719804
-0.018334039
-0.0045550065
-0.020815957
-0.007781218
0.030856375
0.02374789
0.009452362
0.030200128
0.041617244
-0.03339176
-0.012756877
0.04965118
0.023985542
-0.020543568
-0.02570599
-0.0023625565
-0.020762794
0.019158779
-0.012259743
0.010916516
0.012380211
-0.025222791
0.039839104
0.0059719314
-0.001950428
0.01484676
0.0074027865
0.016859142
-0.019834194
-0.022410326
-0.046575435
0.027802933
-0.008024085
0.015182075
0.011963624
-0.014291142
-0.0018661373
-0.034974463
0.04615137
0.020271366
0.00991675
0.026869733
0.0071509476
-0.004793703
0.010253966
-0.03774027
-0.008012169
-0.012120324
0.039852552
-0.005607934
-0.025928136
0.032308247
-0.02030421
0.011429585
0.029373536
0.006135268
0.015166477
0.01818474
0.02014785
0.01244816
0.02283233
0.042801883
0.024292268
-0.011508764
-0.020852163
0.034673475
-0.0008407656
-0.011994175
0.013364849
-0.014494655
0.047132097
-6.818963e-05
0.029977491
0.013907116
-0.0029926747
0.010536434
0.029290471
-0.0212665
0.009537432
-0.0057690535
-0.0087903505
-0.027725566
0.0023423168
0.0030449238
-0.0230095
0.006315982
-0.008369868
0.0026211827
-0.026747681
0.010722063
0.035511144
-0.000208019
0.020287106
0.0015460767
0.04010943
0.010922682
-0.010941284
-0.0077225873
0.042964626
0.006043759
-0.0120743085
0.0073727123
-0.005470004
0.0077791405
0.010282717
0.021273296
-0.004620053
-0.005536856
-0.0013378026
0.01893018
0.006320835
0.026592992
0.0036128338
0.032444354
-0.012706166
0.0023424414
-0.042116195
0.022592084
0.0018575417
0.01832691
-0.0031194072
0.0057514813
-0.0031845635
-0.008860809
-0.0027504794
0.0032243533
0.0075926194
0.027645824
0.0027393645
0.044637457
2.7061025e-05
-0.0009403283
0.0029400631
-0.016063955
-0.009430639
-0.018652594
-0.0150592355
-0.010681789
-0.025630798
0.0040652794
0.014469531
0.00023947682
0.00498517
0.0072752116
-0.0072343145
0.00879862
0.020686414
-0.0016417413
0.01650721
0.0012419913
0.034873035
0.0008040384
0.0034416083
-0.011554261
0.03131904
-0.007380274
-0.017917473
-0.012307032
-0.027196847
0.01781963
-0.010158618
-0.0014939538
-0.027930226
0.019132096
0.017417204
-0.005453378
0.02714536
0.026108384
-0.012081273
0.002219917
-0.0046211844
-0.0021185055
-0.0117471665
-0.0059759454
0.0033848505
-0.01094544
0.017688738
0.009421851
0.018742826
-0.0141006
0.0068356767
0.006211106
0.024347322
-0.005162296
-0.018558033
-0.040405255
0.0078608785
0.015507175
0.016102824
-0.017988278
0.02628094
-0.013757365
-0.011995569
-0.012068821
-0.008132318
-0.0046885232
0.016194765
0.019499198
0.0036182157
0.0012393129
0.0080635175
-0.03202117
0.009252602
-0.0123079745
-0.011407086
0.0050271978
-0.020895666
0.011398791
0.009453765
0.0049053472
0.029200824
-0.0047146147
-0.0017023693
0.023901224
-0.05086582
-0.016884835
0.057167362
-0.012602314
-0.004662384
-0.0041152015
0.030292291
-0.011307412
-0.028189344
0.00834259
-0.0022106327
0.029873101
-0.04588577
-0.007990385
0.009056106
-0.015949393
0.0053103333
0.018262759
0.0061182114
-0.0025315373
0.007680917
0.035482064
-0.0021973562
-0.04188429
0.031193081
0.010218884
0.035301592
-0.004457291
-0.005790196
-0.027181527
-0.02185567
-0.004676216
-0.018524025
0.0033841333
-0.014871404
0.01670529
0.0059394236
0.01770451
0.015998524
0.026273573
0.023707159
0.008453466
0.029623337
-0.00071212644
-0.019760368
0.01263832
0.0053758603
-0.026116805
0.018520914
-0.030233847
-0.0032654067
-0.030203834
0.017087288
0.001680923
0.0006713443
-0.009118066
-0.009659466
-0.039557025
0.0012910723
0.0091919815
-0.0324227
-0.02235358
0.008603648
-0.005206703
-0.008228533
0.025054984
0.00097042375
-0.0036535743
0.026574414
0.0055721933
0.022799432
0.007858476
0.024863122
0.0033328207
0.018329727
0.0006374326
-0.020248733
0.023908867
0.01615133
-0.023676962
0.009251224
0.028609818
0.021064673
0.0054358128
0.057253867
0.017544944
0.016332144
0.0188495
-0.008102418
-0.02331534
-0.0025784425
0.0404705
-0.05211471
0.0030426201
0.020500679
-0.016673284
-0.0353004
-0.020932142
0.01656722
-0.010620606
-0.014661123
0.0129114315
0.013158057
-0.033263806
-0.02082856
0.006426625
0.030477688
0.029881181
-0.022235371
0.000796697
-0.016113266
-0.0061025107
0.004385272
0.00037216677
0.01891204
-0.013668351
-0.0008914186
0.005013633
0.00972152
0.02438996
-0.023182666
0.021847513
0.012576952
0.0065866555
-0.005520074
-0.0014073424
-0.010736597
-0.01701571
0.018553155
0.0016267013
-0.016124213
-0.03159444
0.026433315
-0.051934864
-0.025104525
-0.0026625332
-0.001965641
-0.008906282
0.011650539
0.011741702
-0.009652865
-0.01162894
0.00089653186
-0.02289323
-0.02535615
0.020527096
0.020184308
-0.00949411
0.018654399
-0.025957031
-0.024410252
-0.0057017673
-0.011350447
-0.0066358647
-0.012826295
0.00067952875
0.0048796916
0.013559803
-0.015881479
-0.016800715
-0.010209346
-0.04818806
-0.037361395
0.039843697
0.0071869553
-0.024733502
0.00042627705
-0.04360967
0.004767701
-0.018793013
-0.030768178
-0.016959183
-0.008592356
-0.008728113
0.021552887
0.015000188
-0.031946316
-0.02679063
0.013239282
-0.030809466
-0.021308083
-0.024679808
-0.009677587
-0.0057704095
-0.016517231
-0.022269959
-0.015582626
0.039346073
0.00430096
0.0032665308
0.009846004
0.023738297
0.014444603
0.026702013
-0.001946585
0.023939641
-0.0015077528
0.013896564
0.0075665973
-0.024577975
-0.0048206258
-0.020980923
-0.011092637
-0.02577907
-0.007401778
-0.008677257
0.0146890255
0.021042265
-0.015655776
0.022343006
-0.028760895
0.013589642
-0.006850839
0.022457777
0.016907109
-0.010876
0.007629931
0.012376063
0.0099893
-0.0070876293
0.0034788237
-0.014099013
0.015370384
0.020055415
0.032191202
0.006011999
0.005089913
-0.038127173
-0.00256522
-0.06437934
0.024548128
0.016499989
-0.019797271
0.018188916
-0.01284316
-0.024918536
0.014408915
-0.0319782
0.037674427
-0.023744363
0.014908507
-0.031771213
-0.028153624
-0.0013075992
0.001586419
-0.02182889
-0.020100793
0.013658259
0.018771598
0.016304957
0.020089522
0.0151746515
-0.01720802
0.0021261906
0.030741472
-0.029958384
0.016532807
-0.01495582
-0.0031616078
-0.014023165
0.00824018
0.024499785
-0.026515014
-0.0062362957
0.006490188
0.009841318
-0.009757513
-0.015999252
0.023328183
-0.02295111
-0.021416247
-0.012833278
0.038670704
-0.0135448165
-0.0056842132
0.022909049
0.04931205
0.019678326
0.015506599
0.02013132
0.02436511
0.007928042
0.024322918
0.036693327
-0.014415682
0.011858244
0.030500675
0.0026988974
-0.021935992
0.010928333
0.020260174
0.026304955
-0.0133685805
0.017894017
-0.012874504
-0.012754699
0.018255329
0.028953806
-0.0113631785
0.017309608
0.0021861608
-0.007192861
-0.03138439
0.013657953
0.025077987
-0.0040604095
0.004605803
-0.0064094956
0.020792026
-0.01613313
0.019105745
-0.0029377062
0.007909092
0.015231865
0.021610035
0.005614597
-0.0049186754
0.0047806227
-0.006064097
0.03467119
-0.024999047
0.0115257725
0.015088593
-0.005652137
-0.007775951
0.015657788
0.012578169
0.00036991274
-0.0045231297
0.004712424
-0.009994188
0.011984399
0.0029314035
-0.009859121
0.021157322
-0.0070478586
-0.019739103
0.010539725
0.03136764
0.042060755
-0.026371403
-0.026828058
0.013413153
0.00025593556
-0.0018147178
0.014713714
0.009127623
0.008273019
0.014319925
0.019877668
0.016264392
-0.021997951
0.022326922
-0.017444123
0.023308812
0.00094475504
-0.02654967
-0.04102495
0.040310007
-0.0033484527
0.03865667
-0.012210192
-0.093348145
0.022423808
0.021855777
-0.051903408
0.014383041
0.025975721
-0.006989339
0.0018759106
0.023544908
-0.0076638428
-0.027813768
0.011549448
-0.008067661
0.0205059
-0.0014132049
0.022700457
-0.016855475
0.0040774653
0.028008679
-0.009640234
-0.003973688
-0.012822194
-0.015102346
0.0013306877
-0.052325707
0.012884144
-0.0151928
-0.012592103
0.010513746
0.0035753136
-0.004611283
-0.02591246
-0.0030857057
0.023128297
-0.0068425243
-0.04610882
-0.01739177
0.009053215
-0.011061841
-0.010022191
0.0049392898
0.013726867
-0.024051677
-0.025597267
-0.03644115
0.024239738
-0.01584176
-0.033536855
0.001482491
-0.03011722
-0.007601159
-0.022644183
0.024093859
0.002641839
-0.017221998
0.044541694
0.011836791
-0.043237485
-0.017334599
0.003401633
-0.015343924
-0.0007533048
0.02294712
0.038404297
0.039111625
-0.011472971
-0.021636201
-0.030163847
0.00093220413
-0.020749215
0.02270644
-0.000603726
-0.016815016
-0.025281336
-0.010352585
0.0021033406
0.02495422
-0.0053782063
0.0014374867
-0.0037381188
0.01985631
-0.0015835534
-0.033354
0.0011605446
0.017113034
-0.016822567
0.01946666
0.0044704494
-0.031871643
0.028265597
0.012085563
-0.023261975
0.016024955
0.016198786
0.026959784
0.0023821816
-0.0025952272
0.024536995
-0.017170357
-0.013649701
0.0043633394
-0.004155144
0.005331547
-0.01990401
0.0022338573
-0.028377792
0.0054959995
0.027950043
-0.02757776
0.0035366544
0.022554008
0.011146037
0.022466226
-0.0010218506
-0.028355297
-0.010019124
0.027703498
0.031878762
0.015923178
-0.008716072
-0.0082785925
0.011173057
-0.0056206756
-0.0012959081
0.0023283984
-0.013256848
-0.02085985
0.028865797
0.0065198317
0.017288718
0.0040106033
-0.025340896
-0.01417908
0.031253655
0.023680257
-0.017065592
0.0031369228
0.024362855
0.01074527
0.036213223
0.005798277
0.015122384
0.04423032
-0.028947132
0.013066651
-0.04482474
-0.015131321
0.01027484
0.014327647
-0.057276335
-0.02343647
-0.023638863
0.026005393
-0.0041755354
-0.0036639625
-0.008201507
-0.022908442
-0.011371764
0.015473894
0.0013854069
-0.008430765
0.0017916567
-0.020306272
0.02112959
0.012325337
-0.02032785
0.008344523
-0.01006148
0.025269829
0.0099954745
-0.021569699
0.0117865885
-0.020923035
0.014184002
0.0054296707
0.0070886044
-0.00020322215
-0.008866268
-0.034734443
-0.016440574
0.0061817938
-0.01941374
0.035926115
0.0067249867
0.005607057
-0.018335858
0.035993747
0.030121055
-0.0013149013
-0.0046815677
3.821105e-05
0.0035532615
-0.026749395
-0.013047302
0.02564632
-0.009688061
-0.014542365
-0.008002416
0.0013571846
0.0035530236
0.011333366
-0.0030352757
-0.0042663845
-0.03327487
0.016706472
0.012975491
-0.01230498
0.016101317
-0.010352933
-0.011807639
-0.015936233
0.009183645
0.037238784
0.009880779
0.009979503
0.00487585
-0.014611668
0.025353385
0.020591544
-0.022872876
0.0018481167
0.007425198
0.010881629
0.017191857
0.005367159
-0.01727664
0.028180743
-0.011962507
-0.017072694
-0.023420462
0.00062516244
0.011640779
0.020831786
-0.0024720775
-0.017578717
-0.014042722
-0.0032670791
0.006926685
-0.019040234
0.01610274
-0.02004957
0.010973784
0.024359733
0.027072355
-0.029395565
0.010041188
0.0066811503
-0.023200354
-0.012423966
0.0021984149
0.010602011
-0.0032799114
0.029477606
0.014589967
0.013746988
-0.00074189284
0.013781096
-0.028211009
-0.014804979
0.01062973
-0.030949606
-0.0099808145
0.0058550844
-0.013972016
-0.021846939
-0.020192841
-0.01642898
0.0063080993
-0.015726287
-0.029278386
0.03190797
-0.02196452
0.010231226
-0.011035624
0.0074175787
-0.003896006
0.029743284
0.0062560583
0.012597392
-0.030137459
-0.017516563
0.010228841
0.030207958
0.008419999
0.00881527
-0.008730379
0.0012131587
-0.009593465
-0.0042159134
0.017027691
-0.0046513807
-0.0029612763
-0.023728576
-0.008138376
-0.027298816
0.0020838669
-0.0067906673
-0.0041014743
-0.0018497029
-0.024833998
0.0034296766
-0.013448241
-0.014851204
-0.02003003
-0.0010017309
-0.0126870405
-0.008209545
-0.0038174177
0.021634052
-0.0019163251
-0.029501693
0.020435106
0.007839855
0.012450931
-0.02504095
0.009292654
-0.00629683
0.014807622
-0.016140068
-0.0071827946
-0.0027040595
0.014819058
0.0002215558
-0.05051395
-0.028678399
0.031019231
0.012660907
-0.0074400036
0.010616066
-0.003848079
-0.023241362
-0.00058197323
-0.0029616086
-0.027504638
-0.024637256
-0.007316709
-0.011000066
0.011957543
-0.0061210464
0.0030103782
-0.02873013
0.019419042
-0.019398376
0.0069518187
0.012702262
0.0062300195
-0.046472672
-0.012618671
0.0065206527
-0.029569238
-0.029185697
0.0007375186
0.0034364818
0.0036106762
0.015709508
0.0067395773
-0.011184714
-0.011486391
0.029511126
0.016857238
-0.005403073
0.015406255
-0.017403184
-0.01883421
0.017073065
0.027386095
-0.021938993
-0.0009428285
-0.018681442
0.008748403
-0.0009284271
-0.0049533485
-0.01316621
-0.004804132
0.023972487
-0.018070642
-0.027873242
0.014190403
0.014605014
0.041185517
-0.018140284
0.002784064
0.014116837
0.010921207
0.0219003
-0.00233156
0.016497126
0.004519456
0.019480301
0.006407783
0.0033905006
0.0220273
0.016109042
-0.011841666
-0.0052682324
-0.010764436
0.0051550693
-0.0049913763
0.019014293
0.022915134
-0.021305012
-0.0017417651
0.030529289
-0.0058532474
0.012277247
-0.013386202
0.008261794
-0.024174038
0.025806427
0.024992207
-0.013110579
0.013819426
-0.007234532
-0.011934323
-0.031843197
-0.0009326635
0.015905801
0.0015051757
0.0086987745
-0.0064949733
-0.011111855
-0.0004861501
0.02324421
-0.01656756
0.0046168375
-0.017742991
-0.019029755
0.01620129
0.013261227
0.013012554
0.027301006
0.040038228
-0.025298508
-0.021711232
-0.023342598
0.002732793
0.00068476825
0.0012754404
0.0128539475
0.009861233
-0.0038204512
0.0010768165
-0.009896888
0.013983328
-0.008822249
0.007932279
0.0080176415
-0.02394029
-0.008148116
0.007696706
0.011355741
-0.024882942
0.0007890474
0.02339987
0.033094693
0.02261494
-0.016153518
0.0073396624
0.018288415
0.0016996406
-0.009849798
-0.009311905
0.009313844
0.038644265
-0.017441558
-0.0023838033
-0.008841716
0.024523152
0.00401911
0.017166192
-0.023974422
0.019115688
-0.017797885
-0.00925294
0.014729455
-0.017815463
-0.021961475
-0.012952674
-0.014508094
0.037279587
0.008112979
0.037202504
0.03080362
0.01691296
0.012493489
-0.02531574
0.026031781
-0.018892
0.0077984575
-0.0048876167
-0.03278126
0.02946754
-0.02930265
-0.025309252
0.031069897
-0.03408315
-0.019945292
0.0021843659
0.0097390255
-0.011835401
0.01660404
0.011316996
0.01941969
-0.005996004
0.03588361
0.012876955
-0.025579514
-0.046608225
0.017408209
-0.032330476
-0.013078118
-0.0052408837
0.013878627
-0.011532629
0.012755228
-0.00835005
0.029793702
0.013922087
-0.0194414
-0.014900626
0.019215059
0.03626628
0.006081397
0.0055807773
-0.016544841
-5.8664737e-05
-0.023978984
0.00017485219
0.0068433443
0.009616809
0.035969425
0.024168916
-0.031307876
0.009404734
-0.009443254
0.0016537708
-0.032398723
0.044431303
0.030865557
-0.012107998
0.0016240571
0.03144786
0.021515539
-0.018353792
0.02122219
0.03625744
-0.043914616
0.018358614
-0.004208451
-0.014275308
0.025967428
0.022728238
0.020945786
0.010396882
-0.02799605
-0.02228318
0.014767885
0.022098906
-0.016931474
0.00075377664
0.0146653475
0.01564618
0.02080912
0.021136824
-0.020468712
-0.021245243
0.003479909
0.00836966
0.0030047114
-0.006592625
0.019906286
0.019537987
0.020240162
0.0034708271
-0.0014105814
0.02680963
0.042420276
0.01844528
0.002789147
-0.0019110007
-0.008041821
-0.0035457388
-0.00019478079
0.004010511
0.008109587
0.010507772
-0.0042305556
0.030363258
0.0255627
-0.0041256854
0.00075044343
0.03540985
0.015962217
-0.008899143
0.005106281
0.0065302807
-0.016249774
-0.009331805
0.0059128655
-0.0069869943
-0.008548963
0.0011665544
0.01380352
-0.0008453514
-0.016222578
0.0014453682
0.0015783017
0.034008786
-0.00409215
0.015023338
-0.009434228
0.0029130909
0.025522767
-0.013384717
-0.0040788585
-0.020263564
0.026887478
-0.030591466
-0.012820958
-0.000410143
0.006883557
-0.031452224
-0.008859807
-0.008413315
-0.030951083
-0.024600837
-0.0013180939
-0.02821498
-0.0013529952
-0.011380025
0.013518779
-0.0099571
0.016047977
0.023982316
-0.019619584
-0.016243087
-0.035833906
0.027140418
-0.007241034
0.028866518
-4.145323e-05
0.008557433
-0.014422443
0.04732726
-0.017879732
0.0030533217
-0.015149641
0.0029335103
-0.008297826
0.037898652
0.00207038
-0.03164482
0.00019743804
0.0012357685
0.008928788
0.0051304274
0.021943111
0.0069677257
-0.01111699
-0.0036541533
-0.014838608
0.0024320795
-0.02307331
-0.027339658
0.024086528
0.01250639
-0.005417147
-0.032941487
0.004581095
0.008592699
-0.0052848253
-0.031207543
0.0016632547
-0.012093423
0.030811058
0.02455085
0.038801786
0.004135189
-0.006612381
-0.004211456
0.021284182
-0.031113759
0.05000141
-0.02591406
0.0013715524
0.01173523
-0.04112679
0.02392363
0.008675474
0.0047857915
0.010261692
-0.021174863
-0.016708199
0.00037715078
-0.035294417
0.01135124
-0.005781973
0.015911818
0.024551984
0.021878626
-0.0010287031
-0.03239921
0.028550081
0.0091178985
0.002449855
-0.014293279
-0.041274898
-0.004273162
-0.028776942
0.008893689
-0.008180479
-0.0074056815
0.0060896706
-0.022769969
0.027932685
-0.024406794
0.028818153
0.017908892
0.031490427
-0.022617264
0.0016187736
0.033394694
-0.02501987
-0.021250928
0.027525803
-0.024774512
-0.022786066
-0.04467903
0.006512715
0.0025520143
-0.016369764
-0.027732698
-0.0015406588
-0.007273478
-0.021300323
0.011209216
-0.009673625
0.008022289
-0.003658596
0.0373444
-0.046457052
-0.035325617
-0.0020992705
-0.023041297
-0.026802765
0.021885999
0.008027199
0.0049899328
0.007951866
-0.012280906
-0.02495139
-0.0027439906
-0.014546956
-0.016622512
0.017496834
-0.034965135
-0.019390797
-0.032575313
-0.009887241
-0.007010457
0.024739513
0.019778166
-0.0054507954
0.009209468
0.0090194
-0.01755515
-0.02220482
-0.03648995
0.019960813
-0.010492202
-0.0038252273
-0.020439783
-0.019632079
0.01592331
0.011509117
-0.020193417
-0.022009226
0.025100335
0.012125017
-0.013252893
-0.031657457
0.034185037
-0.025868187
0.00387635
-0.017380778
0.03217452
0.00689269
0.017562246
-0.01265494
0.014729023
0.0073763006
0.028134774
0.02862364
-0.0074225347
0.037931874
0.011703335
0.0051484974
-0.011015375
-0.0033884603
-0.00052377
-0.0058059143
0.0033763049
0.00024813478
0.0077178674
0.0033539636
0.003910375
0.012029762
-0.019046826
-0.00014813553
0.006412881
-0.0025543366
-0.011709475
-0.018389221
-0.011950239
-0.020503065
0.006540271
0.0147749605
0.008423265
-0.014488904
0.0013944001
-0.0062443973
0.013440316
-0.0133332405
0.009747602
0.039536837
0.024964022
-0.0058171684
0.01534232
-0.027884167
0.038819384
-0.03534218
0.0145649845
-0.013928394
-0.011338901
0.020267623
-0.022075651
-0.0045902263
0.002223298
-0.0068131075
0.010649092
-0.007414289
0.031204807
-0.017977994
0.003974379
0.017314974
0.022815295
0.011713194
-0.020357301
0.002346212
0.009609155
0.021303821
0.016724158
-0.006648554
-0.037345603
0.0053610983
0.025437575
-0.009941738
-0.010029602
-0.028106831
0.03939633
0.020347672
-0.00040741678
-0.012629669
0.012993248
-0.022180093
0.031489916
-0.036735874
0.011097373
0.00028408004
-0.02773693
0.0066735414
0.004184866
0.010584068
0.023662299
0.007948115
0.0030469657
-0.00572
-0.011791501
0.004962738
-0.009659164
-0.05522053
0.009320695
-0.015204061
0.013110825
-0.01355256
0.03709443
-0.02231291
-0.020251356
0.0042274604
-0.0063477224
0.044425722
0.0019405626
-0.016613891
0.008180794
-0.032155536
-0.014510236
0.019832402
-0.013960547
0.0058606397
0.0048746862
-0.020271722
0.011751902
0.025086194
-0.0030714094
-0.013955718
0.012598853
0.044734783
0.027690329
0.010575467
0.024552576
-0.007783011
0.013071565
0.039080083
0.013037711
-0.019440359
0.009963353
0.01496365
-0.020357534
0.035564348
0.016421564
0.013245817
0.0023426008
-0.026703417
-0.04108387
-0.013329168
-0.004684279
0.0070431284
0.03680497
0.0143737225
-0.015907584
0.019575713
-0.046164062
-0.02549236
0.005437857
-0.0035906397
-0.014618792
-0.006368292
0.02862418
0.017746417
-0.0030111927
-0.013537561
-0.002528046
-0.030340208
0.04800065
-0.034254584
-0.008929396
0.0058244695
-0.011686923
-0.0018549446
-0.018285476
-0.01749853
0.009380126
-0.0119869495
0.023061879
-0.005243953
0.02332502
0.015907018
-0.007767111
-0.029763833
0.0049165506
0.00034305957
-0.014608053
0.0076930863
0.018831987
-0.037294347
0.028426625
-0.014719812
0.0014344373
0.013336323
0.013434437
0.030719906
-0.027691796
0.012460896
0.008866133
0.0150238
-0.0032385606
0.013272398
0.012963687
0.019705728
-0.02661692
0.0355335
-0.0112729175
0.005927395
-0.008607162
0.007001454
-0.00565685
0.028867992
0.03533036
0.028471926
0.012334344
0.0034109768
-0.009310236
0.05652467
0.0016576329
0.01815734
0.034328315
0.0055759815
0.020950291
0.0013261923
0.030023348
-0.022863014
-0.009781255
-0.00082944246
-0.018921101
-0.0034223194
0.013311135
0.017278338
0.01891589
0.0034130688
0.027215073
0.0027606715
-0.024390375
0.0046939077
0.0030526454
0.015279982
-0.012078108
-0.025722053
0.0041572363
-0.008810341
-0.008681206
-0.013374505
0.0021348752
0.016852632
0.0089368615
-0.025748508
-0.0058763605
-0.019597273
-0.012466149
-0.018403096
0.015502446
0.02393507
-0.0020567202
-0.019019855
-0.024324624
-0.021459054
0.013170857
0.031162852
-0.0078072455
-0.00361237
-0.018544467
-0.03132964
0.017373955
-0.031116754
-0.0060135312
0.031470466
0.001430155
0.010829346
0.017085543
-0.02710651
0.013831008
-0.03822826
-0.003180532
0.024751553
-0.011008294
-0.028993886
-0.016423853
0.021494525
-0.03604913
0.014357779
0.023841735
0.024917923
0.011858535
0.0057120207
-0.017995642
-0.049517695
-0.038769946
-0.010936475
-0.028624855
0.0022963544
-0.025706358
-0.008013872
-0.012882303
0.02410095
0.0030696765
-0.011172632
-0.02644818
-0.013187346
-0.00374918
0.002818928
-0.02455983
-0.0305974
0.025661562
0.009452297
-0.020360164
0.01452648
-0.018669058
0.02062171
0.0069082826
0.045916095
0.007413885
-0.0029872993
-0.024791505
0.0011015119
0.003881613
0.016328411
-0.011065904
0.007932165
0.041766252
0.011564909
-0.019081272
0.014238146
0.03123565
0.01256072
-0.010289245
-0.031542636
-0.017210087
-0.0068684155
0.0008470781
-0.03233224
-0.012567295
-0.05416385
-0.005683797
0.007840876
-0.020018438
-0.02100159
0.0067099854
-0.04455498
-0.010458998
-0.0071824365
-0.026969703
0.005227675
-0.01684689
-0.009119077
-0.002454233
-0.01044332
0.013476169
0.023955042
-0.027021552
0.005545335
-0.023114972
-0.015650287
0.015175206
0.045859758
-0.0034081817
0.012731551
0.03727044
-0.021542765
-0.030344455
0.022112211
0.042181868
0.019228524
0.025899703
0.011300079
0.049722236
-0.002615813
0.021065896
-0.036053028
-0.00358059
-0.007927584
0.014435044
-0.030137487
0.03959175
0.023995513
-0.010067569
-0.010484258
0.023596346
-0.046507597
0.041305944
-0.030322371
-0.0014348855
0.002116532
0.03574643
-0.015633015
-0.011185715
0.041684307
0.04087424
-0.02614192
-0.031987198
-0.029566301
0.014597267
0.021874808
0.045837577
-0.00456469
-0.03597278
-0.02707882
-0.03667817
-0.019565295
-0.009680387
-0.0061807586
0.0060316715
0.0041954555
-0.038841393
-0.011724536
0.014009549
-0.001122561
0.018816086
0.0074857236
-0.007427891
0.03288803
-0.029752934
-0.038673624
-0.005995469
0.022393541
-0.01686818
-0.020689908
0.023275008
0.0030585506
0.006354117
-0.023707995
-0.029138677
-0.0112561295
-0.012781826
-0.024281316
0.03453682
0.01248033
-0.03398294
-0.036280636
0.031818308
-0.01945387
-0.013968357
-0.024843143
0.004409424
-0.006033499
0.014899325
-0.011392433
-0.01736888
0.004329058
0.010824145
0.01766316
0.00031842772
-0.02074817
0.010636495
0.007561868
-0.009433052
-0.008643914
-0.032333057
-0.0016361952
-0.005478528
0.008873526
0.031836685
0.038428675
-0.0002254457
-0.022102162
-0.029446699
-0.009578595
-0.027956292
-0.031241147
0.031503465
0.0052291253
0.013097011
-0.018344438
-0.01714832
-0.00015347649
-0.011831348
0.0018981892
-0.013856152
-0.005825846
-0.027825536
0.0184818
-0.02357137
0.02497744
-0.004556798
-0.014533137
-0.026814854
-0.0018513843
-0.023347393
-0.006314253
-0.01713958
-0.012435755
-0.042727686
-0.001291458
-0.0272486
-0.005491088
0.0071543423
-0.007599496
-0.0046341172
-0.026137074
0.025673417
0.0056738304
0.0011555676
-0.026893368
-0.025119752
0.032975093
-0.029837748
-9.714172e-05
-0.028151209
0.015043934
0.028361956
-0.018133363
0.011995663
0.011139243
-0.021602979
-0.011497124
0.0315352
-0.014332942
0.021224367
-3.08178e-05
0.022285802
0.024788603
-0.0309903
0.02642198
0.037206333
0.014118319
-0.005471591
0.017447006
0.012780129
0.017291097
0.018317666
0.011774958
-0.014053064
0.014061246
0.0057030655
0.02815751
-0.0044107297
-0.015248231
0.03365647
0.011994773
0.024107797
-0.023999618
0.013005784
-0.00964871
-0.017681161
0.002100961
-0.0153259495
0.0019846973
0.0318553
0.0032241233
0.010778221
-0.017654033
0.012698051
0.0023730597
0.0042264787
0.040541403
0.0031465113
0.018268732
0.0029408997
-0.00015366553
0.016340507
0.032713633
0.00053321023
-0.01492313
-0.015362676
-0.005834712
0.003928755
-0.00027162774
-0.015468018
0.024299664
0.011358571
0.025272084
-0.011187401
0.021457897
0.014193318
0.014364006
0.013646296
-0.0025666507
0.0009264046
-0.004993686
-0.0320473
-0.022996167
0.0076180985
-0.015186397
-0.022885602
0.013085636
0.02296276
0.0071134237
-0.01910051
0.02227301
-0.0029444515
-0.008783705
0.028337754
0.038335282
0.025100272
0.009342563
-0.007882406
-0.029149843
-0.032716185
0.011560828
-0.016262852
0.0024003875
-0.013606211
-0.013210657
0.023663782
0.0030714364
0.012264313
-0.0072139106
-0.007820568
-0.010537596
-0.0020722374
-0.019765418
-0.021185827
-0.013392645
0.0013097093
0.018703207
-0.017298887
-0.03246828
0.026606752
-0.021309756
-0.007624698
-0.024652667
-0.0061510075
-0.023556681
0.004232744
-0.0004186615
-0.008428276
0.004090274
-0.0037020973
-0.026036156
0.019262223
-0.010083686
0.00144251
-0.014615689
-0.028798202
0.004374306
-0.033430412
0.030156389
0.020064397
0.017599048
0.045673363
0.009411922
-0.020233896
0.014460331
-0.0073817396
0.015412181
-0.0017758557
-0.005798152
-0.014160983
-0.037128612
-0.019230764
-0.008108047
0.03646459
-0.037252672
0.004109395
0.0098371925
-0.012831293
-0.041387852
0.0018448863
-0.005649006
-0.01143595
-0.007160381
0.0036472774
0.018896908
0.02448735
-0.0099474145
-0.035976652
-0.018943563
-0.013596357
-0.024673713
-0.03722083
0.005379504
-0.030807354
0.0016402055
0.03733247
-0.010274741
0.013633828
0.025889186
-0.0062893596
-0.008329138
0.017076392
0.012292192
-0.039197747
-0.004748978
-0.016398238
0.003089074
-0.008583313
-0.031834047
0.005473642
-0.033092048
-0.0017665777
0.02539223
0.023364294
-0.033956088
0.027374672
0.00817208
-0.01928994
0.017602233
-0.028542532
0.019116566
-2.5495874e-05
0.006859024
-0.007519985
-0.018243667
0.015361627
0.04846209
-0.015975237
-0.034693904
0.014907312
0.03618261
0.019568864
0.018937256
0.015980352
-0.024023492
-0.0043054502
-0.037480924
0.010603528
0.028809676
-0.005152461
0.017116893
0.021481873
0.035099577
0.0068473755
-0.015556503
0.0012520095
0.029314572
0.0042811222
-0.018893864
-0.010281754
-0.033005074
0.021829734
0.017395295
0.013706843
0.033770368
-0.011365681
0.0023210302
0.0028572995
-0.006744633
0.03651505
-0.0008169045
-0.04331089
0.016585808
-0.019166095
-0.00978087
0.020680623
0.012172957
-0.013152561
0.0045391205
0.037545677
-0.02311824
-0.015043408
-0.011436675
-0.032308582
0.0015588546
0.009894788
-0.029301263
-0.0021698533
0.009943492
-0.014482477
0.026614461
-0.00922955
-0.01426971
0.006656902
0.0086835455
0.007331723
-0.051855087
-0.045123756
0.039408445
-0.0022515263
-0.017485276
-0.035283227
-0.0305678
-0.022427866
-0.049172156
-0.058795474
0.0038240107
-0.019541316
-0.047229804
-0.011464319
-0.013588899
0.026609862
0.0050191213
-0.027481519
0.010126889
-0.019959837
-0.011887224
0.012632315
-0.0034644397
-0.036544908
0.012688319
-0.0020811877
-0.019227888
0.0010251314
0.0167244
-0.02485654
-0.040793158
0.037011053
0.0023813772
-0.016926633
-0.014881845
-0.008053325
0.005057891
-0.037582863
0.011237954
-0.019407738
-0.028149864
-0.023575973
0.025164401
-0.0029239517
-0.029777445
0.0021335112
-0.011799231
0.0205127
0.00034368463
-0.0047317245
-0.0064354073
-0.011610427
0.033442304
-0.017677873
-0.020942323
0.03862977
-0.0035117222
-0.023673711
-0.034407564
-0.0093909055
0.0046179486
-0.010279171
0.03512635
-0.034472305
0.0074348706
-0.012765943
-0.004381635
0.030547269
0.02089689
-0.039288484
-0.014485411
-0.022500537
0.036140416
0.047446642
0.009304421
1.2256931e-05
-0.0021061401
-0.008940428
0.0050708526
0.012741003
0.0003866636
0.011231136
-0.008936979
0.006242596
0.021727212
0.0073230597
-0.005686245
-0.01869577
-0.010543485
0.023929762
-0.016245047
-0.020716442
0.03877401
-0.008887714
0.010624824
0.00055860466
-0.017579146
-0.043871675
-0.014479462
0.00468851
-0.0048366673
-0.017779661
-0.0010175458
0.027153755
-0.042839263
0.011336682
-0.03420056
-0.000509045
0.029130392
-0.009721247
-0.025377454
0.016194414
0.0029039362
-0.0019205774
0.004733687
0.018784277
0.0034081498
-0.019031009
-0.0109515805
0.018023683
-0.030312886
0.007229035
-0.007893374
-0.042575713
0.005184591
-0.0044624573
-0.023611754
-0.0021844862
-0.007295306
0.009082946
0.030495672
0.016724005
0.02887833
-0.020111565
-0.009719419
-0.0022137433
-0.011858962
-0.004862222
-0.0035582348
0.014746387
-0.019213175
-0.0098078
-0.007964722
-0.012208739
-0.014749167
0.019226136
-0.05415303
-0.034579583
0.024816565
-0.028485388
-0.026895886
-0.01758868
-0.023358993
-0.014440491
0.013072127
0.042522408
0.024023822
0.023277571
-0.009778019
-0.0043401713
0.025269924
0.00913721
0.00024396951
-0.007510745
-0.006153848
-0.0022615502
-0.027332174
-0.03618834
5.200708e-05
-0.015544816
0.023983492
-0.017798109
-0.009531878
-0.007890114
0.025739528
-0.014795237
-0.017892726
0.010107951
0.009894756
0.016275913
0.027338754
0.0115198
-0.0038148835
0.004948109
-0.027298223
0.025362592
-0.0073636696
-0.030993799
0.0062187365
-0.012840324
0.0073231165
0.007145887
0.018462425
0.0015192934
5.3547752e-05
-0.0016716517
0.014622012
-0.0054271086
0.0017702385
0.013803409
0.022106485
-0.013950936
-0.028793683
-0.012484557
-0.016480854
-0.016661959
-0.0070728394
0.03779386
0.016540216
0.020800117
-0.0049077417
0.019050172
0.005403334
-0.009204435
0.0018269359
-0.006449641
0.023350375
0.0040167007
-0.0053868126
-0.02771558
-0.023147352
0.0064964704
-0.010675418
0.024426434
-0.0052599655
0.026723241
-0.02082098
-0.004090065
-0.02817006
-0.010878255
-0.0033814867
-0.010464784
-0.0046354504
-0.00025462135
0.026102982
0.015436796
0.00016181536
-0.02963377
0.0018396288
-0.017399015
0.019793162
-0.006171626
0.0010517098
-0.004344049
0.042302135
-0.0077742375
-0.007119451
0.031688962
0.0031707564
-0.026159927
0.0107715735
-0.009231823
-0.032382287
-0.0024798408
0.0064882953
-0.004385111
-0.006675672
-0.02186744
0.033263624
-0.015505914
-0.0038807755
-0.008975709
-0.00036452728
-0.027133556
-0.0016813431
-0.030169025
-0.0017492282
-0.039310932
-0.006306251
0.008242109
-0.012450431
-0.010157162
0.011348888
0.018146042
-0.00014351156
0.02708599
-0.004422951
-0.010994542
-0.0021511186
0.02808262
-0.00362146
0.03815888
-0.0015143076
0.021538792
-0.02974136
-0.026814973
-0.003579768
-0.018330095
0.026711367
-0.011140472
-0.008031481
-0.015806943
0.0037243955
0.008408877
0.01858509
0.019103829
0.0076135728
0.017572813
-0.016492005
0.027995063
-0.030652085
0.00040684096
-0.0015776101
0.0056824232
-0.030431965
0.03361041
-0.06138698
0.0043749823
-0.0011555292
0.02088661
0.0005748157
-0.015074289
0.00013138876
0.02837363
0.015090689
-0.053739678
0.004951097
-0.0075395764
0.007844119
0.034570593
-0.021473603
-0.012581282
0.008625074
0.0101310555
0.0066584367
0.034419525
-0.018342324
-0.013770924
-0.009643949
0.0292959
-0.01565673
0.003612509
0.033126123
0.0030158171
0.016338006
0.011372206
0.02457377
-0.0152286645
-0.00015897518
-0.013954774
-0.04569745
-0.01994061
0.013225094
-0.004580743
0.039767142
-0.0003571196
0.015170426
-0.011491298
0.0038239835
0.022227187
-0.06374394
-0.01318042
-0.033690806
0.005365696
-0.016818995
-0.009759181
-0.036482688
0.016581595
-0.015367285
0.015811682
0.009259607
-0.038786888
0.044284977
0.0144225955
0.008457138
-0.0038590992
-0.0039529004
-0.018475106
0.0033107314
0.010457062
0.01229471
-0.010294998
-0.011931316
0.037194274
0.013448507
-0.03110498
0.00808785
-0.010645335
0.010704545
-0.028920576
-0.04171879
-0.0034945789
0.02047627
0.02821959
0.004570471
-0.04425209
-0.0006739974
0.0061949845
-0.015754998
-0.0074880356
-0.057793055
8.2854194e-07
-0.0015796471
0.027759574
0.018352723
-0.012498114
0.016834863
-0.0034088127
-0.0071463925
0.0050539616
-0.034708425
-0.02230198
-0.0049128765
-0.031164274
0.013759946
-0.018818662
0.015140966
0.003546192
0.00015501211
-0.024273973
-0.0068199662
0.019373003
-0.0080531025
-0.0063762255
0.0033171077
-0.0005837635
-0.008731486
-0.0152119035
0.011431913
0.041191198
0.0024829856
-0.0043452997
-0.010359806
0.012348939
-0.021506231
-0.008220248
-0.009172191
0.012017175
-0.007067902
0.00071512954
0.000907032
-0.01884011
0.0033457757
0.019430833
0.00430498
-0.011983802
0.002964365
-0.0039699944
0.025426118
0.0361907
-0.0102845635
-0.00735676
-0.022539804
0.00449229
0.022110336
-0.014256774
0.021910701
-0.013378366
-0.008616803
-0.008722369
0.019555239
0.038198695
-0.012103685
-0.007748837
-0.012837786
0.041148625
-0.026717095
-0.02242305
-0.030032543
-0.022419294
0.016548939
0.0075593907
-0.02724883
0.03607004
-0.011101349
-0.003109831
0.0053317444
-0.020292595
-0.014046776
0.00999338
0.004310901
0.011750396
-0.0033779286
-0.020174833
-0.01965757
0.005222416
0.015433356
0.008459547
-0.027351795
-0.0148667935
0.013273937
0.01752275
-0.01593318
0.032486252
-0.0064869006
0.006441134
-0.010730691
-0.024274074
-0.016604481
-0.0023443683
0.006514063
-0.027607154
-0.04385216
0.0014326834
0.0002689139
0.0039430144
0.016297575
-0.038188845
-0.001450716
-0.0035326642
0.01029217
0.003117382
-0.028992664
-0.014629616
8.147228e-05
0.0048725656
-0.004447155
-0.0014434463
-0.02703764
-0.008306214
0.007361502
0.0010139883
0.0058960593
-0.007400112
6.63596e-05
0.0058717784
-0.005720635
0.018586336
-0.006128525
-0.026335958
-0.020675888
-0.008876758
-0.012326081
-0.015032517
0.004401028
0.011963195
-0.023924848
0.011380259
0.00296139
0.030953107
0.006983866
0.013427303
0.02983839
-0.041479316
-0.009174526
-0.01650408
0.017942375
-0.00051885523
-0.020767612
-0.021951575
-0.014444157
0.0014667604
0.013094672
0.018438898
-0.0026710834
0.018026536
0.02401617
-0.0041089104
-0.010056916
-0.03094187
-0.019799909
-0.023692895
-0.022072649
-0.017368661
-0.018724246
-0.015801357
-0.009805082
-0.012079478
0.021266269
-0.016818296
0.003939078
-0.01597432
0.012503009
-0.026692646
-0.009624261
-0.004049704
0.023240324
-0.0011669109
-0.022199778
0.011995374
-0.029972296
-0.00989017
-0.0031388975
0.036222637
-0.00949257
0.014720971
-0.028255006
-0.008518466
-0.034159582
-0.00506725
-0.023928879
-0.011969356
-0.036976986
-0.027050829
-0.012227225
-0.022667963
-0.027749304
0.00565691
-0.01754336
0.0112674935
-0.0011162764
0.023765597
-0.0072142705
0.014408296
-0.015150854
0.015924308
0.008725267
0.0054720463
-0.019534968
-0.020435533
0.010404661
-0.028527474
-0.020382036
-0.019687517
-0.011395897
-0.013928951
-0.033739302
-0.007144523
-0.0027717699
-0.021375101
-0.0068113552
-0.030014064
-0.0036265634
0.0067518866
-0.000408261
-0.02410086
-0.0050219526
-0.020339
-0.010269416
0.007835933
-0.02083779
-0.028305436
-0.0107723605
-0.016958069
-0.0037550053
0.002610211
-0.014153744
0.0141501175
-0.0023905658
-0.026650842
0.022974987
-6.612912e-05
0.010367862
-0.014691759
0.007319524
0.015571832
-0.03718902
-0.008014781
-0.017313167
-0.0017447147
-0.014597357
-0.038848042
-0.044017453
-0.017619971
-0.027630644
-0.031804748
0.0070004785
-0.04834136
-0.017785538
-0.011726631
0.039294507
0.0050071357
-0.018150697
-0.023543557
0.0076542753
-0.0028707949
-0.023855243
0.020731252
0.0041766823
0.017397325
-0.04225375
0.0021676843
0.0028211065
-0.008885031
-0.010874133
1.8357961e-05
-0.015554089
-0.035991218
-0.033754755
0.01611036
-0.011569095
0.009138526
-0.019801859
-0.009811232
0.0044184187
0.01654325
-0.0063106893
0.021058617
-0.011861182
0.0012428561
-0.0006720394
-0.022705678
-0.028647723
-0.008891324
-0.03482614
-0.009025587
0.006890068
-0.0124845775
0.00052897865
-0.024681566
0.017977193
0.0051725097
0.020018997
-0.002169485
0.015643716
-0.03466407
-0.019481324
0.0057817576
-0.018438818
-5.2083207e-05
0.025011916
-0.01002875
-0.003790185
0.030974546
-0.0034264326
0.042315625
0.006500065
-0.02819888
-0.0182218
-0.01964788
-0.01559839
-0.022217048
0.018034043
-0.051088247
-0.040278982
0.02884786
-0.020421276
0.026483743
-0.027043404
0.023015665
0.0040303897
-0.014122579
0.02114534
0.013792347
-0.025027703
0.027159764
-0.021238245
0.02798919
0.0030052257
0.0021318418
0.0025230448
-0.009005476
-0.021275038
0.03307588
-0.015712848
0.009217512
0.027164906
-0.013474685
-0.0038792212
0.0046486836
0.018787839
0.007785829
0.031889915
0.021820648
-0.0014168357
-0.0004362617
-0.010239312
-0.0051920135
-0.007188945
-0.026061948
0.03938425
-0.031353544
0.02560522
-0.024314892
0.0028779595
-0.017717091
0.034551892
-0.0114060715
0.036106255
0.029240865
-0.021652797
0.008003028
-0.02612765
-0.02209042
0.019635094
-0.020919766
0.01234514
-0.006222952
-0.023770463
-0.030553194
0.03302831
0.02214263
0.026679454
-0.029414881
0.020094376
0.0008129117
0.023707597
-0.00394032
-0.016962834
0.015381591
0.0069780643
0.017454263
-0.009682086
0.021651875
-0.010063303
-0.043841463
0.020456903
0.0031400013
-0.018030712
0.024703346
0.0029627464
0.017942918
0.02772846
0.035757326
-0.02839202
0.004235108
0.028553773
0.03061042
0.00096424355
0.031327218
0.053664636
0.032778315
0.0022012924
0.03151671
0.040738996
-0.00593029
-0.02173892
0.016046096
0.02514277
-0.02708753
-0.015660621
0.007079595
-0.003932757
0.026002195
-0.0089254575
-0.027938284
-0.0064789243
0.011988261
0.033616893
0.012637949
-0.03250636
-0.02259075
-0.0062080366
-0.0012868573
-0.0031927954
-0.030911399
-0.0032540197
-0.026608229
-0.010069673
-0.011830784
0.0043810103
0.012292158
-0.010877406
-0.01531865
0.01954824
-0.03053251
0.02268333
-0.0065331887
-0.04875971
-0.0002593639
0.0024295382
0.022613045
-0.006942813
-0.021861268
-0.0026224381
-0.007880826
0.025863936
-0.013562593
-0.019527735
-0.029614223
-0.012568928
0.0022640035
0.008353491
0.023857446
0.00010279048
0.029234482
-0.02443662
0.0028700505
-0.029494151
0.022246294
-0.0176267
-0.01188936
-0.011150988
0.012360826
-0.0014062731
0.012097761
-0.006148079
0.0054370067
0.015216476
-0.00302329
0.027040908
-0.037024748
0.007845665
-0.0046694567
-0.004025543
0.025835883
0.04786022
0.009739187
0.0029419388
0.021908946
0.0029453333
-0.027175851
-0.032420836
0.011126839
-0.012853885
-0.014603253
-0.013752461
0.014460902
0.0151881995
0.0064400514
0.028086249
-0.024845583
0.0330058
0.015486964
0.0014680533
0.03556747
-0.0001904658
-0.006876185
-0.041702133
-0.0030699742
0.0046789953
0.006155222
0.005012511
-0.036814004
-0.009912508
-0.0058842516
-0.0132874055
0.006621425
0.028960362
-0.039129253
-0.012597575
-0.02732425
-0.05329411
-0.037921168
0.023558104
-0.03500552
0.029124143
-0.0055361856
0.011586563
0.0022937253
0.023362258
0.0142998565
-0.044126764
0.019606713
0.023035727
0.009666922
0.013694697
-0.00048628883
-0.00084368215
-0.036658194
0.022520576
-0.00069930824
-0.038651552
-0.01639957
0.004689263
-0.0021205465
-0.04329554
-0.020986823
-0.0061449236
-0.033008203
-0.020416081
0.019390909
0.01044268
0.028456029
-0.008608342
-0.00190411
-0.004469609
-0.012348474
0.010738782
-0.004884343
0.012152011
0.01805777
0.015839994
-0.019941792
0.015734255
-0.004982681
-0.033642747
0.0030405605
0.0318149
-0.00695641
0.017130852
0.02935738
-0.032348435
-0.053316273
-0.042210445
0.028760424
-0.005504276
0.021881064
-0.03994451
-0.036607943
-0.012815886
0.04618863
-0.020916197
0.019304628
0.009190896
0.0047107176
0.017323041
0.007493868
-0.0026617188
-0.0011588781
0.011986666
0.0027659768
-0.022377716
-0.01672281
0.0025030593
0.010510515
0.0069123213
-0.029051216
-0.001105698
0.033051837
0.0038419745
0.00804042
-0.027410746
0.038681522
0.0060805683
-0.0212214
-0.02820137
-0.011197178
-0.030501813
0.010439401
-0.00043756212
-0.060730364
0.010943744
-0.02149387
-0.043180995
0.005471372
-0.021475747
0.02975613
0.019124152
0.012372536
-0.04426839
-0.019640988
-0.027324492
-0.02484582
-0.023585603
-0.0038068783
0.001086888
0.009159402
-0.0004093503
-0.03144432
0.005358353
-0.028961891
0.016278017
-0.01837525
-0.029981192
-0.014565319
-0.071005754
-0.02413595
0.016393077
-0.034328543
0.012010088
-0.02864724
-0.0014329556
0.0017166736
-0.030518007
-0.0046301847
-0.02224733
-0.032947376
-0.012748797
-0.02497134
-0.0067963866
-0.02908391
0.018507661
-0.026588453
-0.04037587
0.022503449
0.02310014
-0.028262988
-0.00853297
0.007956221
-0.051830374
0.023395244
-0.008013061
0.0010596176
-0.03729511
-0.015543984
-0.0012534343
0.012659955
0.00060985016
-0.03462835
-0.000483997
-0.03783455
-0.015497173
-0.014681653
0.018351713
0.019648917
-0.01851785
-0.0099042915
-0.008461181
-0.0141110895
-0.012501632
-0.015254146
0.0054191123
-0.011191516
0.018471504
-0.022528112
-0.019820467
-0.00035285926
-0.014878705
-0.0021684275
-0.023331065
-0.02165239
0.01688908
-0.0033951122
-0.024350287
0.013326514
-0.033774886
-0.009736068
-0.04496788
-0.0006847858
-0.05092648
0.011435062
-0.039646845
-0.031214159
0.016965523
-0.0025661378
-0.038863365
-0.012144862
-0.009128671
0.0024884955
-0.0038855062
-0.0063975407
0.02233169
-0.032595843
0.015427972
-0.0010034251
-0.00013163104
0.0004279898
-0.029747596
0.004770427
-0.017711785
0.01781749
-0.0006909178
-0.05352663
0.026973188
0.008723291
-0.028988935
-0.058159664
0.0094889505
-0.010346379
-0.0031713394
-0.01590965
0.003457557
0.009947427
-0.032412034
-0.019774169
0.017473254
-0.0062235245
-0.037938554
-0.06793124
-0.024587618
-0.030969556
0.006521111
-0.012293174
-0.010671127
0.006939642
0.010240675
0.008052811
0.012590746
-0.0353229
0.011703196
0.0043643718
0.019813342
-0.026590083
-0.007471156
0.00843708
0.0033419975
-0.02261158
0.0056903944
0.018785296
0.015035649
-0.014261947
-0.04253972
-0.031576946
0.0064304536
-0.0042961184
0.03244045
-0.006914878
0.015668772
-0.022611354
-0.04746895
-0.0115400255
0.021777576
-0.027016696
0.019934861
-0.0049358737
-0.0047660926
-0.0066432743
-0.03537022
-0.0172285
-0.00219549
0.011833986
0.01167015
0.020693468
-0.047847178
0.011526949
0.011015012
0.0035515549
-0.01774112
-7.29389e-05
-0.023632983
0.020855725
-0.0017484665
-0.015625134
0.0017122548
-0.011768401
-0.019256707
-0.012628886
0.021093106
-0.007980006
-0.025955586
-0.0102672335
0.008141201
-0.004402775
-0.007028318
-0.050961208
-0.00820977
0.022166358
0.029022142
-0.029774433
-0.006570252
0.027722647
-0.018141415
0.006386479
0.009547143
0.010329929
-0.050868843
-0.016772645
-0.010297749
-0.022825236
0.017904207
-0.0061979364
0.045841996
-0.020016627
0.026050001
0.03624614
-0.052323442
-0.0030868172
0.009151044
0.011987088
-0.005174597
-0.017893994
-0.0031673831
-0.023014741
-0.023473732
-0.033400007
-0.00092773605
0.02124091
0.0013855557
-0.0063347523
-0.04107932
-0.005503289
0.0025672168
-0.005636067
-0.038192492
0.009456798
0.031710513
-0.024974782
0.00052040303
-0.023930604
0.017994486
0.016161563
-0.0126694245
-0.017944397
0.025228344
0.040284935
0.0046078544
-0.016301166
0.017299931
-0.034220167
-0.031636503
0.03835567
0.011649696
-0.02001044
0.024788665
-0.0013623746
-0.014568009
-0.004657046
-0.003007101
-0.035852272
0.032036632
-0.010770661
0.026260816
-0.03312789
-0.0018569285
0.051418778
-0.023305133
-0.0015844756
0.009076526
-0.0069848276
0.008723539
-0.024696598
0.038514726
0.017123623
0.02692793
0.003814964
-0.01758758
-0.003738138
-0.003239591
0.012033946
0.017528377
0.028011702
0.042414457
0.0038192356
-0.023630224
0.054492235
0.043642744
-0.030261228
0.011459608
-0.022698682
0.023637818
0.032515727
-0.034116026
-0.010004139
0.004780696
0.019573368
-0.0455451
0.010854288
-0.00034449404
0.004649418
0.045182843
0.025128422
-0.04390573
-0.002924795
0.017611796
-0.011995892
-0.020114442
0.03487974
-0.008753886
-0.013817856
-0.023564693
0.039278112
-0.008045984
-0.015250235
0.007032244
0.01808749
-0.009726196
-0.0017937715
0.017498257
0.008472958
-0.0022346117
-0.03444769
0.030645832
0.01963385
0.005552717
0.026603682
-0.026070647
-0.039235536
0.042269506
0.020800838
-0.03370389
0.030390803
-0.008574204
0.04171603
0.03939772
0.020852774
-0.010730304
0.06125117
0.03133728
-0.042136792
0.013146249
0.020601163
0.0020462845
-0.02514024
0.008945056
0.05835683
0.03556694
-0.009369919
0.028056294
-0.01812101
0.021453343
0.050480105
-0.018510584
-0.013431391
0.010449117
-0.013726945
-0.02366115
-0.008387746
0.016600838
0.053658694
0.010544219
-0.04118969
0.0032343976
-0.036664374
-0.005994182
0.018321387
-0.015621336
-0.018063374
0.021124559
0.018778436
-0.010382289
0.006023028
0.010701151
0.048266374
-0.042616215
-0.0035984032
0.019117361
0.034204073
0.023504645
-0.023860918
-0.020326633
0.028860684
-0.038509335
0.012666887
0.01705772
0.0048547806
-0.004797904
-0.027000053
0.0127294725
-0.03122297
0.0123894075
-0.01142431
-0.01927515
0.011462738
-0.039343163
0.0068964483
-0.0051451004
-0.048177164
0.0029020451
-0.010319193
0.00922514
0.049941346
0.010289177
0.0013963811
-0.012411032
0.026410114
0.0036515505
0.045458924
-0.024004534
0.0057973457
0.03205002
-0.042320736
0.020412806
0.01505435
-0.031779584
-0.028246187
-0.0038736903
-0.00018332948
0.019581111
0.00414035
0.009580046
0.0045626312
0.008295565
0.0023805157
0.060100764
-0.01085554
0.010166589
0.04126521
-0.060295433
0.039568584
0.048958745
0.02330249
0.024109498
-0.0040517463
0.032328762
0.020935558
0.0026429826
-0.0027693538
-0.029626206
-0.020014722
-0.012827709
0.035639316
-0.013046356
0.029692974
-0.0060401396
-0.03809328
0.02739015
-0.041294903
-0.029789796
0.021322465
-0.039770413
-0.009102185
-0.01488747
0.007565
-0.034788977
-0.029802402
-0.024739243
0.022251036
0.0002637979
-0.012023525
0.04129219
0.021784717
-0.0033494856
0.012244585
-0.028600497
-0.055727843
-0.01604835
0.008028902
0.021637132
0.0009832819
0.0069993553
-0.014461443
0.029336505
-0.0066290474
-0.015533601
0.015202429
-0.0038025924
0.019366365
-0.027818289
0.013859915
-0.030181926
-0.025555054
0.017180713
-0.031279836
-0.012014268
-0.033763885
0.00520665
0.011242308
-0.008424152
0.028097648
-0.023653755
-0.00459278
-0.025618903
-0.017344492
0.011139606
-0.027819915
0.022548921
0.0075665955
-0.032077678
-0.0012670817
-0.039934464
0.013401512
-0.0051526777
0.0018167248
0.004116558
-0.019596474
0.020672644
-0.00046381753
0.013037242
-0.003505003
0.03762599
0.016762419
-0.008696576
0.0013374451
-0.020107238
-0.022459067
-0.0026255378
-0.020357236
-0.0051642032
-0.024517328
0.025521217
0.012744255
0.030459415
0.026950028
0.011678101
0.03178052
0.007714654
0.014095139
-0.0028635818
0.0018516412
-0.0027605228
0.0103125805
0.009507965
0.0012037847
-0.031643108
0.012398444
0.020274566
-0.020689925
-0.012894592
0.018524356
0.014563609
-0.0097103035
-0.0068873824
-0.020910162
-0.015574168
-0.02950727
0.01248695
0.027129242
0.029499535
-0.025312373
0.00954685
-0.020726437
-0.010995636
0.01047632
-0.024594713
0.0032945804
0.018980402
0.013356953
0.031886946
-0.0027025691
-0.05079302
-0.00531876
0.029626949
0.0012572209
0.008550742
0.0033169428
0.01508116
0.014103256
-0.019456223
0.0010877337
-0.0011952637
-0.026440343
0.00061157363
-0.026756449
0.011418662
-0.010908931
-0.015121047
0.0021971946
0.026722854
-0.009577482
0.025068782
0.02861557
-0.021882104
0.012619476
-0.01528768
-0.0112988865
0.016896134
0.028643133
-0.0031824198
0.007408545
0.03347846
-0.025049089
0.019738102
-0.0036878362
0.02295802
0.038068652
0.04297968
0.003916127
0.00022628374
-0.0034056325
-0.035053063
0.022747744
0.0143291475
0.008398867
-0.0031331244
-0.0074658454
0.008748563
0.0013444335
0.013322326
0.016622601
-0.00031713615
-0.019962888
-0.013070365
0.025832325
-0.024509707
-0.001132269
0.0079898555
-0.012466846
0.006316039
-0.015209082
0.003936227
0.010356822
-0.033986464
0.012906471
-0.023481404
0.0018841078
-0.033279415
-0.023625148
0.017526297
0.008481721
-0.015150079
-0.0017724403
-0.021978393
0.015295853
0.023205858
-0.015844064
-0.02044079
-0.004376334
-0.02137324
-0.0041268193
-0.007331523
-0.013350347
-0.0114033185
0.016485233
0.027704986
0.0010050525
0.01615444
0.007601453
0.015512551
-0.011000412
-0.012400097
0.01916303
1.8600444e-05
-0.005495039
-0.021724973
0.004266642
0.0058477647
0.0358673
0.0138555905
-0.019509021
0.015855992
0.018181317
0.0008245872
0.023892116
-0.0060960003
0.020268388
0.021596989
-0.0037628282
1.137158e-05
0.030476933
0.00015052992
-0.016669832
0.036702286
0.013737523
0.034688033
-0.003569393
-0.035060894
0.029800396
-0.009486144
-0.018863503
-0.03574798
0.020431802
0.0057059377
0.01053816
0.01958415
0.006465027
0.040732976
-0.008506581
-0.008922276
0.017021975
-0.0046371035
-0.009554322
-0.012503695
-0.015005732
0.011076999
0.005091294
-0.003534248
0.027761497
0.0113399085
0.010730761
0.019750305
-0.0015113779
-0.017386476
0.008186741
-0.0074150967
0.0015232681
-0.03191957
-0.015655061
-0.015564676
-0.018825106
-0.030966504
-0.0048309416
0.010524521
-0.005911423
-0.008064403
-0.010750631
-0.008182604
-0.0073726242
-0.016104834
0.0067327353
-0.028329907
0.025163842
-0.013725864
-0.0013700344
-0.03356347
-0.011015541
0.027619464
-7.508945e-05
0.020524604
-0.03683673
0.007762008
-0.0025698936
0.032523975
0.0111146895
-0.02210891
0.016641112
0.037561785
0.0023965447
-0.033151403
-0.03386623
-0.015886186
-0.047573593
-0.007961287
-0.0006329628
0.026361998
0.0062783714
-0.0015362409
0.0147320805
0.0017990152
0.013448484
-0.021394448
0.033805795
-0.00066952466
0.0031684688
0.025515812
-0.03986594
0.03045643
-0.010122032
-0.036745142
-0.028557394
0.034486957
0.02888181
-0.029668717
0.016862646
-0.0104654
-0.046925467
-0.0631614
0.001809487
0.014589388
-0.018961444
0.01314188
0.03601788
-0.038483616
-0.021806572
0.030045431
-0.020367982
-0.001238198
-0.020683588
0.029815651
0.017986847
0.017983405
-0.025633767
0.010181784
-0.03333392
0.0129483165
-0.009177464
-0.035223126
0.023533192
-0.047300763
-0.0118268905
0.062132988
-0.009733157
-0.007696832
0.031867396
-0.035385974
-0.016435444
0.04022543
0.045166206
-0.007549043
-0.016804079
-0.016090669
0.038361426
0.014009608
-0.0028250667
0.016095804
0.0014731858
0.018201118
0.007591145
0.016468434
0.023950228
0.016261535
-0.018726274
-0.024022764
-0.05226915
-0.021096256
0.04639588
0.05038095
0.025387494
0.00035779108
0.03350715
-0.041967265
0.008556793
-0.0033308514
0.013045068
-0.01962668
0.009240164
0.014298134
-0.009476682
-0.0071641486
0.0064473636
0.019900635
-0.009637277
0.009152491
0.024210135
0.043236975
-0.019226382
0.0138650555
1.1636013e-05
-0.042876445
0.033988636
0.0078444425
-0.05047045
-0.008327961
0.041870337
0.0061783614
0.048913263
-0.011319355
-0.014016145
0.016812121
-0.029050082
-0.04493201
-0.03832415
0.0365955
-0.019950941
0.001564736
0.021521764
0.010225384
0.018420994
-0.045405567
-0.038387444
0.018097637
-0.015216795
-0.015235661
-0.025044044
-0.013320671
-0.036040828
0.00893519
-0.024865232
-0.0027636127
0.0412059
-0.00801798
0.021232054
-0.008129588
0.00064155745
0.02389945
-0.010690852
0.018233588
0.029194314
-0.012488201
0.0377208
0.006408268
0.03319747
-0.004742789
-0.009399892
0.009980395
0.03761826
0.042547464
0.01586733
-0.017634802
0.013276389
0.001414012
0.0027694742
0.0034942147
0.0075483527
0.014171249
-0.01995169
-0.02310176
0.03533241
-0.010481735
-0.009937743
-0.0075087696
0.00040548958
-0.014213768
-0.016839078
-0.04999552
0.0277359
-0.0469061
0.027936736
-0.031260483
0.021966374
0.012542782
0.01393284
0.04405261
0.044768944
0.036396265
-0.0028547707
-0.00079971214
0.034618028
-0.03487134
0.020116204
0.036828145
-0.009854832
0.012963246
0.02082869
0.020753272
0.032735836
-0.016788831
0.0071787946
0.02915996
-0.001860268
0.010562412
0.052903764
-0.017886076
-0.02910874
0.00073032035
-0.02188809
0.020429043
-0.017565802
0.011325888
0.0006457613
0.013043506
0.014651436
-0.016404787
-0.017525928
0.019293414
0.010944846
-0.0024282415
0.01955473
-0.018418131
0.03282282
-0.02591904
0.0029916822
0.010876192
0.012572752
0.018777234
-0.010784975
0.036472343
0.019348389
0.012910613
-0.009770229
0.041109297
0.019377435
-0.012953335
-0.027633008
0.008671745
0.0050852597
0.027880669
0.04118126
0.012792239
-0.004485868
-0.012451643
0.009606126
0.007729536
-0.03734532
0.017920757
-0.0062152147
-0.005768442
0.002736912
-0.003910332
0.0033996478
0.04254926
0.03440346
-0.009275661
-0.026735134
-0.022399789
-0.03317629
0.046244793
-0.028049923
-0.04082449
0.051518247
-0.04240865
-0.013244998
0.0055190064
-0.023690946
0.038178496
0.027010342
0.039697766
-0.020291131
0.0025659124
-0.0415002
0.02126241
5.6378965e-05
0.026749546
0.0059930854
0.035465382
-0.0077999705
0.015198082
-0.046163905
0.03738262
0.036188163
0.019676145
0.033577796
-0.02098886
0.017970735
-0.01508763
-0.03085966
0.011942447
0.0063263476
0.010440078
-0.0028582606
-0.026530862
-0.028754998
0.02066299
-0.023841925
0.00721282
0.01899726
-0.0016847645
-0.02964827
-0.021676438
-0.009027056
0.0011787661
-0.0148086995
0.028352823
-0.0059117526
-0.018791
-0.01692144
-0.010499096
-0.0092304265
-0.02231608
0.022789462
0.021459984
-0.004427613
-0.05440189
0.00866229
-9.822417e-06
-0.019863097
-0.034956943
0.016711868
-0.024249619
0.021590732
0.023055203
0.03656967
-0.02822312
0.010653586
0.02723114
-0.042383216
-0.0037495573
0.0026844814
-0.0012742113
-0.009552086
0.0055948067
-0.00062948157
0.019095957
-0.0041133254
-0.0059179002
-0.020146433
0.006457676
0.017239004
-0.004381005
