0.06601673
-0.33671892
-0.3517466
0.12943704
0.19604412
0.037199393
0.23366833
-0.046784084
-0.40994197
-0.22868082
0.015074427
-0.25834456
0.18226224
0.23367421
0.1420621
0.21054615
-0.031108033
-0.01808431
-0.19901606
-0.11014907
0.05295688
-0.16790572
-0.052558478
0.25938585
-0.12000063
0.19159783
-0.12588316
0.20783976
-0.079418145
0.23688614
-0.088234454
-0.21918096
0.20032282
0.18386844
-0.21853536
-0.29041916
-0.42915544
-0.1810882
-0.30503905
-0.28985974
0.11409061
-0.35545185
0.15551043
-0.024431102
0.06063826
-0.2785666
0.23358299
0.120836295
0.10034528
0.14943784
-0.13844672
0.13367675
0.15002634
-0.1603288
-0.14987634
0.21428515
-0.17266957
-0.11620775
-0.021887824
0.11776795
-0.13830835
-0.33738962
0.0547381
-0.4232796
-0.20341042
-0.19044848
-0.27853277
-0.31635648
-0.21144448
0.14848422
0.1505059
0.101065375
-0.15802951
-0.4031542
-0.13990265
0.075341046
0.2819618
0.17033277
-0.20252562
0.23449752
-0.28843206
0.16350858
-0.20432863
0.2809045
0.1850908
0.04637707
-0.005758437
0.21643656
0.24185938
0.21059737
0.14517444
0.22916314
-0.25071833
0.20752363
-0.26326925
-0.2269938
-0.13918366
0.12061519
-0.041826393
0.092388675
0.090251505
-0.33119908
-0.15545489
0.1797761
-0.12647445
0.22375362
0.16418861
0.062078446
0.15209062
-0.24380134
0.2379772
-0.21876551
-0.1776414
-0.22478871
0.29366288
-0.3377552
-0.1981023
-0.36832294
0.046645172
0.06461342
-0.21665297
-0.07940977
0.24637192
-0.1383654
0.019205155
-0.11048797
-0.36207938
0.22055255
0.064502105
-0.34225404
-0.3984177
-0.013148934
-0.3028231
-0.085218884
-0.087118514
-0.0008232474
-0.14961542
-0.269231
-0.09907152
0.18818302
0.20710303
-0.118431285
0.24299309
-0.029664064
-0.13491555
-0.3123596
-0.36806783
-0.11273369
-0.30478987
0.26527616
0.20821099
0.2064533
-0.21782199
-0.0005940369
0.24551487
-0.0628882
-0.2735469
0.25174385
-0.23927242
-0.18852943
-0.15678103
-0.09797264
-0.23263428
-0.02320235
-0.26394463
0.2520047
0.24216442
-0.19612141
-0.111096665
0.20513941
0.10702101
-0.09426476
-0.34590402
0.15590751
-0.0099034
0.2294388
-0.04127667
-0.19847082
0.08550409
0.20977385
-0.1605929
0.2062135
-0.051270053
0.105826505
-0.48598254
-0.31583926
-0.15640329
-0.28759158
-0.34792823
0.229081
0.17956361
-0.27309445
-0.34056395
0.21137075
-0.08813805
-0.102310956
-0.005663281
0.1559005
0.23208693
-0.39494255
-0.27854118
0.09487448
-0.10572366
0.2626643
0.20168689
0.26166403
-0.004434208
0.17949383
-0.24385902
0.14886975
-0.0018343589
0.2828209
-0.14540648
0.14626543
-0.08470599
-0.06376072
0.1523546
0.24294084
-0.2067384
0.15382141
-0.09592751
-0.00065204257
-0.06090774
-0.17284232
-0.0017284967
0.2586976
0.2402565
-0.36381316
0.25576988
0.1926352
0.07365288
-0.3036933
0.19422317
0.20020391
0.24935022
-0.12555379
-0.19482264
0.075761884
-0.037639275
-0.19040044
-0.18242072
0.03385876
0.1245061
-0.18050656
-0.00882294
-0.056109287
-0.3726985
-0.23100916
0.18971244
-0.20360398
-0.19997467
-0.0031106893
0.08210469
0.16589911
0.029325029
-0.3422556
0.20856233
-0.30901814
0.22774124
-0.18415026
0.19211142
0.18344446
-0.40143484
-0.21096674
-0.044257157
-0.09023427
-0.21156564
0.20226796
0.18060927
-0.19647057
0.044459604
-0.060103837
0.2740777
-0.27982727
0.12503348
-0.25974405
0.19513781
-0.22438315
0.038616773
-0.42702857
0.15987866
0.2964276
-0.27710783
-0.20988649
-0.053779095
-0.019750457
-0.07351248
-0.051733937
0.20695841
0.26046646
-0.3583073
0.24633871
0.3057225
-0.18743
0.26548904
0.25292292
-0.093015894
-0.13037832
0.10442171
-0.05480761
-0.029590443
0.06306567
0.16388829
-0.20529066
0.2613899
-0.24828146
0.21983145
-0.22401705
0.09821491
0.017594378
-0.09897134
-0.3482827
0.2607958
-0.09805601
0.26598305
-0.25848255
-0.037015695
-0.40052065
-0.23188028
0.28748938
-0.007838109
-0.4332047
0.035085026
-0.25782377
0.15283713
-0.34906527
0.19981077
0.21021526
0.12582234
0.20310591
0.119632125
-0.26212627
-0.08526515
-0.2275911
0.17730564
0.1799174
-0.29162127
-0.4724197
-0.2916527
0.08629332
0.073443644
0.13801992
0.20060995
-0.23506166
0.04445874
-0.46570805
-0.47811466
0.09817994
0.045692347
-0.14360288
-0.012018248
0.182347
-0.2651096
-0.16627643
0.10249554
-0.2627909
0.01043502
-0.16765742
-0.18549983
0.16008607
0.122790724
-0.30619088
0.18980777
-0.034032162
0.08400745
-0.209459
-0.09753155
0.22574714
0.042776424
0.044323094
0.24552484
-0.14749244
0.23086083
0.1717969
-0.38074404
-0.35226446
-0.28027567
0.24067068
0.24147516
0.22476177
0.21416177
0.15917036
-0.36076185
-0.13791132
-0.41196036
0.16247338
-0.34380922
-0.35965648
0.17421757
0.012226881
-0.08984597
-0.056717683
-0.24046443
0.0841146
-0.012205581
0.087783106
-0.3362357
-0.13387123
-0.21552594
0.13987993
0.29865745
-0.22006652
-0.06668407
-0.08557097
-0.037435267
-0.20726798
-0.292396
-0.24184263
-0.19321892
0.08792273
0.2767046
0.02506359
-0.41658458
-0.03921762
-0.32954988
-0.021448866
-0.37008134
0.27761286
-0.09243404
-0.11352421
0.09297941
-0.12138873
0.21411662
-0.23730117
0.22789146
0.22611605
-0.4015736
0.12977517
0.19041315
-0.0125348205
0.19200383
-0.34217232
-0.44189602
-0.3973138
0.20244983
0.11566674
0.16578424
-0.3858359
0.08201073
0.22578901
0.16513415
-0.14553685
-0.24153951
-0.32959837
-0.1832629
-0.019455854
-0.14811939
-0.37301055
0.0626492
-0.07198592
-0.2090639
-0.3238955
-0.16814785
0.20574063
0.16294251
0.21925858
-0.3193841
-0.2560266
0.2095895
-0.16281025
-0.28840563
0.21627538
-0.14935078
-0.25052026
-0.22906417
-0.08679233
-0.37561402
0.15939976
-0.24418372
-0.3012971
0.08979726
0.12528852
0.26101923
0.23756513
0.19479759
0.22410336
0.10318395
-0.04520365
0.16018382
-0.039357852
-0.2290623
0.1096404
0.18803175
0.19255611
0.15379211
0.17579734
-0.012522884
0.2115064
-0.31836224
-0.034559432
-0.12902533
-0.41503474
-0.17481157
-0.24786672
-0.27125192
0.14030549
-0.12221887
-0.12606709
0.22826731
0.0014926816
-0.3187768
0.16022882
0.20016268
0.28065166
-0.08166969
0.20636
-0.19320513
0.22282213
0.13758345
-0.26782653
0.076600954
-0.30998334
-0.2840036
0.25410733
0.22210298
-0.29215983
0.1981401
-0.12107402
0.24562457
-0.2293265
-0.1452389
0.21992849
0.20212448
-0.08524651
-0.16953039
-0.29818526
-0.061780743
0.031621885
0.22971027
-0.14636995
-0.2808091
0.24713506
-0.0047253855
-0.19483599
-0.06238527
-0.22302847
0.068904586
0.33540207
-0.45488122
-0.084786646
0.30896834
-0.22132577
-0.35493812
0.26334947
0.001004858
-0.050295524
-0.17048025
-0.22288285
-0.30016318
-0.29984114
-0.121476635
-0.15343502
-0.14324035
0.09235561
-0.32394803
0.22765477
-0.24063006
-0.32908916
0.22287892
-0.12234621
0.23907189
-0.17174909
0.20392236
0.18792236
0.005824265
-0.12141836
-0.34859037
-0.043927226
0.04828438
0.07349743
0.25308087
-0.19801602
0.17118655
0.29135823
0.26670524
-0.18050793
-0.028441703
-0.14532158
-0.09609754
0.07966668
-0.20312001
-0.17135897
0.17861775
-0.07705576
-0.4765784
-0.07013026
0.011106713
-0.32835308
-0.25377792
-0.12832709
0.17846082
0.12834676
0.24948494
-0.034989506
-0.07473188
-0.2502697
-0.0538769
-0.07203737
-0.2291421
-0.39630818
0.18450984
-0.010037866
0.28439462
-0.24824303
-0.039142314
0.26561934
0.13800739
-0.33489245
0.027786179
-0.14564021
-0.18047754
-0.18438604
-0.49699375
0.13219418
0.17868544
-0.21960546
-0.26881874
-0.38848206
0.19238745
0.1550242
-0.04279613
-0.084931776
0.17824385
0.058766358
-0.02359997
0.19163032
0.1672374
-0.065053955
0.117924504
0.003569657
0.31440896
-0.067410134
-0.2502594
-0.27838624
0.026600933
0.055221178
-0.31978902
-0.0734777
0.28483304
-0.3153797
-0.21176346
0.19351856
-0.100165874
-0.21895988
0.20084943
0.253962
0.26220223
-0.32636514
0.2244283
-0.2349863
-0.061293606
0.008500351
-0.063914165
-0.085028894
0.24006577
-0.30980465
0.16634837
-0.08924168
0.23714347
0.047629476
0.17427252
0.25799873
-0.38478562
-0.15509658
-0.25929162
0.11685006
0.18942226
-0.54621786
0.15928799
-0.046353675
0.18947129
0.09554717
-0.40761298
0.11474148
-0.15908632
0.1196841
0.13235295
-0.2599428
0.09978991
0.16633609
-0.2986344
-0.18045548
-0.070813514
-0.0061880397
-0.044248722
-0.36150122
0.0369617
-0.37071425
-0.0057843877
-0.3203303
-0.024862738
0.17050402
-0.1761216
0.09670554
0.17352663
0.03690281
-0.23055337
0.22144526
0.16576204
-0.26471543
0.22828877
-0.2040552
0.095865
0.1221731
-0.06936208
-0.30615008
0.28126812
0.051621016
-0.11822557
0.14109099
0.23995915
-0.021080215
-0.2421236
-0.3301746
0.15196508
-0.029880872
-0.3440456
0.0022611334
-0.26873788
-0.019750476
0.16461465
0.21126695
-0.27597347
0.104099795
-0.22855507
-0.07592983
-0.48737183
-0.16337751
0.15317915
-0.3252113
-0.30359536
0.02175096
0.15739313
-0.100142546
0.19582646
-0.25216478
-0.14864972
0.14404203
0.16186984
0.123017326
0.048533335
0.2411965
-0.26872268
0.15634944
-0.36735418
0.09202415
-0.14328098
0.0854044
-0.24651583
-0.09538228
0.190294
0.2429258
-0.014121085
-0.14460017
-0.32805502
0.14462546
0.012387902
0.27471125
-0.34509465
0.1774089
-0.28967872
-0.4200908
0.19408543
-0.08292174
0.010902306
-0.20997645
-0.20586458
-0.22583194
0.114669725
-0.017048357
0.21612956
0.13446715
-0.06507473
0.26890594
0.24426083
0.12614268
0.25565633
-0.039621416
-0.21555293
-0.035748526
-0.24996655
0.089202575
-0.26620978
-0.2274089
0.24325459
-0.08155543
-0.039862778
-0.12878633
-0.38120294
-0.11120654
-0.05562541
0.11526357
0.1368488
-0.11727021
0.27540326
-0.38194048
0.21796466
-0.10388259
-0.14297614
-0.32824725
0.05642684
-0.25886017
-0.20632477
-0.016500054
-0.4102514
0.08215405
-0.29556805
0.05465493
-0.38168058
0.028015021
-0.193315
-0.31402075
-0.13854787
0.023001458
0.08083736
0.035710916
-0.09032028
0.016560603
0.20403774
0.12617418
0.15975127
-0.3314544
-0.15060325
-0.22815979
0.0026528644
-0.20621483
-0.23646429
0.2188487
0.09166494
-0.2894255
-0.1080499
-0.0816719
-0.08348079
-0.15379481
0.17371824
-0.15623954
0.017372403
0.25652176
0.15129438
-0.0907759
0.008106814
-0.31094056
-0.057001665
-0.23777118
-0.0670808
0.29073048
0.25535595
-0.17330407
0.24168214
-0.3171334
-0.4231091
-0.20805214
-0.10906495
-0.00477542
-0.056067962
-0.35695624
-0.25504795
-0.38427022
0.17855297
0.31886262
-0.24324349
0.28927642
-0.0075574256
-0.12673895
0.2514901
-0.21932487
0.24490072
-0.3192047
0.009192672
-0.13923655
-0.3348943
-0.06295868
0.055905573
-0.39043647
-0.18940511
0.22467096
-0.33816066
0.2700777
0.2505362
-0.29824886
-0.08279948
0.12517732
0.2298254
0.18516915
0.19410285
-0.31965783
0.09553141
0.01151385
-0.20920661
0.04057564
-0.28726915
-0.26062024
-0.3149324
-0.28345382
0.064440094
0.094398126
0.21658635
0.23545457
-0.15449178
0.1710773
0.08078177
-0.1973122
-0.19727537
-0.24596332
0.008438185
0.23251092
-0.49547073
-0.05556255
-0.24256167
-0.33100092
-0.13650234
-0.11860758
-0.1468348
0.2071402
-0.17910974
0.19460313
0.15915418
-0.014202067
-0.38442272
0.24729843
0.22393084
0.18636483
-0.20268999
-0.11861897
-0.4508306
0.01382804
-0.062064588
-0.17310318
-0.31462863
-0.30003706
0.17062819
-0.018286264
0.08853987
0.20624378
0.08074645
-0.15176724
0.19159164
-0.31590313
-0.27869287
-0.21957514
-0.36976722
-0.19916214
0.11643351
0.185628
-0.40736806
-0.049140636
0.22625273
0.22185384
-0.2044932
-0.050499856
-0.15839761
0.2432117
0.10580397
-0.24806629
-0.28942204
0.2937773
-0.096202545
-0.031199109
-0.30124724
-0.1914998
-0.16980654
0.24925758
0.1734524
-0.04314008
-0.28065708
0.06634946
-0.30004972
-0.25102648
0.24437484
-0.008464001
0.20881104
-0.38262224
0.1915613
-0.036676496
0.16936302
-0.07411746
0.24053302
-0.08934865
0.21296862
-0.18174057
0.002481519
-0.4449961
0.23230456
0.1993464
0.1872514
0.17339726
-0.21855584
0.095999815
0.038409162
-0.36846465
0.04634913
-0.054259844
0.28640372
-0.3487144
0.27423915
0.23658256
-0.21811831
-0.31226838
-0.2938825
-0.14240983
-0.28429598
0.10667753
-0.10604492
-0.06468148
-0.39013466
-0.02394064
-0.035129983
-0.3246219
-0.29536092
0.08424827
-0.23480843
-0.35677028
-0.38697824
0.10187982
-0.0014177683
-0.03161405
-0.3425401
0.18031205
-0.027327932
0.20610699
-0.38362592
0.15469426
-0.2529515
0.09709578
0.2205061
0.25744778
-0.021447228
0.18887751
0.13796882
-0.081651144
-0.12718745
0.22641605
0.21081991
-0.3080857
-0.3645871
-0.082374044
0.11652164
0.09049729
0.21461067
-0.34444934
-0.023950346
0.08760741
-0.36470556
0.12497504
-0.18476182
0.26664555
-0.14334273
0.10771777
-0.031233227
-0.0474474
0.2971117
-0.21852887
0.22831646
-0.2650811
0.12458062
-0.15079908
0.22598825
-0.20781183
0.16184376
0.31363463
-0.17302181
-0.29950088
0.07089914
0.2918575
0.11365879
-0.04142427
0.16986084
-0.019865764
-0.38305408
-0.050490275
-0.14766128
-0.28293657
0.18641461
-0.061591424
-0.09987056
-0.28996643
-0.3620629
0.0039067115
0.24717739
0.27445856
0.2213849
0.107935764
0.17257637
0.09362869
0.026974658
-0.05321681
0.024355471
-0.088369
-0.034388937
0.055516366
0.1427027
-0.06787112
0.046733532
-0.00722334
-0.07992023
0.027714605
-0.055247877
0.033216693
0.19576968
-0.0041742
-0.10094643
-0.16355097
