0.15662678
-0.079256736
0.23525923
-0.12234786
-0.30184588
0.22247721
-0.15513176
-0.15838677
-0.28563142
0.25731102
0.23616281
0.2854002
0.21110888
-0.07063513
-0.048988648
0.051975064
-0.027773041
-0.042624805
0.08460042
0.12020211
0.22269283
-0.11882915
-0.0037571446
-0.31381854
0.19900246
0.22719385
-0.37411222
-0.4052767
0.17906864
-0.253571
-0.12884712
0.1574431
-0.40772617
-0.14865828
-0.16275188
-0.38679656
0.21062098
0.16682228
-0.18551932
-0.3688108
0.26873684
0.18649659
0.17116208
-0.042493857
-0.41767868
0.16245165
0.04486576
-0.24623048
-0.114809625
0.074637935
0.21889599
-0.23162319
-0.41323277
0.24310394
0.19904931
-0.014364921
0.02134465
-0.08765873
-0.17084503
-0.18850358
0.1866816
-0.03337727
-0.20289692
0.18446691
0.20896393
-0.42194092
-0.23467022
-0.15116931
0.101495996
-0.11140001
0.042690754
-0.26867136
-0.0015168857
0.28286245
0.050376434
0.17866129
-0.32205084
-0.053976092
0.12638919
-0.40418255
-0.36990356
-0.1891536
0.022322498
0.063645944
-0.30165246
0.1294715
-0.34110332
0.12248158
-0.03279514
-0.4200998
-0.41655183
-0.27983227
0.14363095
0.15675262
0.14569934
0.04556348
-0.2508112
-0.41170865
0.20073552
0.0007438933
-0.1772494
0.1520035
0.2233399
-0.1852691
0.076517805
-0.4387382
-0.09306576
-0.37362137
0.19963993
0.11914148
-0.16397956
-0.39876005
0.21220666
-0.280356
-0.08638531
-0.24332751
-0.39170033
-0.007322396
0.17489098
-0.30510208
-0.39530504
0.16332936
0.1764866
0.14631052
-0.041988328
0.082589544
-0.37850437
0.14517084
-0.033817638
-0.361755
-0.25855175
-0.28317338
-0.7093968
-0.013333009
0.15813725
-0.36397082
0.08701828
0.22435343
-0.5632262
0.07148476
0.21107976
-0.043639276
0.21006559
0.07721777
-0.07486473
0.032201834
-0.40310186
-0.5568452
-0.34857106
-0.23502675
-0.4939106
-0.4625055
-0.37346026
-0.10788469
-0.069771044
0.16880092
-0.032723837
0.123641014
0.09938952
0.20252877
-0.2298828
-0.34202817
0.061791968
0.12436619
-0.44789538
-0.36237288
0.034736466
-0.15832557
0.072281785
-0.32756573
-0.17966789
-0.08028987
0.21021761
0.14148504
0.14075236
0.27754202
0.24087152
0.24223633
-0.10017178
-0.016201502
0.09809456
-0.18726437
0.28049105
0.23853716
0.18984754
0.07625575
-0.4465303
-0.4072028
0.09577496
-0.37234533
0.30706283
-0.020471692
-0.28069225
0.03142029
-0.21398741
-0.34035784
-0.38518938
0.25629443
0.30991232
0.2999228
0.15272848
0.12960115
-0.16794187
-0.112717524
0.16082622
-0.31155756
-0.026362292
-0.2318436
0.05714815
0.2088454
0.19129609
0.11324939
0.0013632919
-0.30029365
0.21664315
-0.45143256
-0.029729517
0.2393228
0.16276318
-0.095670074
0.18784328
-0.24031302
-0.35814625
0.039469216
-0.3458991
-0.46243137
0.2077846
0.20438367
-0.37344706
-0.30594027
0.21813862
-0.2533654
0.23948133
-0.32888475
0.1254243
-0.25401255
0.05803435
-0.027639199
0.2205415
-0.13949965
-0.20902729
0.21006264
-0.020244936
-0.115819916
0.046427507
-0.3774855
-0.3505632
-0.09119521
0.23037969
0.3518437
-0.23873705
0.17989378
-0.030836634
0.09509383
-0.082865566
0.11803577
-0.07322978
-0.012254911
-0.319553
-0.12590091
-0.09466697
-0.30064285
0.24261844
0.1369208
0.17089878
-0.21640198
-0.12679046
0.19026187
-0.35967192
-0.041620784
-0.25230297
-0.36943772
0.15380974
-0.37528792
-0.0039045892
0.041897546
0.19221154
-0.34392598
0.17817041
-0.061647434
0.13564871
0.09135443
0.1489319
-0.010573098
-0.12111694
-0.31484824
0.1868338
0.17528483
0.0135166785
0.18860875
0.17686635
0.093564354
-0.3855079
-0.30500197
-0.1240379
0.1480822
0.21634074
0.1858951
0.13748777
0.17817935
-0.35643324
-0.040756628
-0.33363938
0.14275077
-0.27827087
-0.104706906
-0.13791993
-0.059258267
-0.23691462
-0.22195145
-0.18382627
-0.0066351425
-0.08917598
0.089563005
0.21940395
-0.13961884
-0.47322002
0.23322271
0.20234148
0.2738286
0.24257478
-0.039405823
-0.3311591
-0.20501317
-0.36231947
0.20073105
-0.25570148
-0.2419101
-0.20567897
-0.30491498
-0.2577142
-0.00025366084
0.06578731
-0.19952314
0.21743059
-0.3307257
-0.37324104
0.24319741
0.22834605
0.22196792
0.22295386
-0.07703187
0.32195154
0.116353974
-0.002622643
0.06916336
-0.3705764
0.083183475
-0.024743736
-0.13405398
0.33929884
-0.1370117
0.34972867
-0.09552774
-0.03603549
-0.4716414
-0.3523597
-0.02414592
0.0006196087
0.13836816
0.058171604
0.20395337
0.23161536
-0.08921643
0.011082955
-0.35283065
0.038477093
0.23758072
0.13122024
-0.08618972
-0.31915307
-0.18372189
0.15131879
-0.27483395
0.20408946
0.07083051
-0.3146717
-0.14258474
-0.24871618
0.26409218
0.11037628
0.21348657
-0.37974653
0.22557682
-0.42395607
0.2219378
-0.22106381
0.07911217
-0.28251734
-0.094499975
-0.31414625
0.009914057
-0.053569518
-0.2997461
-0.28556395
0.21876636
-0.307472
-0.017565677
0.20366904
-0.00021863864
-0.31331033
-0.2621872
0.15078272
0.18527912
-0.16497351
-0.1495887
-0.15024972
0.15741538
-0.19150284
-0.42254293
-0.12764265
-0.45827168
0.28333747
0.26452804
-0.16681662
-0.2961525
-0.0036910796
-0.00022646658
-0.39273268
0.15514654
-0.15102181
0.14926922
-0.016196705
-0.023498423
-0.18444657
0.12831481
-0.24428563
0.11122656
-0.5108345
0.19816744
-0.4369489
0.14871636
-0.2454887
-0.17385457
0.15842903
-0.034728162
0.0376263
-0.20619754
0.14157982
-0.066574246
-0.28070322
0.21099526
-0.35079187
0.039151996
0.2639748
0.071681716
0.15815836
0.14958285
-0.30655658
-0.17355184
0.2207817
-0.0955282
0.16538791
0.16935901
0.18514524
-0.17776644
-0.1678187
0.053277466
0.17869365
0.18220203
0.2615648
-0.3692482
-0.16344066
-0.19813828
0.23920634
-0.37199843
0.19198862
0.20479067
0.2196438
-0.38042352
0.18274993
-0.027875798
-0.1704037
-0.34074074
-0.06664027
-0.21419275
-0.33211067
0.15757787
-0.48552272
0.19953248
-0.4804643
0.1284863
0.11693298
-0.2842009
0.10414898
0.25146687
-0.14764012
-0.27069402
0.12745568
-0.19479737
-0.038510337
0.24692523
0.11139291
-0.44049388
0.12649392
0.03978017
-0.33682373
0.050147574
-0.0032809386
0.17065567
0.1598036
-0.39985573
0.03074517
-0.43597877
0.0127050625
-0.019624492
-0.34297833
0.19625564
0.1984879
-0.024726704
-0.4802142
0.17467083
0.025916424
0.17240164
-0.223427
0.16349389
-0.27331161
-0.1737074
0.1638478
-0.43664905
-0.36163372
0.1546447
-0.4362487
0.08657087
-0.39158314
0.12312548
0.13191083
0.10592073
0.19936585
-0.4032702
-0.08120973
-0.26511252
0.23026454
0.036112715
0.07498398
0.09838221
0.13100307
-0.0714718
0.13848849
0.16063018
-0.37463176
0.11725742
0.07981892
-0.45234063
0.21346913
-0.28771564
0.12927386
0.04521933
-0.30201766
-0.2564209
-0.0776269
-0.053848695
-0.3175235
0.27224338
0.1954751
0.17051901
0.13249429
0.17959192
-0.29197636
0.21698053
-0.20806144
0.22406827
0.047485396
0.22800861
0.12796448
-0.45958796
0.055947267
-0.14151667
0.06553044
-0.039852776
-0.18563978
-0.13837235
-0.13754113
-0.16503353
-0.27040055
-0.11546529
0.041818928
0.27074826
-0.19061464
0.16043356
-0.07496143
0.14871903
-0.27433282
0.087842554
0.24903688
-0.3364785
-0.2528484
-0.28764728
0.05254639
0.089933716
0.23603547
-0.26866853
0.21550511
-0.07787257
0.21506187
-0.0402418
0.0018671266
-0.30243355
-0.2534073
-0.27394354
0.23084345
0.23900044
0.12833312
-0.35356125
-0.16345505
-0.16455874
0.1759968
0.1887186
-0.14714514
-0.13417621
-0.13421227
0.025510758
-0.46170348
-0.2779332
-0.06735175
-0.3237253
-0.12781504
-0.30035698
0.27489793
0.07854744
0.19089597
0.006642811
-0.07888238
0.24268164
0.170034
0.22831687
0.23555303
0.2247817
-0.04027265
-0.028849015
0.21855007
0.143844
-0.11104557
0.15680079
0.22152013
-0.2741156
-0.2548953
-0.1173759
-0.24765943
-0.16240574
-0.044380963
0.28668222
0.19877785
0.2927106
-0.38631567
0.29466513
-0.33180615
-0.17991279
0.095532045
-0.3455559
-0.30261683
0.1726666
-0.12650636
-0.53508896
-0.4016853
-0.39042106
0.026627608
0.1617192
-0.19787222
0.103709705
0.0799407
-0.16057637
0.14606379
0.13223228
0.1049843
-0.15388545
-0.28430235
-0.51859576
-0.109972395
0.17819288
-0.23600468
0.1863879
-0.24377814
0.15479082
-0.13667838
0.17353006
0.075263895
0.06482841
-0.21436585
-0.14300282
-0.42536533
-0.08873347
-0.07809592
0.12638159
-0.24719933
-0.31448737
-0.020894898
-0.27761507
-0.2365244
0.28800118
-0.38386655
0.04919263
0.0561112
-0.004288486
-0.39638776
0.06465745
0.20154971
0.024062272
-0.19690824
0.29796502
-0.19570936
-0.33194688
-0.25263026
0.2681825
-0.080487534
0.05959302
0.035459545
-0.21038207
0.19059409
-0.14506894
0.13795051
0.34965295
0.24770238
-0.2575901
0.11418255
0.25150445
0.29051217
-0.02763617
-0.108108915
-0.5423193
-0.14637688
-0.41559052
0.072159305
0.044831775
-0.50679064
0.09051167
0.08026927
-0.2232544
0.099469624
0.042599678
0.0617785
-0.08142797
0.08364544
-0.093184344
0.060576107
-0.39578885
-0.34808093
-0.023341049
-0.40242735
-0.3053731
-0.41268498
-0.56738627
0.20360535
-0.24124779
0.2021243
0.06264784
0.044220585
-0.10243206
-0.1648775
-0.22552788
-0.28153163
0.014683198
0.18037803
-0.24481738
-0.2328217
0.030082442
-0.095388114
-0.057741594
-0.18629894
-0.42181015
-0.4724061
-0.0677357
0.020029478
-0.47609356
-0.090272605
-0.04926253
0.07793585
-0.14652185
-0.5664989
0.034443002
-0.20260105
-0.0043374356
-0.24601874
-0.40562084
-0.2956795
-0.4915838
0.020313757
0.053783998
0.028536933
-0.21217553
0.257219
-0.21584871
0.18224372
0.074830405
0.19064681
-0.017412806
-0.010996495
0.113167025
0.24316515
0.23671205
-0.23764043
-0.043800905
-0.37765512
-0.13740306
0.1914957
-0.2646661
-0.3201252
0.29337788
0.19454554
-0.008351643
0.1068159
-0.13829674
-0.41937405
0.23219462
-0.36586004
-0.09558292
-0.50891894
0.03145618
-0.06944634
-0.3180607
-0.4480885
0.11438522
0.20514919
0.24074169
0.1868436
-0.38649896
0.03183206
0.1830608
-0.19488116
0.17397663
-0.36908665
-0.029481538
0.12955076
0.2367603
-0.23643349
0.091462
0.01600775
-0.2801831
-0.32155624
0.24441591
-0.11404381
0.21311542
0.20183791
0.13018261
0.24949665
0.16714346
-0.039369714
-0.50702274
0.21013628
-0.5986598
-0.34130362
-0.10441789
-0.39407185
-0.22091457
0.20979623
0.13748905
0.010078947
-0.09831051
0.14458817
-0.28896233
0.046208404
-0.18147789
0.19311999
0.16388823
0.18924588
0.14445046
0.068942025
-0.2975084
-0.31998834
-0.36486828
-0.2629592
-0.30831048
0.016883105
-0.33652365
0.16955303
-0.2076563
-0.38997266
-0.14203008
0.045189515
-0.3344396
-0.26400402
-0.030790389
0.05583306
-0.1585102
0.23163779
0.22794735
-0.21407838
-0.32297418
-0.12615764
0.045425005
-0.06067393
0.15536748
-0.20425606
0.28573874
0.2860134
-0.38477194
0.02988676
0.013150512
-0.00016837493
0.17324482
0.27222413
-0.32642606
0.2262238
-0.3307727
0.24181634
0.023847107
0.25303024
-0.15915237
-0.12228321
-0.26829335
0.007777701
0.20315835
-0.40046757
0.03941621
-0.14226097
-0.4045896
0.28694236
0.24022627
-0.24593227
-0.20127696
-0.20813546
0.014157511
0.13252503
-0.42885152
0.094632
-0.52456206
-0.25609168
-0.16359413
0.14933695
-0.28148508
-0.1304897
-0.1849532
0.070259705
0.06417725
0.18177804
-0.35107237
-0.42048213
-0.06367998
-0.16310626
0.11336513
-0.27601796
0.16805638
0.16419046
-0.3592294
-0.064170286
-0.15537548
-0.34727713
0.19154006
-0.20607819
0.22121628
0.0917937
0.2361936
0.06448541
0.23874344
-0.45875978
0.16711713
0.20645443
-0.0015694018
0.15435898
-0.1319715
-0.15699714
0.12900952
-0.19687994
-0.11361969
-0.019955758
-0.2554521
0.21463357
0.104970135
-0.29479182
-0.24010034
-0.20385803
0.013409403
0.28336287
0.15703152
-0.23424022
-0.059271604
-0.038451303
-0.05811551
0.15438123
-0.041047484
-0.122282796
-0.30448058
0.16504431
0.17366357
-0.022571279
0.1231458
0.14419019
0.07745696
-0.21558066
-0.44707763
-0.12607038
0.06446004
-0.2626905
0.039071176
-0.14256257
-0.53791285
0.15143065
-0.26035097
0.30355293
-0.38588044
-0.3193742
0.052103154
0.025085771
0.24531251
-0.30703568
-0.337178
0.29104546
0.0020280352
-0.09149593
-0.036640164
-0.4129451
-0.13970283
0.12966928
0.310502
0.086111195
0.12763293
-0.29330552
-0.09871704
-0.49298376
0.2553297
-0.2973977
-0.36378816
-0.1609002
-0.49336585
0.04525043
0.0784391
-0.18014966
-0.28880104
0.15737216
0.041659936
0.14060318
0.14555483
-0.16820757
0.075332224
0.24871653
-0.032370962
-0.0059827045
-0.009709842
-0.10594813
-0.08255174
-0.28096184
0.035727248
-0.5477393
-0.586884
-0.01858884
-0.46021092
-0.44887382
-0.04272956
-0.20136325
0.06990812
0.06552842
0.05974492
-0.21023022
-0.25201306
0.023248065
-0.19775449
0.100659914
-0.30708146
0.24130613
0.2250524
-0.044044144
-0.20678085
0.25615638
-0.21837805
0.21658994
-0.62468153
0.17094937
-0.14069013
0.084155835
-0.3529712
-0.29724613
0.18470752
-0.121479586
0.20187409
-0.1715032
0.11224957
-0.13316141
-0.082608916
-0.18173867
0.12877998
0.18152931
-0.2749638
-0.2547255
0.24390441
0.2225452
0.07826
-0.24798793
-0.022003323
-0.35740352
-0.13722253
-0.13406268
-0.19436799
-0.19290933
-0.030504407
-0.009140384
0.09053254
-0.102053896
0.058115114
-0.055111293
0.04705594
0.03204077
-0.11459628
-0.047897857
0.060722876
0.08970704
-0.028692355
-0.08027924
0.25127104
-0.017771939
-0.1004278
-0.042549774
-0.0890924
