0.0005001792
-0.024396345
-0.038627088
-0.007160538
-0.011015527
-0.002922779
-0.00882936
0.00021760126
-0.03688256
0.02534008
0.014980845
-0.026940523
0.0035601365
0.013191317
-0.040379796
-0.019576546
0.013059426
0.005681927
-0.029199945
0.044446874
-0.006233905
-0.018531797
-0.0042914497
-0.0416467
-0.024127202
-0.036276318
-0.0134741515
-0.041492715
0.025756357
-0.009459853
0.038142186
0.002777233
-0.007882155
0.014713411
0.02945018
0.008201289
0.033376977
0.020139696
-0.026090087
-0.011940787
0.007958344
-0.00053312257
0.018453699
-0.058844823
-0.012069657
0.02219854
0.029045047
0.03163197
-0.036939025
-0.012603883
-0.036399882
-0.020826353
-0.050553482
-0.009304657
-0.036442127
0.0075910767
-0.025082331
-0.028355481
-0.0016296419
-0.049930252
-0.0047801146
-0.044355538
-0.0005403775
0.012799098
-0.003686144
-0.014396839
-0.039184514
0.024051953
0.0077109463
0.008781496
-0.027209911
0.028260678
0.032518677
-0.019880433
0.00022955726
0.023391377
-0.021041997
0.026672035
-0.010885473
-0.0011124712
-0.0047738906
0.025037365
0.02000194
0.018594125
0.018001966
0.041727133
-0.01527089
0.024622118
0.05080914
0.050998487
-0.022202913
0.026591243
-0.0041019656
-0.008548311
0.017649418
0.026736978
-0.033342198
0.029631453
-0.018449506
0.002103651
-0.04898645
-0.0064577074
-0.025942136
0.021396875
0.0060525355
0.006595136
0.008049207
0.024276057
0.0136150215
-0.007915092
-0.009427781
-0.043139268
-0.00954376
0.027630253
-0.042073216
-0.047831245
-0.0011538509
-0.028831944
0.009936538
-0.00826057
0.029318133
0.058835395
0.026194558
-0.0018194048
-0.026097473
-0.011745282
-0.0066698994
0.035614125
-0.010136215
-0.007778555
0.013150625
0.019029407
-0.034944285
0.012951846
0.00977614
-0.026440848
0.011553198
-0.04415931
0.03757213
-0.012588203
0.0025511915
0.047350723
-0.012090755
0.0026578119
0.022075126
0.0024751746
-0.017336365
0.025811506
0.01874181
0.050206337
0.038172394
0.01646265
-0.04056485
-0.0071670595
0.010012578
-0.016822709
-0.021071203
-0.03105563
0.00092563673
-0.010601953
0.0054555903
0.048814952
-0.028004851
-0.02156631
-0.02115787
0.03723267
-0.024036542
0.005631955
0.003626754
0.02851808
-0.008932573
-0.010953674
0.018282425
-0.01221158
-0.028459279
-0.051523365
0.0055324673
-0.031628583
-0.02591538
-0.0013293634
-0.058788843
-0.06654701
-0.034855917
-0.0064327554
-0.051295556
0.018027456
0.019531013
0.019821977
0.02303514
0.0065415353
0.03542382
-0.062645815
-0.027218243
0.009707008
0.020799791
0.016581127
0.027023282
0.0529384
-0.0695389
-0.022199336
-0.019966079
0.07386072
0.032630455
-0.02185491
-0.038065877
0.06655931
0.062791884
0.07386038
0.0069310092
0.002826505
-0.021363076
0.057398133
-0.0042012455
0.06811947
-0.005503946
0.020184167
-0.060983844
0.06039636
0.0032117858
-0.036462095
0.036625523
0.055755682
-0.057785574
-0.013319572
0.03796276
-0.05580454
0.039827455
-0.03001738
0.030636745
0.012997136
-0.017909419
-0.014476056
-0.025880935
0.0274732
-0.046733655
-0.043924443
0.0056441603
0.013516161
0.005522266
0.022972204
0.014167784
0.0024761693
0.04287031
-0.032956723
-0.03656604
0.037615567
0.021982778
-0.00841921
0.00442192
-0.011479172
0.020169787
-0.007103484
-0.017630655
-0.003106161
0.030537352
0.039277833
-0.053995423
0.010115931
-0.019776607
-0.052939642
0.010269932
0.0037779787
-0.007358283
-0.04112738
0.003515775
-0.027370656
0.032650176
-0.001870083
-0.06104639
0.021818789
-0.03628178
0.0097179115
0.009753886
0.014654823
-0.05634964
-0.03534791
0.007852972
-0.027715087
-0.045248065
0.05190177
0.03835577
-0.005738702
0.010800154
-0.010826432
0.012249799
-0.040657792
-0.042431466
0.01692399
0.02056667
0.008399153
-0.032581933
0.01491556
0.006600358
-0.044502847
1.6788887e-05
-0.04071539
0.047575057
0.029469581
-0.0326993
0.0041077645
-0.02257236
-0.009556932
0.047026385
-0.017912466
0.009596553
-0.011187986
-0.0051550944
-0.041325893
-0.019447766
-0.0007719185
-0.027977396
0.04784312
0.008838464
0.0336371
0.02344553
0.009551546
0.03129548
0.03612719
0.012240292
-0.00037993674
0.009440152
-0.005014448
-0.0074589485
-0.011407604
0.040134635
0.0073406156
-0.007111372
0.013489623
-0.032207113
0.0023583057
0.017214041
0.03551458
-0.01036691
0.016002692
-0.029151909
0.050817344
0.0042033475
0.019821996
0.03877518
0.001515252
0.0666752
-0.025507914
-0.0009764089
-0.020283168
-0.02952732
-0.032745555
0.014116986
-0.0139785595
0.027483769
-0.0073259748
0.018538594
0.015567402
-0.019271411
-0.022392403
-0.015098353
-0.01851136
-0.025807073
0.010783945
0.014319832
-0.018871512
0.024073465
0.008874645
0.029619448
0.017556533
-0.015112221
-0.009315716
0.0034764642
-0.01808762
0.0024176515
-0.013531995
0.02886836
-0.022673821
-0.02097663
-0.003521609
0.0027615905
0.032729052
0.012840009
0.0011448871
-0.017634211
-0.010846285
0.010109674
0.007402719
-0.010158855
0.039756007
0.012754936
-0.00068831566
-0.008161746
-0.019295352
-0.018487
0.041008715
-0.009202685
-0.006441058
0.003642904
0.0043751397
0.013601808
-0.012845059
0.016099283
-0.0084091695
0.017954092
-0.021344747
0.0033574644
-0.014123362
0.03886958
0.04025654
-0.0010293381
0.0374786
0.016048554
-0.01702276
-0.013131503
-0.068243094
-0.010322702
0.03590689
0.016916541
0.0146791395
-8.3760846e-05
0.0143308425
-0.010357018
-0.051298566
0.0022868423
0.026343185
-0.038418543
0.028845415
-0.005887743
-0.016391894
-0.0013132758
-0.018107804
-0.007217806
0.022511128
-0.006227515
0.0030242545
0.052948613
-0.0056502954
-0.0044252146
-0.005640749
0.0022237739
0.005877364
-0.011966935
-0.036039904
0.0015472503
-0.027552037
-0.019771779
0.040774234
0.004461831
-0.014381955
-0.004553167
0.036799625
-0.029908804
0.00738481
0.021854516
0.03449507
-0.06144326
0.0054870537
0.024933398
0.031141337
-0.0077715274
-0.013600245
0.016532162
0.028256046
-0.021337664
0.03284544
-0.027931288
0.03070124
0.011054834
-0.0159339
0.033197872
-0.028670028
-0.011083099
0.030212909
-0.0022930598
-0.010408015
-0.01507901
0.00864814
-0.0069715744
0.00413865
0.009123552
0.041316204
-0.011653774
-0.030989269
-0.020353578
-0.017359477
0.03364293
-0.021701576
0.0045816232
0.03342991
0.016912922
-0.026124079
-0.019390855
-0.03572746
-0.013608353
-0.0038934571
0.046710666
0.005616382
0.031019123
0.016935164
0.020313654
0.024900187
-0.019825332
-0.00897284
0.018937748
-0.020318486
-0.011810823
-0.02456114
-0.031377774
-0.0053670644
0.025178766
-0.009648404
-0.03373088
-0.00626164
-0.010383976
-0.008238581
-0.02649733
-0.03851576
0.0064871064
-0.013601482
0.0081894435
-0.043079596
0.06261998
0.021449333
0.025079895
0.006865755
0.010696498
0.040768433
0.0044671604
0.027558511
0.0005792324
-0.020374795
-0.03279808
0.029941913
-0.030449405
-0.0070350696
-0.001730159
0.00966096
0.0009652945
0.012862484
-0.029302998
-0.015916077
0.02921102
0.03169551
0.015973402
0.02345797
-0.0045315875
-0.0075035165
0.018139295
0.04029435
-0.00577535
0.014213405
0.011222833
-0.011333447
-0.009362037
0.039703846
0.020761585
0.035523012
0.019259073
0.007969895
-0.016537918
0.017234039
0.048842207
0.0096134525
-0.009392775
-0.053417005
0.026332924
-0.013931096
0.0048640277
-0.04683645
-0.011383842
-0.032809686
-0.06503831
-0.01412387
-0.0470125
0.0058908937
0.017505188
0.0535884
-0.0011247533
0.05435753
0.041298065
-8.407634e-05
0.017640354
0.04066443
0.02267426
0.027563615
0.003909946
-0.002045214
-0.0048763794
-0.025691478
-0.02382517
-0.010890327
-0.01091705
0.06049147
-0.014380676
-0.020251391
0.016632423
0.022853144
0.026399452
0.02461699
0.013456453
0.0013001936
-0.019103913
0.0532767
0.016072648
-0.0006684247
0.039376687
-0.04573504
-0.02696883
0.0043428107
0.002259861
-0.028051052
-0.015356623
-0.017194482
-0.03052539
-0.00037762176
0.034786772
0.020363118
-0.018592082
0.03696306
-0.024855237
0.021707268
-0.00089924084
0.0044544954
0.018444322
0.020517636
0.005720643
0.013724439
-0.010130024
-0.017557299
-0.011687595
0.014052543
0.020779062
-0.051647823
0.002128107
0.018968992
-0.022625895
0.006714074
0.03594036
0.0135687785
0.01384164
-0.010166977
-0.022839239
0.036938425
0.03726873
0.009865275
0.0043057674
0.03301504
-0.011651802
0.0029212697
0.03225186
0.01430234
0.012313487
-0.0009592682
0.026194856
-0.035449065
0.0066256193
-0.010929472
-0.02411668
0.022588411
0.005571662
-4.2270276e-06
0.02426545
0.026450444
-0.017955992
0.009707486
-0.00026373708
0.014204095
-0.038894873
-0.037504654
0.042000536
0.033288345
0.030612022
-0.041534424
0.030242424
0.02596452
0.025115762
0.016555618
-0.0140659455
0.0098155895
-0.016703347
-0.012143162
-0.028182074
-0.027096866
0.023389198
0.048703406
0.002131534
0.055347785
-0.018512322
0.036617666
0.0137221785
-0.02644405
-0.00172183
0.04504534
-0.0037191252
-0.0041018785
-0.008294213
-0.0077265184
0.008208681
0.011821361
-0.04127483
-0.03848828
0.0054445965
0.009278648
-0.012261735
-8.83652e-05
-0.008389791
-0.008001606
-0.029153965
-0.01873065
0.031965643
0.029671013
0.021401387
-0.010131156
-0.0047461484
0.018065687
0.02833403
-0.011254706
0.0025335534
-0.023391878
-0.004759046
-0.00761607
-0.032388784
0.019578032
0.0035168803
-0.02625468
-0.0073528085
-0.011394434
-0.04596544
0.009999418
0.017503139
0.0028907731
-0.032875404
-0.021323467
-0.02722454
0.036520854
0.01946086
0.005167964
0.0015059141
-0.02569052
0.018708622
-0.005571649
-0.0124561805
-0.024834245
0.004431596
-0.018189838
-0.01071655
-0.041214854
0.03317636
0.02322974
0.011991732
-0.034835152
-0.014787192
0.037044868
0.029405598
-0.021897506
-0.005232447
-0.011393907
0.009478621
0.030087559
0.026391389
-0.025480434
-0.02238567
-0.00945626
-0.009114781
-0.023397569
0.0013861045
-0.032592483
-0.00025775848
0.004671666
-0.034387086
-0.008624196
0.019110171
-0.03385256
0.010755438
-0.018609712
0.012267721
0.016608952
0.02726893
-0.020480325
0.014994854
0.02187339
0.008208209
0.026521953
0.01744878
-0.020013923
0.019635407
-0.00883742
-0.01806646
0.0114229005
-0.021105042
-0.02507837
0.0076492233
0.0056422157
-0.024878837
0.020815615
0.019864248
-0.00599234
-0.027128056
0.02161817
0.0024015608
0.018902892
-0.008485986
-0.015270087
0.04882587
-0.024787549
-0.0016590627
0.06346969
0.025350371
-0.022228794
-0.027009439
0.041335344
-0.0032981534
-0.0078000464
0.0042346218
0.0051017012
-0.034662046
0.0114841275
0.014881229
-0.033587784
0.017779147
0.037128244
-0.006474719
-0.03209352
0.0061178124
0.013671368
0.02087547
0.022750882
0.026543645
0.008945092
0.011397452
-0.017305873
-0.040755533
-0.022447014
0.012651945
-0.0532277
0.007021099
0.008123297
0.0075520687
0.038134664
-0.008452045
-0.008385734
0.016707513
0.036944035
-0.02435407
0.013291386
0.015155754
0.011105736
-0.01482102
0.03977618
-0.02166599
0.005457598
-0.011030607
-0.0023488894
0.01682781
0.049701586
0.033016063
-0.039913334
-0.03267563
-0.038710937
-0.009411667
0.030398028
0.05028301
-0.020320171
0.023223003
0.021889718
-0.013129379
0.02820899
-0.023608165
-0.049617704
0.014598334
-0.049010426
-0.014467079
0.016016861
0.005604933
0.027203452
-0.0499511
-0.02278164
-0.03236352
0.037978426
-0.03815795
0.03528181
0.030919313
-0.012917763
0.015263325
0.01588145
-0.0029415872
-0.0049179243
0.052677147
0.0038111852
-0.020104062
0.03522856
0.046471268
0.018315138
-0.038911294
-0.01603844
-0.027487254
-0.009382974
0.006087746
-0.022792554
0.032088023
0.020431804
-0.037590627
-0.0051666624
0.023899134
0.015340176
0.016729653
0.005544783
0.014605049
-0.03278134
-0.039525043
0.0032190983
0.024434855
-0.008873785
0.006108608
-0.03584799
0.025868129
-0.019782329
-0.006253621
-0.009206675
-0.0436796
-0.03035351
-0.014443176
-0.0401438
-0.024055213
0.006232664
-0.020262683
-0.015399237
-0.027019441
-0.019123148
0.024833964
0.004362996
-0.015892059
0.078088164
0.015608874
0.0065677823
-0.05936199
-0.016346922
-0.045707125
-0.016225848
-0.013818288
-0.043050002
-0.010894871
0.004933415
0.01344666
-0.021378335
0.05010513
0.0077661704
0.026804248
0.041487865
0.02433434
-0.0053652255
0.029228317
0.0073402594
-0.0002834096
0.0011590954
-0.044590574
-0.03600395
0.0149780465
-0.021215824
0.03197262
-0.03605159
-0.0031178962
-0.0467384
0.049899653
0.021608682
0.009979138
-0.006933764
0.036358375
-0.07830575
0.008362756
-0.014448554
-0.026692014
0.034089744
-0.041068878
0.01201353
0.018526731
-0.0020654448
0.0034384744
0.0072143534
0.015318299
0.02175834
-0.038069833
0.030804396
0.0083401725
0.0071266843
0.007936111
-0.07632713
0.01046849
-0.013513848
-0.008222851
0.021812927
-0.011266966
0.06080826
-0.0013014296
-0.0073573804
-0.0001279922
0.03708247
0.040603813
0.014091307
-0.040435147
0.018094549
0.022970602
-0.044207092
0.04380796
-0.040414885
-0.04624016
-0.01257207
-6.489548e-05
-0.01744195
-0.020403786
-0.0648844
-0.015860492
0.009526996
0.012830492
-0.0039152713
0.032689758
-0.0377233
0.026211616
0.020712638
0.067173846
-0.03871185
-0.0063946056
-0.0072696693
0.01917233
-0.08600642
0.009238562
0.0025105039
0.023664884
-0.0154635515
-0.009362672
0.063308686
0.0045227753
-0.01813251
0.017254781
-0.026873259
-0.013570415
0.0009092519
-0.03275652
0.014908061
-0.0063019977
0.009482549
0.024923353
0.07011547
-0.062206782
-0.051089842
0.011707861
0.027009787
-0.0064566177
-0.021315759
0.041952606
0.020124592
-0.00416974
-0.0015662822
0.003596495
0.02883279
0.058304645
-0.021412231
-0.008287895
0.0019923386
0.02101155
-0.024504168
0.007719135
-0.0371138
0.043719057
-0.025499843
-0.0094170235
0.005376856
0.014603787
0.008746454
-0.009470692
-0.017436394
-0.018952549
0.014816113
-0.008138924
0.010857109
0.007948417
-0.042176817
-0.0015325415
-0.014522879
-0.017214745
0.0028781204
0.0039449953
-0.0029596803
0.046099033
-0.015593199
0.028296506
0.034084853
-0.010627865
0.0057484014
-0.0076596774
-0.036247596
-0.006355993
-0.021876909
0.010948877
-0.03416811
0.03381398
0.0033894088
0.019041494
0.0068678022
0.011070207
-0.041991718
-0.004170097
0.040371444
0.021018023
-0.018374043
0.015228129
-0.0051315157
-0.019472396
-0.014707628
-0.010674541
0.012000983
-0.009565458
0.002599172
0.022075864
0.022633404
-0.012628329
0.0005711976
-0.04568351
0.0025870588
0.04086321
0.010357411
0.008058051
0.0141257085
0.055519827
-0.012070941
-0.008941357
-0.043525476
0.031463273
-0.037103355
-0.008813998
0.045996312
-0.0025425835
0.03567804
-0.0019058095
0.014488183
0.035497695
0.003614876
0.013237252
-0.0020047815
0.010854872
-0.002476973
-0.010976759
-0.028123049
0.013555473
0.026117593
-0.0115679605
-0.015496428
-0.0054351836
0.018000705
0.023315888
-0.00574943
0.019412521
0.0031348495
-0.0041113156
0.017326444
-0.010426951
0.005644687
-0.013242077
-0.003230132
0.041803796
0.039611768
0.015452321
0.0027089354
-0.00909618
-0.0026154725
0.026502512
0.016962254
0.014573631
0.010532684
-0.019685328
0.028545614
-0.0048242514
-0.011159709
-0.033870295
-0.005853541
0.013099013
0.031105654
0.014118461
0.0025303105
-0.014669476
0.047020856
0.0002213558
0.0063077663
-0.037261676
0.029233443
0.017882237
0.009132066
0.0075439033
-0.0001664036
-0.008237747
0.018523414
-0.00912107
0.046164047
0.00047045192
0.011731202
0.008395538
0.017926164
0.03034904
0.010474333
0.01548942
-0.04693392
0.0122192595
0.003549328
-0.019630963
-0.058734387
-0.013808331
-0.006124544
-0.010419591
-0.006975978
0.035531923
0.051260106
-0.024341946
-0.048896722
-0.052254084
-0.03465438
-0.020186653
0.02887118
0.025105791
-0.0058054873
0.033442825
-0.06345029
0.023851449
-0.016737048
-0.09265392
-0.056011915
-0.057512216
0.0019476877
0.010461496
-0.004726953
-0.04392798
0.031402335
-0.0448683
0.053669684
-0.013959467
-0.007844476
0.039910145
0.022475505
0.027312042
0.051406346
0.02075635
-0.03136835
0.01936886
0.04224444
0.038447894
0.09350948
-0.015752064
0.020700492
-0.016922798
0.03864761
0.034077335
-0.04917539
-0.0046823705
0.020229602
-0.07285784
-0.018507304
0.011421608
-0.016078109
0.04337556
-0.0176511
-0.030025847
0.0070661614
0.078265384
-0.01762584
0.038377173
0.02987911
-0.027417194
-0.04921648
-0.01312504
-0.05316533
0.04156504
0.06720454
0.068699226
-0.033384096
-0.019807654
0.018421499
0.0050077653
-0.06721708
0.07232292
-0.030680357
0.031631522
-0.008303847
-0.013056195
0.046580926
-0.011858302
-0.032137726
0.066359855
-0.03824201
-0.023617912
0.022449596
-0.050762195
-0.065936096
0.014719135
-0.04950204
0.0053408793
-0.038476832
-0.08097186
0.022600401
0.015843524
0.015657106
-0.0015006466
0.010009726
0.008198692
0.09898373
-0.051229943
0.020165952
-0.02266864
-0.03147094
0.005074078
0.0091223
0.019541591
-0.034811553
0.019703446
-0.010604953
-0.0064130193
-0.017847573
0.07520464
0.023179097
-0.013087694
-0.0011226477
-0.013617175
0.010306352
0.009238238
-0.04941237
0.030727305
0.02170575
-0.034762178
-0.016547225
-0.020420335
-0.025830979
-0.006117797
-0.001354929
-0.009508127
0.026179561
0.021539563
0.018906372
0.040821414
-0.011290343
0.0071635987
-0.035102166
-0.004245053
0.0008910097
0.014265451
0.0014339468
0.002817252
0.017778585
-0.031460598
-0.014292835
-0.002796301
-0.011415176
-0.014225211
-0.034970503
0.04900184
-0.025466131
0.020247012
0.008227397
0.053809293
0.021486271
-0.002682184
-0.022748977
-0.0072777816
0.03739787
0.016747281
0.02862492
0.016508538
-0.0041678254
0.014580612
-0.027156439
-0.05569021
-0.014950677
-0.0011424448
0.018090876
0.049007103
0.00093132904
-0.030790625
0.0036939569
-0.015059978
-0.008386783
0.016284028
0.025776159
-0.015386132
0.012207387
0.021895466
0.019994823
-0.0020090772
0.0276895
-0.032448288
0.053232916
0.028566252
-0.0037829548
0.0566077
0.03022131
0.008669701
0.03437352
0.0019502568
-0.0014487804
0.0046887877
0.039705064
0.049206458
-0.030280614
0.023860704
-0.017387308
-0.01312618
0.030636726
-0.00087181944
-0.05666909
0.017274773
0.031686798
-0.053501055
-0.0066496963
-0.04097372
0.025836494
-0.0005502385
-0.017541658
-0.014760889
0.025339507
0.021225888
0.0097512975
0.02675567
0.016546575
-0.056145683
0.020189693
0.04125263
-0.0019603611
-0.0043594646
0.007982897
-0.0024769488
-0.03551308
0.02967977
-0.01579961
0.03552943
0.013317841
0.070250094
0.003926075
0.0063602645
0.0066375914
-0.00911078
-0.035740927
0.00521523
0.025680693
-0.009948646
0.0009081696
0.027491312
0.015372576
0.028513046
0.012778177
-0.025265474
-0.022231147
0.027356863
0.01544388
-0.023694143
-0.0034882727
0.012693896
0.02933609
0.05570196
-0.0035548054
0.0075618834
-0.0021642118
0.032260075
-0.034759264
0.0051839394
0.03477988
-0.038831104
0.022968952
-0.03242996
0.008561919
-0.062003005
0.0025290588
0.031233251
0.029374195
0.005085786
0.009021409
-0.010057136
0.032443706
0.011533614
-0.028905384
0.037019618
-0.011041
-0.03238062
-0.033982076
-0.03409119
0.00916409
-0.015683416
-0.020267805
0.025942028
-0.028643692
-0.009479187
0.029551253
0.015749836
-0.017072119
-0.031678826
0.0033123733
0.02198033
0.012191609
-0.0070449794
0.035513464
0.016457876
0.034964807
-0.014120406
0.02251128
-0.031342264
-0.022461161
0.012677726
0.022324694
0.03756977
-0.00819884
-0.00013386372
0.0072527034
0.0052852724
-0.027530622
0.02740959
-0.024502646
-0.005673689
0.04215501
0.035318237
0.029840266
-0.014655338
0.00020095045
-0.027775954
0.015153096
-0.026243122
-0.0069846534
0.026255855
-0.023057055
-0.014499914
0.0028455597
-0.019553944
-0.0029364156
-0.012450989
-0.017737344
-0.025292117
0.017677687
0.014904148
0.017346425
-0.0063361577
-0.0014015503
0.024605513
0.031800184
-0.034613207
0.0017777928
-0.013579876
-0.010777233
0.015046685
-0.014941851
0.04166584
-0.02681752
0.0055034356
0.005148172
0.03072613
0.05613074
-0.0063536773
0.011270051
-0.02084655
0.022938529
0.015580349
-0.007569864
-0.037797395
0.009438059
-0.020543942
-0.0007741825
-0.012212582
-0.029733997
0.03334576
0.004702115
-0.022868443
0.026416264
0.014646593
-0.021673182
0.0017226975
0.045534726
0.02051942
-0.0015800644
0.03085272
-0.02410745
0.030190447
0.013807765
0.011228889
-0.003216942
0.02489441
-0.0070120576
0.054912657
0.018804818
-0.024689743
0.006442113
-0.018038537
0.0051329555
0.003511548
0.001383742
0.031286947
0.013939386
-0.01874211
0.0057296357
-0.0005813221
0.016177006
0.01485714
0.045227334
-0.0129976645
-0.016442487
-0.00018421757
0.02700702
0.013533816
0.029669518
-0.013440426
0.058957342
0.045769535
0.03494105
0.055921245
-0.01045032
-0.031333648
0.026194023
0.019839821
0.022604618
-0.00015711835
0.008506586
0.008001751
-0.0057271044
0.010216698
-0.002326076
-0.009552221
0.0039391033
0.00591711
-0.008521821
0.0067520575
-0.004428241
0.024764203
-0.026170429
0.0015306815
0.02781199
-0.012407693
-0.0006645684
-0.012950027
0.0003691581
-0.018406494
0.010577413
-0.010343693
-0.035427198
0.019152775
0.0119533995
-0.021141786
-0.026902491
0.022413347
0.0012207341
0.032123163
-0.0044154073
-0.0075750123
-0.0025869152
-0.013219446
0.029700346
0.034698017
-0.01622093
0.010329147
0.014243467
0.016188284
-0.0011059862
-0.03153245
0.044283237
0.010989448
0.011107229
0.047850803
-0.05729862
-0.048705965
0.014131176
-0.0074002566
-0.03632065
0.01190521
-0.05272565
-0.0105836345
-0.0035359792
0.0063032424
0.024778998
-0.02271024
-0.0751644
0.016837409
0.018233389
0.023688039
0.039575677
-0.0056053842
0.03718685
0.049628004
0.012010101
-0.0106894
0.020498935
0.06063983
-0.00492054
0.023674624
-0.03155824
0.004465052
0.013606895
-0.00022091651
0.020236092
-0.040077485
-0.018967245
0.013871489
-0.06672505
0.008710706
0.030385302
0.054095875
0.045815047
-0.0055515887
0.004976341
0.0048885075
0.017281523
0.0048362664
0.037679467
0.033621084
0.0065241843
-0.037990898
0.028124297
-0.029409382
-0.05388671
0.009399311
-0.00045796475
0.0017644512
-0.012040645
-0.013758681
-0.022397406
-0.01454312
-0.012192398
-0.008303981
0.029234571
0.0070101535
0.012392935
0.002260505
0.032037646
0.008827029
0.013354087
-0.025676683
-0.023635738
0.04292862
0.034561478
0.021620229
-0.022169441
0.003490735
-0.016767947
-0.034448713
-0.0012776296
-0.05282303
-0.02995159
0.0043200846
-0.011813036
0.03894079
0.0015022188
-0.026938695
-0.01126919
0.052269965
-0.044607807
-0.028036406
0.051246144
0.0069523347
0.018269002
0.026251556
-0.00067026494
0.016235871
-0.032479275
-0.020322425
0.0084839845
0.031148052
0.0052654115
-0.0046555004
0.013634166
-0.016931541
-0.03208762
0.04366969
-0.0018179003
0.029781764
0.03870154
0.039212253
-0.013808986
0.014620636
-0.0272535
-0.028281098
0.047923606
0.015981244
0.0009907158
0.0405183
0.0074546593
0.0108177615
0.02929449
0.028958434
-0.010349541
0.034413632
-0.025772234
-0.03556142
-0.012792659
0.020081367
-0.011062862
0.026548306
0.006907595
-0.019670041
-0.03057225
-0.0005038139
-0.041907024
0.006399098
-0.008183431
-0.039492905
0.029707583
-0.0259705
0.043158125
-0.037572667
-0.02978763
0.023388239
-0.018049756
-0.0026273231
-0.032595478
0.014206477
-0.015551517
-0.034137875
0.023676716
0.010209214
-0.036391284
-0.03758815
-0.019825228
0.0063482756
0.022440283
0.009477895
0.010070486
-0.019637145
-0.054759383
0.024068967
-0.02476676
0.04175858
-0.031487834
0.019165345
0.0146487765
-0.0022945474
0.003772293
0.0037746863
-0.003504223
-0.03317004
0.038984135
-0.009795238
-0.01309264
-0.08413382
-0.0137203075
-0.032586716
-0.047253016
-0.019058032
0.023864293
-0.018180175
-0.054393075
-0.031729717
0.025984641
0.014611866
0.019837283
-0.04842545
0.03914945
0.05093058
0.0470703
-0.07071108
0.022467863
-0.059587203
-0.04431371
-0.008420527
-0.03910881
0.045172278
0.023434484
0.06630427
-0.021334453
0.040914692
0.00868232
0.078925826
0.015637062
0.053438317
-0.06599434
0.085406184
0.055056076
0.006458437
0.032272507
-0.07279063
-0.0398797
0.011640973
-0.038615078
0.079782054
-0.0044891695
0.024251051
-0.022014337
0.12713341
0.0589844
-0.05819827
-0.003257457
0.002388235
-0.07220908
-0.044898868
0.027077457
-0.031856045
0.116439566
-0.04254946
0.008825344
-0.009341343
0.024766207
0.013176475
-0.055532128
0.007559016
-0.0072845197
-0.018612418
-0.03861183
-0.049868446
0.055208992
0.014426165
0.017266754
-0.011108965
-0.00019766751
-0.013931913
-0.05096075
-0.058471892
0.0475405
-0.027273381
-0.020129504
-0.019802285
0.03395663
0.025213704
-0.06156961
-0.010081033
0.03323989
-0.06463381
-0.05088151
0.033698242
0.0031807448
-0.05464769
0.055333883
0.013792535
-0.01395835
-0.04057072
0.017307537
0.011988787
0.021068469
0.0045701964
0.0029652114
-0.0031088644
0.028095713
0.0023122826
-0.03839594
-0.05967261
0.01001703
0.00809148
-0.03485248
-0.05993437
-0.042090185
0.008467613
0.051106546
-0.0037554116
0.029752841
0.026542664
0.017550731
0.014686973
-0.039822206
-0.054889925
-0.10656463
-0.022770917
-0.045824673
0.028894769
0.028152142
-0.060134284
-0.04743749
-0.10482856
-0.07636371
-0.05157901
-0.03752266
-0.073270515
0.032797515
0.052096646
0.05192277
-0.11063092
0.0040033828
-0.08992467
-0.04867079
0.008312612
-0.04815719
0.0065272097
0.004199212
-0.0017808251
0.029370524
0.096409425
-0.033029266
0.042369522
0.024782458
0.04236368
0.021573821
0.026411442
0.036125768
0.12742028
0.012016087
-0.044422667
-0.031186724
0.09470356
-0.012691373
0.034696948
-0.08956199
0.03801661
-0.044027664
0.10798202
0.060952164
-0.07373852
-0.014038812
0.011737941
-0.004126373
-0.032170884
-0.039257012
0.01120827
0.06598783
-0.025447953
0.07028429
-0.001235194
0.014491006
0.05241514
-0.013956745
0.03345713
-0.017541328
-0.05241898
-0.03943034
-0.10816829
0.07521576
0.0063656652
0.043873336
-0.032735538
-0.08120242
0.034168556
-0.048163086
-0.044395078
0.07048328
0.008687538
-0.019250143
-0.0017772834
0.057825197
0.0808639
-0.07719253
-0.0005551063
0.07586712
-0.04762624
-0.025478678
0.059202977
-0.021100324
-0.040953666
-0.025105895
-0.06869103
0.06277165
-0.02997845
-0.02164443
-0.018529553
0.011143712
0.01941101
0.031367898
-0.06263712
0.013868519
0.006838547
-0.016722158
-0.051994316
-0.0034929079
0.017128332
-0.008137862
-0.04432776
-0.046202525
0.04087709
0.06309687
-0.014106209
-0.035561685
0.0070496644
0.007247026
-0.011712741
-0.035771783
-0.004004592
-0.015931128
0.011489514
0.08721172
0.009854995
0.021084154
0.00048671878
-0.04518163
0.01396149
-0.04435295
0.0073237023
-0.017065853
0.017379837
0.0024606835
-0.004096693
0.006406773
0.03946201
-0.018308936
0.052724525
0.03229874
-0.036359362
0.028585117
-0.008426767
-0.00043197334
-0.0094924
-0.026918983
-0.018937083
0.0020377391
-0.015955428
0.033657704
-0.014589909
0.009599189
-0.03292217
-0.030764576
-0.018440073
-0.004468714
-0.012829252
0.009261157
-0.07246218
-0.0076685995
-0.032267105
-0.004128678
0.02002296
0.019091992
0.010644039
0.0062729935
-0.0116082225
-0.0051561138
-0.02222978
0.061694752
0.025310345
-0.027485766
0.018801669
0.010739995
0.016802136
-0.022727279
-0.031102732
0.046414718
0.056134015
-0.05638407
0.030348867
-0.014940399
-0.011482716
0.0013666289
-0.03029237
0.029032199
-0.029305782
0.017291125
-0.039261196
0.006297849
-0.025777519
-0.08465178
-0.015858276
0.055667512
0.006818988
-0.0075987238
0.06615604
0.0076362276
0.10148405
-0.036299184
0.0425675
-0.03878926
0.003509778
0.0039364453
0.019237595
-0.025211608
-0.06730836
-0.025186298
0.015299145
-0.006931757
-0.0638944
-0.023527512
-0.019426478
-0.002983352
0.029136436
-0.042942826
0.030915244
-0.0446174
0.021746513
-0.023382304
0.02045748
-0.035570614
0.024313327
-0.025910346
-0.03750578
0.010266957
-0.0016420388
0.052412044
-0.0358147
0.01586789
0.0019069548
0.054873236
-0.056037147
0.0044976645
-0.06323912
-0.028814137
0.0037306373
0.04158479
0.01295545
0.04786662
0.033533596
0.046434205
-0.11715494
-0.048159964
0.0022383318
-0.006994429
0.03841014
-0.046185456
-0.010972104
0.02384852
-0.06775993
-0.014883961
-0.01665147
0.02296962
0.021083433
0.023477912
-0.015755512
-0.019677186
-0.03533173
0.010123421
0.014411197
-0.004934756
0.035293844
0.033480983
-0.005023065
0.038128406
0.023765901
0.05596682
0.069202915
0.048391916
-0.022750836
0.017613752
-0.0008436127
0.010288953
0.053296454
-0.0321177
0.028932769
-0.0367281
0.06208337
-0.019395074
-0.0024283088
0.0138888275
0.029130505
-0.023914808
-0.045004874
-0.04754631
-0.040806804
0.017027564
-0.030110052
0.061746385
0.005478986
-0.042659033
0.026835453
0.017620627
0.06134012
-0.03682564
-0.03321387
-0.041955896
-5.0623043e-05
-0.06682823
0.019096568
-0.03963645
-0.011841745
0.017561
0.005584388
-0.0393397
-0.021610886
0.06584494
-0.065099895
0.047304858
-0.00095047016
0.04783804
0.006657598
-0.033463515
-0.01720083
0.02447269
0.040456034
-0.03718025
-0.0065108035
0.023452941
-0.03241245
-0.011155169
-0.0051272516
-0.02786517
-0.06357701
-0.0027720376
-0.030018657
0.033148877
0.027572935
-0.021568978
-0.0010675247
0.054014266
0.038837273
-0.030373624
-0.01287226
-0.04265487
-0.001693639
-0.015409096
-0.028243931
0.0053693536
-0.05092026
-0.03569988
0.03703581
-0.015998729
0.037743673
0.0065276474
0.011627649
-0.023684759
0.020539101
0.0062264004
-0.019720288
0.04060847
-0.03595908
0.031707317
0.040629465
0.01988317
0.033426244
0.0063257026
-0.04563066
-0.0028262844
-0.02176881
0.01627493
0.04228589
0.005916375
0.014263595
-0.0015907384
0.017274944
0.011936564
-0.052563496
-0.021900624
0.029296035
-0.005025858
0.011351842
-0.03182508
-0.03305055
0.036389913
-0.026859954
0.021742193
0.054061748
-0.009513181
0.02729534
-0.011802901
-0.027315423
0.016392602
0.022690367
0.021982934
-0.03597522
0.040365502
-0.0048088967
-0.02784325
0.013274168
-0.022038609
-0.062104426
0.024382688
0.01728331
0.030829443
-0.038487587
0.039451387
0.028156115
-0.025715167
-0.0070934985
-0.024913626
0.020110682
0.021859244
0.016069774
-0.015066047
0.012459957
-0.05296559
0.023438094
0.024847498
0.059707347
0.0486602
0.048837144
0.07247397
0.009800816
-0.094174735
0.010609872
0.08279188
-0.04398141
0.017863253
0.011940573
0.041919082
0.012859993
0.039547015
-0.00076282024
-0.0062266323
0.052204505
0.03886499
-0.024220245
-0.006728617
0.01416794
-0.09391697
0.013216541
0.0075148516
-0.03887144
0.020540547
0.03627051
-0.008227434
0.00062026235
-0.002413966
-0.0055616284
0.009856672
0.027988583
-0.022519715
0.04322698
-0.010271826
0.00017587915
0.026778078
-0.0050080586
-0.10495318
-0.003612922
-0.001581017
0.0035389978
-0.028994052
-0.0033780572
-0.010591979
-0.048911404
0.0035047128
-0.045907795
0.03655314
0.044339214
-0.06579143
0.061336063
-0.008178319
-0.025127023
0.01783592
-0.007930173
0.0062554125
0.007402176
-0.03427407
0.049592108
-0.0035565651
-0.02088984
-0.0008464549
-0.031473458
-0.020540854
0.059253506
0.039980322
0.034450684
0.009084913
0.019291222
0.043053027
0.007968846
0.022823079
0.01679203
-0.03873454
0.021988735
0.0043551805
-0.03479637
0.0026692639
-0.02936015
-0.071506195
0.028263459
0.015390949
0.025259227
-0.024710583
-0.025513297
0.051535666
0.017307974
0.024256835
-0.008756759
0.028852694
-0.0128998235
0.010635496
-0.024270613
-0.015882695
-0.05878094
-0.005126615
0.025987808
-0.025992632
-0.024152735
0.0752222
0.037535783
-0.011047075
0.024963664
-0.006666369
0.024751706
-0.019312691
-0.059073295
0.032024346
0.016981542
-0.04408629
0.03201267
0.00839283
0.021136163
0.021251492
-0.041325506
0.10429172
0.038991638
-0.032560736
-0.036184613
0.007990493
0.006766629
-0.035823066
-0.0133353695
0.060808655
0.030906042
0.011939733
-0.026546918
-0.024993524
0.048281543
-0.019861935
-0.022169387
-0.01638227
-0.035271354
0.0032425958
-0.016799318
-0.058595024
-0.065148324
0.06922128
0.029812876
-0.0073522907
0.0386609
-0.10740017
0.015611177
0.039303906
-0.0069637294
0.029043306
-0.012869774
-0.038398597
0.070198946
0.030052204
0.0063479496
-0.08830918
-0.047485046
-0.033822592
-0.0025176206
-0.045736436
0.06051042
0.048327446
-0.04460893
-0.0015394639
-0.033582356
0.09208478
0.042843305
-0.016453413
-0.013612499
-0.005794707
0.026463857
-0.01614198
0.027561344
0.008998089
-0.02697505
-0.02107543
-0.06283313
-0.029049544
0.029779112
0.0049995203
-0.00014694779
-0.0035417022
0.016576834
-0.022385355
-0.02882662
-0.012257645
0.009772236
0.048956927
0.011586098
-0.0073961327
-0.024427008
0.027981255
-0.029165624
-0.0056744535
0.006683824
-0.0045774216
-0.021826526
0.011413461
-0.038791306
-0.006605237
0.026424997
0.020890735
0.00029106336
-0.017866263
-0.035972513
-0.017932748
0.029803907
-0.0036410305
-0.04821637
-0.0059825266
-0.050306264
0.0050212396
0.03602525
-0.033301454
0.039700616
-0.031123675
0.024569774
-0.0071406253
-0.044145323
-0.0011709495
0.014941109
-0.0409805
-0.026438078
0.008681029
-0.006691922
0.004485066
0.014623739
0.0041907174
-0.042276315
-0.028710514
0.011906944
-0.01965967
-0.025057796
-0.040690757
-0.042766143
0.049992118
-0.014893161
0.01318668
0.011131899
-0.027396532
0.039361723
-0.02420651
0.029622482
-0.01503055
0.014009828
0.017288717
0.024457555
-0.04820883
-0.02440451
-0.029961566
0.029296769
0.010805646
0.00815807
0.004749176
0.016695252
-0.048619673
0.022661196
-0.0061905184
-0.0076980614
-0.01588954
-0.031645216
0.023518668
0.0011762425
-0.026307013
-0.03756395
0.008073754
0.0038362998
0.004755281
-0.007471119
0.042139467
-0.015436375
0.0035417583
-0.024680804
-0.009016007
-0.02203729
0.018669795
0.038782123
0.0029717877
0.0159457
-0.03911379
0.019906498
-0.049578607
0.02198765
0.013217895
-0.019418014
0.025668958
-0.017344061
0.0010698595
-0.033268347
-0.011855991
0.033668336
0.027065497
0.0061580148
-0.02365314
-0.030098297
0.00850115
0.011494086
0.024522806
0.10936975
0.014908445
0.024531677
0.0038090849
0.06390048
0.008654534
0.022374334
-0.019614667
0.05953149
0.009838782
-0.032573078
0.009423806
0.022317706
-0.034584932
0.073167466
-0.008555184
-0.004849085
-0.043892816
0.054629058
-0.019388834
-0.02098794
0.021551361
0.047699846
0.010131501
0.012650839
0.013815439
-0.013107395
-0.018677803
-0.064672634
0.02719416
0.009149713
-0.027737996
-0.067339666
0.060362387
-0.011768719
-0.019263992
-0.026518902
-0.0055331946
0.030048732
-0.0062695374
0.035337973
-0.023097722
0.030006321
0.034523785
0.016024701
-0.0071058646
0.009804278
0.017895736
-0.014760891
-0.012928168
0.04774205
0.0145467175
-0.0012777112
0.023279332
-0.049971204
-0.013704117
0.018131396
0.012608287
-0.036555417
0.031093752
0.040677037
0.019036584
-0.03219263
0.006398293
-0.010299599
0.029227082
0.010955481
-0.008524719
0.012857301
-0.0068701007
0.04920123
-0.03420399
-0.011803227
0.009290907
-0.026421897
-0.03275585
-0.06447952
-0.027672436
0.028268546
-0.022725072
-0.015987296
-0.026379261
-0.0137743475
-0.0019358841
-0.02307177
0.04161968
-0.03597282
-0.015611489
-0.029834023
0.026776413
-0.0102109015
-0.058859125
0.042962413
0.0055400836
0.025222963
0.0036831507
-0.030524025
0.028922405
-0.01758729
-0.033481676
0.005438112
-0.07841078
-0.039456062
0.079939
-0.045826335
-0.12303646
-0.053831186
-0.021415483
0.020039601
-0.05587925
-0.15177576
0.051741194
-0.036967833
0.031128624
-0.035881747
-0.041790515
-0.056250412
-0.05681171
-0.10888961
-0.0841378
-0.110093474
0.020802395
0.000631778
-0.03260586
0.02785824
-0.058844324
0.0629669
0.08285376
0.018607538
-0.1341794
0.09651613
0.08329013
-0.033468574
-0.0023024424
-0.12591434
-0.06324435
0.025735272
-0.07286869
0.0674759
-0.012913478
0.037643112
-0.029842546
0.1564173
0.033082616
-0.042009473
-0.00084992615
0.07266742
-0.14778158
-0.018517565
0.03872505
-0.03592196
0.15754506
-0.010455207
0.0062889666
-0.007003526
0.012725763
-0.015308358
0.06768564
0.024898661
0.023538008
0.0041893907
0.014341312
-0.01726373
0.017771494
0.008521656
-0.05818305
-0.001753696
0.043894287
-0.039419528
-0.049554013
-0.019523673
0.06175328
0.0059006833
0.052902486
0.00837412
0.050450206
-0.020481925
0.020833448
0.026960544
-0.0016676489
-0.0019189251
0.0031868368
0.040064123
0.026465315
-0.038929757
0.009120771
0.038170785
-0.043006845
-0.0057324967
-0.053159837
-0.011047892
0.02985399
0.01282186
-0.063698165
0.0070324214
-0.015107432
0.005000318
-0.023115965
0.043878242
-0.028020361
-0.011098811
0.02310235
0.07064861
-0.0019340406
0.01717018
-0.01932762
0.0030022396
0.03633659
-0.00015493682
0.045993008
-0.061772037
0.04507898
0.046995964
-0.002497001
0.00010500931
-0.0133871855
-0.076717585
-0.0027052248
-0.011124684
0.009743148
0.027670432
0.06470588
-0.04481068
-0.032467246
0.046016086
-0.0037904908
0.019577159
-0.031258702
0.06817025
-0.022341568
0.007825231
-0.017394718
-0.031289764
0.06859087
-0.023905896
-0.026637835
0.009992954
0.029956475
-0.06016236
-0.012752504
-0.026571805
-0.051518068
0.029781926
-0.026280718
-0.0058395807
0.017038412
-0.027663184
-0.021749929
0.007897012
-0.002547413
0.010025277
-0.004184413
-0.028979456
0.05276883
-0.010315584
-0.027404308
-0.02584838
-0.027488308
-0.043600578
-0.052198105
-0.07417811
-0.009739336
0.018179417
-0.019801704
0.033581242
-0.061732993
0.035779305
0.05977252
-0.08443924
0.014681685
-0.036635634
0.030437164
-0.019495336
-0.02198013
-0.027699219
0.07647782
0.01832109
0.07717312
0.040436428
-0.045292284
0.0068324287
-0.05155359
0.034768727
0.061098915
-0.036256824
-0.003965592
0.036921084
0.017081019
-0.003386239
-0.0325767
-0.03455659
0.07006829
-0.041058354
-0.021502202
-0.021497855
-0.035270322
0.029898446
-0.047715962
-0.10990529
0.056816384
-0.0073880977
-0.04383972
-0.012032037
-0.02980623
0.0031365023
0.0047224523
-0.003647862
-0.011449487
-0.0013777799
0.018629204
-0.02538405
0.0060508098
-0.031852283
-0.030679373
0.026804581
0.067756034
0.06493467
-0.07832122
0.05212839
0.05444677
-0.010925004
0.030684972
-0.03303873
0.010474237
0.027003216
-0.034680795
0.015081297
-0.051112194
-0.027960524
-0.013267355
-0.009487565
0.009309662
0.02432032
0.011745742
0.045728307
-0.04234797
-0.05928734
0.0042067026
-0.05417136
0.038298655
0.022350078
0.027298497
-0.00396903
0.084323615
0.011738281
0.017491857
0.009505408
-0.0010705926
0.0056162775
-0.0102613
-0.011748136
-0.013180766
0.014911954
0.046680164
0.0023301833
-0.03708248
0.028302606
0.08619712
0.051064424
0.02803481
0.024013601
0.03412072
-0.02091812
-0.004213645
0.041061886
0.038695186
-0.025552608
0.014285045
0.034839246
-0.052939087
0.023853155
0.037708897
0.0060412316
-0.015735077
-0.04202923
0.041193236
0.017541017
-0.035676874
0.022413751
-0.022850344
0.016599193
-0.020666484
-0.015061363
-0.08213707
-0.058452643
-0.009146188
-0.057228282
-0.04795773
0.12473077
0.05150142
-0.061372075
-0.020660922
-0.015899071
-0.09947565
0.047226083
-0.06903266
0.04419847
0.009693481
0.050427064
-0.07393438
0.016350925
-0.0764997
-0.079321995
-0.0520574
-0.07706424
0.054761384
-0.030772574
0.028632049
-0.0355111
0.019838525
-0.022471242
0.03471287
0.00366062
0.06516288
0.0064562494
0.10982584
0.06448609
-0.00064626907
0.05576857
-0.03397791
-0.0003007269
0.056786653
-0.0048249285
0.027142586
-0.036114138
0.08175699
-0.038812686
0.08598865
0.05519415
-0.06897529
0.010353914
0.0019261502
-0.11495779
-0.09947804
-0.008258361
-0.055743486
0.07353827
-0.07714529
-0.026611306
-0.021192707
0.05681449
0.015625568
-0.06719386
-0.0008853887
0.008394324
-0.12785758
-0.01907029
0.03260343
0.0800003
0.07554754
0.0041172034
-0.0375963
0.013633274
-0.0054071425
0.018963248
-0.031684216
0.07018492
0.03275475
0.030609595
-0.016618391
0.027557706
0.11184364
-0.010220671
-0.020433504
0.012509823
-0.050594445
-0.048271205
0.03384119
-0.094026186
-0.13094419
0.028966883
0.012527984
0.016428864
-0.014911739
-0.054833747
0.010442307
0.04662365
-0.035091855
-0.00915053
0.012151665
-0.03367606
0.037663188
-0.059536424
0.013164061
-0.11396772
-0.016276682
-0.007237797
-0.08167599
-0.05827712
0.026568964
0.10377199
-0.030967893
-0.013074451
-0.014144382
0.057842005
-0.06552951
-0.0012945035
0.014290438
0.02630121
-0.030997694
0.017389785
-0.019521613
-0.026322134
0.018042006
0.014977731
-0.0022255979
0.05440537
-0.035566587
-0.052298535
0.042552747
-0.008492383
-0.028307894
-0.035639223
0.008195655
-0.044834547
0.03242872
0.027718835
0.050725542
0.046017937
-0.0349599
0.0032164315
-0.024897046
0.032874152
-0.036332265
-0.009250892
0.013082932
-0.06242844
0.015221435
0.027414003
0.0071624476
-0.01620692
0.039905466
-0.0009916808
0.014204591
0.020369466
-0.007288557
0.050766967
-0.03659582
0.018650517
0.010475697
0.007319903
-0.026152615
-0.040000916
-0.03582768
-0.039366845
-0.002128852
-0.03462168
-0.029808044
-0.035678416
0.058317564
0.0036585422
0.027964786
0.041077312
0.04819652
-0.038056497
-0.03863703
0.029632373
0.054372795
-0.007068492
0.011775885
0.083256416
0.03832387
0.03573243
0.033080373
-0.03593845
0.035194106
0.03455974
-0.02809705
0.019881327
0.0345381
0.0007469792
-0.01085278
0.007819144
-0.012659387
-0.028102258
0.020285897
0.06860147
-0.017975258
-0.008560329
-0.010772813
0.008907929
-0.010342754
-0.050273854
-0.023589563
0.033921015
0.030662654
0.041896943
0.015150729
0.0060764644
0.015904149
-0.021634942
-0.03117163
-0.02951888
0.05625282
-0.017071033
-0.015991418
0.026532529
0.007812524
-0.01968508
-0.01710376
0.010455179
0.05605437
0.02069511
-0.035308845
-0.07328543
-0.012773225
-0.032384764
-0.029024838
0.054129712
0.002755645
0.09774501
0.0037389426
-0.016814
0.041187964
-0.030260157
0.00560629
-0.040258717
-0.008638741
0.026577717
-0.06477041
0.0014438907
0.01640361
-0.043780345
-0.00633992
0.00760324
-0.020877367
-0.004711812
0.038739953
-0.026931642
-0.02461119
0.015266266
0.06641238
0.010038484
-0.04853252
-0.0050184745
0.044000544
0.07014741
-0.065895595
0.066018626
-0.0020616737
0.024368752
-0.009079578
-0.03204101
0.03423327
-0.046891227
0.0763369
-0.08724223
-0.00042463513
0.021862956
0.04354217
-0.00845439
0.023526018
0.015972735
-0.020766754
-0.010715054
0.059455212
0.027524183
0.015578462
-0.0369517
0.011376802
-0.017804496
-0.060805358
0.04858058
-0.04610719
0.005966641
0.026286513
-0.042149484
-0.06754444
0.011553197
-0.021711404
-0.023715004
-0.031174699
-0.05094838
0.03696406
0.06416864
-0.0062967762
0.08172181
-0.027152544
-0.04691847
0.0292114
0.0050212946
0.01149244
0.011932941
0.02469237
0.06454848
0.08492406
-0.015323577
-0.015381645
-0.02443331
0.0151228495
0.005924492
-0.010941142
0.0122480225
0.010607108
-0.010986016
-0.019108675
-0.025341766
-0.09199629
0.0075932834
0.03073336
-0.05479937
0.01922158
-0.0026690203
0.04095753
0.02281852
-0.021208622
-0.0021939478
0.039239336
-0.013755169
0.05369332
0.05755874
0.051015634
-0.064034306
0.020887503
0.002491156
0.03885559
-0.07484995
0.036881164
0.046848428
-0.036906637
-0.011209546
-0.008142429
0.0027526647
0.017200911
-0.05034311
-0.019402724
-0.0024137988
-0.010650086
0.0030942748
-0.026969435
0.08079734
-0.028781738
-0.07294118
0.037456334
-0.002063873
-0.038685527
-0.005600168
0.023691643
-0.020906873
-0.014694037
0.012448329
0.026365759
-0.0053215595
-0.013132464
0.0060012117
0.008392708
-0.047632195
-0.0013490167
0.03671171
-0.005623887
0.070880346
-0.03150295
-0.020683374
-0.0014515937
0.03672299
-0.024617268
-0.02400088
-0.015051225
0.04337016
0.013423486
-0.019036233
-0.05781979
-0.026785476
-0.020903394
-0.040786874
0.010686518
-0.018425986
0.0066270023
-0.051846813
-0.01190311
0.025040545
-0.02479045
-0.032320652
0.021767551
0.04687715
-0.020365493
-0.0016004898
0.0068158004
0.04363104
-0.016508015
0.0058029145
0.04665383
-0.0053317514
-0.012025834
-0.023060787
0.0683584
0.025992652
-0.0032343294
-0.01401592
-0.0031317775
0.030918153
-0.006427865
0.0068908776
-0.009186523
-0.018767186
-0.036756437
-0.024025146
-0.0048299115
0.0450726
-0.020876516
0.051102713
0.00060448825
0.019435927
0.07265267
-0.027437536
-0.0024341021
0.047264386
0.014822584
-0.05705599
-0.008832394
0.023137113
0.023249619
-0.0053125042
-0.011771805
0.0030938645
-0.028156335
-0.0822543
-0.02329485
0.01258885
0.0007210312
0.011085299
-0.013017392
-0.032742303
0.019078119
0.0125969285
-0.07297323
0.012935937
-0.002072913
-0.009874244
-0.0006866928
-0.04827274
0.06381744
-0.01913823
0.029900432
-0.018230857
-0.0434387
0.06786432
-0.075411245
-0.024691409
0.05223328
-0.007484467
-0.041308794
-0.022151042
-0.058253765
0.050807487
0.019182129
-0.015813947
0.022588057
-0.017795118
-0.044608116
0.021635376
-0.0028060686
0.036033537
0.0042568124
0.032696806
0.018780148
0.040306643
-0.0033811529
0.026064673
-0.009540546
0.0066991113
-0.043199763
0.012769789
-0.0077252244
-0.066090815
-0.013199965
-0.032816924
0.015048488
-0.047902282
0.010671243
0.010155469
0.017319316
0.031304926
-0.0036860476
0.079454236
0.02692882
-0.0026362974
0.019803025
0.0081390375
-0.051173903
-0.017186318
0.0057633375
0.03137028
0.02190616
0.017688468
-0.03656734
0.02547436
7.131341e-06
0.022280084
0.03669417
-0.016940257
-0.00061808084
0.010681618
0.024723925
-0.008928434
0.04458828
-0.036703777
-0.00054953893
0.00085016567
0.037557013
0.00032229992
0.068062834
0.061804555
0.0021354165
-0.042005204
0.015216725
-0.02467741
0.014680295
0.0037348068
-0.009800083
-0.022799537
0.008493948
-0.039296273
-0.053709317
-0.018795986
-0.005750421
-0.007339843
-0.053223997
0.0019389609
0.047712274
-0.033705793
0.028228115
0.018502174
-0.034647394
0.04469169
0.1150986
-0.04747566
-0.018454138
0.030136246
-0.011975905
0.0034729238
-0.012738451
-0.057215568
-0.013057129
0.03722621
0.007950311
-0.00049244164
0.002253724
-0.0401892
0.014376311
0.049032003
0.009342723
0.039067935
-0.014706161
0.03962818
0.015374246
-0.038985785
0.02653661
-0.026642688
0.03369356
-0.014051765
0.07416055
0.043580115
-0.0039969576
0.015526551
-0.0012636521
0.029739587
0.05363683
0.024430437
-0.06445298
0.00120555
-0.052677687
-0.0018033433
0.07057752
-0.0058966703
0.021196337
-0.0015846288
-0.03481311
-0.011248209
0.015899548
-0.02267952
0.009517255
0.010040365
0.024986027
0.03017956
-0.026165243
-0.009692158
-0.014556065
0.033956133
0.0315796
0.022613853
0.013712722
0.046629567
-0.018182788
-0.020428428
-0.03589435
-0.0058919536
0.021192733
-0.06218518
-0.009274322
-0.0109189
0.006195452
-0.01412172
0.01540678
0.019310117
-0.021220556
-0.03510749
0.021707
-0.027774276
0.008413491
-0.0018837324
-0.008296208
0.03074972
0.002723833
0.0010323836
-0.0021798494
-0.02178691
0.020434948
0.036022633
-0.025068698
-0.034458622
-0.036316026
0.028206784
-0.09116005
-0.012723152
0.064724684
-0.04733381
-0.06028876
-0.022386113
0.02598793
0.0024344742
0.02306008
-0.09144696
0.035874836
0.026265875
0.005068039
-0.025004981
-0.008760327
-0.061177652
-0.059923094
0.040626124
-0.11363673
-0.07743053
0.019470308
0.06391971
-0.0069137337
0.008338108
0.039826944
-0.035214588
-0.035110265
0.031557605
-0.11935554
0.04151516
0.035489067
-0.015625771
0.040626965
-0.073967
0.0041622357
0.033837415
-0.07232601
0.059741452
-0.025984732
0.038726907
0.015151612
0.043199237
0.04433526
-0.022931753
-0.066170044
-0.019232292
-0.03430793
-0.03770803
0.0046165516
-0.044538546
0.095571995
-0.02306055
0.0102749765
0.018261276
-0.0037639213
0.00081304985
0.0037735344
0.018872773
-0.012301289
-0.0060702227
-0.0002961786
0.012348955
0.008005259
0.021122873
0.027784865
-0.056939345
-0.01036273
-0.01712421
-0.019571777
-0.006635379
0.012667593
0.019131627
0.036036357
0.0065162266
0.01076944
0.088581115
0.013161104
0.039585933
-0.011285228
0.03890051
-0.003775276
-0.005134485
-0.043945156
-0.01989342
-0.006689648
0.06449031
-0.018977787
0.02259457
-0.0032427164
0.006065109
0.021389343
-0.030115295
-0.0024903002
-0.019018743
-0.07825948
0.040666528
-0.019021494
0.0063511925
-0.029852403
0.010118263
-0.056003198
-0.07812132
-0.07590519
0.031048065
0.026323186
-0.02316685
-0.052769028
-0.0010948078
0.023240918
0.053638846
-0.02133483
-0.042985726
-0.11691942
-0.048453424
-0.04962192
-0.06846955
0.041089933
-0.12382994
-0.020164909
-0.090494126
-0.028125197
-0.011746478
-0.08601135
-0.0913332
0.086892456
0.010199326
-0.033087056
-0.009565089
-0.007611122
-0.10890225
-0.017767347
-0.011661956
0.0012677243
-0.06760839
0.04582799
0.031183418
0.028779361
0.029919466
0.00043576653
0.021325622
-0.020497676
0.041726537
-0.013101705
0.026505036
0.072275184
0.004145219
0.041367605
0.011361692
0.00026510813
0.05252591
-0.050801385
0.06317414
-0.08651171
0.02591364
-0.035701033
0.11640724
0.04972508
-0.03580475
0.016659275
0.034142774
-0.02805662
-0.039023273
0.0240186
0.0047615245
0.069713466
0.0024991422
0.010968816
-0.024425924
0.025816975
0.049159613
-0.06294324
0.037137598
-0.016362943
-0.036720183
-0.06892274
-0.012198818
0.041991964
-0.032658085
0.07529522
0.003933851
-0.06758995
0.06696378
-0.01126441
-0.039380573
0.075991884
0.079210125
-0.03357145
0.023979194
0.056248873
0.101529
-0.080677435
-0.0028565386
0.057927344
-0.014754429
-0.023183176
0.031713333
-0.045231782
-0.018036284
-0.057205845
0.007851105
0.009573056
-0.015742388
-0.037491243
-0.040162697
0.01535062
0.024047688
-0.00973942
-0.037504323
0.006784694
0.004989412
-0.029872008
-0.022386424
-0.012571057
-0.025877988
0.024409208
-0.050264228
-0.021724356
0.036370296
0.061670832
0.0013334185
-0.043710735
-0.023890259
0.03578743
-0.0006692198
-0.030568307
-0.000829327
0.025829675
0.0016106642
0.08390837
0.018896146
0.06285492
0.04799948
-0.03919768
0.012917645
-0.008616528
-0.035757948
0.024741989
0.0073536616
-0.0060543856
0.01639139
0.004188478
0.04626582
0.000427135
-0.010278031
0.013651119
-0.0031600294
0.030571293
0.0021908567
-0.0019011054
0.0062107085
0.013063839
-0.046935994
0.0095224
-0.022174636
0.007524877
-0.027029857
0.0049429964
-0.0047868337
0.009911786
-0.036626186
0.029180564
-0.02904396
0.0035905188
-0.02576373
-0.038495395
-0.032192998
-0.014776023
0.048111334
0.02294502
-0.03460433
-0.0087146275
-0.045908436
0.012254885
-0.012098876
0.098276995
-0.019697381
0.0032613503
0.008257101
-0.036385357
0.09765107
-0.041786738
0.040595405
0.013930861
0.039446604
-0.022199407
-0.023833998
-0.04142944
0.048504878
-0.0209049
-0.025723893
-0.042638097
0.0009125999
0.022340892
-0.06271299
0.048334245
-0.049293745
0.02320816
-0.03841613
0.024090897
-0.054176223
-0.007876463
0.028486433
0.018589182
0.015871009
-0.025080401
-0.03388938
-0.047731172
0.0300706
-0.06880229
-0.04078303
-0.04310722
0.0733112
-0.008221202
0.006328907
0.04953341
0.0047269803
0.0645679
-0.014229316
-0.03968738
0.006692469
-9.105428e-05
-0.017366655
-0.07777234
0.01567523
-0.014903579
0.04088848
0.021457195
0.030922899
-0.03418573
-0.059597343
0.00833271
-0.016230244
-0.014751486
-0.04025056
0.028815785
0.0032688933
-0.027748195
-0.032766156
0.0008104533
-0.084034875
-0.06873952
-0.06009885
0.017007882
-0.054981563
0.027038898
-0.014712902
-0.011594483
-0.035711072
-0.012360615
-0.043119732
-0.032793645
0.010448829
-0.005006306
0.00014650739
0.013626457
0.02457169
0.016096627
-0.042398155
-0.06485426
-0.013663435
0.016487258
-0.03442949
0.011726991
-0.012864392
-0.007898344
0.03389725
-0.04871934
0.0038885025
0.02973652
0.03071817
0.06236944
-0.030810503
-0.0056656757
-0.0377286
0.044948913
0.014720414
-0.008715945
-0.003708661
-0.011885582
0.028099505
-0.011180361
0.042251986
-0.008761687
0.033424128
0.0012965635
-0.04864999
-0.028706163
-0.01826854
0.0019891367
-0.025292251
-0.031199584
0.01013128
0.008063681
-0.023487926
0.012930147
0.03340322
-0.038069222
0.034023177
0.024170611
0.035792496
-0.00050522655
0.010165186
0.005086513
-0.045350544
-0.06275604
0.03775803
0.027082019
-0.0038899567
0.055571686
0.0003119413
-0.010427124
0.031379014
0.0228004
0.0064318865
0.04633628
0.009168203
0.054477524
-0.0010539162
-0.037548285
0.04685655
0.028052785
0.060170274
-0.05796375
-0.016782813
-0.03681356
0.005218948
0.012475556
-0.007150654
-0.039587013
-0.056518205
-0.0031343957
-0.040753625
-0.025478022
0.023671305
-0.070784666
-0.005425539
-0.0064239376
0.033913553
-0.004328391
0.026345022
-0.0007957379
0.013108856
-0.056432217
-0.073087476
-0.042276736
-0.00971
-0.013734492
-0.006748743
-0.01500632
0.045682438
0.03327832
0.021613754
-0.04835834
-0.040709265
0.00071946665
-0.012046963
-0.012578952
0.016861312
-0.013191159
-0.016006622
0.015602006
0.021878252
0.027852122
-0.016401006
0.04917583
0.007647153
-0.0013992306
0.034021445
-0.0018326005
0.002510003
0.037905455
0.003911012
-0.018495064
-0.0077937017
-0.044133134
0.027090427
0.0016768167
0.031563114
-0.007755367
-0.031912442
-0.014386112
-0.05594881
-0.031163257
-0.010188305
0.028903322
0.009671704
0.017406503
0.014374459
0.03346326
0.008231782
-0.03270961
-0.0077274996
0.03440292
0.021042556
-0.028686605
0.054534044
-0.03936209
-0.07583448
0.036304243
0.07139298
0.030167585
-0.098494925
0.01174082
-0.007852014
-0.04720766
0.01679392
-0.0018816382
0.028274905
-0.056764226
0.04577893
-0.056845766
-0.010102046
-0.031417448
-0.004412787
-0.026665326
0.02120545
0.058510967
0.036872737
0.03442267
-0.026179822
-0.049357597
0.037586655
0.027441835
0.007889058
0.020932397
-0.0159821
0.026767273
-0.012796858
0.002873098
-0.024185715
0.032904826
0.034853853
0.05560495
-0.0022668978
-0.005952293
0.03574658
-0.028580815
0.021748228
-0.0020566655
-0.004986937
0.006078557
0.06913474
-0.025776587
0.0059912754
0.0009099205
-0.0066657565
0.04042441
-0.0004956854
0.007465094
0.05492235
0.0036956593
-0.018147575
0.0040089907
-0.002616509
-0.026842639
-0.024732
0.023741707
0.03361745
-0.037571203
-0.034055836
-0.02524587
-0.006117216
-0.066674285
-0.088520095
-0.0024288313
0.028393561
0.011186359
0.062650666
0.050033413
-0.046392407
0.0010548441
0.015566664
-0.0018222993
-0.00070557796
-0.029548375
0.068783335
-0.016779222
0.054913264
0.037925757
-0.04305255
0.021937164
0.025546262
-0.011143939
0.0771061
0.052840464
-0.002497762
0.054401867
0.0011872504
0.10562236
-0.039004043
-0.019940801
-0.02231842
0.022493696
-0.035112157
0.032291885
-0.037515946
-0.044530593
0.018045012
0.025291631
0.039572414
-0.04920404
0.013555698
0.047353454
-0.007467418
-0.030610753
0.063255094
-0.020938093
0.014425963
-0.018839533
-0.039855268
-0.0008322047
-0.049182378
-0.004133005
-0.005570006
0.017810063
-0.024083812
0.083290525
0.042960152
-0.055629436
-0.053822428
-0.018639106
0.026372151
0.023451194
-0.0331259
0.04666473
0.045228045
-0.053053867
0.06413046
-0.025881832
0.036836363
0.055823766
-0.03778724
0.074893884
0.017057871
0.012575821
-0.045220308
-0.0014761453
-0.0009694154
0.032556646
0.045102295
0.036898054
0.06202074
0.03889554
0.018525857
-0.046428617
0.054759104
-0.021077832
-0.020912746
0.015634624
-0.057024557
-0.04537394
0.011098711
-0.039055504
-0.027140833
0.07498644
0.0004299183
0.053536084
0.025478603
0.028873177
0.065043435
-0.0005367367
-0.04226118
0.07863676
0.021632127
0.014748939
0.06026134
0.051335543
0.040156
-0.111120924
0.036635973
-0.014672297
-0.023421213
-0.07862058
0.071658134
0.054549046
-0.043537978
-0.030591171
-0.04992586
0.027032956
-0.0068528866
-0.011036189
0.024601515
-0.013485922
-0.030678006
-0.018381068
-0.045852657
-0.0031774414
-0.017720506
-0.040399794
-0.0011174544
0.010443517
0.06761353
-0.02939347
0.038273145
-0.029582076
-0.02367919
-0.0050907475
0.03811335
0.031800896
-0.0222949
-0.02557849
-0.016850708
0.035767887
0.0073738038
-0.012544698
0.006142347
0.0012079489
-0.04057172
-0.00510045
0.039908584
0.02714343
-0.056077547
0.0010267039
-0.0241423
0.019136686
-0.044747297
0.006702273
-0.0112918
-0.0098092705
-0.048912387
-0.035019998
0.02306662
0.029191362
-0.026673213
-0.02278921
0.018276896
0.0008809077
-0.0031988043
0.0024224136
0.010900335
-0.0106263645
0.003968134
0.065282986
0.044937335
0.0038383645
0.0066450587
-0.024800021
0.001259469
-0.017345605
-0.0154252015
0.00081604073
-0.026318027
-0.0034771552
-0.028785666
-0.010615386
0.015018474
-0.06938526
0.005401044
0.0024489698
0.011234291
0.0115808
-0.0018409394
-0.032224305
0.020945445
0.024400182
0.013195934
-0.0014730435
-0.04587822
0.013835919
-0.012851654
-0.0025198269
0.03286842
-0.013829396
-0.0054472345
0.033482265
0.026919425
0.045606833
0.015154808
-0.021282732
0.056189205
-0.03708989
0.012959132
0.0005424481
0.03938984
0.018535677
-0.01976259
-0.035355803
-0.00083212066
0.025033101
-0.010416665
-0.035472702
-0.02631978
0.073399745
-0.029705115
-0.021210432
-0.0086028855
0.031973105
-0.02152326
-0.026657669
0.008885006
0.012112023
0.025920251
-0.027574819
0.03635345
-0.060315773
0.05558605
0.03805045
-0.06628037
0.014746073
-0.05047467
-0.040152535
0.006535474
-0.020445438
0.033805408
-0.016063774
0.07420448
0.016572475
-0.028057985
0.022395074
-0.024502087
-0.009606107
0.047659602
0.014450198
-0.020524489
0.009406285
0.0111596715
0.060616795
0.020767642
-0.012098887
0.005971843
0.0067434064
-0.056036588
0.017654208
-0.04512929
-0.089437984
-0.021683263
0.004267204
-0.022525026
-0.0077354317
0.0019089772
0.0073045627
0.0012954896
-0.022572076
0.043903295
-0.06383059
-0.020312753
-0.008068764
0.016873304
-0.0074333125
-0.09984328
0.0029151165
-0.05082874
-0.019194784
-0.024571115
0.04133996
-0.011406429
-0.034240086
-0.057997044
-0.00940997
0.05896919
0.0007342538
-0.00192107
0.002250521
0.012679136
0.026320888
0.03951227
0.013802955
0.07044651
0.03513547
-0.0029733242
-0.007256403
0.031002963
-0.005917776
-0.0042956364
0.045499638
-0.04517447
-0.05212695
0.009610926
0.031384785
-0.04722895
0.00732971
0.021529663
0.058352612
-0.012380436
0.016786782
0.0069443355
0.015828155
-0.0064888084
-0.00040857674
-0.024878902
-0.019130865
0.021466454
-0.044426553
-0.0009816
-0.02245464
-0.03730816
-0.046844743
-0.045246817
-0.061627325
-0.014688771
-0.07031967
0.005244112
-0.030930687
0.02757291
0.011331404
-0.00937438
-0.0029302859
-0.034072068
0.044173524
0.015783578
0.021433886
-0.006187261
-0.018847521
0.025368562
-0.040828004
0.023165513
0.024517423
-0.04508924
0.016654223
-0.012026627
-0.057585593
0.013570897
-0.10455571
-0.020960608
0.021078974
-0.085591756
-0.12585092
-0.10769285
-0.06400692
0.02765893
-0.02583407
-0.14448033
0.03198933
0.01485152
0.018231755
-0.023021031
0.030892918
-0.0032372768
-0.009653863
-0.029396385
-0.07686421
-0.12372388
0.09587371
-0.0006052134
-0.03588978
0.06587713
-0.01723116
0.0075661535
0.048792005
-0.014452501
-0.044138268
0.045428403
0.074083395
-0.08095416
0.013242088
-0.05890671
-0.016581072
0.017352607
-0.033253565
0.0029720736
-0.0050597005
0.036199223
0.0133338105
0.09454504
0.029628979
-0.047382124
-0.021315336
0.038595133
-0.12647597
0.008914342
0.10059013
-0.040010978
0.14275603
-0.008330595
-0.019059945
-0.0036982715
-0.056766894
0.020603385
0.013650185
0.04108942
0.01136673
0.009804923
0.059167042
0.02131785
0.03473649
-0.012451947
0.011803195
0.045239057
0.044291977
-0.07482311
0.027682606
0.042199068
0.0004898082
0.014131162
-0.017242268
-0.011266655
0.0431579
-0.011957167
0.022466885
-0.003999281
-0.025636936
-0.03505623
-0.010039806
0.013933999
0.052846447
0.037464824
-0.029046161
0.03104416
-0.06420219
0.03138092
0.035966873
-0.0019465085
-0.005047894
-0.014412636
-0.024713049
0.012477913
-0.022415977
-0.013730384
0.010372467
0.021051576
0.015446819
-0.038100984
0.047358092
0.03668343
-0.022123089
0.044427812
-0.03517326
0.030886706
-0.02925541
-0.005701465
0.045118384
0.0039607426
0.023938503
0.0135772135
0.02503257
-0.03780595
0.048698455
-0.05656065
0.031464577
-0.017847283
-0.035317257
0.009521076
0.0118964985
-0.054019116
-0.02731591
0.0343338
-0.014381363
0.039151933
0.0015008998
0.014355223
-0.017521324
0.03863221
0.022170004
0.016933579
0.047057375
0.02042807
-0.023699889
0.031161461
0.054226656
-0.066642486
-0.0017921913
-0.06534389
0.014275767
0.030407675
-0.020228712
0.032763146
-0.04415733
0.03092762
-0.024614338
-0.0064864852
-0.032697313
0.024689808
0.010993657
-0.06136483
0.037546873
0.016517008
-0.031221017
-0.0074282424
0.036814608
-0.041234057
-0.04549837
-0.082042314
0.013595559
-0.027586017
-0.030390648
-0.016921133
-0.05085454
0.043425452
0.0076024155
-0.073512815
-0.013031572
-0.03420694
-0.042885374
-0.03462111
-0.018474499
0.00491841
-0.005859059
0.054334745
0.023271393
0.0241033
-0.05772637
0.056123197
-0.04759431
0.048379537
0.07472592
-0.012130537
-0.017825633
0.068872824
-0.02625038
-0.08758463
-0.012767146
-0.06575861
0.043524224
-0.006922496
0.0025248681
-0.08430864
-0.007854589
0.02604007
-0.020795465
-0.056599
0.046927236
0.035388343
-0.023515722
-0.016018962
0.03249977
0.010022558
0.030537067
-0.006025102
0.06805131
0.042806428
0.04181742
-0.027847415
0.025131157
-0.03394958
-0.05422829
0.041678004
0.03851977
0.01632129
-0.039388314
0.0024321622
-0.008581286
-0.031738482
-0.021589747
-8.9515706e-05
-0.007250855
0.0016451376
-0.02761602
-0.004551199
-0.038038522
-0.047632676
0.007124137
-0.0071946853
-0.042917624
-0.010254942
0.061255943
0.084194355
0.0021018244
-0.03525191
0.04928021
-0.053555373
0.06797509
0.050086908
0.019139083
-0.01536673
0.04644855
-0.030748334
-0.0087936865
-0.022430306
0.06398053
-0.00025641816
-0.047315992
-0.08989826
-0.0044156723
0.011108965
0.022816768
0.007766962
-0.060744
0.038957495
0.04312655
0.007407421
0.05941632
0.03805927
0.03145728
0.039111897
-0.053900063
0.046704516
0.0010912432
0.0410886
-0.025831677
0.017434822
0.032343253
-0.015666878
-0.01308731
0.022655766
0.029046165
-0.035205737
0.055372037
0.029394662
-0.08862473
-0.029005611
-0.04820008
0.0027454149
-0.06495794
0.0076315496
-0.10030729
-0.00022076425
0.00979258
-0.07356122
-0.03933138
0.09421213
0.03787771
-0.08799427
-0.05304555
0.025448862
-0.09541024
0.03182075
-0.08366003
0.0020256764
-0.021827765
0.05660622
-0.115406565
-0.017149674
-0.054452896
-0.11606827
-0.06883423
-0.12647964
0.016466603
-0.008883235
0.012897474
-0.07367008
-0.026356237
-0.058275666
0.020895435
0.0074138516
0.029154446
-0.06590927
0.069884256
0.07690365
-0.023500286
0.070474684
-0.06676138
-0.011250537
-0.014679007
-0.020659396
0.012147471
-0.04098671
0.07368381
0.02704176
0.08544328
0.081569396
-0.044341385
-0.018138576
0.045670692
-0.08765504
-0.06942367
0.05937743
-0.063824505
0.06341946
-0.021923812
0.0064299926
-0.063339286
0.08124731
0.046851683
-0.12283419
0.02774276
0.010404009
-0.07880349
0.056188706
0.12641019
0.0909476
0.022612447
-0.009940013
0.04776259
0.006739388
0.065443724
0.016235296
-0.00571496
0.03575651
0.03499336
0.036070786
0.011742391
0.046906408
0.07969955
0.001437667
-0.03078399
-0.044267036
0.0013404132
-0.06850664
0.023551136
-0.023327373
-0.054801002
0.021682693
0.05939893
-0.058958486
0.0074533042
0.0021827074
-0.0009026407
0.052453652
0.014108124
0.004076603
0.08202064
0.029356802
0.014503798
0.012241175
-0.022608468
-0.1675261
-0.0044188695
-0.012162027
-0.05787969
-0.063026644
0.032145567
0.076291665
-0.056920093
-0.0061621065
-0.05440311
0.015675072
-0.017619368
0.04827406
-0.012641101
0.03682824
0.037615314
0.014438381
0.008576265
-0.014934221
-0.008796949
0.029385976
-0.028156055
-0.02793886
0.029185072
-0.03468461
0.0003399065
-0.0074467724
0.019843085
0.0057674316
-0.0067414325
-0.05897719
-0.004439648
-0.008828451
0.035748195
0.008538572
-0.012124525
-0.021199571
-0.026443757
-0.01454187
-0.06065923
0.0015229762
0.030614661
-0.0075578764
-0.00079636043
0.03053803
0.050233647
-0.018389016
0.04832947
-0.001139109
0.01570699
0.008439675
-9.5704614e-05
0.046612497
-0.034914255
0.04535476
-0.005099698
-0.00752113
-0.028737362
-0.005357264
-0.014780739
-0.04235796
-0.0048353444
-0.0018245527
0.006048445
-0.028867036
0.016399324
-0.027172929
-0.02245675
-0.008494408
0.036656093
-0.0344371
-0.030428734
-0.0131907975
0.008599908
-0.035343383
0.059124917
-0.0007230884
-0.04584559
-0.004357037
0.028867811
-0.05932376
0.033050504
-0.025765494
-0.05497154
0.04218916
0.028480718
-0.015329734
-0.002820694
-0.0018129193
-0.036037583
-0.045539718
-0.036264572
0.058520343
-0.007921798
-0.00087789114
0.03050813
-0.020612478
-0.013026313
-0.038668983
0.011736182
-0.044936668
-0.018088898
0.04734407
0.044504266
0.011557648
0.027071819
-0.051923137
-0.027280979
0.056077443
-0.03325588
0.010590898
0.033111565
-0.022436565
-0.0076463353
0.019433336
0.07935299
-0.048713196
0.07020119
0.02403987
0.012970619
-0.06915705
-0.012744238
-0.025628714
-0.040530965
0.019466193
-0.024141308
0.035013083
-0.034229904
-0.07571128
0.0027987997
-0.002329251
-0.030626772
0.013570745
-0.034645166
0.02831351
-0.023499794
-0.021974409
0.03902564
-0.07697636
0.012866697
-0.0172367
-0.023767278
-0.056573737
0.045220114
-0.044708543
-0.04698396
0.019698033
0.06077604
0.04097058
-0.046826527
0.05044004
0.047829777
0.09060786
-0.0052621746
0.044949673
0.06435304
0.0017265722
0.0026139247
-0.005801435
-0.005494526
0.011078722
0.021244103
-0.029663352
0.0032232434
0.041273333
-0.0008296384
0.014962463
0.0054187477
-0.015995404
0.026690152
0.015765063
0.09765856
-0.032570783
-0.01942453
-0.046345025
0.006495969
0.0013288605
-0.06658112
0.06499678
0.035981428
0.04546038
0.02234224
0.01880004
-0.03870947
0.027266476
-0.041803516
-0.026144676
-0.046917472
-0.00085858966
0.026465595
0.056756143
0.012815845
-0.0049364334
-0.039052542
-0.020105544
-0.0498095
0.0060486994
-0.003994892
0.020544672
0.008084297
-0.009225786
0.0036485568
0.014167602
-0.0017536631
-0.029980734
0.050280165
-0.045932785
-0.05680657
-0.0024848678
-0.025079865
-0.019260414
0.040637508
-0.052902017
-0.04744836
0.010638082
0.023288727
-0.0033935711
-0.0014515392
0.016570708
0.016223432
0.0011793049
-0.037925057
0.0041762292
0.05183243
0.042626776
-0.0063403314
0.042276092
0.023144037
-0.031497408
0.019183584
0.008282272
0.015504331
-0.049110595
-0.0054540085
-0.013581857
-0.020562692
-0.0052102003
-0.02014941
-0.006454291
0.0075417534
-0.023163008
-0.0531161
-0.035997316
-0.009920791
0.023095455
-0.025475927
0.050922174
0.013466111
0.0024050176
-0.010407854
0.025867429
-0.012617937
0.024980722
-0.008154227
0.014756088
0.0164069
0.018469175
0.0075619197
0.033714786
0.012363759
0.009736898
0.012037888
-0.018399406
0.030397901
-0.014782871
0.043271802
0.025959324
-0.0030104439
-0.012921599
0.033689346
0.030249933
0.013686325
0.018721463
-0.030653166
0.005748531
0.013773793
0.023297526
-0.02044843
0.018606212
-0.01801211
0.024161685
0.05181504
-0.02196303
0.016836088
-0.0075751594
0.00044344444
0.0064519127
-0.013264127
-0.02349284
-0.007117464
0.04418569
-0.04498318
0.023796126
-0.058207728
0.034203824
-0.01430576
-0.02133811
-0.019407213
0.012635482
-0.0062648393
0.00044872295
0.06693528
0.0015655201
0.007521965
0.040461287
0.00423036
0.03646488
0.043418795
-0.029225675
0.07015765
0.04806189
-0.017692989
0.060365286
-0.007316734
0.026564056
0.021236671
0.019416276
0.021687934
0.022770893
-0.031384982
0.0072073857
-0.008880458
0.04361843
-0.019061489
-0.04878508
0.043527525
0.003006955
-0.02314784
-0.012642063
0.035034765
0.0063064476
-0.021630958
-0.05042486
-0.0011690137
0.018632561
0.029006256
0.030695453
0.020190688
-0.025206674
0.02856448
0.03941386
0.015152911
-0.056144826
0.019658212
0.052163485
-0.023905506
-0.037376836
0.09114119
-0.020865938
-0.004239159
-0.01382436
-0.041949227
0.0037996594
-0.008811021
-0.03129888
0.061490856
-0.009832995
-0.05437602
0.00092728063
-0.0067588
0.06459453
-0.001987506
-0.04159251
0.07036292
0.0017257114
-0.036154002
0.024811637
-0.0390928
0.016018752
0.03469343
0.004283394
0.048817255
0.010516731
0.009534085
0.006586805
-0.011784765
0.05522425
-0.060265485
0.020871526
-0.015268948
-0.03077656
-0.03780604
0.00940772
-0.01712669
-0.01854027
0.05589636
-0.0041090166
0.0280466
-0.024922216
0.004016613
0.06717688
0.0039163525
-0.049117018
0.05598811
-0.017012734
-0.023539726
0.0037562114
-0.035001416
0.023143755
0.003665556
-0.0007032495
-0.035417236
-0.0037842328
-0.06643555
0.0586755
0.05394795
-0.07612282
0.022907862
-0.0020332595
0.04679608
0.0031089971
0.040968973
-0.013963246
0.026759904
0.052346364
0.060931914
0.025366666
0.042737313
-0.00618268
-0.04408089
-0.108585656
0.022889743
-0.0027180102
-0.023321193
-0.020948043
-0.044506848
-0.053969245
0.029099973
-0.0483168
-0.029584054
-0.03384818
-0.021503303
0.04302437
-0.04943077
0.039617587
0.0442153
-0.021434132
0.054289076
0.0039639887
-0.055469967
0.019983022
0.17452729
-0.038124323
-0.021629611
-0.010481421
0.02347627
0.025058817
-0.052896526
-0.04694245
-0.032236554
-0.04362535
0.0095102135
0.04141509
0.042163573
0.02480446
0.026772276
0.044143032
-0.020880297
0.03532455
0.034368612
0.034266084
-0.015429239
-0.053100023
0.030213648
0.0026498607
0.045257036
-0.0073771114
0.02055332
-0.012217955
-0.019749334
0.03235699
0.0054133153
0.054351367
0.023935594
0.017644837
-0.03835997
-0.00484844
-0.004614334
0.004646303
0.071838245
-0.047608025
0.03302002
0.0059977327
-0.04513002
-0.03538759
0.023644745
0.0063481038
-0.008378672
0.0541661
0.0076835295
0.04684713
-0.008217651
0.05276166
0.016175337
0.037187755
0.015187066
-0.013392308
-0.00868403
0.071419165
-0.041284397
-0.02838408
-0.035807453
-0.005848462
-0.019005263
-0.019097067
-0.08888458
0.03851462
-0.033281736
-0.003006763
-0.019252649
-4.033236e-05
0.04171459
-0.0235509
0.01936939
-0.012549874
0.0035762773
-0.06317826
-0.00038541708
0.040509813
-0.0275335
0.02118869
-0.03823152
0.029557033
-0.017967444
0.036532234
-0.03504666
0.0024420638
-0.024431646
0.034962963
0.00035312763
-0.013742795
0.02056604
0.014398209
-0.06922477
-0.014095788
-0.033345137
-0.03593964
0.043650217
-0.066058055
0.028297132
-0.008269808
0.019844858
-0.015178361
0.026699178
-0.03249282
-0.026572239
-0.004841949
-0.011773143
-0.04055797
0.0120715285
0.045012694
-0.020271989
0.03746766
0.01258858
-0.0040685553
-0.018185493
0.00075817906
-0.05392871
-0.009286709
0.0033425835
-0.0017171055
0.052968137
-0.0052933646
0.022557564
0.03279603
-0.06425951
0.0054765884
0.0037482027
0.00027670184
0.015982648
-0.004003151
0.024330791
0.011520728
-0.015395038
-0.02980491
0.02011446
-0.017163213
-0.019235209
-0.0030428674
0.032410704
-0.022019606
0.005713937
-0.0036455381
-0.0004332372
-0.017860496
-0.03803352
0.033299338
-0.032098632
-0.010492577
-0.031526
0.003973852
0.008754608
0.035350323
0.023344573
-0.03582782
0.0057344325
0.009290974
0.020328965
-0.034778975
0.024922011
0.03986994
-0.025226507
0.013053168
0.015877575
0.061862838
0.0027947037
0.010654807
-0.0143846255
0.04000053
-0.031130198
0.014949006
-0.028040767
-0.035207346
-0.01546628
0.052228436
0.0011361751
0.035932448
0.032387007
-0.015129829
0.028870584
-0.034749813
-0.004349121
0.049704324
-0.020487668
0.0049524177
0.008299657
-0.013691382
-0.020575587
-0.039125934
0.0021836373
-0.035293177
-0.016554022
0.027887704
-0.0014359682
-0.0262557
-0.024687849
-0.07175082
-0.004377332
-0.015054182
-0.059427593
-0.031208796
-0.053936712
-0.014155123
0.000114095186
-0.04153404
0.032327592
-0.07813676
0.011398153
-0.05304777
-0.038553573
-0.039237987
-0.030041264
0.025478262
0.05944416
-0.022694368
0.0134460945
0.00025995777
0.005215846
-0.07137819
-0.03182298
0.0057829474
0.004740707
-0.06195015
0.02508686
0.015227329
-0.012821342
0.019684983
0.012550489
-0.009029458
0.0016556374
0.017963285
0.052059904
0.034090947
0.00708502
-0.0454923
0.010364832
0.0056514954
-0.014636832
0.0056561367
-0.019209499
0.04088136
-0.03332359
0.051062103
0.020389332
-0.001122374
0.051908292
-0.048461784
0.0033538628
0.0028310383
-0.048578296
-0.016674627
0.008728138
0.016091654
-0.01182868
-0.015554842
0.022006555
-0.030211184
0.01777211
0.0036097302
-0.057178292
-0.010349646
0.01103056
-0.0720865
-0.0104619665
0.0136596225
0.042874757
-0.03320103
0.021160122
-0.03800712
0.012037819
0.022142177
-0.052536897
0.013648863
0.03634273
0.05449115
0.011117159
0.03779141
0.028212141
0.08710379
0.0045181103
-0.037329506
0.014980606
-0.0072082453
-0.028979171
0.04375961
-0.011856002
-0.03911597
-0.01420342
0.0042292904
0.0072344374
0.008540443
0.012341689
0.009533508
0.049111374
0.04089919
0.012249324
0.034018002
0.007023621
-0.021220835
-0.0066476725
0.025713442
0.023724727
0.006592753
-0.011941003
0.030917775
-0.008017507
0.00713111
0.010993849
-0.05623164
-0.05046115
-0.06837343
0.04600731
0.04241823
-0.0034887465
0.0233631
0.040551845
0.007043897
0.005320221
0.02125062
0.07370838
0.020963186
-0.0091321375
0.07889233
0.018050466
0.02150505
-0.03455149
-0.04939991
-0.037014093
0.00082755025
0.05529916
-0.004508048
0.00072820485
0.0036494322
0.022997793
0.0151976
-0.034110248
-0.0052990275
-0.044874597
-0.021704704
-0.014227337
-0.044399768
-0.003147567
0.0014657084
-0.021203015
0.00020999018
-0.037762217
0.03115127
-0.01618374
0.00051958516
0.071875334
0.0020273787
0.019019147
0.06270977
-0.05636003
-0.04347096
0.037434783
0.02088315
0.01610346
-0.028698867
0.017065173
-0.022969287
-0.02496623
0.0047863955
0.06194619
0.027824301
-0.022033963
-0.00795562
-0.016386827
0.0514972
0.0059241676
0.028295012
0.008096567
0.00018644465
-0.00014727823
0.02441102
-0.009523675
0.019341646
-0.00040408043
0.0031066153
0.0064684013
-0.0353039
-0.020364475
-0.03789634
0.009054941
0.002878676
-0.004014398
0.01840802
0.041581605
-0.03052589
0.019680882
0.051676624
-0.02424203
0.049526557
-0.04139547
0.026510559
-0.0076063066
0.02922754
-0.03429932
-0.0024499837
-0.011311009
-0.0059122345
0.025227232
-0.0061188657
0.043038826
-0.011558753
-0.010520919
-0.003759795
-0.034038648
-0.0075672837
0.0044940077
-0.017976513
-0.014334469
0.016874114
-0.012562404
0.03929461
-0.009871234
0.016679576
-0.030684404
-0.012988314
0.005633628
0.008930272
-0.020468894
-0.017658554
-0.019034417
0.0028192084
0.01306065
-0.0011618003
-0.03871993
-0.0073917345
-0.04658237
-0.014133388
-0.01384036
-0.02121752
0.017352453
-0.059689205
-0.027479073
0.007833124
0.0019162822
0.007747611
-0.027917713
0.010286433
0.0022388138
0.02002553
0.007894995
-0.020068735
0.014457496
-0.05355773
-0.03737812
-0.00018063476
0.0061308444
-0.00043600026
-0.0050054425
0.01872182
0.046233647
0.025863802
-0.052879497
0.013491751
0.0023958848
0.02635438
0.027823009
0.02220494
0.054551758
-0.047061067
0.05455737
0.019520584
0.008580772
-0.018359441
-0.040263332
0.01589208
-0.013759252
-0.010279455
0.0059836237
-0.0041245557
-0.013675697
-0.021152087
-0.05099195
0.033590175
-0.014598284
0.002284684
0.01747354
0.0071579735
-0.035857137
-0.0069664004
-0.01044355
0.040022664
-0.035090085
-0.024748784
0.005319415
-0.03653859
-0.010615972
-0.044835683
0.00748871
-0.043567955
0.015952209
0.016774228
0.0380283
-0.020509107
0.017908141
-0.011658115
-0.017926151
0.0068013743
-0.011923805
-0.049013272
0.014294571
-0.015390419
0.027836554
-0.0039440976
-0.012704283
0.007373061
0.024974287
-0.00013757487
0.009057006
0.0016026545
-0.023390682
0.027875954
-0.007483337
-0.019608323
0.011265145
-0.027772237
-0.0028501307
-0.03401256
-0.005312283
-0.027515767
-0.038321767
-0.025283188
-0.007417793
-0.04119174
-0.027487649
-0.009271686
0.0021766778
-0.026053539
0.005197461
-0.021126935
-0.02068682
-0.019240854
-0.01917528
0.02497118
0.0155165205
0.05831605
-0.041483276
0.0024266173
-0.017731654
0.0125560025
0.039915964
-0.034287747
0.027231637
-0.00028814466
0.015512421
0.013515406
0.03678259
0.019416697
0.00705675
-0.00835477
0.040307574
0.019132828
-0.018344887
0.009980858
0.029014483
-0.006879418
0.020146277
0.027335884
-0.01568809
0.020738065
0.002513271
0.003261569
-0.031696696
0.034693614
-0.020799091
0.0023256794
0.013100656
0.02858122
0.014407573
0.050057404
0.023612699
0.031263806
-0.018153664
0.025858607
-0.0036512807
0.03712283
-0.009158789
-0.0032038544
0.010482055
0.039690748
-0.037654698
0.021515492
-0.03390966
-0.041814838
0.033553522
-0.0013154203
0.029208427
-0.028889023
-0.019715391
0.025402453
-0.012244712
-0.002197997
-0.039604474
0.02137762
0.012160117
0.014543017
0.015588459
0.013071458
0.022410417
-0.010396851
0.021004727
-0.015431473
-0.010256256
-0.033653267
-0.003960034
0.047672424
-0.00890129
0.013076413
0.023916172
0.010939951
0.01712786
0.013587038
-0.0009363445
-0.036921546
0.009752424
0.003210299
0.039335314
0.03573067
0.022126336
-0.030869976
0.021075748
0.030596048
-0.050028756
-0.0014339901
0.008683594
-0.004573983
0.008532118
-0.0062856204
0.005858975
-0.0124556385
-0.010413629
0.04135041
-0.0010394116
-0.045626137
0.010601647
-0.0016705304
-0.012254076
0.036846835
0.01213084
0.014428529
0.005698822
0.04904872
0.025506329
0.021682005
-0.061509594
0.01132476
-0.023526065
0.020364694
-0.041483104
-0.052843843
-0.00890449
-0.016381508
0.028617583
-0.0072624157
0.039276198
-0.072929405
-0.026380388
-0.03752103
0.0051033953
-0.032097343
0.031943984
0.030019328
0.032682933
0.06264211
0.007217098
-0.008152175
-0.00031364732
-0.015697714
0.0024425755
0.04672619
-0.02065391
0.008625448
0.04534208
0.01901782
0.047149323
-0.018716807
-0.014345398
-0.030330997
0.03393927
-0.04283892
0.047248308
-0.015346171
-0.009959931
-0.030282576
0.021968432
0.025065448
-0.04535183
0.00971882
-0.005543079
-0.020975621
-0.033902694
0.06855682
-0.015451676
-0.06083336
-0.009794861
-0.026481017
-0.0038966257
-0.060204525
-0.002491694
-0.0035991159
0.0105043985
-0.054450177
0.026039911
-0.0045668012
-0.044773232
-0.0521317
-0.080638565
-0.0006495692
0.0102659445
0.009253319
0.027943572
-0.021148048
-0.012057165
0.010596948
-0.009894005
-0.010669678
0.02871892
-0.002083173
0.062315013
0.05147061
-0.00083036855
0.012139713
0.026105221
-0.024792194
-0.0054669916
0.015708536
0.013462759
0.0067306915
-0.008956849
-0.008622674
-0.0222931
0.067653656
-0.0176328
-0.0331868
0.048625592
0.004603626
-0.061720975
0.004491117
-0.05179674
-0.008058597
0.048472114
9.8392666e-05
0.015761925
-0.035150014
0.015019599
-0.00025919682
0.045183897
-0.023302369
0.01791997
0.027107818
-0.028340291
0.045031726
0.009671831
-0.011523089
-0.08386656
0.035252936
-0.037498467
-0.017154332
0.0147546595
0.0524625
-0.0056699826
-0.018582646
-0.048768062
-0.052999668
-0.0032107166
-0.01576685
0.018166099
-1.2209501e-05
-0.04830195
-0.0015349938
0.021686783
-0.026102291
-0.00024084414
0.0063879425
0.03127179
0.020970989
-0.04836595
0.05049226
0.01645183
-0.023590125
0.028956948
-0.00016249235
-0.05658942
-0.011007086
0.024271812
-0.0058502974
-0.028940117
0.008930064
-0.008373561
-0.015564007
0.0024644262
-0.011113415
0.0025502297
0.04173899
-0.01809359
0.01745159
0.014742115
0.05641721
0.0054704007
0.002587703
0.063009255
-0.07014834
-0.02214649
-0.01258326
0.008601704
0.033846993
0.020169552
0.029194191
0.00037024476
-0.024677271
0.013527087
0.004779391
-0.0017419984
0.0064354306
0.0011758488
0.008607613
-0.035112746
0.006872581
-0.011881748
-0.02258881
0.032446317
0.063748494
0.03330467
0.03811706
-0.024385592
-0.025190838
0.018982926
0.034252003
0.015956325
-0.018560618
0.020248184
-0.034171253
-0.020770926
-0.013282054
0.005832355
-0.0006139488
-0.011716291
-0.013436435
-0.04978731
-0.017791381
0.007384822
0.00032690153
0.008113985
0.0055424934
0.008716111
-0.0027364613
0.004483218
0.02287378
0.019793246
0.028818307
-0.013299052
-0.0039014758
-0.008149321
0.021271244
-0.018098585
0.020869832
0.003934291
0.048880335
-0.02570233
0.051255867
-0.003323897
0.03319183
-0.007268204
0.014455271
-0.021349644
0.024854768
-0.032273773
0.017746052
0.03563735
0.022601305
-0.027458023
0.00277072
0.04704365
-0.008982179
-0.010231446
0.0005591914
-0.046788715
-0.0017591013
0.04994129
0.049820192
0.0010204905
0.074398726
0.029809592
-0.041636415
0.07374333
0.009434458
0.008506157
0.008234751
-0.00043197486
0.031547494
0.00500933
0.013913408
0.010401671
-0.0344206
0.014555728
0.032095652
-0.05140601
-0.026629806
0.024307761
0.03595084
-0.03013988
0.059419453
0.015266097
0.056060642
-0.022730144
0.037299763
0.029738227
-0.068708844
0.027105993
-0.030013764
-0.061200544
0.005256151
0.02215341
-0.015710194
-0.01775172
0.024695624
0.03329235
0.030257959
-0.0049277507
0.025843667
0.006078176
0.009547749
-0.042304717
-0.038227107
-0.036388826
-0.052057803
0.042354118
-0.028564794
-0.03444956
-0.016450826
0.0036236092
-0.030481089
-0.027871912
-0.026227487
-0.020628229
0.0120793125
-0.025662284
0.0040925182
-0.004517986
0.030185618
-0.00075536285
0.047364067
0.01301385
0.042034376
-0.013458786
-0.033496015
0.008108235
0.03627011
0.00035848108
-0.0023941277
-0.008491393
-0.046992175
-0.0069433143
-0.015160038
0.0065126177
-0.02398048
-0.023990355
-0.0085568875
0.0026851753
0.04496133
0.016717562
0.008711719
0.012376886
0.005630274
0.025217565
-0.026429415
0.037114665
-0.0027888543
0.012747304
0.026036484
-0.023988439
0.014659455
-0.0011836613
0.0027766572
-0.01457785
-0.0006198985
-0.0022830565
0.022747288
0.03188856
-0.014935056
-0.033342324
0.0012781955
0.015640834
-0.031272084
0.042277087
0.029411606
0.0061676977
0.015040373
0.019747844
0.020195417
5.6755027e-05
-0.009763317
-0.0003695486
0.003842727
0.010270457
0.0051717693
0.0016016313
0.017091293
-0.010473443
0.0037240374
-0.052849025
-0.02781903
-0.042310447
-0.02860312
-0.026224729
0.0387086
-0.0022426797
-0.023677718
0.028652448
0.022390472
0.011443262
-0.033386648
0.03290092
0.0067569553
-0.0049359603
0.033400282
0.0106171835
-0.053114686
-0.00595945
0.017887212
0.00011617271
0.03410153
0.05424222
-0.010163542
-0.010672031
-0.053749785
0.013971406
0.016589846
0.024784522
-0.0058611417
-0.0022383176
-0.049150344
-0.013873769
-0.027385741
-0.005570009
0.011974063
-0.030018687
-0.043966737
0.018266913
0.020564524
0.0006385076
-0.010100411
0.029602857
-0.009095126
-0.057155024
0.0006675908
0.023314042
-0.0071285046
0.030150793
-0.02380571
-0.01362466
-0.044232965
-0.012718924
0.012791728
-0.012388927
0.0024490051
0.03339135
-0.015353568
-0.009789244
0.030969944
-0.0004182087
0.011883723
-0.018386835
0.05056761
-0.010067025
0.022035562
0.038442094
-0.00765316
-0.0039158477
-0.01052766
-0.02031446
-0.002336179
0.02069208
-0.033836376
0.035777047
-0.026648333
-0.019166747
-0.0198885
-0.047601763
0.0019561253
7.953475e-05
-0.040140633
-0.006466022
0.037073966
-0.007636996
0.02407057
0.056804847
-0.00627098
0.030970061
-0.016293555
-0.027495766
0.022486134
0.019474013
0.016067242
0.0027046886
0.032441884
-0.033748843
-0.002614235
-0.022325383
-0.028283225
-0.024748452
-0.021265522
-0.006977898
-0.025926579
-0.002546405
0.021980517
0.007697486
0.031108731
0.0027345591
-0.012082626
-0.04863708
-0.009758048
-0.00048426946
0.02129523
0.022240028
-0.014673396
-0.028663697
-0.0061570895
0.0131662
-0.022345426
-0.07596442
0.050013565
0.009931156
-0.0049362024
-0.038937587
0.027934011
-0.00326136
-0.0053383694
0.04049158
-0.017159438
0.0009913506
0.0044561196
0.00067409035
0.047988947
0.023211729
0.003476937
0.017710507
-0.042298086
0.019642062
-0.01409732
0.0072812866
0.037856232
0.016392399
0.029232342
0.01697388
0.021973146
0.021805108
0.030278165
0.004818888
-0.016252205
-0.012820246
0.03686677
-0.007173183
-0.049771067
-0.016711494
-0.045081537
0.024692059
-0.020800197
-0.022346223
-0.052343786
0.034384307
-0.047535222
0.004420717
-0.027800927
-0.04886043
-0.031300195
-0.061026525
-0.026253078
-0.04359091
-0.012957403
0.008713176
-0.0022828758
0.021187687
0.023295965
0.013266172
0.012209215
-0.041574918
0.030547367
0.04433597
-0.02019837
0.031555753
0.030442951
-0.031192197
0.020832982
0.007231773
-0.017008204
0.029247371
-0.07055689
-0.028664896
0.0054253666
0.0012904089
-0.048918463
-0.032116726
-0.02821833
-0.010654705
-0.047659136
0.0026292703
0.008406436
0.026573725
-0.020667005
-0.009838801
0.016852817
0.028769307
0.0021558278
0.014836901
0.040884726
-0.032547656
-0.034462564
0.00611212
0.036006037
-0.0047320924
0.003952152
0.019218413
-0.03047451
-0.03307015
-0.018337652
0.012219248
-0.011135494
-0.018185545
0.017109042
-0.04216414
-0.022750197
-0.00085332
0.037023187
0.0005287275
-0.07285642
-0.027814133
-0.037185676
0.036239304
0.03562154
-0.021491501
0.0010655349
-0.0024414195
-0.017948385
0.03903771
-0.06531902
0.04244537
0.04041877
0.016494991
-0.008588657
0.013398324
0.005050678
-0.012926037
-0.02315737
-0.014934972
-0.04607703
-0.015430645
-0.029865628
-0.008304584
-0.048621047
0.025785249
0.008744804
-0.015955873
0.04830983
-0.034256607
0.008644315
0.023254888
0.04073874
0.0550893
0.004748185
-0.042364966
0.023683632
-0.0009661766
-0.02037231
0.02311714
0.025209634
0.0019684504
-0.013955766
0.05106091
-0.0082916245
-0.00012707729
-0.042427626
0.02302931
-0.006443281
-0.06388273
-0.0057355682
-0.027293023
0.013069723
-0.0047095707
0.024425702
-0.0067587285
0.030120797
0.079395585
-0.01642059
0.007393497
0.040143512
0.04597277
-0.029355895
-0.013266957
-0.024345959
-0.03951371
0.039459378
-0.03791457
-0.011274838
-0.025978463
0.0041785687
-0.0765751
0.008408245
0.031239642
-0.056962766
-0.00057245186
-0.05885804
-0.012416883
0.008371682
-0.02639009
-0.043114606
0.0021847512
0.010866994
0.00066256337
0.01126615
0.016625341
-0.03026507
0.03897618
0.018248353
-0.014614022
0.02699993
-0.037814964
-0.009040133
-0.009058284
-0.050455537
-0.0151189
-0.040323645
0.049670007
-0.0053785997
0.014972155
0.029282084
-0.025967749
-0.017524472
0.04621411
-0.013458444
-0.07271832
-0.039461188
0.008923792
0.01691746
-0.017142562
0.009020817
-0.05894526
-0.02124995
-0.00013072693
-0.10622746
-0.0063627455
-0.01838809
-0.03117042
0.03469194
-0.0057055247
0.011322364
0.016085172
0.0072677606
-0.009890719
-0.0012395802
0.017047267
-0.0075107203
-0.015871566
-0.013056029
0.046180792
0.004674266
0.009489981
0.008767518
0.027259953
0.03696278
-0.04343821
-0.031429064
-0.033810545
-0.034614723
0.01864031
-0.03601688
-0.07334018
0.032325618
0.015584247
-0.023813538
0.015704278
-0.0049856934
-0.030036736
0.021281114
0.014990975
0.026762947
0.029552827
0.01682576
-0.013731848
0.002580539
-0.019810539
-0.10792813
-0.0048838775
0.01693617
0.037786715
-0.05567674
0.044297457
-0.025769772
-0.06415034
-0.023388918
-0.049132414
-0.014090866
0.008463218
0.031238267
-0.019725941
0.019821845
-0.028612189
-0.00039223876
-0.007916564
0.02685369
-0.03504334
-0.02824609
-0.01823724
0.017763147
0.009589237
-0.0372264
0.010796365
0.01510535
-0.0020735923
-0.008959383
0.055158336
-0.01608086
0.011312187
-0.008006527
0.0019795182
0.033235785
-0.033432994
-0.0033613867
0.02680986
0.010838261
-0.03476
-0.0012184662
0.00275951
0.03852285
-0.03930781
-0.012937355
-0.0059518265
-0.012741493
0.00037054505
0.026321717
-0.021941891
7.6562654e-05
-0.030466544
0.004307026
-0.031675797
-0.010922625
0.0029589662
0.009693249
-0.009740166
-0.008374854
-0.04282355
-0.036720958
-0.040655196
0.0107927695
-0.036735285
-0.036588255
-0.016760858
0.020191573
-0.0072750356
0.026804725
0.020403367
-0.022353867
-0.024298023
-0.030711455
-0.043998107
0.016226165
-0.025178686
0.0107620545
-0.0077186436
-0.02015314
-0.010452914
-0.040620428
0.008262747
0.019285828
-0.02476238
0.016323755
-0.026428742
-0.021390764
-0.022102911
-0.03205765
0.029561907
0.0012006677
-0.021066451
-0.053918015
-0.019364918
-0.020859174
-0.0035619056
0.0015105315
0.0380161
-0.013481439
-0.01848297
-0.045217216
-0.03830868
0.05331286
-0.018689098
0.045816045
0.04022802
-0.042892605
-0.010504773
0.016689084
-0.017379576
-0.009150813
0.0335795
0.005230402
-0.007845369
-0.039066672
-0.020386046
-0.006498899
-0.016938666
-0.009450743
0.028571408
-0.0048557934
-0.04209683
-0.008999356
0.025060242
-0.025427228
-0.014211358
0.018293038
-0.015065717
-0.06014816
0.009328951
0.027803678
-0.063931935
-0.026633551
-0.05437844
0.033215053
-0.0014956137
0.0066127414
-0.02023023
-0.008546573
-0.023396676
0.011046345
0.007705119
-0.01009994
0.032376457
-0.02187442
-0.030190255
-0.025161166
0.035130605
0.02494319
-0.02827477
0.0010664443
0.04077398
0.017109994
-0.032468587
0.042471282
0.0059949113
-0.009755745
-0.007950198
0.05613548
-0.041305713
0.010357297
0.02300536
-0.05263305
0.04648725
0.023169288
-0.028064365
0.03342944
-0.0057330793
-0.02569197
0.008342301
-0.045107793
0.04926917
-0.07725637
0.000710985
-0.054396022
-0.0509159
-0.01724493
-0.03799502
-0.003857045
0.04108159
0.034897942
0.011023522
-0.009849607
-0.002146185
-0.024792599
-0.0045901737
0.004065557
0.0016841054
0.0059179575
-0.023270193
-0.00113274
0.020550765
-0.031322528
-0.01297635
0.006215402
-0.00917152
-0.004367736
0.013036514
0.0015838181
-0.02235526
-0.02371295
-0.0088855
0.016229613
-0.007173963
-0.004525399
-0.017818872
0.004391762
-0.008250395
0.011814481
0.0012133797
-0.011950498
0.0025291445
-0.04165728
0.025474163
0.004792046
0.012318655
-0.025173891
0.0018457836
-0.02061802
-0.0168575
0.033373248
-0.007246628
-0.0057169003
-0.012823091
-0.0032111488
-0.015578904
0.008382319
-0.05199118
0.036010776
-0.00039798583
-0.012293465
-0.01760782
-0.014704201
-0.028482446
-0.002835627
0.015463507
-0.022507504
-0.033981074
-0.024078751
-0.02467996
-0.038881645
-0.049204983
-0.025496198
-0.011876206
-0.005313982
-0.008865138
-0.0030213553
0.0024505362
0.018725364
0.0019137649
0.011273332
-0.012962181
-0.027553044
0.017552461
-0.0038988416
-0.023606293
0.024532177
-0.017211925
0.062454093
-0.025784347
-0.013505386
-0.0027545
0.015976483
0.0188822
0.040490776
0.016131364
0.020163275
-0.01846102
-0.007821557
-0.006599732
-0.010227202
0.018738916
0.03573627
0.011057794
0.016190091
-0.014930939
0.003815762
0.028657349
0.002177109
-0.010288146
-0.0077768336
0.031480066
-0.033336885
0.010545264
-0.026802603
-0.01976615
-0.022194762
0.0040233615
0.0030297867
-0.032814838
-0.013448095
-0.005727456
-0.01920285
-0.019966848
0.05812741
-0.04864273
0.0046270643
-0.010610341
-0.043112174
0.024996385
0.00018857261
0.065702714
0.004521037
0.04087433
0.02081526
-0.020736484
0.0037508742
0.039399564
-0.012993433
0.019749602
0.076393016
-0.016224613
-0.009811119
-0.015141186
-0.038445
-0.0027299847
-0.006214653
-0.042283047
-0.0052240808
-0.020236472
0.06331611
-0.009558689
0.07187856
-0.0024306865
-0.021171656
0.023762275
-0.015644243
-0.0008359432
-0.0075961663
-0.018063799
-0.00041928666
-0.0041373502
-0.02857067
0.005390098
-0.002214134
0.023316871
0.015720854
0.050141
0.026363248
0.022828816
0.03513491
0.004704767
0.012001669
0.02008622
0.051563855
-0.031527657
-0.010975156
-0.014512456
-0.029093988
0.036334515
0.001471035
-0.0140018
-0.013015205
0.051276408
-0.023956697
0.040137723
0.06716894
-0.06244135
0.026773684
0.011355309
0.037942577
0.028349161
-0.0065541146
0.035236143
-0.014438726
-0.014509952
0.017355813
-0.049551655
0.031185787
0.041703552
-0.0146508245
0.032883592
0.027488612
0.034802448
-0.029967187
-0.009808062
0.026711643
-0.024587587
-0.0037921849
-0.0015643933
0.03258517
-0.06334926
0.021725602
-0.008719914
-0.0066576675
-0.0113534415
-0.0578483
0.0051104445
0.009818634
0.0003687602
0.067078866
0.020156207
0.021010198
0.04768795
-0.08837044
-0.021139998
0.017482337
0.0004651602
0.025183644
-0.070402116
0.0107559925
-0.04172573
-0.014213358
-0.03872308
0.051306922
0.016942328
-0.056128085
-0.023610676
-0.027660877
0.00043529007
-0.022269916
0.030336762
-0.00044093528
0.028667554
0.012918552
0.014834224
-0.021359488
-0.0011831638
0.0176374
0.011185726
-0.0154226
-0.019951604
0.015469116
0.019140106
0.02731912
0.0058470736
0.0053745983
-0.003033731
0.052697793
-0.037371464
0.01116332
0.028537259
0.006054349
0.011573017
0.027815996
0.012279136
0.0010905007
-0.0074544614
0.013583788
0.005789249
0.009802771
0.070813395
-0.0068041864
-0.0034992837
-0.044266675
-0.04271969
-0.036462486
-0.07201933
-0.003614612
-0.024984455
-0.014076093
0.043087617
0.01656756
-0.021413872
-0.0262839
-0.028842676
-0.02150099
-0.07449338
0.019240545
0.011994159
-0.0009855136
0.048703786
-0.03315954
0.003401789
-0.017665291
0.0047016665
-0.003563161
-0.03370863
-0.009964649
-0.02719499
0.033607464
-0.025979536
0.05201078
0.026849374
-0.008417604
-0.039655745
-0.0026248791
-0.00087665755
0.038360573
0.018109797
-0.0018706694
0.045179438
-0.034716662
0.030420719
-0.009135321
0.017909039
0.018168945
-0.015127212
-0.007931724
-0.004951044
0.034332357
0.011517068
0.0031025575
0.018660294
0.0021557615
0.0035291165
0.0054495116
0.031399153
0.013659659
0.0048142713
0.015031356
-0.059487376
0.0061408067
-0.04893009
-0.049381446
0.025467914
0.008468114
-0.017447542
-0.024915954
0.036275893
-0.01789634
0.043521643
0.008194897
0.028209316
0.012551201
-0.009896031
0.014074633
-0.032855496
0.0076632597
-0.006855552
-0.020932885
0.014177659
0.0068178335
0.026474815
0.013649639
0.010535076
0.028295498
-0.02504967
0.0049464386
-0.029410847
0.026361456
0.03720451
0.0203978
-0.021105835
-0.019655567
0.0120957075
-0.017805863
-0.009003918
-0.024690507
-0.0074727917
0.022374393
0.029572258
0.022834243
0.008167651
0.025963247
-0.0008519127
-0.0009321726
-0.029454263
0.00025996304
0.021529736
-0.01586647
0.013538695
-0.022664698
-0.012590454
-0.024606945
-0.018629605
0.005841792
-0.0069874837
-0.0063351076
-0.01548537
0.0199243
0.0070340848
0.028692096
-0.027695166
-0.018282427
0.0229434
0.02678752
-0.020158239
0.0014277074
0.036135264
-0.017652163
-0.013245951
0.036113407
-0.0015365611
0.01670105
-0.003933614
0.03857883
-0.021168547
-0.014898176
-0.010245415
0.017671958
0.013752939
-0.025633652
-0.040269732
0.0006929911
-0.013673314
0.025488792
0.01073766
-0.00036432326
-0.032211613
-0.028900484
-0.01020035
-0.020560566
0.030706521
-0.044425838
-0.011166005
-0.012767566
-0.0062205708
-0.012310506
-0.024272459
0.027113816
-0.042393237
0.036343273
0.0013761788
0.027399095
-0.010548203
0.021089895
0.036350824
0.042107224
0.018817354
0.021995034
0.009802677
-0.018009935
0.01363862
0.009294148
-0.032867275
-0.036071423
0.012378289
-0.0021983804
0.00623335
0.025699457
-0.020602308
0.023953233
0.024245791
0.030620445
0.02374779
-0.022807559
0.008762669
-0.04303609
-0.036207512
0.026190134
0.026613995
0.0074768444
0.014747177
-0.018331526
-0.026372626
0.0082089575
0.005050544
0.024046581
-0.017588602
-0.0038012282
-0.019990334
0.012042284
0.027047992
-0.01611644
-0.003917369
-0.019432602
0.028685208
-0.007479732
0.0080136005
-0.010234269
0.022038836
0.01490214
0.031508703
-0.026739538
-0.016933696
-0.008002654
0.00079303933
0.018354127
-0.0056284997
0.030732658
0.0034399147
0.026584996
0.027082227
-0.022461344
-0.008101404
0.023955422
-0.027033659
0.04201043
-0.023296144
0.012867257
0.015916321
-0.017483912
-0.008812029
0.0023527367
0.0361727
0.002073749
-0.0010615957
0.013006903
0.01680241
0.020411802
-0.006970994
-0.02191103
-0.021242457
-0.020107498
-0.0151918335
-0.010023684
-0.007934207
0.027114749
-0.031453278
0.025580714
0.026120944
0.045173377
-0.012344255
0.03229152
-0.027927415
0.05574268
0.01037021
0.00083079503
0.009929009
0.0139379
-0.019315574
-0.011945898
0.026980324
0.000822219
0.0059599197
-0.0016074687
-0.0042100265
-0.03073242
0.037523754
0.02473158
0.017138284
0.02486388
0.009564521
-0.003935584
0.007649796
0.017143393
0.022730066
0.025646029
0.021883866
0.025059367
0.014853415
0.022886772
-0.024357274
-0.026100734
-0.0109476345
0.013640202
-0.015953464
0.022023782
0.023421112
-0.00882198
0.0148794735
-0.0044746595
-0.043378767
0.021869186
-0.0315318
0.012047147
0.014345297
0.01263318
-0.001209271
-0.042246908
0.0052322983
0.01200874
0.009486792
-0.010347048
-0.0074994853
0.02148709
0.005490583
-0.011496743
0.0064585246
-0.022666194
-0.020730939
0.00016005777
0.013428155
0.017810388
0.027985599
0.042658713
0.012288814
0.021926533
0.05681917
0.0030383714
-0.0070451307
0.011785949
0.018175106
0.010324944
0.01922643
-0.03264509
-0.04936964
0.005039448
0.0100193145
-0.015255503
-0.032619372
0.0049323994
-0.007305424
-0.017748045
-0.021013467
0.020190729
-0.01511219
0.010409555
0.014592539
-0.023335148
-0.061189733
0.0075128833
0.018270744
0.0036120971
-0.0054136957
-0.02008825
0.003814092
-0.018125782
0.009978409
-0.015321088
0.0047577354
0.03158489
0.00051453966
0.00935444
0.042687748
0.038272098
-0.009224051
0.00023617205
0.012586053
-0.029922752
0.02956845
0.01949689
0.006606319
0.020037584
-0.015923768
-0.021397859
0.014363899
0.008249417
0.016640224
-0.017483342
-0.013949984
0.020670187
-0.02507818
-0.0070947525
-0.0261949
-0.047141876
-0.023834305
-0.001809867
-0.016329268
0.0008226073
0.017744374
-0.020510832
0.024662595
0.009138084
0.013589114
-0.030999562
-0.00090779655
0.006780852
-0.023409693
-0.0014648914
0.017770719
0.0192007
-0.019274505
-0.050738476
-0.0064323307
0.02137479
0.008162802
0.012114432
-0.0012077548
0.02579015
0.008407877
0.00922905
0.011302184
0.019268395
6.575061e-05
-0.03199473
-0.027537454
-0.0155269625
-0.00078479946
0.0053532547
-0.0014291996
0.00808181
-0.008855577
-0.020989025
0.025088878
-0.011526852
-0.032379013
-0.041130677
-0.02724435
0.022619646
-0.013072263
0.018123211
-0.0026076597
-0.015881468
-0.020338498
-0.012891432
-0.015096443
-0.013549562
-0.009066085
0.0047763023
-0.005038584
-0.03533532
0.011471413
-0.018480957
-0.0047361543
-0.0007306393
-0.02297883
0.019207694
0.016139282
0.02793862
0.028689802
0.0004225699
-0.036453128
0.024209281
0.011286928
0.0034574186
0.023340978
-0.01822344
-0.024362344
-0.01373902
-0.010908776
-0.00832395
0.00081939175
0.024183167
0.016168632
0.027706068
0.0023819755
-0.0351552
0.00010092687
-0.023111634
-0.018696947
0.0057406197
0.008441016
0.032784756
-0.028005099
-0.037297525
-0.0029181691
0.014805537
0.022387238
-0.0327181
0.009076608
-0.017012235
0.0037958382
0.004137214
-0.012824846
0.024052989
-0.04085294
-0.037327714
-0.005408009
0.031411342
0.0019388439
0.02482779
-0.018599123
-0.0051642656
0.0377616
-0.001109713
-0.011545509
0.013803999
-0.036989097
-0.014323317
0.0072644274
-0.016287295
0.036074985
0.019177577
0.0052009206
0.0008748797
-0.03597694
-0.022025641
0.00033897164
-0.0031924231
0.010068716
0.010861944
-0.01091948
-0.006065079
-0.026870174
0.021479297
0.009471733
0.035070993
0.013889432
0.007327154
-0.010575734
0.012192325
-0.035951946
0.019668268
0.02737694
0.030290494
0.02015736
-0.008258049
0.005374113
-0.050982658
-0.014753525
-0.0015273098
-0.023798317
-0.012191955
-0.042736705
0.0019861362
-0.035390634
-0.008123194
-0.010726977
-3.850267e-05
0.010312658
-0.029333593
-0.008361888
0.009912712
0.0036487353
-0.0056202887
0.0058197593
-0.038719956
-0.032837328
0.017390894
-1.5385715e-05
-0.0029746126
0.00016235845
0.013445432
-0.021384744
0.03369346
0.029714344
0.040012866
-0.010910646
0.022854544
-0.014231506
0.02946393
0.026171317
0.022541475
-0.030791825
-0.02450249
0.044910073
-0.039315104
-0.01646028
-0.0034885195
0.03136255
-0.021388974
-0.01859418
0.0014234757
-0.01817626
-0.015731394
0.008518694
-0.03329373
0.004132028
-0.031259324
-0.021438288
0.03649416
-0.019703215
0.02034541
0.0150594525
-0.0307343
-0.010986435
-0.022628019
-0.025657712
0.024796247
-0.005865296
0.017688256
0.01568735
0.021837585
0.04143851
0.026258776
0.0033171936
-0.012216748
-0.024254307
0.0036765873
0.022464713
-0.03661035
-0.016695915
0.0017954942
-0.016509572
0.00051793363
0.008882771
-0.030812811
-0.03561874
-0.0156099405
-0.010904184
0.00087148615
-0.012346084
0.040589113
0.0018807155
0.005536055
0.039019577
-0.022973675
-0.013529326
0.016462894
-0.021252379
0.010515002
0.025270851
0.007393188
-0.026006475
0.032097872
-0.021248398
0.029999647
0.045099184
0.024544379
-0.049823467
0.018138431
-0.01605288
-0.022211526
0.020367803
-0.009831442
0.037127316
0.028618261
0.013645134
-0.014410066
0.014556633
-0.0033826258
0.027414741
0.011306826
0.01238085
0.010776092
-0.00956584
-0.02324547
0.019973544
-0.0008726604
0.04325161
-0.030351266
0.011275005
0.03015093
-0.0066137156
-0.03961359
-0.056708675
0.019639986
0.018968692
0.001092228
-0.02851568
0.02402159
-0.030487852
8.057015e-05
0.015628371
-0.0015620402
0.049909275
-0.035273734
-0.015554249
0.000368391
0.0014826052
-0.016172118
-0.037185483
0.039070413
-0.01616327
-0.01611244
0.008953496
-0.027744342
0.0030540254
0.02649679
0.031035133
-0.012785236
0.00041383755
0.035273083
0.035860203
0.03217439
0.0136919
-0.011601908
-0.015707664
-0.0002363626
0.013574194
-0.01429362
-0.016484227
0.021657988
0.027904203
-0.007701598
-0.040413935
0.005818605
-0.0055180537
0.0008305573
0.022436596
0.011908474
0.017252788
-0.009066279
-0.002622608
0.013892991
0.00072320184
-0.03264158
0.03117966
0.021909164
-0.016947946
-0.031922176
-0.010378756
0.014285603
-0.016485386
-0.0041100555
0.011082258
-0.004492453
0.009149249
-0.0004874408
0.031303357
0.069334574
-0.028817132
-0.013156873
0.006437223
-0.025252184
-0.020116014
0.032049436
0.0076921107
0.016555078
-0.013620137
0.021225322
-0.0044550016
-0.01805919
0.012827848
-0.012196217
-0.011409498
0.028557714
-0.01702419
-0.018575724
-0.0014729353
-0.020718029
-0.024788316
-0.010589699
0.009504609
-0.016563822
0.011280436
0.01831533
-0.0040906286
0.015098776
-0.013098347
0.018234782
-0.0045174984
-0.020968433
0.025777008
0.0051565976
-0.02022574
0.015579263
-0.0031786715
0.0004125324
-0.0198699
-0.022517921
0.005318435
0.012573157
0.006041982
0.011845419
-0.028185999
0.037400074
-0.02338182
0.02926723
0.014390675
0.037323717
-0.00065862114
-0.021500364
-0.028089484
-0.014678209
-0.00038256848
0.05746086
-0.025633415
0.003544568
-0.0017578225
-0.0072886017
-0.0059811138
-0.02304659
0.03491716
-0.016877757
-0.023395201
-0.02873986
0.0074290535
-0.0144346375
-0.009495212
-0.06673959
0.0033235732
-0.020236501
-0.020233732
0.00024055188
-0.0074427873
-0.024419237
0.0094481455
-0.021059975
-0.017529137
-0.0049899407
0.011616795
-0.015250763
-0.01839496
-0.0009572084
0.016849924
-0.01552631
0.027791215
0.0060309763
-0.019325892
0.0011963755
0.0047039967
-0.0032946065
0.005669274
0.018034944
-0.029523827
-0.00608386
0.00950087
-0.027596809
-0.0055162
0.0056223674
-0.0014170996
0.018334614
0.0028983871
0.003977272
-0.03859946
-0.013055786
-0.014520255
0.020819044
0.004201417
-0.024423778
-0.0096350005
0.03457672
-0.008134778
0.034575086
-0.0421564
-0.032116935
0.020298697
-0.00056590314
-0.00015764739
-0.03722129
0.021216363
0.031248415
-0.022431936
0.018013807
0.0033606573
0.015717227
4.730553e-05
0.004304971
-0.026839206
