// this file contains the dense layer function declarations
// additional layer specific parameters have been added 
#ifndef DENSE_LAYER_HLS_H
#define DENSE_LAYER_HLS_H



#include <float.h>
#include <stdint.h>
#include <math.h>
#include "../max_pool/max_pool_layer.h"
#include "../util/data_structs.h"
#include "hls_stream.h"

/*// dense layer types
typedef enum
{
	RELU_ACTIVATION, 
	SOFTMAX_ACTIVATION
} DENSE_LAYER_TYPE;*/


// second type of dense layer parameters (connecting to first set of dense layers)
#define DENSE2_BATCHES 1
#define DENSE2_INPUT_X 57
#define DENSE2_INPUT_Y 1
#define DENSE2_OUTUPUT_X 19
#define DENSE2_OUTPUT_Y 1

static weights_biases_t dense_weights_one[1102] =  {-369690, 194310, -273942, -223091, -283700, -153485, 194727, -117142, -427839, 189413, -151946, 214362, -93489, -367768, 138272, -469690, 63792, -214106, 1911, -122195, -360599, 195494, -313147, -178267, -82130, -192406, -329336, -21892, -341299, 151670, 40528, -168920, 195289, 188258, 65573, 152079, 164134, -262186, 282538, 241069, 259625, -361029, -343522, 293306, -254232, -429128, -85894, 264335, -57584, 165285, 127501, -308701, -225301, 230283, -229681, 248792, -220778, -448821, -582031, 36420, -129649, 188627, -156940, 171093, 211573, -10828, -74648, -282076, 167118, -163548, -96820, 190387, 154722, 152143, 171230, -288908, -37913, -354786, 260946, -453768, 53834, -452499, -404713, 50895, 238911, 169414, 206734, 160276, -315001, -327271, 187887, -129136, 270655, -90770, -63849, 235182, -47375, 25061, -291109, 257564, 224363, 284306, -430843, -321428, -9111, 265247, 80729, 241100, -184860, -232794, -373908, -493192, -196422, -339045, 23801, -393224, -44694, -297712, 183408, -44887, 145666, -23661, -56021, -58040, -306016, 220719, 21690, -142432, 149559, 91101, -219868, 184778, -285724, 248454, -129387, 236042, -13700, -237199, 124608, 113109, -414313, 238960, -80107, 208310, -274342, 234971, -394823, 213447, 238681, -63978, -44829, 275057, -337874, -327189, 157291, 196829, 230431, -319769, 200783, -220887, 96498, -511392, 11023, -215880, 123614, -372648, 89441, 82695, 139663, -383480, -227550, -4626, -81680, -242779, 166831, 74166, -358884, -68462, 173945, -443648, -82430, -288878, 202724, -211015, 250789, -130557, -153206, -465738, -96915, -339729, 240694, 250910, -70704, 224470, 53892, 256829, -33929, -430854, -303874, -106477, -171931, -156505, 178372, -29085, 230647, 218706, -277032, -46889, -276808, 139398, 33695, -402555, 59276, -235081, 101376, -525575, -294949, 110430, -123110, -422005, -379915, -205051, 114311, 110306, -365258, -360525, -285009, -313144, -369524, 89166, -184753, -408431, -26086, -12659, 186881, 188083, -430562, 211781, -423740, 56063, -502830, 157231, -116615, -459783, 183730, 235052, -11591, -187532, -402114, 281061, 168666, 194785, -303945, -311948, 39529, -338896, -277092, -291506, 215614, 268068, -331306, -447817, -239732, -134560, 167763, -92525, 251471, -236183, -539585, 174405, 160592, -210058, 195418, -146169, 258408, -186073, 161504, -365177, -211806, 246231, -59339, -230605, -177146, -263872, -340207, -185185, 151794, -199572, -39552, -562020, 200292, -401329, -293716, -346156, -38196, -552459, 178732, -369330, 69124, -373829, -305695, 120939, 171588, 207067, 106947, -293073, -253905, 190980, -379461, 34179, -158768, -239772, -37875, -386002, 164708, 249296, -34048, -271799, 31914, 204805, -270533, 252101, 211055, -323461, -285853, -248903, 204432, 238981, -102815, 8424, 211419, 288751, -178807, -204774, -147136, 1232, -260736, 92951, 196533, -354430, -215904, 188464, 262768, 222858, -273956, -355929, -119286, 245079, -190991, -991, 165312, -251787, 219762, -352102, 243575, 68944, -363182, 211476, -143611, -282518, -200143, -396050, 253582, -50849, 248308, -133814, 173954, 261198, -213884, -506273, 14293, -206785, 232502, 149093, -219509, -288889, -477917, -277081, 254391, 232104, -204385, 149988, -97300, 159004, 101746, -422259, 141505, 102370, 42516, -219851, 117120, 134342, 78011, -381012, 108389, -299309, -153845, 178763, -266006, 173227, 197841, -319789, -62763, -485618, -98669, 105129, -124862, -383630, -252831, 100184, 66301, 98366, -441208, -277037, 156999, 155285, 201475, -181507, -513029, 120600, -21971, -229615, 127477, -255434, -1160, -251646, 129289, 78227, 99471, 141704, -348396, 82918, -74433, -570474, -572924, -526563, -575286, -67200, 98946, -458046, -247883, 79829, 109957, 143302, -315358, -457026, -134901, 123412, -200681, -362529, 141940, -189335, 150327, 90531, -283549, -319986, 254013, -113143, 210557, 208085, 240672, -88115, 271094, 92648, -134673, 207866, -320501, -193115, 285009, -394036, -392093, -37833, 68586, -235796, -279138, 241074, 81535, -174892, -44368, 35763, -189117, -279069, -46396, 875, -331636, 42104, -32428, 302401, 311622, -267518, -181634, -238652, 252683, 180589, -10182, -151560, -402568, -583931, 180042, 152113, 66003, -373312, 150273, 202128, -30811, -160460, -414310, 187431, 173649, -223785, -102622, 20589, -59043, 182437, 138827, -27247, -377831, -178507, -196530, 133174, -220572, 219124, 225584, 222926, -149737, -87645, 251760, 239698, 215296, -340952, -297715, -422728, -247412, -318267, -288497, -239252, -195249, 207661, -259956, 310623, -110059, 306036, -260349, 249953, 22723, -90306, -318049, -179821, 284995, -22697, 279863, -430662, 151581, -116091, -453468, 151258, 111418, -94708, -152586, -178871, 308022, 175994, 264052, -184759, -200354, -111150, 48307, 17794, -260095, -284503, -110619, -324417, -245695, -94260, 295226, -369029, -139481, 299522, -109831, -285664, 67166, 65620, -244394, 147419, -243681, -464774, -193948, -163416, 224354, 46435, -361361, -80519, -220134, -174531, -458158, 117956, 117461, -499109, -133398, 74453, -12422, 128521, -447743, 18541, -159998, 94961, 109950, 109745, 66131, 154151, -216125, 154652, -316255, 117406, -285123, 90658, -384609, -363248, -315593, 86335, -480383, 141694, 145539, -264467, 108573, -290641, 121055, -523927, -317551, 19058, 209662, 281403, -188468, 234230, 255611, -159002, -138674, 241759, 202809, 272990, 243376, -395803, 163205, -146544, -282162, 141120, -97150, -229378, 79907, -294880, -456021, 61631, -276920, -234669, -297099, -221764, -53489, 32910, -479115, 74783, 87681, 42490, 70879, 65036, 54034, -202190, 215680, 179055, 224966, -396330, -218447, 171780, 59158, -638889, -314361, -86158, 98618, 211486, -427858, -165711, -281350, 155202, 203104, 236522, -404333, -491850, -142009, -240689, -89838, -157460, -586427, -185159, 183246, -499967, -224003, 196872, -369201, 231143, 222519, 179773, 50451, -237081, 191415, -112351, -28412, 303181, 128825, -262072, 328630, 86003, 42025, -179643, -116480, 15015, 278001, -208987, -85697, -385352, 214609, -236295, 53454, 319143, -374347, 49721, -285298, -107329, 140472, 340290, -290351, -421349, -319531, -24371, -355473, 297952, -6464, 306747, 25967, -289643, 49842, -282419, -146513, -307057, 200363, -415266, 206277, 242512, -441357, 211249, 226613, 198823, 232592, 211331, 29367, -94004, 197136, 161904, -429365, -260140, -461649, -451044, 26809, -208743, 216603, -267925, -555138, 189075, -330751, -128494, -69860, -257915, -70224, 181229, 161909, 206527, 216946, 215914, 199104, 196677, 183753, -533160, -387693, 70200, 160872, 192803, -434024, -96214, -3631, 143174, -200950, 211936, -105835, 35233, 208044, -270491, 162768, 251116, -532022, -401420, -5184, -345611, -248100, 77103, -356411, -252752, -134533, -309757, 194930, -81795, -253422, -149114, -134391, 189923, -319266, -210828, 334171, -212308, 285907, 213101, -414660, 194907, -465223, -215818, 225589, -63419, -162773, 176386, -112189, -216845, -60874, -242629, 211573, 214683, 212151, -233671, 207492, -352021, 143669, -88378, -312051, 177530, -215167, 138212, 195408, -96420, -248796, -283198, -25409, -53234, -81816, -565510, -34227, -356374, -417117, 152116, 197868, -220832, -415218, 292004, -103967, -279984, -107817, -468753, 62980, 281734, -52655, 261434, 325134, -81112, -354202, 6031, 256414, 189325, 35594, -198873, -144601, -85921, 69163, -392663, 78473, -481719, -182965, 195669, -401841, 212577, 163837, -394454, -98674, -242139, -388800, -462733, 191830, -140698, 191872, -150194, -347592, 180988, 84401, -307876, -36358, 60291, -124048, 250753, -329097, -250010, 9332, 151416, -59565, 322782, 278981, -102000, -69135, 250593, -463911, -29196, -87649, 96360, 180902, -160858, -376002, 201689, 183511, 208102, 13007, 88327, 185863, -187360, -326158, 87884, 129677, -467763, -364141, -129367, -359852, 345360, 220159, 19290, -319506, -148452, -170189, -42518, 3512, 102888, -307036, -173758, -169137, -419309, -69128, 344737, -282200, -167633, 135254, -313430, 244086, -229714, -86652, -327578, 155680, 237492, -227519, 257930, -293403, -219419, -132303, -56423, -310946, -276954, 226662, 203087, 124480, 97487, -262105, -342241, -474549, -242904, 148866, 170496, -234822, -111061, -325741, 153255, 28669, 216112, -448626, 42222, 216299, -140869, -332450, -134231, 200498, 265520, -302265, 285193, -223688, 219475, -108861, 256635, 111003, -91112, -566080, -128899, 182002, -195521, -459796, 254921, -13929, 194427, 119305, 186156, -353217, 149806, -491244, -243542, -16487, -343707, -130525, 245870, 289539, -138495, -348612, 142684, 83820, -193501, -333841, -358928, 143140, -140935, 114676, 171368, -158873, 159181, 53562, -165354, -203866, 138050, 132719, 137473, 119400, 18416, -338288, -201728, -282591, -235177, -424587, -421233, -244275, 215013, 194838, -236386, 195224, 160825, -175427, -371119, 248579, 220992, 243445, -389686, -244473, -374122, -211077, 145032, 4558, 124062, -87817, 225099, 251580, 310916, 326549, -65671, -96923, 209246, 46685, -86006, 20992, -331547, 315398, -312336, 336252, 20558, -233048, -63423, -135499, -337428, -209848, -107071, 22099, 85866, 2655, -32634, 18975, 38174, 104686, -200760, 81129, -145432, -14187, -48320, 8, 245926, -34019, -136524, -22395, 16268};

static weights_biases_t dense_weights_two[1102] = {-89346, -429964, 239133, 268076, 266111, -105803, 194006, 167566, -87170, -44532, -368869, -303694, -307357, -187044, -278314, 267835, 179304, 320541, -30120, 56155, 101093, 57986, -78933, 186717, 139604, 195868, -428075, -92441, -305968, 181013, -201756, 181244, 187396, 127095, 39057, -327186, -445074, -429547, 302155, -309955, -100992, -166111, -462628, 150462, 258818, 102296, -334087, -292099, 35796, 13668, 305654, -229763, -91049, -224805, -261027, 109910, -123723, 205881, 286844, -11065, 293542, -320041, -146626, -443515, -221359, 270409, -320184, 92706, 163547, 115399, -425789, -219719, -91268, -177027, 77368, 129317, 141361, 197432, -397134, 184588, -151614, 183342, 128174, -256496, -401034, -168135, -547865, 137979, -216758, 126018, 6347, -317326, -445431, 117723, -217288, -8358, 213455, -269323, 136628, -145780, 156963, -563077, 233336, -334904, 240329, -360141, 47014, -362924, -209778, -143888, 46860, -323674, -198851, 135139, -336105, -233006, -256332, 164049, 206365, -488885, 206820, 222091, -219116, 15040, -336435, 141771, -2482, -213793, -391483, -117371, -323622, 173299, -218740, 51347, -230851, 54828, -273475, -170839, 100070, -343315, -507182, -30679, -317612, 136215, -351539, -491569, -340422, 180051, 238684, 164650, 72827, -132720, -244908, -256329, 306061, -211203, -358613, 416657, 123297, -103187, -5334, -124343, -322017, 92504, 10929, -328340, -211629, -222678, -281820, -8195, 352753, 192571, 124968, -441724, -142603, 233540, -42750, 188966, -314012, 238067, -20098, 212081, -320422, -97060, -353297, -101161, -166410, -320078, -633811, -28997, -342264, -331632, -267858, -209404, -81502, -377068, 138134, 265687, -197071, 251404, 222576, 180388, 41153, 120986, -89625, 190637, 180705, 129718, -379920, 197710, 13089, -339503, 216492, -350745, -174404, -292414, 179146, 246375, 107052, -465444, -77130, -65549, -364181, -195932, 236400, -158358, -270706, 173911, -228725, -379854, -338333, -284813, 333438, 107271, -222017, -89121, 149374, -29104, -221590, -333879, -466578, 174960, -417216, 86961, -241455, 118861, 113316, -277760, -196441, 149901, -145034, -395317, -265766, -269589, 34653, -382301, -212420, -126106, 93176, -68346, 184776, 163189, -200571, 168274, 202321, 110228, -425165, -313089, -216593, 173588, -244552, 106004, 168154, 6218, -346913, -369743, 203506, -162653, 242076, -125771, -249804, 94134, 249083, -110948, 229516, -100794, -107728, 98929, 176335, -343340, -113444, -371486, -292860, -195824, -23267, 42968, 346946, -162720, -322628, 290076, -2979, 264172, -248073, -63961, 193681, -484788, 243313, -324411, -247110, 95431, -271797, -232659, -313290, -106877, -87243, -446847, 219085, 221644, 154513, 200372, 102874, 56703, 162844, -87223, 98498, -499299, 232237, 221159, 193788, -506249, 134673, 260460, -61377, -236853, 212274, -453876, 250949, 221977, -180804, -318011, -242137, -357417, -357097, -192415, 228592, 215365, 236366, -265960, -212330, 209342, 89722, -297946, 17064, 117199, 242780, -431745, -402866, -196848, 149289, -313769, 199447, -233593, 22495, -271014, 130969, 188410, -152564, 158869, 190999, -334959, 184236, -126410, 128291, 190282, -361343, -512963, -289761, 155911, -84207, 128238, 199189, 6304, -52825, 98098, -270364, 210493, -246242, 198513, -191277, 20718, -374361, -110406, -310913, 231020, 200740, -296362, 93492, -223806, 151746, 16209, -271451, 173494, -511979, -497116, 197162, -450434, -335710, 240001, -260848, -297349, 211872, 58705, 127574, 258565, 16774, -254895, 212083, 162721, -48194, -237916, 222079, 202039, 81802, -302500, -272110, 10359, 120408, -272763, -243902, -298108, -280631, 170979, -33499, -114296, 122510, -120980, 249273, 302960, 57644, -83760, 175918, -292607, -22171, -120344, -362753, 310729, -283136, 320559, 130305, 301654, 132474, -204335, 314593, -332221, -133996, -13836, -52912, -95454, 226708, -377682, 138326, -476683, -343690, 272079, 201914, 274021, -256394, -64017, -220516, 102331, -132192, -335936, 238263, 243037, 133407, -410569, 176711, 273265, -260352, 27286, 80716, -105952, -378304, -238995, -327411, 239535, 66250, -409284, -274989, -84105, -178618, 270804, -264979, 112308, 137613, 72966, 173793, 83416, -471076, 8710, -412265, -155900, -314276, -509215, -212511, -201086, 219724, -230647, 171437, 254639, 239901, 151839, -75922, 340520, 347162, -410573, -150004, 10319, 363521, -355210, -117564, 79630, 315846, -35678, -257125, 25915, -79230, -55791, -308997, 169775, 151486, 328362, -223355, -950, 268743, -178587, -424477, -313653, 24467, -366161, 102848, -365995, 210186, -26966, 312548, 259722, 224380, 280781, -275028, -184774, 53211, 205678, -136960, -231531, -233717, -154772, 203710, -492932, -284052, 243538, -297233, -327211, -323514, -243857, 216695, 4096, 224445, -420398, -44031, -458967, -138298, -351951, -304319, -30459, -449474, -245798, 208885, -168578, 229165, -143213, 136507, 38447, -219188, -465963, 182919, 241186, 244845, 241997, 237050, -126847, 92027, 249777, -246364, -33813, -333730, -257117, -48108, 137815, -87510, 63575, 210043, -370693, 332094, -287282, -98175, 276421, -91264, -208975, -257582, -85802, -457826, -165162, -41140, 329792, -271503, -42029, 45603, 25303, -62801, 350150, 92950, -182970, 222872, -139192, 10470, 81824, 340887, -224606, -188027, 112769, -402420, 136805, -322863, -346206, -315932, 203919, 50342, 181582, -185916, -301580, 204682, 159306, 147368, -264707, -273094, -117825, -1920, 287931, 232722, -336141, -142452, 1059, 186031, 164697, 11057, 345271, 281255, -138202, 313854, -156159, -330015, -246834, -65685, 119293, -64851, 26163, 92933, -393476, -288348, -253971, 30878, 88594, -567823, -393672, -4942, 78478, -37808, -137263, -468931, -135749, -389914, -370938, -66104, -267106, 181764, 213613, -157439, 185006, 211755, 139435, 200473, -119607, 47103, -365882, 208914, -30085, 173226, -499899, -305108, 205038, -503873, -336970, -16248, -502094, -155447, 3820, -256684, 78330, 48729, -468610, -279406, 210641, -249504, 141772, 310935, 107560, 98608, -252131, -287057, 306741, -3535, -122054, 222717, -213617, -363140, -198904, 102071, -359347, -305747, 232421, -8280, 315237, -235599, -39361, -412406, -192219, 136397, 12639, -287807, -187968, 152322, 165754, -399367, -194743, -244949, 109323, -376888, 206531, 209369, 193713, 116998, 202577, -100708, 200580, 165326, 136271, -269836, -343225, 185887, -117021, 93056, -327609, 109076, -510542, 24823, 47766, -26999, -181975, 4675, 156641, -169288, 113856, 157969, -472345, -229973, -409179, -351146, 113090, -58555, -406052, 234053, -183603, 107459, -20460, 159226, 227953, -293037, -39863, 135056, -413544, 238239, -229529, -456002, -195129, -413613, 111289, 248508, 204510, -219567, -139804, 312503, -295238, -457100, 301535, -288794, -358256, -251663, -434697, -154100, 294655, -10895, -380822, -263019, 96490, -149592, 337762, 37426, -468637, 144325, -228207, -61129, -466254, 101360, -237241, -374431, -133030, -69520, -248486, 193153, 142777, 204125, 86876, 217830, -315081, -287071, -294715, -240627, 308793, 70072, 310423, 41204, -129725, 41176, 239923, -389768, -302211, -346105, 52928, -260822, 107529, -245149, -413597, -187999, -210448, 233154, 15304, 138960, -298743, -328761, -210608, -62244, -8570, -113919, 291020, 302270, -389203, 274765, -393852, 249660, 224411, -173911, -207659, 50632, -280560, -19822, 200831, 28362, -405193, -426672, -36716, -459827, -433144, -63981, -40513, -196900, 11928, -200320, 165684, -215556, -434123, 280148, -235860, 273200, 197229, -193880, 162425, -194410, -244174, 163046, 68241, -403678, -237660, -401215, -172824, -188812, -252179, -124893, 167128, 217811, -107148, -99999, 193370, -11461, 131026, 177324, 243281, 18947, 183152, 238584, -537030, 34007, -421843, -317505, 53778, 259906, -321185, -138312, 226480, -380999, 228813, 177900, -81174, -30601, 191932, 50405, 188628, 235672, -187998, 72035, 194516, -177686, -367640, 49295, 206457, -61082, 286520, -252050, -208507, -436221, -47768, -61367, -263162, 242819, -263297, -46356, 254978, -499043, -82727, 98135, 176516, 151525, -190538, -431799, -285064, 157125, 286194, 203083, 224013, -53385, -23540, -331220, -482063, 156880, 238301, -308983, 136934, 217350, -58308, -215753, 122103, -9719, -420367, 250914, 215928, -284450, 93842, -268115, -167701, 321468, 35494, -62822, -283811, -485290, -310845, 55522, 143507, -145616, -86763, -207116, -337557, -122532, -431453, 253924, -92782, 63031, -119235, -189119, -78234, 145131, -437131, 164944, -19549, -167968, 161068, 117746, -420106, -280323, -142113, 92156, -355233, -430023, 33799, -191181, 2246, 172203, 131175, -103604, -275193, 203521, -503379, 241522, -174400, 264612, 2462, -301713, 260379, 238813, 6020, -56769, 11048, -317985, -277853, 240475, -172430, -420796, 32442, 161766, -45750, 106672, 125489, -420000, -342234, 155813, 181549, 213938, 135339, -101671, -375614, -298916, -120690, -164093, -430931, -329008, -445312, -52658, -169844, -317813, 225945, 158531, -297438, 122917, 39542, -256208, -375127, 211612, 79447, -380478, 234318, 141196, -346174, -69531, -13967, -6053, -58760, 12605, -67634, -190442, -87105, -80410, -70080, 205035, -152314, 228246, 12245, 48090, -19598, -25846, 154522, 141838, 145359, -35369, -271960}; 


static weights_biases_t dense_weights_three[1102] = {104131, 62495, -397224, -133702, 136988, -60700, 141347, 128872, 86145, 141779, 118853, -348025, -261294, -383788, 44654, -233953, -500552, -242892, -132175, -169159, -119034, -189255, 171126, 288384, -477445, 228274, 33443, -219324, 14677, 231620, -139692, 238015, -480310, -48774, -314627, -467999, -170357, -329019, -250380, -296877, -228982, -150754, 125791, -442266, 174893, 141154, -124868, -50228, 179943, 127365, -86523, 162619, 167233, -367799, 144910, 145927, -13470, 227523, 260122, -291402, -250872, -239060, 109869, -395312, -51040, 298585, 326762, 136866, -275891, -281531, -99034, 102939, 236100, 109577, 40733, -288250, 121798, 155640, -171834, 123727, -481531, -179771, -489302, -171535, 189474, -235292, -415256, 111345, -41032, -220556, 222077, -274492, -530274, -108502, 170720, 174577, 143739, 195739, -211983, -231160, 147009, -256377, -254744, 173089, -304205, 206394, -217335, 193658, 199101, 122180, 165142, -481211, -306175, -339024, 187623, -433384, -169710, -260324, -235494, -185097, -112155, 191500, 281129, 270798, -269834, 176894, -334681, -160000, 110753, -329370, 263451, 263687, -129132, 133976, -144663, -227535, -316545, -243445, -214777, 181922, -29856, -185763, 116915, 165988, -2724, 130200, -558249, -216677, 111579, 15670, 161489, -141228, 242790, -59255, 351887, -189471, -108254, 302083, 246720, -185974, 243333, -198076, -163569, 179079, 338924, -154032, -127003, -250738, -425020, -171772, 208694, 110463, -457411, 94959, -119206, -323120, 10378, -387641, -214189, 169906, -108727, 879, -230578, -437653, 180424, 153538, 129043, 166572, -297413, 87397, -279248, 121224, 128266, -280148, -92146, -226276, -351288, 254812, -249592, 278340, 9757, 257158, -30282, -204262, 8800, 85581, 33901, -239730, 222567, -170354, -295217, -42192, 38413, -162786, 83433, -194394, 227233, -69050, 156383, -588782, -101451, -435985, -467908, 116528, 227454, 240138, 271410, 240771, 57304, 21131, -16646, -334695, -357028, -277380, -449, -336710, -172037, -122393, -380008, 253412, 16956, -317275, 376896, 86989, -175651, -246798, -197316, 150945, 255706, -268895, 232474, -345397, 143129, 210113, 14271, -91076, 236063, -209964, -144648, -285907, 164350, -42287, -426424, -90449, -259761, 127771, 104272, 251126, -238587, -323696, -363272, 244244, -46399, -235465, -170888, -136472, -90570, 258369, 238760, -170253, -98104, 169077, -264894, 287032, -22007, 292862, 340332, -208730, 324968, -201780, 238444, 313235, -57591, -110842, -234367, -297564, -159019, -153566, -228007, -125694, -33012, -152385, 211730, 50280, -20866, -221375, 192176, -239839, -6287, -261798, -219704, 217884, -211301, 213359, -76001, -175544, 137045, -502966, -451234, -442531, 190550, 10379, 112311, 161985, -261526, 12942, -285541, 184589, 68678, 184702, 85319, -273184, 213577, -209535, -112931, 77852, 254233, 69441, -412759, -487725, 65780, -115566, -149475, -231999, 243090, -282787, -388869, 167336, -299227, -395225, -213597, -311444, -109145, 125104, 146819, 262752, 242106, 26723, -218541, 256523, 147770, -299152, 215501, -323725, -275634, 117984, -97379, 239003, 137149, -401258, 279557, -143226, 3766, 294359, -250395, -292454, -264646, -148752, -203584, -47039, 188289, -148177, -193400, 228191, -407073, -197135, -150823, -41780, 166505, -348251, 233406, 194744, 289482, -187460, -195623, -45295, -376711, -213853, 141427, 68499, 33878, -203759, 172122, 180821, 147753, 191706, -176027, 22536, -365059, -358492, 56869, 176150, -237312, -95896, 116672, -279384, -253215, -284739, 101772, -120189, -104441, -159451, 246051, -322121, -52718, 200830, 257509, -35790, 244957, -321679, -350680, 332781, -238484, 337985, -134808, -113449, -288930, -246743, -50954, 69804, 264729, 208620, -226235, -280968, 265983, -18627, 6842, 165760, 102756, -338370, 280945, 201590, -198735, -128601, -294667, -210579, -161139, 181825, 197096, -96025, -224866, -64074, -427963, -153878, -28883, -37348, 182290, 186689, -280725, -277654, 35167, 216636, 55781, -307443, -341259, -117333, -351360, 256934, -256576, -154184, 224337, 48382, -335518, -226196, -350217, -88723, 206479, -72480, 182627, 256930, 247124, 238780, 244082, -67951, 102096, 308945, -278832, -15454, -268779, 221851, -397175, 289222, -309452, 294956, -294908, 99537, -233062, -34687, -258055, -170070, 39540, -107382, 263859, -173181, 207598, -191419, -21512, 113392, 182606, -24324, 31192, 212614, 175010, -145743, 222151, -408999, 251947, 222334, -580989, -353339, 64686, 90448, 185795, -154988, 157014, -27185, -166803, -239594, 158388, 237337, -167317, -25696, -345553, -324304, 72214, -466911, -120460, -268879, 158930, 234669, 165239, -312896, -515916, 146190, -334131, 100657, -335086, 101958, -246671, 165742, -251532, 149886, -23463, 164798, 128620, 39998, 142555, -218435, 136622, -241447, 252360, -254991, 242964, -17770, -266198, 269238, -131471, -190111, -212832, -435471, -133166, -26275, 199464, -311373, -97892, 223001, -329774, -160437, 248467, -255564, -197647, 114404, -126870, 246497, -147734, -113369, -183819, 300311, 264651, 160071, 211706, -185030, 163304, 263631, -212797, 288178, -72237, -309473, 271874, 237188, 212685, -346998, -338782, 187818, -508996, -35233, 270436, 150699, 232459, -226986, 173317, 97871, -242137, 210287, -160789, -145857, -400556, -95890, -164419, -148918, 262778, -342459, -143351, -50837, -88847, -197372, -402466, -121121, -149904, -287784, 281210, 303331, 228014, 306165, 33980, 307785, 84284, 155551, -192474, -89085, 273289, 305740, -50077, -164547, 299999, 338334, -135717, 297899, -268447, 38540, -117961, -352101, -332691, -104753, -303103, -42731, 26555, -336037, 158875, -190050, 160400, 105257, -24366, -305576, -290845, -287344, 99473, -442839, 224647, 198880, 176134, 166546, 131444, -180616, -407463, 199718, 181979, 185337, -40079, -76109, 204610, -147023, -297850, -70476, 197199, 160516, 194020, -375225, -373724, -79118, 97802, 222753, 193658, -184292, -422200, 191105, -291720, -281796, -340163, -254267, 191394, -121809, 178775, -339140, 159738, -342312, -498994, -215868, -451514, 262558, 54324, 178317, -220501, -221113, 304187, -231809, -83801, 229997, -369334, -205018, -79639, -22905, -173659, -15503, 137058, 291833, 238948, 254586, 247766, 247230, -228155, 243484, -157564, -178938, -283057, 59615, 88456, 274699, -316135, 203695, -13575, 312335, -159738, -51953, -400130, -307, 261450, -354903, -274200, -169444, -362979, -155793, -352140, 270990, 253117, -87401, -167987, 257791, -188005, -256210, -376892, 214148, -336958, -136446, -354285, 50381, -262857, -73756, -103571, 144654, 146446, -351440, 185283, 209972, 38349, 149733, -103382, -321542, -75145, -338852, -27671, 193982, -258268, -214915, -21796, -567780, -328676, -334347, 289670, -206136, -244683, -128932, 16863, 325331, -306756, -162042, -45128, -81721, -353602, -29812, -126572, -91504, 310212, 262585, -109055, 111700, 315475, -230386, -274266, 287061, -174496, 279319, -193817, -144684, 32552, -91048, 270413, 99089, 243197, -182258, -34188, -312186, -435219, 210347, -295589, 166524, 37204, -132588, -82093, 285409, 123178, -223451, -94407, 290246, 258991, 16874, -143443, 228951, 136249, -204170, -232201, -275273, -278745, 280951, 128436, -328784, 234201, -203603, 90243, -65230, 256459, -101, -339783, 180868, 30938, -62590, 193536, -274217, -497369, -118800, -148265, -289347, 282957, 276390, -310014, -164571, -297009, -124166, 212787, 165733, 168973, -292033, -83632, -156211, 208767, 85768, -264204, -9426, 16234, -427904, 237728, -166367, 225517, 301599, -343267, -93461, 116092, -83660, -66688, -301721, -273442, -193223, -102345, -211328, 4718, 300240, 309989, 199071, 200583, -710, -259325, 270898, 195216, -325352, -273193, -77423, -372534, 159921, -270146, -164422, 220058, -126599, 162780, -227922, -49717, -228603, 213088, 248471, -419237, -30906, 175763, 14700, 168225, 267325, 211691, -127035, 125380, -177469, -219658, -262800, -296837, -102996, 217487, 197220, -191238, -336510, -322124, 244455, 228477, -4660, -23972, 261779, -387537, 273166, -169060, 209599, -257994, 267981, -310272, -63660, -167093, 289422, -391958, 259895, 14747, -373026, -78463, 180537, -243111, 233357, -244923, 111313, -228754, 242562, -284047, -239116, -200255, 205467, -234104, 264012, -211057, -255686, -121213, 28110, -309611, -105806, -220411, -134520, -309770, 195245, 224045, -101398, 155808, -70687, 252888, 34862, -254288, 117251, 93761, 24470, 149342, -520472, -261410, 227430, 271404, -167832, 213380, -270222, 196458, -134033, 235530, 254561, -50908, 177079, 251051, -424501, -124674, 251334, -61017, -210643, 105551, -330510, -225105, 250483, -357509, -194985, -181956, 198576, -353432, 216341, -204778, -379494, 263269, -137559, 126291, 51213, 280429, -270792, 127694, -92462, 37219, -213560, 57762, -388052, 52595, -284291, -108541, -161242, 243468, 261796, -277103, -324139, 200016, 239430, -106510, -238086, -245457, 181850, -10977, -354658, 142395, -262842, -305129, -302046, 188294, 181690, 150943, 188135, -187921, 210757, 41513, -283505, -214121, -414805, -412942, -98054, -66726, -204312, -203919, 237739, -521, -49077, 111172, -148729, -27479, 95628, 67002, 12777, -100973, 42511, 175250, -26916, 68836, 5061, -227782, 26569, -7032, 232860, -138399, -76904, 97750, -137429};


static weights_biases_t dense_weights_four[1102] = {98542, -329545, -355309, 166311, 200536, 19073, 225414, -11426, -449356, -331051, 19813, -272727, 187654, 248010, 137619, 224766, -39146, -65843, -198060, -142750, 27002, -209531, -35558, 272080, -157132, 205609, -141813, 219605, -114687, 252304, -82189, -212975, 235715, 195740, -243419, -348554, -454698, -218951, -377037, -348200, 95832, -410375, 178239, -45947, 82925, -276620, 226979, 162382, 119628, 164932, -132458, 153886, 165312, -209515, -168389, 206700, -203275, -106054, -8904, 121538, -150659, -385659, 79515, -459283, -237753, -233762, -308846, -338704, -243980, 134188, 165902, 113433, -191258, -438019, -109416, 67391, 302092, 190872, -205385, 257939, -315436, 125453, -223906, 283529, 201942, 25534, -57119, 222687, 249292, 238696, 184301, 251608, -321706, 216822, -297786, -243165, -190890, 106929, -72133, 137749, 105454, -353433, -214864, 175456, -116743, 232195, 179458, 119561, 158284, -246348, 239616, -220985, -211555, -286551, 291377, -388013, -212175, -417058, 48242, 80460, -277477, -67101, 253010, -120281, 34597, -143351, -385490, 239148, 100999, -403317, -477479, -34190, -325897, -48096, -83537, -35257, -264058, -260271, -163087, 203922, 235292, -124647, 259685, -25928, -124951, -345105, -409267, -163162, -340087, 282253, 228657, 202589, -203586, 5418, 244111, -73408, -309280, 248009, -274250, -191206, -209642, -123477, -297310, -8784, -288710, 273410, 259476, -220682, -138790, 210915, 151855, -125058, -383327, 159650, -16071, 236709, -97434, -227046, 96962, 219024, -165345, 222825, -50454, 167335, -601858, -331198, -163620, -288870, -364999, 228835, 205213, -324331, -345881, 231540, -152428, -139649, -46096, 170429, 243893, -394624, -308686, 60155, -120518, 269763, 234320, 272345, -29400, 208498, -228481, 152352, -36368, 294761, -180265, 171081, -98942, -93202, 185091, 271825, -192296, 137531, -115434, -24346, -103520, -186108, -59075, 297702, 252428, -376459, 258499, 194497, 70845, -334556, 197425, 223678, 233348, -118691, -219780, 111434, -41823, -218814, -219217, 82482, 123025, -219419, 33644, -66560, -436125, -225939, 210055, -245028, -220531, -44729, 102133, 165259, -317, -367649, 226346, -328168, 218112, -223394, 221520, 207165, -473038, -240516, -15809, -103971, -203185, 217262, 202473, -220578, 36582, -37090, 275133, -354663, 150259, -269587, 221742, -245519, 2575, -472979, 143567, 307268, -288897, -200508, -67926, -61222, -75719, -73577, 209766, 282724, -371197, 279605, 305608, -218751, 290868, 269080, -94504, -150048, 127804, -109474, -65443, 72853, 185804, -225825, 288570, -298218, 244368, -264740, 113500, 17466, -102540, -394754, 279764, -89791, 273200, -318154, -22623, -443140, -233811, 302183, -22790, -470261, 13515, -299183, 162956, -388805, 212725, 215087, 138437, 214179, 134971, -297225, -94391, -254401, 182542, 174867, -362620, -509315, -335444, 107895, 69268, 170610, 185846, -226222, 74934, -530901, -534192, 116246, 64568, -146629, 12005, 176503, -320237, -174862, 126343, -303377, 24146, -202372, -197542, 155566, 123192, -319065, 206692, -49964, 77571, -206299, -130978, 240293, 60671, 18552, 268297, -188909, 241986, 200976, -470734, -381511, -321973, 248597, 251203, 235618, 216337, 170954, -375422, -148902, -429964, 184627, -401584, -402029, 173084, 48698, -121699, -65200, -270708, 78287, -6511, 127178, -452392, -184699, -248132, 153657, 308173, -280267, -39667, -142123, 14602, -198283, -346910, -292363, -199395, 88388, 288827, 52099, -483068, -103175, -387403, -10654, -396466, 303369, -91350, -145100, 110937, -140474, 220145, -310789, 226115, 238705, -429873, 154598, 210766, -7049, 204388, -351637, -513079, -428072, 223303, 91218, 177048, -453184, 120842, 229091, 194072, -196303, -245906, -352690, -196735, -29730, -204026, -425468, 90780, -110231, -300746, -363129, -190634, 213908, 190480, 215086, -320622, -257872, 228924, -194792, -333746, 229951, -219941, -291674, -231998, -138323, -395705, 167329, -268386, -346239, 81794, 172199, 275896, 252449, 191617, 221489, 140250, -103315, 168160, -48533, -252434, 131167, 196227, 185549, 187866, 182171, 22712, 221284, -387073, -74511, -165144, -498001, -173423, -270308, -303230, 144404, -168494, -117800, 223557, 11808, -380392, 176432, 215155, 287607, -108168, 199145, -246714, 244194, 169069, -321112, 99848, -311722, -306759, 254667, 237034, -299593, 191779, -169315, 258388, -253755, -147883, 255657, 227634, -132209, -186089, -322215, -80831, 30973, 253153, -140696, -298241, 255726, -71473, -235181, -87834, -218009, 143866, 356363, -506305, -163367, 324493, -216867, -366704, 294704, 13434, -109098, -161599, -255779, -342704, -308180, -130847, -225798, -210799, 160125, -314950, 227514, -286717, -329880, 259108, -142498, 255626, -198742, 212053, 190755, -47582, -191521, -431808, -48292, 58838, 61999, 270925, -240277, 207866, 293127, 276816, -172191, -31502, -114733, -87566, 4698, -222058, -210397, 212977, -136092, -514103, -43096, -17574, -391258, -262360, -146668, 188047, 155359, 258004, -70050, -108909, -267447, -86876, -124457, -260183, -420495, 180770, -20287, 297762, -224706, -37208, 295471, 160653, -354478, 83410, -165909, -208836, -219889, -547085, 159383, 170933, -341506, -280806, -444721, 183611, 158810, -22306, -121415, 182247, 71024, 32021, 186465, 175761, -97091, 112105, -49400, 316780, -92805, -248975, -326073, 44704, 112120, -339470, -98062, 282075, -333364, -294788, 204002, -122906, -245223, 253642, 286754, 263393, -379217, 220105, -265954, -112513, -17609, -70105, -129688, 268517, -329508, 209407, -124870, 239187, 60356, 202362, 271516, -402652, -154552, -256360, 136767, 180912, -596833, 166353, -25627, 189514, 120429, -437388, 133370, -211772, 138410, 139005, -290195, 124338, 168020, -368085, -216511, -93557, -20185, -59683, -384755, 13566, -378393, 13692, -333490, -42005, 174765, -180602, 118363, 180488, 15299, -234671, 236472, 181610, -329338, 237864, -227014, 110971, 145056, -73882, -345651, 289491, 75151, -116631, 180476, 244431, -52711, -286290, -368312, 153037, -37215, -407396, 38899, -334773, -66260, 179679, 223925, -294743, 121733, -232368, -119588, -531926, -177500, 164092, -366889, -352507, -127, 153501, -90687, 189170, -294609, -191121, 165834, 193078, 133341, 87648, 256795, -283453, 192945, -390573, 32515, -141344, 76692, -244583, -66748, 184577, 255572, -39990, -155664, -364633, 133739, -7954, 301076, -353363, 200593, -320941, -439429, 194013, -142288, -5227, -224681, -229752, -236517, 157918, -2700, 231619, 165100, -103816, 261850, 252628, 166958, 267093, -52793, -233876, -46399, -266592, 108045, -295714, -211874, 251205, -106318, -109723, -127354, -403728, -144899, -60595, 129428, 166277, -108392, 276869, -441271, 239889, -126726, -156271, -337698, 67664, -289853, -255746, -17977, -437877, 77877, -282614, 76351, -449538, 26313, -221004, -343162, -138016, 39161, 80882, 37570, -103958, 11149, 207146, 165634, 160070, -368240, -177916, -262796, 30348, -235251, -258615, 196519, 119140, -288069, -143020, -93050, -116164, -172085, 199768, -172679, 69321, 262312, 191594, -154779, -38812, -325796, -23871, -245642, -64205, 288442, 272943, -182977, 263077, -379915, -481690, -267901, -123146, -40783, -57622, -450611, -249663, -444737, 249060, 326601, -301220, 294387, 50239, -126804, 236388, -243272, 257950, -353410, -57438, -180289, -401779, -94845, 98765, -444608, -216441, 222312, -376504, 279456, 249753, -352941, -62010, 200658, 232409, 172901, 198780, -304722, 128708, -11080, -284035, 73399, -382852, -361478, -347134, -320127, 82896, 109190, 227780, 223663, -175653, 180321, 94456, -252175, -211781, -257974, 69187, 225849, -605082, -110656, -256696, -386351, -123870, -123320, -152302, 213955, -240099, 207077, 202340, -27736, -449081, 245579, 219298, 211332, -261362, -114445, -530197, -20072, -59749, -161036, -337896, -319220, 197475, -31357, 116783, 202054, 112906, -181373, 199483, -334010, -302310, -251926, -438316, -211196, 137186, 184532, -462947, -48782, 228265, 226322, -207558, -37330, -152043, 259742, 136915, -255508, -310270, 306218, -128885, -107615, -321550, -210441, -212967, 280410, 201584, -145431, -292120, 40501, -308954, -272697, 250896, 15226, 205231, -392550, 196605, -55245, 185323, -151337, 251199, -124778, 214475, -258085, -7749, -497563, 245284, 216498, 205405, 195882, -237345, 135011, -13365, -426695, -45875, -23671, 278424, -371753, 288606, 246141, -286047, -325756, -313599, -166785, -309690, 190658, -70295, -147879, -447945, -2164, -48315, -339235, -365318, 88844, -255810, -410601, -440966, 158371, -85332, -51753, -406079, 207693, -8617, 235537, -449846, 145095, -271897, 127305, 236692, 249621, 11832, 202065, 151367, -106825, -163364, 234895, 227501, -390670, -392941, -141195, 129911, 101932, 227757, -396199, -100594, 114389, -404282, 155676, -208749, 317865, -135115, 34532, -70473, -95813, 315487, -244081, 254983, -261709, 154089, -211693, 238067, -259670, 188053, 320518, -212248, -324929, 81304, 289450, 96528, -83488, 183315, -68171, -420780, -47352, -194108, -320709, 235334, -83465, -137815, -286035, -401151, -29291, 260057, 275295, 244893, 134556, 204799, 110951, 1728, -70880, 44486, -100587, -49420, 57874, 179838, -93737, 64202, -16795, -179741, 11686, -28135, 94524, 252319, 63332, -140083, -218022}; 


static weights_biases_t dense_weights_five[1102] = {186011, -101399, 259810, -182276, -356703, 260843, -177480, -189127, -306821, 272178, 246371, 295420, 222004, -118214, -92515, 55930, -21146, -54134, 90798, 140551, 235372, -132678, -23946, -369799, 215088, 230606, -408318, -492468, 195116, -271576, -143683, 173634, -468407, -156582, -200279, -430377, 218968, 190040, -210915, -436522, 282840, 202651, 188634, -78449, -463623, 182243, 73810, -290605, -147942, 74461, 225864, -284558, -489388, 242781, 214887, -23351, 49426, -147468, -189114, -223585, 210260, -42108, -269474, 215701, 211063, -515862, -269151, -190492, 106350, -138511, 51415, -321942, -23069, 293775, 78815, 209136, -375191, -42201, 145081, -447229, -421946, -236716, 13480, 70622, -344162, 137661, -394307, 134603, -15517, -484461, -471979, -329031, 150604, 166969, 147530, 47663, -244703, -462496, 209197, 6374, -214387, 167413, 227446, -218193, 84652, -494834, -129774, -415131, 218228, 142416, -192948, -438851, 217497, -331496, -89987, -312791, -476929, -14548, 189526, -338884, -432666, 175707, 190656, 152608, -67570, 94614, -439333, 146004, -15618, -425557, -279572, -295534, -819786, 25387, 159095, -405369, 95205, 226116, -636626, 103852, 218373, -50561, 212878, 73256, -59192, 68709, -427620, -659616, -430857, -279719, -578881, -556335, -398340, -95501, -76519, 180813, -28735, 131249, 108971, 197520, -239867, -375152, 29780, 120332, -506045, -418556, 79310, -172281, 83704, -361015, -189387, -131385, 236493, 107384, 175132, 286956, 255794, 261314, -140475, -33145, 94603, -211660, 297225, 252487, 201472, 71687, -503917, -486937, 109145, -456746, 328012, -43090, -318840, -16731, -208884, -374599, -461408, 269229, 329577, 312808, 181547, 120338, -223661, -132782, 191047, -355220, -12526, -258244, 74638, 205091, 200976, 123836, 3347, -329355, 216984, -515143, -37055, 261463, 192743, -102213, 202915, -256890, -449095, 75179, -386602, -500558, 227624, 201601, -403716, -397520, 208707, -311476, 253811, -354356, 136129, -266243, 63967, -20127, 241834, -166968, -240504, 231877, -27251, -107129, 85218, -446364, -426600, -118303, 222799, 359703, -274379, 196395, -20638, 75318, -103262, 152300, -61801, -26727, -399671, -152102, -122116, -325695, 288587, 168287, 163923, -238296, -123255, 201094, -415253, -67821, -261873, -405941, 185607, -445919, 15772, 71977, 218186, -382415, 167842, -107074, 133856, 128394, 132431, -9590, -158223, -374714, 194600, 172322, 11748, 190247, 198769, 111612, -446607, -365320, -179688, 150842, 220848, 187951, 159757, 196870, -393507, -42248, -389011, 154715, -296665, -144803, -160458, -114321, -277326, -229822, -195756, -7462, -88193, 66213, 235638, -180097, -528812, 259274, 218244, 285290, 259831, -73298, -381227, -247394, -391778, 216087, -285153, -338679, -179234, -346427, -289045, 47585, 68699, -211702, 232015, -380867, -447146, 231757, 241159, 231313, 239771, -84283, 340238, 140441, 1285, 76874, -437543, 94227, -77266, -172219, 360961, -165523, 366079, -158150, -54378, -519490, -395573, -15050, 4786, 165098, 83049, 202966, 238033, -162281, 61867, -397555, 41914, 245019, 134121, -177456, -321532, -218694, 114451, -303813, 233016, 85628, -378172, -175058, -308222, 297642, 141861, 229009, -406252, 241033, -517891, 224910, -224221, 90681, -311087, -100507, -385140, -16021, -39928, -315632, -301953, 230913, -360729, -43275, 213909, -3581, -365718, -329313, 162511, 214377, -170555, -183772, -124744, 192753, -282978, -478182, -155577, -530381, 297550, 274005, -191504, -319323, -5739, -54186, -506084, 168620, -183743, 178742, -11718, -51748, -225679, 150512, -280532, 108458, -592650, 212457, -498789, 152102, -271755, -184114, 164904, -56545, 18949, -242702, 112814, -96282, -321471, 233323, -394476, 69020, 271109, 90717, 192200, 161015, -336862, -239290, 233998, -90334, 140153, 178614, 201082, -212375, -182673, 51495, 199466, 205315, 266858, -408841, -194157, -195840, 272472, -415062, 208840, 228682, 224885, -455232, 164273, -28355, -212246, -359848, -105409, -231531, -433082, 170892, -536564, 205645, -543554, 154649, 142538, -314784, 128485, 249500, -170310, -309047, 150966, -208299, -101346, 250352, 109424, -474705, 138849, 52108, -416782, 69221, -24086, 183583, 164241, -450312, 13317, -512471, 13506, -41026, -387667, 208795, 209452, -3758, -569093, 179315, 34968, 181002, -269237, 160032, -326737, -189047, 163501, -505499, -436072, 162163, -517411, 112741, -455901, 125923, 152743, 124676, 207451, -444712, -114479, -295091, 231603, 51834, 124741, 107385, 140863, -76716, 150934, 181041, -410836, 127625, 79250, -529889, 211259, -339384, 125485, 15088, -341633, -318217, -58462, -56491, -343337, 271329, 189232, 208592, 129024, 188906, -328440, 229903, -279512, 233126, 59162, 250691, 104058, -517570, 101342, -175882, 61733, -84654, -182734, -146042, -175538, -194439, -293284, -129522, 43588, 272773, -224255, 178242, -90543, 162589, -316842, 106708, 265379, -397737, -277324, -310792, 67714, 71901, 249733, -281067, 241066, -121502, 216848, -25025, -8091, -395464, -293754, -347419, 251901, 244982, 101801, -383098, -194948, -242008, 211502, 208636, -190713, -146413, -140093, 5213, -548746, -313071, -56941, -358119, -146842, -369019, 273062, 104728, 202817, 34770, -118069, 260883, 200010, 242134, 246426, 233942, -58633, -21512, 235038, 154246, -125029, 192171, 233002, -354835, -237630, -88712, -331537, -181773, -41816, 287828, 222730, 303493, -428915, 303136, -398345, -218774, 105090, -378132, -368318, 167163, -138240, -627202, -470175, -418854, 14270, 163948, -242598, 111282, 107338, -178356, 160732, 147731, 114466, -174317, -327913, -612816, -146382, 186730, -263834, 188926, -268166, 165962, -165564, 183528, 114193, 82892, -271805, -186120, -492590, -51614, -76496, 132198, -268172, -342637, -31906, -310583, -271997, 291146, -430465, 27531, 53227, -34154, -443812, 98394, 218329, 65805, -214840, 321602, -250351, -364108, -295352, 301170, -96802, 42599, 6918, -220179, 214774, -219010, 166856, 361835, 263998, -306844, 100816, 269739, 297059, -21415, -115371, -602227, -159620, -496002, 76260, 48148, -567816, 93517, 89273, -274305, 100541, 49698, 67502, -89349, 91594, -101988, 72832, -414938, -400197, -10520, -452016, -395604, -484590, -667824, 210836, -291776, 209618, 86742, 53103, -101494, -188001, -221052, -338387, 503, 208181, -318568, -272307, 38075, -70200, -77700, -206047, -463685, -530848, -57692, 26366, -514098, -119079, -22518, 49088, -172345, -645754, 42493, -226556, 4134, -267033, -494662, -314551, -594899, 38132, 57980, 34739, -234419, 276334, -240188, 198417, 87784, 221479, -112, -14404, 136006, 251681, 227537, -272491, -86687, -421138, -169105, 208859, -318507, -399454, 302039, 215351, -13701, 134609, -194341, -499077, 233524, -424317, -108281, -552546, 42677, -57819, -394983, -521664, 146771, 210177, 240546, 199987, -485831, 46340, 191858, -243629, 212212, -396320, -62988, 162832, 236643, -310078, 60611, 21298, -306760, -348359, 257559, -188182, 212179, 217154, 148733, 256232, 196624, -36036, -578519, 224456, -729481, -406434, -137233, -428762, -262478, 222924, 157999, 25687, -74458, 145968, -380637, 42219, -202710, 203053, 171613, 200921, 156271, 76240, -312368, -356676, -415574, -278114, -323642, 58880, -373782, 186660, -226734, -434407, -172383, 55192, -398711, -310042, -61357, 67460, -166952, 249120, 227035, -206535, -401495, -141536, 74860, -71663, 166140, -271130, 293478, 292346, -435252, 8279, 26216, 16712, 182891, 291771, -402184, 248921, -367171, 256720, 38916, 263789, -194147, -144433, -321703, 64439, 209963, -442423, 18977, -137459, -487815, 302863, 252198, -269268, -252891, -253225, -8420, 133639, -463365, 117056, -622321, -277470, -167020, 140463, -320698, -151831, -202597, 92132, 87757, 182459, -416180, -478988, -75021, -181992, 132943, -301072, 189441, 181707, -370045, -69933, -200403, -374104, 207173, -274565, 234823, 102113, 245862, 87118, 251162, -556343, 161576, 223597, -8020, 157662, -151936, -160372, 94071, -216305, -113429, -26385, -290427, 242314, 103031, -349484, -270282, -227534, 15026, 299297, 136770, -304089, -82804, -63637, -40733, 208757, -58924, -169326, -365162, 173442, 188265, -54734, 136814, 158068, 106288, -247294, -512567, -130035, 83043, -289116, 51295, -183187, -617248, 150461, -298497, 314567, -459114, -338588, 58240, -28771, 266966, -377525, -370821, 313087, -12080, -87796, -71706, -501244, -169460, 157957, 329612, 127347, 130904, -331081, -108074, -568461, 254931, -312867, -412487, -221428, -576809, 72513, 104972, -181788, -302226, 176317, 43743, 161340, 158128, -188649, 65555, 253740, -76933, -4819, -3091, -131169, -47969, -352005, 45957, -639427, -649273, -17934, -509151, -505956, -52633, -238596, 72360, 67937, 68375, -269460, -299358, 18309, -241030, 103322, -317059, 252462, 251973, -71709, -212971, 266346, -213122, 225563, -719461, 194593, -197935, 95495, -432856, -373451, 194769, -155769, 204538, -160356, 176722, -189920, -143792, -179409, 141336, 205873, -319696, -311872, 229103, 219706, 89395, -286593, 4719, -408996, -184878, -151382, -222068, -246413, -51036, -27456, 124636, -120669, 67616, -56776, 58354, 46222, -135834, -43394, 67848, 76428, -59770, -97708, 308779, -7, -89336, -55061, -129743}; 

// dense layer function declaration
void dense_layer_one(
	hls::stream<result_t>& input,  // pointer to the input data for the current layer
	hls::stream<result_t>& output // poimter to the output buffer for resulting data
);

// dense layer function declaration
void dense_layer_two(
	hls::stream<result_t>& input,  // pointer to the input data for the current layer
	hls::stream<result_t>& output // poimter to the output buffer for resulting data
);

// dense layer function declaration
void dense_layer_three(
	hls::stream<result_t>& input,  // pointer to the input data for the current layer
	hls::stream<result_t>& output // poimter to the output buffer for resulting data
);

// dense layer function declaration
void dense_layer_four(
	hls::stream<result_t>& input,  // pointer to the input data for the current layer
	hls::stream<result_t>& output // poimter to the output buffer for resulting data
);

// dense layer function declaration
void dense_layer_five(
	hls::stream<result_t>& input,  // pointer to the input data for the current layer
	hls::stream<result_t>& output // poimter to the output buffer for resulting data
);

#endif // !DENSE_LAYER_H